FANN_FLO_2.1
num_layers=5
learning_rate=0.700000
connection_rate=1.000000
network_type=0
learning_momentum=0.000000
training_algorithm=2
train_error_function=0
train_stop_function=0
cascade_output_change_fraction=0.010000
quickprop_decay=1485.422119
quickprop_mu=1.750000
rprop_increase_factor=1.200000
rprop_decrease_factor=0.500000
rprop_delta_min=0.000000
rprop_delta_max=50.000000
rprop_delta_zero=0.100000
cascade_output_stagnation_epochs=12
cascade_candidate_change_fraction=0.010000
cascade_candidate_stagnation_epochs=12
cascade_max_out_epochs=150
cascade_min_out_epochs=50
cascade_max_cand_epochs=150
cascade_min_cand_epochs=50
cascade_num_candidate_groups=2
bit_fail_limit=3.49999994039535522461e-01
cascade_candidate_limit=1.00000000000000000000e+03
cascade_weight_multiplier=4.00000005960464477539e-01
cascade_activation_functions_count=10
cascade_activation_functions=3 5 7 8 10 11 14 15 16 17
cascade_activation_steepnesses_count=4
cascade_activation_steepnesses=2.50000000000000000000e-01 5.00000000000000000000e-01 7.50000000000000000000e-01 1.00000000000000000000e+00
layer_sizes=6 31 31 31 13
scale_included=1
scale_mean_in=0.723941 -0.924910 5.043399 0.187140 4.874583
scale_deviation_in=0.174965 1.666062 2.701563 0.102613 2.733964
scale_new_min_in=-1.000000 -1.000000 -1.000000 -1.000000 -1.000000
scale_factor_in=1.000000 1.000000 1.000000 1.000000 1.000000
scale_mean_out=0.042672 0.823996 0.372164 0.179933 1.302366 0.326570 0.321204 0.811557 0.405299 0.321204 1.927226 0.391245
scale_deviation_out=0.210289 0.704777 0.206116 0.332142 1.206920 0.218257 0.289455 0.824155 0.201207 0.289455 1.736733 0.228828
scale_new_min_out=-1.000000 -1.000000 -1.000000 -1.000000 -1.000000 -1.000000 -1.000000 -1.000000 -1.000000 -1.000000 -1.000000 -1.000000
scale_factor_out=1.000000 1.000000 1.000000 1.000000 1.000000 1.000000 1.000000 1.000000 1.000000 1.000000 1.000000 1.000000
neurons (num_inputs, activation_function, activation_steepness)=(0, 0, 0.00000000000000000000e+00) (0, 0, 0.00000000000000000000e+00) (0, 0, 0.00000000000000000000e+00) (0, 0, 0.00000000000000000000e+00) (0, 0, 0.00000000000000000000e+00) (0, 0, 0.00000000000000000000e+00) (6, 5, 5.00000000000000000000e-01) (6, 5, 5.00000000000000000000e-01) (6, 5, 5.00000000000000000000e-01) (6, 5, 5.00000000000000000000e-01) (6, 5, 5.00000000000000000000e-01) (6, 5, 5.00000000000000000000e-01) (6, 5, 5.00000000000000000000e-01) (6, 5, 5.00000000000000000000e-01) (6, 5, 5.00000000000000000000e-01) (6, 5, 5.00000000000000000000e-01) (6, 5, 5.00000000000000000000e-01) (6, 5, 5.00000000000000000000e-01) (6, 5, 5.00000000000000000000e-01) (6, 5, 5.00000000000000000000e-01) (6, 5, 5.00000000000000000000e-01) (6, 5, 5.00000000000000000000e-01) (6, 5, 5.00000000000000000000e-01) (6, 5, 5.00000000000000000000e-01) (6, 5, 5.00000000000000000000e-01) (6, 5, 5.00000000000000000000e-01) (6, 5, 5.00000000000000000000e-01) (6, 5, 5.00000000000000000000e-01) (6, 5, 5.00000000000000000000e-01) (6, 5, 5.00000000000000000000e-01) (6, 5, 5.00000000000000000000e-01) (6, 5, 5.00000000000000000000e-01) (6, 5, 5.00000000000000000000e-01) (6, 5, 5.00000000000000000000e-01) (6, 5, 5.00000000000000000000e-01) (6, 5, 5.00000000000000000000e-01) (0, 5, 0.00000000000000000000e+00) (31, 5, 5.00000000000000000000e-01) (31, 5, 5.00000000000000000000e-01) (31, 5, 5.00000000000000000000e-01) (31, 5, 5.00000000000000000000e-01) (31, 5, 5.00000000000000000000e-01) (31, 5, 5.00000000000000000000e-01) (31, 5, 5.00000000000000000000e-01) (31, 5, 5.00000000000000000000e-01) (31, 5, 5.00000000000000000000e-01) (31, 5, 5.00000000000000000000e-01) (31, 5, 5.00000000000000000000e-01) (31, 5, 5.00000000000000000000e-01) (31, 5, 5.00000000000000000000e-01) (31, 5, 5.00000000000000000000e-01) (31, 5, 5.00000000000000000000e-01) (31, 5, 5.00000000000000000000e-01) (31, 5, 5.00000000000000000000e-01) (31, 5, 5.00000000000000000000e-01) (31, 5, 5.00000000000000000000e-01) (31, 5, 5.00000000000000000000e-01) (31, 5, 5.00000000000000000000e-01) (31, 5, 5.00000000000000000000e-01) (31, 5, 5.00000000000000000000e-01) (31, 5, 5.00000000000000000000e-01) (31, 5, 5.00000000000000000000e-01) (31, 5, 5.00000000000000000000e-01) (31, 5, 5.00000000000000000000e-01) (31, 5, 5.00000000000000000000e-01) (31, 5, 5.00000000000000000000e-01) (31, 5, 5.00000000000000000000e-01) (0, 5, 0.00000000000000000000e+00) (31, 5, 5.00000000000000000000e-01) (31, 5, 5.00000000000000000000e-01) (31, 5, 5.00000000000000000000e-01) (31, 5, 5.00000000000000000000e-01) (31, 5, 5.00000000000000000000e-01) (31, 5, 5.00000000000000000000e-01) (31, 5, 5.00000000000000000000e-01) (31, 5, 5.00000000000000000000e-01) (31, 5, 5.00000000000000000000e-01) (31, 5, 5.00000000000000000000e-01) (31, 5, 5.00000000000000000000e-01) (31, 5, 5.00000000000000000000e-01) (31, 5, 5.00000000000000000000e-01) (31, 5, 5.00000000000000000000e-01) (31, 5, 5.00000000000000000000e-01) (31, 5, 5.00000000000000000000e-01) (31, 5, 5.00000000000000000000e-01) (31, 5, 5.00000000000000000000e-01) (31, 5, 5.00000000000000000000e-01) (31, 5, 5.00000000000000000000e-01) (31, 5, 5.00000000000000000000e-01) (31, 5, 5.00000000000000000000e-01) (31, 5, 5.00000000000000000000e-01) (31, 5, 5.00000000000000000000e-01) (31, 5, 5.00000000000000000000e-01) (31, 5, 5.00000000000000000000e-01) (31, 5, 5.00000000000000000000e-01) (31, 5, 5.00000000000000000000e-01) (31, 5, 5.00000000000000000000e-01) (31, 5, 5.00000000000000000000e-01) (0, 5, 0.00000000000000000000e+00) (31, 0, 5.00000000000000000000e-01) (31, 0, 5.00000000000000000000e-01) (31, 0, 5.00000000000000000000e-01) (31, 0, 5.00000000000000000000e-01) (31, 0, 5.00000000000000000000e-01) (31, 0, 5.00000000000000000000e-01) (31, 0, 5.00000000000000000000e-01) (31, 0, 5.00000000000000000000e-01) (31, 0, 5.00000000000000000000e-01) (31, 0, 5.00000000000000000000e-01) (31, 0, 5.00000000000000000000e-01) (31, 0, 5.00000000000000000000e-01) (0, 0, 0.00000000000000000000e+00)
connections (connected_to_neuron, weight)=(0, 7.36601650714874267578e-02) (1, -2.49053180217742919922e-01) (2, -8.43094512820243835449e-02) (3, -9.07559752464294433594e-01) (4, 6.05139136314392089844e-01) (5, 7.65814363956451416016e-01) (0, 5.85621893405914306641e-01) (1, 1.63168430328369140625e-01) (2, -8.35069082677364349365e-03) (3, -3.70095044374465942383e-01) (4, -7.19340503215789794922e-01) (5, -7.02561616897583007812e-01) (0, 3.16213160753250122070e-01) (1, 1.59943014383316040039e-01) (2, 1.13696925342082977295e-01) (3, -1.31232345104217529297e+00) (4, -5.37265324965119361877e-03) (5, 1.23549854755401611328e+00) (0, -5.80856623128056526184e-03) (1, 1.02718245983123779297e+00) (2, 5.16195952892303466797e-01) (3, 2.30543375015258789062e-01) (4, -6.38622194528579711914e-02) (5, 8.33334401249885559082e-02) (0, 4.11000519990921020508e-01) (1, 8.36238384246826171875e-01) (2, 2.39579394459724426270e-01) (3, -6.72729492187500000000e-01) (4, 4.35065031051635742188e-01) (5, -6.66104614734649658203e-01) (0, 4.72505420446395874023e-01) (1, 1.40634015202522277832e-01) (2, -6.85809180140495300293e-02) (3, -4.61462378501892089844e-01) (4, 6.08664572238922119141e-01) (5, -7.03307151794433593750e-01) (0, 6.00754618644714355469e-01) (1, -6.55454516410827636719e-01) (2, -1.41381531953811645508e-01) (3, 2.34389543533325195312e-01) (4, 3.23630928993225097656e-01) (5, 1.09717702865600585938e+00) (0, -3.46329137682914733887e-02) (1, 9.57790493965148925781e-01) (2, 1.53563022613525390625e-01) (3, -5.76635181903839111328e-01) (4, 6.39289975166320800781e-01) (5, 1.05374622344970703125e+00) (0, 7.07119405269622802734e-02) (1, 3.93175393342971801758e-01) (2, -3.30222025513648986816e-02) (3, 7.69053995609283447266e-01) (4, 1.60754427313804626465e-01) (5, 1.12108850479125976562e+00) (0, 2.07674838602542877197e-02) (1, 1.54890525341033935547e+00) (2, 2.76350259780883789062e-01) (3, -3.64172399044036865234e-01) (4, -2.19925612211227416992e-01) (5, -1.11938297748565673828e+00) (0, -9.36340726912021636963e-03) (1, -9.13655936717987060547e-01) (2, -5.06540462374687194824e-02) (3, 6.70528769493103027344e-01) (4, 1.75875917077064514160e-01) (5, -4.53631937503814697266e-01) (0, -1.63068145513534545898e-01) (1, 2.09343105554580688477e-01) (2, -5.68270981311798095703e-02) (3, -3.86423319578170776367e-02) (4, 5.71217000484466552734e-01) (5, 3.64359259605407714844e-01) (0, -3.14576894044876098633e-01) (1, -6.21844492852687835693e-02) (2, 2.15525254607200622559e-01) (3, 5.51860570907592773438e-01) (4, 4.76635247468948364258e-01) (5, 7.26245939731597900391e-01) (0, -8.21283087134361267090e-02) (1, 4.94040489196777343750e-01) (2, 6.37272894382476806641e-01) (3, -2.36367940902709960938e-01) (4, -1.68466642498970031738e-01) (5, 1.26617872714996337891e+00) (0, -4.69046324491500854492e-01) (1, 1.51425674557685852051e-01) (2, 2.53593400120735168457e-02) (3, -4.76458549499511718750e-01) (4, 5.22489249706268310547e-01) (5, 1.03777599334716796875e+00) (0, 5.77090620994567871094e-01) (1, -1.33833873271942138672e+00) (2, 1.17198517546057701111e-02) (3, 1.01394331455230712891e+00) (4, 4.43818300962448120117e-01) (5, -6.30422532558441162109e-02) (0, -2.97695267945528030396e-02) (1, 6.41234040260314941406e-01) (2, -3.36194806732237339020e-03) (3, 4.72686707973480224609e-01) (4, -2.19670787453651428223e-01) (5, 1.49196219444274902344e+00) (0, -1.60520151257514953613e-01) (1, -8.54362666606903076172e-01) (2, -1.93966194987297058105e-01) (3, -3.72611224651336669922e-01) (4, -2.23670631647109985352e-01) (5, 1.33647060394287109375e+00) (0, -1.41898587346076965332e-01) (1, 1.03003525733947753906e+00) (2, 1.18567489087581634521e-01) (3, 6.79593026638031005859e-01) (4, 3.84339690208435058594e-01) (5, 5.21195352077484130859e-01) (0, 4.04228180646896362305e-01) (1, 2.89543271064758300781e-01) (2, -3.37049625813961029053e-02) (3, -2.44223639369010925293e-01) (4, 8.54934379458427429199e-02) (5, 1.16434907913208007812e+00) (0, -1.63025438785552978516e-01) (1, 2.10386916995048522949e-01) (2, 5.16738772392272949219e-01) (3, -2.41196721792221069336e-01) (4, 1.13564439117908477783e-01) (5, 8.17954242229461669922e-01) (0, 1.50955840945243835449e-01) (1, -3.46380293369293212891e-01) (2, -1.16529211401939392090e-01) (3, -9.23384606838226318359e-01) (4, -2.06102043390274047852e-01) (5, -6.74896240234375000000e-01) (0, -3.43755394220352172852e-01) (1, 1.17540657520294189453e+00) (2, 2.58595764636993408203e-01) (3, -6.54862642288208007812e-01) (4, 6.23946666717529296875e-01) (5, 3.72079133987426757812e-01) (0, -1.39975994825363159180e-01) (1, 1.99257874488830566406e+00) (2, 3.54238599538803100586e-01) (3, 8.07039365172386169434e-02) (4, 2.71681398153305053711e-01) (5, 1.19329714775085449219e+00) (0, -2.64980822801589965820e-01) (1, 3.60888659954071044922e-01) (2, 3.86999957263469696045e-02) (3, -1.05895662307739257812e+00) (4, -8.42056155204772949219e-01) (5, -5.93758165836334228516e-01) (0, 2.94777393341064453125e-01) (1, -3.61580103635787963867e-01) (2, 5.53108751773834228516e-01) (3, 1.28673151135444641113e-01) (4, -1.20921395719051361084e-01) (5, -6.93665266036987304688e-01) (0, -1.41305252909660339355e-01) (1, 4.12762612104415893555e-02) (2, 3.04926652461290359497e-02) (3, -8.86452317237854003906e-01) (4, 6.63103997707366943359e-01) (5, 9.05995190143585205078e-01) (0, -1.28057926893234252930e-01) (1, 1.48582887649536132812e+00) (2, 3.78446012735366821289e-01) (3, -4.51444983482360839844e-01) (4, 6.22372375801205635071e-03) (5, -4.97168242931365966797e-01) (0, -1.55925884842872619629e-01) (1, 1.36445367336273193359e+00) (2, -1.10571300983428955078e+00) (3, 5.69933205842971801758e-02) (4, 5.05696162581443786621e-02) (5, 5.08923036977648735046e-03) (0, -8.17303285002708435059e-02) (1, 1.59475013613700866699e-01) (2, -3.80855426192283630371e-02) (3, -5.72902619838714599609e-01) (4, -3.64962428808212280273e-01) (5, 1.41532611846923828125e+00) (6, -8.46066296100616455078e-01) (7, 1.66119500994682312012e-01) (8, -1.43941688537597656250e+00) (9, 6.92769408226013183594e-01) (10, -5.69644033908843994141e-01) (11, 1.02456271648406982422e+00) (12, -1.15435993671417236328e+00) (13, -9.48416218161582946777e-02) (14, -2.61764317750930786133e-01) (15, 4.71751727163791656494e-02) (16, 1.27274796366691589355e-01) (17, -1.14729619026184082031e+00) (18, -3.55248719453811645508e-01) (19, 4.84643816947937011719e-01) (20, 7.73584127426147460938e-01) (21, 4.77642603218555450439e-02) (22, -2.82948374748229980469e-01) (23, 1.19861233234405517578e+00) (24, -4.88469272851943969727e-01) (25, 1.08295202255249023438e+00) (26, 1.38151690363883972168e-01) (27, 1.11522567272186279297e+00) (28, 1.03888952732086181641e+00) (29, -3.24465781450271606445e-01) (30, 9.45837438106536865234e-01) (31, 1.45449042320251464844e-01) (32, 2.04973533749580383301e-01) (33, -7.32169389724731445312e-01) (34, 1.42172679305076599121e-01) (35, 1.17124056816101074219e+00) (36, 9.35829460620880126953e-01) (6, 1.09848678112030029297e+00) (7, 2.01932191848754882812e+00) (8, -2.06806564331054687500e+00) (9, -3.63937407732009887695e-01) (10, -9.37418818473815917969e-01) (11, 9.89921510219573974609e-01) (12, 7.26213276386260986328e-01) (13, 1.14198744297027587891e+00) (14, 4.03474755585193634033e-02) (15, -1.54999530315399169922e+00) (16, 3.74167889356613159180e-01) (17, -3.59671592712402343750e-01) (18, 2.31097012758255004883e-01) (19, 5.64671039581298828125e-01) (20, 1.05937765911221504211e-02) (21, 1.42142474651336669922e+00) (22, 1.15242898464202880859e+00) (23, 1.03516988754272460938e+01) (24, 7.95235216617584228516e-01) (25, 5.70404715836048126221e-02) (26, 9.82863381505012512207e-02) (27, 4.63034749031066894531e-01) (28, 8.43772709369659423828e-01) (29, 1.12172544002532958984e+00) (30, -1.65989029407501220703e+00) (31, 1.57500028610229492188e-01) (32, 1.91277742385864257812e-01) (33, -5.01651227474212646484e-01) (34, -1.24993157386779785156e+00) (35, -8.16036224365234375000e-01) (36, 1.53667330741882324219e+00) (6, -8.09023201465606689453e-01) (7, 3.61908435821533203125e-01) (8, -1.80632919073104858398e-01) (9, 1.00110697746276855469e+00) (10, -7.26273715496063232422e-01) (11, -1.23123192787170410156e+00) (12, 1.23336982727050781250e+00) (13, 5.24985253810882568359e-01) (14, 6.00007414817810058594e-01) (15, -8.00009727478027343750e-01) (16, 1.48995554447174072266e+00) (17, 6.25819385051727294922e-01) (18, -2.16818213462829589844e-01) (19, 1.17442801594734191895e-01) (20, -2.47503798454999923706e-02) (21, 7.29598850011825561523e-02) (22, 2.03243207931518554688e+00) (23, 2.44056344032287597656e-01) (24, 1.18505823612213134766e+00) (25, -4.71230030059814453125e-01) (26, -6.61834776401519775391e-01) (27, 7.02686667442321777344e-01) (28, 1.57467275857925415039e-01) (29, 1.45301973819732666016e+00) (30, -5.90459764003753662109e-01) (31, 2.52748578786849975586e-01) (32, 8.84996175765991210938e-01) (33, -2.38361525535583496094e+00) (34, -3.64327758550643920898e-01) (35, 7.64134228229522705078e-02) (36, -1.98548942804336547852e-01) (6, 9.31570351123809814453e-01) (7, 9.82784986495971679688e-01) (8, -2.87811428308486938477e-01) (9, 7.50376164913177490234e-01) (10, -8.52432548999786376953e-01) (11, -1.17941915988922119141e-01) (12, -3.52682322263717651367e-02) (13, 3.99458467960357666016e-01) (14, -5.29909193515777587891e-01) (15, 1.89692580699920654297e+00) (16, 8.62536489963531494141e-01) (17, 1.41344738006591796875e+00) (18, 4.85763013362884521484e-01) (19, -1.76821500062942504883e-01) (20, -3.19678634405136108398e-01) (21, -3.16105097532272338867e-01) (22, -3.34301181137561798096e-02) (23, 3.00962179899215698242e-01) (24, 2.58039802312850952148e-01) (25, 8.84779632091522216797e-01) (26, 7.91338324546813964844e-01) (27, 7.62968957424163818359e-01) (28, -2.16560915112495422363e-01) (29, -4.91618737578392028809e-02) (30, 9.14072155952453613281e-01) (31, -2.56870865821838378906e-01) (32, 1.21363885700702667236e-02) (33, -2.58782118558883666992e-01) (34, 4.54094260931015014648e-02) (35, -2.75945544242858886719e-01) (36, 1.58681154251098632812e-01) (6, 5.20208299160003662109e-01) (7, 1.10545825958251953125e+00) (8, -1.29811072349548339844e+00) (9, 1.05299103260040283203e+00) (10, 1.28193974494934082031e-01) (11, -2.77906328439712524414e-01) (12, 9.13625717163085937500e-01) (13, 1.13769397139549255371e-01) (14, 9.50625777244567871094e-01) (15, 6.30673289299011230469e-01) (16, 2.32839393615722656250e+00) (17, -5.26472330093383789062e-01) (18, -6.72129034996032714844e-01) (19, 2.46380615234375000000e+00) (20, 5.68047106266021728516e-01) (21, 4.38810014724731445312e+00) (22, 8.31646919250488281250e-02) (23, 2.33588218688964843750e+00) (24, -4.52213346958160400391e-01) (25, -1.79927796125411987305e-01) (26, 9.69808578491210937500e+00) (27, -3.32573384046554565430e-01) (28, 9.91817712783813476562e-01) (29, -1.08991384506225585938e+00) (30, -2.94346570968627929688e-01) (31, 5.01605033874511718750e-01) (32, -5.21563470363616943359e-01) (33, 6.00030481815338134766e-01) (34, -2.25470328330993652344e+00) (35, 5.17919063568115234375e+00) (36, 2.18261122703552246094e+00) (6, 4.32056337594985961914e-01) (7, -9.32676970958709716797e-01) (8, 1.22208702564239501953e+00) (9, 6.33470118045806884766e-01) (10, 9.93200182914733886719e-01) (11, 9.26156938076019287109e-01) (12, -1.29662469029426574707e-01) (13, 1.58485874533653259277e-01) (14, 3.35494935512542724609e-01) (15, 1.24947953224182128906e+00) (16, 3.34801554679870605469e-01) (17, -1.15569554269313812256e-01) (18, 2.88977950811386108398e-01) (19, 5.73184229433536529541e-02) (20, -1.02468395233154296875e+00) (21, 5.63613809645175933838e-02) (22, -2.91175901889801025391e-01) (23, 4.41984027624130249023e-01) (24, 1.07775163650512695312e+00) (25, -9.48275774717330932617e-02) (26, -9.98636543750762939453e-01) (27, -5.24473845958709716797e-01) (28, -5.08282065391540527344e-01) (29, -5.03949820995330810547e-01) (30, -5.93220353126525878906e-01) (31, 2.50187993049621582031e-01) (32, -3.32021832466125488281e-01) (33, -1.02416014671325683594e+00) (34, 4.13512364029884338379e-02) (35, 6.18093758821487426758e-02) (36, -8.45800995826721191406e-01) (6, -1.04288828372955322266e+00) (7, 6.06548450887203216553e-02) (8, 3.88307541608810424805e-01) (9, -6.92663490772247314453e-02) (10, -9.03859094250947237015e-04) (11, 1.26848556101322174072e-02) (12, 6.08668386936187744141e-01) (13, -1.21829867362976074219e+00) (14, -4.22444254159927368164e-01) (15, 1.10491335391998291016e+00) (16, 1.94475129246711730957e-01) (17, 3.52493733167648315430e-01) (18, 4.44798886775970458984e-01) (19, 3.51485282182693481445e-01) (20, -5.12225270271301269531e-01) (21, -5.43166875839233398438e-01) (22, 1.58348345756530761719e+00) (23, 8.55816006660461425781e-01) (24, 3.40068578720092773438e-01) (25, 3.36915701627731323242e-01) (26, 9.30048525333404541016e-01) (27, 2.11322641372680664062e+00) (28, 2.10684061050415039062e-01) (29, -5.86059212684631347656e-01) (30, -1.06184475123882293701e-01) (31, -2.46195480227470397949e-01) (32, -2.35156416893005371094e-01) (33, -1.41593456268310546875e-01) (34, -1.42137542366981506348e-01) (35, 1.37436497211456298828e+00) (36, -2.58994191884994506836e-01) (6, -6.18683457374572753906e-01) (7, -3.78895431756973266602e-01) (8, -3.05918008089065551758e-01) (9, -1.55320465564727783203e-01) (10, -1.11158646643161773682e-01) (11, 4.77338075637817382812e-01) (12, 4.80596423149108886719e-01) (13, -6.01300537586212158203e-01) (14, -4.28220331668853759766e-01) (15, 6.36438205838203430176e-02) (16, -2.40421533584594726562e-01) (17, -8.15140843391418457031e-01) (18, 4.69921588897705078125e-01) (19, 8.13238322734832763672e-01) (20, 2.42787182331085205078e-01) (21, -3.55639085173606872559e-02) (22, 4.00062799453735351562e-01) (23, -5.97758710384368896484e-01) (24, 5.04869163036346435547e-01) (25, -4.24025207757949829102e-01) (26, -4.64116215705871582031e-01) (27, 3.98147478699684143066e-02) (28, -5.42618222534656524658e-02) (29, -3.80685985088348388672e-01) (30, 2.40976065397262573242e-01) (31, -6.22657015919685363770e-02) (32, 4.29557234048843383789e-01) (33, 3.78232508897781372070e-01) (34, 5.91719709336757659912e-02) (35, -5.05648970603942871094e-01) (36, -8.57896685600280761719e-01) (6, -8.46153199672698974609e-02) (7, -1.98673829436302185059e-01) (8, -4.75848227739334106445e-01) (9, -5.83431959152221679688e-01) (10, 9.82616484165191650391e-01) (11, 4.72069591283798217773e-01) (12, -4.05670285224914550781e-01) (13, -1.43881833553314208984e+00) (14, 1.28403067588806152344e-01) (15, 1.05132389068603515625e+00) (16, -1.51796936988830566406e-01) (17, 1.40280699729919433594e+00) (18, 9.26028728485107421875e-01) (19, -6.15551210939884185791e-02) (20, -6.46683096885681152344e-01) (21, 8.09299051761627197266e-01) (22, 6.16825699806213378906e-01) (23, -5.24504363536834716797e-01) (24, -2.79117673635482788086e-01) (25, 1.61888137459754943848e-01) (26, -1.54443487524986267090e-01) (27, 9.82604920864105224609e-01) (28, -4.17810142040252685547e-01) (29, 4.86768558621406555176e-02) (30, 1.17928385734558105469e+00) (31, -2.27216392755508422852e-01) (32, -9.64935600757598876953e-01) (33, 7.61339128017425537109e-01) (34, -1.34979382157325744629e-01) (35, 1.72143682837486267090e-01) (36, 8.06276321411132812500e-01) (6, -4.77575480937957763672e-01) (7, 2.37331598997116088867e-01) (8, 4.49319839477539062500e-01) (9, 5.71073114871978759766e-01) (10, -7.95308232307434082031e-01) (11, 7.74957180023193359375e-01) (12, 5.32038033008575439453e-01) (13, -1.15632700920104980469e+00) (14, -9.68277871608734130859e-01) (15, 1.03588652610778808594e+00) (16, 6.75463914871215820312e-01) (17, 9.90093648433685302734e-01) (18, 7.54110932350158691406e-01) (19, -7.51272141933441162109e-01) (20, -5.05436658859252929688e-01) (21, 2.29158848524093627930e-01) (22, 1.05929982662200927734e+00) (23, 1.04181326925754547119e-01) (24, 1.20184195041656494141e+00) (25, 1.19743376970291137695e-01) (26, 2.01582521200180053711e-01) (27, 1.31438121199607849121e-01) (28, 1.35248243808746337891e+00) (29, -2.20134511590003967285e-01) (30, 1.24865442514419555664e-01) (31, -3.36996763944625854492e-01) (32, -3.45587104558944702148e-01) (33, 1.48633897304534912109e-01) (34, 1.04353047907352447510e-01) (35, -1.56338369846343994141e+00) (36, -1.23168420791625976562e+00) (6, -2.26881518959999084473e-01) (7, 7.22522735595703125000e-01) (8, -5.16975522041320800781e-01) (9, -6.29019737243652343750e-01) (10, 2.17015385627746582031e-01) (11, -1.03813529014587402344e-01) (12, -6.60805761814117431641e-01) (13, -2.55176395177841186523e-01) (14, 1.88125029206275939941e-01) (15, 2.21515917778015136719e+00) (16, 8.82006764411926269531e-01) (17, 2.99508988857269287109e-01) (18, -1.37832492589950561523e-01) (19, 8.45063745975494384766e-01) (20, 3.12436908483505249023e-01) (21, -1.21972668170928955078e+00) (22, 6.37663424015045166016e-01) (23, 7.70974397659301757812e-01) (24, -4.99502480030059814453e-01) (25, 5.12235686182975769043e-02) (26, 7.95308947563171386719e-01) (27, 7.60298788547515869141e-01) (28, -6.42968863248825073242e-02) (29, 1.05901384353637695312e+00) (30, -5.70495277643203735352e-02) (31, 8.36716234683990478516e-01) (32, -9.06159341335296630859e-01) (33, 4.55903075635433197021e-02) (34, 5.09450376033782958984e-01) (35, -1.30631327629089355469e-01) (36, 5.01907020807266235352e-02) (6, 8.48907709121704101562e-01) (7, -1.07887196540832519531e+00) (8, 1.23125278949737548828e+00) (9, 1.53782904148101806641e+00) (10, -2.17766475677490234375e+00) (11, -2.35293626785278320312e+00) (12, 9.70602929592132568359e-01) (13, 6.52099177241325378418e-02) (14, 7.55669736862182617188e+00) (15, 2.79381960630416870117e-01) (16, -6.30069673061370849609e-01) (17, -4.71974194049835205078e-01) (18, 1.42270123958587646484e+00) (19, -1.88829049468040466309e-01) (20, 8.33043336868286132812e-01) (21, 1.76878309249877929688e+00) (22, 7.51806688308715820312e+00) (23, 7.82521784305572509766e-01) (24, 8.64846706390380859375e-01) (25, 5.95838248729705810547e-01) (26, 1.34620594978332519531e+00) (27, -5.84265947341918945312e-01) (28, -2.44770455360412597656e+00) (29, 4.63181912899017333984e-01) (30, -1.12199842929840087891e+00) (31, 5.34351885318756103516e-01) (32, -3.11379116028547286987e-02) (33, -1.10595500469207763672e+00) (34, -1.18234522640705108643e-01) (35, 1.14148533344268798828e+00) (36, 6.79183542728424072266e-01) (6, 9.87456202507019042969e-01) (7, 1.55544757843017578125e+00) (8, -5.64263045787811279297e-01) (9, 8.01914989948272705078e-01) (10, -8.51437687873840332031e-01) (11, 2.85778492689132690430e-01) (12, 5.21722912788391113281e-01) (13, 2.17926293611526489258e-01) (14, -8.49337160587310791016e-01) (15, -3.53322416543960571289e-01) (16, 5.04137456417083740234e-01) (17, -3.18535178899765014648e-01) (18, -3.66409905254840850830e-02) (19, 7.35608264221809804440e-05) (20, 6.75793662667274475098e-02) (21, -2.16055795550346374512e-01) (22, 6.26593351364135742188e-01) (23, 5.17411172389984130859e-01) (24, 4.69746999442577362061e-02) (25, -6.41528010368347167969e-01) (26, 6.34919881820678710938e-01) (27, -9.21349406242370605469e-01) (28, 3.73487055301666259766e-01) (29, 6.75932228565216064453e-01) (30, 7.29682249948382377625e-03) (31, -3.53319078683853149414e-01) (32, -6.40826046466827392578e-01) (33, 6.50414586067199707031e-01) (34, 2.48648688197135925293e-01) (35, 4.06613349914550781250e-01) (36, -9.72120165824890136719e-01) (6, -5.03160834312438964844e-01) (7, 1.81985521316528320312e+00) (8, 1.05450347065925598145e-01) (9, -5.04621565341949462891e-01) (10, 9.58056688308715820312e-01) (11, 1.13915467262268066406e+00) (12, 1.24741546809673309326e-01) (13, -3.14136385917663574219e-01) (14, 1.42621743679046630859e+00) (15, 9.00766491889953613281e-01) (16, 8.52493762969970703125e-01) (17, -6.48775160312652587891e-01) (18, 4.55610752105712890625e-01) (19, -3.45608472824096679688e-01) (20, 6.55890285968780517578e-01) (21, -2.53304898738861083984e-01) (22, 7.79045671224594116211e-02) (23, 5.37200123071670532227e-02) (24, 1.77116557955741882324e-01) (25, -2.14724510908126831055e-01) (26, -2.36648082733154296875e-01) (27, 4.83650088310241699219e-01) (28, -3.63127797842025756836e-01) (29, -1.90357580780982971191e-01) (30, -7.17992305755615234375e-01) (31, 1.00718390941619873047e+00) (32, -1.13169774413108825684e-01) (33, 8.31287503242492675781e-02) (34, 2.98998743295669555664e-01) (35, 3.07149410247802734375e-01) (36, -5.99533140659332275391e-01) (6, -5.98419904708862304688e-01) (7, 1.04517197608947753906e+00) (8, 7.16653108596801757812e-01) (9, -9.85544085502624511719e-01) (10, 3.88597339391708374023e-01) (11, -6.99046552181243896484e-01) (12, -4.07048523426055908203e-01) (13, 4.30104523897171020508e-01) (14, -1.09064638614654541016e-01) (15, 1.22332823276519775391e+00) (16, 1.09443688392639160156e+00) (17, 4.94373083114624023438e-01) (18, 3.39733213186264038086e-01) (19, -7.31868267059326171875e-01) (20, -5.00380814075469970703e-01) (21, -5.41745781898498535156e-01) (22, -1.58198189735412597656e+00) (23, 2.39118129014968872070e-01) (24, 6.85751497745513916016e-01) (25, -6.58777773380279541016e-01) (26, 4.73706483840942382812e-01) (27, -4.52266484498977661133e-01) (28, 5.80673515796661376953e-01) (29, -2.57433891296386718750e-01) (30, 1.86625078320503234863e-01) (31, -2.31692045927047729492e-01) (32, -5.27319312095642089844e-01) (33, -4.81391191482543945312e-01) (34, -2.92396601289510726929e-02) (35, 3.02536368370056152344e-01) (36, -4.76118743419647216797e-01) (6, 1.98803663253784179688e+00) (7, -4.93887126445770263672e-01) (8, -2.41319999098777770996e-01) (9, 6.39438688755035400391e-01) (10, -4.06930744647979736328e-01) (11, 6.36180341243743896484e-01) (12, 4.19238716363906860352e-01) (13, -1.16036370396614074707e-01) (14, 1.18027102947235107422e+00) (15, -2.20275148749351501465e-01) (16, -5.14847517013549804688e-01) (17, -7.26403072476387023926e-02) (18, 8.81364047527313232422e-01) (19, 4.07954365015029907227e-01) (20, 1.79920777678489685059e-01) (21, -1.63937062025070190430e-01) (22, -1.57087790966033935547e+00) (23, 7.02794566750526428223e-02) (24, 5.13427257537841796875e-01) (25, 9.72471892833709716797e-01) (26, 1.77546903491020202637e-01) (27, -4.25132274627685546875e-01) (28, 8.38770806789398193359e-01) (29, -9.17804360389709472656e-01) (30, 2.20495581626892089844e-01) (31, -1.60811185836791992188e-01) (32, 8.72220516204833984375e-01) (33, 2.35275089740753173828e-01) (34, 2.17101931571960449219e-01) (35, 7.09611892700195312500e-01) (36, 1.51306009292602539062e+00) (6, 1.16708181798458099365e-01) (7, 5.13125181198120117188e-01) (8, 1.01124560832977294922e+00) (9, -1.71561443805694580078e+00) (10, 2.20384225249290466309e-01) (11, -5.50553083419799804688e-01) (12, 3.06182377971708774567e-03) (13, -4.66891825199127197266e-01) (14, 5.22920489311218261719e-02) (15, -5.57143650949001312256e-02) (16, 3.16008239984512329102e-01) (17, 1.62751173973083496094e+00) (18, -1.43911874294281005859e+00) (19, -8.59794497489929199219e-01) (20, 4.94226187467575073242e-01) (21, -4.81136858463287353516e-01) (22, -1.58828818798065185547e+00) (23, -6.51035904884338378906e-02) (24, 2.04559350013732910156e+00) (25, -3.51398676633834838867e-01) (26, 1.04963850975036621094e+00) (27, 9.29230391979217529297e-01) (28, 3.36960583925247192383e-01) (29, -7.80376553535461425781e-01) (30, -1.11434817314147949219e+00) (31, 7.32386171817779541016e-01) (32, -1.02965369820594787598e-01) (33, 1.22458708286285400391e+00) (34, -2.44067817926406860352e-01) (35, -3.54216367006301879883e-01) (36, -4.42873626947402954102e-01) (6, -3.27542692422866821289e-01) (7, 1.13219940662384033203e+00) (8, -7.45243787765502929688e-01) (9, -5.08422851562500000000e-01) (10, -9.18968692421913146973e-02) (11, 7.38290965557098388672e-01) (12, 2.42366388440132141113e-01) (13, -3.59951108694076538086e-01) (14, -4.51601386070251464844e-01) (15, -5.32717406749725341797e-01) (16, 8.98217141628265380859e-01) (17, 3.77320885658264160156e-01) (18, 3.43778550624847412109e-01) (19, -1.63369381427764892578e+00) (20, 6.03644967079162597656e-01) (21, 3.95937502384185791016e-01) (22, -2.87599831819534301758e-01) (23, -8.15832316875457763672e-01) (24, 1.13612782955169677734e+00) (25, -7.70606756210327148438e-01) (26, -5.24712130427360534668e-02) (27, -5.35448968410491943359e-01) (28, 8.64018201828002929688e-02) (29, 3.47773581743240356445e-02) (30, -3.75376731157302856445e-01) (31, 1.58212149143218994141e+00) (32, 5.18706321716308593750e-01) (33, 6.40381455421447753906e-01) (34, -1.62058975547552108765e-02) (35, -4.56077545881271362305e-01) (36, -9.97492909431457519531e-01) (6, -9.46831226348876953125e-01) (7, 1.19921907782554626465e-01) (8, -2.33169823884963989258e-01) (9, 1.42383205890655517578e+00) (10, 7.15971231460571289062e-01) (11, 5.03825426101684570312e-01) (12, -1.94864615797996520996e-01) (13, 9.75729882717132568359e-01) (14, -1.02401876449584960938e+00) (15, 1.14758682250976562500e+00) (16, -3.08703392744064331055e-01) (17, -3.02532285451889038086e-01) (18, 8.54253649711608886719e-01) (19, 1.86715334653854370117e-01) (20, 4.15801733732223510742e-01) (21, 4.04628008604049682617e-01) (22, 4.65562880039215087891e-01) (23, -1.29422098398208618164e-01) (24, 3.55404287576675415039e-01) (25, -2.79135584831237792969e-01) (26, 8.26185122132301330566e-02) (27, 1.56394433975219726562e+00) (28, 3.12127262353897094727e-01) (29, 5.92395007610321044922e-01) (30, -5.29741346836090087891e-01) (31, -6.47948160767555236816e-02) (32, -1.17882385849952697754e-01) (33, 1.32491421699523925781e+00) (34, 1.10215759277343750000e+00) (35, -8.04108619689941406250e-01) (36, -1.61178696155548095703e+00) (6, -8.98153901100158691406e-01) (7, 8.19460332393646240234e-01) (8, 2.75568544864654541016e-01) (9, 1.02507281303405761719e+00) (10, -2.19270557165145874023e-01) (11, 7.73220181465148925781e-01) (12, -1.64932548999786376953e-01) (13, 6.53252184391021728516e-01) (14, -1.27612268924713134766e+00) (15, 1.59423816204071044922e+00) (16, -6.55445992946624755859e-01) (17, -4.51917946338653564453e-02) (18, 2.64434278011322021484e-01) (19, 9.74109172821044921875e-01) (20, -1.01179480552673339844e-01) (21, 2.90073871612548828125e-01) (22, -1.25533953309059143066e-01) (23, -4.19643163681030273438e-01) (24, -2.27661039680242538452e-02) (25, 2.36002534627914428711e-01) (26, 8.80903124809265136719e-01) (27, 2.88690298795700073242e-01) (28, -3.08940149843692779541e-02) (29, 3.49543869495391845703e-01) (30, 4.56171184778213500977e-01) (31, 3.73099356889724731445e-01) (32, -9.48489665985107421875e-01) (33, 1.29374098777770996094e+00) (34, 1.34808325767517089844e+00) (35, -1.08439886569976806641e+00) (36, 1.15581922233104705811e-01) (6, 1.27058696746826171875e+00) (7, 7.88586616516113281250e-01) (8, 9.70846533775329589844e-01) (9, 9.36091393232345581055e-02) (10, 1.10585927963256835938e+00) (11, -2.01886355876922607422e-01) (12, 9.16695356369018554688e-01) (13, 5.56358575820922851562e-01) (14, 9.64753091335296630859e-01) (15, 5.54487168788909912109e-01) (16, 5.95804393291473388672e-01) (17, -9.30087268352508544922e-02) (18, -9.58052515983581542969e-01) (19, -2.46625185012817382812e-01) (20, 1.49054419994354248047e+00) (21, -2.08075881004333496094e-01) (22, 6.47785186767578125000e-01) (23, 6.34279727935791015625e-01) (24, 1.37249982357025146484e+00) (25, -4.30526673793792724609e-01) (26, 8.33300292491912841797e-01) (27, -1.21762776374816894531e+00) (28, 1.37303531169891357422e-01) (29, -9.38864588737487792969e-01) (30, -1.21379518508911132812e+00) (31, -6.99057936668395996094e-01) (32, 8.48038733005523681641e-01) (33, -1.94982327520847320557e-02) (34, -2.16728731989860534668e-01) (35, -3.43186268582940101624e-03) (36, -2.64721214771270751953e-01) (6, 2.05349183082580566406e+00) (7, 4.87398505210876464844e-01) (8, -1.21227216720581054688e+00) (9, 1.06803631782531738281e+00) (10, 4.13487732410430908203e-01) (11, 8.13667178153991699219e-01) (12, 2.89072901010513305664e-01) (13, 3.86189222335815429688e-01) (14, 2.26717904210090637207e-01) (15, 6.17797136306762695312e-01) (16, 1.79019129276275634766e+00) (17, 2.93934583663940429688e-01) (18, -2.12607264518737792969e-01) (19, -2.19537988305091857910e-01) (20, 1.28009068965911865234e+00) (21, -3.98404121398925781250e-01) (22, -8.63782405853271484375e-01) (23, 1.17074298858642578125e+00) (24, -2.60503619909286499023e-01) (25, 4.06073510646820068359e-01) (26, -9.02150630950927734375e-01) (27, 3.64062041044235229492e-01) (28, 9.98451471328735351562e-01) (29, 4.07872825860977172852e-01) (30, 9.85352516174316406250e-01) (31, 6.45304143428802490234e-01) (32, -6.35247398167848587036e-03) (33, -7.69110918045043945312e-01) (34, -1.17812402546405792236e-01) (35, 7.29231894016265869141e-01) (36, -2.73494601249694824219e-01) (6, -4.31045502424240112305e-01) (7, -1.11573386192321777344e+00) (8, -2.56004452705383300781e-01) (9, -3.96532639861106872559e-02) (10, -2.90504898875951766968e-02) (11, -9.28248465061187744141e-01) (12, 1.10514628887176513672e+00) (13, 1.28711211681365966797e+00) (14, 8.06343615055084228516e-01) (15, 4.74440425634384155273e-01) (16, 1.09687840938568115234e+00) (17, -6.40335202217102050781e-01) (18, -9.90925788879394531250e-01) (19, -2.84533292055130004883e-01) (20, -3.19359600543975830078e-01) (21, 6.36085271835327148438e-02) (22, -1.30144953727722167969e-01) (23, 1.22861957550048828125e+00) (24, -3.77936735749244689941e-02) (25, 4.79073226451873779297e-01) (26, -1.74283891916275024414e-01) (27, -1.14208078384399414062e+00) (28, -5.34877181053161621094e-02) (29, -5.05033016204833984375e-01) (30, 1.24365735054016113281e+00) (31, 4.80296790599822998047e-01) (32, 2.95092374086380004883e-01) (33, -9.47623729705810546875e-01) (34, -1.89024746417999267578e-01) (35, 1.05178475379943847656e+00) (36, -9.65566709637641906738e-02) (6, 7.20085978507995605469e-01) (7, 3.04320544004440307617e-01) (8, 2.86771565675735473633e-01) (9, 7.35820651054382324219e-01) (10, 4.64677773416042327881e-02) (11, -7.54821181297302246094e-01) (12, 6.25073015689849853516e-01) (13, -3.15844208002090454102e-01) (14, -7.58253872394561767578e-01) (15, 9.50012326240539550781e-01) (16, 9.81458604335784912109e-01) (17, -4.86927807331085205078e-01) (18, 2.96142458915710449219e-01) (19, 3.03994774818420410156e-01) (20, -3.83020222187042236328e-01) (21, 1.64982691407203674316e-01) (22, 1.46014019846916198730e-01) (23, 1.06742703914642333984e+00) (24, 9.49525713920593261719e-01) (25, -6.84778213500976562500e-01) (26, 6.14326156210154294968e-04) (27, 7.59323954582214355469e-01) (28, -1.10971964895725250244e-01) (29, 1.06131240725517272949e-01) (30, 1.25599145889282226562e+00) (31, -3.32094192504882812500e-01) (32, 7.18323290348052978516e-01) (33, -1.57487075775861740112e-02) (34, 2.71228939294815063477e-01) (35, 3.38406860828399658203e-01) (36, 2.05019426345825195312e+00) (6, -6.92786753177642822266e-01) (7, 2.18158983625471591949e-03) (8, -1.03690528869628906250e+00) (9, -4.81123805046081542969e-01) (10, 1.68707621097564697266e+00) (11, -6.95539951324462890625e-01) (12, 9.45137083530426025391e-01) (13, -2.44286790490150451660e-01) (14, -5.28249084949493408203e-01) (15, 9.77457940578460693359e-01) (16, 1.47157981991767883301e-01) (17, -5.09042203426361083984e-01) (18, -2.40644469857215881348e-01) (19, 1.41880047321319580078e+00) (20, -1.32817730307579040527e-01) (21, -4.28742885589599609375e-01) (22, 6.44920468330383300781e-01) (23, -1.00524282455444335938e+00) (24, 1.18646442890167236328e+00) (25, 1.36675372719764709473e-01) (26, 1.00173163414001464844e+00) (27, 8.77532064914703369141e-01) (28, 1.05968379974365234375e+00) (29, 3.49938683211803436279e-03) (30, 3.68342816829681396484e-01) (31, -1.18445539474487304688e+00) (32, -4.32075828313827514648e-01) (33, -5.10842632502317428589e-03) (34, 2.78160840272903442383e-01) (35, 5.94833612442016601562e-01) (36, -5.32518267631530761719e-01) (6, 1.30495518445968627930e-01) (7, -2.75807738304138183594e-01) (8, 3.23626883327960968018e-02) (9, 3.87282758951187133789e-01) (10, -1.03837633132934570312e+00) (11, 7.20594882965087890625e-01) (12, -1.07237912714481353760e-01) (13, -2.63903379440307617188e-01) (14, -9.20740008354187011719e-01) (15, 9.44885015487670898438e-01) (16, 8.68155837059020996094e-01) (17, 1.59663867950439453125e+00) (18, 3.41800123453140258789e-01) (19, 2.61475563049316406250e-01) (20, -1.83437347412109375000e-01) (21, -8.02550017833709716797e-01) (22, -3.03825974464416503906e-01) (23, -2.24640399217605590820e-01) (24, 1.04465305805206298828e+00) (25, 6.76449239253997802734e-01) (26, 5.41648089885711669922e-01) (27, 8.89944493770599365234e-01) (28, 1.72821760177612304688e-01) (29, -3.46357911825180053711e-01) (30, -4.71850708127021789551e-02) (31, 4.90550160408020019531e-01) (32, -1.79946219921112060547e+00) (33, 1.68035313487052917480e-01) (34, 4.25438910722732543945e-01) (35, -5.08542239665985107422e-01) (36, 4.35727149248123168945e-01) (6, 2.20765247941017150879e-02) (7, -4.04463469982147216797e-01) (8, -2.41177484393119812012e-01) (9, -8.58823835849761962891e-01) (10, -8.31632852554321289062e-01) (11, -1.37459576129913330078e-01) (12, 7.89730668067932128906e-01) (13, 2.86427408456802368164e-01) (14, 8.32831859588623046875e-01) (15, 1.73008477687835693359e+00) (16, 8.57010006904602050781e-01) (17, 1.33336341381072998047e+00) (18, 5.15577495098114013672e-01) (19, -3.11530139297246932983e-02) (20, -5.70541203022003173828e-01) (21, -8.87714847922325134277e-02) (22, 6.71866714954376220703e-01) (23, 4.17833119630813598633e-01) (24, 1.25379407405853271484e+00) (25, -4.70100402832031250000e-01) (26, -1.06242798268795013428e-01) (27, 1.25687301158905029297e+00) (28, -5.20694792270660400391e-01) (29, 4.28760945796966552734e-01) (30, -6.81347846984863281250e-01) (31, 5.05962908267974853516e-01) (32, -9.55125629901885986328e-01) (33, -3.72549116611480712891e-01) (34, -3.60152661800384521484e-01) (35, -3.92154842615127563477e-01) (36, -1.43482357263565063477e-01) (6, 8.95566582679748535156e-01) (7, 1.01724211126565933228e-02) (8, 3.71755242347717285156e-01) (9, -9.34930562973022460938e-01) (10, -3.40701974928379058838e-02) (11, 4.68549132347106933594e-01) (12, -5.22037386894226074219e-01) (13, -1.56454753875732421875e+00) (14, 1.33619248867034912109e-01) (15, -7.31781840324401855469e-01) (16, 1.14652335643768310547e+00) (17, 3.27099561691284179688e-01) (18, 3.81291091442108154297e-01) (19, -1.62871137261390686035e-01) (20, 3.64228248596191406250e-01) (21, -3.21512907743453979492e-01) (22, 1.00992894172668457031e+00) (23, -4.89660978317260742188e-01) (24, 3.32570523023605346680e-01) (25, -8.98356437683105468750e-01) (26, -5.81050068140029907227e-02) (27, -2.85363614559173583984e-01) (28, -8.28750431537628173828e-01) (29, -5.26341974735260009766e-01) (30, -2.66594707965850830078e-01) (31, 4.43527428433299064636e-03) (32, 2.54443496465682983398e-01) (33, 8.69044184684753417969e-01) (34, -2.56269484758377075195e-01) (35, -1.92786768078804016113e-01) (36, 8.71729791164398193359e-01) (6, -7.87797868251800537109e-01) (7, 1.37803912162780761719e+00) (8, 3.33708733320236206055e-01) (9, -2.71653831005096435547e-01) (10, -3.74757677316665649414e-01) (11, 5.15093386173248291016e-01) (12, 4.46579009294509887695e-01) (13, -7.22836792469024658203e-01) (14, 1.42242312431335449219e+00) (15, -8.42875838279724121094e-02) (16, 9.16823983192443847656e-01) (17, -6.65676295757293701172e-01) (18, -1.30357220768928527832e-01) (19, -5.64011216163635253906e-01) (20, 2.09840402007102966309e-01) (21, 9.66574922204017639160e-02) (22, 5.96222542226314544678e-02) (23, 2.70592689514160156250e-01) (24, 3.48487347364425659180e-01) (25, -3.85775446891784667969e-01) (26, -1.43792107701301574707e-01) (27, 2.25156098604202270508e-01) (28, 5.88988900184631347656e-01) (29, 1.13641214370727539062e+00) (30, -6.89468681812286376953e-01) (31, 8.98736894130706787109e-01) (32, 8.03215265274047851562e-01) (33, -1.14330339431762695312e+00) (34, 1.46074816584587097168e-02) (35, -4.17881399393081665039e-01) (36, -5.45666337013244628906e-01) (6, 3.74539852142333984375e-01) (7, 1.16476297378540039062e+00) (8, 1.08473539352416992188e+00) (9, -4.25488233566284179688e-01) (10, -9.70862150192260742188e-01) (11, -7.26882398128509521484e-01) (12, -1.46970555186271667480e-01) (13, -8.15141141414642333984e-01) (14, 1.41205847263336181641e+00) (15, -2.22237610816955566406e+00) (16, 1.18717169761657714844e+00) (17, 1.99196085333824157715e-01) (18, 3.34208011627197265625e-01) (19, -1.34556269645690917969e+00) (20, 8.81801545619964599609e-01) (21, 2.20019251108169555664e-01) (22, 1.21512785553932189941e-02) (23, 1.07771611213684082031e+00) (24, 6.72801792621612548828e-01) (25, -2.79944270849227905273e-01) (26, -5.33342182636260986328e-01) (27, 8.84305536746978759766e-01) (28, -9.60795283317565917969e-01) (29, 1.25052201747894287109e+00) (30, -8.28404963016510009766e-01) (31, 3.72417360544204711914e-01) (32, 8.26976358890533447266e-01) (33, -8.50847244262695312500e-01) (34, -8.41119706630706787109e-01) (35, 8.48011314868927001953e-01) (36, 2.10391223430633544922e-01) (37, -4.45431917905807495117e-01) (38, -2.48736757785081863403e-02) (39, -3.85029613971710205078e-01) (40, 6.85449421405792236328e-01) (41, 3.21455299854278564453e-01) (42, -4.18606132268905639648e-01) (43, -2.68493026494979858398e-01) (44, 1.08992671966552734375e+00) (45, -7.96106457710266113281e-01) (46, 2.92775213718414306641e-01) (47, 2.58674889802932739258e-01) (48, 6.76366016268730163574e-02) (49, 9.68955397605895996094e-01) (50, 7.57486701011657714844e-01) (51, 5.83326935768127441406e-01) (52, 1.55183506011962890625e+00) (53, 5.60046434402465820312e-01) (54, 1.74442887306213378906e-01) (55, 4.97964173555374145508e-01) (56, -5.93663156032562255859e-01) (57, -8.86673852801322937012e-02) (58, 6.94297999143600463867e-02) (59, 5.79103827476501464844e-01) (60, -4.85217839479446411133e-01) (61, -1.38537868857383728027e-01) (62, 1.05528905987739562988e-01) (63, 1.57216414809226989746e-01) (64, 8.17721188068389892578e-01) (65, -2.17629030346870422363e-01) (66, -1.07417702674865722656e-01) (67, -2.23064139485359191895e-01) (37, 9.60686922073364257812e-01) (38, -3.64479832351207733154e-02) (39, 7.32247531414031982422e-02) (40, 6.60078585147857666016e-01) (41, 1.15701520442962646484e+00) (42, 7.85086512565612792969e-01) (43, 3.04087728261947631836e-01) (44, 1.39371410012245178223e-01) (45, 6.01278901100158691406e-01) (46, 4.44621115922927856445e-01) (47, -9.90963220596313476562e-01) (48, 1.30985781550407409668e-01) (49, 5.28301239013671875000e-01) (50, 1.10982668399810791016e+00) (51, 1.23214781284332275391e+00) (52, 9.79136884212493896484e-01) (53, 4.03015583753585815430e-01) (54, -4.58426594734191894531e-01) (55, -4.59968090057373046875e-01) (56, 3.89294117689132690430e-01) (57, 3.44298332929611206055e-01) (58, 4.40753489732742309570e-01) (59, -9.25602018833160400391e-01) (60, 5.66726744174957275391e-01) (61, -2.08671897649765014648e-01) (62, 8.23269784450531005859e-02) (63, -2.26437062025070190430e-01) (64, -1.14535614848136901855e-01) (65, -2.30508983135223388672e-01) (66, 9.98510746285319328308e-04) (67, 6.14876866340637207031e-01) (37, -4.05108839273452758789e-01) (38, 3.73126983642578125000e-01) (39, -4.97141271829605102539e-01) (40, -6.63469254970550537109e-01) (41, 6.46736502647399902344e-01) (42, 2.95233249664306640625e-01) (43, 1.72000288963317871094e-01) (44, -9.65959668159484863281e-01) (45, 1.27171599864959716797e+00) (46, 4.48756039142608642578e-01) (47, -2.42703333497047424316e-01) (48, -1.97694078087806701660e-02) (49, -1.67378222942352294922e+00) (50, -3.05143028497695922852e-01) (51, -8.02781224250793457031e-01) (52, 1.27820992469787597656e+00) (53, 2.53945112228393554688e-01) (54, -1.35990470647811889648e-01) (55, 1.04738783836364746094e+00) (56, 3.38095188140869140625e-01) (57, 1.42004096508026123047e+00) (58, 7.43587851524353027344e-01) (59, -8.01279693841934204102e-02) (60, 3.18291150033473968506e-02) (61, 6.34742975234985351562e-02) (62, 7.11962223052978515625e-01) (63, 3.85231643915176391602e-01) (64, -1.07455027103424072266e+00) (65, 1.66276358067989349365e-02) (66, 6.01588189601898193359e-01) (67, 9.27547454833984375000e-01) (37, 9.05818417668342590332e-02) (38, -9.32051599025726318359e-01) (39, 1.31186246871948242188e+00) (40, 8.72087955474853515625e-01) (41, 1.72064393758773803711e-01) (42, 5.32363712787628173828e-01) (43, 2.92033791542053222656e-01) (44, 9.10609543323516845703e-01) (45, -4.18818354606628417969e-01) (46, 1.54599130153656005859e+00) (47, -2.32238948345184326172e-01) (48, 1.41902416944503784180e-01) (49, 1.25847160816192626953e+00) (50, -1.47554323077201843262e-01) (51, 2.15812146663665771484e-01) (52, 1.93502470850944519043e-01) (53, 9.32045757770538330078e-01) (54, 1.07742178440093994141e+00) (55, 5.42778670787811279297e-02) (56, -9.10692751407623291016e-01) (57, 3.17760437726974487305e-01) (58, 9.38991487026214599609e-01) (59, 6.05491936206817626953e-01) (60, 7.58799791336059570312e-01) (61, -1.31077080965042114258e-01) (62, -3.07248029857873916626e-02) (63, 1.38320767879486083984e+00) (64, 1.17838785052299499512e-01) (65, -5.50501823425292968750e-01) (66, -1.83744087815284729004e-01) (67, -3.77496987581253051758e-01) (37, -1.86028759926557540894e-02) (38, -5.43119251728057861328e-01) (39, -6.69860184192657470703e-01) (40, 9.47890043258666992188e-01) (41, 2.16221198439598083496e-01) (42, 5.97153782844543457031e-01) (43, -2.34512731432914733887e-01) (44, -5.98364621400833129883e-02) (45, 4.61464971303939819336e-01) (46, -1.96770787239074707031e-01) (47, 8.63421037793159484863e-02) (48, 3.56816917657852172852e-01) (49, -2.49837905168533325195e-01) (50, 2.98806548118591308594e-01) (51, -6.11544847488403320312e-01) (52, 8.13108623027801513672e-01) (53, 2.35948473215103149414e-01) (54, 7.08027660846710205078e-01) (55, -3.67420166730880737305e-01) (56, 7.32686445116996765137e-02) (57, -3.38632345199584960938e-01) (58, -4.49771612882614135742e-01) (59, 9.78707730770111083984e-01) (60, 7.08744898438453674316e-02) (61, -1.61221480369567871094e+00) (62, 4.64884549379348754883e-01) (63, -7.41341829299926757812e-01) (64, -3.06469112634658813477e-01) (65, -8.29390406608581542969e-01) (66, -1.12295913696289062500e+00) (67, 9.69137251377105712891e-01) (37, -6.19288459420204162598e-02) (38, 5.26569545269012451172e-01) (39, 5.16613602638244628906e-01) (40, -9.31377470493316650391e-01) (41, -2.12026476860046386719e-01) (42, 1.45381247997283935547e+00) (43, -4.61993485689163208008e-01) (44, -2.10399508476257324219e-01) (45, -9.38902258872985839844e-01) (46, 6.82711064815521240234e-01) (47, -6.94915473461151123047e-01) (48, 7.07440674304962158203e-01) (49, 7.63013958930969238281e-01) (50, -3.10053795576095581055e-01) (51, 6.94995999336242675781e-01) (52, 5.24137198925018310547e-01) (53, 1.16917717456817626953e+00) (54, 4.07091438770294189453e-01) (55, 1.17604315280914306641e+00) (56, 3.62407654523849487305e-01) (57, 2.83020138740539550781e-01) (58, 9.51255440711975097656e-01) (59, 8.28076481819152832031e-01) (60, 1.11426603794097900391e+00) (61, 9.53597366809844970703e-01) (62, 4.00459289550781250000e-01) (63, -1.02115489542484283447e-01) (64, 8.50941240787506103516e-01) (65, 9.35038924217224121094e-01) (66, 9.96772721409797668457e-02) (67, -5.46909034252166748047e-01) (37, -6.00290298461914062500e-03) (38, -1.33266675472259521484e+00) (39, -9.04970824718475341797e-01) (40, 1.03357803821563720703e+00) (41, -2.38828912377357482910e-01) (42, -9.34602737426757812500e-01) (43, 6.17750942707061767578e-01) (44, -4.08982604742050170898e-01) (45, 1.57716609537601470947e-02) (46, -6.31606280803680419922e-01) (47, 1.36277818679809570312e+00) (48, 1.90159663558006286621e-01) (49, 1.07937526702880859375e+00) (50, -2.30606377124786376953e-01) (51, 1.02610513567924499512e-01) (52, -4.81451973319053649902e-02) (53, 4.56838250160217285156e-01) (54, -9.70875084400177001953e-01) (55, -3.67863535881042480469e-01) (56, -9.96863782405853271484e-01) (57, 3.68026167154312133789e-01) (58, -1.43035674095153808594e+00) (59, -3.54705303907394409180e-01) (60, 8.82269978523254394531e-01) (61, -8.04032862186431884766e-01) (62, -3.52587282657623291016e-01) (63, 5.58364987373352050781e-01) (64, -5.64563035964965820312e-01) (65, -1.07186675071716308594e+00) (66, 9.33826446533203125000e-01) (67, 1.61725580692291259766e+00) (37, 1.08804655075073242188e+00) (38, 4.76617634296417236328e-01) (39, -5.42325735092163085938e-01) (40, 2.59128004312515258789e-01) (41, 3.26486319303512573242e-01) (42, 7.31024086475372314453e-01) (43, -2.30428874492645263672e-01) (44, -7.70356178283691406250e-01) (45, 7.78996288776397705078e-01) (46, -8.92914414405822753906e-01) (47, 1.23666167259216308594e+00) (48, -8.82652252912521362305e-02) (49, -7.23209232091903686523e-04) (50, -4.74417299032211303711e-01) (51, -5.85046827793121337891e-01) (52, 1.19153761863708496094e+00) (53, 5.41496694087982177734e-01) (54, 1.00104168057441711426e-01) (55, 1.31946837902069091797e+00) (56, 1.02286005020141601562e+00) (57, -2.87472128868103027344e-01) (58, -5.82636237144470214844e-01) (59, 1.24108302593231201172e+00) (60, -7.60825693607330322266e-01) (61, 5.70243597030639648438e-01) (62, -1.52231380343437194824e-01) (63, -2.37925592809915542603e-02) (64, 6.49457797408103942871e-02) (65, 1.11892116069793701172e+00) (66, 1.20062541961669921875e+00) (67, 4.23981875181198120117e-01) (37, 7.63169407844543457031e-01) (38, 1.92521190643310546875e+00) (39, 8.81076812744140625000e-01) (40, 1.71574801206588745117e-01) (41, 3.01797330379486083984e-01) (42, 4.26478177309036254883e-01) (43, -6.73855304718017578125e-01) (44, -6.80228650569915771484e-01) (45, 5.78572154045104980469e-01) (46, 4.18512612581253051758e-01) (47, -1.65731453895568847656e+00) (48, 2.27820515632629394531e-01) (49, -7.87872731685638427734e-01) (50, -4.22691822052001953125e-01) (51, 2.24294304847717285156e-01) (52, -1.13277837634086608887e-01) (53, 8.69721949100494384766e-01) (54, 5.07695257663726806641e-01) (55, -5.68117022514343261719e-01) (56, 9.38647463917732238770e-02) (57, 3.47714304924011230469e-01) (58, 1.21496677398681640625e+00) (59, 1.18956379592418670654e-01) (60, 6.94194257259368896484e-01) (61, -4.40156191587448120117e-01) (62, -1.34998118877410888672e+00) (63, 1.57640147209167480469e+00) (64, 1.66895413398742675781e+00) (65, 1.75522774457931518555e-01) (66, 8.60228240489959716797e-01) (67, 4.97950911521911621094e-01) (37, -1.34759396314620971680e-01) (38, 1.29359185695648193359e+00) (39, 4.71939563751220703125e-01) (40, -4.35009688138961791992e-01) (41, -1.22583961486816406250e+00) (42, 5.17121613025665283203e-01) (43, -6.41219913959503173828e-01) (44, 4.10445570945739746094e-01) (45, -8.91121029853820800781e-01) (46, 8.22002828121185302734e-01) (47, 8.23476195335388183594e-01) (48, 2.47631683945655822754e-01) (49, -2.36502707004547119141e-01) (50, -4.31088171899318695068e-02) (51, 4.90284204483032226562e-01) (52, -2.86705233156681060791e-03) (53, 1.76999077200889587402e-01) (54, 1.26578736305236816406e+00) (55, -2.36265644431114196777e-01) (56, 1.35293334722518920898e-01) (57, -3.36939170956611633301e-02) (58, 5.07708370685577392578e-01) (59, -6.79295241832733154297e-01) (60, 5.78306555747985839844e-01) (61, 7.60497927665710449219e-01) (62, -4.54760104417800903320e-01) (63, 3.83158773183822631836e-01) (64, 1.41931223869323730469e+00) (65, 1.29832375049591064453e+00) (66, -5.28424978256225585938e-01) (67, -3.47119122743606567383e-01) (37, -2.11212769150733947754e-01) (38, 2.34184718132019042969e+00) (39, 4.34477180242538452148e-01) (40, -1.02630615234375000000e+00) (41, -7.54181683063507080078e-01) (42, 3.28968524932861328125e-01) (43, -3.74881893396377563477e-01) (44, 1.59261476993560791016e+00) (45, 7.45849385857582092285e-02) (46, 8.92313361167907714844e-01) (47, -5.17006181180477142334e-02) (48, 7.74047821760177612305e-02) (49, 3.01554828882217407227e-01) (50, -2.76714074425399303436e-03) (51, -1.35314986109733581543e-01) (52, -8.13694953918457031250e-01) (53, -3.94889920949935913086e-01) (54, 1.04174864292144775391e+00) (55, 1.62437653541564941406e+00) (56, 1.27031147480010986328e+00) (57, -5.79934656620025634766e-01) (58, -1.23091232776641845703e+00) (59, -7.78786718845367431641e-01) (60, -1.99720352888107299805e-01) (61, 5.78549385070800781250e-01) (62, -2.77400016784667968750e+00) (63, -8.92976999282836914062e-01) (64, -7.92592108249664306641e-01) (65, -7.11586296558380126953e-01) (66, 4.75111216306686401367e-01) (67, -7.41530835628509521484e-01) (37, 1.05802357196807861328e+00) (38, -8.49930763244628906250e-01) (39, -1.19708746671676635742e-01) (40, -1.06673026084899902344e+00) (41, -5.10210990905761718750e-01) (42, 1.52720510959625244141e+00) (43, 4.80099737644195556641e-01) (44, 1.54246732592582702637e-01) (45, 7.30052351951599121094e-01) (46, -2.74825900793075561523e-01) (47, -8.02403390407562255859e-01) (48, 7.39276766777038574219e-01) (49, -1.00940191745758056641e+00) (50, -8.38170349597930908203e-01) (51, -5.47478795051574707031e-01) (52, 7.23847627639770507812e-01) (53, -2.62691885232925415039e-01) (54, -4.66672241687774658203e-01) (55, -6.33695781230926513672e-01) (56, 7.02224791049957275391e-01) (57, 5.71825325489044189453e-01) (58, 5.17938137054443359375e-01) (59, -8.19728553295135498047e-01) (60, 1.09790945053100585938e+00) (61, -1.03538382053375244141e+00) (62, -1.69633969664573669434e-01) (63, 2.23714068531990051270e-01) (64, -4.50182139873504638672e-01) (65, 8.47731113433837890625e-01) (66, 9.69075202941894531250e-01) (67, -6.16319417953491210938e-01) (37, -6.26459345221519470215e-02) (38, -2.34733939170837402344e-01) (39, 1.13980853557586669922e+00) (40, -7.38570868968963623047e-01) (41, -2.22466923296451568604e-02) (42, -8.10317635536193847656e-01) (43, 2.89602637290954589844e-01) (44, 6.47001862525939941406e-01) (45, 1.06013089418411254883e-01) (46, 2.16601073741912841797e-01) (47, -1.16176195442676544189e-01) (48, 1.28987884521484375000e+00) (49, 4.49754983186721801758e-01) (50, 7.32777595520019531250e-01) (51, -4.17534619569778442383e-01) (52, -9.77275550365447998047e-01) (53, -6.08098804950714111328e-01) (54, 2.69835978746414184570e-01) (55, 1.58939492702484130859e+00) (56, 7.12695360183715820312e-01) (57, -9.09816563129425048828e-01) (58, -4.15398389101028442383e-01) (59, 2.69164051860570907593e-03) (60, 8.93091917037963867188e-01) (61, 5.69841742515563964844e-01) (62, -1.61707326769828796387e-01) (63, 2.58139580488204956055e-01) (64, 7.42610752582550048828e-01) (65, -4.62832599878311157227e-01) (66, 4.29631441831588745117e-01) (67, 1.22282814979553222656e+00) (37, -6.85212433338165283203e-01) (38, 3.81331652402877807617e-01) (39, -7.92792975902557373047e-01) (40, -3.60862016677856445312e-01) (41, -2.91962981224060058594e-01) (42, -3.57230246067047119141e-01) (43, -1.74960315227508544922e-01) (44, 5.51075994968414306641e-01) (45, 3.72388899326324462891e-01) (46, -1.92807078361511230469e-01) (47, 9.70531165599822998047e-01) (48, 5.44494211673736572266e-01) (49, 6.92075550556182861328e-01) (50, 1.29452854394912719727e-01) (51, 4.63507056236267089844e-01) (52, 8.24229776859283447266e-01) (53, 4.00429159402847290039e-01) (54, -1.44108965992927551270e-01) (55, -8.80707263946533203125e-01) (56, -2.02124118804931640625e-01) (57, 6.19903802871704101562e-01) (58, 2.29332093149423599243e-02) (59, 9.23711180686950683594e-01) (60, -1.51125967502593994141e-01) (61, -1.71362781524658203125e+00) (62, 8.12748074531555175781e-01) (63, -1.09894192218780517578e+00) (64, 8.17832529544830322266e-01) (65, 8.69719833135604858398e-02) (66, 6.64407849311828613281e-01) (67, 9.21211779117584228516e-01) (37, 1.00439988076686859131e-01) (38, -6.85605645179748535156e-01) (39, 7.99053072929382324219e-01) (40, -3.88040870428085327148e-01) (41, 4.77388292551040649414e-01) (42, 4.63056087493896484375e-01) (43, -1.57497048377990722656e-01) (44, -1.12004205584526062012e-01) (45, 6.86486542224884033203e-01) (46, 4.70792531967163085938e-01) (47, 6.96285307407379150391e-01) (48, 2.84339934587478637695e-01) (49, -7.70547330379486083984e-01) (50, 1.17017507553100585938e-01) (51, -5.13360142707824707031e-01) (52, 1.42942357063293457031e+00) (53, -1.74652767181396484375e+00) (54, 5.86360931396484375000e-01) (55, 1.76165008544921875000e+00) (56, 3.70141595602035522461e-01) (57, 1.25714206695556640625e+00) (58, 9.74191725254058837891e-01) (59, -4.60303388535976409912e-03) (60, -1.34985923767089843750e-01) (61, 9.89031672477722167969e-01) (62, 1.99696913361549377441e-01) (63, 6.70625090599060058594e-01) (64, 6.74615085124969482422e-01) (65, 1.11463472247123718262e-01) (66, 1.35919499397277832031e+00) (67, -3.88229817152023315430e-01) (37, 2.13375195860862731934e-01) (38, 1.82004228234291076660e-01) (39, 5.91853022575378417969e-01) (40, 3.30854177474975585938e-01) (41, 7.46047496795654296875e-02) (42, -1.71504374593496322632e-02) (43, 5.65986335277557373047e-01) (44, 4.69980478286743164062e-01) (45, 1.97225987911224365234e-01) (46, -6.45614385604858398438e-01) (47, 3.91734659671783447266e-01) (48, 8.19731831550598144531e-01) (49, 1.86389124393463134766e+00) (50, -9.83443379402160644531e-01) (51, 9.18276488780975341797e-01) (52, 3.61912339925765991211e-01) (53, -2.74161666631698608398e-01) (54, -6.80470466613769531250e-02) (55, 2.57182449102401733398e-01) (56, -6.10360860824584960938e-01) (57, -4.93511855602264404297e-01) (58, -6.62692844867706298828e-01) (59, 2.52708256244659423828e-01) (60, 1.08273434638977050781e+00) (61, 1.06994673609733581543e-01) (62, -9.72582519054412841797e-01) (63, 1.03893435001373291016e+00) (64, -6.92179441452026367188e-01) (65, 1.05762958526611328125e+00) (66, 1.08090245723724365234e+00) (67, -1.81740716099739074707e-01) (37, 6.00150413811206817627e-02) (38, -5.14757931232452392578e-01) (39, 1.59606039524078369141e-01) (40, 1.49861559271812438965e-01) (41, 8.68097305297851562500e-01) (42, 7.02888190746307373047e-01) (43, 8.99914622306823730469e-01) (44, -3.52957427501678466797e-01) (45, 5.95885477960109710693e-02) (46, 8.49897637963294982910e-02) (47, -3.83402228355407714844e-01) (48, -1.96707880496978759766e+00) (49, 1.02663111686706542969e+00) (50, -8.53177070617675781250e-01) (51, -1.19877111911773681641e+00) (52, 3.10467600822448730469e-01) (53, -3.51447165012359619141e-01) (54, -3.74267727136611938477e-01) (55, 1.03540647029876708984e+00) (56, 2.10978016257286071777e-01) (57, 8.62979888916015625000e-01) (58, 3.03436312824487686157e-02) (59, 1.14108391106128692627e-01) (60, 7.27728247642517089844e-01) (61, 1.15589857101440429688e+00) (62, 2.96596497297286987305e-01) (63, 4.84466493129730224609e-01) (64, -7.24168181419372558594e-01) (65, -8.94120216369628906250e-01) (66, -3.71778577566146850586e-01) (67, -3.61633896827697753906e-01) (37, 5.51403462886810302734e-01) (38, -4.27149802446365356445e-01) (39, 5.23108243942260742188e-01) (40, 1.17957532405853271484e+00) (41, -4.94087874889373779297e-01) (42, 6.27732217311859130859e-01) (43, 2.54668503999710083008e-01) (44, 2.15634360909461975098e-01) (45, 1.83364355564117431641e+00) (46, 3.61777096986770629883e-01) (47, 1.02997517585754394531e+00) (48, 4.98378932476043701172e-01) (49, 7.10582256317138671875e-01) (50, 8.35126996040344238281e-01) (51, 6.63125991821289062500e-01) (52, 8.37801039218902587891e-01) (53, 7.54853248596191406250e-01) (54, -8.29438626766204833984e-01) (55, 6.00792169570922851562e-01) (56, -4.65058028697967529297e-01) (57, -1.86492845416069030762e-01) (58, -3.65893155336380004883e-01) (59, 8.36204946041107177734e-01) (60, 1.67135941982269287109e+00) (61, 2.23955437541007995605e-01) (62, 9.48928117752075195312e-01) (63, -3.42504501342773437500e-01) (64, 1.20686161518096923828e+00) (65, 4.23922657966613769531e-01) (66, 7.39968776702880859375e-01) (67, 6.53091967105865478516e-01) (37, 2.27786973118782043457e-02) (38, 1.57985553145408630371e-01) (39, -1.97970256209373474121e-01) (40, -5.89152753353118896484e-01) (41, -5.60130119323730468750e-01) (42, 1.86670958995819091797e+00) (43, 9.26223397254943847656e-01) (44, 4.98080432415008544922e-01) (45, 5.03500625491142272949e-02) (46, 5.56364834308624267578e-01) (47, -2.08386063575744628906e-01) (48, -1.78802967071533203125e-01) (49, 2.72548496723175048828e-02) (50, 2.78252935409545898438e+00) (51, -6.39019012451171875000e-01) (52, 6.37720406055450439453e-01) (53, -3.24360042810440063477e-01) (54, 2.22123527526855468750e+00) (55, 6.61764085292816162109e-01) (56, 4.04664605855941772461e-01) (57, 3.45369786024093627930e-01) (58, 1.22557294368743896484e+00) (59, -5.01542031764984130859e-01) (60, 6.42197549343109130859e-01) (61, -6.96478858590126037598e-02) (62, -1.58288729190826416016e+00) (63, -7.30128586292266845703e-01) (64, -6.85930669307708740234e-01) (65, 3.01200342178344726562e+00) (66, 1.65689134597778320312e+00) (67, -3.18101584911346435547e-01) (37, 7.58107602596282958984e-01) (38, -1.96094334125518798828e-01) (39, 1.55284568667411804199e-01) (40, -7.04855382442474365234e-01) (41, -2.76581138372421264648e-01) (42, 1.06878650188446044922e+00) (43, -1.15322506427764892578e+00) (44, 1.25981652736663818359e+00) (45, -1.39412775635719299316e-01) (46, 2.23667919635772705078e-01) (47, -2.80154317617416381836e-01) (48, 8.91991853713989257812e-01) (49, 8.23497951030731201172e-01) (50, 1.80401176214218139648e-01) (51, 1.48020339012145996094e+00) (52, 4.33045834302902221680e-01) (53, 1.30805444717407226562e+00) (54, 4.24725323915481567383e-01) (55, 2.15845271944999694824e-01) (56, 2.39973679184913635254e-01) (57, 6.24652147293090820312e-01) (58, 4.53432530164718627930e-01) (59, 4.40558880567550659180e-01) (60, 4.37665253877639770508e-01) (61, -3.21255594491958618164e-01) (62, -1.82342201471328735352e-01) (63, 2.94114816933870315552e-02) (64, 2.92580217123031616211e-01) (65, -1.20629489421844482422e+00) (66, 2.14037865400314331055e-01) (67, 2.04937532544136047363e-01) (37, 9.51727747917175292969e-01) (38, 8.37181508541107177734e-01) (39, 4.58443343639373779297e-01) (40, 2.40147516131401062012e-01) (41, 1.44380557537078857422e+00) (42, 1.19617128372192382812e+00) (43, -9.96770560741424560547e-02) (44, 2.76106327772140502930e-01) (45, 9.92498397827148437500e-01) (46, -1.33020532131195068359e+00) (47, 1.14741086959838867188e+00) (48, 1.12003338336944580078e+00) (49, 1.12845814228057861328e+00) (50, 8.78100872039794921875e-01) (51, 9.84948873519897460938e-02) (52, -2.76384335011243820190e-02) (53, 3.43521893024444580078e-01) (54, -1.34309625625610351562e+00) (55, 8.58680903911590576172e-01) (56, 6.77043735980987548828e-01) (57, -1.27709364891052246094e+00) (58, -4.16168004274368286133e-01) (59, 6.69786989688873291016e-01) (60, 1.34233844280242919922e+00) (61, 4.15390580892562866211e-01) (62, -8.19291830062866210938e-01) (63, 1.38382792472839355469e-01) (64, 9.95326042175292968750e-02) (65, -3.51547449827194213867e-01) (66, -3.07539701461791992188e-01) (67, 2.45694845914840698242e-01) (37, -1.30195617675781250000e+00) (38, 4.21672821044921875000e-01) (39, -4.47358153760433197021e-02) (40, 3.72113466262817382812e-01) (41, -2.48045593500137329102e-01) (42, -1.33975327014923095703e+00) (43, 7.14985206723213195801e-02) (44, -8.97350728511810302734e-01) (45, -2.94976443052291870117e-01) (46, -4.28526490926742553711e-01) (47, 4.27817404270172119141e-01) (48, -8.78845900297164916992e-02) (49, 7.82436370849609375000e-01) (50, 1.79821342229843139648e-01) (51, 3.72058987617492675781e-01) (52, -1.05288594961166381836e-01) (53, 9.60670351982116699219e-01) (54, 1.07791078090667724609e+00) (55, -4.70293015241622924805e-01) (56, -1.39503931999206542969e+00) (57, 9.65753495693206787109e-01) (58, 6.69242024421691894531e-01) (59, 1.27846717834472656250e+00) (60, 1.05877852439880371094e+00) (61, -3.28122317790985107422e-01) (62, 1.47937500476837158203e+00) (63, 5.01638092100620269775e-02) (64, 9.20722544193267822266e-01) (65, 5.06762206554412841797e-01) (66, 7.29652106761932373047e-01) (67, 4.91143018007278442383e-01) (37, -1.00799657404422760010e-01) (38, -3.61551910638809204102e-01) (39, -2.65142202377319335938e-01) (40, 3.59078466892242431641e-01) (41, 1.03515096008777618408e-01) (42, -4.17557150125503540039e-01) (43, 1.49357116222381591797e+00) (44, -5.67618131637573242188e-01) (45, 5.87921679019927978516e-01) (46, 5.65040469169616699219e-01) (47, 1.81324601173400878906e-01) (48, -1.09132692217826843262e-01) (49, 9.29818511009216308594e-01) (50, 2.05570027232170104980e-01) (51, -3.96274745464324951172e-01) (52, 1.16800093650817871094e+00) (53, 4.27212834358215332031e-01) (54, -4.87935841083526611328e-01) (55, 1.27056169509887695312e+00) (56, 8.02333712577819824219e-01) (57, -2.46148720383644104004e-01) (58, 3.84291797876358032227e-01) (59, 3.67798089981079101562e-01) (60, 3.63367609679698944092e-02) (61, 7.18029260635375976562e-01) (62, 1.52909472584724426270e-01) (63, -4.05601896345615386963e-02) (64, 1.33120095729827880859e+00) (65, -8.22504311800003051758e-02) (66, -4.90839838981628417969e-01) (67, 1.17433607578277587891e+00) (37, 4.08378452062606811523e-01) (38, 7.12363898754119873047e-01) (39, 1.44429540634155273438e+00) (40, 1.21430993080139160156e+00) (41, 6.41833543777465820312e-01) (42, 6.26272797584533691406e-01) (43, 1.04108035564422607422e+00) (44, -7.25979804992675781250e-01) (45, 8.99406433105468750000e-01) (46, -4.03759151697158813477e-01) (47, 6.74525320529937744141e-01) (48, -1.12000331282615661621e-01) (49, 5.56786179542541503906e-01) (50, -4.77541863918304443359e-01) (51, 3.92859071493148803711e-01) (52, -6.59183979034423828125e-01) (53, 2.73243308067321777344e-01) (54, -1.55905842781066894531e+00) (55, 4.02315109968185424805e-01) (56, 7.58489072322845458984e-01) (57, 3.30361962318420410156e-01) (58, 5.67187488079071044922e-01) (59, 4.22461777925491333008e-01) (60, -3.44028398394584655762e-02) (61, 7.01680898666381835938e-01) (62, 3.88712912797927856445e-01) (63, 3.45862984657287597656e-01) (64, 8.10314714908599853516e-01) (65, 7.87906527519226074219e-01) (66, -1.20647132396697998047e+00) (67, 5.23988008499145507812e-01) (37, 3.41604799032211303711e-01) (38, -3.44662368297576904297e-01) (39, -8.70814740657806396484e-01) (40, 9.37128126621246337891e-01) (41, -3.26812177896499633789e-01) (42, -3.58091682195663452148e-01) (43, 4.14060384035110473633e-01) (44, -4.42597210407257080078e-01) (45, 6.79231226444244384766e-01) (46, 1.05621862411499023438e+00) (47, 1.49386179447174072266e+00) (48, -5.38304708898067474365e-02) (49, -6.53471946716308593750e-01) (50, 2.82194495201110839844e-01) (51, 9.52409744262695312500e-01) (52, 4.44947123527526855469e-01) (53, -5.32887391746044158936e-02) (54, 1.50937390327453613281e+00) (55, -4.91155654191970825195e-01) (56, -1.98045492172241210938e-01) (57, -9.56768751144409179688e-01) (58, -5.17017126083374023438e-01) (59, -9.10054802894592285156e-01) (60, 6.76744878292083740234e-01) (61, 5.86086630821228027344e-01) (62, -5.66632598638534545898e-02) (63, 2.11295902729034423828e-01) (64, -1.78648918867111206055e-01) (65, -1.03377699851989746094e+00) (66, -1.73412755131721496582e-01) (67, 6.54082074761390686035e-02) (37, 5.52455306053161621094e-01) (38, 7.50083506107330322266e-01) (39, 1.12201571464538574219e+00) (40, 4.80405688285827636719e-01) (41, -6.30539357662200927734e-01) (42, 9.15293574333190917969e-01) (43, 8.01353812217712402344e-01) (44, -4.93340045213699340820e-02) (45, 3.56933057308197021484e-01) (46, 1.23819422721862792969e+00) (47, 3.51788580417633056641e-01) (48, 1.12242424488067626953e+00) (49, -3.21620553731918334961e-01) (50, 7.54455447196960449219e-01) (51, 8.95102143287658691406e-01) (52, -6.86607241630554199219e-01) (53, -7.36265182495117187500e-01) (54, 8.31881344318389892578e-01) (55, 7.15008452534675598145e-02) (56, -2.92350798845291137695e-01) (57, 5.68794965744018554688e-01) (58, 4.43972826004028320312e-01) (59, 7.50721395015716552734e-01) (60, 1.85043320059776306152e-01) (61, -3.99404317140579223633e-01) (62, 1.10922443866729736328e+00) (63, 9.27802622318267822266e-02) (64, 5.75165808200836181641e-01) (65, 1.19720494747161865234e+00) (66, 1.49896895885467529297e+00) (67, 1.01807773113250732422e+00) (37, -2.26313218474388122559e-01) (38, 8.29436182975769042969e-01) (39, 8.73648703098297119141e-01) (40, -5.54413378238677978516e-01) (41, 1.36183619499206542969e+00) (42, -3.91372621059417724609e-01) (43, 1.46964883804321289062e+00) (44, -5.96208810806274414062e-01) (45, 4.02839154005050659180e-01) (46, 3.63708525896072387695e-01) (47, 8.58294963836669921875e-01) (48, -3.90915244817733764648e-01) (49, 8.14761996269226074219e-01) (50, -6.41006529331207275391e-01) (51, 8.97038459777832031250e-01) (52, 7.30072498321533203125e-01) (53, 1.36582285165786743164e-01) (54, -3.39441359043121337891e-01) (55, -1.36989921331405639648e-01) (56, 1.27338206768035888672e+00) (57, -9.76103901863098144531e-01) (58, 2.47388914227485656738e-01) (59, -3.45506012439727783203e-01) (60, 3.14403831958770751953e-01) (61, -1.43623292446136474609e-01) (62, -8.47948431968688964844e-01) (63, -2.45199993252754211426e-01) (64, 7.17849016189575195312e-01) (65, -7.44115829467773437500e-01) (66, 7.47416853904724121094e-01) (67, 4.91275191307067871094e-01) (37, 1.47940516471862792969e-01) (38, 4.99284446239471435547e-01) (39, -6.57158792018890380859e-01) (40, 2.39636048674583435059e-01) (41, 5.84081947803497314453e-01) (42, 1.75259625911712646484e+00) (43, -7.77294635772705078125e-02) (44, -5.91610707342624664307e-02) (45, -6.01390719413757324219e-01) (46, -5.84302097558975219727e-02) (47, 4.42351788282394409180e-01) (48, -5.20157337188720703125e-01) (49, 1.76998689770698547363e-01) (50, -1.15235519409179687500e+00) (51, -6.38042628765106201172e-01) (52, 3.91004472970962524414e-01) (53, 1.22936081886291503906e+00) (54, -1.32008502259850502014e-03) (55, 1.16210472583770751953e+00) (56, -1.90437391400337219238e-01) (57, -2.52366781234741210938e-01) (58, -1.38810917735099792480e-01) (59, 5.25179088115692138672e-01) (60, 3.22654783725738525391e-01) (61, 5.67584097385406494141e-01) (62, -2.29803144931793212891e-01) (63, 3.21350902318954467773e-01) (64, -2.75430977344512939453e-01) (65, -9.87671375274658203125e-01) (66, -2.47092887759208679199e-01) (67, 7.64307022094726562500e-01) (37, 6.21003955602645874023e-02) (38, -4.23885434865951538086e-02) (39, 1.59755557775497436523e-01) (40, 4.59312319755554199219e-01) (41, -3.98418545722961425781e-01) (42, -1.34328275918960571289e-01) (43, -3.15010160207748413086e-01) (44, 3.99201601743698120117e-01) (45, -4.48999762535095214844e-01) (46, 6.37881100177764892578e-01) (47, -4.91343826055526733398e-01) (48, 1.96360975503921508789e-01) (49, 5.32293856143951416016e-01) (50, 1.53921246528625488281e-02) (51, 2.71202385425567626953e-01) (52, 8.22856605052947998047e-01) (53, 3.25466066598892211914e-01) (54, -4.87146854400634765625e-01) (55, -8.75660300254821777344e-01) (56, 1.59766948223114013672e+00) (57, -8.92625391483306884766e-01) (58, -1.32014441490173339844e+00) (59, -2.94288713485002517700e-02) (60, 2.08112820982933044434e-01) (61, 6.85574054718017578125e-01) (62, -8.06854844093322753906e-01) (63, -4.84777331352233886719e-01) (64, 4.44146424531936645508e-01) (65, -5.57110548019409179688e-01) (66, -2.23429965972900390625e+00) (67, -6.47483050823211669922e-01) (37, 1.00007760524749755859e+00) (38, 7.66986131668090820312e-01) (39, 4.14990305900573730469e-01) (40, 2.16148629784584045410e-01) (41, -1.53149679303169250488e-01) (42, -2.23858788609504699707e-01) (43, 1.80322811007499694824e-01) (44, -1.92219372838735580444e-02) (45, 6.14840328693389892578e-01) (46, 1.50290206074714660645e-01) (47, 1.25281739234924316406e+00) (48, 4.60863262414932250977e-01) (49, 7.22333252429962158203e-01) (50, 8.59507858753204345703e-01) (51, 2.49623596668243408203e-01) (52, 1.36711132526397705078e+00) (53, 4.01193529367446899414e-01) (54, 2.41474270820617675781e-01) (55, 7.32342541217803955078e-01) (56, 3.85111868381500244141e-01) (57, 1.54900819063186645508e-01) (58, 4.48124825954437255859e-01) (59, 6.80781841278076171875e-01) (60, 1.31673765182495117188e+00) (61, 9.10268247127532958984e-01) (62, -5.74360609054565429688e-01) (63, 3.00309151411056518555e-01) (64, 6.64694547653198242188e-01) (65, 9.18703854084014892578e-01) (66, -6.78485751152038574219e-01) (67, -4.71706300973892211914e-01) (68, 9.47531700134277343750e-01) (69, -4.96715843677520751953e-01) (70, 7.63013124465942382812e-01) (71, 6.70411825180053710938e-01) (72, 5.27276732027530670166e-02) (73, -1.19653388857841491699e-01) (74, 1.27074885368347167969e+00) (75, 2.57626652717590332031e-01) (76, -3.49523591995239257812e+00) (77, 3.58596175909042358398e-01) (78, -5.98039031028747558594e-01) (79, 2.33558535575866699219e-01) (80, 2.09006771445274353027e-01) (81, 1.54108643531799316406e+00) (82, 7.54364073276519775391e-01) (83, 5.35944163799285888672e-01) (84, 9.14598047733306884766e-01) (85, 1.99815344810485839844e+00) (86, 1.06985056400299072266e+00) (87, -6.09127640724182128906e-01) (88, -1.07439017295837402344e+00) (89, 1.61007392406463623047e+00) (90, -1.20108640193939208984e+00) (91, -7.50604510307312011719e-01) (92, 1.41136899590492248535e-01) (93, 3.24489980936050415039e-01) (94, -1.51502579450607299805e-01) (95, 1.51913419365882873535e-01) (96, -2.15123200416564941406e+00) (97, -9.57776844501495361328e-01) (98, -7.72572934627532958984e-01) (68, 2.03200578689575195312e+00) (69, -1.22629201412200927734e+00) (70, 1.37756872177124023438e+00) (71, 7.35588788986206054688e-01) (72, 6.76833614706993103027e-02) (73, 4.08170670270919799805e-01) (74, -1.76319703459739685059e-01) (75, -5.94628751277923583984e-01) (76, 1.28443288803100585938e+00) (77, 4.78917539119720458984e-01) (78, 1.73177093267440795898e-01) (79, -1.20292043685913085938e+00) (80, 1.09690606594085693359e+00) (81, 9.31116342544555664062e-01) (82, 3.87502789497375488281e-01) (83, 6.48521542549133300781e-01) (84, 4.05920147895812988281e-01) (85, -1.09243893623352050781e+00) (86, -2.15494215488433837891e-01) (87, 2.30963900685310363770e-02) (88, -3.84134352207183837891e-01) (89, 1.09396839141845703125e+00) (90, -3.49515616893768310547e-01) (91, -8.84163320064544677734e-01) (92, -4.73307222127914428711e-01) (93, -2.29382500052452087402e-01) (94, 4.43009674549102783203e-01) (95, -6.49441957473754882812e-01) (96, 1.21263885498046875000e+00) (97, 7.88755834102630615234e-01) (98, -3.80827218294143676758e-01) (68, -4.78765994310379028320e-01) (69, -1.32931149005889892578e+00) (70, -4.62702542543411254883e-01) (71, 1.54696807265281677246e-01) (72, -4.59733158349990844727e-01) (73, 7.22521618008613586426e-02) (74, -2.17101238667964935303e-02) (75, -2.83915311098098754883e-01) (76, 4.98954743146896362305e-01) (77, -1.38486400246620178223e-01) (78, 8.13867568969726562500e-01) (79, 6.30752027034759521484e-01) (80, 1.07403719425201416016e+00) (81, 1.31886625289916992188e+00) (82, 1.03872871398925781250e+00) (83, 1.34741947054862976074e-01) (84, 8.03310990333557128906e-01) (85, 6.43884956836700439453e-01) (86, 2.24580049514770507812e-01) (87, 7.33572840690612792969e-01) (88, -3.80235970020294189453e-01) (89, -1.35512128472328186035e-01) (90, -3.28537762165069580078e-01) (91, 2.04092264175415039062e-02) (92, 4.47702586650848388672e-01) (93, 1.39500880241394042969e+00) (94, -3.62409204244613647461e-01) (95, 8.51798430085182189941e-02) (96, 7.88692291826009750366e-03) (97, -3.72079461812973022461e-01) (98, 1.78505387157201766968e-02) (68, 1.34629857540130615234e+00) (69, -7.07758247852325439453e-01) (70, 9.56143319606781005859e-01) (71, 7.07353711128234863281e-01) (72, 6.93091988563537597656e-01) (73, 5.21314322948455810547e-01) (74, 8.84062588214874267578e-01) (75, -1.28916490077972412109e+00) (76, -1.04371070861816406250e+00) (77, 1.95325046777725219727e-01) (78, -5.26251077651977539062e-01) (79, 1.50510758161544799805e-01) (80, -1.04560494422912597656e+00) (81, 1.25027799606323242188e+00) (82, 1.47271060943603515625e+00) (83, 6.03199183940887451172e-01) (84, -6.08115613460540771484e-01) (85, 1.03334081172943115234e+00) (86, 1.35211837291717529297e+00) (87, -6.71683073043823242188e-01) (88, 4.64043766260147094727e-01) (89, 6.78068459033966064453e-01) (90, -1.08368182182312011719e+00) (91, -1.57964840531349182129e-01) (92, 6.71805143356323242188e-01) (93, 6.98478817939758300781e-01) (94, -4.73508447408676147461e-01) (95, -7.31710433959960937500e-01) (96, 3.75963091850280761719e-01) (97, 6.18124604225158691406e-01) (98, 4.69581335783004760742e-01) (68, 1.92458343505859375000e+00) (69, 3.81019562482833862305e-01) (70, 8.80003929138183593750e-01) (71, 9.23734247684478759766e-01) (72, -3.35328018991276621819e-04) (73, 4.25366401672363281250e-01) (74, -1.21615715324878692627e-01) (75, -3.04854482412338256836e-01) (76, 6.45943939685821533203e-01) (77, 6.21895372867584228516e-01) (78, 3.67865443229675292969e-01) (79, -5.86377620697021484375e-01) (80, 7.58468031883239746094e-01) (81, 3.22808772325515747070e-01) (82, 9.47566926479339599609e-01) (83, 1.09404408931732177734e+00) (84, -2.41225417703390121460e-02) (85, -7.06304371356964111328e-01) (86, 1.01524502038955688477e-01) (87, -5.18071353435516357422e-02) (88, -2.75852739810943603516e-01) (89, 1.25052356719970703125e+00) (90, -7.72311389446258544922e-01) (91, -1.22468724846839904785e-01) (92, 1.37208724021911621094e+00) (93, 7.20581769943237304688e-01) (94, 2.33562245965003967285e-01) (95, -1.06804370880126953125e-01) (96, 3.62508669495582580566e-02) (97, 1.74437183886766433716e-02) (98, 1.53766870498657226562e-01) (68, -6.74389302730560302734e-01) (69, -5.95277070999145507812e-01) (70, -5.98120272159576416016e-01) (71, 2.19729959964752197266e-01) (72, 3.95429998636245727539e-01) (73, -2.07368761301040649414e-01) (74, 9.19268250465393066406e-01) (75, -5.90976655483245849609e-01) (76, 4.26562845706939697266e-01) (77, 1.11349475383758544922e+00) (78, 5.80379188060760498047e-01) (79, 8.17791521549224853516e-01) (80, 1.26613974571228027344e+00) (81, 7.62518465518951416016e-01) (82, 9.06572043895721435547e-01) (83, -1.30838900804519653320e-01) (84, -4.54410761594772338867e-01) (85, 2.47788324952125549316e-01) (86, 1.63105234503746032715e-01) (87, 9.70446690917015075684e-02) (88, -1.72163337469100952148e-01) (89, -1.09567128121852874756e-01) (90, -1.74540364742279052734e+00) (91, 1.05654704570770263672e+00) (92, 2.76101052761077880859e-01) (93, 4.32067155838012695312e-01) (94, -5.42458415031433105469e-01) (95, -1.83898121118545532227e-01) (96, -1.36884510517120361328e-01) (97, 4.18242096900939941406e-01) (98, -3.52301374077796936035e-02) (68, 7.04629123210906982422e-01) (69, -3.16947758197784423828e-01) (70, 5.31044304370880126953e-01) (71, 4.34316471219062805176e-02) (72, 3.57202887535095214844e-01) (73, 4.24411296844482421875e-01) (74, 1.28540098667144775391e-01) (75, -2.04899728298187255859e-01) (76, 6.01287707686424255371e-02) (77, 6.64308786392211914062e-01) (78, -2.56889164447784423828e-01) (79, 5.46049118041992187500e-01) (80, 1.24944806098937988281e-01) (81, 6.79610908031463623047e-01) (82, 1.11718797683715820312e+00) (83, 8.20737242698669433594e-01) (84, -9.43476617336273193359e-01) (85, -1.27572655677795410156e+00) (86, 3.72973889112472534180e-01) (87, 1.39148318767547607422e+00) (88, -6.78532660007476806641e-01) (89, -1.71794742345809936523e-01) (90, -5.12092471122741699219e-01) (91, 4.79315429925918579102e-01) (92, 4.99859452247619628906e-01) (93, 1.08758449554443359375e+00) (94, -6.15020275115966796875e-01) (95, 6.53133094310760498047e-01) (96, 5.74538588523864746094e-01) (97, 8.43204259872436523438e-01) (98, 5.54536521434783935547e-01) (68, 9.56360399723052978516e-01) (69, -6.72740340232849121094e-01) (70, 2.50748842954635620117e-01) (71, 6.18639707565307617188e-01) (72, 7.56469368934631347656e-01) (73, 6.90806031227111816406e-01) (74, -4.91963624954223632812e-01) (75, 1.48030793666839599609e+00) (76, 1.58365577459335327148e-01) (77, 1.61332714557647705078e+00) (78, -1.05996288359165191650e-01) (79, 7.82660961151123046875e-01) (80, 3.02664190530776977539e-02) (81, 4.04609531164169311523e-01) (82, 1.27997803688049316406e+00) (83, 9.05242979526519775391e-01) (84, 8.80514010787010192871e-02) (85, -7.21548616886138916016e-01) (86, 4.40187931060791015625e-01) (87, -1.26518082618713378906e+00) (88, -8.23133945465087890625e-01) (89, -1.81994393467903137207e-01) (90, 1.28199800848960876465e-01) (91, -1.06471247971057891846e-01) (92, 4.07163351774215698242e-01) (93, 5.37270128726959228516e-01) (94, -6.32029771804809570312e-01) (95, -4.95898537337779998779e-02) (96, 3.53688120841979980469e-01) (97, -9.56958830356597900391e-01) (98, 8.86404097080230712891e-01) (68, -1.00434494018554687500e+00) (69, -1.31604993343353271484e+00) (70, -5.79298079013824462891e-01) (71, 3.92008125782012939453e-01) (72, 2.83132702112197875977e-01) (73, -4.48899343609809875488e-02) (74, 6.21621727943420410156e-01) (75, -6.63181006908416748047e-01) (76, 2.24882006645202636719e-01) (77, 6.90847277641296386719e-01) (78, 1.19354557991027832031e+00) (79, 8.15055608749389648438e-01) (80, 1.05599308013916015625e+00) (81, 3.12595039606094360352e-01) (82, 8.97645056247711181641e-01) (83, 1.96300312876701354980e-01) (84, 5.01694858074188232422e-01) (85, 2.20141157507896423340e-01) (86, 8.55813398957252502441e-02) (87, 8.23243200778961181641e-01) (88, 3.70587646961212158203e-01) (89, 5.55986523628234863281e-01) (90, -5.15107572078704833984e-01) (91, -3.29253375530242919922e-02) (92, 2.32893437147140502930e-01) (93, 1.71370053291320800781e+00) (94, -5.42588531970977783203e-01) (95, 1.33851453661918640137e-01) (96, 2.12916180491447448730e-01) (97, -7.11235553026199340820e-02) (98, 1.78184106945991516113e-01) (68, 5.49744307994842529297e-01) (69, -3.29060167074203491211e-01) (70, 5.15431106090545654297e-01) (71, 4.58296149969100952148e-01) (72, 4.65948045253753662109e-01) (73, 4.30660218000411987305e-01) (74, -2.15143054723739624023e-01) (75, 2.34807297587394714355e-01) (76, 3.53058248758316040039e-01) (77, 3.16403023898601531982e-02) (78, -1.96027874946594238281e-01) (79, 3.15613508224487304688e-01) (80, 1.84613857418298721313e-02) (81, 4.95305418968200683594e-01) (82, 1.36794114112854003906e+00) (83, 9.57277536392211914062e-01) (84, -1.03065013885498046875e+00) (85, -9.91105020046234130859e-01) (86, 3.48145067691802978516e-01) (87, 1.13153803348541259766e+00) (88, -8.93070876598358154297e-01) (89, -3.93411487340927124023e-01) (90, -5.06148636341094970703e-01) (91, 2.26794689893722534180e-01) (92, 5.18490314483642578125e-01) (93, 9.84362900257110595703e-01) (94, -8.80033448338508605957e-02) (95, 7.12040722370147705078e-01) (96, 2.71252810955047607422e-01) (97, 5.32134592533111572266e-01) (98, -6.59004226326942443848e-02) (68, 6.40848398208618164062e-01) (69, -1.34656116366386413574e-01) (70, 1.26213775947690010071e-02) (71, 1.28634119033813476562e+00) (72, 5.00311434268951416016e-01) (73, 3.58523130416870117188e-01) (74, -1.93735152482986450195e-01) (75, 6.38678133487701416016e-01) (76, -3.94223928451538085938e-02) (77, -1.71707093715667724609e-01) (78, 6.52034103870391845703e-01) (79, 7.72218763828277587891e-01) (80, -2.01626941561698913574e-01) (81, -1.60995244979858398438e-01) (82, 1.67403852939605712891e+00) (83, 6.73861086368560791016e-01) (84, -9.70501720905303955078e-01) (85, -8.43862771987915039062e-01) (86, 2.88653224706649780273e-01) (87, 1.11209642887115478516e+00) (88, -2.64342993497848510742e-01) (89, 1.00897991657257080078e+00) (90, -4.70763802528381347656e-01) (91, -4.71726506948471069336e-01) (92, 9.94911432266235351562e-01) (93, 8.23575139045715332031e-01) (94, 9.53030511736869812012e-02) (95, 3.15013200044631958008e-01) (96, 4.56091433763504028320e-01) (97, 4.12199944257736206055e-01) (98, 1.15334057807922363281e+00) (68, -3.64178270101547241211e-01) (69, -8.46289575099945068359e-01) (70, -2.43131592869758605957e-01) (71, -1.60261318087577819824e-01) (72, 7.23562598228454589844e-01) (73, 8.90872552990913391113e-02) (74, 3.81896615028381347656e-01) (75, 3.51941198110580444336e-01) (76, 2.67210900783538818359e-01) (77, 1.98402225971221923828e-01) (78, 1.69894576072692871094e-01) (79, 3.04278135299682617188e-01) (80, 8.05757105350494384766e-01) (81, 5.36843717098236083984e-01) (82, 8.07430624961853027344e-01) (83, 3.11065495014190673828e-01) (84, -6.83661282062530517578e-01) (85, -5.94594180583953857422e-01) (86, 4.30711597204208374023e-01) (87, 1.13957405090332031250e+00) (88, -2.31081433594226837158e-03) (89, -3.56749415397644042969e-01) (90, -2.96407580375671386719e-01) (91, 8.26481342315673828125e-01) (92, -2.47542671859264373779e-02) (93, 1.30363786220550537109e+00) (94, -3.97901684045791625977e-01) (95, -1.10064876079559326172e+00) (96, 1.17475084960460662842e-01) (97, 1.22815333306789398193e-02) (98, -4.45305287837982177734e-01)
input_names='ni1/ne' 'nuee' 'q' 'rmin' 'ti1/te'
output_names='OUT_NEO_CnC' 'OUT_NEO_CnD' 'OUT_NEO_Cne' 'OUT_NEO_CtC' 'OUT_NEO_CtD' 'OUT_NEO_Cte' 'OUT_SAU_CnC' 'OUT_SAU_CnD' 'OUT_SAU_Cne' 'OUT_SAU_CtC' 'OUT_SAU_CtD' 'OUT_SAU_Cte'
norm_output=0.0 0.0 0.0 0.0 0.0 0.0 0.0 0.0 0.0 0.0 0.0 0.0 0.0 0.0 0.0 0.0 0.0 0.0 0.0 0.0 0.0 0.0 0.0 0.0 0.0 0.0 0.0 0.0 0.0 0.0 0.0 0.0 0.0 0.0 0.0 0.0 0.0 0.0 0.0 0.0 0.0 0.0 0.0 0.0 0.0 0.0 0.0 0.0 0.0 0.0 0.0 0.0 0.0 0.0 0.0 0.0 0.0 0.0 0.0 0.0
MSE= 0.00404577702284