FANN_FLO_2.1
num_layers=5
learning_rate=0.700000
connection_rate=1.000000
network_type=0
learning_momentum=0.000000
training_algorithm=2
train_error_function=0
train_stop_function=0
cascade_output_change_fraction=0.010000
quickprop_decay=1083.556885
quickprop_mu=1.750000
rprop_increase_factor=1.200000
rprop_decrease_factor=0.500000
rprop_delta_min=0.000000
rprop_delta_max=50.000000
rprop_delta_zero=0.100000
cascade_output_stagnation_epochs=12
cascade_candidate_change_fraction=0.010000
cascade_candidate_stagnation_epochs=12
cascade_max_out_epochs=150
cascade_min_out_epochs=50
cascade_max_cand_epochs=150
cascade_min_cand_epochs=50
cascade_num_candidate_groups=2
bit_fail_limit=3.49999994039535522461e-01
cascade_candidate_limit=1.00000000000000000000e+03
cascade_weight_multiplier=4.00000005960464477539e-01
cascade_activation_functions_count=10
cascade_activation_functions=3 5 7 8 10 11 14 15 16 17
cascade_activation_steepnesses_count=4
cascade_activation_steepnesses=2.50000000000000000000e-01 5.00000000000000000000e-01 7.50000000000000000000e-01 1.00000000000000000000e+00
layer_sizes=6 31 31 31 13
scale_included=1
scale_mean_in=0.723941 -0.924910 5.043399 0.187140 4.874583
scale_deviation_in=0.174965 1.666062 2.701563 0.102613 2.733964
scale_new_min_in=-1.000000 -1.000000 -1.000000 -1.000000 -1.000000
scale_factor_in=1.000000 1.000000 1.000000 1.000000 1.000000
scale_mean_out=0.042672 0.823996 0.372164 0.179933 1.302366 0.326570 0.321204 0.811557 0.405299 0.321204 1.927226 0.391245
scale_deviation_out=0.210289 0.704777 0.206116 0.332142 1.206920 0.218257 0.289455 0.824155 0.201207 0.289455 1.736733 0.228828
scale_new_min_out=-1.000000 -1.000000 -1.000000 -1.000000 -1.000000 -1.000000 -1.000000 -1.000000 -1.000000 -1.000000 -1.000000 -1.000000
scale_factor_out=1.000000 1.000000 1.000000 1.000000 1.000000 1.000000 1.000000 1.000000 1.000000 1.000000 1.000000 1.000000
neurons (num_inputs, activation_function, activation_steepness)=(0, 0, 0.00000000000000000000e+00) (0, 0, 0.00000000000000000000e+00) (0, 0, 0.00000000000000000000e+00) (0, 0, 0.00000000000000000000e+00) (0, 0, 0.00000000000000000000e+00) (0, 0, 0.00000000000000000000e+00) (6, 5, 5.00000000000000000000e-01) (6, 5, 5.00000000000000000000e-01) (6, 5, 5.00000000000000000000e-01) (6, 5, 5.00000000000000000000e-01) (6, 5, 5.00000000000000000000e-01) (6, 5, 5.00000000000000000000e-01) (6, 5, 5.00000000000000000000e-01) (6, 5, 5.00000000000000000000e-01) (6, 5, 5.00000000000000000000e-01) (6, 5, 5.00000000000000000000e-01) (6, 5, 5.00000000000000000000e-01) (6, 5, 5.00000000000000000000e-01) (6, 5, 5.00000000000000000000e-01) (6, 5, 5.00000000000000000000e-01) (6, 5, 5.00000000000000000000e-01) (6, 5, 5.00000000000000000000e-01) (6, 5, 5.00000000000000000000e-01) (6, 5, 5.00000000000000000000e-01) (6, 5, 5.00000000000000000000e-01) (6, 5, 5.00000000000000000000e-01) (6, 5, 5.00000000000000000000e-01) (6, 5, 5.00000000000000000000e-01) (6, 5, 5.00000000000000000000e-01) (6, 5, 5.00000000000000000000e-01) (6, 5, 5.00000000000000000000e-01) (6, 5, 5.00000000000000000000e-01) (6, 5, 5.00000000000000000000e-01) (6, 5, 5.00000000000000000000e-01) (6, 5, 5.00000000000000000000e-01) (6, 5, 5.00000000000000000000e-01) (0, 5, 0.00000000000000000000e+00) (31, 5, 5.00000000000000000000e-01) (31, 5, 5.00000000000000000000e-01) (31, 5, 5.00000000000000000000e-01) (31, 5, 5.00000000000000000000e-01) (31, 5, 5.00000000000000000000e-01) (31, 5, 5.00000000000000000000e-01) (31, 5, 5.00000000000000000000e-01) (31, 5, 5.00000000000000000000e-01) (31, 5, 5.00000000000000000000e-01) (31, 5, 5.00000000000000000000e-01) (31, 5, 5.00000000000000000000e-01) (31, 5, 5.00000000000000000000e-01) (31, 5, 5.00000000000000000000e-01) (31, 5, 5.00000000000000000000e-01) (31, 5, 5.00000000000000000000e-01) (31, 5, 5.00000000000000000000e-01) (31, 5, 5.00000000000000000000e-01) (31, 5, 5.00000000000000000000e-01) (31, 5, 5.00000000000000000000e-01) (31, 5, 5.00000000000000000000e-01) (31, 5, 5.00000000000000000000e-01) (31, 5, 5.00000000000000000000e-01) (31, 5, 5.00000000000000000000e-01) (31, 5, 5.00000000000000000000e-01) (31, 5, 5.00000000000000000000e-01) (31, 5, 5.00000000000000000000e-01) (31, 5, 5.00000000000000000000e-01) (31, 5, 5.00000000000000000000e-01) (31, 5, 5.00000000000000000000e-01) (31, 5, 5.00000000000000000000e-01) (0, 5, 0.00000000000000000000e+00) (31, 5, 5.00000000000000000000e-01) (31, 5, 5.00000000000000000000e-01) (31, 5, 5.00000000000000000000e-01) (31, 5, 5.00000000000000000000e-01) (31, 5, 5.00000000000000000000e-01) (31, 5, 5.00000000000000000000e-01) (31, 5, 5.00000000000000000000e-01) (31, 5, 5.00000000000000000000e-01) (31, 5, 5.00000000000000000000e-01) (31, 5, 5.00000000000000000000e-01) (31, 5, 5.00000000000000000000e-01) (31, 5, 5.00000000000000000000e-01) (31, 5, 5.00000000000000000000e-01) (31, 5, 5.00000000000000000000e-01) (31, 5, 5.00000000000000000000e-01) (31, 5, 5.00000000000000000000e-01) (31, 5, 5.00000000000000000000e-01) (31, 5, 5.00000000000000000000e-01) (31, 5, 5.00000000000000000000e-01) (31, 5, 5.00000000000000000000e-01) (31, 5, 5.00000000000000000000e-01) (31, 5, 5.00000000000000000000e-01) (31, 5, 5.00000000000000000000e-01) (31, 5, 5.00000000000000000000e-01) (31, 5, 5.00000000000000000000e-01) (31, 5, 5.00000000000000000000e-01) (31, 5, 5.00000000000000000000e-01) (31, 5, 5.00000000000000000000e-01) (31, 5, 5.00000000000000000000e-01) (31, 5, 5.00000000000000000000e-01) (0, 5, 0.00000000000000000000e+00) (31, 0, 5.00000000000000000000e-01) (31, 0, 5.00000000000000000000e-01) (31, 0, 5.00000000000000000000e-01) (31, 0, 5.00000000000000000000e-01) (31, 0, 5.00000000000000000000e-01) (31, 0, 5.00000000000000000000e-01) (31, 0, 5.00000000000000000000e-01) (31, 0, 5.00000000000000000000e-01) (31, 0, 5.00000000000000000000e-01) (31, 0, 5.00000000000000000000e-01) (31, 0, 5.00000000000000000000e-01) (31, 0, 5.00000000000000000000e-01) (0, 0, 0.00000000000000000000e+00)
connections (connected_to_neuron, weight)=(0, 4.01894971728324890137e-02) (1, -3.20490598678588867188e-01) (2, -3.01367361098527908325e-02) (3, -4.34887021780014038086e-01) (4, 1.70050919055938720703e-01) (5, -5.23754715919494628906e-01) (0, -2.47882887721061706543e-01) (1, -1.50932490825653076172e-01) (2, -1.06664031744003295898e-01) (3, 1.06095278263092041016e+00) (4, -2.69504755735397338867e-01) (5, -1.98335722088813781738e-01) (0, -1.57809257507324218750e-01) (1, -3.86127531528472900391e-02) (2, 2.13878393173217773438e-01) (3, 6.98148965835571289062e-01) (4, 4.50529217720031738281e-01) (5, 4.07413482666015625000e-01) (0, -9.60144579410552978516e-01) (1, 4.28439736366271972656e-01) (2, 9.13886278867721557617e-02) (3, -1.55211448669433593750e-01) (4, 1.45624428987503051758e-01) (5, -5.82434594631195068359e-01) (0, 2.24346891045570373535e-01) (1, 6.82005763053894042969e-01) (2, 1.69016078114509582520e-01) (3, 5.05687177181243896484e-01) (4, 2.80593931674957275391e-01) (5, -3.85045409202575683594e-01) (0, 1.88375830650329589844e-01) (1, 1.01957477629184722900e-01) (2, -1.79452989250421524048e-02) (3, -1.21540999412536621094e+00) (4, 3.16332101821899414062e-01) (5, 7.06003785133361816406e-01) (0, -5.92295289039611816406e-01) (1, -1.49280205368995666504e-01) (2, -6.86552971601486206055e-02) (3, -2.11053729057312011719e-01) (4, 4.61312383413314819336e-02) (5, 6.26392543315887451172e-01) (0, 3.81003648042678833008e-01) (1, -4.83531922101974487305e-01) (2, 6.16707727313041687012e-02) (3, 4.18154776096343994141e-01) (4, 2.47371613979339599609e-01) (5, -5.65444529056549072266e-01) (0, -7.02432990074157714844e-02) (1, 3.26667875051498413086e-01) (2, 1.02668666839599609375e+00) (3, -3.60238224267959594727e-01) (4, -3.55452209711074829102e-01) (5, 7.33360588550567626953e-01) (0, 4.61683124303817749023e-02) (1, 8.51003885269165039062e-01) (2, 2.87174079567193984985e-02) (3, -7.42200389504432678223e-02) (4, -9.62415635585784912109e-02) (5, -5.72475731372833251953e-01) (0, 4.62867736816406250000e-01) (1, -1.34542834758758544922e+00) (2, -1.47000312805175781250e-01) (3, 4.91869091987609863281e-01) (4, -4.20519411563873291016e-01) (5, 3.19306671619415283203e-01) (0, -1.87579467892646789551e-01) (1, -2.11994409561157226562e-01) (2, -1.95885434746742248535e-01) (3, -5.64286746084690093994e-02) (4, -2.06338658928871154785e-01) (5, -2.29003772139549255371e-01) (0, 5.74150085449218750000e-01) (1, 1.50264847278594970703e+00) (2, 1.51769757270812988281e-01) (3, -6.21131837368011474609e-01) (4, -1.06469556689262390137e-01) (5, -9.59929600358009338379e-02) (0, 1.22465185821056365967e-01) (1, 7.19640433788299560547e-01) (2, 1.90128654241561889648e-01) (3, 5.94557285308837890625e-01) (4, -9.77996438741683959961e-02) (5, 8.41393232345581054688e-01) (0, -2.58705094456672668457e-02) (1, 5.03039836883544921875e-01) (2, -5.40904002264142036438e-03) (3, -6.12142503261566162109e-01) (4, -2.20240112394094467163e-02) (5, -3.37885349988937377930e-01) (0, 7.53819150850176811218e-03) (1, 2.50581353902816772461e-01) (2, -4.55442965030670166016e-02) (3, 6.93787515163421630859e-01) (4, -6.54127523303031921387e-02) (5, 1.56622779369354248047e+00) (0, -2.29567781090736389160e-01) (1, 1.49756193161010742188e+00) (2, 4.84692305326461791992e-02) (3, -3.98432612419128417969e-01) (4, -1.96980938315391540527e-01) (5, -7.90778517723083496094e-01) (0, 3.32004181109368801117e-03) (1, 7.40485012531280517578e-01) (2, 1.63702771067619323730e-01) (3, 6.37875556945800781250e-01) (4, -1.44756540656089782715e-01) (5, -9.10033166408538818359e-01) (0, 1.70840144157409667969e-01) (1, 1.76784157752990722656e-01) (2, -9.63514074683189392090e-02) (3, 6.50958597660064697266e-01) (4, 3.21266531944274902344e-01) (5, -5.64507663249969482422e-01) (0, 2.19027191400527954102e-01) (1, 1.03326249122619628906e+00) (2, 1.22830890119075775146e-01) (3, -4.76549983024597167969e-01) (4, 6.06410741806030273438e-01) (5, -1.06376409530639648438e+00) (0, 1.63123071193695068359e-01) (1, -2.19349607825279235840e-01) (2, -9.90007221698760986328e-02) (3, 7.91895464062690734863e-02) (4, 9.28401470184326171875e-01) (5, -2.36887884140014648438e+00) (0, 6.04768171906471252441e-02) (1, -7.80346810817718505859e-01) (2, -1.08034265041351318359e+00) (3, 2.87688791751861572266e-01) (4, 2.65664696693420410156e-01) (5, -1.06869685649871826172e+00) (0, 1.51338040828704833984e-01) (1, 4.61204737424850463867e-01) (2, 8.19717049598693847656e-02) (3, 6.25508189201354980469e-01) (4, 5.84266245365142822266e-01) (5, 6.17890775203704833984e-01) (0, -1.19532719254493713379e-02) (1, 1.81096658110618591309e-01) (2, -2.90453404188156127930e-01) (3, 3.74505966901779174805e-02) (4, 3.61066907644271850586e-01) (5, -5.63020467758178710938e-01) (0, -3.24845969676971435547e-01) (1, -5.54662764072418212891e-01) (2, -5.69214224815368652344e-02) (3, 6.67459666728973388672e-01) (4, 4.13785636425018310547e-01) (5, -5.72770655155181884766e-01) (0, 1.59937396645545959473e-01) (1, 4.65790718793869018555e-01) (2, 5.42930103838443756104e-02) (3, 2.58003801107406616211e-01) (4, -2.28887468576431274414e-01) (5, -7.86804854869842529297e-01) (0, 1.32310017943382263184e-01) (1, -3.30479353666305541992e-01) (2, 4.04147654771804809570e-02) (3, 7.01164186000823974609e-01) (4, 4.55043196678161621094e-01) (5, -1.30793064832687377930e-01) (0, -6.25348016619682312012e-02) (1, 9.32869851589202880859e-01) (2, 1.03254687786102294922e+00) (3, -1.52732819318771362305e-01) (4, -2.20785990357398986816e-01) (5, 1.04786491394042968750e+00) (0, -1.62051215767860412598e-01) (1, 4.53182816505432128906e-01) (2, 1.96390017867088317871e-01) (3, -4.83720541000366210938e-01) (4, 6.62307620048522949219e-01) (5, 1.52754366397857666016e+00) (0, 5.41958153247833251953e-01) (1, -1.49476990103721618652e-01) (2, 2.48073972761631011963e-02) (3, -2.49629124999046325684e-01) (4, -2.91160255670547485352e-01) (5, -7.58417725563049316406e-01) (6, 8.71288537979125976562e-01) (7, -7.06724584102630615234e-01) (8, 1.97732865810394287109e+00) (9, -3.00244271755218505859e-01) (10, 1.08021986484527587891e+00) (11, -6.66353523731231689453e-01) (12, 1.20060634613037109375e+00) (13, 4.29590791463851928711e-02) (14, 6.98941946029663085938e+00) (15, -8.18211317062377929688e-01) (16, 3.60562229156494140625e+00) (17, -4.15585279464721679688e+00) (18, 3.95000874996185302734e-01) (19, 3.46664726734161376953e-01) (20, -1.68585136532783508301e-01) (21, 2.95986980199813842773e-01) (22, -6.28066122531890869141e-01) (23, -2.39132380485534667969e+00) (24, -3.41182708740234375000e+00) (25, -7.27786362171173095703e-01) (26, 6.27468824386596679688e-01) (27, 5.53719341754913330078e-01) (28, 1.10940289497375488281e+00) (29, -3.04739689826965332031e+00) (30, 3.19183498620986938477e-01) (31, -4.27205753326416015625e+00) (32, 3.98738050460815429688e+00) (33, 4.72538280487060546875e+00) (34, 1.34174633026123046875e+00) (35, -8.12105298042297363281e-01) (36, 1.49759757518768310547e+00) (6, 4.27332818508148193359e-01) (7, 8.56993913650512695312e-01) (8, -6.02022647857666015625e-01) (9, 2.01202556490898132324e-01) (10, 3.43180686235427856445e-01) (11, 4.06718075275421142578e-01) (12, -3.51502448320388793945e-01) (13, 1.54821306467056274414e-01) (14, 8.95229816436767578125e-01) (15, 1.07202422618865966797e+00) (16, 7.91931748390197753906e-01) (17, 7.28677213191986083984e-01) (18, -5.20395457744598388672e-01) (19, 7.65310287475585937500e-01) (20, -1.44018754363059997559e-01) (21, 7.26079761981964111328e-01) (22, -9.16952610015869140625e-01) (23, -1.41859662532806396484e+00) (24, 1.00285029411315917969e+00) (25, 9.64954793453216552734e-02) (26, 1.09497450292110443115e-01) (27, 5.82251846790313720703e-01) (28, 9.58143234252929687500e-01) (29, -4.39405381679534912109e-01) (30, 1.15879487991333007812e+00) (31, 2.84892141819000244141e-01) (32, -5.57104051113128662109e-01) (33, -1.13196730613708496094e-01) (34, -2.82746613025665283203e-01) (35, 6.68467700481414794922e-01) (36, 1.66282087564468383789e-01) (6, 3.40876162052154541016e-01) (7, 7.70044684410095214844e-01) (8, 2.82012969255447387695e-01) (9, 7.85529613494873046875e-02) (10, 2.15314999222755432129e-02) (11, 9.14907753467559814453e-01) (12, 9.92700830101966857910e-03) (13, -2.86007840186357498169e-02) (14, 2.40377217531204223633e-01) (15, -1.73191443085670471191e-01) (16, 1.00294339656829833984e+00) (17, 7.98318922519683837891e-01) (18, -6.38084650039672851562e-01) (19, 1.95338666439056396484e-01) (20, -9.42291438579559326172e-01) (21, -4.35346275568008422852e-01) (22, -8.62317681312561035156e-01) (23, -7.93404936790466308594e-01) (24, -3.85922074317932128906e-01) (25, -6.46779656410217285156e-01) (26, -1.23798973858356475830e-01) (27, 1.42747509479522705078e+00) (28, 1.32370793819427490234e+00) (29, -1.50491094589233398438e+00) (30, -8.39968174695968627930e-02) (31, -8.36643576622009277344e-01) (32, 2.71947801113128662109e-01) (33, -5.62069118022918701172e-01) (34, 1.02152086794376373291e-01) (35, -3.12382727861404418945e-01) (36, 1.29188764095306396484e+00) (6, -9.83660578727722167969e-01) (7, 1.07913456857204437256e-01) (8, 2.86056786775588989258e-01) (9, -1.15846121311187744141e+00) (10, 8.79973828792572021484e-01) (11, -5.57129561901092529297e-01) (12, 1.04026591777801513672e+00) (13, 2.08691731095314025879e-01) (14, -5.66947553306818008423e-03) (15, 1.22996294498443603516e+00) (16, -2.53404021263122558594e-01) (17, 1.20900249481201171875e+00) (18, -1.13356215879321098328e-02) (19, 8.31013321876525878906e-01) (20, -7.83900320529937744141e-01) (21, 2.06340765953063964844e+00) (22, -1.91149652004241943359e-01) (23, -6.82887315750122070312e-01) (24, 5.79250395298004150391e-01) (25, -2.19444736838340759277e-01) (26, 1.26515567302703857422e-01) (27, -7.36735582351684570312e-01) (28, 1.68314188718795776367e-01) (29, 1.03642255067825317383e-01) (30, 2.24143072962760925293e-01) (31, -5.13920903205871582031e-01) (32, -1.67649209499359130859e-01) (33, -1.12079486250877380371e-01) (34, 2.40470081567764282227e-01) (35, -3.40764164924621582031e-01) (36, 1.36482286453247070312e+00) (6, -1.04015581309795379639e-01) (7, -7.37732797861099243164e-02) (8, 1.65344923734664916992e-01) (9, 5.21227419376373291016e-01) (10, 3.83477598428726196289e-01) (11, 1.05779945850372314453e+00) (12, 8.09182882308959960938e-01) (13, -2.77315735816955566406e-01) (14, -9.83667075634002685547e-02) (15, 1.23413062095642089844e+00) (16, 8.59801590442657470703e-01) (17, 5.11806428432464599609e-01) (18, -3.92160713672637939453e-01) (19, -3.35514247417449951172e-01) (20, -2.48774155974388122559e-01) (21, 1.02177608013153076172e+00) (22, 1.59491688013076782227e-01) (23, -1.21141903102397918701e-01) (24, -2.10204318165779113770e-01) (25, -2.06433579325675964355e-01) (26, 1.00833594799041748047e+00) (27, 3.18742245435714721680e-01) (28, 6.23740196228027343750e-01) (29, 1.19261431694030761719e+00) (30, 3.58188569545745849609e-01) (31, 7.15578496456146240234e-02) (32, 6.99190497398376464844e-01) (33, 1.19015836715698242188e+00) (34, -2.21679642796516418457e-01) (35, 1.25979590415954589844e+00) (36, -9.56948250532150268555e-02) (6, 7.35020697116851806641e-01) (7, 5.25859110057353973389e-02) (8, -8.33848774433135986328e-01) (9, 6.08884572982788085938e-01) (10, -1.00869275629520416260e-02) (11, 1.26082515716552734375e+00) (12, 8.97396728396415710449e-03) (13, 2.01945006847381591797e-01) (14, -1.70753315091133117676e-01) (15, -1.12206363677978515625e+00) (16, 1.56877493858337402344e+00) (17, -5.11676549911499023438e-01) (18, -6.88326001167297363281e-01) (19, -4.27759557962417602539e-01) (20, 7.43838369846343994141e-01) (21, -4.16207760572433471680e-01) (22, 1.71147614717483520508e-01) (23, -4.68353331089019775391e-01) (24, 4.50531482696533203125e-01) (25, -3.01337331533432006836e-01) (26, -8.55446577072143554688e-01) (27, 2.33912423253059387207e-01) (28, 2.80063524842262268066e-02) (29, 5.41271507740020751953e-01) (30, 5.91351151466369628906e-01) (31, -3.55552911758422851562e-01) (32, 4.40916493535041809082e-02) (33, 4.56971973180770874023e-01) (34, 1.01389408111572265625e+00) (35, -9.38726440072059631348e-02) (36, 1.94938194751739501953e+00) (6, 9.31693851947784423828e-01) (7, 6.90003752708435058594e-01) (8, -5.54076850414276123047e-01) (9, -1.67513263225555419922e+00) (10, 5.77758133411407470703e-01) (11, -3.04686516523361206055e-01) (12, 7.20592975616455078125e-01) (13, 4.33999091386795043945e-01) (14, -1.18900544941425323486e-01) (15, 1.58404159545898437500e+00) (16, -4.04906392097473144531e-01) (17, 8.51687848567962646484e-01) (18, -7.61765897274017333984e-01) (19, -5.77360332012176513672e-01) (20, 2.21963778138160705566e-01) (21, -1.81738823652267456055e-01) (22, 2.42006748914718627930e-01) (23, 8.70839774608612060547e-01) (24, -8.70953798294067382812e-01) (25, 1.32240617275238037109e+00) (26, 7.58960366249084472656e-01) (27, -2.06792876124382019043e-01) (28, -8.19093644618988037109e-01) (29, 2.34712988138198852539e-01) (30, 6.54412955045700073242e-02) (31, 1.50083839893341064453e-01) (32, -1.17583298683166503906e+00) (33, 1.06634306907653808594e+00) (34, 3.45018625259399414062e-01) (35, -1.08557522296905517578e+00) (36, 3.61900269985198974609e-01) (6, -1.01934410631656646729e-01) (7, -3.75448346138000488281e-01) (8, 2.22262337803840637207e-01) (9, -2.00054012238979339600e-02) (10, -5.94079315662384033203e-01) (11, 3.91098797321319580078e-01) (12, 1.97215408086776733398e-01) (13, -2.58427411317825317383e-01) (14, -1.35327383875846862793e-01) (15, 2.76972800493240356445e-01) (16, 3.01686584949493408203e-01) (17, 1.62200868129730224609e-01) (18, 2.10486173629760742188e-01) (19, 6.42918765544891357422e-01) (20, -1.38413924723863601685e-02) (21, -4.17330503463745117188e-01) (22, 5.10994374752044677734e-01) (23, 4.61735606193542480469e-01) (24, 3.07999849319458007812e-01) (25, 2.24538240581750869751e-02) (26, -9.77903366088867187500e-01) (27, 8.70863974094390869141e-01) (28, 1.78838983178138732910e-01) (29, 4.84630018472671508789e-01) (30, 1.47323775291442871094e+00) (31, 1.37595343589782714844e+00) (32, 7.59544193744659423828e-01) (33, 1.10009396076202392578e+00) (34, 7.30238080024719238281e-01) (35, -6.73722147941589355469e-01) (36, 8.38330760598182678223e-02) (6, -4.55214768648147583008e-01) (7, 1.10666954517364501953e+00) (8, -1.30163204669952392578e+00) (9, 5.90022981166839599609e-01) (10, 9.75681245326995849609e-02) (11, -8.96671473979949951172e-01) (12, 6.84886336326599121094e-01) (13, -1.62153053283691406250e+00) (14, 1.53786194324493408203e+00) (15, 6.80274665355682373047e-01) (16, 3.46272259950637817383e-01) (17, -2.89446175098419189453e-01) (18, 1.44032329320907592773e-01) (19, 2.45575383305549621582e-01) (20, 1.57456648349761962891e+00) (21, -3.72841536998748779297e-01) (22, 1.46226549148559570312e+00) (23, 5.50391554832458496094e-01) (24, 1.77523329854011535645e-01) (25, -7.14861392974853515625e-01) (26, 1.56597331166267395020e-01) (27, -4.91189211606979370117e-02) (28, 4.69546347856521606445e-01) (29, 1.52696406841278076172e+00) (30, -5.46288788318634033203e-01) (31, -4.92476224899291992188e-01) (32, -8.13213288784027099609e-01) (33, 2.46519595384597778320e-01) (34, 1.14520996809005737305e-01) (35, 1.14172208309173583984e+00) (36, 2.64990001916885375977e-01) (6, -3.12392085790634155273e-01) (7, 4.52809184789657592773e-01) (8, 1.13761043548583984375e+00) (9, 1.18271970748901367188e+00) (10, 1.37304678559303283691e-01) (11, -8.48203152418136596680e-02) (12, -2.31205657124519348145e-01) (13, -3.82975116372108459473e-02) (14, 7.74793028831481933594e-02) (15, 4.57947343587875366211e-01) (16, 1.01597476005554199219e+00) (17, -8.96933376789093017578e-02) (18, 5.75128376483917236328e-01) (19, -1.14887997508049011230e-01) (20, 2.31698751449584960938e-01) (21, -7.11823105812072753906e-02) (22, -7.69487917423248291016e-01) (23, -3.67421954870223999023e-02) (24, -1.38111650943756103516e-01) (25, 2.62376189231872558594e-01) (26, 1.81934928894042968750e+00) (27, 1.92116752266883850098e-01) (28, 1.05360269546508789062e+00) (29, 6.61623835563659667969e-01) (30, 9.84538316726684570312e-01) (31, -2.62168765068054199219e-01) (32, 2.70948052406311035156e-01) (33, 6.09454393386840820312e-01) (34, -6.55592620372772216797e-01) (35, 9.52770352363586425781e-01) (36, -1.50678658485412597656e+00) (6, -1.07481814920902252197e-01) (7, -7.83879220485687255859e-01) (8, 6.29862129688262939453e-01) (9, 6.81879103183746337891e-01) (10, -5.17489492893218994141e-01) (11, -8.36110711097717285156e-02) (12, 3.45202594995498657227e-01) (13, -5.25984764099121093750e-01) (14, 4.69625532627105712891e-01) (15, 1.44955620169639587402e-01) (16, -1.34257087484002113342e-02) (17, -1.76662325859069824219e+00) (18, 1.02404189109802246094e+00) (19, 2.75692284107208251953e-01) (20, -9.67661476135253906250e+00) (21, 1.59474973678588867188e+01) (22, 5.11530458927154541016e-01) (23, -4.02354672551155090332e-02) (24, -8.59347403049468994141e-01) (25, -5.35170733928680419922e-01) (26, -6.57319247722625732422e-01) (27, 1.88930404186248779297e+00) (28, 4.03030514717102050781e-01) (29, -7.61417925357818603516e-01) (30, 3.40251684188842773438e-01) (31, 4.52501624822616577148e-01) (32, 6.73168659210205078125e-01) (33, 1.48919939994812011719e+00) (34, -1.69474393129348754883e-01) (35, -7.37883269786834716797e-01) (36, 9.33464705944061279297e-01) (6, 5.47344684600830078125e-01) (7, 2.48692616820335388184e-01) (8, 2.69093930721282958984e-01) (9, -7.37454473972320556641e-01) (10, 1.40518710017204284668e-01) (11, 1.49426436424255371094e+00) (12, 9.88772869110107421875e-01) (13, 9.95559453964233398438e-01) (14, -6.15053474903106689453e-01) (15, -1.07810996472835540771e-01) (16, 6.83359727263450622559e-02) (17, 1.88970017433166503906e+00) (18, -3.10519695281982421875e-01) (19, 2.03750133514404296875e-01) (20, -2.83404052257537841797e-01) (21, -1.20067670941352844238e-01) (22, -8.55977773666381835938e-01) (23, -8.04257452487945556641e-01) (24, -7.46562182903289794922e-01) (25, 3.96986037492752075195e-01) (26, 3.61952543258666992188e-01) (27, 5.74111044406890869141e-01) (28, 2.21037387847900390625e-01) (29, -1.82688486576080322266e+00) (30, 1.55041348934173583984e+00) (31, 5.23420572280883789062e-01) (32, 1.07941055297851562500e+00) (33, -2.14928314089775085449e-01) (34, 1.55590355396270751953e+00) (35, -1.67567372322082519531e-01) (36, 1.01614952087402343750e+00) (6, 1.92100346088409423828e-01) (7, 2.51983433961868286133e-01) (8, 1.70640170574188232422e-01) (9, 1.18752467632293701172e+00) (10, -6.14673137664794921875e-01) (11, 7.93015241622924804688e-01) (12, -4.41273301839828491211e-01) (13, -5.20399749279022216797e-01) (14, -1.48579001426696777344e-01) (15, -2.66649365425109863281e-01) (16, -4.09992545843124389648e-01) (17, -3.46642553806304931641e-01) (18, -2.59523056447505950928e-02) (19, 4.67387616634368896484e-01) (20, -4.86655123531818389893e-02) (21, 4.05866026878356933594e-01) (22, 1.16727316379547119141e+00) (23, 2.08942842483520507812e+00) (24, -8.23716044425964355469e-01) (25, 1.51694214344024658203e+00) (26, 1.02506387233734130859e+00) (27, -5.20514920353889465332e-02) (28, -3.01878184080123901367e-01) (29, 1.48044860363006591797e+00) (30, 4.54009711742401123047e-01) (31, 4.55395269393920898438e+00) (32, 1.43429720401763916016e+00) (33, 1.58051478862762451172e+00) (34, 1.94638356566429138184e-01) (35, 1.10766434669494628906e+00) (36, -1.33005023002624511719e-01) (6, -6.78399980068206787109e-01) (7, 4.30534929037094116211e-01) (8, -1.14832296967506408691e-01) (9, 5.02889394760131835938e-01) (10, 5.38447380065917968750e-01) (11, 4.68663185834884643555e-01) (12, 1.32749402523040771484e+00) (13, 7.60544657707214355469e-01) (14, -5.17064571380615234375e-01) (15, 9.93011772632598876953e-01) (16, 3.62683534622192382812e-01) (17, 7.11561679840087890625e-01) (18, -3.11327189207077026367e-01) (19, 8.59249353408813476562e-01) (20, -8.05484533309936523438e-01) (21, 8.91085267066955566406e-01) (22, 7.72086441516876220703e-01) (23, -1.57460391521453857422e-01) (24, 1.16421663761138916016e+00) (25, 5.24912253022193908691e-02) (26, -4.73201394081115722656e-01) (27, -1.87720566987991333008e-01) (28, 9.07685816287994384766e-01) (29, -5.39447247982025146484e-01) (30, 1.51997387409210205078e-01) (31, -2.19017893075942993164e-01) (32, 7.97254502773284912109e-01) (33, 4.85228270292282104492e-01) (34, 2.56712049245834350586e-01) (35, 2.13433459401130676270e-01) (36, 2.20065331459045410156e+00) (6, 1.98822841048240661621e-01) (7, -4.85239326953887939453e-01) (8, -1.05277907848358154297e+00) (9, 8.96514296531677246094e-01) (10, 6.96203708648681640625e-01) (11, 7.76820719242095947266e-01) (12, 9.52919483184814453125e-01) (13, 1.38571691513061523438e+00) (14, 3.33892166614532470703e-01) (15, 1.50558757781982421875e+00) (16, -4.60274487733840942383e-01) (17, 5.45481801033020019531e-01) (18, -4.47014987468719482422e-01) (19, 7.03142225742340087891e-01) (20, -7.15060949325561523438e-01) (21, -5.68700432777404785156e-01) (22, 7.52198636531829833984e-01) (23, 9.81726765632629394531e-01) (24, 9.33791160583496093750e-01) (25, -1.44650191068649291992e-01) (26, 8.21260035037994384766e-01) (27, -5.01585781574249267578e-01) (28, -6.48272216320037841797e-01) (29, -4.76375043392181396484e-01) (30, 2.04217946156859397888e-03) (31, 3.69437873363494873047e-01) (32, -5.58991849422454833984e-01) (33, -6.93120419979095458984e-01) (34, 1.40067970752716064453e+00) (35, 2.65210723876953125000e+00) (36, -2.15744465589523315430e-01) (6, -5.17586350440979003906e-01) (7, 1.20649385452270507812e+00) (8, 7.48806059360504150391e-01) (9, -7.76421606540679931641e-01) (10, -7.55235552787780761719e-02) (11, -9.21137034893035888672e-02) (12, -2.91965484619140625000e-01) (13, 1.06338132172822952271e-02) (14, -1.72519966959953308105e-01) (15, -5.09106576442718505859e-01) (16, 2.32470914721488952637e-01) (17, 6.91463232040405273438e-01) (18, -1.05363175272941589355e-01) (19, -2.34882712364196777344e-01) (20, -5.50210058689117431641e-01) (21, 1.13249495625495910645e-01) (22, 9.31227266788482666016e-01) (23, -1.65301799774169921875e+00) (24, -8.94190251827239990234e-01) (25, 1.31927534937858581543e-01) (26, 3.81393790245056152344e-01) (27, 2.69486233592033386230e-02) (28, 4.95029203593730926514e-02) (29, 4.00989443063735961914e-01) (30, 7.45912492275238037109e-01) (31, 1.48663437366485595703e+00) (32, 6.92514598369598388672e-01) (33, 3.87537330389022827148e-01) (34, 1.99105843901634216309e-01) (35, -4.57490473985671997070e-01) (36, 1.25436627864837646484e+00) (6, 1.07746970653533935547e+00) (7, 1.22744631767272949219e+00) (8, 9.03138339519500732422e-01) (9, 9.46040824055671691895e-02) (10, 2.74176418781280517578e-01) (11, 1.21803045272827148438e+00) (12, -3.36628049612045288086e-01) (13, -1.46857053041458129883e-01) (14, 1.21879503130912780762e-01) (15, -8.06936994194984436035e-02) (16, 8.53707253932952880859e-01) (17, 9.70426201820373535156e-02) (18, 2.51526594161987304688e-01) (19, -2.75619536638259887695e-01) (20, 3.96485000848770141602e-01) (21, -8.49814176559448242188e-01) (22, -2.45323956012725830078e-01) (23, -3.46717208623886108398e-01) (24, 2.38903120160102844238e-01) (25, -1.26679629087448120117e-01) (26, 1.10763978958129882812e+00) (27, -7.51499161124229431152e-02) (28, -8.04636813700199127197e-03) (29, 1.21345976367592811584e-02) (30, -5.58780312538146972656e-01) (31, -4.26441550254821777344e-01) (32, 1.31544083356857299805e-01) (33, -4.39681738615036010742e-01) (34, 1.63473260402679443359e+00) (35, -7.79091477394104003906e-01) (36, 1.23381710052490234375e+00) (6, 6.48998558521270751953e-01) (7, -1.03092753887176513672e+00) (8, -2.35505074262619018555e-01) (9, 1.27388596534729003906e+00) (10, 8.84903728961944580078e-01) (11, 6.83716952800750732422e-01) (12, 1.49424016475677490234e-01) (13, 1.66023164987564086914e-01) (14, 1.41850188374519348145e-01) (15, -6.92534327507019042969e-01) (16, -1.26330867409706115723e-01) (17, 1.52364873886108398438e+00) (18, 9.57983374595642089844e-01) (19, -5.98131835460662841797e-01) (20, -4.49737757444381713867e-01) (21, 6.87748849391937255859e-01) (22, -6.76234588027000427246e-02) (23, 5.86283862590789794922e-01) (24, 4.65110003948211669922e-01) (25, -9.43232849240303039551e-02) (26, 1.48063555359840393066e-01) (27, -4.79857949540019035339e-03) (28, 1.59470033645629882812e+00) (29, 8.56673792004585266113e-02) (30, 3.73036190867424011230e-02) (31, 1.62161752581596374512e-01) (32, -4.90709632635116577148e-01) (33, 3.03119808435440063477e-01) (34, -7.51707732677459716797e-01) (35, 9.95851397514343261719e-01) (36, 5.24702608585357666016e-01) (6, 4.49060678482055664062e-01) (7, -1.62708759307861328125e-01) (8, 4.70756530761718750000e-01) (9, 3.57299208641052246094e-01) (10, 4.81346920132637023926e-02) (11, 1.11761391162872314453e+00) (12, 2.01166108250617980957e-01) (13, 5.76992213726043701172e-01) (14, -7.79572963714599609375e-01) (15, 7.93150305747985839844e-01) (16, 1.96706879138946533203e+00) (17, 4.76153075695037841797e-01) (18, -5.55742485448718070984e-03) (19, -4.11139607429504394531e-01) (20, 1.29749643802642822266e+00) (21, 6.23176276683807373047e-01) (22, 1.34705632925033569336e-01) (23, 2.98698097467422485352e-01) (24, 7.34804451465606689453e-01) (25, 1.16860342025756835938e+00) (26, 1.19477951526641845703e+00) (27, -6.64281547069549560547e-01) (28, 7.29694664478302001953e-01) (29, -4.44030314683914184570e-02) (30, 2.83624470233917236328e-01) (31, -4.65298146009445190430e-01) (32, -4.50050830841064453125e-01) (33, 6.59189879894256591797e-01) (34, 1.34667396545410156250e-01) (35, 2.31841772794723510742e-01) (36, 7.10593760013580322266e-02) (6, -2.66336500644683837891e-01) (7, -6.27910554409027099609e-01) (8, -4.22294467687606811523e-01) (9, 1.15514862537384033203e+00) (10, 7.35253751277923583984e-01) (11, 1.15923561155796051025e-01) (12, -9.81476902961730957031e-01) (13, 3.30843734741210937500e+00) (14, 6.12251937389373779297e-01) (15, -1.52689456939697265625e-01) (16, 8.56128752231597900391e-01) (17, -8.60253572463989257812e-01) (18, 8.13555240631103515625e-01) (19, 5.68566977977752685547e-01) (20, 1.37465929985046386719e+00) (21, -8.39745640754699707031e-01) (22, -6.21161580085754394531e-01) (23, -2.32517242431640625000e-01) (24, 5.98901748657226562500e-01) (25, 2.21135467290878295898e-01) (26, 8.92371758818626403809e-02) (27, 1.37420654296875000000e+00) (28, -2.63734042644500732422e-01) (29, -1.38761382550001144409e-02) (30, 6.49938464164733886719e-01) (31, 6.59889936447143554688e-01) (32, 1.06508195400238037109e+00) (33, -8.89629572629928588867e-02) (34, -5.12945175170898437500e-01) (35, 9.31039094924926757812e-01) (36, -5.57668268680572509766e-01) (6, 7.58045136928558349609e-01) (7, 3.47336009144783020020e-02) (8, 2.40532815456390380859e-01) (9, 5.86081326007843017578e-01) (10, 5.86261689662933349609e-01) (11, -4.91495467722415924072e-02) (12, 5.89207589626312255859e-01) (13, 7.22843855619430541992e-02) (14, -1.61816641688346862793e-01) (15, 1.26615357398986816406e+00) (16, -2.52212107181549072266e-01) (17, 2.76589179039001464844e+00) (18, 9.81096148490905761719e-01) (19, -6.12367987632751464844e-01) (20, 7.59986460208892822266e-01) (21, 1.27971634268760681152e-01) (22, 8.03582549095153808594e-01) (23, 2.44308650493621826172e-01) (24, 4.97784167528152465820e-02) (25, 5.21441578865051269531e-01) (26, 3.98122608661651611328e-01) (27, -9.05112802982330322266e-01) (28, 1.05604851245880126953e+00) (29, -6.75643146038055419922e-01) (30, -1.93978011608123779297e-01) (31, 2.39967286586761474609e-01) (32, 1.04048991203308105469e+00) (33, 1.43785402178764343262e-01) (34, 8.74963939189910888672e-01) (35, 6.81897580623626708984e-01) (36, 2.54621535539627075195e-01) (6, 1.77254334092140197754e-01) (7, 5.86243391036987304688e-01) (8, 1.52366626262664794922e+00) (9, 1.70421564579010009766e+00) (10, -1.59660577774047851562e-01) (11, 7.20088958740234375000e-01) (12, 3.26656848192214965820e-01) (13, 5.33826768398284912109e-01) (14, 7.82871767878532409668e-02) (15, 3.23064029216766357422e-02) (16, 1.10261285305023193359e+00) (17, -3.65053474903106689453e-01) (18, -2.95640259981155395508e-01) (19, -3.39063674211502075195e-01) (20, 9.40363705158233642578e-01) (21, 1.67148858308792114258e-01) (22, 4.91609454154968261719e-01) (23, 7.81919598579406738281e-01) (24, -2.91790336370468139648e-01) (25, -7.76549279689788818359e-02) (26, -3.82295221090316772461e-01) (27, 4.93243187665939331055e-01) (28, 5.33158183097839355469e-01) (29, 1.03797100484371185303e-01) (30, 1.02810251712799072266e+00) (31, 7.20377147197723388672e-01) (32, 2.45930954813957214355e-01) (33, -2.86849021911621093750e-01) (34, 9.50990095734596252441e-02) (35, 1.25760781764984130859e+00) (36, 5.89070856571197509766e-01) (6, 7.49426782131195068359e-01) (7, -6.59954607486724853516e-01) (8, -8.11066269874572753906e-01) (9, 9.20032322406768798828e-01) (10, -5.38150250911712646484e-01) (11, 2.79351770877838134766e-01) (12, -4.85912889242172241211e-01) (13, 7.47351825237274169922e-01) (14, -1.19207516312599182129e-01) (15, 1.02497577667236328125e+00) (16, 1.71567857265472412109e-01) (17, 8.38730812072753906250e-01) (18, -1.53821155428886413574e-01) (19, 1.14911615848541259766e+00) (20, 1.12950347363948822021e-01) (21, -5.71232259273529052734e-01) (22, 2.13429778814315795898e-02) (23, 7.49331295490264892578e-01) (24, 3.39112967252731323242e-01) (25, -9.18562650680541992188e-01) (26, -1.45520001649856567383e-01) (27, -2.34360739588737487793e-01) (28, 6.30010545253753662109e-01) (29, 2.81056404113769531250e-01) (30, -3.66462439298629760742e-01) (31, 9.20451581478118896484e-01) (32, -6.56395971775054931641e-01) (33, 4.82954621315002441406e-01) (34, -2.37756744027137756348e-01) (35, 1.44037854671478271484e+00) (36, -4.41869735717773437500e-01) (6, 6.72234952449798583984e-01) (7, -2.00062885880470275879e-01) (8, 1.06763458251953125000e+00) (9, -3.47606182098388671875e-01) (10, 9.48671638965606689453e-01) (11, -7.18722283840179443359e-01) (12, 8.57324838638305664062e-01) (13, 6.45020604133605957031e-01) (14, 8.70177268981933593750e-01) (15, 5.60061991214752197266e-01) (16, -3.15879166126251220703e-01) (17, -3.36256355047225952148e-01) (18, -1.37470018863677978516e+00) (19, 1.08825460076332092285e-01) (20, 4.67347986996173858643e-02) (21, -4.28916990756988525391e-01) (22, -2.61418163776397705078e-01) (23, -9.09044921398162841797e-01) (24, 5.16541719436645507812e-01) (25, 9.16962325572967529297e-02) (26, 1.49157211184501647949e-01) (27, 1.96558892726898193359e+00) (28, 1.17002174258232116699e-01) (29, 1.01163887977600097656e+00) (30, -9.62022304534912109375e-01) (31, 3.28599326312541961670e-02) (32, 7.97727525234222412109e-01) (33, 7.59344279766082763672e-01) (34, -6.21720433235168457031e-01) (35, 3.50109159946441650391e-01) (36, -7.01072454452514648438e-01) (6, 7.56195604801177978516e-01) (7, 2.71650850772857666016e-01) (8, -7.89305329322814941406e-01) (9, 7.19876766204833984375e-01) (10, 2.76471763849258422852e-01) (11, -5.98169147968292236328e-01) (12, 7.11133182048797607422e-01) (13, 9.34217929840087890625e-01) (14, 1.70683872699737548828e+00) (15, 1.24169194698333740234e+00) (16, 1.48398387432098388672e+00) (17, 1.33501124382019042969e+00) (18, 6.78417921066284179688e-01) (19, 6.35505616664886474609e-01) (20, -2.25873172283172607422e-01) (21, 7.60106503963470458984e-01) (22, 6.43300652503967285156e-01) (23, -5.90516626834869384766e-02) (24, 4.88467365503311157227e-01) (25, 2.29076623916625976562e+00) (26, -2.50574260950088500977e-01) (27, 7.95664846897125244141e-01) (28, -5.36222219467163085938e-01) (29, -3.38739454746246337891e-01) (30, 2.31225013732910156250e-01) (31, 8.88029634952545166016e-02) (32, -2.73280233144760131836e-01) (33, -3.48241657018661499023e-01) (34, -3.31008970737457275391e-01) (35, 6.48830413818359375000e-01) (36, 7.05248236656188964844e-01) (6, 3.14844548702239990234e-01) (7, 1.83207765221595764160e-01) (8, 1.29740566015243530273e-01) (9, -4.18889820575714111328e-01) (10, 8.05264472961425781250e-01) (11, 3.00946831703186035156e-01) (12, 7.69280314445495605469e-01) (13, 3.09378474950790405273e-01) (14, 4.07383888959884643555e-01) (15, -9.42715704441070556641e-02) (16, 7.85764217376708984375e-01) (17, 7.64687359333038330078e-01) (18, 8.32763433456420898438e-01) (19, 2.63099133968353271484e-01) (20, 1.42175376415252685547e+00) (21, -3.41709345579147338867e-01) (22, 1.64826780557632446289e-01) (23, 3.68696510791778564453e-01) (24, 7.66997694969177246094e-01) (25, 1.95838376879692077637e-01) (26, 6.94396421313285827637e-02) (27, 2.15512230992317199707e-01) (28, 1.26388221979141235352e-01) (29, 1.20960816740989685059e-01) (30, 1.08902120590209960938e+00) (31, 3.61454606056213378906e-01) (32, 8.20556282997131347656e-01) (33, -4.15732860565185546875e-02) (34, 4.85581129789352416992e-01) (35, 4.39956098794937133789e-01) (36, 4.77426767349243164062e-01) (6, 1.21948368847370147705e-01) (7, -9.75164026021957397461e-02) (8, 2.05295622348785400391e-01) (9, -4.23104345798492431641e-01) (10, -2.59806901216506958008e-01) (11, 3.36122453212738037109e-01) (12, 7.61262834072113037109e-01) (13, 9.36436772346496582031e-01) (14, 2.01489496976137161255e-02) (15, -1.11947178840637207031e+00) (16, 8.93877506256103515625e-01) (17, -2.15681210160255432129e-01) (18, -7.50457882881164550781e-01) (19, -2.65515923500061035156e-01) (20, -2.99642622470855712891e-01) (21, 1.55497446656227111816e-01) (22, 5.60573816299438476562e-01) (23, -1.49870467185974121094e+00) (24, -3.37552964687347412109e-01) (25, -4.16898429393768310547e-01) (26, 3.67810189723968505859e-01) (27, 6.45359158515930175781e-01) (28, 1.51268601417541503906e+00) (29, -9.23034489154815673828e-01) (30, 6.24443709850311279297e-01) (31, 1.01858556270599365234e+00) (32, 8.94138574600219726562e-01) (33, -3.22956889867782592773e-01) (34, 9.42011594772338867188e-01) (35, 9.40983533859252929688e-01) (36, -1.14733695983886718750e+00) (6, 1.17722773551940917969e+00) (7, -7.34440922737121582031e-01) (8, -1.98572114109992980957e-01) (9, -2.37808540463447570801e-01) (10, -2.07249522209167480469e-01) (11, -1.02315080165863037109e+00) (12, 6.94781482219696044922e-01) (13, -7.72816479206085205078e-01) (14, 9.49483394622802734375e-01) (15, 8.35975825786590576172e-01) (16, 5.90662121772766113281e-01) (17, -2.53148555755615234375e-01) (18, 5.05422472953796386719e-01) (19, -1.64811098575592041016e+00) (20, 1.20364189147949218750e+00) (21, -4.86260026693344116211e-01) (22, 8.51249933242797851562e-01) (23, 3.49825859069824218750e-01) (24, 7.64328896999359130859e-01) (25, 5.53211927413940429688e-01) (26, 6.32333755493164062500e-01) (27, 1.25319492816925048828e+00) (28, 1.08930599689483642578e+00) (29, -3.03121417760848999023e-01) (30, 6.07849240303039550781e-01) (31, -8.37529659271240234375e-01) (32, -1.23082689940929412842e-01) (33, 6.45906150341033935547e-01) (34, 7.26955294609069824219e-01) (35, -7.88750529289245605469e-01) (36, 1.32558119297027587891e+00) (6, 5.49298703670501708984e-01) (7, -9.77291315793991088867e-02) (8, 1.05225598812103271484e+00) (9, 1.48539805412292480469e+00) (10, 5.71582496166229248047e-01) (11, -8.43578875064849853516e-02) (12, -1.60833454132080078125e+00) (13, 3.08699727058410644531e-01) (14, 9.56873655319213867188e-01) (15, 1.11728537082672119141e+00) (16, 1.18185031414031982422e+00) (17, 1.43318757414817810059e-01) (18, 9.76706504821777343750e-01) (19, -5.35329639911651611328e-01) (20, 3.83532822132110595703e-01) (21, -5.39402440190315246582e-02) (22, 1.01885378360748291016e+00) (23, 1.52897536754608154297e+00) (24, -1.17253161966800689697e-01) (25, -3.02792429924011230469e-01) (26, -6.02459013462066650391e-01) (27, 1.10987198352813720703e+00) (28, -7.11600258946418762207e-02) (29, 1.46878886222839355469e+00) (30, -6.34631291031837463379e-02) (31, -3.65153282880783081055e-01) (32, -3.90323817729949951172e-01) (33, -1.02030551061034202576e-02) (34, -7.42852449417114257812e-01) (35, 1.02812421321868896484e+00) (36, 1.19096624851226806641e+00) (6, 4.59485888481140136719e-01) (7, 2.64065414667129516602e-01) (8, 1.90997585654258728027e-01) (9, 6.66829943656921386719e-01) (10, 7.09105849266052246094e-01) (11, -6.28827333450317382812e-01) (12, -8.76714766025543212891e-01) (13, -1.20549249649047851562e+00) (14, -6.22132085263729095459e-02) (15, 1.18920779228210449219e+00) (16, -1.14607429504394531250e+00) (17, 9.27184879779815673828e-01) (18, 1.62259304523468017578e+00) (19, -1.16998517513275146484e+00) (20, 1.44735455513000488281e-01) (21, -3.42536658048629760742e-01) (22, 9.76925671100616455078e-01) (23, 1.69226729869842529297e+00) (24, 2.21597969532012939453e-01) (25, -9.04526114463806152344e-02) (26, 4.20401208102703094482e-02) (27, -1.08656263351440429688e+00) (28, -7.83460676670074462891e-01) (29, 1.67226040363311767578e+00) (30, 2.97198802232742309570e-01) (31, 6.74780845642089843750e-01) (32, 9.08679723739624023438e-01) (33, 1.05066168308258056641e+00) (34, 6.31027221679687500000e-01) (35, 1.01482307910919189453e+00) (36, 4.68652397394180297852e-01) (37, 3.66895824670791625977e-01) (38, -8.93188297748565673828e-01) (39, 4.54154819250106811523e-01) (40, -1.19117103517055511475e-01) (41, -4.31822612881660461426e-02) (42, -3.24328958988189697266e-01) (43, 1.25219002366065979004e-01) (44, -2.20407649874687194824e-01) (45, 2.02302366495132446289e-01) (46, -6.86713308095932006836e-02) (47, 3.49012762308120727539e-02) (48, 5.26234209537506103516e-01) (49, 9.07087981700897216797e-01) (50, -1.17223292589187622070e-01) (51, 1.92659944295883178711e-02) (52, 4.62104231119155883789e-01) (53, -5.72012305259704589844e-01) (54, 1.17211580276489257812e-01) (55, -3.43875795602798461914e-01) (56, -8.09866845607757568359e-01) (57, -1.22122898697853088379e-01) (58, -3.23503762483596801758e-02) (59, 2.56700515747070312500e-01) (60, 2.70525105297565460205e-02) (61, 1.43390738964080810547e+00) (62, -4.91542249917984008789e-01) (63, -1.06631588935852050781e+00) (64, 7.08772614598274230957e-02) (65, 2.38544791936874389648e-01) (66, -1.84793788939714431763e-02) (67, 1.51181861758232116699e-01) (37, -7.00992047786712646484e-01) (38, 9.80031609535217285156e-01) (39, 1.75158321857452392578e-01) (40, -1.57955303788185119629e-01) (41, -7.91593566536903381348e-02) (42, 4.83299084007740020752e-02) (43, 3.55687260627746582031e-01) (44, 1.26605582237243652344e+00) (45, 7.69254922866821289062e-01) (46, 1.87157094478607177734e+00) (47, -2.54029572010040283203e-01) (48, 8.92290234565734863281e-01) (49, -1.22676444053649902344e+00) (50, 5.52344679832458496094e-01) (51, -3.21211040019989013672e-01) (52, -8.81302416324615478516e-01) (53, 4.17830705642700195312e-01) (54, -1.25377810001373291016e+00) (55, 2.13533975183963775635e-02) (56, 8.86753380298614501953e-01) (57, 8.88890549540519714355e-02) (58, -1.08972167968750000000e+00) (59, 4.44858223199844360352e-01) (60, 1.29012024402618408203e+00) (61, 8.52542042732238769531e-01) (62, -6.28696739673614501953e-01) (63, 4.04627352952957153320e-01) (64, 1.17185592651367187500e+00) (65, 2.86090552806854248047e-01) (66, 7.32551455497741699219e-01) (67, -1.63008987903594970703e-01) (37, 6.24026060104370117188e-01) (38, 3.31225484609603881836e-01) (39, 3.66928130388259887695e-01) (40, -6.66639626026153564453e-01) (41, -2.59492218494415283203e-01) (42, 5.51802992820739746094e-01) (43, 5.37396252155303955078e-01) (44, 1.47832706570625305176e-01) (45, 3.55951040983200073242e-01) (46, 1.30238580703735351562e+00) (47, 4.69494879245758056641e-01) (48, -7.58363366127014160156e-01) (49, 7.37540066242218017578e-01) (50, 1.40508222579956054688e+00) (51, 3.24174523353576660156e-01) (52, -5.18493473529815673828e-01) (53, 5.54328501224517822266e-01) (54, -3.06872904300689697266e-01) (55, -4.90496680140495300293e-02) (56, 7.56140768527984619141e-01) (57, 1.31845259666442871094e+00) (58, 8.13211858272552490234e-01) (59, 5.20753681659698486328e-01) (60, 7.46089994907379150391e-01) (61, -9.55799758434295654297e-01) (62, 1.34467649459838867188e+00) (63, -1.28306195139884948730e-01) (64, -1.01917378604412078857e-01) (65, 3.05992811918258666992e-01) (66, -6.24476671218872070312e-01) (67, 3.32369923591613769531e-01) (37, -1.19781720638275146484e+00) (38, 1.51065006852149963379e-01) (39, 1.07027471065521240234e+00) (40, 5.53916811943054199219e-01) (41, 4.85695451498031616211e-01) (42, -5.38177549839019775391e-01) (43, -5.93119800090789794922e-01) (44, 3.23603786528110504150e-02) (45, 4.35749500989913940430e-01) (46, 1.00230526924133300781e+00) (47, 3.72730582952499389648e-01) (48, 9.58674907684326171875e-01) (49, 5.49620449542999267578e-01) (50, 1.51707202196121215820e-01) (51, 1.59179344773292541504e-01) (52, 6.39550805091857910156e-01) (53, 1.12949323654174804688e+00) (54, 1.44538259506225585938e+00) (55, 2.02512860298156738281e-01) (56, 2.59701341390609741211e-01) (57, 3.37253570556640625000e-01) (58, -7.13628947734832763672e-01) (59, 4.94759827852249145508e-01) (60, 7.01399624347686767578e-01) (61, 8.76107215881347656250e-01) (62, -1.61191195249557495117e-01) (63, 1.29773664474487304688e+00) (64, -1.62389561533927917480e-01) (65, 6.34220913052558898926e-02) (66, -8.90587389469146728516e-01) (67, -2.60658681392669677734e-01) (37, 6.47034227848052978516e-01) (38, 3.51708233356475830078e-01) (39, -1.39410030841827392578e+00) (40, 6.07084929943084716797e-02) (41, -2.21820414066314697266e-01) (42, -1.15388715267181396484e+00) (43, 2.14333343505859375000e+00) (44, 2.05154586583375930786e-02) (45, 2.20800995826721191406e+00) (46, -2.60034322738647460938e-01) (47, -1.23545241355895996094e+00) (48, -1.29900276660919189453e+00) (49, -3.95903676748275756836e-01) (50, 7.36199021339416503906e-01) (51, -6.01555705070495605469e-01) (52, -1.32683706283569335938e+00) (53, 1.20300841331481933594e+00) (54, -4.48809146881103515625e-01) (55, 4.66164648532867431641e-02) (56, 1.28941321372985839844e+00) (57, 2.15643703937530517578e-01) (58, 5.61399459838867187500e-01) (59, 3.44716280698776245117e-01) (60, -1.92598551511764526367e-01) (61, -8.42916905879974365234e-01) (62, 1.39700484275817871094e+00) (63, -3.70154082775115966797e-01) (64, -5.58659255504608154297e-01) (65, 1.26748311519622802734e+00) (66, 1.50074914097785949707e-01) (67, -7.40546464920043945312e-01) (37, 1.74382254481315612793e-01) (38, -1.09249341487884521484e+00) (39, 5.86772076785564422607e-02) (40, -1.62140235304832458496e-01) (41, 7.02539145946502685547e-01) (42, -6.20702028274536132812e-01) (43, 6.26207292079925537109e-01) (44, -1.00146996974945068359e+00) (45, 1.08292806148529052734e+00) (46, 2.17270851135253906250e-01) (47, 3.38968813419342041016e-01) (48, -8.39836418628692626953e-01) (49, 9.02111306786537170410e-02) (50, 1.47558376193046569824e-02) (51, 8.85040163993835449219e-01) (52, 1.31225061416625976562e+00) (53, -3.65015178918838500977e-01) (54, -6.85244619846343994141e-01) (55, -9.36095416545867919922e-01) (56, 1.39953941106796264648e-01) (57, 1.24010789394378662109e+00) (58, 2.95691400766372680664e-01) (59, 5.25920055806636810303e-02) (60, 2.75786370038986206055e-01) (61, -1.09005331993103027344e+00) (62, 1.33455324172973632812e+00) (63, 9.04534876346588134766e-01) (64, 9.25953030586242675781e-01) (65, 2.13232189416885375977e-01) (66, -4.16188150644302368164e-01) (67, 4.01406913995742797852e-01) (37, 9.22317564487457275391e-01) (38, -4.92959529161453247070e-01) (39, 6.81827543303370475769e-04) (40, -3.19271057844161987305e-01) (41, -5.76825320720672607422e-01) (42, 5.47090053558349609375e-01) (43, 1.51846826076507568359e+00) (44, -7.81705856323242187500e-01) (45, 8.41383695602416992188e-01) (46, 2.59442441165447235107e-02) (47, -3.78227025270462036133e-01) (48, -1.07806958258152008057e-01) (49, -1.47861108183860778809e-01) (50, 8.14666971564292907715e-02) (51, -7.31437265872955322266e-01) (52, -1.87413454055786132812e-01) (53, -6.26132369041442871094e-01) (54, 1.34321838617324829102e-01) (55, -3.42840999364852905273e-01) (56, -6.38685405254364013672e-01) (57, -2.03835383057594299316e-01) (58, 6.56294763088226318359e-01) (59, 2.32398435473442077637e-01) (60, 1.42673164606094360352e-01) (61, 4.35402333736419677734e-01) (62, -7.89509117603302001953e-02) (63, 4.71843659877777099609e-01) (64, 5.27170538902282714844e-01) (65, 7.65032351016998291016e-01) (66, 2.45052397251129150391e-01) (67, 6.72911286354064941406e-01) (37, -1.05459600687026977539e-01) (38, 7.46005058288574218750e-01) (39, 1.78541040420532226562e+00) (40, 9.71334218978881835938e-01) (41, 6.01156473159790039062e-01) (42, 7.39852726459503173828e-01) (43, -1.34802460670471191406e-01) (44, 5.97179710865020751953e-01) (45, -5.64681172370910644531e-01) (46, 4.62904348969459533691e-02) (47, 1.16127133369445800781e+00) (48, 2.37862288951873779297e-01) (49, -3.69156330823898315430e-01) (50, 1.05094909667968750000e+00) (51, 7.99854934215545654297e-01) (52, 4.12198901176452636719e-01) (53, 7.44110226631164550781e-01) (54, -4.61573630571365356445e-01) (55, -1.05119788646697998047e+00) (56, 1.30668008327484130859e+00) (57, -1.45056962966918945312e-01) (58, -5.80803751945495605469e-01) (59, 2.79614388942718505859e-01) (60, 8.16322982311248779297e-01) (61, -1.03831768035888671875e-01) (62, 4.74447816610336303711e-01) (63, -1.74704730510711669922e-01) (64, -5.34361839294433593750e-01) (65, 7.10590064525604248047e-01) (66, 8.27542394399642944336e-02) (67, -6.36266231536865234375e-01) (37, 1.82353377342224121094e-01) (38, -5.08964717388153076172e-01) (39, 5.67804336547851562500e-01) (40, 5.22398829460144042969e-01) (41, -7.84159898757934570312e-01) (42, -9.42253395915031433105e-02) (43, 1.05724155902862548828e+00) (44, -1.26594737172126770020e-01) (45, -2.10493639111518859863e-01) (46, -1.62315857410430908203e+00) (47, 2.33350366353988647461e-01) (48, -4.19050157070159912109e-01) (49, 1.17964613437652587891e+00) (50, -1.86708003282546997070e-01) (51, -4.93584483861923217773e-01) (52, 5.86989343166351318359e-01) (53, -1.00191819667816162109e+00) (54, -9.22423899173736572266e-01) (55, 9.47062969207763671875e-01) (56, -3.93377661705017089844e-01) (57, -7.85427689552307128906e-02) (58, 6.49778783321380615234e-01) (59, 6.61762595176696777344e-01) (60, 4.69840049743652343750e-01) (61, 3.56123626232147216797e-01) (62, 5.00597655773162841797e-01) (63, -6.77574574947357177734e-01) (64, 5.09794592857360839844e-01) (65, -3.39019328355789184570e-01) (66, 3.23693275451660156250e-01) (67, 1.29555141925811767578e+00) (37, 5.68836808204650878906e-01) (38, 5.62749393284320831299e-02) (39, -9.10632684826850891113e-02) (40, -5.04645556211471557617e-02) (41, 1.52985048294067382812e+00) (42, -1.21053922176361083984e+00) (43, 1.05574238300323486328e+00) (44, 9.67304527759552001953e-01) (45, 2.45603370666503906250e+00) (46, 2.05022001266479492188e+00) (47, 4.70186680555343627930e-01) (48, 7.93926358222961425781e-01) (49, 1.04910504817962646484e+00) (50, -3.27709376811981201172e-01) (51, 4.56719964742660522461e-01) (52, -3.80343556404113769531e-01) (53, 3.02649050951004028320e-01) (54, 8.23406994342803955078e-01) (55, -3.16287875175476074219e-02) (56, -1.98593527078628540039e-01) (57, -1.37855029106140136719e+00) (58, -2.47525721788406372070e-01) (59, 1.78957074880599975586e-01) (60, -3.50717395544052124023e-01) (61, 1.28047478199005126953e+00) (62, 2.66235262155532836914e-01) (63, -3.12219783663749694824e-02) (64, 1.04545938968658447266e+00) (65, 6.43585085868835449219e-01) (66, 1.30533111095428466797e+00) (67, 3.94278317689895629883e-01) (37, -8.48980605602264404297e-01) (38, -2.79639922082424163818e-02) (39, 9.39823687076568603516e-01) (40, 1.05221986770629882812e+00) (41, -6.06196820735931396484e-01) (42, 7.76026546955108642578e-01) (43, 3.22361081838607788086e-01) (44, 3.67770493030548095703e-01) (45, 1.49508500471711158752e-02) (46, 1.06570887565612792969e+00) (47, 7.87150800228118896484e-01) (48, 7.75819970294833183289e-03) (49, -2.54537045955657958984e-01) (50, 5.89448809623718261719e-01) (51, -6.55635952949523925781e-01) (52, -9.32697594165802001953e-01) (53, -5.16541719436645507812e-01) (54, -4.29965347051620483398e-01) (55, -2.68201202154159545898e-01) (56, 5.11934876441955566406e-01) (57, -2.40474447607994079590e-01) (58, 5.19785225391387939453e-01) (59, -3.71841490268707275391e-01) (60, 4.12334442138671875000e-01) (61, 6.95566296577453613281e-01) (62, 7.59053587913513183594e-01) (63, -8.29537808895111083984e-02) (64, -9.69504773616790771484e-01) (65, 2.30984184890985488892e-02) (66, -5.32680630683898925781e-01) (67, -8.53309392929077148438e-01) (37, -1.34319260716438293457e-01) (38, 1.97389781475067138672e-01) (39, 9.10886943340301513672e-01) (40, 1.05937488377094268799e-01) (41, -2.45071202516555786133e-01) (42, 3.23930382728576660156e-02) (43, -1.13799393177032470703e+00) (44, -1.71743646264076232910e-01) (45, 6.63590207695960998535e-02) (46, 4.88926619291305541992e-01) (47, -5.68904995918273925781e-01) (48, 3.89495968818664550781e-01) (49, -7.86637961864471435547e-01) (50, -1.54619455337524414062e-01) (51, 1.86869010329246520996e-01) (52, -6.45855426788330078125e-01) (53, 6.49372696876525878906e-01) (54, 5.98490536212921142578e-01) (55, -3.40702608227729797363e-02) (56, 9.63373959064483642578e-01) (57, -7.99512028694152832031e-01) (58, 8.15950632095336914062e-02) (59, 2.65458583831787109375e-01) (60, 7.33115077018737792969e-01) (61, -3.63867849111557006836e-01) (62, 8.66348683834075927734e-01) (63, 4.16149139404296875000e-01) (64, 1.03904962539672851562e+00) (65, -1.51912122964859008789e-01) (66, -2.52958744764328002930e-01) (67, 9.99916970729827880859e-01) (37, 5.03131866455078125000e-01) (38, -3.15868347883224487305e-01) (39, 5.56166231632232666016e-01) (40, -6.22651994228363037109e-01) (41, 2.85578489303588867188e-01) (42, 1.50249695777893066406e+00) (43, -2.63623148202896118164e-01) (44, -8.71938884258270263672e-01) (45, 1.03884458541870117188e+00) (46, 6.66028439998626708984e-01) (47, -1.46742537617683410645e-01) (48, -5.48975110054016113281e-01) (49, -5.74768602848052978516e-01) (50, 1.81226134300231933594e-01) (51, -2.30413421988487243652e-01) (52, -3.01068067550659179688e-01) (53, 1.32367864251136779785e-01) (54, 2.61241137981414794922e-01) (55, -1.19404268264770507812e+00) (56, -6.14738285541534423828e-01) (57, 3.12273085117340087891e-01) (58, -4.74057078361511230469e-01) (59, -1.72219440340995788574e-01) (60, -6.50465548038482666016e-01) (61, 1.16063344478607177734e+00) (62, -1.84607610106468200684e-01) (63, 1.78063452243804931641e-01) (64, 9.82901453971862792969e-01) (65, 3.86632144451141357422e-01) (66, 1.91263303160667419434e-01) (67, -1.42607046291232109070e-02) (37, -1.60399764776229858398e-01) (38, 1.89379289746284484863e-01) (39, 1.66937947273254394531e+00) (40, -2.60673612356185913086e-02) (41, 3.33115756511688232422e-01) (42, 5.13465464115142822266e-01) (43, 2.33268722891807556152e-01) (44, 1.10254943370819091797e+00) (45, -1.24222552776336669922e+00) (46, 1.39898747205734252930e-01) (47, -1.06692165136337280273e-01) (48, -2.73566097021102905273e-01) (49, 9.43652689456939697266e-02) (50, -4.39643085002899169922e-01) (51, 1.32674086093902587891e+00) (52, 1.92929685115814208984e-01) (53, -4.90204989910125732422e-02) (54, -3.45614284276962280273e-01) (55, 1.80991634726524353027e-01) (56, -6.05984516441822052002e-02) (57, 1.15714108943939208984e+00) (58, -2.75543510913848876953e-01) (59, 7.93300569057464599609e-01) (60, 1.10277330875396728516e+00) (61, 9.67427372932434082031e-01) (62, -1.28041112422943115234e+00) (63, 1.06099355220794677734e+00) (64, 1.06304490566253662109e+00) (65, 5.93749344348907470703e-01) (66, 1.26302409172058105469e+00) (67, -4.50826138257980346680e-01) (37, 5.38461863994598388672e-01) (38, 6.63118660449981689453e-01) (39, 1.70876538753509521484e+00) (40, -2.69529432058334350586e-01) (41, -9.11132618784904479980e-02) (42, -2.08240076899528503418e-01) (43, 5.58149099349975585938e-01) (44, 5.18863260746002197266e-01) (45, -1.98591630905866622925e-02) (46, 4.77874368429183959961e-01) (47, 1.67134404182434082031e+00) (48, 3.52005988359451293945e-01) (49, 3.51720482110977172852e-01) (50, 6.76316559314727783203e-01) (51, 1.05275511741638183594e+00) (52, -2.08652526140213012695e-01) (53, 6.68605089187622070312e-01) (54, 1.05602812767028808594e+00) (55, -8.70525166392326354980e-02) (56, 5.16320049762725830078e-01) (57, -5.00338017940521240234e-01) (58, 8.70564579963684082031e-01) (59, 1.03687989711761474609e+00) (60, 8.90672624111175537109e-01) (61, -7.43599891662597656250e-01) (62, -4.23695951700210571289e-01) (63, 5.21864295005798339844e-01) (64, 4.17270123958587646484e-01) (65, 3.13929945230484008789e-01) (66, -8.19444805383682250977e-02) (67, -1.29651105403900146484e+00) (37, 2.30078488588333129883e-01) (38, 9.69594046473503112793e-02) (39, 1.30423545837402343750e+00) (40, 1.22905457019805908203e+00) (41, -4.08249646425247192383e-01) (42, 8.72918784618377685547e-01) (43, 9.85066831111907958984e-01) (44, 4.24179345369338989258e-01) (45, 5.92693626880645751953e-01) (46, 1.42874419689178466797e-01) (47, -3.98914366960525512695e-01) (48, 9.05046164989471435547e-02) (49, -4.49224859476089477539e-01) (50, 2.11364459246397018433e-02) (51, 9.56688940525054931641e-01) (52, 5.13913333415985107422e-01) (53, -3.46032232046127319336e-01) (54, 6.46677613258361816406e-01) (55, -6.24813616275787353516e-01) (56, -2.39155709743499755859e-01) (57, 5.81313312053680419922e-01) (58, 4.90677922964096069336e-01) (59, 1.22684121131896972656e+00) (60, 4.66943562030792236328e-01) (61, -1.34999573230743408203e+00) (62, 1.37163591384887695312e+00) (63, 2.96384334564208984375e-01) (64, -4.86670970916748046875e-01) (65, -1.94308221340179443359e-01) (66, 1.07345342636108398438e+00) (67, -5.67754864692687988281e-01) (37, -8.14184963703155517578e-01) (38, 1.43142485618591308594e+00) (39, 1.17300319671630859375e+00) (40, -8.68332147598266601562e-01) (41, 6.02904915809631347656e-01) (42, 1.02534151077270507812e+00) (43, 5.70071876049041748047e-01) (44, 1.33351182937622070312e+00) (45, -3.83053123950958251953e-02) (46, -1.35700358077883720398e-02) (47, -6.94535076618194580078e-01) (48, -4.21463578939437866211e-01) (49, -6.74625992774963378906e-01) (50, 5.91304540634155273438e-01) (51, -1.76309540867805480957e-01) (52, -6.30156278610229492188e-01) (53, 5.30177474021911621094e-01) (54, -6.07779204845428466797e-01) (55, -4.57939207553863525391e-01) (56, 8.45978140830993652344e-01) (57, 8.55296611785888671875e-01) (58, -5.91742038726806640625e-01) (59, 1.92136779427528381348e-01) (60, 2.32975050806999206543e-01) (61, -5.65504133701324462891e-01) (62, 1.22080898284912109375e+00) (63, 2.34166100621223449707e-01) (64, -4.56353515386581420898e-01) (65, -4.34628218412399291992e-01) (66, -8.23304653167724609375e-02) (67, -2.59072005748748779297e-01) (37, 2.36150696873664855957e-02) (38, 6.63917124271392822266e-01) (39, 9.82571303844451904297e-01) (40, 1.13403588533401489258e-01) (41, -7.14991271495819091797e-01) (42, -4.05705273151397705078e-01) (43, -6.29621744155883789062e-01) (44, 7.45770931243896484375e-01) (45, 3.97062897682189941406e-02) (46, 1.38170313835144042969e+00) (47, -1.59688740968704223633e-01) (48, 5.78951954841613769531e-01) (49, 6.32081210613250732422e-01) (50, 2.98980206251144409180e-01) (51, -1.84283867478370666504e-01) (52, 1.16796171665191650391e+00) (53, 6.77819252014160156250e-01) (54, -9.16386842727661132812e-01) (55, -6.94821834564208984375e-01) (56, -7.40100443363189697266e-01) (57, 1.32803559303283691406e+00) (58, -5.26671588420867919922e-01) (59, 8.29448282718658447266e-01) (60, 1.53165057301521301270e-01) (61, -1.78433164954185485840e-01) (62, -1.40708103775978088379e-01) (63, -8.81277084350585937500e-01) (64, 7.97107756137847900391e-01) (65, 1.22195579111576080322e-01) (66, 4.19853739440441131592e-02) (67, -6.65709078311920166016e-01) (37, 3.16163361072540283203e-01) (38, -2.18575552105903625488e-01) (39, -7.12599694728851318359e-01) (40, 1.13749337196350097656e+00) (41, 2.82168418169021606445e-01) (42, -5.28275594115257263184e-02) (43, -2.29369491338729858398e-01) (44, 2.30632811784744262695e-01) (45, 1.06325268745422363281e-01) (46, 1.16598153114318847656e+00) (47, -1.24813430011272430420e-01) (48, 7.25706756114959716797e-01) (49, 1.34208106994628906250e+00) (50, -2.71778911352157592773e-01) (51, 8.21216464042663574219e-01) (52, 1.77809208631515502930e-01) (53, 1.26424503326416015625e+00) (54, -9.56895589828491210938e-01) (55, 2.27570727467536926270e-01) (56, -6.81542456150054931641e-01) (57, -1.11072611808776855469e+00) (58, -7.74663448333740234375e-01) (59, 7.45032668113708496094e-01) (60, 5.59179961681365966797e-01) (61, -2.29930415749549865723e-01) (62, -6.26016259193420410156e-01) (63, 1.66096910834312438965e-01) (64, 1.31915616989135742188e+00) (65, -2.72747669368982315063e-02) (66, 6.81998848915100097656e-01) (67, 1.00765287876129150391e+00) (37, -4.23037201166152954102e-01) (38, 2.91833937168121337891e-01) (39, -4.76999357342720031738e-02) (40, 1.08264398574829101562e+00) (41, -7.38648831844329833984e-01) (42, 2.32327818870544433594e-01) (43, -5.87339460849761962891e-01) (44, 1.82256788015365600586e-01) (45, 9.22235727310180664062e-01) (46, 6.53260409832000732422e-01) (47, 8.66338834166526794434e-02) (48, -9.10348415374755859375e-01) (49, 3.46872240304946899414e-01) (50, -4.13247421383857727051e-02) (51, -1.40256714820861816406e+00) (52, -3.73543053865432739258e-01) (53, -1.09535023570060729980e-01) (54, -1.14622938632965087891e+00) (55, 5.85639238357543945312e-01) (56, -8.30705523490905761719e-01) (57, -1.12094652652740478516e+00) (58, 7.02124655246734619141e-01) (59, 9.12853896617889404297e-01) (60, -8.80389735102653503418e-02) (61, -8.72694313526153564453e-01) (62, 1.74132430553436279297e+00) (63, 1.08503472805023193359e+00) (64, 1.12166357040405273438e+00) (65, -8.30467268824577331543e-02) (66, 4.33425813913345336914e-01) (67, 1.22491240501403808594e+00) (37, -4.35855060815811157227e-01) (38, 2.05800914764404296875e+00) (39, -2.94360935688018798828e-01) (40, -1.78179413080215454102e-01) (41, 2.41729058325290679932e-02) (42, 5.56494712829589843750e-01) (43, 4.91656988859176635742e-01) (44, -2.98161834478378295898e-01) (45, 3.38569015264511108398e-01) (46, -4.12257239222526550293e-02) (47, 1.10676121711730957031e+00) (48, -1.66142880916595458984e-01) (49, -7.01301395893096923828e-02) (50, -6.73588573932647705078e-01) (51, 1.14968645572662353516e+00) (52, 8.14833998680114746094e-01) (53, -1.66823613643646240234e+00) (54, -1.94340422749519348145e-01) (55, 1.71875674277544021606e-03) (56, -3.93635630607604980469e-02) (57, -6.79734230041503906250e-01) (58, 8.97959709167480468750e-01) (59, 9.74490195512771606445e-02) (60, 1.94439828395843505859e-01) (61, 3.78026783466339111328e-01) (62, 2.28387936949729919434e-02) (63, 5.87059497833251953125e-01) (64, -9.29795920848846435547e-01) (65, 7.59134173393249511719e-01) (66, -3.14349114894866943359e-01) (67, -1.67511963844299316406e+00) (37, 2.19714902341365814209e-02) (38, 2.40440174937248229980e-01) (39, 1.20816504955291748047e+00) (40, -3.29428166151046752930e-01) (41, 3.35158795118331909180e-01) (42, -2.15722680091857910156e-01) (43, 8.80752921104431152344e-01) (44, -2.26750653237104415894e-02) (45, 1.74222797155380249023e-01) (46, -1.07297003269195556641e+00) (47, -7.96504080295562744141e-01) (48, -2.11564034223556518555e-01) (49, 7.26743936538696289062e-01) (50, -1.42079917713999748230e-02) (51, 1.17071557044982910156e+00) (52, 4.29732292890548706055e-01) (53, 1.34727284312248229980e-01) (54, -9.29672241210937500000e-01) (55, -5.82273066043853759766e-01) (56, -5.91771245002746582031e-01) (57, 8.40663433074951171875e-01) (58, -4.18371409177780151367e-01) (59, -1.85136497020721435547e-01) (60, 2.20129877328872680664e-01) (61, 4.78632375597953796387e-02) (62, 6.83237075805664062500e-01) (63, -6.81237101554870605469e-01) (64, 9.29961323738098144531e-01) (65, -9.22102689743041992188e-01) (66, 1.15252423286437988281e+00) (67, 1.26929593086242675781e+00) (37, 5.52842728793621063232e-02) (38, -5.49408718943595886230e-02) (39, -1.20993804931640625000e+00) (40, 1.17135725915431976318e-01) (41, 1.29826831817626953125e+00) (42, -5.05504786968231201172e-01) (43, 1.88420832157135009766e-01) (44, 3.93016904592514038086e-01) (45, -2.21239253878593444824e-01) (46, 5.46564161777496337891e-01) (47, 8.54158639907836914062e-01) (48, 1.40074265003204345703e+00) (49, 1.40960901975631713867e-01) (50, -1.08982779085636138916e-01) (51, 1.12787699699401855469e+00) (52, 6.11522376537322998047e-01) (53, -7.43649154901504516602e-02) (54, -1.03536143898963928223e-01) (55, -1.13748562335968017578e+00) (56, -1.43469929695129394531e-01) (57, -6.27692282199859619141e-01) (58, -1.14233225584030151367e-01) (59, 1.09829351305961608887e-01) (60, -2.14478090405464172363e-01) (61, -4.03984129428863525391e-01) (62, 1.47962942719459533691e-01) (63, 6.04855298995971679688e-01) (64, 9.11080062389373779297e-01) (65, -4.50196117162704467773e-01) (66, 7.46995151042938232422e-01) (67, -1.88724863529205322266e+00) (37, 6.82541728019714355469e-01) (38, 1.66609212756156921387e-02) (39, -5.35169303417205810547e-01) (40, -8.17782819271087646484e-01) (41, 4.77304637432098388672e-01) (42, -8.64789903163909912109e-01) (43, 1.18911778926849365234e+00) (44, -4.64222997426986694336e-01) (45, -8.56025591492652893066e-02) (46, -3.53137969970703125000e-01) (47, 3.09752672910690307617e-01) (48, -7.13076114654541015625e-01) (49, 1.36096441745758056641e+00) (50, 6.44125044345855712891e-01) (51, 8.11982750892639160156e-01) (52, 5.94257771968841552734e-01) (53, -5.95732918009161949158e-03) (54, 2.92215108871459960938e-01) (55, 6.33284986019134521484e-01) (56, -2.40768775343894958496e-01) (57, -2.04634234309196472168e-01) (58, -1.13189494609832763672e+00) (59, -8.00403177738189697266e-01) (60, 5.31206965446472167969e-01) (61, -4.92520570755004882812e-01) (62, -4.94449257850646972656e-01) (63, -6.20262742042541503906e-01) (64, -4.03581440448760986328e-01) (65, 4.36170279979705810547e-01) (66, 5.49042940139770507812e-01) (67, -2.87539303302764892578e-01) (37, 2.12255164980888366699e-01) (38, -5.90076088905334472656e-01) (39, 6.15571558475494384766e-01) (40, -4.03515487909317016602e-01) (41, 1.33897829055786132812e+00) (42, -3.15188467502593994141e-01) (43, -2.93218612670898437500e-01) (44, -6.55501663684844970703e-01) (45, -2.62678116559982299805e-01) (46, -1.91650167107582092285e-02) (47, 2.96766072511672973633e-01) (48, 6.50776863098144531250e-01) (49, 1.33503019809722900391e+00) (50, -2.90690600872039794922e-01) (51, -1.03228278458118438721e-01) (52, -1.88225328922271728516e-01) (53, 1.15064632892608642578e+00) (54, 2.79167473316192626953e-01) (55, -2.88949996232986450195e-01) (56, -4.40310567617416381836e-01) (57, 6.76353573799133300781e-01) (58, 6.13453947007656097412e-02) (59, 4.80255365371704101562e-01) (60, -1.02400481700897216797e+00) (61, 3.99159416556358337402e-02) (62, 8.78932416439056396484e-01) (63, 1.04807645082473754883e-01) (64, 6.32314980030059814453e-01) (65, -3.23635071516036987305e-01) (66, -8.05294573307037353516e-01) (67, -3.24650079011917114258e-01) (37, 3.19345831871032714844e-01) (38, -3.14295023679733276367e-01) (39, 7.11800158023834228516e-01) (40, -8.03062975406646728516e-01) (41, 7.58812248706817626953e-01) (42, 1.74923241138458251953e+00) (43, -1.28204330801963806152e-01) (44, -8.56946051120758056641e-01) (45, -1.53556689620018005371e-01) (46, 8.74778687953948974609e-01) (47, -5.35555303096771240234e-01) (48, 2.73533076047897338867e-01) (49, -1.90296486020088195801e-01) (50, 2.29321956634521484375e-01) (51, 1.92503362894058227539e-01) (52, -5.98877251148223876953e-01) (53, 4.48494195938110351562e-01) (54, 9.06239271163940429688e-01) (55, -8.07913914322853088379e-02) (56, 1.20777559280395507812e+00) (57, -1.18980598449707031250e+00) (58, -1.29668312147259712219e-02) (59, 7.46661067008972167969e-01) (60, 5.08569538593292236328e-01) (61, -1.44929349422454833984e-01) (62, -2.50680714845657348633e-01) (63, 1.15821540355682373047e+00) (64, 1.48499131202697753906e+00) (65, 6.64909005165100097656e-01) (66, 1.33824217319488525391e+00) (67, 8.67522776126861572266e-01) (37, 1.68335154652595520020e-01) (38, -4.20885384082794189453e-01) (39, 9.20308470726013183594e-01) (40, 5.03213644027709960938e-01) (41, 3.77680212259292602539e-01) (42, 1.69164150953292846680e-01) (43, 6.50921821594238281250e-01) (44, -7.46237695217132568359e-01) (45, 1.16253602504730224609e+00) (46, -1.01651775836944580078e+00) (47, 6.46563023328781127930e-02) (48, 1.71298846602439880371e-01) (49, 5.52887022495269775391e-01) (50, -1.19158589839935302734e+00) (51, 7.78825640678405761719e-01) (52, 8.57213616371154785156e-01) (53, -1.07405495643615722656e+00) (54, 1.57601916790008544922e+00) (55, -1.15662288665771484375e+00) (56, -1.73947736620903015137e-01) (57, -5.35498797893524169922e-01) (58, 6.33741915225982666016e-01) (59, -2.44222506880760192871e-01) (60, -4.00114148855209350586e-01) (61, 5.96614837646484375000e-01) (62, 1.00046612322330474854e-01) (63, -1.61574527621269226074e-01) (64, 4.63520467281341552734e-01) (65, -5.95599472522735595703e-01) (66, -7.82673239707946777344e-01) (67, 1.07146084308624267578e+00) (37, 8.43252614140510559082e-02) (38, -1.11799633502960205078e+00) (39, 5.54659217596054077148e-02) (40, 4.04817536473274230957e-02) (41, -4.00912463665008544922e-01) (42, 1.26504921913146972656e+00) (43, 2.08349451422691345215e-01) (44, 1.57260466367006301880e-02) (45, 9.56400811672210693359e-01) (46, -3.41807335615158081055e-01) (47, 5.61056435108184814453e-01) (48, -1.15186142921447753906e+00) (49, 4.94914680719375610352e-01) (50, 1.25363111495971679688e+00) (51, 1.45325076580047607422e+00) (52, 3.03944855928421020508e-01) (53, -5.26071548461914062500e-01) (54, 1.42873093485832214355e-01) (55, 3.91468048095703125000e-01) (56, 1.99712797999382019043e-01) (57, -3.03020924329757690430e-01) (58, 1.00467361509799957275e-01) (59, -4.90892589092254638672e-01) (60, -2.03103244304656982422e-01) (61, 5.02885520458221435547e-01) (62, -4.50702935457229614258e-01) (63, 5.52677333354949951172e-01) (64, -9.14280474185943603516e-01) (65, 1.07560205459594726562e+00) (66, -9.59680914878845214844e-01) (67, -4.22908097505569458008e-01) (37, 1.88978314399719238281e-01) (38, -1.91067650914192199707e-01) (39, -2.31671348214149475098e-01) (40, 1.51452615857124328613e-01) (41, 3.01968008279800415039e-01) (42, 2.58838474750518798828e-01) (43, 6.01597353816032409668e-02) (44, 4.15445983409881591797e-01) (45, 7.91665613651275634766e-01) (46, 5.29576063156127929688e-01) (47, 5.11117815971374511719e-01) (48, -1.83890894055366516113e-01) (49, 3.30560863018035888672e-01) (50, 3.10009688138961791992e-01) (51, -4.77678090333938598633e-01) (52, 8.53990256786346435547e-01) (53, 3.55939239263534545898e-01) (54, 4.43920135498046875000e-01) (55, 4.13502484560012817383e-01) (56, 3.22675973176956176758e-01) (57, 5.13115704059600830078e-01) (58, 1.08561486005783081055e-01) (59, 1.62995815277099609375e-01) (60, 1.08225846290588378906e+00) (61, 9.69317406415939331055e-02) (62, 4.26173433661460876465e-02) (63, -7.00880810618400573730e-02) (64, 9.72453594207763671875e-01) (65, -2.94083118438720703125e-01) (66, 4.78225171566009521484e-01) (67, 1.15366721153259277344e+00) (37, 6.48185729980468750000e-01) (38, 1.54267656803131103516e+00) (39, -8.95924791693687438965e-02) (40, 1.21315026283264160156e+00) (41, -1.28365874290466308594e+00) (42, 7.10874557495117187500e-01) (43, -3.90292853116989135742e-02) (44, -2.81960844993591308594e-01) (45, 1.96898066997528076172e+00) (46, -1.04180745780467987061e-01) (47, 1.07568573951721191406e+00) (48, 4.60911035537719726562e-01) (49, 1.73225760459899902344e-01) (50, 2.55485266447067260742e-01) (51, 4.58620458841323852539e-01) (52, 5.95383942127227783203e-01) (53, 1.49957582354545593262e-01) (54, -4.68805402517318725586e-01) (55, -1.81610429286956787109e+00) (56, 1.07563209533691406250e+00) (57, 4.16946679353713989258e-01) (58, 2.11275056004524230957e-01) (59, 6.82455360889434814453e-01) (60, 1.91290691494941711426e-01) (61, 1.41167497634887695312e+00) (62, -7.80490279197692871094e-01) (63, -6.98813855648040771484e-01) (64, 4.18585270643234252930e-01) (65, 7.77982950210571289062e-01) (66, -1.19223093986511230469e+00) (67, 1.28009760379791259766e+00) (68, -9.53017294406890869141e-01) (69, -2.05019116401672363281e-01) (70, 1.29054903984069824219e+00) (71, 6.66018366813659667969e-01) (72, 4.38435840606689453125e+00) (73, 6.07768774032592773438e-01) (74, 9.45090711116790771484e-01) (75, -5.07047891616821289062e-01) (76, -2.58509993553161621094e-01) (77, -3.68727415800094604492e-01) (78, 1.08784008026123046875e+00) (79, 1.97640883922576904297e+00) (80, 1.57025766372680664062e+00) (81, -1.13237034529447555542e-02) (82, 5.38890779018402099609e-01) (83, 9.78084325790405273438e-01) (84, 1.43649697303771972656e+00) (85, 6.41473829746246337891e-01) (86, 6.53635859489440917969e-01) (87, -1.85310348868370056152e-01) (88, -1.34846970438957214355e-01) (89, 6.01495988667011260986e-02) (90, -8.04630458354949951172e-01) (91, -4.30687046051025390625e+00) (92, -7.62069284915924072266e-01) (93, 3.62620025873184204102e-01) (94, 4.93108332157135009766e-01) (95, 1.40558457374572753906e+00) (96, -2.52033829689025878906e-01) (97, 3.28259885311126708984e-01) (98, 1.81240841746330261230e-01) (68, -1.86321482062339782715e-01) (69, 1.20889842510223388672e+00) (70, 3.79137173295021057129e-02) (71, 2.25374698638916015625e-01) (72, -1.92954695224761962891e+00) (73, 4.99761432409286499023e-01) (74, 1.05617773532867431641e+00) (75, 1.96275621652603149414e-01) (76, -1.27652359008789062500e+00) (77, 1.76267290115356445312e+00) (78, 1.17876350879669189453e+00) (79, 1.22035872936248779297e+00) (80, 1.72920227050781250000e-01) (81, 4.51456099748611450195e-01) (82, -8.69235396385192871094e-02) (83, 3.00917673110961914062e+00) (84, -1.97787195444107055664e-01) (85, 1.53694355487823486328e+00) (86, 7.79627561569213867188e-01) (87, 1.00371038913726806641e+00) (88, -2.92020410299301147461e-01) (89, -8.98301079869270324707e-02) (90, 1.52829706668853759766e+00) (91, -4.24898803234100341797e-01) (92, -5.55654406547546386719e-01) (93, -2.08699822425842285156e-01) (94, 4.30169880390167236328e-01) (95, -1.63286054134368896484e+00) (96, -1.22539401054382324219e-01) (97, -1.02617461234331130981e-02) (98, 5.73116242885589599609e-01) (68, -8.10353100299835205078e-01) (69, 1.09962332248687744141e+00) (70, -2.59125351905822753906e-01) (71, -5.54224073886871337891e-01) (72, 2.89372801780700683594e-01) (73, -1.18824410438537597656e+00) (74, -3.29987734556198120117e-01) (75, 1.13388729095458984375e+00) (76, -3.40003192424774169922e-01) (77, -2.49673619866371154785e-01) (78, 1.87428843975067138672e+00) (79, -4.91739571094512939453e-01) (80, 3.63825231790542602539e-01) (81, 1.89896917343139648438e+00) (82, 1.62308275699615478516e-01) (83, 6.94019973278045654297e-01) (84, -2.20836047083139419556e-02) (85, 4.17442947626113891602e-01) (86, -9.32446777820587158203e-01) (87, 1.01385557651519775391e+00) (88, 6.19508922100067138672e-01) (89, 8.23214530944824218750e-01) (90, 1.62515696138143539429e-02) (91, 1.75259888172149658203e-01) (92, 2.95304983854293823242e-01) (93, -1.01948352530598640442e-02) (94, -9.91827473044395446777e-02) (95, 9.85765531659126281738e-02) (96, 6.29236340522766113281e-01) (97, 8.60294997692108154297e-02) (98, 6.58119618892669677734e-01) (68, -4.65231865644454956055e-01) (69, -2.86222305148839950562e-02) (70, -2.11020603775978088379e-01) (71, 1.02257752418518066406e+00) (72, 1.35502934455871582031e+00) (73, 9.49162483215332031250e-01) (74, -1.29214867949485778809e-01) (75, -3.38001906871795654297e-01) (76, -2.12425160408020019531e+00) (77, 9.12027657032012939453e-02) (78, 1.15864074230194091797e+00) (79, 4.86732900142669677734e-01) (80, 4.01480421423912048340e-02) (81, -4.02689725160598754883e-01) (82, 1.34572529792785644531e+00) (83, 6.45685195922851562500e-01) (84, 5.32943189144134521484e-01) (85, -1.31259988993406295776e-02) (86, -1.12715095281600952148e-01) (87, -1.61316916346549987793e-02) (88, -6.02408051490783691406e-01) (89, -1.63644000887870788574e-01) (90, -5.08278131484985351562e-01) (91, -9.54012215137481689453e-01) (92, 2.05456644296646118164e-01) (93, 1.06979262828826904297e+00) (94, 5.28992354869842529297e-01) (95, 1.48006629943847656250e+00) (96, 2.35694676637649536133e-01) (97, 1.61516308784484863281e+00) (98, 5.94708383083343505859e-01) (68, 5.49958795309066772461e-02) (69, 4.99542981386184692383e-01) (70, -7.46611803770065307617e-02) (71, 3.61569434404373168945e-01) (72, -4.82903599739074707031e-01) (73, -2.79654353857040405273e-01) (74, -9.35121715068817138672e-01) (75, 5.86227774620056152344e-01) (76, -7.63848841190338134766e-01) (77, 8.15529346466064453125e-01) (78, 9.34803664684295654297e-01) (79, 9.40275013446807861328e-01) (80, 3.91347259283065795898e-01) (81, 1.20727550983428955078e+00) (82, 1.01860678195953369141e+00) (83, 2.33176922798156738281e+00) (84, -1.43174797296524047852e-01) (85, 1.16768252849578857422e+00) (86, 1.00608420372009277344e+00) (87, -2.42520168423652648926e-01) (88, -4.33203309774398803711e-01) (89, 5.24138569831848144531e-01) (90, -4.36981528997421264648e-01) (91, -4.53687041997909545898e-01) (92, -4.33369338512420654297e-01) (93, 8.85144948959350585938e-01) (94, 2.47180610895156860352e-01) (95, -3.18750411272048950195e-01) (96, -1.70452389866113662720e-02) (97, 5.88028728961944580078e-01) (98, 1.47562399506568908691e-01) (68, -9.07530367374420166016e-01) (69, 5.62002599239349365234e-01) (70, -1.83337360620498657227e-01) (71, -7.00987949967384338379e-02) (72, 1.08168505132198333740e-01) (73, -6.02570235729217529297e-01) (74, -2.54402339458465576172e-01) (75, 5.13260722160339355469e-01) (76, 3.64880025386810302734e-01) (77, -2.58967965841293334961e-01) (78, 1.95557677745819091797e+00) (79, -3.04220080375671386719e-01) (80, 6.25524520874023437500e-01) (81, 5.08466422557830810547e-01) (82, 7.82246217131614685059e-02) (83, -1.65561527013778686523e-01) (84, 5.71361958980560302734e-01) (85, 3.46484929323196411133e-01) (86, 2.12043672800064086914e-01) (87, -1.40293732285499572754e-01) (88, 1.03348863124847412109e+00) (89, -8.32478165626525878906e-01) (90, 4.55492198467254638672e-01) (91, 3.93443346023559570312e-01) (92, 2.19825446605682373047e-01) (93, -4.14823532104492187500e-01) (94, 3.56234729290008544922e-01) (95, 4.84384864568710327148e-01) (96, 3.31869959831237792969e-01) (97, -6.51215314865112304688e-02) (98, 1.05476677417755126953e+00) (68, 1.55343085527420043945e-01) (69, 6.53277277946472167969e-01) (70, -5.84632381796836853027e-02) (71, 6.27126991748809814453e-01) (72, 2.55001354962587356567e-02) (73, 1.23481839895248413086e-01) (74, -5.59421718120574951172e-01) (75, 7.22641944885253906250e-01) (76, -9.44998636841773986816e-02) (77, -1.71182706952095031738e-01) (78, -2.45685815811157226562e-01) (79, 4.21219617128372192383e-01) (80, 2.74263381958007812500e-01) (81, 2.03922942280769348145e-01) (82, 3.59560817480087280273e-01) (83, -5.68162918090820312500e-01) (84, 1.15070855617523193359e+00) (85, 5.01399815082550048828e-01) (86, 9.05259132385253906250e-01) (87, 8.95545184612274169922e-01) (88, -4.48323160409927368164e-01) (89, -7.08883941173553466797e-01) (90, 4.85971897840499877930e-01) (91, -8.00061784684658050537e-03) (92, -5.62219202518463134766e-01) (93, 7.38132297992706298828e-01) (94, -4.88546133041381835938e-01) (95, 1.89017266035079956055e-01) (96, 1.53134596347808837891e+00) (97, 7.02374696731567382812e-01) (98, -3.45216598361730575562e-03) (68, 5.46192705631256103516e-01) (69, 1.23711907863616943359e+00) (70, 1.24733746051788330078e+00) (71, 7.10885524749755859375e-01) (72, -2.29268804192543029785e-01) (73, -4.43031370639801025391e-01) (74, -2.03806608915328979492e-01) (75, 1.68815121054649353027e-01) (76, -4.73252266645431518555e-01) (77, 2.19253644347190856934e-01) (78, 6.72172486782073974609e-01) (79, 1.27542018890380859375e+00) (80, -6.46584630012512207031e-01) (81, -5.69738268852233886719e-01) (82, -1.12494611740112304688e+00) (83, 9.98349666595458984375e-01) (84, 1.04859769344329833984e+00) (85, 6.10151171684265136719e-01) (86, 1.38427436351776123047e+00) (87, 5.04457950592041015625e-01) (88, -5.29141843318939208984e-01) (89, -2.99524515867233276367e-01) (90, -5.63632190227508544922e-01) (91, -1.52063639834523200989e-02) (92, -9.58562433719635009766e-01) (93, 5.24343907833099365234e-01) (94, -6.49038314819335937500e-01) (95, -2.44523331522941589355e-01) (96, 6.13147318363189697266e-01) (97, 6.34931445121765136719e-01) (98, 2.24495753645896911621e-01) (68, -7.79198765754699707031e-01) (69, 3.36186349391937255859e-01) (70, -3.34216326475143432617e-01) (71, 1.21629737317562103271e-01) (72, 3.23042899370193481445e-01) (73, -9.83898639678955078125e-01) (74, 7.61665940284729003906e-01) (75, 1.65684199333190917969e+00) (76, 1.31313920021057128906e-01) (77, -9.44200530648231506348e-02) (78, 1.37551093101501464844e+00) (79, -6.89949095249176025391e-01) (80, 2.43627890944480895996e-01) (81, 1.59636569023132324219e+00) (82, 2.02346965670585632324e-01) (83, 1.63691431283950805664e-01) (84, 2.92453378438949584961e-01) (85, 1.08655643463134765625e+00) (86, -4.11882251501083374023e-01) (87, 6.97474181652069091797e-01) (88, 6.88296794891357421875e-01) (89, 3.98343577980995178223e-02) (90, -3.92609834671020507812e-01) (91, 3.25628548860549926758e-01) (92, 1.67354553937911987305e-01) (93, -1.83987841010093688965e-01) (94, -5.96748650074005126953e-01) (95, -2.30994969606399536133e-01) (96, 2.53213137388229370117e-01) (97, 1.18284434080123901367e-01) (98, -4.58832643926143646240e-03) (68, -4.31887626647949218750e-01) (69, 1.29125046730041503906e+00) (70, -4.85527962446212768555e-02) (71, 6.57117068767547607422e-01) (72, -2.34596461057662963867e-01) (73, 2.71362140774726867676e-02) (74, -5.98258972167968750000e-01) (75, 7.23607480525970458984e-01) (76, -1.83704972267150878906e-01) (77, -3.32680732011795043945e-01) (78, -2.99920719116926193237e-02) (79, 3.57474386692047119141e-01) (80, -3.02504956722259521484e-01) (81, 4.18304026126861572266e-01) (82, 1.70167028903961181641e-01) (83, -3.50500464439392089844e-01) (84, 7.92267143726348876953e-01) (85, 8.24886620044708251953e-01) (86, 1.00227952003479003906e+00) (87, 8.14800381660461425781e-01) (88, -6.04800760746002197266e-01) (89, -5.92813491821289062500e-01) (90, 7.15597793459892272949e-02) (91, 4.93987947702407836914e-01) (92, -4.40123885869979858398e-01) (93, 1.09915244579315185547e+00) (94, 4.43725526332855224609e-01) (95, 4.94315475225448608398e-01) (96, 1.45048487186431884766e+00) (97, 8.07997405529022216797e-01) (98, -7.78690278530120849609e-02) (68, 9.08459275960922241211e-02) (69, 8.80726099014282226562e-01) (70, -3.56846541166305541992e-01) (71, 5.17474234104156494141e-01) (72, -4.61902543902397155762e-02) (73, 1.54435500502586364746e-01) (74, -5.94913840293884277344e-01) (75, 6.00803673267364501953e-01) (76, -1.28794118762016296387e-01) (77, -2.18384861946105957031e-01) (78, 3.41166323050856590271e-03) (79, 2.03253075480461120605e-01) (80, 3.07202786207199096680e-01) (81, 6.11957609653472900391e-01) (82, 5.70020616054534912109e-01) (83, -3.16660284996032714844e-01) (84, 9.11416828632354736328e-01) (85, 7.01399803161621093750e-01) (86, 1.02974820137023925781e+00) (87, 9.93838965892791748047e-01) (88, -3.21477413177490234375e-01) (89, -7.91177988052368164062e-01) (90, -1.99516564607620239258e-01) (91, 1.55754119157791137695e-01) (92, -2.88360327482223510742e-01) (93, 8.86185705661773681641e-01) (94, -6.18407905101776123047e-01) (95, 1.09139278531074523926e-01) (96, 1.46500039100646972656e+00) (97, 7.99431085586547851562e-01) (98, 2.21060495823621749878e-03) (68, -2.67913669347763061523e-01) (69, -5.13086497783660888672e-01) (70, -1.76662221550941467285e-01) (71, 8.45140814781188964844e-02) (72, 3.39885093271732330322e-02) (73, 8.36760774254798889160e-02) (74, -5.66143095493316650391e-01) (75, 1.12099993228912353516e+00) (76, -7.14008957147598266602e-02) (77, 1.42273092642426490784e-02) (78, 1.14079570770263671875e+00) (79, -3.25483173131942749023e-01) (80, 7.87233531475067138672e-01) (81, 2.75476157665252685547e-01) (82, -1.71923294663429260254e-01) (83, -5.42926669120788574219e-01) (84, 3.47989559173583984375e-01) (85, -4.75968830287456512451e-02) (86, 4.33939605951309204102e-01) (87, 5.12641370296478271484e-01) (88, 1.04785025119781494141e+00) (89, -1.27958476543426513672e+00) (90, 6.91030472517013549805e-02) (91, 1.66841037571430206299e-02) (92, -3.60686242580413818359e-01) (93, -2.41556644439697265625e-01) (94, -6.65597259998321533203e-01) (95, -2.71507427096366882324e-02) (96, 6.72540485858917236328e-01) (97, 4.34460997581481933594e-01) (98, -3.32395941019058227539e-01)
input_names='ni1/ne' 'nuee' 'q' 'rmin' 'ti1/te'
output_names='OUT_NEO_CnC' 'OUT_NEO_CnD' 'OUT_NEO_Cne' 'OUT_NEO_CtC' 'OUT_NEO_CtD' 'OUT_NEO_Cte' 'OUT_SAU_CnC' 'OUT_SAU_CnD' 'OUT_SAU_Cne' 'OUT_SAU_CtC' 'OUT_SAU_CtD' 'OUT_SAU_Cte'
norm_output=0.0 0.0 0.0 0.0 0.0 0.0 0.0 0.0 0.0 0.0 0.0 0.0 0.0 0.0 0.0 0.0 0.0 0.0 0.0 0.0 0.0 0.0 0.0 0.0 0.0 0.0 0.0 0.0 0.0 0.0 0.0 0.0 0.0 0.0 0.0 0.0 0.0 0.0 0.0 0.0 0.0 0.0 0.0 0.0 0.0 0.0 0.0 0.0 0.0 0.0 0.0 0.0 0.0 0.0 0.0 0.0 0.0 0.0 0.0 0.0
MSE= 0.00416132062674