FANN_FLO_2.1
num_layers=3
learning_rate=0.700000
connection_rate=1.000000
network_type=0
learning_momentum=0.000000
training_algorithm=2
train_error_function=0
train_stop_function=0
cascade_output_change_fraction=0.010000
quickprop_decay=0.041420
quickprop_mu=1.750000
rprop_increase_factor=1.200000
rprop_decrease_factor=0.500000
rprop_delta_min=0.000000
rprop_delta_max=50.000000
rprop_delta_zero=0.100000
cascade_output_stagnation_epochs=12
cascade_candidate_change_fraction=0.010000
cascade_candidate_stagnation_epochs=12
cascade_max_out_epochs=150
cascade_min_out_epochs=50
cascade_max_cand_epochs=150
cascade_min_cand_epochs=50
cascade_num_candidate_groups=2
bit_fail_limit=3.49999994039535522461e-01
cascade_candidate_limit=1.00000000000000000000e+03
cascade_weight_multiplier=4.00000005960464477539e-01
cascade_activation_functions_count=10
cascade_activation_functions=3 5 7 8 10 11 14 15 16 17
cascade_activation_steepnesses_count=4
cascade_activation_steepnesses=2.50000000000000000000e-01 5.00000000000000000000e-01 7.50000000000000000000e-01 1.00000000000000000000e+00
layer_sizes=18 31 9
scale_included=1
scale_mean_in=0.751191 0.037244 0.002096 0.095358 1.430804 2.253865 15.493862 0.827674 0.982574 0.400999 2.351044 1.857714 3.025763 0.704582 0.248609 1.151407 0.089863
scale_deviation_in=0.038762 0.007715 0.000683 0.017711 0.047334 0.287374 4.519081 0.172699 0.222053 0.496386 0.429340 0.456911 0.016964 0.048889 0.095922 0.104208 0.032004
scale_new_min_in=-1.000000 -1.000000 -1.000000 -1.000000 -1.000000 -1.000000 -1.000000 -1.000000 -1.000000 -1.000000 -1.000000 -1.000000 -1.000000 -1.000000 -1.000000 -1.000000 -1.000000
scale_factor_in=1.000000 1.000000 1.000000 1.000000 1.000000 1.000000 1.000000 1.000000 1.000000 1.000000 1.000000 1.000000 1.000000 1.000000 1.000000 1.000000 1.000000
scale_mean_out=4.234286 5.253591 0.279185 0.002498 1.280858 2.936561 0.128217 1.153184
scale_deviation_out=3.052271 5.672446 0.334318 0.121236 1.275694 1.801121 0.055785 0.756644
scale_new_min_out=-1.000000 -1.000000 -1.000000 -1.000000 -1.000000 -1.000000 -1.000000 -1.000000
scale_factor_out=1.000000 1.000000 1.000000 1.000000 1.000000 1.000000 1.000000 1.000000
neurons (num_inputs, activation_function, activation_steepness)=(0, 0, 0.00000000000000000000e+00) (0, 0, 0.00000000000000000000e+00) (0, 0, 0.00000000000000000000e+00) (0, 0, 0.00000000000000000000e+00) (0, 0, 0.00000000000000000000e+00) (0, 0, 0.00000000000000000000e+00) (0, 0, 0.00000000000000000000e+00) (0, 0, 0.00000000000000000000e+00) (0, 0, 0.00000000000000000000e+00) (0, 0, 0.00000000000000000000e+00) (0, 0, 0.00000000000000000000e+00) (0, 0, 0.00000000000000000000e+00) (0, 0, 0.00000000000000000000e+00) (0, 0, 0.00000000000000000000e+00) (0, 0, 0.00000000000000000000e+00) (0, 0, 0.00000000000000000000e+00) (0, 0, 0.00000000000000000000e+00) (0, 0, 0.00000000000000000000e+00) (18, 5, 5.00000000000000000000e-01) (18, 5, 5.00000000000000000000e-01) (18, 5, 5.00000000000000000000e-01) (18, 5, 5.00000000000000000000e-01) (18, 5, 5.00000000000000000000e-01) (18, 5, 5.00000000000000000000e-01) (18, 5, 5.00000000000000000000e-01) (18, 5, 5.00000000000000000000e-01) (18, 5, 5.00000000000000000000e-01) (18, 5, 5.00000000000000000000e-01) (18, 5, 5.00000000000000000000e-01) (18, 5, 5.00000000000000000000e-01) (18, 5, 5.00000000000000000000e-01) (18, 5, 5.00000000000000000000e-01) (18, 5, 5.00000000000000000000e-01) (18, 5, 5.00000000000000000000e-01) (18, 5, 5.00000000000000000000e-01) (18, 5, 5.00000000000000000000e-01) (18, 5, 5.00000000000000000000e-01) (18, 5, 5.00000000000000000000e-01) (18, 5, 5.00000000000000000000e-01) (18, 5, 5.00000000000000000000e-01) (18, 5, 5.00000000000000000000e-01) (18, 5, 5.00000000000000000000e-01) (18, 5, 5.00000000000000000000e-01) (18, 5, 5.00000000000000000000e-01) (18, 5, 5.00000000000000000000e-01) (18, 5, 5.00000000000000000000e-01) (18, 5, 5.00000000000000000000e-01) (18, 5, 5.00000000000000000000e-01) (0, 5, 0.00000000000000000000e+00) (31, 0, 5.00000000000000000000e-01) (31, 0, 5.00000000000000000000e-01) (31, 0, 5.00000000000000000000e-01) (31, 0, 5.00000000000000000000e-01) (31, 0, 5.00000000000000000000e-01) (31, 0, 5.00000000000000000000e-01) (31, 0, 5.00000000000000000000e-01) (31, 0, 5.00000000000000000000e-01) (0, 0, 0.00000000000000000000e+00)
connections (connected_to_neuron, weight)=(0, -1.32482349872589111328e+00) (1, -8.49778890609741210938e-01) (2, -1.70270338654518127441e-01) (3, 5.40576223284006118774e-03) (4, 1.00888991355895996094e+00) (5, -3.57974827289581298828e-01) (6, 1.95454657077789306641e-01) (7, 3.05489957332611083984e-01) (8, -1.96678191423416137695e-01) (9, 1.00085232406854629517e-02) (10, -3.53514403104782104492e-01) (11, -2.30243861675262451172e-01) (12, -3.82090240716934204102e-01) (13, -6.10374391078948974609e-01) (14, 7.00581669807434082031e-01) (15, -1.05405092239379882812e-01) (16, 1.16086769104003906250e+00) (17, 7.59691596031188964844e-01) (0, 3.50426793098449707031e+00) (1, 4.72081041336059570312e+00) (2, -5.15448749065399169922e-01) (3, 7.13616073131561279297e-01) (4, 7.24333226680755615234e-01) (5, 7.10768580436706542969e-01) (6, 8.04181516170501708984e-01) (7, -5.55347979068756103516e-01) (8, 1.82701393961906433105e-01) (9, 2.77184635400772094727e-01) (10, -4.00511950254440307617e-01) (11, 3.26418548822402954102e-01) (12, -7.90537238121032714844e-01) (13, 2.96724367141723632812e+00) (14, -3.30490082502365112305e-01) (15, 6.94516003131866455078e-01) (16, -7.66687154769897460938e-01) (17, -1.30206513404846191406e+00) (0, -3.55714708566665649414e-01) (1, -7.13192164897918701172e-01) (2, -1.32218372821807861328e+00) (3, 8.09275954961776733398e-02) (4, -6.78340137004852294922e-01) (5, 1.96766063570976257324e-01) (6, 3.56831133365631103516e-01) (7, -2.33452335000038146973e-01) (8, 1.89789399504661560059e-01) (9, 1.23808823525905609131e-01) (10, 3.87238040566444396973e-02) (11, 1.32018655538558959961e-01) (12, 1.20160169899463653564e-01) (13, 3.03523004055023193359e-01) (14, -7.55753397941589355469e-01) (15, 1.35996520519256591797e-01) (16, 6.27166330814361572266e-01) (17, -5.95004796981811523438e+00) (0, -1.79396376013755798340e-01) (1, 3.33792477846145629883e-01) (2, 4.81444001197814941406e-01) (3, -7.08152890205383300781e-01) (4, 7.06335723400115966797e-01) (5, 7.04712033271789550781e-01) (6, 2.71591752767562866211e-01) (7, -3.95325064659118652344e-01) (8, 6.78186416625976562500e-01) (9, 6.54219985008239746094e-01) (10, -8.82475376129150390625e-01) (11, 3.23947995901107788086e-01) (12, -2.12950512766838073730e-01) (13, 5.70441865921020507812e+00) (14, 3.85892868041992187500e-01) (15, 5.36629036068916320801e-02) (16, 5.62441766262054443359e-01) (17, -5.90877413749694824219e-01) (0, -5.12683615088462829590e-02) (1, -7.45203733444213867188e-01) (2, 1.41276344656944274902e-01) (3, 3.67428928613662719727e-01) (4, 6.51858627796173095703e-01) (5, 2.78219372034072875977e-01) (6, -3.39548259973526000977e-01) (7, 2.22701281309127807617e-01) (8, 1.43111765384674072266e+00) (9, 3.65172296762466430664e-01) (10, -1.12143144011497497559e-01) (11, 1.99256479740142822266e-01) (12, -1.56753584742546081543e-01) (13, -1.40437379479408264160e-01) (14, 7.27434903383255004883e-02) (15, 2.61087883263826370239e-02) (16, -4.96791481971740722656e-01) (17, -5.24709701538085937500e+00) (0, 1.27250432968139648438e+00) (1, 1.42853069305419921875e+00) (2, 4.65580634772777557373e-02) (3, 1.79587110877037048340e-01) (4, -5.19678294658660888672e-01) (5, -2.10462793707847595215e-01) (6, -1.64369672536849975586e-01) (7, -2.97569811344146728516e-01) (8, 2.75648415088653564453e-01) (9, 3.30974131822586059570e-01) (10, -1.31004266440868377686e-02) (11, -1.11958838999271392822e-01) (12, -7.77514651417732238770e-02) (13, -2.70247049629688262939e-02) (14, -1.21325328946113586426e-01) (15, -2.35622793436050415039e-01) (16, 4.25982922315597534180e-01) (17, 2.87250895053148269653e-02) (0, -1.41216784715652465820e-01) (1, 6.01717710494995117188e-01) (2, 7.17204332351684570312e-01) (3, 1.19729912281036376953e+00) (4, 1.43422687053680419922e+00) (5, 1.97266981005668640137e-01) (6, 5.36919295787811279297e-01) (7, 3.99565786123275756836e-01) (8, -4.42648947238922119141e-01) (9, -1.24759869650006294250e-02) (10, 7.11820185184478759766e-01) (11, -2.05728858709335327148e-01) (12, -7.97585546970367431641e-01) (13, 2.85265183448791503906e+00) (14, 3.19817900657653808594e-01) (15, 3.59773486852645874023e-01) (16, 1.35310459136962890625e+00) (17, -2.27328109741210937500e+00) (0, 4.85343217849731445312e-01) (1, 7.15901613235473632812e-01) (2, 3.29988479614257812500e-01) (3, -2.34700627624988555908e-02) (4, 9.66777577996253967285e-02) (5, -8.41943398118019104004e-02) (6, -1.18266902863979339600e-01) (7, -1.17104671895503997803e-01) (8, 9.05996039509773254395e-02) (9, 8.58997106552124023438e-02) (10, 1.32089536637067794800e-02) (11, 2.70633548498153686523e-02) (12, -6.91895931959152221680e-02) (13, 7.15676426887512207031e-01) (14, -4.85345348715782165527e-02) (15, -6.99875280261039733887e-02) (16, 6.23853325843811035156e-01) (17, 1.42923259735107421875e+00) (0, 5.69486761093139648438e+00) (1, 6.88592290878295898438e+00) (2, -8.78215909004211425781e-01) (3, -3.84079635143280029297e-01) (4, 2.81077671051025390625e+00) (5, 1.29285538196563720703e+00) (6, 2.12432241439819335938e+00) (7, -1.86068594455718994141e+00) (8, 1.08292162418365478516e+00) (9, 5.92298433184623718262e-02) (10, -8.97884666919708251953e-01) (11, 2.32001233100891113281e+00) (12, -1.20425784587860107422e+00) (13, 5.78002309799194335938e+00) (14, 1.90963730216026306152e-01) (15, 4.78292286396026611328e-01) (16, -8.81682410836219787598e-02) (17, -2.45442199707031250000e+00) (0, 6.42819464206695556641e-01) (1, 6.32831096649169921875e-01) (2, 2.08391383290290832520e-01) (3, 8.34846436977386474609e-01) (4, 7.07326531410217285156e-01) (5, 7.15874493122100830078e-01) (6, -1.86141788959503173828e+00) (7, 9.01212096214294433594e-02) (8, -2.43310540914535522461e-01) (9, -5.72609066963195800781e-01) (10, -5.59166260063648223877e-02) (11, 5.72438359260559082031e-01) (12, -2.09146872162818908691e-01) (13, -7.13879466056823730469e-01) (14, 6.10227048397064208984e-01) (15, -2.34669214114546775818e-03) (16, 1.13180456683039665222e-02) (17, -2.29643201828002929688e+00) (0, -1.99237316846847534180e-01) (1, -3.57536017894744873047e-01) (2, -1.34165152907371520996e-01) (3, 3.79225045442581176758e-01) (4, 5.90066432952880859375e-01) (5, -7.15921163558959960938e-01) (6, 8.05773809552192687988e-02) (7, 5.58486999943852424622e-03) (8, 4.86656203866004943848e-02) (9, 3.18477042019367218018e-02) (10, 7.80609130859375000000e-01) (11, -2.87132591009140014648e-01) (12, -1.17721922695636749268e-01) (13, 1.78896799683570861816e-01) (14, 2.57896989583969116211e-01) (15, 3.22397351264953613281e-02) (16, -1.82889059185981750488e-01) (17, -1.67092990875244140625e+00) (0, -9.40720830112695693970e-03) (1, -1.79403394460678100586e-01) (2, -3.57740908861160278320e-01) (3, -5.75718581676483154297e-01) (4, -3.98047000169754028320e-01) (5, -2.19566479325294494629e-01) (6, 9.29906964302062988281e-01) (7, -3.21542471647262573242e-01) (8, 3.62768352031707763672e-01) (9, 2.92336791753768920898e-01) (10, -5.53139224648475646973e-02) (11, 2.69320160150527954102e-01) (12, 1.83585941791534423828e-01) (13, 6.92358911037445068359e-01) (14, -3.51028740406036376953e-01) (15, 5.57911917567253112793e-02) (16, -5.52370473742485046387e-02) (17, 1.42599499225616455078e+00) (0, 3.43312099575996398926e-02) (1, 1.00337825715541839600e-01) (2, -5.23013062775135040283e-03) (3, -3.58449369668960571289e-01) (4, -5.45331358909606933594e-01) (5, -1.22380018234252929688e+00) (6, 1.16891324520111083984e+00) (7, 3.79273556172847747803e-02) (8, 8.98453779518604278564e-03) (9, 3.18362973630428314209e-02) (10, -2.12883725762367248535e-01) (11, 2.04567387700080871582e-02) (12, 2.80156195163726806641e-01) (13, 1.43112850189208984375e+00) (14, -3.37781161069869995117e-01) (15, 2.02551577240228652954e-02) (16, 2.33641751110553741455e-02) (17, 1.61549434065818786621e-01) (0, -8.58824253082275390625e-02) (1, 6.46894052624702453613e-02) (2, 6.22044682502746582031e-01) (3, 5.09198009967803955078e-01) (4, -5.21429665386676788330e-02) (5, -1.79260760545730590820e-01) (6, -1.69927820563316345215e-01) (7, 1.61081731319427490234e-01) (8, 1.07019498944282531738e-01) (9, 1.05896174907684326172e-01) (10, 7.39602595567703247070e-02) (11, -1.28416314721107482910e-01) (12, 1.75860360264778137207e-01) (13, 1.14515399932861328125e+00) (14, -7.10797846317291259766e-01) (15, 3.59250843524932861328e-01) (16, -1.91512122750282287598e-01) (17, -4.39087778329849243164e-01) (0, 1.11147932708263397217e-01) (1, 1.02465227246284484863e-01) (2, 3.58163177967071533203e-01) (3, 2.56945826113224029541e-02) (4, -6.61456286907196044922e-01) (5, 7.13786721229553222656e-01) (6, -2.94994235038757324219e-01) (7, -5.87047450244426727295e-02) (8, 1.18258222937583923340e-02) (9, 2.62503661215305328369e-02) (10, -4.97419163584709167480e-02) (11, -1.66019558906555175781e-01) (12, -6.64199888706207275391e-02) (13, -1.80311173200607299805e-01) (14, -5.76571095734834671021e-03) (15, -3.10719430446624755859e-01) (16, 3.47045689821243286133e-01) (17, -7.14415729045867919922e-01) (0, 9.20037031173706054688e-01) (1, 7.66299009323120117188e-01) (2, 4.49410900473594665527e-02) (3, -1.40621617436408996582e-01) (4, 5.19492089748382568359e-01) (5, 7.02470779418945312500e-01) (6, -7.09147155284881591797e-01) (7, 5.51087483763694763184e-02) (8, 7.16955006122589111328e-01) (9, -2.28205043822526931763e-02) (10, -1.61495119333267211914e-01) (11, 4.42820966243743896484e-01) (12, -5.67089021205902099609e-02) (13, -1.25375881791114807129e-01) (14, 1.20662048459053039551e-01) (15, -2.94073373079299926758e-02) (16, 3.97986173629760742188e-03) (17, -5.82194805145263671875e-01) (0, 1.96836531162261962891e+00) (1, 2.48739242553710937500e+00) (2, 1.04014635086059570312e+00) (3, -2.24438413977622985840e-01) (4, 5.13810992240905761719e-01) (5, -1.62414878606796264648e-01) (6, 3.34080010652542114258e-01) (7, 3.32867428660392761230e-02) (8, -2.39398889243602752686e-02) (9, -6.82189613580703735352e-02) (10, -1.39418721199035644531e-01) (11, 1.78332969546318054199e-01) (12, -1.43851831555366516113e-01) (13, -5.94534445554018020630e-04) (14, -1.67740896344184875488e-01) (15, 9.51427370309829711914e-02) (16, 8.60745683312416076660e-02) (17, 7.84753501415252685547e-01) (0, 6.17244720458984375000e-01) (1, -1.28479883074760437012e-01) (2, 2.20075297355651855469e+00) (3, -6.44731760025024414062e-01) (4, 4.07770931720733642578e-01) (5, 1.30389809608459472656e+00) (6, -3.27970236539840698242e-02) (7, 3.04004609584808349609e-01) (8, -1.98301285505294799805e-01) (9, -3.28852623701095581055e-01) (10, 2.77832031250000000000e-01) (11, 2.86225564777851104736e-02) (12, 3.72909247875213623047e-01) (13, 6.27445995807647705078e-01) (14, -1.48834928870201110840e-01) (15, -3.95492985844612121582e-02) (16, -8.44682157039642333984e-01) (17, 7.39180862903594970703e-01) (0, 1.25716388225555419922e+00) (1, 1.20422863960266113281e+00) (2, -2.08154648542404174805e-01) (3, 2.56826821714639663696e-02) (4, 7.16768980026245117188e-01) (5, 1.43183445930480957031e+00) (6, 4.02512758970260620117e-01) (7, -3.95874977111816406250e-01) (8, 3.58816087245941162109e-01) (9, 1.30735382437705993652e-01) (10, 7.12069809436798095703e-01) (11, -3.58687460422515869141e-01) (12, -2.95610636472702026367e-01) (13, -7.14362382888793945312e-01) (14, -4.07357700169086456299e-02) (15, 7.18049705028533935547e-02) (16, -6.66550874710083007812e-01) (17, -1.42831325531005859375e+00) (0, 6.55617654323577880859e-01) (1, 7.19967246055603027344e-01) (2, -1.77552595734596252441e-01) (3, 5.06344772875308990479e-02) (4, -1.35240092873573303223e-01) (5, -2.55571126937866210938e-01) (6, -2.25654132664203643799e-02) (7, -4.25810098648071289062e-01) (8, 5.31524121761322021484e-01) (9, 9.22200307250022888184e-02) (10, 1.28419518470764160156e-01) (11, 7.20366716384887695312e-01) (12, 6.16648308932781219482e-02) (13, 5.91552928090095520020e-02) (14, 6.09595060348510742188e-01) (15, 2.21508815884590148926e-01) (16, -3.55832606554031372070e-01) (17, -4.83132982254028320312e+00) (0, -1.32500076293945312500e+00) (1, -2.67891645431518554688e+00) (2, 1.67413043975830078125e+00) (3, -5.69849312305450439453e-02) (4, 5.68627297878265380859e-01) (5, 1.18660724163055419922e+00) (6, 3.59445095062255859375e-01) (7, 4.92849424481391906738e-02) (8, 1.83557614684104919434e-01) (9, -3.73147904872894287109e-01) (10, 1.06552235782146453857e-01) (11, -2.00805157423019409180e-01) (12, 2.35981166362762451172e-01) (13, 3.92288506031036376953e-01) (14, -8.73445570468902587891e-02) (15, 2.09035411477088928223e-01) (16, 3.92180562019348144531e-01) (17, -1.53350687026977539062e+00) (0, -3.57990056276321411133e-01) (1, -7.51859903335571289062e-01) (2, 1.70923948287963867188e-01) (3, 5.58343112468719482422e-01) (4, 6.84295117855072021484e-01) (5, -1.71779960393905639648e-01) (6, -7.04373002052307128906e-01) (7, -7.07588642835617065430e-02) (8, 2.03346550464630126953e-01) (9, -3.57592463493347167969e-01) (10, 6.81450128555297851562e-01) (11, 1.79778948426246643066e-01) (12, -7.47429765760898590088e-03) (13, 2.34982408583164215088e-02) (14, 5.08617520332336425781e-01) (15, -1.00272022187709808350e-01) (16, -3.23922604322433471680e-01) (17, -1.37726736068725585938e+00) (0, 7.46568024158477783203e-01) (1, 8.48583281040191650391e-01) (2, 3.11014145612716674805e-01) (3, 4.22084555029869079590e-02) (4, 2.09693193435668945312e-01) (5, -7.80271366238594055176e-02) (6, -2.25816443562507629395e-01) (7, 1.26712799072265625000e-01) (8, -1.05238869786262512207e-01) (9, -8.22162777185440063477e-02) (10, 1.67228177189826965332e-01) (11, -1.91069036722183227539e-01) (12, 7.51140266656875610352e-02) (13, 7.16105580329895019531e-01) (14, 3.14724922180175781250e-01) (15, -1.68106332421302795410e-01) (16, -1.23949665576219558716e-02) (17, -7.33565449714660644531e-01) (0, -3.16497832536697387695e-01) (1, -9.33288186788558959961e-02) (2, 5.06156444549560546875e-01) (3, 1.89922258257865905762e-01) (4, -3.57627272605895996094e-01) (5, 4.68554571270942687988e-02) (6, -3.58206897974014282227e-01) (7, -8.91816318035125732422e-02) (8, -8.07117819786071777344e-02) (9, 2.17661857604980468750e-01) (10, 2.11570203304290771484e-01) (11, -1.12040007114410400391e+00) (12, -3.37907262146472930908e-02) (13, 9.44854691624641418457e-02) (14, -3.23404856026172637939e-02) (15, -2.20662713050842285156e-01) (16, 2.57774531841278076172e-01) (17, -1.42724740505218505859e+00) (0, -2.89963126182556152344e-01) (1, -9.00756344199180603027e-02) (2, 2.34097167849540710449e-02) (3, -1.80062666535377502441e-01) (4, -1.46437406539916992188e-01) (5, 1.60527378320693969727e-01) (6, -2.47037440538406372070e-01) (7, 5.11458456516265869141e-01) (8, -2.56035953760147094727e-01) (9, 1.90760016441345214844e-01) (10, 1.30020454525947570801e-01) (11, -7.70380318164825439453e-01) (12, 1.63717076182365417480e-01) (13, 1.65180861949920654297e-01) (14, -2.19221994280815124512e-01) (15, 8.00755545496940612793e-02) (16, 5.05411960184574127197e-02) (17, -1.94082915782928466797e-01) (0, -2.79380410909652709961e-01) (1, -2.89494395256042480469e-01) (2, 5.98668213933706283569e-03) (3, 1.83987263590097427368e-02) (4, 2.65392065048217773438e-01) (5, 7.06746935844421386719e-01) (6, -4.06769365072250366211e-01) (7, 3.42662096023559570312e-01) (8, -8.50110277533531188965e-02) (9, -3.17610590718686580658e-03) (10, 7.33277425169944763184e-02) (11, 1.94233387708663940430e-01) (12, 8.11681151390075683594e-03) (13, -1.90340861678123474121e-01) (14, 1.67303770780563354492e-01) (15, -6.15841113030910491943e-02) (16, -3.83889339864253997803e-02) (17, 1.42546963691711425781e+00) (0, -3.58281672000885009766e-01) (1, -8.90225768089294433594e-02) (2, 4.31636750698089599609e-01) (3, -2.90242820978164672852e-01) (4, -3.56450915336608886719e-01) (5, -7.14075326919555664062e-01) (6, -4.07071113586425781250e-02) (7, 7.03730165958404541016e-01) (8, -5.72145819664001464844e-01) (9, -2.12579682469367980957e-01) (10, -2.62393921613693237305e-01) (11, -7.35403373837471008301e-02) (12, 1.83842256665229797363e-01) (13, 3.42280358076095581055e-01) (14, 1.04849442839622497559e-01) (15, 4.69837747514247894287e-02) (16, 3.24164271354675292969e-01) (17, 7.11824297904968261719e-01) (0, 7.44755387306213378906e-01) (1, 7.21482694149017333984e-01) (2, 2.65299975872039794922e-01) (3, 1.15322566125541925430e-03) (4, -5.86964795365929603577e-03) (5, -3.50483089685440063477e-01) (6, -4.85876090824604034424e-02) (7, -4.77550953626632690430e-01) (8, 5.16862452030181884766e-01) (9, 4.48135256767272949219e-01) (10, -1.91855486482381820679e-02) (11, -3.57551932334899902344e-01) (12, -6.81362301111221313477e-02) (13, -3.58773320913314819336e-01) (14, 4.16528612375259399414e-01) (15, -2.57910609245300292969e-01) (16, 1.43014323711395263672e+00) (17, 1.16135573387145996094e+00) (0, 2.58291035890579223633e-01) (1, 5.06412327289581298828e-01) (2, -2.13173434138298034668e-01) (3, -1.11495089530944824219e+00) (4, 2.88225620985031127930e-01) (5, -7.14480519294738769531e-01) (6, 6.40086233615875244141e-01) (7, 6.35961517691612243652e-02) (8, 1.91705420613288879395e-01) (9, 4.13676261901855468750e-01) (10, 1.72773391008377075195e-01) (11, -7.51322269439697265625e-01) (12, 2.74997353553771972656e-01) (13, 7.07491397857666015625e-01) (14, 1.20322532951831817627e-01) (15, -2.69208867102861404419e-02) (16, -3.09993982315063476562e-01) (17, 7.15946674346923828125e-01) (0, -3.30057919025421142578e-01) (1, -5.65829753875732421875e-01) (2, -7.14223682880401611328e-01) (3, -8.05012211203575134277e-02) (4, 1.26720488071441650391e+00) (5, -7.33606934547424316406e-01) (6, 2.16439890861511230469e+00) (7, -1.17119276523590087891e+00) (8, 7.15901613235473632812e-01) (9, -8.89811292290687561035e-02) (10, -1.65505170822143554688e-01) (11, 1.09476399421691894531e+00) (12, -6.24359905719757080078e-01) (13, 3.04820179939270019531e+00) (14, 6.57895505428314208984e-01) (15, 3.14969182014465332031e-01) (16, 1.11829400062561035156e-01) (17, -6.52834296226501464844e-01) (18, -5.87067186832427978516e-01) (19, 1.44264772534370422363e-01) (20, 7.10718631744384765625e-01) (21, 2.24507355690002441406e+00) (22, 1.52768063545227050781e+00) (23, -1.61619469523429870605e-01) (24, -1.25684976577758789062e-01) (25, 6.91587984561920166016e-01) (26, -2.85179686546325683594e+00) (27, 1.14165708422660827637e-01) (28, 4.35396623611450195312e+00) (29, 2.21199011802673339844e+00) (30, -9.52244579792022705078e-01) (31, 2.97614395618438720703e-01) (32, -5.24145722389221191406e-01) (33, 1.00242340564727783203e+00) (34, -8.82196873426437377930e-02) (35, -1.64554268121719360352e-01) (36, 7.42983043193817138672e-01) (37, 2.81860017776489257812e+00) (38, -5.13565130531787872314e-02) (39, 1.32849484682083129883e-01) (40, -4.61471199989318847656e-01) (41, 1.18518495559692382812e+00) (42, -1.38036012649536132812e+00) (43, 2.25528693199157714844e+00) (44, 1.43002450466156005859e+00) (45, 1.61425098776817321777e-01) (46, -3.61170411109924316406e-01) (47, 1.30152925848960876465e-01) (48, 5.70451021194458007812e+00) (18, -6.23203575611114501953e-01) (19, -4.20502513647079467773e-01) (20, -3.57447326183319091797e-01) (21, -3.23942065238952636719e-01) (22, 2.16375663876533508301e-01) (23, 2.86664217710494995117e-01) (24, 2.74472653865814208984e-01) (25, 1.43840396404266357422e+00) (26, -1.76376059651374816895e-01) (27, 5.30908524990081787109e-01) (28, -4.01824295520782470703e-01) (29, 3.00327372550964355469e+00) (30, -1.40037342905998229980e-01) (31, 3.46436202526092529297e-02) (32, -2.18094015121459960938e+00) (33, 1.42599165439605712891e+00) (34, -3.09572100639343261719e-01) (35, -2.76650965213775634766e-01) (36, 2.63564974069595336914e-01) (37, 9.77828216552734375000e+00) (38, 1.44077213481068611145e-02) (39, 5.91174602508544921875e-01) (40, -8.44442665576934814453e-01) (41, 2.85756754875183105469e+00) (42, -2.78642773628234863281e+00) (43, 3.59855651855468750000e+00) (44, 1.37708592414855957031e+00) (45, -3.99699538946151733398e-01) (46, -8.08118164539337158203e-01) (47, 5.53907901048660278320e-02) (48, 6.50388336181640625000e+00) (18, -1.47406132891774177551e-02) (19, 2.33110621571540832520e-01) (20, -3.54250490665435791016e-01) (21, 2.67272400856018066406e+00) (22, 6.66266965866088867188e+00) (23, 4.03161406517028808594e-01) (24, 7.13089942932128906250e-01) (25, 9.33103203773498535156e-01) (26, -3.97679162025451660156e+00) (27, 7.16909468173980712891e-01) (28, -2.35982313752174377441e-01) (29, 2.12221574783325195312e+00) (30, 1.01356649398803710938e+00) (31, 8.37510883808135986328e-01) (32, -2.94478034973144531250e+00) (33, 3.38652563095092773438e+00) (34, -1.42345762252807617188e+00) (35, 3.02586197853088378906e-01) (36, 3.58408808708190917969e-01) (37, 7.16717839241027832031e-01) (38, 2.03795969486236572266e-01) (39, -3.36539387702941894531e+00) (40, -7.07041546702384948730e-02) (41, 3.41786170005798339844e+00) (42, -4.60606527328491210938e+00) (43, 4.62906551361083984375e+00) (44, 2.64283919334411621094e+00) (45, 1.84121474623680114746e-01) (46, -1.01108896732330322266e+00) (47, -7.18612551689147949219e-01) (48, 2.85495328903198242188e+00) (18, 6.74493372440338134766e-01) (19, 2.93867141008377075195e-01) (20, -2.16202020645141601562e+00) (21, -8.78036841750144958496e-02) (22, 3.45001995563507080078e-01) (23, 7.16032803058624267578e-01) (24, -3.09917658567428588867e-01) (25, -2.18845248222351074219e+00) (26, -1.42610418796539306641e+00) (27, 5.74161338806152343750e+00) (28, -2.64961838722229003906e-01) (29, 6.18132925033569335938e+00) (30, -5.76741886138916015625e+00) (31, 2.85848426818847656250e+00) (32, 3.22872328758239746094e+00) (33, -1.57156050205230712891e+00) (34, -1.43085408210754394531e+00) (35, 1.42873242497444152832e-01) (36, 2.50778579711914062500e+00) (37, -2.78335094451904296875e+00) (38, 7.05791041254997253418e-02) (39, 4.56723570823669433594e-01) (40, 1.42892694473266601562e+00) (41, -1.12332677841186523438e+00) (42, -4.14017081260681152344e-01) (43, -2.33260822296142578125e+00) (44, 5.19613599777221679688e+00) (45, 7.13462769985198974609e-01) (46, 2.85681653022766113281e+00) (47, 2.13988995552062988281e+00) (48, -8.66806089878082275391e-01) (18, -8.04341375827789306641e-01) (19, -2.85214018821716308594e+00) (20, 1.32343902587890625000e+01) (21, 1.26637351512908935547e+00) (22, -1.48064028471708297729e-02) (23, -1.96744680404663085938e+00) (24, 2.47843074798583984375e+00) (25, 2.85536313056945800781e+00) (26, 4.09479260444641113281e-01) (27, 8.86074379086494445801e-02) (28, -8.69039535522460937500e-01) (29, -2.09970220923423767090e-01) (30, 2.89721429347991943359e-01) (31, -5.65397679805755615234e-01) (32, -6.82990550994873046875e-01) (33, 3.77865672111511230469e-01) (34, -1.71604418754577636719e+00) (35, -7.86065403372049331665e-03) (36, 1.85540929436683654785e-01) (37, -4.35002422332763671875e+00) (38, -6.53082039207220077515e-03) (39, 7.83438310027122497559e-02) (40, -3.65803623199462890625e+00) (41, 6.79979860782623291016e-01) (42, -1.35901004076004028320e-01) (43, 5.52876532077789306641e-01) (44, 8.41130614280700683594e-01) (45, 1.39955985546112060547e+00) (46, -1.40999764204025268555e-01) (47, -2.39539936184883117676e-01) (48, 5.70154857635498046875e+00) (18, -4.27729785442352294922e-01) (19, -2.86733150482177734375e+00) (20, 5.99318456649780273438e+00) (21, 1.42927491664886474609e+00) (22, 2.52928528934717178345e-02) (23, -2.60211968421936035156e+00) (24, 1.78039574623107910156e+00) (25, 3.00770688056945800781e+00) (26, 1.08560836315155029297e+00) (27, 1.17159681394696235657e-02) (28, 1.43460583686828613281e+00) (29, 1.34581461548805236816e-01) (30, 6.14907860755920410156e-01) (31, 1.74987018108367919922e-01) (32, 1.43035435676574707031e+00) (33, 6.18732813745737075806e-03) (34, -2.57909083366394042969e+00) (35, 4.57316696643829345703e-01) (36, -1.38437688350677490234e+00) (37, -1.33018016815185546875e+00) (38, 1.80340155959129333496e-01) (39, -1.22865373268723487854e-02) (40, -5.30290746688842773438e+00) (41, 7.46163070201873779297e-01) (42, -2.24930554628372192383e-01) (43, 1.15265882015228271484e+00) (44, -1.37919211387634277344e+00) (45, 1.96010208129882812500e+00) (46, 1.66879490017890930176e-01) (47, -3.55524271726608276367e-01) (48, 2.38439202308654785156e+00) (18, -2.99985408782958984375e-01) (19, -1.63012886047363281250e+00) (20, 3.85289025306701660156e+00) (21, 1.43357098102569580078e+00) (22, 3.39338093996047973633e-01) (23, -2.53642034530639648438e+00) (24, 1.43324077129364013672e+00) (25, 2.85725140571594238281e+00) (26, 6.22415244579315185547e-01) (27, -7.23915472626686096191e-02) (28, 8.57045769691467285156e-01) (29, -2.05693095922470092773e-01) (30, 5.31296968460083007812e-01) (31, 2.24696472287178039551e-02) (32, 9.07638728618621826172e-01) (33, 4.26728762686252593994e-02) (34, -2.79096317291259765625e+00) (35, 5.25229573249816894531e-01) (36, -7.01952278614044189453e-01) (37, -1.39492738246917724609e+00) (38, 3.53877931833267211914e-01) (39, -2.71064341068267822266e-02) (40, -5.61005640029907226562e+00) (41, 6.78648710250854492188e-01) (42, -7.51224383711814880371e-02) (43, 7.68342673778533935547e-01) (44, -1.60123422741889953613e-01) (45, 1.73207998275756835938e+00) (46, -9.09153223037719726562e-02) (47, -6.74838647246360778809e-02) (48, 5.52328288555145263672e-01) (18, 2.78074741363525390625e+00) (19, 7.17120647430419921875e-01) (20, 1.42718124389648437500e+00) (21, -1.42697501182556152344e+00) (22, -1.03794440627098083496e-01) (23, 7.84302377700805664062e+00) (24, 1.00670719146728515625e+00) (25, 6.72739923000335693359e-01) (26, -1.75989449024200439453e-01) (27, -6.53121445793658494949e-04) (28, 1.27329266071319580078e+00) (29, -1.28538048267364501953e+00) (30, 3.54195445775985717773e-01) (31, -7.21227824687957763672e-01) (32, -5.82951688766479492188e+00) (33, 1.83053873479366302490e-02) (34, -2.87892651557922363281e+00) (35, 2.84002423286437988281e+00) (36, -7.49641716480255126953e-01) (37, -3.27662557363510131836e-01) (38, 2.76023864746093750000e+00) (39, -6.19262814521789550781e-01) (40, -2.53668159246444702148e-01) (41, -6.60543560981750488281e-01) (42, -7.14737534523010253906e-01) (43, -7.13382720947265625000e-01) (44, -6.69441580772399902344e-01) (45, -2.41216301918029785156e+00) (46, 3.09568822383880615234e-01) (47, 3.58552068471908569336e-01) (48, 1.42610239982604980469e+00)
input_names='AS_2' 'AS_3' 'BETAE' 'DELTA_LOC' 'KAPPA_LOC' 'Q_LOC' 'Q_PRIME_LOC' 'RLNS_1' 'RLNS_2' 'RLNS_3' 'RLTS_1' 'RLTS_2' 'RMAJ_LOC' 'RMIN_LOC' 'S_KAPPA_LOC' 'TAUS_2' 'XNUE'
output_names='OUT_ENERGY_FLUX_1' 'OUT_ENERGY_FLUX_i' 'OUT_PARTICLE_FLUX_1' 'OUT_STRESS_TOR_i' 'OUT_exp_ENERGY_FLUX_1' 'OUT_exp_ENERGY_FLUX_i' 'OUT_exp_PARTICLE_FLUX_1' 'OUT_exp_STRESS_TOR_i'
norm_output=0.0 0.0 0.0 0.0 0.0 0.0 0.0 0.0 0.0 0.0 0.0 0.0 0.0 0.0 0.0 0.0 0.0 0.0 0.0 0.0 0.0 0.0 0.0 0.0 0.0 0.0 0.0 0.0 0.0 0.0 0.0 0.0 0.0 0.0 0.0 0.0 0.0 0.0 0.0 0.0 0.0 0.0 0.0 0.0 0.0 0.0 0.0 0.0 0.0 0.0 0.0 0.0 0.0 0.0 0.0 0.0 0.0 0.0 0.0 0.0 0.0 0.0 0.0 0.0 0.0 0.0 0.0 0.0 0.0 0.0 0.0 0.0 0.0 0.0 0.0 0.0 0.0 0.0 0.0 0.0 0.0 0.0 0.0 0.0 0.0 0.0 0.0 0.0 0.0 0.0 0.0 0.0 0.0 0.0 0.0 0.0 0.0 0.0 0.0 0.0 0.0 0.0 0.0 0.0 0.0 0.0 0.0 0.0 0.0 0.0 0.0 0.0 0.0 0.0 0.0 0.0 0.0 0.0 0.0 0.0 0.0 0.0 0.0 0.0 0.0 0.0 0.0 0.0 0.0 0.0 0.0 0.0 0.0 0.0 0.0 0.0
MSE= 0.0268732905388