FANN_FLO_2.1
num_layers=3
learning_rate=0.700000
connection_rate=1.000000
network_type=0
learning_momentum=0.000000
training_algorithm=2
train_error_function=0
train_stop_function=0
cascade_output_change_fraction=0.010000
quickprop_decay=0.013930
quickprop_mu=1.750000
rprop_increase_factor=1.200000
rprop_decrease_factor=0.500000
rprop_delta_min=0.000000
rprop_delta_max=50.000000
rprop_delta_zero=0.100000
cascade_output_stagnation_epochs=12
cascade_candidate_change_fraction=0.010000
cascade_candidate_stagnation_epochs=12
cascade_max_out_epochs=150
cascade_min_out_epochs=50
cascade_max_cand_epochs=150
cascade_min_cand_epochs=50
cascade_num_candidate_groups=2
bit_fail_limit=3.49999994039535522461e-01
cascade_candidate_limit=1.00000000000000000000e+03
cascade_weight_multiplier=4.00000005960464477539e-01
cascade_activation_functions_count=10
cascade_activation_functions=3 5 7 8 10 11 14 15 16 17
cascade_activation_steepnesses_count=4
cascade_activation_steepnesses=2.50000000000000000000e-01 5.00000000000000000000e-01 7.50000000000000000000e-01 1.00000000000000000000e+00
layer_sizes=16 121 5
scale_included=1
scale_mean_in=0.751931 0.034440 0.004287 0.083840 1.426260 2.065624 11.077409 1.146319 2.420896 2.453427 3.039549 0.589617 0.185673 1.203894 0.089657
scale_deviation_in=0.047428 0.007106 0.003614 0.042970 0.091245 0.799373 10.414528 1.365134 1.370780 1.681486 0.041713 0.230705 0.201450 0.153074 0.080643
scale_new_min_in=-1.000000 -1.000000 -1.000000 -1.000000 -1.000000 -1.000000 -1.000000 -1.000000 -1.000000 -1.000000 -1.000000 -1.000000 -1.000000 -1.000000 -1.000000
scale_factor_in=1.000000 1.000000 1.000000 1.000000 1.000000 1.000000 1.000000 1.000000 1.000000 1.000000 1.000000 1.000000 1.000000 1.000000 1.000000
scale_mean_out=11.048508 13.459231 2.540213 0.231424
scale_deviation_out=24.268288 31.283598 8.377221 0.821102
scale_new_min_out=-1.000000 -1.000000 -1.000000 -1.000000
scale_factor_out=1.000000 1.000000 1.000000 1.000000
neurons (num_inputs, activation_function, activation_steepness)=(0, 0, 0.00000000000000000000e+00) (0, 0, 0.00000000000000000000e+00) (0, 0, 0.00000000000000000000e+00) (0, 0, 0.00000000000000000000e+00) (0, 0, 0.00000000000000000000e+00) (0, 0, 0.00000000000000000000e+00) (0, 0, 0.00000000000000000000e+00) (0, 0, 0.00000000000000000000e+00) (0, 0, 0.00000000000000000000e+00) (0, 0, 0.00000000000000000000e+00) (0, 0, 0.00000000000000000000e+00) (0, 0, 0.00000000000000000000e+00) (0, 0, 0.00000000000000000000e+00) (0, 0, 0.00000000000000000000e+00) (0, 0, 0.00000000000000000000e+00) (0, 0, 0.00000000000000000000e+00) (16, 5, 5.00000000000000000000e-01) (16, 5, 5.00000000000000000000e-01) (16, 5, 5.00000000000000000000e-01) (16, 5, 5.00000000000000000000e-01) (16, 5, 5.00000000000000000000e-01) (16, 5, 5.00000000000000000000e-01) (16, 5, 5.00000000000000000000e-01) (16, 5, 5.00000000000000000000e-01) (16, 5, 5.00000000000000000000e-01) (16, 5, 5.00000000000000000000e-01) (16, 5, 5.00000000000000000000e-01) (16, 5, 5.00000000000000000000e-01) (16, 5, 5.00000000000000000000e-01) (16, 5, 5.00000000000000000000e-01) (16, 5, 5.00000000000000000000e-01) (16, 5, 5.00000000000000000000e-01) (16, 5, 5.00000000000000000000e-01) (16, 5, 5.00000000000000000000e-01) (16, 5, 5.00000000000000000000e-01) (16, 5, 5.00000000000000000000e-01) (16, 5, 5.00000000000000000000e-01) (16, 5, 5.00000000000000000000e-01) (16, 5, 5.00000000000000000000e-01) (16, 5, 5.00000000000000000000e-01) (16, 5, 5.00000000000000000000e-01) (16, 5, 5.00000000000000000000e-01) (16, 5, 5.00000000000000000000e-01) (16, 5, 5.00000000000000000000e-01) (16, 5, 5.00000000000000000000e-01) (16, 5, 5.00000000000000000000e-01) (16, 5, 5.00000000000000000000e-01) (16, 5, 5.00000000000000000000e-01) (16, 5, 5.00000000000000000000e-01) (16, 5, 5.00000000000000000000e-01) (16, 5, 5.00000000000000000000e-01) (16, 5, 5.00000000000000000000e-01) (16, 5, 5.00000000000000000000e-01) (16, 5, 5.00000000000000000000e-01) (16, 5, 5.00000000000000000000e-01) (16, 5, 5.00000000000000000000e-01) (16, 5, 5.00000000000000000000e-01) (16, 5, 5.00000000000000000000e-01) (16, 5, 5.00000000000000000000e-01) (16, 5, 5.00000000000000000000e-01) (16, 5, 5.00000000000000000000e-01) (16, 5, 5.00000000000000000000e-01) (16, 5, 5.00000000000000000000e-01) (16, 5, 5.00000000000000000000e-01) (16, 5, 5.00000000000000000000e-01) (16, 5, 5.00000000000000000000e-01) (16, 5, 5.00000000000000000000e-01) (16, 5, 5.00000000000000000000e-01) (16, 5, 5.00000000000000000000e-01) (16, 5, 5.00000000000000000000e-01) (16, 5, 5.00000000000000000000e-01) (16, 5, 5.00000000000000000000e-01) (16, 5, 5.00000000000000000000e-01) (16, 5, 5.00000000000000000000e-01) (16, 5, 5.00000000000000000000e-01) (16, 5, 5.00000000000000000000e-01) (16, 5, 5.00000000000000000000e-01) (16, 5, 5.00000000000000000000e-01) (16, 5, 5.00000000000000000000e-01) (16, 5, 5.00000000000000000000e-01) (16, 5, 5.00000000000000000000e-01) (16, 5, 5.00000000000000000000e-01) (16, 5, 5.00000000000000000000e-01) (16, 5, 5.00000000000000000000e-01) (16, 5, 5.00000000000000000000e-01) (16, 5, 5.00000000000000000000e-01) (16, 5, 5.00000000000000000000e-01) (16, 5, 5.00000000000000000000e-01) (16, 5, 5.00000000000000000000e-01) (16, 5, 5.00000000000000000000e-01) (16, 5, 5.00000000000000000000e-01) (16, 5, 5.00000000000000000000e-01) (16, 5, 5.00000000000000000000e-01) (16, 5, 5.00000000000000000000e-01) (16, 5, 5.00000000000000000000e-01) (16, 5, 5.00000000000000000000e-01) (16, 5, 5.00000000000000000000e-01) (16, 5, 5.00000000000000000000e-01) (16, 5, 5.00000000000000000000e-01) (16, 5, 5.00000000000000000000e-01) (16, 5, 5.00000000000000000000e-01) (16, 5, 5.00000000000000000000e-01) (16, 5, 5.00000000000000000000e-01) (16, 5, 5.00000000000000000000e-01) (16, 5, 5.00000000000000000000e-01) (16, 5, 5.00000000000000000000e-01) (16, 5, 5.00000000000000000000e-01) (16, 5, 5.00000000000000000000e-01) (16, 5, 5.00000000000000000000e-01) (16, 5, 5.00000000000000000000e-01) (16, 5, 5.00000000000000000000e-01) (16, 5, 5.00000000000000000000e-01) (16, 5, 5.00000000000000000000e-01) (16, 5, 5.00000000000000000000e-01) (16, 5, 5.00000000000000000000e-01) (16, 5, 5.00000000000000000000e-01) (16, 5, 5.00000000000000000000e-01) (16, 5, 5.00000000000000000000e-01) (16, 5, 5.00000000000000000000e-01) (16, 5, 5.00000000000000000000e-01) (16, 5, 5.00000000000000000000e-01) (16, 5, 5.00000000000000000000e-01) (16, 5, 5.00000000000000000000e-01) (16, 5, 5.00000000000000000000e-01) (16, 5, 5.00000000000000000000e-01) (16, 5, 5.00000000000000000000e-01) (16, 5, 5.00000000000000000000e-01) (16, 5, 5.00000000000000000000e-01) (16, 5, 5.00000000000000000000e-01) (16, 5, 5.00000000000000000000e-01) (16, 5, 5.00000000000000000000e-01) (16, 5, 5.00000000000000000000e-01) (16, 5, 5.00000000000000000000e-01) (16, 5, 5.00000000000000000000e-01) (16, 5, 5.00000000000000000000e-01) (16, 5, 5.00000000000000000000e-01) (0, 5, 0.00000000000000000000e+00) (121, 0, 5.00000000000000000000e-01) (121, 0, 5.00000000000000000000e-01) (121, 0, 5.00000000000000000000e-01) (121, 0, 5.00000000000000000000e-01) (0, 0, 0.00000000000000000000e+00)
connections (connected_to_neuron, weight)=(0, -2.93821096420288085938e-01) (1, -2.75515615940093994141e-01) (2, 1.13988065719604492188e+00) (3, -1.83446425944566726685e-02) (4, -7.94193625450134277344e-01) (5, -1.32749629020690917969e+00) (6, 4.41603332757949829102e-01) (7, 2.59327709674835205078e-01) (8, 7.74699389934539794922e-01) (9, 3.27969789505004882812e-01) (10, 1.48999428749084472656e+00) (11, 2.95392364263534545898e-01) (12, -8.39580297470092773438e-02) (13, 5.48583865165710449219e-02) (14, 6.46890044212341308594e-01) (15, 1.61640512943267822266e+00) (0, -1.62950813770294189453e-01) (1, 2.54870802164077758789e-01) (2, 5.32354176044464111328e-01) (3, 6.92436456680297851562e-01) (4, 1.21680247783660888672e+00) (5, -7.64007985591888427734e-01) (6, -9.72007453441619873047e-01) (7, -1.67603358626365661621e-01) (8, 5.84675893187522888184e-02) (9, -1.22974514961242675781e+00) (10, -3.69067549705505371094e-01) (11, 9.87767696380615234375e-01) (12, -4.43858534097671508789e-01) (13, -3.80339056253433227539e-01) (14, -1.11613668501377105713e-01) (15, 1.30972588062286376953e+00) (0, 4.97138679027557373047e-01) (1, 5.07767915725708007812e-01) (2, 5.93392372131347656250e-01) (3, 8.79813075065612792969e-01) (4, 6.04508876800537109375e-01) (5, 6.09863579273223876953e-01) (6, -4.98505026102066040039e-01) (7, -5.75188219547271728516e-01) (8, 9.12483707070350646973e-02) (9, 2.88950026035308837891e-01) (10, 1.24439525604248046875e+00) (11, -2.23434213548898696899e-02) (12, 3.22413563728332519531e-01) (13, -3.43253195285797119141e-01) (14, 6.90574407577514648438e-01) (15, 1.20290160179138183594e+00) (0, 7.16388642787933349609e-01) (1, 6.12160801887512207031e-01) (2, 1.35578787326812744141e+00) (3, 9.22146499156951904297e-01) (4, 5.20875692367553710938e-01) (5, -4.88554418087005615234e-01) (6, -1.08031287789344787598e-01) (7, 1.97499454021453857422e-01) (8, -9.99602317810058593750e-01) (9, 4.90108013153076171875e-01) (10, 1.77752032876014709473e-01) (11, 6.87299191951751708984e-01) (12, 5.52310764789581298828e-01) (13, 1.76955163478851318359e-01) (14, -1.50302514433860778809e-01) (15, -1.10699498653411865234e+00) (0, -1.56623870134353637695e-01) (1, -3.15832376480102539062e-01) (2, 5.91134309768676757812e-01) (3, 4.68193084001541137695e-01) (4, 1.00092656910419464111e-01) (5, 2.02539235353469848633e-01) (6, -9.13758397102355957031e-01) (7, 8.72200310230255126953e-01) (8, 1.42367511987686157227e-01) (9, 8.00751149654388427734e-01) (10, 1.20058834552764892578e-01) (11, 3.03834736347198486328e-01) (12, -5.10831415653228759766e-01) (13, 6.55648589134216308594e-01) (14, -5.03834411501884460449e-02) (15, -7.34619379043579101562e-01) (0, 2.36652404069900512695e-01) (1, 5.00762224197387695312e-01) (2, 8.54511439800262451172e-01) (3, 9.12211537361145019531e-01) (4, -8.98564606904983520508e-03) (5, -4.21120077371597290039e-01) (6, 3.49991858005523681641e-01) (7, 1.13794124126434326172e+00) (8, 2.12368816137313842773e-01) (9, -1.37006628513336181641e+00) (10, 3.75604808330535888672e-01) (11, -4.73453789949417114258e-01) (12, 2.13544338941574096680e-01) (13, 5.80702662467956542969e-01) (14, 4.16922152042388916016e-01) (15, 8.39736282825469970703e-01) (0, -4.29979562759399414062e-01) (1, -8.82191956043243408203e-03) (2, 1.16963422298431396484e+00) (3, -2.74241358041763305664e-01) (4, 1.27173435688018798828e+00) (5, -1.29478517919778823853e-02) (6, -2.54995733499526977539e-01) (7, 1.14775514602661132812e+00) (8, 3.35026949644088745117e-01) (9, 1.01632750034332275391e+00) (10, 1.06744371354579925537e-01) (11, -9.29092168807983398438e-02) (12, -3.89452353119850158691e-02) (13, -2.67693679779767990112e-02) (14, 4.01370346546173095703e-01) (15, -1.08433401584625244141e+00) (0, -3.03765237331390380859e-01) (1, 5.44490944594144821167e-03) (2, 1.58254802227020263672e-01) (3, -6.43003642559051513672e-01) (4, 2.63045758008956909180e-01) (5, 5.62918901443481445312e-01) (6, 8.08838725090026855469e-01) (7, 1.28720903396606445312e+00) (8, 3.09402942657470703125e-01) (9, 4.89826142787933349609e-01) (10, 1.51226532459259033203e+00) (11, -7.90456011891365051270e-02) (12, 1.83014476299285888672e+00) (13, -2.72744327783584594727e-01) (14, -4.30969595909118652344e-01) (15, 2.13358807563781738281e+00) (0, -1.49674430489540100098e-01) (1, -5.20828545093536376953e-01) (2, 7.16368556022644042969e-01) (3, -7.37577974796295166016e-01) (4, 1.99650526046752929688e-01) (5, -2.81207293272018432617e-01) (6, 1.61306715011596679688e+00) (7, 6.58094823360443115234e-01) (8, -4.78922218084335327148e-01) (9, -1.26157447695732116699e-01) (10, -1.81855842471122741699e-01) (11, -1.17410445213317871094e+00) (12, -9.04311954975128173828e-01) (13, 5.19278347492218017578e-01) (14, -7.99947045743465423584e-03) (15, -4.35800254344940185547e-01) (0, 2.88022458553314208984e-01) (1, 2.99751460552215576172e-01) (2, 1.24313798733055591583e-03) (3, 8.39486062526702880859e-01) (4, 5.62990665435791015625e-01) (5, 3.90621960163116455078e-01) (6, -4.09960299730300903320e-01) (7, 4.81486409902572631836e-01) (8, -4.90677207708358764648e-02) (9, -9.49868559837341308594e-02) (10, 1.15064024925231933594e+00) (11, -2.84139513969421386719e-01) (12, 4.63185697793960571289e-01) (13, 1.04690097272396087646e-01) (14, 2.22926869988441467285e-01) (15, -1.87119543552398681641e-02) (0, 3.31280708312988281250e-01) (1, -3.93260091543197631836e-01) (2, 9.05168771743774414062e-01) (3, 1.23197519779205322266e+00) (4, -1.11121463775634765625e+00) (5, 3.27884465456008911133e-01) (6, 1.67867496609687805176e-01) (7, 2.45524600148200988770e-01) (8, 2.09077760577201843262e-01) (9, 1.02287065982818603516e+00) (10, 6.73446178436279296875e-01) (11, -3.19570004940032958984e-01) (12, -8.14848482608795166016e-01) (13, 2.58998721837997436523e-01) (14, 1.40790250152349472046e-02) (15, 6.21717348694801330566e-02) (0, 4.44703221321105957031e-01) (1, 9.98640894889831542969e-01) (2, -3.32006961107254028320e-01) (3, 9.96326625347137451172e-01) (4, -3.76786977052688598633e-01) (5, 9.01819050312042236328e-01) (6, -7.35277533531188964844e-02) (7, -4.29403215646743774414e-01) (8, 6.37761235237121582031e-01) (9, 2.98295944929122924805e-01) (10, 1.18183684349060058594e+00) (11, 1.41071537509560585022e-02) (12, 2.46185529977083206177e-03) (13, 1.87974125146865844727e-01) (14, 5.23813664913177490234e-01) (15, 1.42196285724639892578e+00) (0, 7.67978327348828315735e-03) (1, -6.58048465847969055176e-02) (2, 4.48816597461700439453e-01) (3, -1.53184282779693603516e+00) (4, -7.79701173305511474609e-01) (5, -4.34229761362075805664e-01) (6, 1.67200529575347900391e+00) (7, -1.00486390292644500732e-01) (8, -3.89262922108173370361e-02) (9, -4.96200382709503173828e-01) (10, 1.71820092946290969849e-02) (11, 2.94771581888198852539e-01) (12, 4.16177362203598022461e-01) (13, 4.89574521780014038086e-02) (14, 5.59571027755737304688e-01) (15, 1.07236385345458984375e+00) (0, 2.38112360239028930664e-01) (1, -3.44841778278350830078e-01) (2, -6.35816752910614013672e-01) (3, -4.82085458934307098389e-02) (4, 2.96665519475936889648e-01) (5, -1.67538821697235107422e-01) (6, -1.67662787437438964844e+00) (7, -2.42546317167580127716e-03) (8, 8.34834724664688110352e-02) (9, 6.75063580274581909180e-02) (10, 1.53870120644569396973e-01) (11, -4.11288768053054809570e-01) (12, -6.26241803169250488281e-01) (13, -7.58957758080214262009e-04) (14, -1.05744004249572753906e+00) (15, 2.11595311760902404785e-01) (0, 2.26420044898986816406e-01) (1, 1.39148223400115966797e+00) (2, 4.29585248231887817383e-01) (3, 2.25153610110282897949e-01) (4, -7.94444441795349121094e-01) (5, -5.82152664661407470703e-01) (6, -9.58241641521453857422e-01) (7, 2.91969567537307739258e-01) (8, -5.11315092444419860840e-02) (9, 2.31594949960708618164e-01) (10, 5.92420585453510284424e-02) (11, 7.79457867145538330078e-01) (12, -7.62627184391021728516e-01) (13, -7.20666646957397460938e-01) (14, 1.34388113021850585938e+00) (15, 8.61084640026092529297e-01) (0, -4.72540348768234252930e-01) (1, -2.90305078029632568359e-01) (2, 4.05076861381530761719e-01) (3, -1.82670176029205322266e-01) (4, -1.04717755317687988281e+00) (5, -8.37278604507446289062e-01) (6, -5.78183412551879882812e-01) (7, 5.27684807777404785156e-01) (8, -1.38994029839523136616e-04) (9, 1.11606098711490631104e-01) (10, -1.20917344093322753906e+00) (11, 6.07416272163391113281e-01) (12, 2.63750612735748291016e-01) (13, -8.34532082080841064453e-03) (14, 6.79585337638854980469e-02) (15, 7.83995866775512695312e-01) (0, -5.41000068187713623047e-02) (1, 2.97605752944946289062e-01) (2, 6.79110288619995117188e-01) (3, 2.52462536096572875977e-01) (4, 1.19422817230224609375e+00) (5, 5.39993464946746826172e-01) (6, -1.08303368091583251953e+00) (7, 5.51241636276245117188e-01) (8, 1.53370618820190429688e+00) (9, 4.63514238595962524414e-01) (10, 5.71330964565277099609e-01) (11, -1.09101057052612304688e+00) (12, 1.19034874439239501953e+00) (13, -1.07021033763885498047e-01) (14, 2.82953768968582153320e-01) (15, 1.45641529560089111328e+00) (0, -3.45473527908325195312e-01) (1, -5.65280556678771972656e-01) (2, 9.62919712066650390625e-01) (3, 5.38666605949401855469e-01) (4, 4.89724934101104736328e-01) (5, 3.71034204959869384766e-01) (6, -2.81891608238220214844e+00) (7, 8.64677801728248596191e-02) (8, 6.82480037212371826172e-02) (9, 8.62399339675903320312e-01) (10, 1.03806900978088378906e+00) (11, -9.61845040321350097656e-01) (12, 1.60781443119049072266e+00) (13, -2.05213218927383422852e-01) (14, 2.76157200336456298828e-01) (15, 1.16008329391479492188e+00) (0, -1.54432326555252075195e-01) (1, -3.25138837099075317383e-01) (2, 1.57663419842720031738e-01) (3, -1.21413841843605041504e-01) (4, -1.29005134105682373047e-01) (5, 4.75891530513763427734e-01) (6, -1.32314395904541015625e+00) (7, 3.43859463930130004883e-01) (8, 1.92549496889114379883e-01) (9, 3.75793039798736572266e-01) (10, 4.88224416971206665039e-01) (11, 1.08684241771697998047e-01) (12, 2.15221792459487915039e-01) (13, -4.37521696090698242188e-01) (14, -7.50261247158050537109e-02) (15, 9.27858054637908935547e-02) (0, 3.27772170305252075195e-01) (1, 3.80750209093093872070e-01) (2, -7.51809239387512207031e-01) (3, -2.56808251142501831055e-01) (4, 7.32516646385192871094e-01) (5, -3.00772756338119506836e-01) (6, -1.69518768787384033203e-01) (7, -1.02681994438171386719e+00) (8, 5.41141331195831298828e-01) (9, 5.04287898540496826172e-01) (10, -2.17755138874053955078e-01) (11, 8.97429347038269042969e-01) (12, 5.08592247962951660156e-01) (13, -2.48679310083389282227e-01) (14, -3.55778962373733520508e-01) (15, 6.02230429649353027344e-01) (0, -2.93420463800430297852e-01) (1, -3.03242858499288558960e-02) (2, 1.66463628411293029785e-01) (3, 1.88449382781982421875e-01) (4, 2.28637576103210449219e-01) (5, -4.14269775152206420898e-01) (6, -1.37756967544555664062e+00) (7, -2.59081816673278808594e+00) (8, -1.13741889595985412598e-01) (9, 1.82133173942565917969e+00) (10, 3.23682129383087158203e-01) (11, 1.36063829064369201660e-01) (12, 1.84129431843757629395e-01) (13, 7.24864423274993896484e-01) (14, -4.70991842448711395264e-02) (15, -2.74610053747892379761e-02) (0, 1.17639236152172088623e-01) (1, 6.01023845374584197998e-02) (2, 6.45622670650482177734e-01) (3, 7.59124279022216796875e-01) (4, 3.69142383337020874023e-01) (5, -2.80326038599014282227e-01) (6, 1.12667572498321533203e+00) (7, -2.46746450662612915039e-01) (8, 2.84465819597244262695e-01) (9, 3.50033730268478393555e-01) (10, -3.04474961012601852417e-02) (11, 2.48537287116050720215e-01) (12, -3.44812452793121337891e-01) (13, -1.10980775207281112671e-02) (14, 5.26157498359680175781e-01) (15, 1.21776616573333740234e+00) (0, -1.91357538104057312012e-01) (1, 1.63776382803916931152e-01) (2, 5.52067995071411132812e-01) (3, 9.30034637451171875000e-01) (4, 2.30792984366416931152e-01) (5, 1.38950669765472412109e+00) (6, -5.82027137279510498047e-01) (7, -3.20318996906280517578e-01) (8, 2.02099457383155822754e-01) (9, -1.59098774194717407227e-01) (10, -2.50080198049545288086e-01) (11, 4.00378078222274780273e-01) (12, 4.48750525712966918945e-01) (13, -3.91744785010814666748e-02) (14, 3.09568613767623901367e-01) (15, 5.41650891304016113281e-01) (0, -1.83353498578071594238e-02) (1, -3.77141743898391723633e-01) (2, -4.26898971199989318848e-02) (3, -5.86239481344819068909e-03) (4, 5.19193053245544433594e-01) (5, 7.56547689437866210938e-01) (6, 1.42849624156951904297e-01) (7, 3.11100214719772338867e-01) (8, -3.54470580816268920898e-01) (9, -7.62879699468612670898e-02) (10, -1.00062355399131774902e-01) (11, 9.16151940822601318359e-01) (12, 6.53740823268890380859e-01) (13, -6.63291439414024353027e-02) (14, 1.01788914203643798828e+00) (15, -1.81860876083374023438e+00) (0, 1.18176661431789398193e-01) (1, -3.74737143516540527344e-01) (2, -5.14618754386901855469e-01) (3, 3.91585044562816619873e-02) (4, -2.46111810207366943359e-01) (5, 4.00220155715942382812e-01) (6, -3.72265398502349853516e-01) (7, 6.89944386482238769531e-01) (8, 8.60167503356933593750e-01) (9, -5.12605190277099609375e-01) (10, 5.70338904857635498047e-01) (11, 3.46557408571243286133e-01) (12, -2.94257342815399169922e-01) (13, -6.18362009525299072266e-01) (14, 4.26321506500244140625e-01) (15, -3.13665032386779785156e-01) (0, -5.24767637252807617188e-02) (1, 5.09456098079681396484e-01) (2, 1.36854434013366699219e+00) (3, -6.09502434730529785156e-01) (4, 1.07959902286529541016e+00) (5, -5.69696426391601562500e-01) (6, 1.08905518054962158203e+00) (7, -7.80929327011108398438e-02) (8, -4.47717815637588500977e-01) (9, -1.00859403610229492188e+00) (10, -1.03302764892578125000e+00) (11, 4.98099066317081451416e-03) (12, 8.46818983554840087891e-01) (13, 7.13758289813995361328e-01) (14, 3.33813995122909545898e-01) (15, 1.49204373359680175781e+00) (0, -9.63211879134178161621e-02) (1, 2.11080208420753479004e-01) (2, -6.08085393905639648438e-01) (3, 1.35903328657150268555e-01) (4, -1.14545084536075592041e-01) (5, 8.16841661930084228516e-01) (6, -3.46059501171112060547e-01) (7, -2.73028671741485595703e-01) (8, -2.83804163336753845215e-02) (9, -1.11576581001281738281e+00) (10, 7.59298026561737060547e-01) (11, -3.12322229146957397461e-01) (12, 6.90334737300872802734e-01) (13, -8.08283463120460510254e-02) (14, 2.47264146804809570312e-01) (15, 1.30948400497436523438e+00) (0, 9.23323705792427062988e-02) (1, 1.02097764611244201660e-01) (2, 1.57703295350074768066e-01) (3, -3.03297162055969238281e-01) (4, -8.28975439071655273438e-02) (5, -6.16427779197692871094e-01) (6, 7.91245460510253906250e-01) (7, 1.12054419517517089844e+00) (8, -5.01332938671112060547e-01) (9, -6.54382258653640747070e-02) (10, -1.55028775334358215332e-01) (11, -2.99852997064590454102e-01) (12, -9.67492759227752685547e-02) (13, 3.40222597122192382812e-01) (14, -5.03993965685367584229e-02) (15, -2.19691574573516845703e-01) (0, 3.57448279857635498047e-01) (1, -9.95072484016418457031e-01) (2, 1.20372271537780761719e+00) (3, -2.43949607014656066895e-01) (4, -1.32400095462799072266e-01) (5, 3.54805976152420043945e-01) (6, 6.97293519973754882812e-01) (7, 2.51987963914871215820e-01) (8, 8.31004306674003601074e-02) (9, 3.69145363569259643555e-01) (10, -1.27565935254096984863e-01) (11, -1.36119222640991210938e+00) (12, -8.34744274616241455078e-01) (13, 7.74241030216217041016e-01) (14, -5.91912150382995605469e-01) (15, -3.65602731704711914062e-01) (0, -3.20896089076995849609e-01) (1, -1.76011502742767333984e-01) (2, 8.51695120334625244141e-01) (3, 1.05889163911342620850e-01) (4, 2.77953654527664184570e-01) (5, 3.23383510112762451172e-01) (6, 5.85339069366455078125e-01) (7, -3.59183013439178466797e-01) (8, 4.65139806270599365234e-01) (9, 3.69254589080810546875e-01) (10, 7.66167566180229187012e-02) (11, -2.53549814224243164062e-01) (12, 2.25864782929420471191e-01) (13, 5.93000233173370361328e-01) (14, -2.26770743727684020996e-01) (15, -2.11406648159027099609e-01) (0, 1.03540503978729248047e+00) (1, 1.16745018959045410156e+00) (2, 1.60712873935699462891e+00) (3, 2.95733153820037841797e-01) (4, 3.24326872825622558594e-01) (5, 1.32275378704071044922e+00) (6, -4.77509200572967529297e-01) (7, 9.68814551830291748047e-01) (8, 1.83759436011314392090e-01) (9, 2.23958849906921386719e-01) (10, 3.57292354106903076172e-01) (11, 4.18062269687652587891e-01) (12, 1.15386199951171875000e+00) (13, 3.73894609510898590088e-02) (14, 6.51703536510467529297e-01) (15, 8.17487478256225585938e-01) (0, 1.95632949471473693848e-01) (1, 2.72653877735137939453e-01) (2, 1.08862125873565673828e+00) (3, -6.98131799697875976562e-01) (4, -3.02625913172960281372e-02) (5, -3.28137814998626708984e-01) (6, -3.87075752019882202148e-01) (7, 2.21777454018592834473e-01) (8, -6.09833896160125732422e-01) (9, -4.84832137823104858398e-01) (10, 3.79912585020065307617e-01) (11, 5.99922239780426025391e-01) (12, 1.36427998542785644531e+00) (13, 2.13112728670239448547e-03) (14, 5.85399746894836425781e-01) (15, 5.55877387523651123047e-01) (0, 7.86110758781433105469e-01) (1, 5.44400393962860107422e-01) (2, 1.44079732894897460938e+00) (3, -4.40669387578964233398e-01) (4, 1.14742770791053771973e-01) (5, -6.69690787792205810547e-01) (6, 5.49953699111938476562e-01) (7, -7.04112350940704345703e-01) (8, 8.48768558353185653687e-03) (9, 9.44457530975341796875e-01) (10, 3.17962259054183959961e-01) (11, -8.90507042407989501953e-01) (12, 1.16377606987953186035e-01) (13, 5.65467357635498046875e-01) (14, 1.11964225769042968750e-01) (15, -1.11344069242477416992e-01) (0, 1.48195892572402954102e-01) (1, 5.60900866985321044922e-01) (2, -6.97076022624969482422e-01) (3, -6.42901659011840820312e-01) (4, -4.76922452449798583984e-01) (5, 3.81991118192672729492e-01) (6, 2.19336450099945068359e-01) (7, -1.59644830226898193359e+00) (8, -2.59642247110605239868e-02) (9, 2.82768875360488891602e-01) (10, 1.45320624113082885742e-01) (11, -3.35409343242645263672e-01) (12, -1.08883567154407501221e-01) (13, -7.30080187320709228516e-01) (14, 7.93626308441162109375e-01) (15, 4.12493973970413208008e-01) (0, 3.62549066543579101562e-01) (1, 4.27851825952529907227e-01) (2, 5.60956776142120361328e-01) (3, 4.48117017745971679688e-01) (4, 9.21876430511474609375e-01) (5, 4.33579444885253906250e-01) (6, 1.43577086925506591797e+00) (7, 2.56298750638961791992e-01) (8, 1.03033792972564697266e+00) (9, -2.26539462804794311523e-01) (10, 1.64165690541267395020e-01) (11, -9.49027180671691894531e-01) (12, -3.36996108293533325195e-01) (13, 1.77607173100113868713e-03) (14, 9.55180764198303222656e-01) (15, 1.56769084930419921875e+00) (0, -4.35908704996109008789e-01) (1, -6.14114642143249511719e-01) (2, -9.96546328067779541016e-01) (3, 1.29723894596099853516e+00) (4, 6.32420718669891357422e-01) (5, -7.07891583442687988281e-01) (6, -8.39459061622619628906e-01) (7, 5.15172004699707031250e-01) (8, -2.22730636596679687500e-01) (9, 8.93591701984405517578e-01) (10, 1.69172123074531555176e-01) (11, 1.53016850352287292480e-01) (12, -6.36616125702857971191e-02) (13, -5.56972086429595947266e-01) (14, -5.60678467154502868652e-02) (15, -9.51851546764373779297e-01) (0, 1.15210521221160888672e+00) (1, 9.68936979770660400391e-01) (2, -2.00693801045417785645e-01) (3, -2.05423772335052490234e-01) (4, -2.79503967612981796265e-03) (5, -2.51546561717987060547e-01) (6, 1.06290161609649658203e+00) (7, 1.15822041034698486328e+00) (8, 3.43887150287628173828e-01) (9, -2.13690161705017089844e-01) (10, 1.68467010371387004852e-03) (11, 2.48644635081291198730e-01) (12, 6.89384639263153076172e-01) (13, 4.69417631626129150391e-01) (14, 2.60666251182556152344e-01) (15, 1.06378579139709472656e+00) (0, -3.50015312433242797852e-01) (1, -2.90078759193420410156e-01) (2, -3.07723969221115112305e-01) (3, 2.07211226224899291992e-01) (4, -3.05202584713697433472e-02) (5, -4.29925173521041870117e-01) (6, -6.59835815429687500000e-01) (7, 1.12244272232055664062e+00) (8, -1.05092652142047882080e-01) (9, 5.01610040664672851562e-01) (10, 2.82533112913370132446e-02) (11, -8.37603509426116943359e-01) (12, 2.56410360336303710938e-01) (13, 1.24814413487911224365e-01) (14, 1.03913575410842895508e-01) (15, -2.54015177488327026367e-01) (0, 4.31203305721282958984e-01) (1, 3.93146693706512451172e-01) (2, 1.72230648994445800781e+00) (3, -8.38298618793487548828e-01) (4, 6.70598804950714111328e-01) (5, 3.58270317316055297852e-01) (6, -3.16565126180648803711e-01) (7, 1.32294476032257080078e+00) (8, 1.11840069293975830078e+00) (9, -1.30861103534698486328e+00) (10, 1.10428512096405029297e+00) (11, 1.30378961563110351562e+00) (12, -4.02920395135879516602e-01) (13, -4.53388094902038574219e-01) (14, -1.09413839876651763916e-01) (15, -1.01137959957122802734e+00) (0, 8.28521311283111572266e-01) (1, 1.67884662747383117676e-01) (2, 1.35288208723068237305e-01) (3, -8.01911130547523498535e-02) (4, 1.35611057281494140625e+00) (5, 1.61441862583160400391e+00) (6, -3.04692596197128295898e-01) (7, 2.43807092308998107910e-01) (8, -1.39707326889038085938e-01) (9, 9.49682891368865966797e-01) (10, 8.81650805473327636719e-01) (11, -5.13546586036682128906e-01) (12, -7.39148795604705810547e-01) (13, -4.56445515155792236328e-01) (14, 1.50083735585212707520e-01) (15, 5.68041443824768066406e-01) (0, 2.10835188627243041992e-01) (1, 5.55215239524841308594e-01) (2, 4.39662262797355651855e-02) (3, 4.43164527416229248047e-01) (4, 3.74055713415145874023e-01) (5, 4.47176456451416015625e-01) (6, 8.35645571351051330566e-02) (7, -9.99153196811676025391e-01) (8, 3.69491219520568847656e-01) (9, -7.08971798419952392578e-01) (10, -1.11166775226593017578e+00) (11, 1.03543102741241455078e+00) (12, -7.56388604640960693359e-01) (13, 6.28337740898132324219e-01) (14, -7.43266880512237548828e-01) (15, 1.93092632293701171875e+00) (0, -9.30660888552665710449e-02) (1, 1.04377341270446777344e+00) (2, -7.31863677501678466797e-01) (3, -3.79571281373500823975e-02) (4, -1.26501396298408508301e-01) (5, 3.87442141771316528320e-01) (6, -7.79073715209960937500e-01) (7, -7.97742962837219238281e-01) (8, 2.47633014805614948273e-03) (9, 9.71961021423339843750e-02) (10, -3.44127118587493896484e-01) (11, 1.14385259151458740234e+00) (12, 1.44813942909240722656e+00) (13, -8.24807465076446533203e-01) (14, 6.41342043876647949219e-01) (15, 7.56093382835388183594e-01) (0, 1.20409631729125976562e+00) (1, 1.09688758850097656250e+00) (2, -1.78549110889434814453e-01) (3, -6.73757255077362060547e-01) (4, 4.11414355039596557617e-01) (5, 6.57321095466613769531e-01) (6, -1.87481418251991271973e-01) (7, 2.88331687450408935547e-01) (8, -8.87320637702941894531e-01) (9, -2.54566639661788940430e-01) (10, -1.32057607173919677734e-01) (11, -6.42491132020950317383e-02) (12, 9.67716515064239501953e-01) (13, 1.47545501589775085449e-01) (14, -7.32970952987670898438e-01) (15, 9.29403543472290039062e-01) (0, 4.13182586431503295898e-01) (1, 3.92799645662307739258e-01) (2, 7.38257288932800292969e-01) (3, 1.31446987390518188477e-01) (4, 1.18907153606414794922e+00) (5, 9.28333327174186706543e-02) (6, 1.47462499141693115234e+00) (7, -1.72590777277946472168e-01) (8, -1.25451847910881042480e-01) (9, -5.33572018146514892578e-01) (10, 9.68554764986038208008e-02) (11, 6.14734254777431488037e-02) (12, -4.86202597618103027344e-01) (13, -2.44972869753837585449e-01) (14, 5.00438332557678222656e-01) (15, -3.24939966201782226562e-01) (0, 8.75920280814170837402e-02) (1, -5.04869580268859863281e-01) (2, -8.24015915393829345703e-01) (3, 2.49580398201942443848e-01) (4, -7.63075292110443115234e-01) (5, 8.56808662414550781250e-01) (6, 1.11138069629669189453e+00) (7, -1.63220047950744628906e+00) (8, -6.83175742626190185547e-01) (9, 2.07908320426940917969e+00) (10, 1.37546673417091369629e-01) (11, 3.34667921066284179688e-01) (12, 8.43456387519836425781e-01) (13, -1.20980851352214813232e-01) (14, -5.33416271209716796875e-02) (15, 7.76043832302093505859e-01) (0, 1.36285221576690673828e+00) (1, 1.11182916164398193359e+00) (2, 2.21585825085639953613e-01) (3, 4.35826420783996582031e-01) (4, -1.50248169898986816406e-01) (5, -2.97182261943817138672e-01) (6, 6.20150446891784667969e-01) (7, 8.19927036762237548828e-01) (8, 2.24765151739120483398e-01) (9, 5.72151482105255126953e-01) (10, 5.29321908950805664062e-01) (11, 9.74969983100891113281e-01) (12, 9.78846073150634765625e-01) (13, 5.06526529788970947266e-01) (14, 4.43334162235260009766e-01) (15, 1.10515058040618896484e+00) (0, 2.58108556270599365234e-01) (1, 1.22761577367782592773e-01) (2, 4.79256995022296905518e-02) (3, 9.57268416881561279297e-01) (4, -2.92806118726730346680e-01) (5, 9.68911826610565185547e-01) (6, -2.10622930526733398438e+00) (7, 6.39252543449401855469e-01) (8, -1.86501353979110717773e-01) (9, 1.58356428146362304688e+00) (10, 6.90250873565673828125e-01) (11, -3.09471786022186279297e-01) (12, 8.78496348857879638672e-01) (13, 3.91964972019195556641e-01) (14, -1.72822147607803344727e-01) (15, 4.55843488452956080437e-04) (0, -3.39849479496479034424e-02) (1, -2.73526877164840698242e-01) (2, 1.00450944900512695312e+00) (3, -5.86976632475852966309e-02) (4, -3.63508015871047973633e-01) (5, 4.74622249603271484375e-01) (6, 8.02690327167510986328e-01) (7, 2.15886116027832031250e-01) (8, -1.60161152482032775879e-01) (9, -5.98082304000854492188e-01) (10, 7.84842312335968017578e-01) (11, 1.07509636878967285156e+00) (12, -4.98279184103012084961e-01) (13, -2.49417349696159362793e-01) (14, 3.77583742141723632812e-01) (15, -7.70904183387756347656e-01) (0, 3.35309296846389770508e-01) (1, 6.73719525337219238281e-01) (2, 7.70242393016815185547e-01) (3, -2.77211397886276245117e-01) (4, 4.33865427970886230469e-01) (5, 2.26172327995300292969e-01) (6, 2.75820404291152954102e-01) (7, -5.28596699237823486328e-01) (8, 1.39729231595993041992e-01) (9, 3.90773296356201171875e-01) (10, 1.17272210121154785156e+00) (11, -9.05371844768524169922e-01) (12, 6.21766984462738037109e-01) (13, 7.41989389061927795410e-02) (14, -3.08784872293472290039e-01) (15, -8.73658120632171630859e-01) (0, 2.92687773704528808594e-01) (1, -2.79422402381896972656e-01) (2, 4.04057234525680541992e-01) (3, 7.62190163135528564453e-01) (4, 4.09072577953338623047e-01) (5, 5.72461001574993133545e-02) (6, -1.18144142627716064453e+00) (7, -6.00939035415649414062e-01) (8, 1.16960152983665466309e-01) (9, -9.84538942575454711914e-02) (10, -4.31467026472091674805e-01) (11, 2.22123384475708007812e-01) (12, 1.46238589286804199219e+00) (13, -1.62950083613395690918e-01) (14, 1.17568731307983398438e-01) (15, 4.22417432069778442383e-01) (0, -5.20106971263885498047e-01) (1, -4.76038217544555664062e-01) (2, 1.40004944801330566406e+00) (3, -7.13773250579833984375e-01) (4, 5.31919538974761962891e-01) (5, 4.81816008687019348145e-02) (6, 6.95280730724334716797e-01) (7, -5.57726919651031494141e-01) (8, 1.93577051162719726562e-01) (9, -2.76782065629959106445e-02) (10, -3.40716212987899780273e-01) (11, 5.57350218296051025391e-01) (12, 9.55407619476318359375e-01) (13, 5.63162446022033691406e-01) (14, -3.42899203300476074219e-01) (15, -6.16166591644287109375e-01) (0, -1.90246939659118652344e-01) (1, 1.98131173849105834961e-01) (2, 1.96453154087066650391e-01) (3, 3.27341973781585693359e-01) (4, -7.64555096626281738281e-01) (5, -9.23228085041046142578e-01) (6, 5.89075982570648193359e-01) (7, 3.20418715476989746094e-01) (8, -1.17239110171794891357e-01) (9, -3.93009901046752929688e-01) (10, -2.09787532687187194824e-01) (11, 3.42122405767440795898e-01) (12, 5.43857753276824951172e-01) (13, 7.58981227874755859375e-01) (14, -8.25177431106567382812e-01) (15, -1.40472799539566040039e-01) (0, 9.68049287796020507812e-01) (1, 7.62260138988494873047e-01) (2, -2.84873306751251220703e-01) (3, 1.08396625518798828125e+00) (4, -2.63136833906173706055e-01) (5, 1.41571950912475585938e+00) (6, 1.07180011272430419922e+00) (7, -6.27969026565551757812e-01) (8, 2.08376199007034301758e-02) (9, 1.30765765905380249023e-01) (10, 4.81796681880950927734e-01) (11, -2.61027455329895019531e-01) (12, -1.08062200248241424561e-01) (13, 4.36011612415313720703e-01) (14, -2.14322470128536224365e-02) (15, -1.27100539207458496094e+00) (0, 1.04261910915374755859e+00) (1, 5.68065226078033447266e-01) (2, 9.79103505611419677734e-01) (3, 4.81604695320129394531e-01) (4, -4.83749434351921081543e-02) (5, 7.19758987426757812500e-01) (6, -2.20095545053482055664e-01) (7, 2.33138561248779296875e-01) (8, -5.56147515773773193359e-01) (9, -2.77133017778396606445e-01) (10, -2.85321384668350219727e-01) (11, 1.00907027721405029297e+00) (12, -7.66070127487182617188e-01) (13, -4.16645079851150512695e-01) (14, -6.60934627056121826172e-01) (15, 8.29309284687042236328e-01) (0, 4.16744768619537353516e-01) (1, 7.49284327030181884766e-01) (2, 7.70111620426177978516e-01) (3, 2.23617494106292724609e-01) (4, -3.25774788856506347656e-01) (5, -1.67875751852989196777e-01) (6, 4.33188438415527343750e+00) (7, -1.65384225547313690186e-02) (8, -7.50942111015319824219e-01) (9, -5.70144236087799072266e-01) (10, -7.80961930751800537109e-01) (11, 8.35355460643768310547e-01) (12, -1.09615945816040039062e+00) (13, -2.10389196872711181641e-01) (14, 3.49913895130157470703e-01) (15, -1.71080231666564941406e-01) (0, -4.75895881652832031250e-01) (1, 9.60609987378120422363e-02) (2, 8.59388828277587890625e-01) (3, 5.45159280300140380859e-01) (4, 8.11953917145729064941e-02) (5, -3.59892174601554870605e-02) (6, 1.52896010875701904297e+00) (7, -1.41679823398590087891e-01) (8, -3.39858867228031158447e-02) (9, -1.49093627929687500000e+00) (10, 3.35634082555770874023e-01) (11, 8.60278606414794921875e-01) (12, -4.33286637067794799805e-01) (13, 9.84904170036315917969e-02) (14, 2.00326874852180480957e-01) (15, 8.11084270477294921875e-01) (0, -1.80382002145051956177e-02) (1, -6.80227577686309814453e-01) (2, 6.14381074905395507812e-01) (3, 1.27488812431693077087e-02) (4, 1.29570364952087402344e+00) (5, 7.53174483776092529297e-01) (6, -6.29309237003326416016e-01) (7, -9.09825600683689117432e-03) (8, -8.38500618934631347656e-01) (9, 1.03982210159301757812e+00) (10, 1.47871136665344238281e-01) (11, 7.59488582611083984375e-01) (12, 1.05875563621520996094e+00) (13, -3.19450467824935913086e-01) (14, 5.56722402572631835938e-01) (15, -2.63406085968017578125e+00) (0, -3.60004633665084838867e-01) (1, -1.05891132354736328125e+00) (2, 8.49912166595458984375e-01) (3, 2.51844853162765502930e-01) (4, 3.50169748067855834961e-01) (5, 2.08967849612236022949e-02) (6, -8.38164746761322021484e-01) (7, -1.04678466916084289551e-01) (8, 4.65916067361831665039e-01) (9, -6.52246057987213134766e-01) (10, 1.31368732452392578125e+00) (11, -2.59685516357421875000e-01) (12, 2.09003761410713195801e-01) (13, -1.58059284090995788574e-01) (14, -8.22076480835676193237e-03) (15, 1.81260481476783752441e-01) (0, -2.42253690958023071289e-02) (1, -1.86598286032676696777e-01) (2, -1.58537924289703369141e-01) (3, 1.66003569960594177246e-01) (4, 2.14583739638328552246e-01) (5, 6.10674023628234863281e-01) (6, -8.43907594680786132812e-01) (7, 4.65082406997680664062e-01) (8, 2.94949918985366821289e-01) (9, 1.68411433696746826172e-02) (10, 2.49319791793823242188e-01) (11, 2.89288997650146484375e-01) (12, -2.98459649085998535156e-01) (13, -7.58565068244934082031e-01) (14, 5.52372455596923828125e-01) (15, 4.95927214622497558594e-01) (0, 2.79432177543640136719e-01) (1, 3.06616634130477905273e-01) (2, -8.42293977737426757812e-01) (3, -4.30519245564937591553e-02) (4, -9.82841551303863525391e-02) (5, -3.09457570314407348633e-01) (6, 6.24502897262573242188e-01) (7, -6.51728034019470214844e-01) (8, -9.41686451435089111328e-01) (9, 4.43681478500366210938e-01) (10, 8.47772777080535888672e-01) (11, -1.06174293905496597290e-02) (12, -9.78577911853790283203e-01) (13, -2.22526013851165771484e-01) (14, 5.50527274608612060547e-01) (15, -7.27319419384002685547e-01) (0, 3.15508902072906494141e-01) (1, 9.76635634899139404297e-01) (2, 5.45343339443206787109e-01) (3, -1.06917202472686767578e+00) (4, 7.70867884159088134766e-01) (5, -7.08038687705993652344e-01) (6, 1.47251248359680175781e+00) (7, 6.61655426025390625000e-01) (8, -1.53311982750892639160e-01) (9, -6.03506267070770263672e-01) (10, 7.57641732692718505859e-01) (11, -2.27501764893531799316e-01) (12, -4.66482162475585937500e-01) (13, -3.55018317699432373047e-01) (14, 4.63295131921768188477e-01) (15, 2.82899975776672363281e+00) (0, 7.17208012938499450684e-02) (1, 1.85469597578048706055e-01) (2, 5.00459730625152587891e-01) (3, 3.38763117790222167969e-01) (4, -7.84108102321624755859e-01) (5, 1.64478552341461181641e+00) (6, -5.59743642807006835938e-01) (7, -2.90750503540039062500e-01) (8, 1.13303460180759429932e-01) (9, -7.70970284938812255859e-01) (10, 6.92241132259368896484e-01) (11, 1.05180513858795166016e+00) (12, -1.33272469043731689453e-01) (13, 8.29189538955688476562e-01) (14, 6.18680894374847412109e-01) (15, 1.10861599445343017578e+00) (0, 1.55324742197990417480e-01) (1, 1.73411861062049865723e-01) (2, 2.40190312266349792480e-01) (3, 3.09659950435161590576e-02) (4, -1.75423651933670043945e-01) (5, -3.48299369215965270996e-02) (6, 6.34390473365783691406e-01) (7, 2.03408803790807723999e-02) (8, 1.78567588329315185547e-01) (9, -1.14181470870971679688e+00) (10, -9.41640675067901611328e-01) (11, -8.87348428368568420410e-02) (12, 3.66635113954544067383e-01) (13, -7.73767113685607910156e-01) (14, -4.68443602323532104492e-01) (15, 9.28001523017883300781e-01) (0, 2.64879286289215087891e-01) (1, 2.07232534885406494141e-01) (2, -5.67747175693511962891e-01) (3, 4.32089656591415405273e-01) (4, -8.70741009712219238281e-01) (5, -1.63390278816223144531e-01) (6, 5.33478677272796630859e-01) (7, 9.01468038558959960938e-01) (8, -3.89617830514907836914e-01) (9, -6.82203054428100585938e-01) (10, 1.76272238604724407196e-03) (11, 8.12355458736419677734e-01) (12, -2.19782710075378417969e-01) (13, 6.02447539567947387695e-02) (14, 2.63981819152832031250e-01) (15, 1.51994037628173828125e+00) (0, 1.53926491737365722656e-01) (1, 6.38891518115997314453e-01) (2, 2.69876539707183837891e-01) (3, 5.02729713916778564453e-02) (4, 1.91404744982719421387e-01) (5, -1.68731927871704101562e-01) (6, -1.01537716388702392578e+00) (7, -1.53040856122970581055e-01) (8, 2.15069428086280822754e-01) (9, -1.31227993965148925781e+00) (10, -3.39412391185760498047e-02) (11, 9.56191778182983398438e-01) (12, -1.09259657561779022217e-01) (13, -3.62843275070190429688e-02) (14, 3.56545299291610717773e-02) (15, 2.41702342033386230469e+00) (0, 2.00960263609886169434e-01) (1, 7.62863874435424804688e-01) (2, 8.61271917819976806641e-01) (3, -1.54542461037635803223e-01) (4, 1.07015109062194824219e+00) (5, 7.88230597972869873047e-01) (6, 8.95664691925048828125e-01) (7, 3.81090909242630004883e-01) (8, 4.67683017253875732422e-01) (9, 2.18679934740066528320e-01) (10, 4.28583830595016479492e-01) (11, 7.84443140029907226562e-01) (12, 8.84812772274017333984e-01) (13, -2.08445668220520019531e-01) (14, -5.24601936340332031250e-01) (15, 3.17041724920272827148e-01) (0, 4.60134536027908325195e-01) (1, 8.99515450000762939453e-02) (2, -8.97470414638519287109e-01) (3, 9.34656381607055664062e-01) (4, -5.38890004158020019531e-01) (5, 1.40849739313125610352e-01) (6, -9.79377627372741699219e-01) (7, -1.34219288825988769531e+00) (8, 4.76970449090003967285e-02) (9, 2.86652982234954833984e-01) (10, 1.47519418969750404358e-02) (11, 9.78700876235961914062e-01) (12, 1.31225526332855224609e+00) (13, 2.58931457996368408203e-01) (14, 1.85163438320159912109e-01) (15, 4.78744894266128540039e-01) (0, -1.67702361941337585449e-01) (1, -3.63079570233821868896e-02) (2, 3.60619813203811645508e-01) (3, -8.01706075668334960938e-01) (4, 1.72984570264816284180e-01) (5, 8.19679796695709228516e-02) (6, 9.53058660030364990234e-01) (7, 2.59541660547256469727e-01) (8, -4.22050833702087402344e-01) (9, -8.56116771697998046875e-01) (10, 3.76874357461929321289e-02) (11, -3.25363725423812866211e-02) (12, -8.14040899276733398438e-01) (13, -1.24641388654708862305e-01) (14, 2.11172968149185180664e-01) (15, 8.62341582775115966797e-01) (0, 4.14776392281055450439e-02) (1, -4.22667413949966430664e-02) (2, 1.28949928283691406250e+00) (3, 1.14882878959178924561e-01) (4, -1.70584410429000854492e-01) (5, -4.12396863102912902832e-02) (6, 3.19557607173919677734e-01) (7, 4.26375344395637512207e-02) (8, 1.80021986365318298340e-01) (9, -1.57931119203567504883e-01) (10, -6.98151171207427978516e-01) (11, 4.72813785076141357422e-01) (12, 4.89176511764526367188e-01) (13, 3.66378724575042724609e-01) (14, -7.15235769748687744141e-02) (15, -2.87775802612304687500e+00) (0, 3.69206011295318603516e-01) (1, 4.37041781842708587646e-02) (2, 8.42134177684783935547e-01) (3, 8.09197902679443359375e-01) (4, 1.61835238337516784668e-01) (5, 7.40976929664611816406e-01) (6, 1.55047789216041564941e-01) (7, -1.20292983949184417725e-01) (8, 1.71495184302330017090e-01) (9, 5.04420340061187744141e-01) (10, -3.80573719739913940430e-01) (11, 5.16593337059020996094e-01) (12, 6.14431619644165039062e-01) (13, -1.02753832936286926270e-01) (14, -8.17487835884094238281e-01) (15, -3.14203277230262756348e-02) (0, -9.43603217601776123047e-02) (1, 8.22178125381469726562e-01) (2, -9.36800479888916015625e-01) (3, 7.07303941249847412109e-01) (4, 2.80354432761669158936e-02) (5, 1.96523487567901611328e-01) (6, -4.92752119898796081543e-02) (7, 8.66179466247558593750e-01) (8, 5.14353737235069274902e-02) (9, -8.19721877574920654297e-01) (10, 1.24261401593685150146e-01) (11, 2.82376587390899658203e-01) (12, 1.33772325515747070312e+00) (13, -2.93096095323562622070e-01) (14, -3.35861176252365112305e-01) (15, 1.59389448165893554688e+00) (0, 2.35444009304046630859e-01) (1, 3.25867503881454467773e-01) (2, -3.67904275655746459961e-01) (3, 3.17536783218383789062e+00) (4, -1.98345458507537841797e+00) (5, 3.02373915910720825195e-01) (6, -9.40151035785675048828e-01) (7, 3.03564090281724929810e-02) (8, 7.72507607936859130859e-01) (9, 5.14755070209503173828e-01) (10, -3.91962677240371704102e-01) (11, 1.82467520236968994141e-01) (12, -2.97077357769012451172e-01) (13, -3.23186755180358886719e-01) (14, 2.14132809638977050781e+00) (15, -4.40879195928573608398e-01) (0, 1.75117962062358856201e-02) (1, 5.78064620494842529297e-01) (2, 4.70827259123325347900e-02) (3, 8.38889241218566894531e-01) (4, -2.66379982233047485352e-01) (5, -7.63263404369354248047e-01) (6, 8.59665036201477050781e-01) (7, -3.13263028860092163086e-01) (8, -3.24258029460906982422e-01) (9, 1.32984220981597900391e-02) (10, 6.11027836799621582031e-01) (11, -9.25533175468444824219e-02) (12, 1.02532470226287841797e+00) (13, 2.57938981056213378906e-01) (14, 8.00867199897766113281e-01) (15, -2.34986171126365661621e-01) (0, -1.15817472338676452637e-01) (1, -1.07111588120460510254e-01) (2, 8.82165253162384033203e-01) (3, -1.46283686161041259766e-01) (4, -2.72244453430175781250e-01) (5, 4.12774622440338134766e-01) (6, -5.65735876560211181641e-01) (7, -6.46998405456542968750e-01) (8, 1.26289650797843933105e-01) (9, -4.73293066024780273438e-01) (10, 1.06426258571445941925e-03) (11, -3.80456566810607910156e-01) (12, -5.92398419976234436035e-02) (13, 5.76864898204803466797e-01) (14, 2.16947823762893676758e-01) (15, 4.65311348438262939453e-01) (0, 1.47812843322753906250e+00) (1, 2.24125862121582031250e+00) (2, 1.25944709777832031250e+00) (3, -6.26120626926422119141e-01) (4, 1.07965338230133056641e+00) (5, -4.24947321414947509766e-01) (6, 1.94660693407058715820e-01) (7, -4.05419766902923583984e-01) (8, -4.17546033859252929688e-01) (9, 2.86777466535568237305e-01) (10, 5.95599591732025146484e-01) (11, -2.27019175887107849121e-01) (12, -5.24243891239166259766e-01) (13, 9.47490155696868896484e-01) (14, -3.52261811494827270508e-01) (15, -1.38561114668846130371e-01) (0, 5.10193526744842529297e-01) (1, 4.04181241989135742188e-01) (2, -6.64681136608123779297e-01) (3, -7.45806470513343811035e-02) (4, -3.18638354539871215820e-01) (5, -2.51854509115219116211e-01) (6, 7.72415935993194580078e-01) (7, 2.66534149646759033203e-01) (8, 2.88618654012680053711e-01) (9, 1.12172508239746093750e+00) (10, -1.55087962746620178223e-01) (11, -4.43815886974334716797e-01) (12, 4.84284937381744384766e-01) (13, 2.76210069656372070312e-01) (14, 3.68729420006275177002e-02) (15, 6.64724767208099365234e-01) (0, 3.55462461709976196289e-01) (1, 2.26445746421813964844e+00) (2, 1.10815048217773437500e+00) (3, -1.07568822801113128662e-01) (4, -1.21454373002052307129e-01) (5, -9.23085093498229980469e-01) (6, 2.29748487472534179688e+00) (7, -8.55697989463806152344e-02) (8, 1.25519901514053344727e-01) (9, -9.14500236511230468750e-01) (10, -7.79032111167907714844e-01) (11, -1.63957122713327407837e-02) (12, 7.29711055755615234375e-01) (13, 4.40892934799194335938e-01) (14, 6.18387162685394287109e-01) (15, -2.02115654945373535156e+00) (0, 3.39031934738159179688e-01) (1, 4.60685551166534423828e-01) (2, 1.23731648921966552734e+00) (3, 1.02653574943542480469e+00) (4, 4.76958245038986206055e-01) (5, 1.50292158126831054688e+00) (6, -7.03163921833038330078e-01) (7, 2.37651869654655456543e-01) (8, 6.29341304302215576172e-01) (9, 7.87028014659881591797e-01) (10, -3.34992498159408569336e-01) (11, 6.09137117862701416016e-01) (12, -2.13514983654022216797e-01) (13, 1.85935795307159423828e-01) (14, 2.15803962200880050659e-02) (15, 1.00597536563873291016e+00) (0, 1.91819354891777038574e-01) (1, 2.18668095767498016357e-02) (2, -4.07136142253875732422e-01) (3, -9.44426238536834716797e-01) (4, 5.36136865615844726562e-01) (5, -3.19638282060623168945e-01) (6, 6.43523514270782470703e-01) (7, -5.13802766799926757812e-01) (8, 6.88665926456451416016e-01) (9, -5.66930413246154785156e-01) (10, 4.58662733435630798340e-02) (11, -4.41877961158752441406e-01) (12, 5.81415891647338867188e-01) (13, 2.92167179286479949951e-02) (14, 3.89285117387771606445e-01) (15, 1.19535052776336669922e+00) (0, 9.27404761314392089844e-01) (1, 9.24192070960998535156e-01) (2, 6.57196998596191406250e-01) (3, 7.32799708843231201172e-01) (4, 1.59074008464813232422e-01) (5, 1.25250697135925292969e+00) (6, -5.89689433574676513672e-01) (7, -4.00089561939239501953e-01) (8, 1.74846217036247253418e-01) (9, 1.42661288380622863770e-01) (10, 3.02958428859710693359e-01) (11, 4.57306861877441406250e-01) (12, -9.94153916835784912109e-02) (13, 4.49220597743988037109e-01) (14, -4.82604801654815673828e-01) (15, -2.45064441114664077759e-02) (0, 7.62562602758407592773e-02) (1, 8.34206879138946533203e-01) (2, -4.90812569856643676758e-01) (3, 1.80644643306732177734e+00) (4, -5.76576292514801025391e-01) (5, 3.29903364181518554688e-01) (6, -6.03766404092311859131e-02) (7, 2.70215392112731933594e-01) (8, 1.41175657510757446289e-01) (9, -8.27003657817840576172e-01) (10, 5.98837316036224365234e-01) (11, 1.01909554004669189453e+00) (12, 1.70298540592193603516e+00) (13, -9.33621376752853393555e-02) (14, -4.39436703920364379883e-01) (15, -5.94509780406951904297e-01) (0, 1.26667469739913940430e-01) (1, -2.32734993100166320801e-01) (2, 1.11730754375457763672e+00) (3, 1.52604675292968750000e+00) (4, 7.50016331672668457031e-01) (5, -6.40912875533103942871e-02) (6, -4.14610922336578369141e-01) (7, -6.83445274829864501953e-01) (8, -3.49295496940612792969e-01) (9, -4.83023643493652343750e-01) (10, 9.07224237918853759766e-01) (11, 9.35794413089752197266e-01) (12, 7.59017094969749450684e-02) (13, -9.46036934852600097656e-01) (14, -1.50503218173980712891e-01) (15, 1.47436991333961486816e-01) (0, 1.08431124687194824219e+00) (1, 4.73858267068862915039e-01) (2, 4.11336362361907958984e-01) (3, 9.19628202915191650391e-01) (4, 7.65486717224121093750e-01) (5, -1.54438912868499755859e-01) (6, 3.45927745103836059570e-01) (7, -1.45653164386749267578e+00) (8, 3.41762691736221313477e-01) (9, -5.07751107215881347656e-01) (10, 7.43348956108093261719e-01) (11, 1.00910082459449768066e-01) (12, -9.94320139288902282715e-02) (13, 3.32421302795410156250e-01) (14, 1.52139198780059814453e+00) (15, 8.72171521186828613281e-01) (0, -2.18233823776245117188e-01) (1, 1.03327549993991851807e-01) (2, 4.87221658229827880859e-01) (3, 2.66596645116806030273e-01) (4, 5.05617260932922363281e-01) (5, -9.39398407936096191406e-02) (6, 4.62080031633377075195e-01) (7, -4.63803112506866455078e-01) (8, -8.99093300104141235352e-02) (9, -5.66225826740264892578e-01) (10, 7.88161098957061767578e-01) (11, 3.69585305452346801758e-01) (12, 1.04850280284881591797e+00) (13, 3.18959891796112060547e-01) (14, 4.07606840133666992188e-01) (15, 5.94369888305664062500e-01) (0, 3.40222895145416259766e-01) (1, 1.55589714646339416504e-01) (2, 1.14480018615722656250e+00) (3, -6.83048292994499206543e-02) (4, 3.73677939176559448242e-01) (5, -8.48011374473571777344e-02) (6, -1.14523224532604217529e-01) (7, 2.95943289995193481445e-01) (8, 2.97930568456649780273e-01) (9, 1.50550806522369384766e+00) (10, 8.10215294361114501953e-01) (11, 2.41079583764076232910e-01) (12, 2.07167401909828186035e-01) (13, -1.94765944033861160278e-02) (14, 4.93495345115661621094e-01) (15, 1.06313371658325195312e+00) (0, -5.26252865791320800781e-01) (1, -5.32727718353271484375e-01) (2, -7.41231963038444519043e-02) (3, 2.74491280317306518555e-01) (4, 1.28960514068603515625e+00) (5, 1.56963551044464111328e+00) (6, -7.67612755298614501953e-02) (7, 3.29360008239746093750e+00) (8, 4.15968716144561767578e-01) (9, 1.88719964027404785156e+00) (10, 1.59982490539550781250e+00) (11, -5.14801561832427978516e-01) (12, 1.26975882053375244141e+00) (13, -6.95401430130004882812e-01) (14, 2.01429057121276855469e+00) (15, 1.21932053565979003906e+00) (0, -3.70776541531085968018e-02) (1, 7.98907041549682617188e-01) (2, -1.91815756261348724365e-02) (3, 5.01089632511138916016e-01) (4, -5.45762442052364349365e-02) (5, 1.07570767402648925781e+00) (6, -2.39258512854576110840e-01) (7, 5.10996997356414794922e-01) (8, -4.16655570268630981445e-01) (9, 1.44767343997955322266e+00) (10, -1.04153203964233398438e+00) (11, -3.94461065530776977539e-01) (12, 1.94856360554695129395e-01) (13, -6.41856670379638671875e-01) (14, 2.83446729183197021484e-01) (15, 5.19820809364318847656e-01) (0, -4.17187720537185668945e-01) (1, -2.60267734527587890625e-01) (2, 9.47076529264450073242e-02) (3, 1.26042318344116210938e+00) (4, 1.22770011425018310547e+00) (5, 7.99951374530792236328e-01) (6, 2.25806236267089843750e-01) (7, 8.10129284858703613281e-01) (8, 2.39583715796470642090e-01) (9, -4.82034981250762939453e-02) (10, -3.09731632471084594727e-01) (11, -7.52926230430603027344e-01) (12, -2.41443455219268798828e-01) (13, 9.93883516639471054077e-03) (14, 2.45605856180191040039e-01) (15, -7.98648238182067871094e-01) (0, 6.53725206851959228516e-01) (1, 9.71281826496124267578e-01) (2, 1.11480534076690673828e+00) (3, 9.17936563491821289062e-01) (4, -2.51325160264968872070e-01) (5, 1.35051393508911132812e+00) (6, -2.48794406652450561523e-01) (7, 1.04620337486267089844e+00) (8, -4.49810743331909179688e-01) (9, -2.52038724720478057861e-02) (10, -4.44151103496551513672e-01) (11, 8.69444236159324645996e-02) (12, 1.86258494853973388672e-01) (13, -4.46484982967376708984e-01) (14, 1.10025465488433837891e+00) (15, -5.64493797719478607178e-02) (0, 8.89483749866485595703e-01) (1, 1.14456105232238769531e+00) (2, 9.52257156372070312500e-01) (3, 6.74892961978912353516e-01) (4, 6.26778602600097656250e-01) (5, 1.29531741142272949219e+00) (6, -4.66294318437576293945e-01) (7, 4.40032362937927246094e-01) (8, 8.22296857833862304688e-01) (9, -1.75909236073493957520e-01) (10, -1.29220113158226013184e-01) (11, -1.51672605425119400024e-02) (12, 9.36937451362609863281e-01) (13, 5.20553030073642730713e-02) (14, -1.00105106830596923828e-01) (15, 6.70367479324340820312e-01) (0, -1.13047458231449127197e-01) (1, 5.78665554523468017578e-01) (2, -3.68486791849136352539e-01) (3, 6.76626145839691162109e-01) (4, 3.48023176193237304688e-01) (5, 6.02805137634277343750e-01) (6, -2.67331421375274658203e-01) (7, 8.29598128795623779297e-01) (8, 2.21825182437896728516e-01) (9, -3.37520182132720947266e-01) (10, -1.58904463052749633789e-01) (11, 1.59993633627891540527e-01) (12, 1.03711819648742675781e+00) (13, -3.70917916297912597656e-01) (14, -3.08325648307800292969e-01) (15, 1.39218941330909729004e-02) (0, -2.88265675306320190430e-01) (1, -2.79696673154830932617e-01) (2, -4.77372854948043823242e-01) (3, -9.39719557762145996094e-01) (4, -5.57957172393798828125e-01) (5, -5.03018856048583984375e-01) (6, -2.93762743473052978516e-01) (7, 6.64446830749511718750e-01) (8, -2.85092741250991821289e-01) (9, -5.94412088394165039062e-01) (10, 5.50313949584960937500e-01) (11, 1.19308793544769287109e+00) (12, -2.27068945765495300293e-01) (13, 1.94070771336555480957e-01) (14, 1.62671506404876708984e-01) (15, 6.63752257823944091797e-01) (0, 1.09220191836357116699e-01) (1, 1.71006053686141967773e-01) (2, 1.12302124500274658203e+00) (3, -2.59818673133850097656e-01) (4, 1.28885698318481445312e+00) (5, 1.11035811901092529297e+00) (6, 1.59709274768829345703e-01) (7, 2.11792755126953125000e+00) (8, 1.04712939262390136719e+00) (9, 3.48627567291259765625e-01) (10, 1.08819937705993652344e+00) (11, 1.58603653311729431152e-01) (12, 5.18120229244232177734e-01) (13, -6.28881156444549560547e-02) (14, 1.05407368391752243042e-02) (15, 6.20922744274139404297e-01) (0, 7.69093334674835205078e-02) (1, -3.10084223747253417969e-01) (2, 1.78877305984497070312e+00) (3, -1.53179898858070373535e-01) (4, -3.97304713726043701172e-01) (5, -5.42866170406341552734e-01) (6, 1.41970360279083251953e+00) (7, 2.14200067520141601562e+00) (8, -8.38512275367975234985e-03) (9, -9.80413138866424560547e-01) (10, 8.93596947193145751953e-01) (11, 6.26929521560668945312e-01) (12, -1.16227245330810546875e+00) (13, 9.25994738936424255371e-02) (14, 1.60090535879135131836e-01) (15, 4.45322096347808837891e-01) (0, -1.92423880100250244141e-01) (1, 2.07862168550491333008e-01) (2, -1.94956928491592407227e-01) (3, -7.15945303440093994141e-01) (4, 4.28729981184005737305e-01) (5, -5.59910714626312255859e-01) (6, 2.45734286308288574219e+00) (7, -5.99813640117645263672e-01) (8, -1.25227317214012145996e-01) (9, -5.91328322887420654297e-01) (10, -1.39331266283988952637e-01) (11, 1.32652568817138671875e+00) (12, 4.31534871459007263184e-02) (13, -2.02898979187011718750e-01) (14, 7.33985245227813720703e-01) (15, -7.68455922603607177734e-01) (0, 6.30774259567260742188e-01) (1, 5.60409128665924072266e-01) (2, 8.83789718151092529297e-01) (3, -5.24371147155761718750e-01) (4, 6.49636805057525634766e-01) (5, 1.10033059120178222656e+00) (6, -1.07452762126922607422e+00) (7, -5.60156302526593208313e-03) (8, 1.31441521644592285156e+00) (9, 3.13742846250534057617e-01) (10, 9.84511494636535644531e-01) (11, 7.82326102256774902344e-01) (12, 3.63591223955154418945e-01) (13, 1.47137850522994995117e-01) (14, 4.11398708820343017578e-01) (15, 1.10205757617950439453e+00) (0, 6.52876734733581542969e-01) (1, 1.07147479057312011719e+00) (2, 1.31908082962036132812e+00) (3, 7.60939240455627441406e-01) (4, 1.88449281267821788788e-04) (5, 1.05729770660400390625e+00) (6, 6.69198036193847656250e-01) (7, -4.41947072744369506836e-01) (8, -3.68522882461547851562e-01) (9, 2.55727767944335937500e-01) (10, 2.43222504854202270508e-01) (11, 4.14486736059188842773e-01) (12, 2.21096229553222656250e+00) (13, 9.28248912096023559570e-02) (14, -2.56991952657699584961e-01) (15, 1.49599719047546386719e+00) (0, 2.07376196980476379395e-01) (1, 5.54495513439178466797e-01) (2, 5.17267942428588867188e-01) (3, 4.49566483497619628906e-01) (4, 4.57271993160247802734e-01) (5, 5.51726371049880981445e-02) (6, 5.37127375602722167969e-01) (7, 2.01698184013366699219e+00) (8, 2.32526615262031555176e-01) (9, -3.38808685541152954102e-01) (10, -6.68534860014915466309e-02) (11, 7.79421806335449218750e-01) (12, -1.31564348936080932617e-01) (13, -1.37432411313056945801e-01) (14, 2.01060354709625244141e-01) (15, 1.04351913928985595703e+00) (0, 4.57630038261413574219e-01) (1, 3.90341997146606445312e-01) (2, 1.10337543487548828125e+00) (3, 8.76751065254211425781e-01) (4, -5.42057335376739501953e-01) (5, 2.97855250537395477295e-02) (6, 1.09763681888580322266e+00) (7, -1.83037412166595458984e+00) (8, -4.37362343072891235352e-02) (9, 5.65258383750915527344e-01) (10, -8.79997462034225463867e-02) (11, 8.76654125750064849854e-03) (12, -6.02925479412078857422e-01) (13, 5.99934339523315429688e-01) (14, 4.36143249273300170898e-01) (15, 4.78412955999374389648e-01) (0, 9.84863162040710449219e-01) (1, 4.70637589693069458008e-01) (2, 1.12490439414978027344e+00) (3, 5.58940768241882324219e-01) (4, 5.08957505226135253906e-01) (5, -3.45046341419219970703e-01) (6, -1.81478273868560791016e+00) (7, 3.98687034845352172852e-01) (8, -6.70012295246124267578e-01) (9, 5.18023967742919921875e-01) (10, 1.39255940914154052734e-01) (11, 1.03724598884582519531e+00) (12, 2.29793548583984375000e+00) (13, 7.87063017487525939941e-02) (14, 6.66222631931304931641e-01) (15, 7.14298427104949951172e-01) (0, 3.88624638319015502930e-01) (1, 5.15997529029846191406e-01) (2, 2.87146389484405517578e-01) (3, 5.19076213240623474121e-02) (4, -5.74973046779632568359e-01) (5, 7.34981954097747802734e-01) (6, 9.87902760505676269531e-01) (7, 4.97772097587585449219e-02) (8, 1.13278090953826904297e+00) (9, 6.31217062473297119141e-01) (10, -2.63247918337583541870e-02) (11, 8.25822129845619201660e-02) (12, 7.02367782592773437500e-01) (13, 2.04550072550773620605e-01) (14, -2.80777722597122192383e-01) (15, 7.03469455242156982422e-01) (0, -2.77033209800720214844e-01) (1, -5.24446070194244384766e-01) (2, -2.76739716529846191406e-01) (3, 3.12233209609985351562e-01) (4, -1.96802929043769836426e-01) (5, -7.86673963069915771484e-01) (6, 2.11244034767150878906e+00) (7, -5.22159337997436523438e-01) (8, -7.24792361259460449219e-01) (9, 4.64397296309471130371e-02) (10, -4.45212423801422119141e-02) (11, 6.71196818351745605469e-01) (12, 7.31289565563201904297e-01) (13, 8.50788429379463195801e-02) (14, -1.52560740709304809570e-01) (15, 8.88770818710327148438e-01) (0, 1.92896619439125061035e-01) (1, -7.91008993983268737793e-02) (2, 2.69584685564041137695e-01) (3, -8.79473388195037841797e-01) (4, 2.55404740571975708008e-01) (5, -4.73246097564697265625e-01) (6, -3.76282110810279846191e-02) (7, 4.42286014556884765625e-01) (8, -1.39452636241912841797e-01) (9, 1.16392719745635986328e+00) (10, -1.79436266422271728516e-01) (11, -9.15808498859405517578e-01) (12, -7.36060857772827148438e-01) (13, -1.14686014130711555481e-02) (14, -1.29222297668457031250e+00) (15, 2.92947273701429367065e-02) (0, -2.65281349420547485352e-01) (1, 6.07632040977478027344e-01) (2, 4.10689681768417358398e-01) (3, 3.35772186517715454102e-01) (4, -2.09275096654891967773e-01) (5, 3.12981456518173217773e-01) (6, 5.32695233821868896484e-01) (7, -5.25310754776000976562e-01) (8, -1.97563618421554565430e-01) (9, 3.86987924575805664062e-01) (10, 5.13279259204864501953e-01) (11, 6.48434506729245185852e-04) (12, 5.81798672676086425781e-01) (13, -4.06559437513351440430e-01) (14, 7.68679797649383544922e-01) (15, 1.53577637672424316406e+00) (0, -1.88791245222091674805e-01) (1, -6.68203592300415039062e-01) (2, 7.29240298271179199219e-01) (3, 1.66122138500213623047e+00) (4, -1.12580215930938720703e+00) (5, 9.75157320499420166016e-01) (6, -3.81343340873718261719e+00) (7, 1.02777756750583648682e-01) (8, 4.86730709671974182129e-02) (9, 4.08165067434310913086e-01) (10, 1.55659401416778564453e+00) (11, 8.16419199109077453613e-02) (12, 1.26569998264312744141e+00) (13, -4.17771369218826293945e-01) (14, -9.11860316991806030273e-02) (15, 4.87156122922897338867e-01) (0, -3.36211360991001129150e-03) (1, 5.38975238800048828125e-01) (2, -9.97224226593971252441e-02) (3, 3.99215012788772583008e-01) (4, -7.97867495566606521606e-03) (5, -2.28854700922966003418e-01) (6, 9.18433308601379394531e-01) (7, 2.13930535316467285156e+00) (8, -4.98583942651748657227e-01) (9, 2.63098478317260742188e-01) (10, 6.79793953895568847656e-01) (11, -7.67823010683059692383e-02) (12, -1.49590536952018737793e-01) (13, -5.36578476428985595703e-01) (14, -9.03501749038696289062e-01) (15, 8.73532414436340332031e-01) (0, 9.27917540073394775391e-01) (1, 1.42687749862670898438e+00) (2, 7.06193506717681884766e-01) (3, 1.26308977603912353516e+00) (4, -5.37592411041259765625e-01) (5, 5.57521581649780273438e-01) (6, 1.36225295066833496094e+00) (7, -5.19183993339538574219e-01) (8, -2.83715546131134033203e-01) (9, -5.98589852452278137207e-02) (10, 1.03696240112185478210e-02) (11, 2.81019866466522216797e-01) (12, 9.46888685226440429688e-01) (13, 3.89643788337707519531e-01) (14, 1.49232119321823120117e-01) (15, -1.80929875373840332031e+00) (0, 1.38488316535949707031e+00) (1, 1.56778538227081298828e+00) (2, 6.54832184314727783203e-01) (3, 2.47570604085922241211e-01) (4, 9.19371604919433593750e-01) (5, 4.16253088042140007019e-03) (6, 1.64450085163116455078e+00) (7, -1.77528187632560729980e-01) (8, 4.21474266052246093750e+00) (9, -1.59966421127319335938e+00) (10, -9.81658816337585449219e-01) (11, 2.97610741108655929565e-02) (12, -6.10613048076629638672e-01) (13, -1.00468754768371582031e-01) (14, -1.32778549194335937500e+00) (15, -1.89122712612152099609e+00) (0, 1.10070657730102539062e+00) (1, 8.85743737220764160156e-01) (2, 4.28349018096923828125e-01) (3, -9.89981114864349365234e-01) (4, -3.51847469806671142578e-01) (5, 5.44177234172821044922e-01) (6, 5.22599458694458007812e-01) (7, 4.27735969424247741699e-02) (8, -5.56051373481750488281e-01) (9, -3.96138489246368408203e-01) (10, 4.39305126667022705078e-01) (11, 3.19119513034820556641e-01) (12, -9.93425846099853515625e-01) (13, 1.08681631088256835938e+00) (14, 3.87266010046005249023e-01) (15, 2.94950932264328002930e-01) (0, 1.12236544489860534668e-01) (1, 3.11443060636520385742e-01) (2, 4.85676020383834838867e-01) (3, 9.25631821155548095703e-01) (4, -2.42020651698112487793e-01) (5, 8.51349532604217529297e-01) (6, -8.22357475757598876953e-01) (7, 3.75045806169509887695e-01) (8, 4.46188896894454956055e-01) (9, 5.09206533432006835938e-01) (10, 1.03902518749237060547e+00) (11, 9.35189664363861083984e-01) (12, 3.22650283575057983398e-01) (13, -7.68346861004829406738e-02) (14, 7.02692985534667968750e-01) (15, 5.67289233207702636719e-01) (0, 4.88970935344696044922e-01) (1, 5.93239784240722656250e-01) (2, -1.37426987290382385254e-01) (3, -1.31735730171203613281e+00) (4, 1.19473092257976531982e-01) (5, -1.11915063858032226562e+00) (6, 5.32271206378936767578e-01) (7, 2.16408625245094299316e-01) (8, 5.09478807449340820312e-01) (9, 1.48403227329254150391e-01) (10, 9.05508771538734436035e-02) (11, -4.90003347396850585938e-01) (12, -1.60455435514450073242e-01) (13, 2.49408170580863952637e-01) (14, -1.23987638950347900391e+00) (15, 1.18913280963897705078e+00) (0, 1.98559746146202087402e-01) (1, 3.23095500469207763672e-01) (2, 6.91606700420379638672e-01) (3, 5.00733733177185058594e-01) (4, 5.73129057884216308594e-01) (5, 8.03578272461891174316e-02) (6, 4.52375590801239013672e-01) (7, 1.12368889153003692627e-01) (8, 3.79452645778656005859e-01) (9, 6.70518726110458374023e-02) (10, -1.64943039417266845703e-01) (11, 4.11129415035247802734e-01) (12, -6.32434666156768798828e-01) (13, 1.92111745476722717285e-01) (14, -2.81255096197128295898e-01) (15, -1.95725607872009277344e+00) (0, 1.22045785188674926758e-01) (1, 4.64213103055953979492e-01) (2, 2.35420033335685729980e-01) (3, -5.13828337192535400391e-01) (4, 9.91990983486175537109e-01) (5, 3.53184454143047332764e-02) (6, -7.75036096572875976562e-01) (7, -7.81232178211212158203e-01) (8, 7.63781845569610595703e-01) (9, 7.59493231773376464844e-01) (10, 1.34469020366668701172e+00) (11, 2.43376955389976501465e-01) (12, 7.66483008861541748047e-01) (13, 1.17338144779205322266e+00) (14, 8.17130625247955322266e-01) (15, 7.04872190952301025391e-01) (0, -2.43964895606040954590e-01) (1, -4.15867686271667480469e-01) (2, -1.22289462015032768250e-02) (3, -3.05885761976242065430e-01) (4, -1.20970296859741210938e+00) (5, 7.90620088577270507812e-01) (6, 1.54940617084503173828e+00) (7, -7.02132508158683776855e-02) (8, -1.88874244689941406250e-01) (9, -1.37550696730613708496e-01) (10, -3.67487818002700805664e-01) (11, -2.53231555223464965820e-01) (12, 2.51658290624618530273e-01) (13, -1.97985529899597167969e-01) (14, -4.47418987751007080078e-01) (15, 1.74126136302947998047e+00) (0, -2.09915637969970703125e-01) (1, 4.07411426305770874023e-01) (2, 8.86210985481739044189e-03) (3, 2.43497714400291442871e-01) (4, -9.50748473405838012695e-02) (5, -1.03266751766204833984e+00) (6, 1.30896651744842529297e+00) (7, -4.12139445543289184570e-01) (8, -4.78645622730255126953e-01) (9, 6.01016461849212646484e-01) (10, 2.50015914440155029297e-01) (11, -3.06212872266769409180e-01) (12, 6.94477379322052001953e-01) (13, 6.66409507393836975098e-02) (14, 2.97109019011259078979e-02) (15, -1.80093839764595031738e-01) (0, 4.89726632833480834961e-01) (1, 1.83582052588462829590e-01) (2, -3.47209364175796508789e-01) (3, 1.29464185237884521484e+00) (4, 8.14479470252990722656e-01) (5, -1.07915127277374267578e+00) (6, 5.65175950527191162109e-01) (7, 6.03302896022796630859e-01) (8, 3.16840827465057373047e-01) (9, 1.87628760933876037598e-01) (10, -3.08118402957916259766e-01) (11, -6.78045153617858886719e-02) (12, -1.22490382194519042969e+00) (13, 1.81555718183517456055e-01) (14, -6.96689665317535400391e-01) (15, -2.84663009643554687500e+00) (0, -2.37094983458518981934e-01) (1, 8.23843181133270263672e-02) (2, 1.14144480228424072266e+00) (3, 1.97580337524414062500e+00) (4, 3.07410061359405517578e-01) (5, 1.14136373996734619141e+00) (6, -5.74828326702117919922e-01) (7, 1.22502565383911132812e+00) (8, 1.89513966441154479980e-01) (9, -3.87522488832473754883e-01) (10, -3.84734183549880981445e-01) (11, 5.22423207759857177734e-01) (12, 1.87192335724830627441e-01) (13, -2.43347615003585815430e-01) (14, 5.79054117202758789062e-01) (15, 1.18448913097381591797e+00) (0, 1.44501733779907226562e+00) (1, 7.29242801666259765625e-01) (2, 1.18394625186920166016e+00) (3, 3.48903685808181762695e-01) (4, 5.68764686584472656250e-01) (5, 2.32908487319946289062e-01) (6, 1.55980497598648071289e-01) (7, 6.17992520332336425781e-01) (8, -4.42794203758239746094e-01) (9, 2.37719148397445678711e-01) (10, 8.59609663486480712891e-01) (11, -6.37797355651855468750e-01) (12, 4.35133755207061767578e-01) (13, 8.98090064525604248047e-01) (14, -1.21385896205902099609e+00) (15, -8.35678637027740478516e-01) (0, 1.08616232872009277344e+00) (1, 1.08920145034790039062e+00) (2, 6.76234662532806396484e-01) (3, -4.73125874996185302734e-01) (4, 6.09061196446418762207e-02) (5, -7.64881297945976257324e-02) (6, 8.68809938430786132812e-01) (7, 1.10556113719940185547e+00) (8, 1.63309729099273681641e+00) (9, -5.54782152175903320312e-03) (10, 4.41736102104187011719e-01) (11, 1.21053314208984375000e+00) (12, -1.35970306396484375000e+00) (13, 4.01811867952346801758e-01) (14, 4.63675022125244140625e-01) (15, 2.07507133483886718750e+00) (0, 7.87682056427001953125e-01) (1, 2.86253809928894042969e-01) (2, 6.27907693386077880859e-01) (3, 1.14687752723693847656e+00) (4, 5.37854731082916259766e-01) (5, -9.46829319000244140625e-02) (6, -1.92729488015174865723e-01) (7, -7.58089795708656311035e-02) (8, 1.07665157318115234375e+00) (9, -4.97970730066299438477e-01) (10, 1.49635955691337585449e-01) (11, -3.29562485218048095703e-01) (12, -6.61784708499908447266e-01) (13, -8.49338900297880172729e-03) (14, -5.16484417021274566650e-02) (15, -2.89757370948791503906e+00) (16, 2.96568810939788818359e-01) (17, -1.38601377606391906738e-01) (18, -9.19018089771270751953e-01) (19, -1.37244760990142822266e+00) (20, 3.87756228446960449219e-01) (21, -7.39630341529846191406e-01) (22, 3.20058912038803100586e-01) (23, -1.57375171780586242676e-01) (24, 8.42678546905517578125e-01) (25, 1.62117338180541992188e+00) (26, 5.40538609027862548828e-01) (27, 5.61352252960205078125e-01) (28, 9.64503645896911621094e-01) (29, 9.04233753681182861328e-01) (30, 1.93659976124763488770e-01) (31, 6.95446431636810302734e-01) (32, 1.70916572213172912598e-01) (33, 6.47950768470764160156e-02) (34, 3.66985976696014404297e-01) (35, 3.48596066236495971680e-01) (36, 6.64288341999053955078e-01) (37, 7.40177094936370849609e-01) (38, 6.51659846305847167969e-01) (39, 6.31761014461517333984e-01) (40, 9.30723249912261962891e-01) (41, 7.78385281562805175781e-01) (42, 8.82857944816350936890e-03) (43, 7.06251919269561767578e-01) (44, 7.38080143928527832031e-02) (45, 2.16899067163467407227e-02) (46, 1.06124974787235260010e-01) (47, -6.57251715660095214844e-01) (48, 5.35545572638511657715e-02) (49, -2.45409816503524780273e-01) (50, -4.51691567897796630859e-01) (51, 5.32684385776519775391e-01) (52, 3.25746506452560424805e-01) (53, 7.11822032928466796875e-01) (54, 7.46162414550781250000e-01) (55, 4.96587812900543212891e-01) (56, 1.22906826436519622803e-01) (57, 7.36911833286285400391e-01) (58, 5.66919624805450439453e-01) (59, 2.04113349318504333496e-01) (60, -6.82534575462341308594e-01) (61, -1.14697492122650146484e+00) (62, 4.17291373014450073242e-01) (63, -4.66298133134841918945e-01) (64, 6.34709537029266357422e-01) (65, -2.39266753196716308594e-01) (66, 4.64081853628158569336e-01) (67, 1.12948119640350341797e+00) (68, 3.96864295005798339844e-01) (69, -2.17022091150283813477e-01) (70, 4.80611115694046020508e-01) (71, -2.99141794443130493164e-01) (72, 2.23752275109291076660e-01) (73, 1.14437989890575408936e-01) (74, 1.39466845989227294922e+00) (75, 6.64530813694000244141e-01) (76, 5.88186264038085937500e-01) (77, -1.91399842500686645508e-01) (78, 7.32718050479888916016e-01) (79, 2.58539527654647827148e-01) (80, 4.51775565743446350098e-02) (81, 4.53781753778457641602e-01) (82, 6.99237644672393798828e-01) (83, 3.90930712223052978516e-01) (84, 9.43584859371185302734e-01) (85, 2.71972507238388061523e-01) (86, -6.57937288284301757812e-01) (87, 2.10889410227537155151e-02) (88, 4.68747690320014953613e-02) (89, 9.13069367408752441406e-01) (90, 2.07039505243301391602e-01) (91, 7.94689953327178955078e-01) (92, 2.22039029002189636230e-01) (93, 4.02481406927108764648e-01) (94, -1.47750675678253173828e-01) (95, -6.24824047088623046875e-01) (96, 9.35124084353446960449e-02) (97, 2.95057386159896850586e-01) (98, 4.46899563074111938477e-01) (99, 6.87223374843597412109e-01) (100, -1.01148557662963867188e+00) (101, -1.21735125780105590820e-01) (102, -2.24514007568359375000e-01) (103, 1.02607631683349609375e+00) (104, 8.02100658416748046875e-01) (105, -6.90374314785003662109e-01) (106, -1.72734752297401428223e-01) (107, -5.05479812622070312500e-01) (108, -1.02137362957000732422e+00) (109, -2.02902212738990783691e-01) (110, 1.04079532623291015625e+00) (111, 2.97759890556335449219e-01) (112, -5.26836454868316650391e-01) (113, 2.06174448132514953613e-01) (114, -4.20071870088577270508e-01) (115, 8.62728774547576904297e-01) (116, 7.53691852092742919922e-01) (117, 7.84805834293365478516e-01) (118, 7.41466999053955078125e-01) (119, 5.10580241680145263672e-01) (120, 4.32186990976333618164e-01) (121, -2.96056360006332397461e-01) (122, -1.00380323827266693115e-01) (123, -1.21849402785301208496e-01) (124, -5.99419698119163513184e-02) (125, 1.54595868661999702454e-02) (126, 1.81924235820770263672e+00) (127, 9.42019164562225341797e-01) (128, -2.36310377717018127441e-01) (129, 2.64160603284835815430e-01) (130, -3.93718630075454711914e-02) (131, 9.58561003208160400391e-01) (132, -1.22844219207763671875e-01) (133, -9.77054610848426818848e-02) (134, -4.29999589920043945312e-01) (135, 2.58824855089187622070e-01) (136, 1.42147040367126464844e+00) (16, 4.15827572345733642578e-01) (17, 8.50181877613067626953e-01) (18, -2.92698025703430175781e-01) (19, -4.61254984140396118164e-01) (20, 6.50712966918945312500e-01) (21, -1.38673946261405944824e-01) (22, 3.33635956048965454102e-01) (23, -3.07307004928588867188e-01) (24, 1.01892113685607910156e+00) (25, -2.35371053218841552734e-01) (26, 3.43399107456207275391e-01) (27, -4.21241044998168945312e-01) (28, 3.57605040073394775391e-01) (29, 3.21671962738037109375e-01) (30, -5.01241981983184814453e-02) (31, 4.40110534429550170898e-01) (32, 6.46967828273773193359e-01) (33, -5.18960595130920410156e-01) (34, -4.26551192998886108398e-01) (35, 6.98693335056304931641e-01) (36, 5.81064343452453613281e-01) (37, -8.82387876510620117188e-01) (38, 4.41544681787490844727e-01) (39, -1.12883532419800758362e-02) (40, 7.05678090453147888184e-02) (41, 5.71418404579162597656e-01) (42, -4.09004509449005126953e-01) (43, 7.12664246559143066406e-01) (44, 9.19645249843597412109e-01) (45, -1.91460996866226196289e-01) (46, 1.33345559239387512207e-01) (47, -3.50431591272354125977e-01) (48, 1.54679393768310546875e+00) (49, 4.10597771406173706055e-01) (50, 6.83721721172332763672e-01) (51, 1.16537511348724365234e+00) (52, -7.63402462005615234375e-01) (53, -4.24704581499099731445e-01) (54, 3.03671300411224365234e-01) (55, 5.83898365497589111328e-01) (56, -7.32841044664382934570e-02) (57, 7.25347101688385009766e-01) (58, -4.86074388027191162109e-02) (59, -3.08117598295211791992e-01) (60, -4.74963158369064331055e-01) (61, 2.90558516979217529297e-01) (62, 5.47155261039733886719e-01) (63, 6.84214890003204345703e-01) (64, -3.08874666690826416016e-01) (65, 5.36242783069610595703e-01) (66, 4.84662413597106933594e-01) (67, 1.10104012489318847656e+00) (68, 9.22501146793365478516e-01) (69, -4.01870869100093841553e-02) (70, 7.68205672502517700195e-02) (71, -1.35443377494812011719e+00) (72, 4.26786184310913085938e-01) (73, 3.63152801990509033203e-01) (74, 8.70397865772247314453e-01) (75, 5.82092225551605224609e-01) (76, 4.63314056396484375000e-02) (77, -5.06140828132629394531e-01) (78, -1.42277091741561889648e-01) (79, 4.47093755006790161133e-01) (80, -5.88328063488006591797e-01) (81, -8.90217602252960205078e-01) (82, -3.07763814926147460938e-01) (83, -5.79726696014404296875e-01) (84, -1.57850369811058044434e-01) (85, -5.18704414367675781250e-01) (86, 1.05133497714996337891e+00) (87, -2.83898919820785522461e-01) (88, -1.66231483221054077148e-01) (89, -1.01125061511993408203e+00) (90, -2.44241748005151748657e-02) (91, -5.32529830932617187500e-01) (92, 2.18515127897262573242e-01) (93, -3.56722593307495117188e-01) (94, 1.18270874023437500000e+00) (95, 5.69779157638549804688e-01) (96, -6.73914328217506408691e-02) (97, -1.28214433789253234863e-01) (98, 2.30144426226615905762e-01) (99, 1.27963590621948242188e+00) (100, -7.19646155834197998047e-01) (101, -1.23807430267333984375e-01) (102, -6.49240434169769287109e-01) (103, 8.96860122680664062500e-01) (104, 8.66088807582855224609e-01) (105, -8.11394453048706054688e-01) (106, 1.68366801738739013672e+00) (107, 5.36815822124481201172e-01) (108, -6.69203400611877441406e-01) (109, -4.46676045656204223633e-01) (110, 5.16571164131164550781e-01) (111, 1.00884810090065002441e-01) (112, -5.44595897197723388672e-01) (113, -8.10740068554878234863e-02) (114, -2.62933462858200073242e-01) (115, 4.42638456821441650391e-01) (116, 7.13765621185302734375e-01) (117, 9.08743202686309814453e-01) (118, 8.87099206447601318359e-01) (119, 9.53781545162200927734e-01) (120, 2.78754204511642456055e-01) (121, -3.10752540826797485352e-01) (122, -5.84628641605377197266e-01) (123, -8.04387107491493225098e-02) (124, -5.07222004234790802002e-02) (125, 8.43141853809356689453e-01) (126, 9.92830634117126464844e-01) (127, 3.44154059886932373047e-01) (128, -3.76538127660751342773e-01) (129, 6.78639858961105346680e-02) (130, 7.01125860214233398438e-01) (131, 6.86521232128143310547e-01) (132, 7.02816367149353027344e-01) (133, -2.75605320930480957031e-02) (134, 6.14581219851970672607e-02) (135, -5.29490292072296142578e-01) (136, 7.52791762351989746094e-01) (16, 2.82912224531173706055e-01) (17, -2.39684700965881347656e-01) (18, -1.65512382984161376953e+00) (19, -4.36435908079147338867e-01) (20, 6.37295126914978027344e-01) (21, -8.10460031032562255859e-01) (22, 3.44403982162475585938e-01) (23, -5.08052587509155273438e-01) (24, 1.10206592082977294922e+00) (25, 1.64766407012939453125e+00) (26, 8.98853659629821777344e-01) (27, 3.87495189905166625977e-01) (28, 3.94326090812683105469e-01) (29, 1.14211475849151611328e+00) (30, 7.10913017392158508301e-02) (31, 9.30454492568969726562e-01) (32, 2.72979438304901123047e-01) (33, -5.79180121421813964844e-01) (34, 9.32359397411346435547e-01) (35, 8.87641310691833496094e-01) (36, 2.17038333415985107422e-01) (37, 8.58591377735137939453e-01) (38, 1.20493483543395996094e+00) (39, 6.56676590442657470703e-01) (40, 3.38474899530410766602e-01) (41, 6.83933258056640625000e-01) (42, 4.06023621559143066406e-01) (43, -1.96481287479400634766e-01) (44, -8.32009464502334594727e-02) (45, 1.39625942707061767578e+00) (46, -6.27763509750366210938e-01) (47, 1.81043803691864013672e-01) (48, -2.80207663774490356445e-01) (49, 2.51773267984390258789e-01) (50, 9.56806465983390808105e-02) (51, 1.04633307456970214844e+00) (52, -9.24981296062469482422e-01) (53, 1.93553984165191650391e+00) (54, 6.42122983932495117188e-01) (55, 7.16734468936920166016e-01) (56, 1.46162375807762145996e-01) (57, 5.58169603347778320312e-01) (58, 9.64459598064422607422e-01) (59, 1.13916173577308654785e-01) (60, -3.19288462400436401367e-01) (61, 2.25161090493202209473e-01) (62, 1.57775178551673889160e-01) (63, -3.52455675601959228516e-01) (64, -9.38687250018119812012e-02) (65, -4.12439346313476562500e-01) (66, -3.23555231094360351562e-01) (67, 1.26938164234161376953e+00) (68, -1.48190692067146301270e-01) (69, 7.59232267737388610840e-02) (70, -3.40025365352630615234e-01) (71, -2.29077115654945373535e-01) (72, 3.11002075672149658203e-01) (73, 5.12995123863220214844e-01) (74, 1.32446837425231933594e+00) (75, 4.38123643398284912109e-01) (76, 5.45800387859344482422e-01) (77, 3.52571934461593627930e-01) (78, 6.35161817073822021484e-01) (79, 8.90697360038757324219e-01) (80, 4.27354931831359863281e-01) (81, -1.72137454152107238770e-01) (82, -7.07443803548812866211e-02) (83, 4.41880226135253906250e-01) (84, 1.02690279483795166016e+00) (85, 4.69834715127944946289e-01) (86, -5.16721196472644805908e-02) (87, 1.31128922104835510254e-01) (88, 1.64968650788068771362e-02) (89, 7.61416494846343994141e-01) (90, 3.77886652946472167969e-01) (91, 5.05589485168457031250e-01) (92, 1.28595247864723205566e-01) (93, -3.57807815074920654297e-01) (94, 6.08519077301025390625e-01) (95, -1.23544502258300781250e+00) (96, 4.26690056920051574707e-02) (97, 6.08089029788970947266e-01) (98, 3.01623165607452392578e-01) (99, -3.21231573820114135742e-01) (100, -1.01230430603027343750e+00) (101, -2.45209529995918273926e-01) (102, 3.29821139574050903320e-01) (103, 7.68125832080841064453e-01) (104, 5.50051331520080566406e-01) (105, 1.01278531551361083984e+00) (106, -6.04686200618743896484e-01) (107, 4.99947011470794677734e-01) (108, -4.46610897779464721680e-01) (109, 1.36650994420051574707e-01) (110, 1.39363491535186767578e+00) (111, 8.64807903766632080078e-01) (112, 6.19974017143249511719e-01) (113, -9.24622237682342529297e-01) (114, -2.44042620062828063965e-01) (115, 3.31421732902526855469e-01) (116, 1.13309696316719055176e-01) (117, 4.04603749513626098633e-01) (118, 5.96723496913909912109e-01) (119, 3.65030199289321899414e-01) (120, 6.54088109731674194336e-02) (121, -2.89480775594711303711e-01) (122, 8.75979304313659667969e-01) (123, -1.94603309035301208496e-01) (124, 1.05432517826557159424e-01) (125, 1.15024544298648834229e-01) (126, 8.03378880023956298828e-01) (127, 1.28829842433333396912e-02) (128, -3.44730675220489501953e-01) (129, 4.82179552316665649414e-01) (130, 6.70477986335754394531e-01) (131, 1.38729000091552734375e+00) (132, -5.76267480850219726562e-01) (133, 1.28791436553001403809e-01) (134, -2.45757341384887695312e-01) (135, 1.27376662567257881165e-02) (136, 3.97557020187377929688e-01) (16, -8.81813943386077880859e-01) (17, 4.00220483541488647461e-01) (18, 1.15144681930541992188e+00) (19, 1.28673243522644042969e+00) (20, 7.81065046787261962891e-01) (21, 5.49382448196411132812e-01) (22, 1.33854889869689941406e+00) (23, 3.69881272315979003906e-01) (24, -4.00686353445053100586e-01) (25, 3.63414287567138671875e-01) (26, -8.14322948455810546875e-01) (27, -2.69611567258834838867e-01) (28, -1.84178256988525390625e+00) (29, 1.28232789039611816406e+00) (30, -5.85033595561981201172e-01) (31, 5.32231509685516357422e-01) (32, -1.15950059890747070312e+00) (33, 4.57376337051391601562e+00) (34, 3.92497301101684570312e+00) (35, 1.52691400051116943359e+00) (36, 9.43350315093994140625e-01) (37, 4.43704426288604736328e-01) (38, 2.07560077309608459473e-01) (39, -2.35346302390098571777e-01) (40, -9.82100442051887512207e-02) (41, 2.77372654527425765991e-02) (42, 1.19945394992828369141e+00) (43, 1.40466487407684326172e+00) (44, 7.75293052196502685547e-01) (45, 1.05068050324916839600e-01) (46, -9.97126936912536621094e-01) (47, 8.15600812435150146484e-01) (48, 7.92628347873687744141e-01) (49, 1.93598508834838867188e+00) (50, 4.43040966987609863281e-01) (51, -2.55256086587905883789e-01) (52, 3.65363955497741699219e-01) (53, 1.61539530754089355469e+00) (54, -4.90834340453147888184e-02) (55, -6.19730412960052490234e-01) (56, 1.27528882026672363281e+00) (57, 2.51669473946094512939e-02) (58, -6.39517545700073242188e-01) (59, 5.03388524055480957031e-01) (60, -4.30113106966018676758e-01) (61, 1.51850372552871704102e-01) (62, -9.33540821075439453125e-01) (63, 3.45164805650711059570e-01) (64, 1.02545738220214843750e+00) (65, 8.15551221370697021484e-01) (66, 1.75920557975769042969e+00) (67, -5.44538378715515136719e-01) (68, -5.67303180694580078125e-01) (69, 4.44314152002334594727e-01) (70, 8.64756226539611816406e-01) (71, -2.55258917808532714844e+00) (72, -2.36038967967033386230e-01) (73, -1.38231933116912841797e-01) (74, 1.43159294128417968750e+00) (75, 9.49074923992156982422e-01) (76, -1.35307574272155761719e+00) (77, 9.38992500305175781250e-01) (78, 1.90931841731071472168e-01) (79, 1.58464148640632629395e-01) (80, 7.58760094642639160156e-01) (81, -4.56819266080856323242e-01) (82, 1.28428578376770019531e+00) (83, 1.21997463703155517578e+00) (84, 1.74308264255523681641e+00) (85, -7.16865777969360351562e-01) (86, 1.30932652950286865234e+00) (87, 6.37071907520294189453e-01) (88, 2.98805255442857742310e-02) (89, 1.25793945789337158203e+00) (90, -8.68254721164703369141e-01) (91, 9.02723550796508789062e-01) (92, -2.58114010095596313477e-01) (93, -6.06018900871276855469e-01) (94, 9.46014404296875000000e-01) (95, 2.45020914077758789062e+00) (96, 1.51778793334960937500e+00) (97, -8.18762660026550292969e-01) (98, -9.76702332496643066406e-01) (99, -3.24766635894775390625e-02) (100, -1.57126355171203613281e+00) (101, 9.11745131015777587891e-01) (102, -2.28362455964088439941e-01) (103, -4.41448241472244262695e-01) (104, 3.71469259262084960938e-01) (105, -5.29267787933349609375e-01) (106, 4.30668205022811889648e-01) (107, 1.64358472824096679688e+00) (108, -2.76510506868362426758e-01) (109, 1.74274039268493652344e+00) (110, 6.80558830499649047852e-02) (111, -1.85971051454544067383e-01) (112, -4.62686121463775634766e-01) (113, 1.32016563415527343750e+00) (114, 1.91196966171264648438e+00) (115, -5.45011401176452636719e-01) (116, -8.17437887191772460938e-01) (117, 6.72113716602325439453e-01) (118, 9.67644631862640380859e-01) (119, 3.54450345039367675781e-01) (120, -3.71383261680603027344e+00) (121, 6.21411859989166259766e-01) (122, 1.06575179100036621094e+00) (123, 7.99261331558227539062e-01) (124, -1.19734406471252441406e+00) (125, -5.88380634784698486328e-01) (126, 2.76496291160583496094e-01) (127, 1.32727086544036865234e+00) (128, -2.39950288087129592896e-02) (129, 1.79876363277435302734e+00) (130, -5.82821249961853027344e-01) (131, -1.60158681869506835938e+00) (132, -6.97688341140747070312e-01) (133, 2.95815438032150268555e-01) (134, 4.16968286037445068359e-01) (135, 1.87858748435974121094e+00) (136, -1.13338425755500793457e-01)
input_names='AS_2' 'AS_3' 'BETAE' 'DELTA_LOC' 'KAPPA_LOC' 'Q_LOC' 'Q_PRIME_LOC' 'RLNS_1' 'RLTS_1' 'RLTS_2' 'RMAJ_LOC' 'RMIN_LOC' 'S_KAPPA_LOC' 'TAUS_2' 'XNUE'
output_names='OUT_ENERGY_FLUX_1' 'OUT_ENERGY_FLUX_i' 'OUT_PARTICLE_FLUX_1' 'OUT_STRESS_TOR_i'
norm_output=0.0 0.0 0.0 0.0 0.0 0.0 0.0 0.0 0.0 0.0 0.0 0.0 0.0 0.0 0.0 0.0 0.0 0.0 0.0 0.0 0.0 0.0 0.0 0.0 0.0 0.0 0.0 0.0 0.0 0.0 0.0 0.0 0.0 0.0 0.0 0.0 0.0 0.0 0.0 0.0 0.0 0.0 0.0 0.0 0.0 0.0 0.0 0.0 0.0 0.0 0.0 0.0 0.0 0.0 0.0 0.0 0.0 0.0 0.0 0.0
MSE= 0.014645411633