FANN_FLO_2.1
num_layers=5
learning_rate=0.700000
connection_rate=0.100000
network_type=0
learning_momentum=0.000000
training_algorithm=2
train_error_function=0
train_stop_function=0
cascade_output_change_fraction=0.010000
quickprop_decay=-0.000100
quickprop_mu=1.750000
rprop_increase_factor=1.200000
rprop_decrease_factor=0.500000
rprop_delta_min=0.000000
rprop_delta_max=50.000000
rprop_delta_zero=0.100000
cascade_output_stagnation_epochs=12
cascade_candidate_change_fraction=0.010000
cascade_candidate_stagnation_epochs=12
cascade_max_out_epochs=150
cascade_min_out_epochs=50
cascade_max_cand_epochs=150
cascade_min_cand_epochs=50
cascade_num_candidate_groups=2
bit_fail_limit=3.49999994039535522461e-01
cascade_candidate_limit=1.00000000000000000000e+03
cascade_weight_multiplier=4.00000005960464477539e-01
cascade_activation_functions_count=10
cascade_activation_functions=3 5 7 8 10 11 14 15 16 17
cascade_activation_steepnesses_count=4
cascade_activation_steepnesses=2.50000000000000000000e-01 5.00000000000000000000e-01 7.50000000000000000000e-01 1.00000000000000000000e+00
layer_sizes=6 101 51 101 5
scale_included=1
scale_mean_in=1.800000 0.470000 1.800000 8.200000 1.800000
scale_deviation_in=0.147794 0.016888 0.077721 1.869508 0.394809
scale_new_min_in=-1.000000 -1.000000 -1.000000 -1.000000 -1.000000
scale_factor_in=1.000000 1.000000 1.000000 1.000000 1.000000
scale_mean_out=0.000000 0.000000 0.000000 0.000000
scale_deviation_out=0.012464 0.015759 0.003304 0.004955
scale_new_min_out=-1.000000 -1.000000 -1.000000 -1.000000
scale_factor_out=1.000000 1.000000 1.000000 1.000000
neurons (num_inputs, activation_function, activation_steepness)=(0, 0, 0.00000000000000000000e+00) (0, 0, 0.00000000000000000000e+00) (0, 0, 0.00000000000000000000e+00) (0, 0, 0.00000000000000000000e+00) (0, 0, 0.00000000000000000000e+00) (0, 0, 0.00000000000000000000e+00) (2, 5, 5.00000000000000000000e-01) (2, 5, 5.00000000000000000000e-01) (2, 5, 5.00000000000000000000e-01) (2, 5, 5.00000000000000000000e-01) (2, 5, 5.00000000000000000000e-01) (2, 5, 5.00000000000000000000e-01) (2, 5, 5.00000000000000000000e-01) (2, 5, 5.00000000000000000000e-01) (2, 5, 5.00000000000000000000e-01) (2, 5, 5.00000000000000000000e-01) (2, 5, 5.00000000000000000000e-01) (2, 5, 5.00000000000000000000e-01) (2, 5, 5.00000000000000000000e-01) (2, 5, 5.00000000000000000000e-01) (2, 5, 5.00000000000000000000e-01) (2, 5, 5.00000000000000000000e-01) (2, 5, 5.00000000000000000000e-01) (2, 5, 5.00000000000000000000e-01) (2, 5, 5.00000000000000000000e-01) (2, 5, 5.00000000000000000000e-01) (2, 5, 5.00000000000000000000e-01) (2, 5, 5.00000000000000000000e-01) (2, 5, 5.00000000000000000000e-01) (2, 5, 5.00000000000000000000e-01) (2, 5, 5.00000000000000000000e-01) (2, 5, 5.00000000000000000000e-01) (2, 5, 5.00000000000000000000e-01) (2, 5, 5.00000000000000000000e-01) (2, 5, 5.00000000000000000000e-01) (2, 5, 5.00000000000000000000e-01) (2, 5, 5.00000000000000000000e-01) (2, 5, 5.00000000000000000000e-01) (2, 5, 5.00000000000000000000e-01) (2, 5, 5.00000000000000000000e-01) (2, 5, 5.00000000000000000000e-01) (2, 5, 5.00000000000000000000e-01) (2, 5, 5.00000000000000000000e-01) (2, 5, 5.00000000000000000000e-01) (2, 5, 5.00000000000000000000e-01) (2, 5, 5.00000000000000000000e-01) (2, 5, 5.00000000000000000000e-01) (2, 5, 5.00000000000000000000e-01) (2, 5, 5.00000000000000000000e-01) (2, 5, 5.00000000000000000000e-01) (2, 5, 5.00000000000000000000e-01) (2, 5, 5.00000000000000000000e-01) (2, 5, 5.00000000000000000000e-01) (2, 5, 5.00000000000000000000e-01) (2, 5, 5.00000000000000000000e-01) (2, 5, 5.00000000000000000000e-01) (2, 5, 5.00000000000000000000e-01) (2, 5, 5.00000000000000000000e-01) (2, 5, 5.00000000000000000000e-01) (2, 5, 5.00000000000000000000e-01) (2, 5, 5.00000000000000000000e-01) (2, 5, 5.00000000000000000000e-01) (2, 5, 5.00000000000000000000e-01) (2, 5, 5.00000000000000000000e-01) (2, 5, 5.00000000000000000000e-01) (2, 5, 5.00000000000000000000e-01) (2, 5, 5.00000000000000000000e-01) (2, 5, 5.00000000000000000000e-01) (2, 5, 5.00000000000000000000e-01) (2, 5, 5.00000000000000000000e-01) (2, 5, 5.00000000000000000000e-01) (2, 5, 5.00000000000000000000e-01) (2, 5, 5.00000000000000000000e-01) (2, 5, 5.00000000000000000000e-01) (2, 5, 5.00000000000000000000e-01) (2, 5, 5.00000000000000000000e-01) (2, 5, 5.00000000000000000000e-01) (2, 5, 5.00000000000000000000e-01) (2, 5, 5.00000000000000000000e-01) (2, 5, 5.00000000000000000000e-01) (2, 5, 5.00000000000000000000e-01) (2, 5, 5.00000000000000000000e-01) (2, 5, 5.00000000000000000000e-01) (2, 5, 5.00000000000000000000e-01) (2, 5, 5.00000000000000000000e-01) (2, 5, 5.00000000000000000000e-01) (2, 5, 5.00000000000000000000e-01) (2, 5, 5.00000000000000000000e-01) (2, 5, 5.00000000000000000000e-01) (2, 5, 5.00000000000000000000e-01) (2, 5, 5.00000000000000000000e-01) (2, 5, 5.00000000000000000000e-01) (2, 5, 5.00000000000000000000e-01) (2, 5, 5.00000000000000000000e-01) (2, 5, 5.00000000000000000000e-01) (2, 5, 5.00000000000000000000e-01) (2, 5, 5.00000000000000000000e-01) (2, 5, 5.00000000000000000000e-01) (2, 5, 5.00000000000000000000e-01) (2, 5, 5.00000000000000000000e-01) (2, 5, 5.00000000000000000000e-01) (2, 5, 5.00000000000000000000e-01) (2, 5, 5.00000000000000000000e-01) (2, 5, 5.00000000000000000000e-01) (2, 5, 5.00000000000000000000e-01) (2, 5, 5.00000000000000000000e-01) (0, 5, 0.00000000000000000000e+00) (11, 5, 5.00000000000000000000e-01) (11, 5, 5.00000000000000000000e-01) (11, 5, 5.00000000000000000000e-01) (11, 5, 5.00000000000000000000e-01) (11, 5, 5.00000000000000000000e-01) (11, 5, 5.00000000000000000000e-01) (11, 5, 5.00000000000000000000e-01) (11, 5, 5.00000000000000000000e-01) (11, 5, 5.00000000000000000000e-01) (11, 5, 5.00000000000000000000e-01) (11, 5, 5.00000000000000000000e-01) (11, 5, 5.00000000000000000000e-01) (11, 5, 5.00000000000000000000e-01) (11, 5, 5.00000000000000000000e-01) (11, 5, 5.00000000000000000000e-01) (11, 5, 5.00000000000000000000e-01) (11, 5, 5.00000000000000000000e-01) (11, 5, 5.00000000000000000000e-01) (11, 5, 5.00000000000000000000e-01) (11, 5, 5.00000000000000000000e-01) (11, 5, 5.00000000000000000000e-01) (11, 5, 5.00000000000000000000e-01) (11, 5, 5.00000000000000000000e-01) (11, 5, 5.00000000000000000000e-01) (11, 5, 5.00000000000000000000e-01) (11, 5, 5.00000000000000000000e-01) (11, 5, 5.00000000000000000000e-01) (11, 5, 5.00000000000000000000e-01) (11, 5, 5.00000000000000000000e-01) (11, 5, 5.00000000000000000000e-01) (11, 5, 5.00000000000000000000e-01) (11, 5, 5.00000000000000000000e-01) (11, 5, 5.00000000000000000000e-01) (11, 5, 5.00000000000000000000e-01) (11, 5, 5.00000000000000000000e-01) (11, 5, 5.00000000000000000000e-01) (11, 5, 5.00000000000000000000e-01) (11, 5, 5.00000000000000000000e-01) (11, 5, 5.00000000000000000000e-01) (11, 5, 5.00000000000000000000e-01) (11, 5, 5.00000000000000000000e-01) (11, 5, 5.00000000000000000000e-01) (11, 5, 5.00000000000000000000e-01) (11, 5, 5.00000000000000000000e-01) (11, 5, 5.00000000000000000000e-01) (11, 5, 5.00000000000000000000e-01) (11, 5, 5.00000000000000000000e-01) (11, 5, 5.00000000000000000000e-01) (11, 5, 5.00000000000000000000e-01) (11, 5, 5.00000000000000000000e-01) (0, 5, 0.00000000000000000000e+00) (6, 5, 5.00000000000000000000e-01) (6, 5, 5.00000000000000000000e-01) (6, 5, 5.00000000000000000000e-01) (6, 5, 5.00000000000000000000e-01) (6, 5, 5.00000000000000000000e-01) (6, 5, 5.00000000000000000000e-01) (6, 5, 5.00000000000000000000e-01) (6, 5, 5.00000000000000000000e-01) (6, 5, 5.00000000000000000000e-01) (6, 5, 5.00000000000000000000e-01) (6, 5, 5.00000000000000000000e-01) (6, 5, 5.00000000000000000000e-01) (6, 5, 5.00000000000000000000e-01) (6, 5, 5.00000000000000000000e-01) (6, 5, 5.00000000000000000000e-01) (6, 5, 5.00000000000000000000e-01) (6, 5, 5.00000000000000000000e-01) (6, 5, 5.00000000000000000000e-01) (6, 5, 5.00000000000000000000e-01) (6, 5, 5.00000000000000000000e-01) (6, 5, 5.00000000000000000000e-01) (6, 5, 5.00000000000000000000e-01) (6, 5, 5.00000000000000000000e-01) (6, 5, 5.00000000000000000000e-01) (6, 5, 5.00000000000000000000e-01) (6, 5, 5.00000000000000000000e-01) (6, 5, 5.00000000000000000000e-01) (6, 5, 5.00000000000000000000e-01) (6, 5, 5.00000000000000000000e-01) (6, 5, 5.00000000000000000000e-01) (6, 5, 5.00000000000000000000e-01) (6, 5, 5.00000000000000000000e-01) (6, 5, 5.00000000000000000000e-01) (6, 5, 5.00000000000000000000e-01) (6, 5, 5.00000000000000000000e-01) (6, 5, 5.00000000000000000000e-01) (6, 5, 5.00000000000000000000e-01) (6, 5, 5.00000000000000000000e-01) (6, 5, 5.00000000000000000000e-01) (6, 5, 5.00000000000000000000e-01) (6, 5, 5.00000000000000000000e-01) (6, 5, 5.00000000000000000000e-01) (6, 5, 5.00000000000000000000e-01) (6, 5, 5.00000000000000000000e-01) (6, 5, 5.00000000000000000000e-01) (6, 5, 5.00000000000000000000e-01) (6, 5, 5.00000000000000000000e-01) (6, 5, 5.00000000000000000000e-01) (6, 5, 5.00000000000000000000e-01) (6, 5, 5.00000000000000000000e-01) (6, 5, 5.00000000000000000000e-01) (6, 5, 5.00000000000000000000e-01) (6, 5, 5.00000000000000000000e-01) (6, 5, 5.00000000000000000000e-01) (6, 5, 5.00000000000000000000e-01) (6, 5, 5.00000000000000000000e-01) (6, 5, 5.00000000000000000000e-01) (6, 5, 5.00000000000000000000e-01) (6, 5, 5.00000000000000000000e-01) (6, 5, 5.00000000000000000000e-01) (6, 5, 5.00000000000000000000e-01) (6, 5, 5.00000000000000000000e-01) (6, 5, 5.00000000000000000000e-01) (6, 5, 5.00000000000000000000e-01) (6, 5, 5.00000000000000000000e-01) (6, 5, 5.00000000000000000000e-01) (6, 5, 5.00000000000000000000e-01) (6, 5, 5.00000000000000000000e-01) (6, 5, 5.00000000000000000000e-01) (6, 5, 5.00000000000000000000e-01) (6, 5, 5.00000000000000000000e-01) (6, 5, 5.00000000000000000000e-01) (6, 5, 5.00000000000000000000e-01) (6, 5, 5.00000000000000000000e-01) (6, 5, 5.00000000000000000000e-01) (6, 5, 5.00000000000000000000e-01) (6, 5, 5.00000000000000000000e-01) (6, 5, 5.00000000000000000000e-01) (6, 5, 5.00000000000000000000e-01) (6, 5, 5.00000000000000000000e-01) (6, 5, 5.00000000000000000000e-01) (6, 5, 5.00000000000000000000e-01) (6, 5, 5.00000000000000000000e-01) (6, 5, 5.00000000000000000000e-01) (6, 5, 5.00000000000000000000e-01) (6, 5, 5.00000000000000000000e-01) (6, 5, 5.00000000000000000000e-01) (6, 5, 5.00000000000000000000e-01) (6, 5, 5.00000000000000000000e-01) (6, 5, 5.00000000000000000000e-01) (6, 5, 5.00000000000000000000e-01) (6, 5, 5.00000000000000000000e-01) (6, 5, 5.00000000000000000000e-01) (6, 5, 5.00000000000000000000e-01) (6, 5, 5.00000000000000000000e-01) (6, 5, 5.00000000000000000000e-01) (6, 5, 5.00000000000000000000e-01) (6, 5, 5.00000000000000000000e-01) (6, 5, 5.00000000000000000000e-01) (6, 5, 5.00000000000000000000e-01) (0, 5, 0.00000000000000000000e+00) (26, 0, 5.00000000000000000000e-01) (26, 0, 5.00000000000000000000e-01) (26, 0, 5.00000000000000000000e-01) (26, 0, 5.00000000000000000000e-01) (0, 0, 0.00000000000000000000e+00)
connections (connected_to_neuron, weight)=(5, 3.09456110000610351562e+00) (0, 1.44998311996459960938e-01) (5, 1.93310566246509552002e-02) (3, -9.03452396392822265625e-01) (5, 6.77369952201843261719e-01) (3, -1.15342962741851806641e+00) (5, 8.14827144145965576172e-01) (4, -1.15938866138458251953e+00) (5, 9.13935363292694091797e-01) (4, -1.17972707748413085938e+00) (5, 9.71149727702140808105e-02) (2, 1.29409992694854736328e+00) (5, 4.59675461053848266602e-01) (4, 8.08926820755004882812e-01) (5, 9.84946042299270629883e-02) (2, 8.01014900207519531250e-01) (5, 4.52222913503646850586e-01) (3, -1.72204554080963134766e+00) (5, 1.50325405597686767578e+00) (1, 4.37406182289123535156e-01) (5, -4.28513810038566589355e-02) (2, -3.17901730537414550781e-01) (5, 6.62036359310150146484e-01) (1, 1.30105054378509521484e+00) (5, 1.12246215343475341797e+00) (2, -3.62615776062011718750e+00) (5, -8.47034096717834472656e-01) (1, -9.63308691978454589844e-01) (5, 6.67373061180114746094e-01) (3, -1.21827375888824462891e+00) (5, 1.13960349559783935547e+00) (3, 2.32415258884429931641e-01) (5, 7.81590700149536132812e-01) (3, 8.36579620838165283203e-01) (5, -1.43328368663787841797e+00) (1, 6.26497939229011535645e-02) (5, 4.54038530588150024414e-01) (2, 8.50139141082763671875e-01) (5, 3.51322561502456665039e-01) (3, 7.98400163650512695312e-01) (5, 6.21784508228302001953e-01) (1, -6.06508672237396240234e-01) (5, -7.18385279178619384766e-01) (2, -2.11837857961654663086e-01) (5, 8.33522856235504150391e-01) (1, 4.08057600259780883789e-01) (5, -6.19509696960449218750e-01) (2, -1.20974087715148925781e+00) (5, 8.78735184669494628906e-01) (4, 1.43113613128662109375e+00) (5, 9.52225625514984130859e-01) (0, 3.31169366836547851562e-01) (5, 1.58547878265380859375e+00) (2, 1.51082432270050048828e+00) (5, 1.11454236507415771484e+00) (3, 9.20798778533935546875e-01) (5, 1.65201342105865478516e+00) (1, 3.94100964069366455078e-01) (5, 1.36151564121246337891e+00) (3, 2.22256016731262207031e+00) (5, -8.75708520412445068359e-01) (4, -7.06609785556793212891e-01) (5, -7.05224037170410156250e-01) (1, -1.52756972238421440125e-02) (5, 6.66390955448150634766e-01) (0, 1.79731369018554687500e-01) (5, 8.16554963588714599609e-01) (2, -1.20273036956787109375e+01) (5, -4.16954803466796875000e+00) (0, 7.97657489776611328125e+00) (5, 5.96524667739868164062e+00) (3, -3.00735211372375488281e+00) (5, 4.99939322471618652344e-01) (2, 2.12088370323181152344e+00) (5, 2.07308202981948852539e-01) (1, 5.87412416934967041016e-01) (5, -9.67772305011749267578e-01) (1, -1.83717697858810424805e-01) (5, 3.68307858705520629883e-01) (1, 8.67606878280639648438e-01) (5, -1.71990394592285156250e-01) (4, 1.52472496032714843750e+00) (5, 8.48430097103118896484e-01) (2, 9.01974588632583618164e-02) (5, -3.71125280857086181641e-01) (3, 1.54516899585723876953e+00) (5, 1.58874601125717163086e-01) (2, -1.20844699442386627197e-01) (5, 2.18569922447204589844e+00) (1, 1.05329044163227081299e-01) (5, -5.18057286739349365234e-01) (3, 4.18524920940399169922e-01) (5, 1.53034567832946777344e-01) (3, -8.87155890464782714844e-01) (5, 1.12914212048053741455e-01) (3, -6.65917456150054931641e-01) (5, -4.05954122543334960938e-01) (4, 3.13311249017715454102e-01) (5, 8.45943689346313476562e-01) (3, 9.89039838314056396484e-01) (5, 1.39127349853515625000e+00) (1, -1.54158866405487060547e+00) (5, 2.09292635321617126465e-01) (0, -3.19393426179885864258e-01) (5, 7.64309167861938476562e-01) (2, 1.22668635845184326172e+00) (5, -2.51449018716812133789e-01) (0, -1.28613784909248352051e-01) (5, -7.61164426803588867188e-01) (3, 5.29600679874420166016e-01) (5, 2.07391873002052307129e-01) (2, -1.50447511672973632812e+00) (5, 3.73971045017242431641e-01) (0, 5.67624866962432861328e-01) (5, 1.94956576824188232422e+00) (3, -1.85935214161872863770e-01) (5, 5.03551423549652099609e-01) (1, 5.19791185855865478516e-01) (5, 9.45890992879867553711e-02) (0, 6.76223635673522949219e-01) (5, 1.53555691242218017578e+00) (2, -1.18376232683658599854e-01) (5, -5.92231154441833496094e-01) (2, -3.65345895290374755859e-01) (5, -4.36390668153762817383e-01) (1, -3.93100678920745849609e-01) (5, 2.59795618057250976562e+00) (2, 3.01934301853179931641e-01) (5, 1.47973549365997314453e+00) (1, 7.07701146602630615234e-01) (5, 2.47114747762680053711e-01) (1, 1.65016904473304748535e-01) (5, -1.69747680425643920898e-01) (1, 1.22759723663330078125e+00) (5, 1.79557606577873229980e-01) (3, 6.85429513454437255859e-01) (5, 2.27926039695739746094e+00) (2, -3.52943271398544311523e-01) (5, -9.63116064667701721191e-02) (3, 1.76089107990264892578e-01) (5, -9.75493133068084716797e-01) (2, 7.45677113533020019531e-01) (5, 1.98463857173919677734e+00) (3, 3.49787548184394836426e-02) (5, -6.30555152893066406250e-01) (1, 7.28070616722106933594e-01) (5, -4.98931914567947387695e-01) (2, -3.12944006919860839844e+00) (5, -1.99551265686750411987e-02) (2, -1.16782724857330322266e+00) (5, -5.11281371116638183594e-01) (2, 3.85686419904232025146e-02) (5, 9.25870060920715332031e-01) (2, -5.39287507534027099609e-01) (5, 8.95229637622833251953e-01) (2, 2.94077783823013305664e-01) (5, 1.42065274715423583984e+00) (2, 9.18351352214813232422e-01) (5, -5.38204014301300048828e-01) (3, 1.40493631362915039062e+00) (5, 3.57229530811309814453e-01) (2, 1.08940303325653076172e+00) (5, 2.90597826242446899414e-01) (0, 9.37345743179321289062e-01) (5, -5.18089771270751953125e-01) (3, -4.73124802112579345703e-01) (5, 1.29599177837371826172e+00) (0, 3.67569476366043090820e-01) (5, 1.46466344594955444336e-01) (1, -9.27320718765258789062e-01) (5, 1.63335871696472167969e+00) (0, -1.11026310920715332031e+00) (5, 1.93263188004493713379e-01) (4, 1.04601740837097167969e+00) (5, -9.07511055469512939453e-01) (4, 1.55922174453735351562e+00) (5, -9.70196723937988281250e-01) (0, -5.67728340625762939453e-01) (5, 7.23863303661346435547e-01) (1, -8.51444363594055175781e-01) (5, -4.85166817903518676758e-01) (2, -1.56410288810729980469e+00) (5, -2.20330730080604553223e-01) (2, 9.43108946084976196289e-02) (5, 1.47324550151824951172e+00) (0, -1.22020114213228225708e-02) (5, -2.07388941198587417603e-02) (2, 1.14360404014587402344e+00) (5, 5.38099884986877441406e-01) (0, 3.18458706140518188477e-01) (5, -1.53062593936920166016e+00) (3, -8.28009903430938720703e-01) (5, -8.04575979709625244141e-01) (3, 5.21037951111793518066e-02) (5, 7.51883089542388916016e-01) (1, 1.61346817016601562500e+00) (5, -2.32451051473617553711e-01) (1, 2.82191604375839233398e-01) (5, -5.47489114105701446533e-02) (4, -5.57851016521453857422e-01) (106, 1.23921298980712890625e+00) (73, 7.25327730178833007812e-01) (25, 1.27168059349060058594e+00) (7, 5.80759607255458831787e-02) (102, -9.46874082088470458984e-01) (104, 3.05065870285034179688e+00) (48, 2.98919010162353515625e+00) (53, -1.82799327373504638672e+00) (30, 1.41317188739776611328e+00) (12, 1.34822118282318115234e+00) (93, 8.44596147537231445312e-01) (106, -7.24587440490722656250e-01) (9, -3.98120760917663574219e-01) (18, 1.05552792549133300781e+00) (86, 2.70631760358810424805e-01) (74, 5.00880330801010131836e-02) (103, 1.23367130756378173828e-01) (60, 8.33399653434753417969e-01) (100, -7.47537732124328613281e-01) (25, 3.66487004794180393219e-03) (41, -7.52274543046951293945e-02) (15, 1.56324118375778198242e-01) (106, 1.90138149261474609375e+01) (54, -1.03730177879333496094e+00) (71, 1.18050500488281250000e+03) (45, 7.47821350097656250000e+01) (40, 8.31554412841796875000e-01) (62, 2.69015359878540039062e+00) (84, 1.91294348239898681641e+00) (44, -3.08123817443847656250e+01) (59, -5.33336181640625000000e+02) (92, 1.03746294975280761719e+00) (97, -3.17682600021362304688e+00) (106, 4.06977385282516479492e-01) (16, 8.07723522186279296875e-01) (41, 8.44970285892486572266e-01) (31, 7.28303551673889160156e-01) (86, 4.62824165821075439453e-01) (36, 1.04488503932952880859e+00) (78, 1.62270665168762207031e+00) (60, -5.07579183578491210938e+00) (24, 6.50685608386993408203e-01) (57, 5.34296691417694091797e-01) (39, 4.36410576105117797852e-01) (106, 2.43927583098411560059e-01) (47, 8.13283562660217285156e-01) (81, 9.19394493103027343750e-02) (92, -3.31710994243621826172e-01) (16, -4.23350304365158081055e-01) (65, 8.98401796817779541016e-01) (34, 4.10915166139602661133e-02) (24, 1.00353252887725830078e+00) (41, 4.72303062677383422852e-01) (70, 9.48297739028930664062e-01) (32, 2.19623982906341552734e-01) (106, 1.48342967033386230469e+00) (96, -1.14086711406707763672e+00) (82, 3.11376929283142089844e-01) (27, -5.02413392066955566406e-01) (84, 1.98102283477783203125e+00) (28, 7.03697860240936279297e-01) (35, -2.24946871399879455566e-01) (17, 8.67820918560028076172e-01) (41, 1.18094193935394287109e+00) (19, -6.91172420978546142578e-01) (16, 2.31172725558280944824e-01) (106, -1.33212208747863769531e+00) (77, -1.11532080173492431641e+00) (93, -1.08324062824249267578e+00) (63, -1.29100346565246582031e+00) (67, 2.57049011230468750000e+02) (88, 4.68018865585327148438e+00) (43, -8.23988437652587890625e+00) (64, -2.98297821044921875000e+02) (94, 2.21600556373596191406e+00) (15, -1.33183741569519042969e+00) (81, 2.24790167808532714844e+00) (106, 3.80517125129699707031e-01) (72, 9.56117331981658935547e-01) (96, -5.62698900699615478516e-01) (86, -1.89711093902587890625e+00) (45, 7.64517486095428466797e-01) (35, 9.86263036727905273438e-01) (7, -7.70007073879241943359e-01) (34, 9.30604577064514160156e-01) (99, 5.92169940471649169922e-01) (16, 7.40202486515045166016e-01) (77, -4.78248804807662963867e-01) (106, 1.18401741981506347656e+00) (21, 8.18201124668121337891e-01) (9, -1.24199382960796356201e-01) (58, 1.68037128448486328125e+00) (45, 1.68117332458496093750e+00) (94, -5.73261618614196777344e-01) (74, 8.74053120613098144531e-01) (61, -2.96517372131347656250e-01) (33, 3.04049164056777954102e-01) (85, -4.15584653615951538086e-01) (16, -1.15819461643695831299e-01) (106, 3.71716350317001342773e-01) (6, 1.44673720002174377441e-01) (87, 7.15474724769592285156e-01) (22, 2.24358975887298583984e-01) (29, -2.65376627445220947266e-01) (59, 2.18363162130117416382e-02) (62, -2.53567546606063842773e-01) (42, 5.90369142591953277588e-02) (68, -2.21878266334533691406e+00) (35, 2.72903293371200561523e-02) (27, -8.58075797557830810547e-01) (106, 6.49819850921630859375e-01) (19, -1.98877140879631042480e-01) (32, -3.40998363494873046875e+00) (48, 1.11618125438690185547e+00) (75, 7.09139585494995117188e-01) (43, 3.85313004255294799805e-01) (85, 2.22536611557006835938e+00) (78, 7.47855067253112792969e-01) (91, 3.41567546129226684570e-01) (39, 7.63084411621093750000e-01) (10, -2.60801792144775390625e+00) (106, 9.49620068073272705078e-01) (7, 9.93653297424316406250e-01) (26, 3.01511406898498535156e-01) (29, -2.95014858245849609375e+00) (56, 3.25728356838226318359e-01) (94, -7.76713013648986816406e-01) (42, 2.53757119178771972656e+00) (23, 7.60082185268402099609e-01) (53, 2.11122989654541015625e+00) (93, -2.39681196212768554688e+00) (8, 2.06467866897583007812e+00) (106, 9.98838901519775390625e-01) (17, 1.91446495056152343750e+00) (38, 1.32921802997589111328e+00) (63, 1.12667548656463623047e+00) (7, -1.16208589076995849609e+00) (66, -1.20132863521575927734e-01) (18, 1.40357887744903564453e+00) (31, 1.63988578319549560547e+00) (62, 1.23118913173675537109e+00) (16, 3.47959190607070922852e-01) (21, 4.98074150085449218750e+00) (106, 1.22477960586547851562e+00) (42, 9.21182036399841308594e-01) (90, 2.52282321453094482422e-01) (8, 3.63566541671752929688e+00) (35, -1.25992023944854736328e+00) (59, -8.39851200580596923828e-02) (43, 7.70701646804809570312e-01) (62, 1.15160071849822998047e+00) (11, 2.13166618347167968750e+00) (99, 2.12383723258972167969e+00) (17, -4.16002035140991210938e-01) (106, -2.55414009094238281250e-01) (98, -5.26102542877197265625e-01) (101, 7.75755786895751953125e+00) (30, 3.19901847839355468750e+00) (88, 2.12846541404724121094e+00) (65, 7.96352684497833251953e-01) (80, -2.11613431572914123535e-01) (47, -6.46067202091217041016e-01) (69, 1.78487896919250488281e-01) (97, 7.59929537773132324219e-01) (52, 7.34863996505737304688e-01) (106, 9.97091650962829589844e-01) (46, -4.80324172973632812500e+00) (65, 7.26042628288269042969e-01) (99, 3.75942897796630859375e+00) (28, 5.13428628444671630859e-01) (14, 6.21131420135498046875e+00) (100, 2.93784141540527343750e-01) (43, -8.90733623504638671875e+00) (55, -5.54720878601074218750e-01) (89, -4.79755550622940063477e-01) (16, -4.12053048610687255859e-01) (106, 8.47991347312927246094e-01) (61, 2.04202342033386230469e+00) (31, 8.42559337615966796875e-01) (82, 1.23546099662780761719e+00) (17, 1.11477744579315185547e+00) (30, 4.25524806976318359375e+00) (16, 5.26984632015228271484e-01) (8, -3.16415041685104370117e-01) (57, -1.25608131289482116699e-01) (24, 7.07415223121643066406e-01) (29, 4.39943701028823852539e-01) (106, 1.54313337802886962891e+00) (70, 5.20795702934265136719e-01) (87, -5.45079052448272705078e-01) (88, -1.44685566425323486328e+00) (65, 5.51332592964172363281e-01) (98, 2.71342605352401733398e-01) (19, -1.50141507387161254883e-01) (30, 6.67459607124328613281e-01) (15, 6.33701324462890625000e-01) (93, -4.23152208328247070312e-01) (54, -6.03840827941894531250e-01) (106, 4.28962826728820800781e-01) (50, 1.75766861438751220703e+00) (102, -2.76894509792327880859e-01) (81, -1.41929280757904052734e+00) (75, -8.79937112331390380859e-01) (20, 2.47052764892578125000e+00) (16, -9.39933136105537414551e-02) (89, 3.98757845163345336914e-01) (68, -4.02154266834259033203e-01) (103, 4.41852897405624389648e-01) (57, 5.55062517523765563965e-02) (106, 5.83414793014526367188e-01) (45, 2.47660279273986816406e+00) (72, 9.10216197371482849121e-02) (62, 1.11214570999145507812e+01) (37, -5.24045562744140625000e+00) (6, 2.16032242774963378906e+00) (93, -2.68826365470886230469e+00) (20, -1.20006978511810302734e+00) (16, -2.33138442039489746094e-01) (69, 1.55050110816955566406e+00) (84, 5.50207471847534179688e+00) (106, -3.06738734245300292969e+00) (103, -7.28132438659667968750e+00) (63, -3.20547389984130859375e+00) (24, 3.16738188266754150391e-01) (98, -2.88375425338745117188e+00) (57, -1.28623008728027343750e+01) (94, 1.66991305351257324219e+00) (18, -1.38403463363647460938e+00) (52, 8.21412384510040283203e-01) (88, 1.14026522636413574219e+00) (19, 4.15022897720336914062e+00) (106, -1.20572462677955627441e-01) (105, 2.05111646652221679688e+00) (103, 2.48075332492589950562e-02) (26, 1.60148060321807861328e+00) (82, 1.24110603332519531250e+00) (46, 9.44837749004364013672e-01) (64, 7.93820917606353759766e-01) (67, 9.72220182418823242188e-01) (21, -7.93017089366912841797e-01) (97, 1.77107608318328857422e+00) (22, 1.52073100209236145020e-01) (106, 8.08607280254364013672e-01) (51, 1.05542099475860595703e+00) (59, -1.14444923400878906250e+00) (103, -6.77558243274688720703e-01) (8, -2.83315032720565795898e-03) (22, 1.34277307987213134766e+00) (79, -4.95778888463973999023e-01) (63, -5.38928449153900146484e-01) (55, -3.67493897676467895508e-01) (85, 9.29036736488342285156e-01) (31, -1.22951537370681762695e-01) (106, 9.37491834163665771484e-01) (49, -3.20792436599731445312e-01) (88, -2.56518125534057617188e-01) (7, 1.49690544605255126953e+00) (24, 5.44213867187500000000e+00) (46, -1.21374619007110595703e+00) (103, -2.53383547067642211914e-01) (95, 9.38910305500030517578e-01) (26, -6.59741818904876708984e-01) (85, -8.10467302799224853516e-01) (52, 1.50277936458587646484e+00) (106, 8.54160711169242858887e-02) (101, -8.09917747974395751953e-02) (9, -3.15006971359252929688e+00) (96, 2.36474633216857910156e+00) (58, -5.10080933570861816406e-01) (64, -1.44206845760345458984e+00) (32, 2.24495574831962585449e-01) (70, 6.86904489994049072266e-01) (65, -1.27300560474395751953e+00) (61, 1.47619009017944335938e+00) (44, -4.04784262180328369141e-01) (106, 3.99140834808349609375e+00) (15, 9.41777515411376953125e+00) (22, 1.86481130123138427734e+00) (40, 2.02269101142883300781e+00) (84, 2.95288562774658203125e+00) (61, 2.42894172668457031250e+00) (85, 2.24022078514099121094e+00) (77, 4.54493999481201171875e+00) (87, 1.64125328063964843750e+01) (20, 2.18083560466766357422e-01) (35, -1.12932109832763671875e+00) (106, 4.02642816305160522461e-01) (25, -5.98048210144042968750e-01) (27, -1.03584244847297668457e-01) (57, -1.23651720583438873291e-01) (78, -2.20112308859825134277e-01) (89, 6.74208998680114746094e-01) (17, -1.49354368448257446289e-01) (85, -5.06790220737457275391e-01) (80, -1.23906290531158447266e+00) (45, 1.44681155681610107422e+00) (50, 3.69493633508682250977e-01) (106, -7.60958433151245117188e-01) (10, 2.15405869483947753906e+00) (6, -3.20221692323684692383e-01) (50, -8.37758600711822509766e-01) (43, -1.62423861026763916016e+00) (32, -1.84185147285461425781e+00) (89, -9.09351825714111328125e-01) (9, -7.60574579238891601562e-01) (92, 1.51713609695434570312e+00) (40, -4.02776837348937988281e-01) (34, -6.94631278514862060547e-01) (106, 1.79373347759246826172e+00) (8, 1.74358606338500976562e-01) (31, -2.51771986484527587891e-01) (64, -4.57424879074096679688e+00) (96, -3.24909448623657226562e-01) (37, 4.32098269462585449219e-01) (73, -4.63666826486587524414e-01) (82, 3.09485733509063720703e-01) (14, -3.30366277694702148438e+00) (100, 6.05599462985992431641e-01) (34, 5.30934035778045654297e-01) (106, 1.83200433850288391113e-01) (39, -1.26488000154495239258e-01) (43, 8.39133560657501220703e-01) (53, 2.15337204933166503906e+00) (80, -2.26013422012329101562e+00) (95, 1.28963375091552734375e+00) (37, 2.73451916873455047607e-02) (79, -8.19264829158782958984e-01) (84, 7.40273058414459228516e-01) (41, -8.61076533794403076172e-01) (101, 3.37133646011352539062e-01) (106, 7.49821066856384277344e-01) (20, 6.80401980876922607422e-01) (60, 1.13918018341064453125e+00) (69, -4.73477765917778015137e-02) (103, -5.82402348518371582031e-01) (44, 1.16437947750091552734e+00) (21, -6.47389471530914306641e-01) (80, 1.30355882644653320312e+00) (83, 2.12807834148406982422e-01) (68, 2.49531149864196777344e+00) (101, 1.35918033123016357422e+00) (106, 2.58112877607345581055e-01) (24, 4.85332310199737548828e-01) (83, -7.10890650749206542969e-01) (85, 3.48050713539123535156e-01) (25, -1.42048269510269165039e-01) (52, 2.58990116417407989502e-02) (31, -2.64057964086532592773e-01) (101, 1.42418980598449707031e+00) (20, 9.67200219631195068359e-01) (13, -4.12266850471496582031e-02) (32, 1.87076017260551452637e-01) (106, 7.25425243377685546875e-01) (37, -6.40459895133972167969e-01) (79, 6.93678438663482666016e-01) (104, -3.31523537635803222656e+00) (18, 1.48444324731826782227e-01) (64, 3.42454046010971069336e-01) (93, 6.16629540920257568359e-01) (29, 2.19172433018684387207e-01) (43, 5.66923543810844421387e-02) (74, 7.16290414333343505859e-01) (19, 1.10417559742927551270e-01) (106, 1.17205595970153808594e+00) (100, 1.26256787776947021484e+00) (33, 1.19555366039276123047e+00) (34, 1.78627717494964599609e+00) (101, -8.88808667659759521484e-01) (18, -2.79951214790344238281e-01) (30, 1.22663462162017822266e+00) (15, 1.09178614616394042969e+00) (50, 2.03076004981994628906e+00) (36, -1.40434384346008300781e+00) (69, 2.30009078979492187500e+00) (106, -2.65163987874984741211e-01) (76, 1.91857492923736572266e+00) (58, 1.36674904823303222656e+00) (10, 2.18845653533935546875e+00) (8, 1.01976370811462402344e+00) (33, 1.16739541292190551758e-01) (20, 1.05558645725250244141e+00) (73, 8.72183442115783691406e-02) (51, 1.41044723987579345703e+00) (70, -6.79054856300354003906e-01) (23, 1.11205518245697021484e+00) (106, -3.10185134410858154297e-01) (91, -5.61045348644256591797e-01) (52, 1.83529508113861083984e+00) (74, -8.26782345771789550781e-01) (16, 3.66529607772827148438e+00) (68, 4.77497768402099609375e+00) (42, -8.13870191574096679688e-01) (56, -1.39888361096382141113e-01) (70, -6.32600188255310058594e-01) (60, 1.12863898277282714844e+00) (88, 7.03381478786468505859e-01) (106, -6.14239692687988281250e-01) (13, 6.97900950908660888672e-02) (33, -5.58295428752899169922e-01) (20, 6.61422759294509887695e-02) (100, 5.75985729694366455078e-01) (12, -2.25236415863037109375e-01) (29, 1.64877665042877197266e+00) (31, -3.70162278413772583008e-01) (45, 2.95885115861892700195e-01) (68, 7.58127987384796142578e-01) (11, -5.43505132198333740234e-01) (106, 6.55535101890563964844e-01) (35, 5.23366987705230712891e-01) (11, -2.15142875909805297852e-01) (13, -6.86709284782409667969e-01) (36, 4.71977978944778442383e-01) (12, -1.48357427120208740234e+00) (44, 9.68406140804290771484e-01) (94, -4.04827535152435302734e-01) (19, -3.28552573919296264648e-01) (7, 8.86070549488067626953e-01) (58, -3.84563952684402465820e-01) (106, 1.84345543384552001953e+00) (43, 7.88445758819580078125e+00) (83, 3.24022507667541503906e+00) (91, 1.51218211650848388672e+00) (85, 1.53507184982299804688e+00) (24, 3.68200564384460449219e+00) (65, 1.14512908458709716797e+00) (63, 2.24754834175109863281e+00) (39, -2.30835422873497009277e-01) (68, -1.28473749160766601562e+01) (101, -3.03745579719543457031e+00) (106, 8.58106613159179687500e-01) (12, -3.73186618089675903320e-01) (70, 6.25829845666885375977e-02) (31, -3.74716579914093017578e-01) (54, -5.39890229701995849609e-01) (46, 5.44382274150848388672e-01) (103, -4.21966724097728729248e-02) (28, 3.00451308488845825195e-01) (27, -6.09690308570861816406e-01) (104, 3.85591596364974975586e-01) (94, -4.46344226598739624023e-01) (106, -1.34342253208160400391e-01) (34, 7.63187091797590255737e-03) (6, 6.52196109294891357422e-01) (88, -3.03367108106613159180e-01) (94, -2.46599122881889343262e-01) (53, 3.81422221660614013672e-01) (80, 3.06065708398818969727e-01) (75, 8.95550489425659179688e-01) (76, -3.17725121974945068359e-01) (68, 1.07867285609245300293e-01) (29, 1.05165457725524902344e+00) (106, 1.95592212677001953125e+00) (58, 2.00070619583129882812e+00) (82, 7.58703649044036865234e-01) (41, 8.21742594242095947266e-01) (38, 4.89595770835876464844e-01) (62, -3.11270976066589355469e+00) (22, 6.22705101966857910156e-01) (73, -6.85570061206817626953e-01) (40, 9.78299975395202636719e-02) (56, 9.30609226226806640625e-01) (69, 8.38203966617584228516e-01) (106, -4.83279228210449218750e-01) (23, 1.35233354568481445312e+00) (33, 6.06688022613525390625e-01) (66, 1.54249644279479980469e+00) (71, 4.82905685901641845703e-01) (34, -7.84125626087188720703e-02) (49, -4.04453463852405548096e-02) (65, -1.11921774223446846008e-02) (93, -4.24459159374237060547e-01) (104, 2.49361917376518249512e-01) (28, -2.58832246065139770508e-01) (106, 4.94607537984848022461e-01) (28, 5.09133376181125640869e-02) (97, 9.04113173484802246094e-01) (65, 3.43941569328308105469e-01) (80, 3.53271633386611938477e-01) (86, 7.55039691925048828125e-01) (67, -8.51450264453887939453e-01) (85, 1.28613933920860290527e-01) (42, 2.06232249736785888672e-01) (35, -6.85552000999450683594e-01) (47, 2.15663766860961914062e+00) (106, -2.75701377540826797485e-02) (64, -3.63236144185066223145e-02) (33, -1.09208691120147705078e+00) (57, 8.17194700241088867188e-01) (51, 8.77833843231201171875e-01) (31, 6.56807780265808105469e-01) (52, 1.62746000289916992188e+00) (28, -4.21497613191604614258e-01) (75, -4.68952685594558715820e-01) (63, -2.24664613604545593262e-01) (12, -8.49415063858032226562e-01) (106, -6.94671034812927246094e-01) (30, -5.27097463607788085938e-01) (36, 8.82025659084320068359e-01) (44, 1.44751989841461181641e+00) (55, 1.57556450366973876953e+00) (61, -6.90135776996612548828e-01) (65, -5.47496616840362548828e-01) (8, 2.32481050491333007812e+00) (34, -1.05016946792602539062e+00) (28, 2.05204352736473083496e-01) (76, 1.13481497764587402344e+00) (106, -3.46645087003707885742e-01) (68, -9.52302366495132446289e-02) (101, 1.58691376447677612305e-01) (93, -3.23175996541976928711e-01) (90, -2.17319345474243164062e+00) (59, 3.51819992065429687500e+00) (18, 1.03008341789245605469e+00) (76, -7.24005877971649169922e-01) (24, -6.38996899127960205078e-01) (47, 7.71642982959747314453e-01) (41, 7.11686432361602783203e-01) (106, -8.34235787391662597656e-01) (11, -1.16612350940704345703e+00) (70, -1.29161149263381958008e-01) (91, 5.52355945110321044922e-01) (22, 2.91849851608276367188e+00) (24, -4.69764709472656250000e+00) (9, -4.82458859682083129883e-01) (23, 3.50252926349639892578e-01) (15, -1.01803466677665710449e-01) (75, 1.33786754608154296875e+01) (49, 3.27935993671417236328e-01) (106, 1.78242236375808715820e-01) (14, -1.21999848634004592896e-02) (52, -8.86597096920013427734e-01) (67, -3.05231928825378417969e-01) (74, -2.13497325778007507324e-01) (72, 1.86071053147315979004e-01) (80, 4.27679210901260375977e-01) (30, 1.38368976116180419922e+00) (97, 1.16606545448303222656e+00) (32, 3.12348991632461547852e-01) (60, 7.13623762130737304688e-01) (106, 6.42913579940795898438e-01) (62, 1.00160956382751464844e+00) (12, -1.01489996910095214844e+00) (99, 3.34686994552612304688e-01) (83, -1.21955789625644683838e-01) (82, -6.70561864972114562988e-02) (26, -6.87560260295867919922e-01) (92, 2.71966528892517089844e+00) (81, -9.13132965564727783203e-01) (78, -4.69207704067230224609e-01) (88, -6.75560653209686279297e-01) (157, 8.06179270148277282715e-02) (119, -6.23170733451843261719e-01) (143, 7.25591123104095458984e-01) (139, 1.28272399306297302246e-01) (153, -7.50028610229492187500e-01) (145, -6.40703320503234863281e-01) (157, -3.20511199533939361572e-02) (126, -4.65855240821838378906e-01) (148, 1.28749281167984008789e-01) (129, -9.30500984191894531250e-01) (146, 2.96575367450714111328e-01) (144, 1.75792384147644042969e+00) (157, -5.46961307525634765625e-01) (140, -9.95119929313659667969e-01) (119, -1.19937807321548461914e-01) (147, -1.69788587093353271484e+00) (151, 1.82586085796356201172e+00) (110, 4.60597351193428039551e-02) (157, -1.73146620392799377441e-01) (120, 1.22854304313659667969e+00) (153, -6.03084385395050048828e-01) (152, -1.04811167716979980469e+00) (140, 1.45660072565078735352e-01) (150, -3.81558448076248168945e-01) (157, -9.20759856700897216797e-01) (134, 1.05761185288429260254e-01) (136, 2.46735021471977233887e-01) (131, 1.68554019927978515625e+00) (130, -2.99513578414916992188e+00) (133, 1.06384754180908203125e+00) (157, -7.84509658813476562500e-01) (147, -8.39564621448516845703e-01) (130, -1.33931064605712890625e+01) (135, -8.96898388862609863281e-01) (148, -8.06574150919914245605e-02) (113, -5.63656032085418701172e-01) (157, -3.48269753158092498779e-02) (142, 3.07647514343261718750e+00) (107, -3.61009383201599121094e+00) (116, 2.73165106773376464844e-01) (124, -5.12022137641906738281e-01) (146, 1.61817446351051330566e-02) (157, 9.31055128574371337891e-01) (113, -7.92505681514739990234e-01) (114, 3.98579597473144531250e-01) (142, 1.23156331479549407959e-01) (137, -7.22011923789978027344e-01) (119, 1.20642960071563720703e+00) (157, 6.59921348094940185547e-01) (126, 5.60866594314575195312e-01) (147, -1.30007863044738769531e-01) (117, 2.44935202598571777344e+00) (116, 7.66933858394622802734e-01) (112, 7.49441027641296386719e-01) (157, 1.84056401252746582031e-01) (121, 1.67763137817382812500e+00) (134, 1.86280763149261474609e+00) (126, 6.60766899585723876953e-01) (127, 9.11842659115791320801e-02) (140, -7.53026068210601806641e-01) (157, 9.75676000118255615234e-01) (127, 6.29184722900390625000e-01) (136, 6.63596868515014648438e-01) (153, -1.26392930746078491211e-01) (152, 2.21358891576528549194e-02) (138, 6.73024713993072509766e-01) (157, 1.24855399131774902344e+00) (122, 8.75901818275451660156e-01) (108, -1.49846112728118896484e+00) (115, 3.48833143711090087891e-01) (149, 5.45772075653076171875e-01) (125, 6.92411661148071289062e-01) (157, -6.55637025833129882812e-01) (130, -4.18312966823577880859e-01) (138, 1.35192453861236572266e+00) (144, 7.54786789417266845703e-01) (139, -2.55190074443817138672e-01) (142, 2.82745808362960815430e-01) (157, -1.46428716182708740234e+00) (132, -1.14205324649810791016e+00) (146, -8.47647339105606079102e-02) (110, -2.35061264038085937500e+00) (108, 4.48717403411865234375e+00) (109, -1.84544146060943603516e-01) (157, 4.02225434780120849609e-01) (155, 6.32674074172973632812e+00) (143, 7.34108686447143554688e+00) (136, 1.46736776828765869141e+00) (118, 2.54863414764404296875e+01) (111, 6.62292897701263427734e-01) (157, -9.04860734939575195312e-01) (124, 7.62562930583953857422e-01) (131, 3.73831033706665039062e+00) (129, 2.64851164817810058594e+00) (148, -3.28550964593887329102e-01) (152, -7.34669799804687500000e+01) (157, 1.61758744716644287109e+00) (155, 5.13520359992980957031e-01) (124, 2.84022778272628784180e-01) (117, 2.08970379829406738281e+00) (115, 1.76182007789611816406e+00) (116, 2.81349033117294311523e-01) (157, -6.82993113994598388672e-01) (137, -5.86177825927734375000e-01) (118, -6.73115015029907226562e+00) (149, -1.44575948715209960938e+01) (125, 1.36043882369995117188e+00) (119, -1.39134538173675537109e+00) (157, -8.46029579639434814453e-01) (146, -8.36062490940093994141e-01) (120, -1.21148025989532470703e+00) (148, -3.35221663117408752441e-02) (119, -7.67031371593475341797e-01) (110, 7.39383697509765625000e-02) (157, 1.87931430339813232422e+00) (112, 7.56645679473876953125e-01) (150, 1.21704244613647460938e+00) (151, -1.89773666858673095703e+00) (116, 1.28685688972473144531e+00) (115, 1.56905496120452880859e+00) (157, -4.60029363632202148438e-01) (108, 5.35213291645050048828e-01) (132, -7.68364489078521728516e-01) (146, 1.57018706202507019043e-01) (127, -5.03642950206995010376e-03) (150, 5.57522892951965332031e-01) (157, -7.79658913612365722656e-01) (137, -3.35970938205718994141e-01) (141, -2.75083363056182861328e-01) (148, 9.98033136129379272461e-02) (155, -1.65083091706037521362e-02) (124, 6.59956753253936767578e-01) (157, 2.50995659828186035156e+00) (144, 3.16048651933670043945e-01) (128, 7.14877486228942871094e-01) (141, -3.13082873821258544922e-01) (120, 5.43748676776885986328e-01) (133, 1.23950028419494628906e+00) (157, 1.57475817203521728516e+00) (127, -2.02929247170686721802e-02) (131, 2.26228162646293640137e-01) (150, 9.86848056316375732422e-01) (152, -4.28287416696548461914e-01) (121, -1.86768615245819091797e+00) (157, -5.50734698772430419922e-01) (133, -1.11792933940887451172e+00) (146, -9.84931409358978271484e-01) (113, 8.77494931221008300781e-01) (127, 1.07831120491027832031e-01) (143, 8.61858904361724853516e-01) (157, 1.36281287670135498047e+00) (142, -5.47005414962768554688e-01) (116, 3.46772640943527221680e-01) (115, 1.04382133483886718750e+00) (117, 2.84832406044006347656e+00) (125, -7.32346236705780029297e-01) (157, -7.15907871723175048828e-01) (154, 1.34688556194305419922e+00) (133, -1.35263264179229736328e+00) (153, 1.31470012664794921875e+00) (135, 3.50727230310440063477e-01) (126, 5.19361197948455810547e-01) (157, 1.10010766983032226562e+00) (108, -3.36642444133758544922e-01) (111, 6.18457533419132232666e-02) (154, 1.17054450511932373047e+00) (140, -2.26470772176980972290e-02) (133, 1.98292040824890136719e+00) (157, 5.50966382026672363281e-01) (151, -8.40322554111480712891e-01) (132, 1.48861706256866455078e+00) (139, 1.12088227272033691406e+00) (144, 5.00151693820953369141e-01) (128, -2.49988245964050292969e+00) (157, 1.26797461509704589844e+00) (142, -9.73601415753364562988e-02) (118, 4.14901458740234375000e+02) (109, 1.00785255432128906250e+00) (120, 2.32329559326171875000e+00) (141, 5.26023328304290771484e-01) (157, -5.01885674893856048584e-02) (143, -2.17877936363220214844e+00) (111, -2.03146427869796752930e-01) (112, -5.01492857933044433594e-01) (129, 7.35767960548400878906e-01) (122, 3.45608144998550415039e-01) (157, -2.53938823938369750977e-01) (109, -7.78392493724822998047e-01) (138, 1.53933572769165039062e+00) (113, -5.37100024521350860596e-02) (114, -6.50569796562194824219e-01) (145, -1.86657726764678955078e-01) (157, -4.05734270811080932617e-01) (136, 1.03575873374938964844e+00) (112, 3.20424586534500122070e-01) (108, -1.10814952850341796875e+00) (107, 6.17884933948516845703e-01) (129, 9.72132146358489990234e-01) (157, 2.09368377923965454102e-01) (147, 1.19651374816894531250e+01) (150, 1.10741809010505676270e-01) (118, -1.87435569763183593750e+01) (152, 1.06337428092956542969e+00) (109, -5.24490535259246826172e-01) (157, 1.60400009155273437500e+00) (112, 1.01526045799255371094e+00) (128, -6.65182054042816162109e-01) (153, 3.73325973749160766602e-01) (131, -4.25513893365859985352e-01) (133, 6.76415205001831054688e-01) (157, 1.98833812028169631958e-02) (122, 4.32885378599166870117e-01) (152, 1.24441885948181152344e+00) (119, -1.28574872016906738281e+00) (148, 4.56771701574325561523e-01) (123, 4.85056132078170776367e-01) (157, -6.09590768814086914062e-01) (143, 7.15350925922393798828e-01) (144, -1.41592025756835937500e-01) (127, 1.44850647449493408203e+00) (109, 6.35113894939422607422e-01) (125, -6.17525219917297363281e-01) (157, -8.68897676467895507812e-01) (141, 1.89997449517250061035e-01) (134, 1.00257956981658935547e+00) (117, -2.98900794982910156250e+00) (144, 6.28867328166961669922e-01) (108, 1.28675663471221923828e+00) (157, 9.87248778343200683594e-01) (131, -7.14253559708595275879e-02) (147, 9.62899863719940185547e-01) (145, 4.92027103900909423828e-01) (121, -1.50633797049522399902e-01) (110, -2.20896396785974502563e-02) (157, 1.98982283473014831543e-01) (140, -1.20770907402038574219e+00) (110, 1.12551379203796386719e+00) (139, -3.51035177707672119141e-01) (152, 1.16941368579864501953e+00) (154, 1.24268460273742675781e+00) (157, -5.29987402260303497314e-02) (117, 1.99408769607543945312e+00) (138, 3.24161499738693237305e-01) (141, -1.74029076099395751953e+00) (115, 1.17918276786804199219e+00) (156, 5.79806447029113769531e-01) (157, -5.02983212471008300781e-01) (121, 1.11609065532684326172e+00) (143, 1.97024032473564147949e-01) (128, 1.90656518936157226562e+00) (136, 8.93493950366973876953e-01) (134, 1.08724439144134521484e+00) (157, 1.84742319583892822266e+00) (133, 1.13414764404296875000e+01) (126, 6.92564904689788818359e-01) (109, 2.43620419502258300781e+00) (142, -1.71437692642211914062e+00) (136, -7.11700260639190673828e-01) (157, 1.40439748764038085938e+00) (146, 1.07038056850433349609e+00) (129, 5.14723062515258789062e-01) (147, 8.73992443084716796875e-01) (140, 1.62177875638008117676e-01) (139, 1.07768368721008300781e+00) (157, 7.43539869785308837891e-01) (121, 6.32953107357025146484e-01) (153, -3.42074930667877197266e-01) (140, 1.44735336303710937500e+00) (116, 2.24211156368255615234e-01) (143, -6.89756214618682861328e-01) (157, 1.14188623428344726562e+00) (110, 4.86601889133453369141e-01) (119, -4.63520810008049011230e-02) (144, 1.45976230502128601074e-01) (137, 5.53969144821166992188e-02) (131, -6.36280834674835205078e-01) (157, 1.49979621171951293945e-01) (114, 4.31088387966156005859e-01) (121, 1.27292066812515258789e-01) (127, -5.50698339939117431641e-01) (140, 8.45443546772003173828e-01) (139, -7.17782676219940185547e-01) (157, 1.00737786293029785156e+00) (148, 8.91134619712829589844e-01) (135, -5.16248643398284912109e-01) (113, -2.89100229740142822266e-01) (126, 7.10135936737060546875e-01) (128, -1.33676266670227050781e+00) (157, 2.00210288166999816895e-01) (136, 1.88075378537178039551e-01) (124, -4.82842177152633666992e-01) (154, 1.24997389316558837891e+00) (129, -1.75626844167709350586e-01) (123, 8.77771556377410888672e-01) (157, 1.19405344128608703613e-01) (135, 1.12621378898620605469e+00) (149, 4.59330737590789794922e-01) (147, 1.20145916938781738281e+00) (116, 1.30133855342864990234e+00) (123, 1.91894447803497314453e+00) (157, 3.47885847091674804688e-01) (122, 7.63669729232788085938e-01) (151, -8.43912303447723388672e-01) (129, 5.10844349861145019531e-01) (117, 6.71276509761810302734e-01) (146, -4.31901514530181884766e-02) (157, -8.24847638607025146484e-01) (122, -6.34009182453155517578e-01) (109, 7.53522245213389396667e-03) (138, 1.56887841224670410156e+00) (147, -8.85593235492706298828e-01) (114, -9.86371695995330810547e-01) (157, -8.98483276367187500000e-01) (150, 6.78571164608001708984e-01) (148, 6.20311915874481201172e-01) (135, -1.22826308012008666992e-01) (143, 5.76152443885803222656e-01) (114, -8.43291342258453369141e-01) (157, 1.31558763980865478516e+00) (132, 7.26875960826873779297e-01) (145, 5.56333959102630615234e-01) (130, -7.52538144588470458984e-01) (135, -4.89554524421691894531e-01) (125, -3.38242501020431518555e-01) (157, 4.21069324016571044922e-01) (128, -3.27879929542541503906e+00) (108, 1.58061599731445312500e+00) (107, -2.18665575981140136719e+00) (131, 1.62482833862304687500e+00) (111, 2.13306874036788940430e-01) (157, -1.02326893806457519531e+00) (137, 8.01612734794616699219e-01) (119, -4.36167538166046142578e-01) (115, -1.30303931236267089844e+00) (107, -4.21424239873886108398e-01) (139, -7.63195633888244628906e-01) (157, -9.95426297187805175781e-01) (113, 1.49252498149871826172e+00) (139, -3.03356438875198364258e-01) (124, -6.78590014576911926270e-02) (138, 2.06699162721633911133e-01) (143, 3.66220653057098388672e-01) (157, 1.04523575305938720703e+00) (153, 4.39480870962142944336e-01) (147, 3.89590144157409667969e-01) (138, -6.43421649932861328125e-01) (154, 4.21803712844848632812e-01) (113, -2.83600599505007266998e-03) (157, 1.79230093955993652344e-01) (134, -7.27928876876831054688e-01) (111, -2.48999580740928649902e-01) (115, 1.59860938787460327148e-01) (148, -1.62705585360527038574e-01) (128, -8.80669713020324707031e-01) (157, -7.80349448323249816895e-02) (149, -7.20761269330978393555e-02) (121, -1.40973913669586181641e+00) (118, 1.28034520149230957031e+00) (135, 9.02389883995056152344e-02) (115, 6.66775941848754882812e-01) (157, 1.73955336213111877441e-01) (107, 8.04688072204589843750e+00) (114, -1.50158822536468505859e+00) (137, 1.04963004589080810547e+00) (143, -8.71986007690429687500e+00) (129, -3.71708035469055175781e-01) (157, 1.18395221233367919922e+00) (140, 3.70655864477157592773e-01) (154, -3.36380094289779663086e-01) (147, 1.39170539379119873047e+00) (113, 1.24635444954037666321e-02) (124, 1.63046979904174804688e+00) (157, -1.85321629047393798828e-01) (130, 6.43196254968643188477e-02) (123, -9.55252408981323242188e-01) (112, -3.99436712265014648438e-01) (137, 2.81956839561462402344e+00) (107, -3.96562314033508300781e+00) (157, 6.76132857799530029297e-01) (128, 1.23772943019866943359e+00) (120, 5.48709332942962646484e-01) (133, 1.44668960571289062500e+00) (146, 1.56295094639062881470e-02) (145, 6.80412530899047851562e-01) (157, -8.54222416877746582031e-01) (108, 2.95775079727172851562e+00) (129, 1.06842839717864990234e+00) (127, 1.16650617122650146484e+00) (140, -7.52962887287139892578e-01) (148, -2.92192310094833374023e-01) (157, 2.84892886877059936523e-01) (124, 6.59665584564208984375e-01) (151, -2.22492575645446777344e-01) (153, -6.56212568283081054688e-01) (108, -7.77141034603118896484e-01) (145, 4.17952567338943481445e-01) (157, 2.05235934257507324219e+00) (130, 8.23092401027679443359e-01) (140, 7.35438764095306396484e-01) (124, 1.28742027282714843750e+00) (122, 1.45486795902252197266e+00) (146, 1.74189674854278564453e+00) (157, 5.27034737169742584229e-02) (125, -6.76386594772338867188e-01) (116, -4.90219265222549438477e-01) (127, 1.55030381679534912109e+00) (133, -1.71548783779144287109e-01) (156, -4.56742614507675170898e-01) (157, 1.16333341598510742188e+00) (140, 1.20658802986145019531e+00) (135, 1.80321931838989257812e+00) (128, -1.12773966789245605469e+00) (114, 1.17422962188720703125e+00) (119, 1.67344021797180175781e+00) (157, -7.86955561488866806030e-03) (139, 2.02755704522132873535e-01) (135, -2.84223079681396484375e-01) (150, -5.14192163944244384766e-01) (113, -6.08413517475128173828e-01) (141, 1.84214162826538085938e+00) (157, -1.00774085521697998047e+00) (109, -1.16005086898803710938e+00) (138, 6.16266369819641113281e-01) (110, -5.48235833644866943359e-01) (150, -6.93648755550384521484e-01) (130, 8.48424583673477172852e-02) (157, 5.66851377487182617188e-01) (120, 1.80733168125152587891e+00) (141, -1.22850763797760009766e+00) (149, 2.40920495986938476562e+00) (125, 1.00480175018310546875e+00) (121, 6.17086946964263916016e-01) (157, -3.71062965132296085358e-03) (151, -6.19846820831298828125e-01) (127, 9.49006304144859313965e-02) (155, -5.62421381473541259766e-02) (113, 2.62690663337707519531e-01) (115, 1.33944964408874511719e+00) (157, 1.12065243721008300781e+00) (116, 1.07028400897979736328e+00) (151, -8.78148376941680908203e-01) (120, 8.37162613868713378906e-01) (128, 1.34219110012054443359e-01) (137, -5.58544620871543884277e-02) (157, -9.03237104415893554688e-01) (126, 2.19142690300941467285e-01) (149, 2.47985315322875976562e+00) (148, 6.07978217303752899170e-02) (155, 8.01269710063934326172e-01) (131, 8.29797148704528808594e-01) (157, 4.54241335391998291016e-02) (111, 4.72267329692840576172e-01) (138, 5.70654571056365966797e-01) (152, -1.13227272033691406250e+00) (147, -2.70081490278244018555e-01) (155, 8.05993318557739257812e-01) (157, 1.21775233745574951172e+00) (114, 1.46058607101440429688e+00) (134, -1.64004206657409667969e+00) (155, 2.18176126480102539062e-01) (151, -1.60364460945129394531e+00) (149, 5.17954975366592407227e-02) (157, 1.57254469394683837891e+00) (153, -5.21030545234680175781e-01) (150, -4.72195714712142944336e-01) (154, 1.27424359321594238281e-01) (142, -9.04258608818054199219e-01) (108, -5.84164857864379882812e-01) (157, 7.04555273056030273438e-01) (116, 1.08262419700622558594e+00) (131, 4.04672712087631225586e-01) (150, 6.05650424957275390625e-01) (126, 8.59734833240509033203e-01) (127, 7.99924969673156738281e-01) (157, 1.63269019126892089844e+00) (129, 3.33682656288146972656e-01) (122, 2.89467668533325195312e+00) (130, 2.43732047080993652344e+00) (149, -1.14793062210083007812e+01) (118, 1.44567041015625000000e+03) (157, -1.12441897392272949219e+00) (117, -2.82781314849853515625e+00) (122, 5.32950758934020996094e-01) (151, 3.01668662577867507935e-02) (155, -8.26849877834320068359e-01) (113, 6.92886531352996826172e-01) (157, -8.41079652309417724609e-01) (140, -7.19233870506286621094e-01) (154, 1.54536592960357666016e+00) (120, 2.36799716949462890625e-02) (143, -8.16762089729309082031e-01) (109, -1.30948555469512939453e+00) (157, -2.23146647214889526367e-01) (119, -1.29028701782226562500e+00) (143, 1.81337311863899230957e-01) (151, 6.86446726322174072266e-01) (144, 7.01902747154235839844e-01) (148, -6.34218215942382812500e-01) (157, 1.03302156925201416016e+00) (128, -1.11422991752624511719e+00) (151, -6.98690176010131835938e-01) (148, 5.45589089393615722656e-01) (131, -8.32399129867553710938e-01) (122, 1.21754491329193115234e+00) (157, -4.46395874023437500000e-01) (130, -1.07080039978027343750e+01) (119, -9.09407675266265869141e-01) (147, 7.27610826492309570312e-01) (131, 3.50624942779541015625e+00) (112, 1.27855226397514343262e-01) (157, 1.69610285758972167969e+00) (144, 4.53519970178604125977e-01) (118, 7.61599540710449218750e-01) (151, -2.05166459083557128906e-01) (116, -1.13252557814121246338e-01) (136, 9.44937169551849365234e-01) (157, 1.65299785137176513672e+00) (135, 1.30260765552520751953e+00) (119, 1.11483037471771240234e+00) (115, 1.54028189182281494141e+00) (148, -8.65261480212211608887e-02) (137, -3.39822530746459960938e+00) (157, 4.53834801912307739258e-01) (156, 8.18866074085235595703e-01) (132, 1.20546960830688476562e+00) (115, 3.54184329509735107422e-01) (149, 2.76103711128234863281e+00) (125, 1.31538903713226318359e+00) (157, -2.81694948673248291016e-01) (130, -5.66057503223419189453e-01) (129, -1.23154556751251220703e+00) (114, -1.42837297916412353516e+00) (136, 7.86368072032928466797e-01) (109, 2.34220042824745178223e-01) (157, -9.75678563117980957031e-01) (118, 2.66183495521545410156e-01) (123, -8.24464738368988037109e-01) (136, 1.36066347360610961914e-01) (111, -9.40540790557861328125e-01) (137, 1.12161409854888916016e+00) (157, -3.68363559246063232422e-01) (129, 3.15168857574462890625e-01) (112, 7.85333663225173950195e-02) (140, -9.55113470554351806641e-01) (124, -1.23391258716583251953e+00) (148, -2.83855348825454711914e-01) (157, 8.78109812736511230469e-01) (144, 5.37761509418487548828e-01) (136, 9.20192420482635498047e-01) (146, -2.19137549400329589844e-01) (143, -4.40854847431182861328e-01) (151, 3.95664721727371215820e-01) (157, -7.92783051729202270508e-02) (136, 3.67264008522033691406e+00) (152, 1.27950203418731689453e+00) (144, 4.16164112091064453125e+00) (154, -1.29350379109382629395e-01) (153, -9.93096172809600830078e-01) (157, 1.57159733772277832031e+00) (108, 1.55759537220001220703e+00) (144, 1.14257895946502685547e+00) (125, -2.46581330895423889160e-01) (146, 1.30883216857910156250e+00) (130, 2.09780812263488769531e+00) (157, -6.29660367965698242188e-01) (113, 2.17582082748413085938e+00) (138, -1.10082125663757324219e+00) (144, 9.29170072078704833984e-01) (109, 6.18379935622215270996e-02) (152, 1.83955836296081542969e+00) (157, 2.14744091033935546875e-01) (149, -2.03850793838500976562e+00) (152, 1.13260996341705322266e+00) (137, 4.02282737195491790771e-02) (124, 1.15849860012531280518e-01) (130, -2.20779418945312500000e+01) (157, -1.23761308193206787109e+00) (115, 2.78302133083343505859e-01) (146, -1.07695317268371582031e+00) (108, 4.39876407384872436523e-01) (112, -2.52361238002777099609e-01) (116, -4.75777804851531982422e-01) (157, -1.44493770599365234375e+00) (148, -7.98758745193481445312e-01) (122, 2.96601712703704833984e-01) (128, 1.20714747905731201172e+00) (145, -6.13694727420806884766e-01) (127, -6.47245645523071289062e-02) (157, 2.58626341819763183594e-01) (148, -5.69830238819122314453e-01) (131, 6.36114299297332763672e-01) (146, -8.29400300979614257812e-01) (126, -7.24072515964508056641e-01) (145, -1.14383566379547119141e+00) (157, 8.92726659774780273438e-01) (132, 1.53067791461944580078e+00) (126, 7.22558021545410156250e-01) (112, 1.04689908027648925781e+00) (139, 6.78567469120025634766e-01) (135, 6.80721819400787353516e-01) (258, 3.90307456254959106445e-01) (168, -1.53180718421936035156e-01) (184, -1.42524147033691406250e+00) (185, 1.17997825145721435547e+00) (201, 8.91505777835845947266e-01) (206, -8.22571590542793273926e-02) (208, 1.61388623714447021484e+00) (210, -8.56300950050354003906e-01) (211, -1.49738401174545288086e-01) (212, -3.87889236211776733398e-01) (215, 7.82720863819122314453e-01) (217, 8.65061521530151367188e-01) (219, 9.38624024391174316406e-01) (230, 5.28299152851104736328e-01) (232, -8.77634108066558837891e-01) (233, 1.47679841518402099609e+00) (234, 8.50850939750671386719e-01) (235, 8.15936446189880371094e-01) (237, 1.55942893028259277344e+00) (238, -1.52516412734985351562e+00) (244, 1.21612608432769775391e+00) (248, -1.12111258506774902344e+00) (249, 6.60742461681365966797e-01) (250, -8.00968945026397705078e-01) (251, 1.40329337120056152344e+00) (253, -2.59258866310119628906e-01) (258, 1.41530001163482666016e+00) (158, -2.39142134785652160645e-01) (160, -3.93390566110610961914e-01) (161, 1.31952488422393798828e+00) (163, -5.77698588371276855469e-01) (173, 6.51440173387527465820e-02) (175, -3.09865862131118774414e-01) (178, -6.11735880374908447266e-01) (179, 4.30968612432479858398e-01) (182, -1.04830217361450195312e+00) (183, 1.44569468498229980469e+00) (187, 1.52021121978759765625e+00) (188, 4.75488275289535522461e-01) (196, 1.20079863071441650391e+00) (198, 1.19747960567474365234e+00) (199, -1.05093991756439208984e+00) (202, 5.18420755863189697266e-01) (203, 1.62561488151550292969e+00) (204, 6.93141341209411621094e-01) (207, 4.79668259620666503906e-01) (209, -7.61548578739166259766e-01) (214, -1.13461577892303466797e+00) (216, 5.26542723178863525391e-01) (218, 4.09292727708816528320e-01) (221, 7.35195755958557128906e-01) (223, 5.83158075809478759766e-01) (258, 1.66218018531799316406e+00) (159, -1.16635596752166748047e+00) (162, -1.15522527694702148438e+00) (165, 1.04434728622436523438e+00) (166, 1.80344414710998535156e+00) (167, -6.64534866809844970703e-01) (169, 4.97018843889236450195e-01) (172, 1.13559067249298095703e+00) (174, 1.48357331752777099609e+00) (180, 2.03846788406372070312e+00) (186, 8.40739905834197998047e-01) (189, -4.73095983266830444336e-01) (190, 4.50294613838195800781e-01) (192, 1.04285645484924316406e+00) (194, -4.20210510492324829102e-01) (197, -2.39940002560615539551e-01) (205, 1.11193680763244628906e+00) (213, -1.16068518161773681641e+00) (220, -2.54772126674652099609e-01) (222, -1.25675082206726074219e+00) (224, 1.15535700321197509766e+00) (225, -4.55817222595214843750e-01) (226, 1.22060537338256835938e+00) (227, -1.22158356010913848877e-01) (228, -1.37334859371185302734e+00) (229, 9.23724412918090820312e-01) (258, 1.66237688064575195312e+00) (164, -5.70082724094390869141e-01) (170, -1.68721306324005126953e+00) (171, -1.00074779987335205078e+00) (176, -1.43789100646972656250e+00) (177, 1.89618182182312011719e+00) (181, 1.17888450622558593750e+00) (191, -2.41268262267112731934e-01) (193, -6.30657017230987548828e-01) (195, -1.97032868862152099609e+00) (200, 9.13436233997344970703e-01) (231, 4.65218275785446166992e-01) (236, 8.02631303668022155762e-02) (239, -1.18910634517669677734e+00) (240, -3.54633212089538574219e-01) (241, 8.33427488803863525391e-01) (242, -1.48247599601745605469e+00) (243, 1.49805247783660888672e+00) (245, 1.10359859466552734375e+00) (246, -4.36392039060592651367e-01) (247, -6.28607034683227539062e-01) (252, -1.35740101337432861328e+00) (254, -5.55616140365600585938e-01) (255, -8.61810505390167236328e-01) (256, -4.90449517965316772461e-01) (257, 4.94957208633422851562e-01)
input_names='betan' 'delta' 'kappa' 'neped' 'zeffped'
output_names='OUT_p_E1' 'OUT_ptop_E1' 'OUT_wid_E1' 'OUT_widtop_E1'
MSE= 0.022777216509