FANN_FLO_2.1
num_layers=5
learning_rate=0.700000
connection_rate=0.100000
network_type=0
learning_momentum=0.000000
training_algorithm=2
train_error_function=0
train_stop_function=0
cascade_output_change_fraction=0.010000
quickprop_decay=-0.000100
quickprop_mu=1.750000
rprop_increase_factor=1.200000
rprop_decrease_factor=0.500000
rprop_delta_min=0.000000
rprop_delta_max=50.000000
rprop_delta_zero=0.100000
cascade_output_stagnation_epochs=12
cascade_candidate_change_fraction=0.010000
cascade_candidate_stagnation_epochs=12
cascade_max_out_epochs=150
cascade_min_out_epochs=50
cascade_max_cand_epochs=150
cascade_min_cand_epochs=50
cascade_num_candidate_groups=2
bit_fail_limit=3.49999994039535522461e-01
cascade_candidate_limit=1.00000000000000000000e+03
cascade_weight_multiplier=4.00000005960464477539e-01
cascade_activation_functions_count=10
cascade_activation_functions=3 5 7 8 10 11 14 15 16 17
cascade_activation_steepnesses_count=4
cascade_activation_steepnesses=2.50000000000000000000e-01 5.00000000000000000000e-01 7.50000000000000000000e-01 1.00000000000000000000e+00
layer_sizes=6 101 51 101 5
scale_included=1
scale_mean_in=1.800000 0.470000 1.800000 8.200000 1.800000
scale_deviation_in=0.147794 0.016888 0.077721 1.869508 0.394809
scale_new_min_in=-1.000000 -1.000000 -1.000000 -1.000000 -1.000000
scale_factor_in=1.000000 1.000000 1.000000 1.000000 1.000000
scale_mean_out=0.000000 0.000000 0.000000 0.000000
scale_deviation_out=0.012464 0.015759 0.003304 0.004955
scale_new_min_out=-1.000000 -1.000000 -1.000000 -1.000000
scale_factor_out=1.000000 1.000000 1.000000 1.000000
neurons (num_inputs, activation_function, activation_steepness)=(0, 0, 0.00000000000000000000e+00) (0, 0, 0.00000000000000000000e+00) (0, 0, 0.00000000000000000000e+00) (0, 0, 0.00000000000000000000e+00) (0, 0, 0.00000000000000000000e+00) (0, 0, 0.00000000000000000000e+00) (2, 5, 5.00000000000000000000e-01) (2, 5, 5.00000000000000000000e-01) (2, 5, 5.00000000000000000000e-01) (2, 5, 5.00000000000000000000e-01) (2, 5, 5.00000000000000000000e-01) (2, 5, 5.00000000000000000000e-01) (2, 5, 5.00000000000000000000e-01) (2, 5, 5.00000000000000000000e-01) (2, 5, 5.00000000000000000000e-01) (2, 5, 5.00000000000000000000e-01) (2, 5, 5.00000000000000000000e-01) (2, 5, 5.00000000000000000000e-01) (2, 5, 5.00000000000000000000e-01) (2, 5, 5.00000000000000000000e-01) (2, 5, 5.00000000000000000000e-01) (2, 5, 5.00000000000000000000e-01) (2, 5, 5.00000000000000000000e-01) (2, 5, 5.00000000000000000000e-01) (2, 5, 5.00000000000000000000e-01) (2, 5, 5.00000000000000000000e-01) (2, 5, 5.00000000000000000000e-01) (2, 5, 5.00000000000000000000e-01) (2, 5, 5.00000000000000000000e-01) (2, 5, 5.00000000000000000000e-01) (2, 5, 5.00000000000000000000e-01) (2, 5, 5.00000000000000000000e-01) (2, 5, 5.00000000000000000000e-01) (2, 5, 5.00000000000000000000e-01) (2, 5, 5.00000000000000000000e-01) (2, 5, 5.00000000000000000000e-01) (2, 5, 5.00000000000000000000e-01) (2, 5, 5.00000000000000000000e-01) (2, 5, 5.00000000000000000000e-01) (2, 5, 5.00000000000000000000e-01) (2, 5, 5.00000000000000000000e-01) (2, 5, 5.00000000000000000000e-01) (2, 5, 5.00000000000000000000e-01) (2, 5, 5.00000000000000000000e-01) (2, 5, 5.00000000000000000000e-01) (2, 5, 5.00000000000000000000e-01) (2, 5, 5.00000000000000000000e-01) (2, 5, 5.00000000000000000000e-01) (2, 5, 5.00000000000000000000e-01) (2, 5, 5.00000000000000000000e-01) (2, 5, 5.00000000000000000000e-01) (2, 5, 5.00000000000000000000e-01) (2, 5, 5.00000000000000000000e-01) (2, 5, 5.00000000000000000000e-01) (2, 5, 5.00000000000000000000e-01) (2, 5, 5.00000000000000000000e-01) (2, 5, 5.00000000000000000000e-01) (2, 5, 5.00000000000000000000e-01) (2, 5, 5.00000000000000000000e-01) (2, 5, 5.00000000000000000000e-01) (2, 5, 5.00000000000000000000e-01) (2, 5, 5.00000000000000000000e-01) (2, 5, 5.00000000000000000000e-01) (2, 5, 5.00000000000000000000e-01) (2, 5, 5.00000000000000000000e-01) (2, 5, 5.00000000000000000000e-01) (2, 5, 5.00000000000000000000e-01) (2, 5, 5.00000000000000000000e-01) (2, 5, 5.00000000000000000000e-01) (2, 5, 5.00000000000000000000e-01) (2, 5, 5.00000000000000000000e-01) (2, 5, 5.00000000000000000000e-01) (2, 5, 5.00000000000000000000e-01) (2, 5, 5.00000000000000000000e-01) (2, 5, 5.00000000000000000000e-01) (2, 5, 5.00000000000000000000e-01) (2, 5, 5.00000000000000000000e-01) (2, 5, 5.00000000000000000000e-01) (2, 5, 5.00000000000000000000e-01) (2, 5, 5.00000000000000000000e-01) (2, 5, 5.00000000000000000000e-01) (2, 5, 5.00000000000000000000e-01) (2, 5, 5.00000000000000000000e-01) (2, 5, 5.00000000000000000000e-01) (2, 5, 5.00000000000000000000e-01) (2, 5, 5.00000000000000000000e-01) (2, 5, 5.00000000000000000000e-01) (2, 5, 5.00000000000000000000e-01) (2, 5, 5.00000000000000000000e-01) (2, 5, 5.00000000000000000000e-01) (2, 5, 5.00000000000000000000e-01) (2, 5, 5.00000000000000000000e-01) (2, 5, 5.00000000000000000000e-01) (2, 5, 5.00000000000000000000e-01) (2, 5, 5.00000000000000000000e-01) (2, 5, 5.00000000000000000000e-01) (2, 5, 5.00000000000000000000e-01) (2, 5, 5.00000000000000000000e-01) (2, 5, 5.00000000000000000000e-01) (2, 5, 5.00000000000000000000e-01) (2, 5, 5.00000000000000000000e-01) (2, 5, 5.00000000000000000000e-01) (2, 5, 5.00000000000000000000e-01) (2, 5, 5.00000000000000000000e-01) (2, 5, 5.00000000000000000000e-01) (2, 5, 5.00000000000000000000e-01) (0, 5, 0.00000000000000000000e+00) (11, 5, 5.00000000000000000000e-01) (11, 5, 5.00000000000000000000e-01) (11, 5, 5.00000000000000000000e-01) (11, 5, 5.00000000000000000000e-01) (11, 5, 5.00000000000000000000e-01) (11, 5, 5.00000000000000000000e-01) (11, 5, 5.00000000000000000000e-01) (11, 5, 5.00000000000000000000e-01) (11, 5, 5.00000000000000000000e-01) (11, 5, 5.00000000000000000000e-01) (11, 5, 5.00000000000000000000e-01) (11, 5, 5.00000000000000000000e-01) (11, 5, 5.00000000000000000000e-01) (11, 5, 5.00000000000000000000e-01) (11, 5, 5.00000000000000000000e-01) (11, 5, 5.00000000000000000000e-01) (11, 5, 5.00000000000000000000e-01) (11, 5, 5.00000000000000000000e-01) (11, 5, 5.00000000000000000000e-01) (11, 5, 5.00000000000000000000e-01) (11, 5, 5.00000000000000000000e-01) (11, 5, 5.00000000000000000000e-01) (11, 5, 5.00000000000000000000e-01) (11, 5, 5.00000000000000000000e-01) (11, 5, 5.00000000000000000000e-01) (11, 5, 5.00000000000000000000e-01) (11, 5, 5.00000000000000000000e-01) (11, 5, 5.00000000000000000000e-01) (11, 5, 5.00000000000000000000e-01) (11, 5, 5.00000000000000000000e-01) (11, 5, 5.00000000000000000000e-01) (11, 5, 5.00000000000000000000e-01) (11, 5, 5.00000000000000000000e-01) (11, 5, 5.00000000000000000000e-01) (11, 5, 5.00000000000000000000e-01) (11, 5, 5.00000000000000000000e-01) (11, 5, 5.00000000000000000000e-01) (11, 5, 5.00000000000000000000e-01) (11, 5, 5.00000000000000000000e-01) (11, 5, 5.00000000000000000000e-01) (11, 5, 5.00000000000000000000e-01) (11, 5, 5.00000000000000000000e-01) (11, 5, 5.00000000000000000000e-01) (11, 5, 5.00000000000000000000e-01) (11, 5, 5.00000000000000000000e-01) (11, 5, 5.00000000000000000000e-01) (11, 5, 5.00000000000000000000e-01) (11, 5, 5.00000000000000000000e-01) (11, 5, 5.00000000000000000000e-01) (11, 5, 5.00000000000000000000e-01) (0, 5, 0.00000000000000000000e+00) (6, 5, 5.00000000000000000000e-01) (6, 5, 5.00000000000000000000e-01) (6, 5, 5.00000000000000000000e-01) (6, 5, 5.00000000000000000000e-01) (6, 5, 5.00000000000000000000e-01) (6, 5, 5.00000000000000000000e-01) (6, 5, 5.00000000000000000000e-01) (6, 5, 5.00000000000000000000e-01) (6, 5, 5.00000000000000000000e-01) (6, 5, 5.00000000000000000000e-01) (6, 5, 5.00000000000000000000e-01) (6, 5, 5.00000000000000000000e-01) (6, 5, 5.00000000000000000000e-01) (6, 5, 5.00000000000000000000e-01) (6, 5, 5.00000000000000000000e-01) (6, 5, 5.00000000000000000000e-01) (6, 5, 5.00000000000000000000e-01) (6, 5, 5.00000000000000000000e-01) (6, 5, 5.00000000000000000000e-01) (6, 5, 5.00000000000000000000e-01) (6, 5, 5.00000000000000000000e-01) (6, 5, 5.00000000000000000000e-01) (6, 5, 5.00000000000000000000e-01) (6, 5, 5.00000000000000000000e-01) (6, 5, 5.00000000000000000000e-01) (6, 5, 5.00000000000000000000e-01) (6, 5, 5.00000000000000000000e-01) (6, 5, 5.00000000000000000000e-01) (6, 5, 5.00000000000000000000e-01) (6, 5, 5.00000000000000000000e-01) (6, 5, 5.00000000000000000000e-01) (6, 5, 5.00000000000000000000e-01) (6, 5, 5.00000000000000000000e-01) (6, 5, 5.00000000000000000000e-01) (6, 5, 5.00000000000000000000e-01) (6, 5, 5.00000000000000000000e-01) (6, 5, 5.00000000000000000000e-01) (6, 5, 5.00000000000000000000e-01) (6, 5, 5.00000000000000000000e-01) (6, 5, 5.00000000000000000000e-01) (6, 5, 5.00000000000000000000e-01) (6, 5, 5.00000000000000000000e-01) (6, 5, 5.00000000000000000000e-01) (6, 5, 5.00000000000000000000e-01) (6, 5, 5.00000000000000000000e-01) (6, 5, 5.00000000000000000000e-01) (6, 5, 5.00000000000000000000e-01) (6, 5, 5.00000000000000000000e-01) (6, 5, 5.00000000000000000000e-01) (6, 5, 5.00000000000000000000e-01) (6, 5, 5.00000000000000000000e-01) (6, 5, 5.00000000000000000000e-01) (6, 5, 5.00000000000000000000e-01) (6, 5, 5.00000000000000000000e-01) (6, 5, 5.00000000000000000000e-01) (6, 5, 5.00000000000000000000e-01) (6, 5, 5.00000000000000000000e-01) (6, 5, 5.00000000000000000000e-01) (6, 5, 5.00000000000000000000e-01) (6, 5, 5.00000000000000000000e-01) (6, 5, 5.00000000000000000000e-01) (6, 5, 5.00000000000000000000e-01) (6, 5, 5.00000000000000000000e-01) (6, 5, 5.00000000000000000000e-01) (6, 5, 5.00000000000000000000e-01) (6, 5, 5.00000000000000000000e-01) (6, 5, 5.00000000000000000000e-01) (6, 5, 5.00000000000000000000e-01) (6, 5, 5.00000000000000000000e-01) (6, 5, 5.00000000000000000000e-01) (6, 5, 5.00000000000000000000e-01) (6, 5, 5.00000000000000000000e-01) (6, 5, 5.00000000000000000000e-01) (6, 5, 5.00000000000000000000e-01) (6, 5, 5.00000000000000000000e-01) (6, 5, 5.00000000000000000000e-01) (6, 5, 5.00000000000000000000e-01) (6, 5, 5.00000000000000000000e-01) (6, 5, 5.00000000000000000000e-01) (6, 5, 5.00000000000000000000e-01) (6, 5, 5.00000000000000000000e-01) (6, 5, 5.00000000000000000000e-01) (6, 5, 5.00000000000000000000e-01) (6, 5, 5.00000000000000000000e-01) (6, 5, 5.00000000000000000000e-01) (6, 5, 5.00000000000000000000e-01) (6, 5, 5.00000000000000000000e-01) (6, 5, 5.00000000000000000000e-01) (6, 5, 5.00000000000000000000e-01) (6, 5, 5.00000000000000000000e-01) (6, 5, 5.00000000000000000000e-01) (6, 5, 5.00000000000000000000e-01) (6, 5, 5.00000000000000000000e-01) (6, 5, 5.00000000000000000000e-01) (6, 5, 5.00000000000000000000e-01) (6, 5, 5.00000000000000000000e-01) (6, 5, 5.00000000000000000000e-01) (6, 5, 5.00000000000000000000e-01) (6, 5, 5.00000000000000000000e-01) (6, 5, 5.00000000000000000000e-01) (0, 5, 0.00000000000000000000e+00) (26, 0, 5.00000000000000000000e-01) (26, 0, 5.00000000000000000000e-01) (26, 0, 5.00000000000000000000e-01) (26, 0, 5.00000000000000000000e-01) (0, 0, 0.00000000000000000000e+00)
connections (connected_to_neuron, weight)=(5, -2.08437353372573852539e-01) (3, 8.64428505301475524902e-02) (5, 5.19121885299682617188e-01) (1, 5.84370911121368408203e-01) (5, 2.07956418395042419434e-01) (0, 2.34982833266258239746e-01) (5, 1.82408881187438964844e+00) (3, -2.10923135280609130859e-01) (5, 8.21979045867919921875e-02) (0, -4.23010468482971191406e-01) (5, 2.20133066177368164062e-01) (3, 1.30994415283203125000e+00) (5, 4.66287761926651000977e-01) (2, 3.81709069013595581055e-01) (5, -2.31431543827056884766e-01) (0, 1.51917904615402221680e-01) (5, 1.38235688209533691406e+00) (3, 1.69257545471191406250e+00) (5, 1.30385768413543701172e+00) (2, 1.15869057178497314453e+00) (5, -1.22422754764556884766e+00) (2, 6.74607324600219726562e+00) (5, 1.46806150674819946289e-01) (3, -1.06149232387542724609e+00) (5, 5.12904822826385498047e-01) (3, -5.61399869620800018311e-02) (5, 3.52187693119049072266e-01) (1, 9.63071942329406738281e-01) (5, 6.38332843780517578125e-01) (2, 1.04523205757141113281e+00) (5, -5.37406682968139648438e-01) (1, -7.77920424938201904297e-01) (5, 2.52590745687484741211e-01) (1, 2.47511252760887145996e-01) (5, -7.40355432033538818359e-01) (3, -1.44062042236328125000e+00) (5, 5.54403901100158691406e-01) (0, 6.17804348468780517578e-01) (5, -3.72192323207855224609e-01) (1, 3.81258279085159301758e-01) (5, 1.22687637805938720703e+00) (2, 7.74930238723754882812e-01) (5, 3.93730103969573974609e-01) (2, -1.64827251434326171875e+00) (5, -1.51706516742706298828e+00) (0, 1.59320473670959472656e+00) (5, 1.52319288253784179688e+00) (3, -5.95441520214080810547e-01) (5, -1.13547056913375854492e-01) (0, -4.68502044677734375000e-01) (5, -1.23620908707380294800e-02) (3, 1.04509890079498291016e+00) (5, 1.87100782990455627441e-01) (2, -2.05605173110961914062e+00) (5, -1.22756019234657287598e-01) (1, 1.02790467441082000732e-01) (5, 7.43024110794067382812e-01) (3, 9.89172399044036865234e-01) (5, 8.48591923713684082031e-01) (1, -2.62468662112951278687e-02) (5, -8.08981955051422119141e-01) (0, -4.52047325670719146729e-02) (5, -3.99773764610290527344e+00) (1, -1.52664804458618164062e+00) (5, 1.01129198074340820312e+00) (0, 5.97502231597900390625e-01) (5, 6.85561001300811767578e-01) (3, 5.32387018203735351562e-01) (5, -1.66968405246734619141e+00) (3, 1.53861355781555175781e+00) (5, 6.39549672603607177734e-01) (1, 2.49355673789978027344e-01) (5, -5.09654223918914794922e-01) (1, 7.86742269992828369141e-01) (5, 1.77441215515136718750e+00) (3, -3.48065376281738281250e-01) (5, -2.92285561561584472656e-01) (0, -4.71193403005599975586e-01) (5, -2.58010101318359375000e+00) (1, -1.69748718261718750000e+02) (5, 1.53511059284210205078e+00) (1, 2.18688309192657470703e-01) (5, 6.11025989055633544922e-01) (1, 9.89380776882171630859e-01) (5, 6.12403392791748046875e-01) (0, 2.45180279016494750977e-01) (5, -6.53165280818939208984e-01) (1, -3.89634072780609130859e-01) (5, -7.50719308853149414062e-01) (3, -7.24776446819305419922e-01) (5, -1.91401147842407226562e+00) (3, -2.64667183160781860352e-01) (5, 1.70930480957031250000e+00) (1, -1.14244973659515380859e+00) (5, -1.03502726554870605469e+00) (1, 6.36872425675392150879e-02) (5, 7.83730626106262207031e-01) (0, -1.20409297943115234375e+00) (5, -1.10169374942779541016e+00) (2, -1.02261424064636230469e+00) (5, 7.73239493370056152344e-01) (1, 7.69337594509124755859e-01) (5, -7.46430754661560058594e-01) (1, 3.32786583900451660156e+00) (5, -4.22900587320327758789e-01) (3, -1.39137413352727890015e-02) (5, 1.52089655399322509766e-01) (2, 2.11472678184509277344e+00) (5, -8.59654486179351806641e-01) (2, -7.31650292873382568359e-01) (5, 3.34823951125144958496e-02) (1, 2.74106096476316452026e-02) (5, -5.24121940135955810547e-01) (3, -1.81351050734519958496e-01) (5, 6.00602388381958007812e-01) (1, -5.87643980979919433594e-01) (5, 3.48487615585327148438e-01) (0, 8.07638645172119140625e-01) (5, 6.06303215026855468750e-01) (3, 1.03181576728820800781e+00) (5, 4.38064956665039062500e+00) (0, 4.12084197998046875000e+00) (5, -7.64394775032997131348e-02) (3, -1.32568860054016113281e+00) (5, -4.83688831329345703125e-01) (0, 1.10821112990379333496e-01) (5, -1.03358376026153564453e+00) (1, 1.03444480895996093750e+00) (5, 1.01348912715911865234e+00) (2, -5.39048552513122558594e-01) (5, -2.90456920862197875977e-01) (1, 7.07842111587524414062e-01) (5, -2.57944166660308837891e-01) (2, -1.01242399215698242188e+00) (5, 1.14778769016265869141e+00) (0, -1.74921900033950805664e-01) (5, -9.11935567855834960938e-01) (1, 1.45235705375671386719e+00) (5, -5.96245348453521728516e-01) (4, 1.14275825023651123047e+00) (5, 8.80539044737815856934e-02) (1, 8.47761094570159912109e-01) (5, 3.76237809658050537109e-01) (4, 1.22805881500244140625e+00) (5, 3.00235390663146972656e-01) (4, -7.84148514270782470703e-01) (5, -3.52462291717529296875e-01) (2, -9.43917751312255859375e-01) (5, 2.92362475395202636719e+00) (3, -2.35608363151550292969e+00) (5, 4.10495400428771972656e-01) (1, -8.32788348197937011719e-01) (5, -3.32799732685089111328e-01) (0, -2.15281054377555847168e-01) (5, -8.07671070098876953125e-01) (2, -8.49105060100555419922e-01) (5, -7.23776280879974365234e-01) (1, -8.09876978397369384766e-01) (5, 9.10057067871093750000e-01) (4, 1.11645746231079101562e+00) (5, 1.33108809590339660645e-01) (4, -8.70296657085418701172e-01) (5, -5.71786642074584960938e-01) (3, 1.46631741523742675781e+00) (5, 7.50797092914581298828e-01) (0, 5.89863657951354980469e-01) (5, 7.37970620393753051758e-02) (2, -3.30479264259338378906e+00) (5, 2.34127593040466308594e+00) (3, -1.01731203496456146240e-01) (5, 8.56599688529968261719e-01) (2, -5.56626915931701660156e-01) (5, -1.89582094550132751465e-01) (1, -2.89452373981475830078e-01) (5, 9.04645264148712158203e-01) (1, -1.72110125422477722168e-01) (5, -3.96563917398452758789e-01) (1, 6.90690398216247558594e-01) (5, 1.05971753597259521484e+00) (4, 7.37548291683197021484e-01) (5, 7.42405951023101806641e-01) (3, -1.01968872547149658203e+00) (5, 4.27540481090545654297e-01) (4, -1.19024312496185302734e+00) (5, -2.69586350768804550171e-02) (1, -4.42031979560852050781e-01) (5, 1.49242073297500610352e-01) (4, 9.87607777118682861328e-01) (5, 5.46797990798950195312e-01) (1, -6.60098254680633544922e-01) (5, 1.04495906829833984375e+00) (1, -5.05525732040405273438e+00) (5, -3.99021923542022705078e-01) (3, 6.28837406635284423828e-01) (5, 1.04015266895294189453e+00) (1, -2.41699144244194030762e-01) (5, 6.45950615406036376953e-01) (1, 1.46525889635086059570e-01) (5, -1.51743543148040771484e+00) (2, -3.42034965753555297852e-01) (106, 5.78884966671466827393e-02) (37, 8.07683050632476806641e-01) (36, 5.37041246891021728516e-01) (42, 8.29386591911315917969e-01) (35, 1.05090343952178955078e+00) (49, 1.42342969775199890137e-01) (76, -7.23405957221984863281e-01) (7, -6.83478340506553649902e-02) (69, -8.56113061308860778809e-03) (102, -3.13566893339157104492e-01) (55, -8.68064522743225097656e-01) (106, -7.82661616802215576172e-01) (78, -1.24365103244781494141e+00) (99, 4.64268207550048828125e-01) (27, 2.28461533784866333008e-01) (82, 1.40985512733459472656e+00) (89, 1.62239587306976318359e+00) (61, -1.08742386102676391602e-01) (17, -1.97571337223052978516e+00) (83, 7.58256793022155761719e-01) (33, 7.89549648761749267578e-01) (73, -5.47111153602600097656e-01) (106, -3.33925485610961914062e-01) (32, -1.34988403320312500000e+00) (100, -4.39657680690288543701e-02) (13, -8.64571094512939453125e-01) (94, -1.30451932549476623535e-01) (8, 2.82463252544403076172e-01) (74, 4.32351738214492797852e-01) (58, -6.15702867507934570312e-01) (43, 1.04803121089935302734e+00) (90, -2.08146467804908752441e-01) (36, -4.58562254905700683594e-01) (106, -8.86228263378143310547e-01) (46, -8.52946102619171142578e-01) (47, -8.30106139183044433594e-02) (91, 2.71699577569961547852e-01) (60, 1.31441199779510498047e+00) (74, -1.97786614298820495605e-01) (84, 1.50284695625305175781e+00) (58, 1.47808015346527099609e+00) (30, 2.00068879127502441406e+00) (90, -6.54867172241210937500e-01) (7, 3.34975659847259521484e-01) (106, 3.06040376424789428711e-01) (28, -3.25836181640625000000e-01) (98, 9.15803670883178710938e-01) (74, 1.00293874740600585938e-01) (39, -4.29305344820022583008e-01) (49, 7.17021107673645019531e-01) (101, 8.85472655296325683594e-01) (83, 9.73375514149665832520e-02) (17, 4.96278226375579833984e-01) (26, -3.34230720996856689453e-01) (94, -3.31373363733291625977e-01) (106, 1.45560622215270996094e+00) (10, 4.14430126547813415527e-02) (22, 4.41450004577636718750e+01) (32, -1.24274563789367675781e+00) (29, 1.01652336120605468750e+00) (33, 4.83250468969345092773e-01) (74, -1.39103993773460388184e-01) (30, -4.32585060596466064453e-01) (9, 9.36597645282745361328e-01) (82, 2.06060439348220825195e-01) (80, 3.81415933370590209961e-01) (106, -6.17078363895416259766e-01) (70, 5.29982089996337890625e-01) (85, 4.19663399457931518555e-01) (90, 2.15216577053070068359e-01) (48, -1.27535447478294372559e-01) (19, -2.90481925010681152344e-01) (49, 6.36758888140320777893e-03) (31, -1.11571289598941802979e-01) (12, -3.64664363861083984375e+00) (73, 4.18052911758422851562e-01) (7, -1.93673104047775268555e-01) (106, 2.38467907905578613281e+00) (16, 1.51557159423828125000e+00) (43, 1.28376305103302001953e+00) (60, 5.52804231643676757812e+00) (75, -4.23602247238159179688e+00) (103, 1.58676791191101074219e+00) (80, 6.58801555633544921875e+00) (24, 2.32724785804748535156e+00) (18, 1.79647684097290039062e-01) (62, -4.18487161397933959961e-01) (28, -8.20746719837188720703e-01) (106, 7.02003657817840576172e-01) (7, 8.03849920630455017090e-02) (40, 6.00654542446136474609e-01) (52, 6.37334465980529785156e-01) (53, -6.19050920009613037109e-01) (66, 3.61550241708755493164e-01) (87, 1.15119481086730957031e+00) (54, 2.66955971717834472656e-01) (18, 1.76621580123901367188e+00) (69, -9.00235235691070556641e-01) (76, 5.49610435962677001953e-01) (106, 1.36637032032012939453e+00) (23, -9.30056929588317871094e-01) (57, 1.10580551624298095703e+00) (105, -6.75741672515869140625e-01) (98, -5.37946879863739013672e-01) (95, 9.20470118522644042969e-01) (92, 7.04734802246093750000e-01) (90, 8.46391916275024414062e-01) (65, 1.84863805770874023438e+00) (9, 9.69923794269561767578e-01) (87, 7.13037669658660888672e-01) (106, -8.13728719949722290039e-02) (11, 6.26519173383712768555e-02) (59, -5.24462640285491943359e-01) (62, -9.03408378362655639648e-02) (69, 6.42748653888702392578e-01) (102, 4.68870908021926879883e-01) (87, 2.05038949847221374512e-01) (54, 8.71765255928039550781e-01) (49, 8.94994199275970458984e-01) (6, 1.32568269968032836914e-01) (34, -3.09051394462585449219e-01) (106, 4.04409348964691162109e-01) (39, -8.72032880783081054688e-01) (97, 2.30413365364074707031e+00) (88, 1.28698214888572692871e-01) (79, 1.93487715721130371094e+00) (18, 1.33851456642150878906e+00) (68, 1.26338744163513183594e+00) (76, 8.48742365837097167969e-01) (27, 1.59876629710197448730e-01) (14, -6.94002389907836914062e-01) (17, 2.63697838783264160156e+00) (106, 2.99562692642211914062e-01) (80, -7.38478451967239379883e-02) (100, 1.14886140823364257812e+00) (26, -2.47895881533622741699e-01) (52, 4.53176826238632202148e-01) (89, 5.92904686927795410156e-01) (91, 7.65390300750732421875e+00) (21, 2.26991921663284301758e-01) (38, -1.07647514343261718750e+00) (59, -8.17309081554412841797e-01) (45, 1.38721632957458496094e+00) (106, -1.80109575390815734863e-01) (14, 6.31975233554840087891e-01) (21, -6.97523534297943115234e-01) (35, -1.72973826527595520020e-01) (84, -1.48178958892822265625e+00) (95, 1.84796512126922607422e+00) (40, -1.34294882416725158691e-01) (20, 1.03253126144409179688e+00) (22, 1.01840806007385253906e+00) (8, 7.88829863071441650391e-01) (67, 3.81757915019989013672e-02) (106, 1.16845524311065673828e+00) (19, 8.33859741687774658203e-01) (32, -1.79309606552124023438e+00) (95, 3.55051010847091674805e-01) (52, -9.62571144104003906250e-01) (49, 1.11843204498291015625e+00) (23, 2.22923845052719116211e-01) (41, 2.20678400993347167969e+00) (57, 9.53803718090057373047e-01) (67, 9.55604970455169677734e-01) (30, 1.44666528701782226562e+00) (106, -5.01367568969726562500e-01) (10, 1.40617144107818603516e+00) (16, 2.11699962615966796875e+00) (23, 2.53501510620117187500e+00) (48, 5.99672698974609375000e+00) (37, 1.95160913467407226562e+00) (63, 7.28217840194702148438e-01) (44, 6.35530889034271240234e-01) (41, 3.50771069526672363281e-01) (90, -4.21162366867065429688e-01) (47, 3.02096605300903320312e-01) (106, -3.63742560148239135742e-01) (29, -2.29058101773262023926e-01) (45, -3.04675847291946411133e-01) (68, 1.58926558494567871094e+00) (44, -6.22043490409851074219e-01) (39, -1.67115223407745361328e+00) (18, -2.49569267034530639648e-02) (51, 1.36848711967468261719e+00) (16, 5.03287613391876220703e-01) (67, 8.48966002464294433594e-01) (65, -7.76968836784362792969e-01) (106, -1.73915863037109375000e-01) (63, -9.73986923694610595703e-01) (46, -2.51030981540679931641e-01) (89, -7.39197611808776855469e-01) (13, 1.55897998809814453125e+00) (96, 3.11306297779083251953e-01) (41, 1.18399477005004882812e+00) (92, 3.80175620317459106445e-01) (35, 3.80176573991775512695e-01) (81, 1.20622444152832031250e+00) (26, 3.74755382537841796875e-01) (106, -5.87824225425720214844e-01) (26, 2.52531647682189941406e+00) (67, 4.36737871170043945312e+00) (21, 1.76470685005187988281e+00) (104, 7.12286889553070068359e-01) (102, -1.31995618343353271484e-01) (86, 3.36251664161682128906e+00) (95, -7.16469407081604003906e-01) (71, 1.33515524864196777344e+00) (100, 4.13379549980163574219e-01) (12, 2.22557902336120605469e+00) (106, 1.93708384037017822266e+00) (54, -8.83963465690612792969e-01) (21, -1.91758724395185709000e-03) (77, -4.12718132138252258301e-02) (95, 1.82193458080291748047e+00) (58, -6.07764571905136108398e-02) (34, 4.91758441925048828125e+00) (80, 2.10450482368469238281e+00) (69, 1.52311038970947265625e+00) (36, -8.18288385868072509766e-01) (22, 1.29156942367553710938e+01) (106, -1.66031277179718017578e+00) (93, -1.69787883758544921875e+00) (75, -5.86637830734252929688e+00) (19, 6.00727844238281250000e+00) (49, 6.11785984039306640625e+00) (81, -3.87552762031555175781e+00) (70, -3.99028301239013671875e+00) (54, 2.74413734674453735352e-01) (41, -6.90373849868774414062e+00) (36, 1.94965648651123046875e+00) (30, 1.13713097572326660156e+00) (106, -1.07218420505523681641e+00) (34, -7.67021703720092773438e+00) (44, 6.32397794723510742188e+00) (73, -9.32018220424652099609e-01) (9, -1.08375859260559082031e+00) (84, 6.81297445297241210938e+00) (93, -6.56562268733978271484e-01) (28, 2.16317391395568847656e+00) (43, -1.34764921665191650391e+00) (64, -8.29899549484252929688e-01) (24, -1.22790002822875976562e+00) (106, 5.22508144378662109375e-01) (47, 6.94750621914863586426e-02) (50, -3.77704739570617675781e+00) (52, 4.73207890987396240234e-01) (74, -7.09770321846008300781e-01) (85, 6.86308324337005615234e-01) (64, 1.79190468788146972656e+00) (57, 9.74818050861358642578e-01) (90, 1.94716167449951171875e+00) (63, 7.86931872367858886719e-01) (44, 4.33664828538894653320e-01) (106, 1.06062722206115722656e+00) (8, 1.99400007724761962891e+00) (61, 2.72074103355407714844e-01) (7, 1.42274177074432373047e+00) (47, 7.08776354789733886719e-01) (32, -1.15311133861541748047e+00) (68, -3.88881862163543701172e-01) (104, -3.70443426072597503662e-02) (54, 2.64522284269332885742e-01) (79, -1.26262009143829345703e+00) (83, -3.29847145080566406250e+00) (106, 1.48849391937255859375e+00) (18, -5.90440154075622558594e-01) (98, -1.71891903877258300781e+00) (17, -6.64615809917449951172e-01) (66, 3.63826632499694824219e-01) (11, 7.80725300312042236328e-01) (70, 9.04061734676361083984e-01) (40, 1.01143705844879150391e+00) (62, -4.03986841440200805664e-01) (100, -1.06773066520690917969e+00) (97, -8.57922852039337158203e-01) (106, -2.18482583761215209961e-01) (13, 6.99939608573913574219e-01) (64, -7.46507048606872558594e-01) (9, -1.04589962959289550781e+00) (71, 6.83040559291839599609e-01) (75, 2.10147643089294433594e+00) (18, 4.33743953704833984375e-01) (56, -1.39476925134658813477e-01) (11, 2.29910063743591308594e+00) (62, 6.03244900703430175781e-01) (72, 4.20731258392333984375e+00) (106, 1.73475492000579833984e+00) (15, 1.20262755081057548523e-03) (38, -6.44178271293640136719e-01) (46, 1.36349236965179443359e+00) (9, 4.58118647336959838867e-01) (77, -9.92817878723144531250e-01) (69, 1.03151464462280273438e+00) (7, -1.47840166091918945312e+00) (14, -8.52739036083221435547e-01) (105, -1.13468146324157714844e+00) (12, -7.71353989839553833008e-02) (106, -3.08945655822753906250e-01) (40, -7.68812179565429687500e-01) (58, 2.29484975337982177734e-01) (55, 3.71767699718475341797e-01) (62, 7.99915432929992675781e-01) (15, -8.23304280638694763184e-02) (28, -2.14575603604316711426e-02) (104, 6.78059160709381103516e-01) (80, 1.06055879592895507812e+00) (89, 1.91798245906829833984e+00) (86, 1.00068223476409912109e+00) (106, -9.44128751754760742188e-01) (24, -7.38877534866333007812e-01) (56, -3.40551435947418212891e-01) (88, 1.32270872592926025391e+00) (78, 4.07983779907226562500e+00) (69, -5.21013200283050537109e-01) (15, 3.16070675849914550781e+00) (17, 4.65594720840454101562e+00) (12, 5.64308977127075195312e+00) (62, 1.55338633060455322266e+00) (82, 9.21479642391204833984e-01) (106, -6.63457036018371582031e-01) (92, 6.24343872070312500000e+00) (63, -2.65238165855407714844e-01) (86, 2.24295511841773986816e-01) (39, -7.30718016624450683594e-01) (37, 1.47351598739624023438e+00) (14, 7.30325222015380859375e-01) (58, 3.32595169544219970703e-01) (68, 1.26932740211486816406e+00) (64, -8.29140126705169677734e-01) (31, -1.34046280384063720703e+00) (106, 9.18349802494049072266e-01) (33, -3.32076363265514373779e-02) (73, 7.04550683498382568359e-01) (79, -9.15075361728668212891e-01) (100, -1.51700079441070556641e-01) (94, -4.13319647312164306641e-01) (66, -2.55867630243301391602e-01) (96, 8.64463388919830322266e-01) (85, 8.81455093622207641602e-02) (87, -6.30371034145355224609e-01) (93, 1.62391617894172668457e-01) (106, 1.42444717884063720703e+00) (49, 7.79864549636840820312e-01) (50, -7.60758221149444580078e-01) (85, 1.80000722408294677734e+00) (72, 3.20660114288330078125e+00) (98, -5.42239665985107421875e-01) (91, 6.18811428546905517578e-01) (31, 1.02132415771484375000e+00) (34, 3.12023425102233886719e+00) (42, 8.59742105007171630859e-01) (26, -1.08727705478668212891e+00) (106, -4.57627624273300170898e-01) (15, -2.03923165798187255859e-01) (50, 6.75754010677337646484e-01) (39, 3.39441156387329101562e+00) (101, 6.61189126968383789062e+00) (103, -1.81675970554351806641e+00) (52, -1.30659985542297363281e+00) (63, -2.13360309600830078125e+01) (35, -2.66973763704299926758e-01) (37, 1.55227518081665039062e+00) (70, -1.21943407058715820312e+01) (106, -1.91843569278717041016e-01) (71, -3.03951787948608398438e+00) (80, 4.74484890699386596680e-01) (65, -5.31856715679168701172e-01) (14, 9.08427774906158447266e-01) (42, -4.80135798454284667969e-01) (11, -2.08662557601928710938e+00) (9, 1.00372195243835449219e+00) (90, 1.03821158409118652344e+00) (37, -5.94901084899902343750e-01) (21, -1.10115635395050048828e+00) (106, -3.43038961291313171387e-02) (81, 1.16584885120391845703e+00) (101, -1.41450852155685424805e-01) (57, 3.22722387313842773438e+00) (84, -2.61560106277465820312e+00) (12, 5.83067083358764648438e+00) (53, -1.30512658506631851196e-02) (34, 1.34648352861404418945e-01) (64, -2.90438145399093627930e-01) (19, 6.01883530616760253906e-01) (86, -6.94801092147827148438e+00) (106, 8.54927241802215576172e-01) (6, -3.41653436422348022461e-01) (76, 6.90398067235946655273e-02) (93, 4.86175417900085449219e-01) (94, 3.02379149943590164185e-02) (95, 6.85884773731231689453e-01) (48, 6.68416559696197509766e-01) (87, 4.42356139421463012695e-01) (99, 4.67561125755310058594e-01) (71, -2.28009939193725585938e-01) (53, -3.36456328630447387695e-01) (106, 4.05991613864898681641e-01) (17, 1.49823760986328125000e+00) (25, 4.45513665676116943359e-01) (88, -1.53890848159790039062e+00) (22, -8.62418532371520996094e-01) (93, 2.06584259867668151855e-01) (60, 9.80265557765960693359e-01) (6, 1.27655863761901855469e+00) (89, 1.64591193199157714844e-01) (39, 7.10967838764190673828e-01) (103, 1.01863873004913330078e+00) (106, -3.50920885801315307617e-01) (89, 1.36158239841461181641e+00) (31, 4.50530707836151123047e-01) (15, -2.16548919677734375000e+00) (77, 3.42124748229980468750e+00) (55, 6.59361600875854492188e+00) (80, -6.03673696517944335938e-01) (42, 1.09322786331176757812e+00) (14, 5.71954548358917236328e-01) (41, 3.65910083055496215820e-01) (87, 4.32499170303344726562e+00) (106, 1.99777632951736450195e-01) (12, 4.30489599704742431641e-01) (20, 2.98311495780944824219e+00) (13, 7.94143676757812500000e-01) (81, 1.58196717500686645508e-01) (28, -3.92675027251243591309e-02) (98, -5.15850707888603210449e-02) (63, -2.26760134100914001465e-01) (39, 1.79057121276855468750e-01) (49, -3.38055253028869628906e-01) (61, -1.53130814433097839355e-01) (106, 1.85014843940734863281e+00) (42, -1.43073844909667968750e+00) (77, -2.55951380729675292969e+00) (10, 5.00950098037719726562e-01) (88, 3.34957909584045410156e+00) (46, 1.70295274257659912109e+00) (87, 4.41936850547790527344e-01) (56, 1.00754344463348388672e+00) (91, 1.66987013816833496094e+00) (30, -3.88926744461059570312e+00) (73, 1.18922448158264160156e+00) (106, 3.98773521184921264648e-01) (36, 1.01974117755889892578e+00) (55, 2.08978629112243652344e+00) (94, 9.25244688987731933594e-01) (96, 2.08742573857307434082e-01) (27, 1.57332170009613037109e+00) (19, 3.01286667585372924805e-01) (40, 6.07303619384765625000e-01) (76, -7.97228738665580749512e-02) (60, -2.12103590369224548340e-01) (103, 5.45333027839660644531e-01) (106, 1.57425642013549804688e-01) (82, -3.69893878698348999023e-01) (87, -1.42209172248840332031e-01) (60, -5.97037188708782196045e-02) (74, -2.31309115886688232422e-01) (99, -5.15574336051940917969e-01) (40, -2.06603422760963439941e-01) (16, 6.53480708599090576172e-01) (33, 5.27782440185546875000e-01) (8, 1.03246808052062988281e+00) (49, 4.12209659814834594727e-01) (106, 6.86039030551910400391e-01) (27, 2.65177905559539794922e-01) (41, -1.21345150470733642578e+00) (65, -3.76453280448913574219e-01) (83, 4.33709812164306640625e+00) (35, 7.23008573055267333984e-01) (32, 1.93250298500061035156e+00) (60, 2.36627176403999328613e-01) (19, -1.37233781814575195312e+00) (29, 4.65297251939773559570e-02) (10, 2.89645290374755859375e+00) (106, 9.43102777004241943359e-01) (48, 7.42874026298522949219e-01) (51, -9.06513988971710205078e-01) (60, -5.20047724246978759766e-01) (42, 8.56086075305938720703e-01) (103, 1.43675327301025390625e+00) (98, -1.25282514095306396484e+00) (66, 1.26814365386962890625e+00) (47, 1.21986642479896545410e-01) (49, -3.78480076789855957031e-01) (24, -1.57430195808410644531e+00) (106, -5.94009399414062500000e-01) (83, 6.10806131362915039062e+00) (70, 5.08599802851676940918e-02) (95, 9.54772186279296875000e+00) (27, 1.19598615169525146484e+00) (28, 1.03588092327117919922e+00) (65, 8.95472717285156250000e+00) (19, 2.66804885864257812500e+00) (16, 2.49317359924316406250e+00) (92, 2.06716442108154296875e+00) (80, 7.73457467555999755859e-01) (106, 8.32909345626831054688e-02) (30, 1.98585700988769531250e+00) (31, 5.72592782974243164062e+00) (72, 4.98014354705810546875e+00) (90, -1.36751592159271240234e-01) (105, 1.46802067756652832031e+00) (22, -1.25360703468322753906e+00) (70, 1.05337500572204589844e+00) (62, 1.10628819465637207031e+00) (35, -1.44039228558540344238e-01) (29, -6.32498085498809814453e-01) (106, 1.68868815898895263672e+00) (74, 4.01172518730163574219e-01) (102, 1.07974815368652343750e+00) (103, 1.85944938659667968750e+00) (81, 4.04712885618209838867e-01) (68, -2.22426915168762207031e+00) (30, -6.92221522331237792969e-02) (53, -7.09413051605224609375e-01) (33, 3.80126908421516418457e-02) (24, 2.12589359283447265625e+00) (29, 1.92411768436431884766e+00) (106, 9.45279598236083984375e-01) (37, 6.15903079509735107422e-01) (58, 2.28137597441673278809e-01) (104, 8.64741265773773193359e-01) (21, 6.80586695671081542969e-01) (34, -1.08712865039706230164e-02) (87, 4.03225198388099670410e-02) (32, 4.15998578071594238281e-01) (11, -5.89001066982746124268e-02) (51, -5.29024675488471984863e-02) (66, 8.39748512953519821167e-03) (106, -1.02738583087921142578e+00) (9, -1.05133748054504394531e+00) (69, -2.24293291568756103516e-01) (103, -3.54845315217971801758e-01) (90, -6.00317120552062988281e-01) (25, 1.18115985393524169922e+00) (53, 1.45289528369903564453e+00) (37, 1.64429163932800292969e+00) (29, 3.01395714282989501953e-01) (42, 7.39136159420013427734e-01) (62, 9.92770910263061523438e-01) (106, 1.52715277671813964844e+00) (86, -9.91983354091644287109e-01) (97, -1.57839596271514892578e+00) (98, -5.50955116748809814453e-01) (84, 2.20691299438476562500e+00) (27, 3.01810669898986816406e+00) (94, 2.66300392150878906250e+00) (39, 4.05785560607910156250e+00) (14, -7.80742526054382324219e-01) (51, 1.80730938911437988281e-01) (68, -1.53684213757514953613e-01) (157, 2.51160562038421630859e-01) (120, 2.76849597692489624023e-01) (114, 7.44452774524688720703e-01) (149, 7.14813590049743652344e-01) (150, -3.06437671184539794922e-01) (124, 6.30770206451416015625e-01) (157, 1.67661964893341064453e+00) (108, -3.48090499639511108398e-01) (127, -2.84641444683074951172e-01) (153, 8.33725273609161376953e-01) (132, -3.27195048332214355469e-01) (113, 7.91230678558349609375e-01) (157, -5.27380585670471191406e-01) (142, -1.98560535907745361328e+00) (155, 9.42356526851654052734e-01) (136, 5.65756149590015411377e-02) (141, 8.57864022254943847656e-01) (109, 1.73431038856506347656e+00) (157, 1.52282643318176269531e+00) (132, -5.23985671997070312500e+00) (134, 5.32209062576293945312e+00) (120, 1.84338021278381347656e+00) (129, 9.08449113368988037109e-01) (130, -3.87374877929687500000e-01) (157, 1.34175217151641845703e+00) (141, 1.98375689983367919922e+00) (147, -1.88757503032684326172e+00) (136, -8.35529565811157226562e-01) (126, 1.60344266891479492188e+00) (129, 9.10921573638916015625e-01) (157, 4.39542472362518310547e-01) (154, 1.02526795864105224609e+00) (116, 8.88237297534942626953e-01) (113, -5.73289203643798828125e+00) (125, 9.30502712726593017578e-01) (127, 7.00632408261299133301e-02) (157, -7.63378262519836425781e-01) (152, 1.85543894767761230469e+00) (115, 5.38569986820220947266e-01) (145, -7.52239286899566650391e-01) (121, -1.23210275173187255859e+00) (153, -4.09532368183135986328e-01) (157, -1.40953171253204345703e+00) (124, 3.34119468927383422852e-01) (120, 2.28041950613260269165e-02) (133, -2.16652438044548034668e-01) (134, 5.83346486091613769531e-01) (114, -6.82933390140533447266e-01) (157, -7.37023293972015380859e-01) (136, 4.38120692968368530273e-01) (130, -8.37171137332916259766e-01) (153, -1.36619180440902709961e-01) (118, 8.40620756149291992188e-01) (140, -3.64080756902694702148e-01) (157, 1.34237086772918701172e+00) (136, -1.99276074767112731934e-01) (148, 5.55396974086761474609e-01) (110, 1.83413550257682800293e-02) (141, 8.63852918148040771484e-01) (146, 8.44107806682586669922e-01) (157, -8.24701905250549316406e-01) (119, 2.99386501312255859375e-01) (113, -3.10874525457620620728e-02) (147, 1.60926610231399536133e-01) (118, 7.64371037483215332031e-01) (133, -4.65014755725860595703e-01) (157, 1.61265754699707031250e+00) (124, 6.55249178409576416016e-01) (129, 3.66716355085372924805e-01) (127, 9.09976214170455932617e-02) (112, 1.44671249389648437500e+00) (122, -8.28654527664184570312e-01) (157, 9.44117784500122070312e-01) (111, -1.79941207170486450195e-01) (114, 1.45135092735290527344e+00) (130, 8.23890388011932373047e-01) (152, -2.13793468475341796875e+00) (149, 8.45998227596282958984e-01) (157, -3.45168590545654296875e-01) (151, -1.46487057209014892578e+00) (132, -1.02822892367839813232e-01) (142, -4.63850557804107666016e-01) (119, 4.43082936108112335205e-02) (127, 5.66324710845947265625e-01) (157, -7.71152973175048828125e-02) (115, -4.47500675916671752930e-01) (150, 7.63484597206115722656e-01) (145, 2.10744589567184448242e-01) (135, 4.02476072311401367188e-01) (117, 2.22722887992858886719e+00) (157, -4.61098521947860717773e-01) (131, -2.01512351632118225098e-01) (123, 5.40134811401367187500e+00) (139, 1.35439765453338623047e+00) (119, -4.35158252716064453125e-01) (110, 3.64630532264709472656e+00) (157, 1.41734397411346435547e+00) (143, 8.49319279193878173828e-01) (134, -6.49737417697906494141e-01) (140, -3.42490673065185546875e-01) (155, -6.05223402380943298340e-02) (137, 1.72378540039062500000e+00) (157, 1.16390752792358398438e+00) (147, 2.94037282466888427734e-01) (122, 1.06411087512969970703e+00) (126, 2.37163469195365905762e-01) (138, 6.38301908969879150391e-01) (140, 4.86960649490356445312e-01) (157, 8.56015503406524658203e-01) (113, -2.41558849811553955078e-01) (151, 1.11731970310211181641e+00) (146, 3.15661042928695678711e-01) (135, -1.10692191123962402344e+00) (134, 1.30174434185028076172e+00) (157, 1.99863180518150329590e-01) (155, 1.92738902568817138672e+00) (143, -3.36284399032592773438e-01) (110, 1.62049090862274169922e+00) (116, -1.48866379261016845703e+00) (146, -1.13359045982360839844e+00) (157, 4.17140461504459381104e-02) (113, 3.88909816741943359375e-01) (139, 6.19832947850227355957e-02) (124, 1.04750776290893554688e+00) (122, -7.21163034439086914062e-01) (142, 9.93096709251403808594e-01) (157, 2.72872185707092285156e+00) (135, -4.20447063446044921875e+00) (118, 1.02508699893951416016e+00) (109, -1.10429964959621429443e-01) (143, 1.27424824237823486328e+00) (130, 1.67971879243850708008e-01) (157, 1.15272140502929687500e+00) (146, 3.62321078777313232422e-01) (155, -9.26653802394866943359e-01) (141, 9.54878866672515869141e-01) (139, -1.64396256208419799805e-01) (137, 9.22563314437866210938e-01) (157, -9.16260123252868652344e-01) (111, 3.62082743644714355469e+00) (129, -3.26364099979400634766e-01) (115, -4.82222890853881835938e+00) (108, -5.31099557876586914062e+00) (136, 1.30778312683105468750e+00) (157, -2.44716271758079528809e-01) (129, 5.64649462699890136719e-01) (131, 1.35500147938728332520e-01) (116, 1.17912900447845458984e+00) (137, 1.14608249664306640625e+01) (114, 5.38186252117156982422e-01) (157, 1.11372518539428710938e+00) (135, 6.81863903999328613281e-01) (121, 1.89443647861480712891e-01) (149, -2.93906599283218383789e-01) (148, 1.69122958183288574219e+00) (111, -3.35211828351020812988e-02) (157, 2.01374460011720657349e-02) (145, -4.63223099708557128906e-01) (151, 3.95374983549118041992e-01) (156, 2.25913882255554199219e+00) (146, 8.34668457508087158203e-01) (123, 4.23205532133579254150e-02) (157, 9.32920813560485839844e-01) (117, -1.53470020741224288940e-02) (139, -6.10269546508789062500e-01) (156, 2.06285834312438964844e+00) (154, 3.13361859321594238281e+00) (122, 6.05065643787384033203e-01) (157, -3.17887872457504272461e-01) (154, -4.96627181768417358398e-01) (126, 1.21502898633480072021e-01) (128, 3.76757889986038208008e-01) (123, -3.25397580862045288086e-01) (131, 1.13117003440856933594e+00) (157, 1.38544046878814697266e+00) (140, -3.61028939485549926758e-01) (110, 4.17094826698303222656e-01) (153, 9.82524096965789794922e-01) (148, -1.35626375675201416016e-01) (145, 1.77687132358551025391e+00) (157, 7.54366993904113769531e-01) (115, 8.52091550827026367188e-01) (136, -4.54733490943908691406e-01) (134, -6.98591709136962890625e-01) (146, -4.09441024065017700195e-01) (127, -1.29354475066065788269e-02) (157, -9.88810002803802490234e-01) (153, -5.84767818450927734375e-01) (155, 4.50479477643966674805e-01) (143, -3.90777550637722015381e-02) (120, -6.30368173122406005859e-01) (129, 1.25021672248840332031e+00) (157, 4.30295497179031372070e-01) (140, -2.11794432252645492554e-02) (143, -4.89651888608932495117e-01) (109, 1.15054070949554443359e-01) (110, 5.54188340902328491211e-03) (116, 1.38052618503570556641e+00) (157, -1.47022533416748046875e+00) (128, 1.99680650234222412109e+00) (149, -3.76455473899841308594e+00) (143, -6.42868995666503906250e-01) (133, -4.18645715713500976562e+00) (152, 5.38366603851318359375e+00) (157, -9.17553007602691650391e-01) (114, -1.76233112812042236328e-01) (141, 1.28850448131561279297e+00) (146, -1.43513691425323486328e+00) (120, -3.70950430631637573242e-01) (122, 1.28706645965576171875e+00) (157, -4.09137874841690063477e-01) (142, -1.19464254379272460938e+00) (140, -5.33753633499145507812e-01) (130, -1.85334658622741699219e+00) (113, 8.81935417652130126953e-01) (148, -2.62009412050247192383e-01) (157, 4.61089789867401123047e-01) (111, -1.97452619671821594238e-01) (138, 1.75818216800689697266e+00) (128, -9.91374850273132324219e-01) (123, -1.27404892444610595703e+00) (133, 1.63389849662780761719e+00) (157, -7.78987944126129150391e-01) (131, -1.08394491672515869141e+00) (153, -7.81011760234832763672e-01) (155, 2.02943062782287597656e+00) (112, -1.01781666278839111328e+00) (113, 4.49079132080078125000e+00) (157, 1.94378721714019775391e+00) (154, 1.83792603015899658203e+00) (145, 4.82501220703125000000e+00) (128, -4.31718409061431884766e-01) (151, 4.47565644979476928711e-01) (144, -1.72333836555480957031e+00) (157, 1.04761385917663574219e+00) (151, 3.60206067562103271484e-02) (137, 5.04937946796417236328e-01) (116, 6.03972673416137695312e-01) (153, -1.87484920024871826172e-01) (113, -6.06525480747222900391e-01) (157, 4.26185131072998046875e-01) (145, 8.34303498268127441406e-01) (108, 4.48984831571578979492e-01) (143, -1.09982170164585113525e-01) (114, -2.73442447185516357422e-01) (129, -2.31258988380432128906e-01) (157, -4.20102290809154510498e-02) (150, -7.16723680496215820312e-01) (120, 1.53777256608009338379e-01) (134, 3.01173949241638183594e+00) (110, 5.76669991016387939453e-01) (142, -3.85421246290206909180e-01) (157, 1.24744713306427001953e+00) (148, 7.42962789535522460938e+00) (131, 2.31232494115829467773e-01) (125, 1.40537083148956298828e+00) (109, 1.85516202449798583984e+00) (155, -3.42689692974090576172e-01) (157, 4.55378055572509765625e-01) (111, 6.27226233482360839844e-01) (121, 4.93249386548995971680e-01) (154, 1.08824729919433593750e-01) (130, 1.00457370281219482422e+00) (113, -7.77565896511077880859e-01) (157, 8.65898966789245605469e-01) (155, 7.72958934307098388672e-01) (132, 1.17869138717651367188e+00) (150, 5.99063158035278320312e-01) (143, 7.15289533138275146484e-01) (126, -4.13277626037597656250e-01) (157, 1.14526724815368652344e+00) (133, 7.83991217613220214844e-01) (142, 1.50713264942169189453e+00) (126, 1.27717268466949462891e+00) (128, -2.98763304948806762695e-01) (155, -2.87709664553403854370e-02) (157, 1.55149257183074951172e+00) (121, -3.75580596923828125000e+00) (124, 4.49160695075988769531e-01) (118, -6.25956952571868896484e-02) (152, 9.91616153717041015625e+00) (143, 6.79825687408447265625e+00) (157, -2.92932689189910888672e-01) (140, 1.96593165397644042969e-01) (129, 3.59099209308624267578e-01) (108, 7.50080943107604980469e-01) (143, 1.40489637851715087891e+00) (139, 7.92862117290496826172e-01) (157, 7.43822455406188964844e-01) (148, 6.82937502861022949219e-01) (132, -4.03548091650009155273e-01) (136, 1.86373993754386901855e-01) (107, 3.33512902259826660156e-01) (134, -9.18807804584503173828e-01) (157, -5.67020326852798461914e-02) (112, -2.58014380931854248047e-01) (124, 2.87606328725814819336e-01) (132, -4.37792330980300903320e-01) (142, -2.46799349784851074219e+00) (122, -1.56076299026608467102e-02) (157, 3.89191418886184692383e-01) (122, 9.81343805789947509766e-01) (129, 1.43015354871749877930e-01) (132, 4.67985916137695312500e+00) (153, -3.09313476085662841797e-01) (119, 3.66848230361938476562e-01) (157, -3.33118468523025512695e-01) (154, -2.48221890069544315338e-03) (145, 9.58005309104919433594e-01) (109, 9.81908261775970458984e-01) (116, -1.02105295658111572266e+00) (128, 1.26677966117858886719e+00) (157, -8.72265577316284179688e-01) (129, -7.34934806823730468750e-02) (107, 1.72831133008003234863e-01) (141, 7.70783901214599609375e-01) (143, -5.64638555049896240234e-01) (153, -8.62545847892761230469e-01) (157, -7.96476662158966064453e-01) (108, 1.48174157714843750000e+03) (133, -3.58252435922622680664e-01) (137, -2.37192368507385253906e+00) (129, 6.93917348980903625488e-02) (143, -9.62215781211853027344e-01) (157, 1.11038172245025634766e+00) (147, -1.44434964656829833984e+00) (135, 1.74618854522705078125e+01) (132, 9.20140171051025390625e+00) (134, -3.47557812929153442383e-01) (145, 2.79782176017761230469e+00) (157, 5.89952915906906127930e-02) (109, 6.71621620655059814453e-01) (113, -1.86725604534149169922e+00) (153, 1.30120146274566650391e+00) (121, -1.93606063723564147949e-01) (127, 1.03132212162017822266e+00) (157, 1.46698251366615295410e-01) (137, -2.46229380369186401367e-01) (147, 4.85614359378814697266e-01) (149, -3.36240261793136596680e-01) (117, 6.16601049900054931641e-01) (126, -6.41188979148864746094e-01) (157, 7.34179437160491943359e-01) (138, 3.88499587774276733398e-01) (121, 1.47641706466674804688e+00) (128, -9.61513280868530273438e-01) (151, 4.51083451509475708008e-01) (119, 7.26303339004516601562e-01) (157, 2.82194852828979492188e-01) (118, -1.10938429832458496094e+00) (121, 3.51789444684982299805e-01) (126, 8.03730726242065429688e-01) (109, 2.71329134702682495117e-01) (114, 1.30733931064605712891e+00) (157, -6.30260229110717773438e-01) (136, 5.41793286800384521484e-01) (111, 6.75196409225463867188e-01) (121, 1.36980324983596801758e-01) (127, 7.33208000659942626953e-01) (110, 1.03612792491912841797e+00) (157, 1.71707201004028320312e+00) (143, 5.48808276653289794922e-01) (146, 6.33236765861511230469e-01) (131, 1.31148815155029296875e+00) (149, 8.68343412876129150391e-01) (150, 1.15706539154052734375e+00) (157, -9.84485387802124023438e-01) (109, 6.15716576576232910156e-01) (131, -1.66473221778869628906e+00) (153, -2.43655055761337280273e-01) (134, 1.23413515090942382812e+00) (139, -4.84453231096267700195e-01) (157, 1.22216641902923583984e+00) (121, -1.20845541823655366898e-03) (135, -2.20274090766906738281e+00) (111, -5.61319887638092041016e-01) (149, 3.48763048648834228516e-01) (125, -7.35187649726867675781e-01) (157, 1.40097832679748535156e+00) (107, 7.30585515499114990234e-01) (127, -2.95185953378677368164e-01) (125, 3.36823463439941406250e-01) (120, -6.60191923379898071289e-02) (128, 5.64933359622955322266e-01) (157, 1.45263895392417907715e-01) (146, 6.11790418624877929688e-01) (132, -5.19677758216857910156e-01) (120, -9.54687178134918212891e-01) (133, 1.27443492412567138672e+00) (135, -5.82287549972534179688e-01) (157, -4.70020145177841186523e-01) (120, 2.96576321125030517578e-01) (117, 1.40079581737518310547e+00) (124, 6.28329440951347351074e-02) (144, 1.84747636318206787109e+00) (126, -1.12646967172622680664e-02) (157, -6.90519154071807861328e-01) (126, 2.66342997550964355469e-01) (131, 3.61461527645587921143e-02) (120, 1.69000017642974853516e+00) (108, 6.29887390136718750000e+00) (128, 6.70768737792968750000e-01) (157, 1.48247838020324707031e+00) (115, 6.72682225704193115234e-01) (137, 1.81606841087341308594e+00) (111, -1.25969934463500976562e+00) (112, 1.55379223823547363281e+00) (146, 1.68970668315887451172e+00) (157, 4.67233508825302124023e-01) (134, -4.04880970716476440430e-01) (126, 5.16196668148040771484e-01) (111, 4.24466282129287719727e-02) (121, 6.25949859619140625000e-01) (117, -1.49157834053039550781e+00) (157, 5.14741778373718261719e-01) (138, 8.97614359855651855469e-01) (144, 5.51652789115905761719e-01) (108, 9.22720413655042648315e-03) (145, 8.73391449451446533203e-01) (109, 7.27389872074127197266e-01) (157, 4.69983816146850585938e-02) (126, -6.65047109127044677734e-01) (136, 7.17704772949218750000e-01) (125, 1.15425860881805419922e+00) (148, -2.66926079988479614258e-01) (137, -7.82675296068191528320e-02) (157, 1.32227897644042968750e+00) (149, 2.33531787991523742676e-01) (145, 2.47984981536865234375e+00) (121, 1.41612005233764648438e+00) (133, 5.04080533981323242188e-01) (114, 1.58080327510833740234e+00) (157, -8.82283568382263183594e-01) (154, 1.85115382075309753418e-01) (143, 2.62932270765304565430e-01) (120, -5.39030671119689941406e-01) (141, 2.57740765810012817383e-01) (118, 1.53082156181335449219e+00) (157, -1.10695064067840576172e+00) (107, 3.33585500717163085938e-01) (113, 5.80083429813385009766e-01) (130, -8.99576842784881591797e-01) (124, -2.75484114885330200195e-01) (108, 7.68617987632751464844e-01) (157, 1.02247941493988037109e+00) (118, -3.81863474845886230469e-01) (127, -4.36323136091232299805e-01) (116, 1.22549152374267578125e+00) (155, 8.82062464952468872070e-02) (133, 1.30940783023834228516e+00) (157, 1.14863872528076171875e+00) (120, 2.07362815737724304199e-01) (131, 3.42438673973083496094e+00) (152, -1.35853278636932373047e+00) (117, -1.37516140937805175781e+00) (114, 1.67119789123535156250e+00) (157, 1.41696488857269287109e+00) (135, -6.69090092182159423828e-01) (117, -4.28013682365417480469e-01) (133, 1.44596660137176513672e+00) (129, -5.03818273544311523438e-01) (118, 4.21707555651664733887e-02) (157, 9.17040348052978515625e-01) (130, 1.12008142471313476562e+00) (135, -2.13416934013366699219e+00) (132, 7.96565175056457519531e-01) (112, 9.81825232505798339844e-01) (108, -1.67678758502006530762e-01) (157, -6.90497636795043945312e-01) (116, 1.65185313671827316284e-02) (114, 1.09895038604736328125e+00) (124, 1.10689856112003326416e-01) (153, 3.50298494100570678711e-01) (142, 9.87811386585235595703e-01) (157, 4.23231482505798339844e-01) (129, -2.51767247915267944336e-01) (109, 8.26588690280914306641e-01) (114, -5.12518286705017089844e-01) (153, -1.74576397985219955444e-02) (151, 1.35235631465911865234e+00) (157, 6.05495095252990722656e-01) (120, -8.05621266365051269531e-01) (123, -1.01510059833526611328e+00) (138, 6.31388664245605468750e-01) (118, 5.52716813981533050537e-02) (132, -5.88717043399810791016e-01) (157, 1.88304626941680908203e+00) (144, -2.26435136795043945312e+00) (123, 2.31272250413894653320e-01) (146, 1.22057867050170898438e+00) (115, 2.35358446836471557617e-01) (130, -1.97681295871734619141e+00) (157, 1.18398988246917724609e+00) (125, -8.42733263969421386719e-01) (108, 6.54543101787567138672e-01) (152, 4.44416701793670654297e-03) (116, 4.06931787729263305664e-01) (112, -1.85318246483802795410e-01) (157, -5.38281679153442382812e-01) (112, -5.11133372783660888672e-01) (151, -1.50524107739329338074e-02) (109, -1.08714497089385986328e+00) (125, 4.72149848937988281250e-01) (133, 5.41871905326843261719e-01) (157, 1.34149491786956787109e+00) (136, -3.71839553117752075195e-01) (147, -4.59197640419006347656e-01) (123, -2.73382782936096191406e-01) (113, -4.24895435571670532227e-01) (133, 9.01463389396667480469e-01) (157, -6.33820831775665283203e-01) (116, -8.23527157306671142578e-01) (132, -5.42468786239624023438e-01) (133, -1.98540091514587402344e+00) (109, 4.69139903783798217773e-01) (144, 1.45007312297821044922e+00) (157, -1.14012742042541503906e+00) (124, 2.91381090879440307617e-01) (120, -2.60324388742446899414e-01) (129, -5.48674464225769042969e-01) (147, 3.39823246002197265625e-01) (140, 3.15884828567504882812e-01) (157, 1.80010020732879638672e+00) (110, -1.05200099945068359375e+00) (129, 1.00942122936248779297e+00) (143, 3.41121703386306762695e-01) (123, -1.35453319549560546875e+00) (138, 1.36147177219390869141e+00) (157, 2.15967878699302673340e-01) (143, 5.13531304895877838135e-02) (120, -7.06738471984863281250e-01) (115, -1.00798241794109344482e-01) (110, -1.04932188987731933594e+00) (109, 1.61227858066558837891e+00) (157, 1.67805862426757812500e+00) (110, 1.38789089396595954895e-02) (130, -1.46426811814308166504e-01) (137, 7.57550418376922607422e-01) (120, 1.31307527422904968262e-01) (135, -2.11716532707214355469e+00) (157, 1.79910704493522644043e-01) (123, -4.05141681432723999023e-01) (140, 5.47676026821136474609e-01) (144, -2.63219699859619140625e+01) (150, 6.72434344887733459473e-02) (151, -5.97375154495239257812e-01) (157, 9.85260307788848876953e-01) (156, 1.56650567054748535156e+00) (149, 7.43571460247039794922e-01) (142, 5.00756263732910156250e-01) (148, -6.26487657427787780762e-02) (128, -1.85782417654991149902e-01) (157, 4.33047562837600708008e-01) (113, -2.59636545181274414062e+00) (122, -4.82590168714523315430e-01) (144, 1.78197498321533203125e+01) (127, 6.04487121105194091797e-01) (125, 1.31189024448394775391e+00) (157, -1.65093198418617248535e-01) (153, -1.44185647368431091309e-01) (130, 9.33301866054534912109e-01) (124, -1.41477155685424804688e+00) (133, 2.54890370368957519531e+00) (123, -6.43148303031921386719e-01) (157, -3.43604147434234619141e-01) (117, 7.43883490562438964844e-01) (133, -9.10093665122985839844e-01) (143, 8.26675772666931152344e-01) (124, 1.04115331172943115234e+00) (145, -5.16957819461822509766e-01) (157, -5.17648737877607345581e-03) (127, 2.98860621452331542969e+00) (114, -6.09031677246093750000e-01) (112, -8.84852185845375061035e-02) (140, -5.32750129699707031250e-01) (145, 4.79518145322799682617e-01) (157, 6.10181152820587158203e-01) (129, -6.93530291318893432617e-02) (150, 1.00540542602539062500e+00) (145, 1.69775235652923583984e+00) (133, 1.19193530082702636719e+00) (128, -7.00524568557739257812e-01) (157, -8.80760252475738525391e-01) (145, -2.81078338623046875000e-01) (121, -4.59407359361648559570e-01) (116, 1.04421220719814300537e-01) (152, 7.39205956459045410156e-01) (115, -2.29850232601165771484e-01) (157, -9.53777492046356201172e-01) (111, 2.17324542999267578125e+00) (138, -3.45593547821044921875e+00) (121, -4.09659773111343383789e-01) (117, 7.99312770366668701172e-01) (125, 1.11827886104583740234e+00) (157, -7.97617912292480468750e-01) (142, 4.65597808361053466797e-01) (150, 1.15554966032505035400e-01) (154, 5.26158630847930908203e-01) (130, 7.18275159597396850586e-02) (134, -5.49983559176325798035e-03) (258, 1.03083550930023193359e+00) (166, -9.58243906497955322266e-01) (175, 1.13402843475341796875e+00) (190, 7.78370022773742675781e-01) (203, 7.13583171367645263672e-01) (212, -6.95160031318664550781e-01) (214, -3.12924742698669433594e-01) (222, 5.05441367626190185547e-01) (223, -1.25168991088867187500e+00) (224, -6.79979085922241210938e-01) (228, -6.62232160568237304688e-01) (232, 1.04763650894165039062e+00) (233, 1.14718389511108398438e+00) (234, 7.30019569396972656250e-01) (235, 1.21777236461639404297e+00) (236, 3.12307476997375488281e-01) (237, 8.04364383220672607422e-01) (238, 1.20173013210296630859e+00) (240, 4.18591201305389404297e-01) (241, -8.49105834960937500000e-01) (248, 1.52105569839477539062e+00) (249, 1.00311803817749023438e+00) (251, 3.83825659751892089844e-01) (252, -3.65979939699172973633e-01) (255, -1.00501549243927001953e+00) (257, -7.06797599792480468750e-01) (258, 8.93600106239318847656e-01) (158, 3.47679495811462402344e-01) (160, -2.52410620450973510742e-01) (167, 1.26923441886901855469e+00) (170, 1.00382471084594726562e+00) (172, -1.89603835344314575195e-01) (176, 1.00279867649078369141e+00) (178, 1.00691902637481689453e+00) (183, 1.41479349136352539062e+00) (184, 5.40030062198638916016e-01) (187, 1.46784126758575439453e+00) (189, -2.75027602910995483398e-01) (197, 7.11243093013763427734e-01) (201, 3.39111506938934326172e-01) (204, -2.15280994772911071777e-01) (206, 1.49148106575012207031e+00) (208, -4.92020547389984130859e-01) (209, -8.80269944667816162109e-01) (210, -1.10687398910522460938e+00) (211, -1.31783914566040039062e+00) (213, 2.77883172035217285156e-01) (215, 1.30886948108673095703e+00) (216, 8.81650924682617187500e-01) (219, -5.22125780582427978516e-01) (220, 1.96745526790618896484e+00) (221, 1.00755870342254638672e+00) (258, 1.85176408290863037109e+00) (161, 1.20353424549102783203e+00) (162, 8.83439123630523681641e-01) (163, 1.07047274708747863770e-01) (164, -7.56688952445983886719e-01) (165, -1.29077637195587158203e+00) (168, -2.47875046730041503906e+00) (169, 1.94326090812683105469e+00) (171, -5.53108990192413330078e-01) (173, -6.18854939937591552734e-01) (174, 1.11262178421020507812e+00) (177, -1.33627998828887939453e+00) (179, 1.29551541805267333984e+00) (181, -3.36700052022933959961e-01) (182, 3.02472591400146484375e-01) (185, 1.23600089550018310547e+00) (186, 3.86077702045440673828e-01) (188, 5.01939356327056884766e-01) (191, -1.38797247409820556641e+00) (192, -6.33038878440856933594e-01) (193, -3.17114233970642089844e-01) (194, 7.27745652198791503906e-01) (195, -1.28366768360137939453e+00) (196, 1.87256848812103271484e+00) (199, -6.11958384513854980469e-01) (202, -2.79751491546630859375e+00) (258, 4.33091074228286743164e-01) (159, 1.59235370159149169922e+00) (180, 1.24677670001983642578e+00) (198, 3.91804397106170654297e-01) (200, 5.95568478107452392578e-01) (205, -1.29881635308265686035e-01) (207, -5.25435268878936767578e-01) (217, -8.10110747814178466797e-01) (218, 1.82814657688140869141e+00) (225, 1.14191651344299316406e+00) (226, 1.03644955158233642578e+00) (227, 1.02169311046600341797e+00) (229, 1.25761759281158447266e+00) (230, -1.19411873817443847656e+00) (231, -9.49493288993835449219e-01) (239, 1.67280018329620361328e+00) (242, 1.08803415298461914062e+00) (243, -1.37575411796569824219e+00) (244, -5.55916786193847656250e-01) (245, 1.62799382209777832031e+00) (246, 7.43158221244812011719e-01) (247, 2.23168873786926269531e+00) (250, -9.14197981357574462891e-01) (253, -4.40172702074050903320e-01) (254, 1.03568696975708007812e+00) (256, -1.56675323843955993652e-01)
input_names='betan' 'delta' 'kappa' 'neped' 'zeffped'
output_names='OUT_p_E1' 'OUT_ptop_E1' 'OUT_wid_E1' 'OUT_widtop_E1'
MSE= 0.0234124381095