FANN_FLO_2.1
num_layers=5
learning_rate=0.700000
connection_rate=0.084483
network_type=0
learning_momentum=0.000000
training_algorithm=2
train_error_function=0
train_stop_function=0
cascade_output_change_fraction=0.010000
quickprop_decay=0.383488
quickprop_mu=1.750000
rprop_increase_factor=1.200000
rprop_decrease_factor=0.500000
rprop_delta_min=0.000000
rprop_delta_max=50.000000
rprop_delta_zero=0.100000
cascade_output_stagnation_epochs=12
cascade_candidate_change_fraction=0.010000
cascade_candidate_stagnation_epochs=12
cascade_max_out_epochs=150
cascade_min_out_epochs=50
cascade_max_cand_epochs=150
cascade_min_cand_epochs=50
cascade_num_candidate_groups=2
bit_fail_limit=3.49999994039535522461e-01
cascade_candidate_limit=1.00000000000000000000e+03
cascade_weight_multiplier=4.00000005960464477539e-01
cascade_activation_functions_count=10
cascade_activation_functions=3 5 7 8 10 11 14 15 16 17
cascade_activation_steepnesses_count=4
cascade_activation_steepnesses=2.50000000000000000000e-01 5.00000000000000000000e-01 7.50000000000000000000e-01 1.00000000000000000000e+00
layer_sizes=6 101 21 101 6
scale_included=1
scale_mean_in=1.803713 0.467937 1.792110 7.905148 1.790633
scale_deviation_in=0.145491 0.016728 0.078749 1.863366 0.386662
scale_new_min_in=-1.000000 -1.000000 -1.000000 -1.000000 -1.000000
scale_factor_in=1.000000 1.000000 1.000000 1.000000 1.000000
scale_mean_out=0.680305 0.076037 0.096438 0.031690 0.047536
scale_deviation_out=0.108780 0.012157 0.015354 0.003163 0.004744
scale_new_min_out=-1.000000 -1.000000 -1.000000 -1.000000 -1.000000
scale_factor_out=1.000000 1.000000 1.000000 1.000000 1.000000
neurons (num_inputs, activation_function, activation_steepness)=(0, 0, 0.00000000000000000000e+00) (0, 0, 0.00000000000000000000e+00) (0, 0, 0.00000000000000000000e+00) (0, 0, 0.00000000000000000000e+00) (0, 0, 0.00000000000000000000e+00) (0, 0, 0.00000000000000000000e+00) (2, 5, 5.00000000000000000000e-01) (2, 5, 5.00000000000000000000e-01) (2, 5, 5.00000000000000000000e-01) (2, 5, 5.00000000000000000000e-01) (2, 5, 5.00000000000000000000e-01) (2, 5, 5.00000000000000000000e-01) (2, 5, 5.00000000000000000000e-01) (2, 5, 5.00000000000000000000e-01) (2, 5, 5.00000000000000000000e-01) (2, 5, 5.00000000000000000000e-01) (2, 5, 5.00000000000000000000e-01) (2, 5, 5.00000000000000000000e-01) (2, 5, 5.00000000000000000000e-01) (2, 5, 5.00000000000000000000e-01) (2, 5, 5.00000000000000000000e-01) (2, 5, 5.00000000000000000000e-01) (2, 5, 5.00000000000000000000e-01) (2, 5, 5.00000000000000000000e-01) (2, 5, 5.00000000000000000000e-01) (2, 5, 5.00000000000000000000e-01) (2, 5, 5.00000000000000000000e-01) (2, 5, 5.00000000000000000000e-01) (2, 5, 5.00000000000000000000e-01) (2, 5, 5.00000000000000000000e-01) (2, 5, 5.00000000000000000000e-01) (2, 5, 5.00000000000000000000e-01) (2, 5, 5.00000000000000000000e-01) (2, 5, 5.00000000000000000000e-01) (2, 5, 5.00000000000000000000e-01) (2, 5, 5.00000000000000000000e-01) (2, 5, 5.00000000000000000000e-01) (2, 5, 5.00000000000000000000e-01) (2, 5, 5.00000000000000000000e-01) (2, 5, 5.00000000000000000000e-01) (2, 5, 5.00000000000000000000e-01) (2, 5, 5.00000000000000000000e-01) (2, 5, 5.00000000000000000000e-01) (2, 5, 5.00000000000000000000e-01) (2, 5, 5.00000000000000000000e-01) (2, 5, 5.00000000000000000000e-01) (2, 5, 5.00000000000000000000e-01) (2, 5, 5.00000000000000000000e-01) (2, 5, 5.00000000000000000000e-01) (2, 5, 5.00000000000000000000e-01) (2, 5, 5.00000000000000000000e-01) (2, 5, 5.00000000000000000000e-01) (2, 5, 5.00000000000000000000e-01) (2, 5, 5.00000000000000000000e-01) (2, 5, 5.00000000000000000000e-01) (2, 5, 5.00000000000000000000e-01) (2, 5, 5.00000000000000000000e-01) (2, 5, 5.00000000000000000000e-01) (2, 5, 5.00000000000000000000e-01) (2, 5, 5.00000000000000000000e-01) (2, 5, 5.00000000000000000000e-01) (2, 5, 5.00000000000000000000e-01) (2, 5, 5.00000000000000000000e-01) (2, 5, 5.00000000000000000000e-01) (2, 5, 5.00000000000000000000e-01) (2, 5, 5.00000000000000000000e-01) (2, 5, 5.00000000000000000000e-01) (2, 5, 5.00000000000000000000e-01) (2, 5, 5.00000000000000000000e-01) (2, 5, 5.00000000000000000000e-01) (2, 5, 5.00000000000000000000e-01) (2, 5, 5.00000000000000000000e-01) (2, 5, 5.00000000000000000000e-01) (2, 5, 5.00000000000000000000e-01) (2, 5, 5.00000000000000000000e-01) (2, 5, 5.00000000000000000000e-01) (2, 5, 5.00000000000000000000e-01) (2, 5, 5.00000000000000000000e-01) (2, 5, 5.00000000000000000000e-01) (2, 5, 5.00000000000000000000e-01) (2, 5, 5.00000000000000000000e-01) (2, 5, 5.00000000000000000000e-01) (2, 5, 5.00000000000000000000e-01) (2, 5, 5.00000000000000000000e-01) (2, 5, 5.00000000000000000000e-01) (2, 5, 5.00000000000000000000e-01) (2, 5, 5.00000000000000000000e-01) (2, 5, 5.00000000000000000000e-01) (2, 5, 5.00000000000000000000e-01) (2, 5, 5.00000000000000000000e-01) (2, 5, 5.00000000000000000000e-01) (2, 5, 5.00000000000000000000e-01) (2, 5, 5.00000000000000000000e-01) (2, 5, 5.00000000000000000000e-01) (2, 5, 5.00000000000000000000e-01) (2, 5, 5.00000000000000000000e-01) (2, 5, 5.00000000000000000000e-01) (2, 5, 5.00000000000000000000e-01) (2, 5, 5.00000000000000000000e-01) (2, 5, 5.00000000000000000000e-01) (2, 5, 5.00000000000000000000e-01) (2, 5, 5.00000000000000000000e-01) (2, 5, 5.00000000000000000000e-01) (2, 5, 5.00000000000000000000e-01) (2, 5, 5.00000000000000000000e-01) (2, 5, 5.00000000000000000000e-01) (0, 5, 0.00000000000000000000e+00) (9, 5, 5.00000000000000000000e-01) (9, 5, 5.00000000000000000000e-01) (10, 5, 5.00000000000000000000e-01) (9, 5, 5.00000000000000000000e-01) (10, 5, 5.00000000000000000000e-01) (9, 5, 5.00000000000000000000e-01) (10, 5, 5.00000000000000000000e-01) (9, 5, 5.00000000000000000000e-01) (10, 5, 5.00000000000000000000e-01) (9, 5, 5.00000000000000000000e-01) (9, 5, 5.00000000000000000000e-01) (10, 5, 5.00000000000000000000e-01) (9, 5, 5.00000000000000000000e-01) (10, 5, 5.00000000000000000000e-01) (9, 5, 5.00000000000000000000e-01) (10, 5, 5.00000000000000000000e-01) (9, 5, 5.00000000000000000000e-01) (10, 5, 5.00000000000000000000e-01) (9, 5, 5.00000000000000000000e-01) (10, 5, 5.00000000000000000000e-01) (0, 5, 0.00000000000000000000e+00) (2, 5, 5.00000000000000000000e-01) (3, 5, 5.00000000000000000000e-01) (3, 5, 5.00000000000000000000e-01) (2, 5, 5.00000000000000000000e-01) (3, 5, 5.00000000000000000000e-01) (3, 5, 5.00000000000000000000e-01) (2, 5, 5.00000000000000000000e-01) (3, 5, 5.00000000000000000000e-01) (3, 5, 5.00000000000000000000e-01) (2, 5, 5.00000000000000000000e-01) (3, 5, 5.00000000000000000000e-01) (3, 5, 5.00000000000000000000e-01) (2, 5, 5.00000000000000000000e-01) (3, 5, 5.00000000000000000000e-01) (3, 5, 5.00000000000000000000e-01) (3, 5, 5.00000000000000000000e-01) (2, 5, 5.00000000000000000000e-01) (3, 5, 5.00000000000000000000e-01) (3, 5, 5.00000000000000000000e-01) (2, 5, 5.00000000000000000000e-01) (3, 5, 5.00000000000000000000e-01) (3, 5, 5.00000000000000000000e-01) (2, 5, 5.00000000000000000000e-01) (3, 5, 5.00000000000000000000e-01) (3, 5, 5.00000000000000000000e-01) (2, 5, 5.00000000000000000000e-01) (3, 5, 5.00000000000000000000e-01) (3, 5, 5.00000000000000000000e-01) (3, 5, 5.00000000000000000000e-01) (2, 5, 5.00000000000000000000e-01) (3, 5, 5.00000000000000000000e-01) (3, 5, 5.00000000000000000000e-01) (2, 5, 5.00000000000000000000e-01) (3, 5, 5.00000000000000000000e-01) (3, 5, 5.00000000000000000000e-01) (2, 5, 5.00000000000000000000e-01) (3, 5, 5.00000000000000000000e-01) (3, 5, 5.00000000000000000000e-01) (2, 5, 5.00000000000000000000e-01) (3, 5, 5.00000000000000000000e-01) (3, 5, 5.00000000000000000000e-01) (2, 5, 5.00000000000000000000e-01) (3, 5, 5.00000000000000000000e-01) (3, 5, 5.00000000000000000000e-01) (3, 5, 5.00000000000000000000e-01) (2, 5, 5.00000000000000000000e-01) (3, 5, 5.00000000000000000000e-01) (3, 5, 5.00000000000000000000e-01) (2, 5, 5.00000000000000000000e-01) (3, 5, 5.00000000000000000000e-01) (3, 5, 5.00000000000000000000e-01) (2, 5, 5.00000000000000000000e-01) (3, 5, 5.00000000000000000000e-01) (3, 5, 5.00000000000000000000e-01) (2, 5, 5.00000000000000000000e-01) (3, 5, 5.00000000000000000000e-01) (3, 5, 5.00000000000000000000e-01) (3, 5, 5.00000000000000000000e-01) (2, 5, 5.00000000000000000000e-01) (3, 5, 5.00000000000000000000e-01) (3, 5, 5.00000000000000000000e-01) (2, 5, 5.00000000000000000000e-01) (3, 5, 5.00000000000000000000e-01) (3, 5, 5.00000000000000000000e-01) (2, 5, 5.00000000000000000000e-01) (3, 5, 5.00000000000000000000e-01) (3, 5, 5.00000000000000000000e-01) (2, 5, 5.00000000000000000000e-01) (3, 5, 5.00000000000000000000e-01) (3, 5, 5.00000000000000000000e-01) (2, 5, 5.00000000000000000000e-01) (3, 5, 5.00000000000000000000e-01) (3, 5, 5.00000000000000000000e-01) (3, 5, 5.00000000000000000000e-01) (2, 5, 5.00000000000000000000e-01) (3, 5, 5.00000000000000000000e-01) (3, 5, 5.00000000000000000000e-01) (2, 5, 5.00000000000000000000e-01) (3, 5, 5.00000000000000000000e-01) (3, 5, 5.00000000000000000000e-01) (2, 5, 5.00000000000000000000e-01) (3, 5, 5.00000000000000000000e-01) (3, 5, 5.00000000000000000000e-01) (2, 5, 5.00000000000000000000e-01) (3, 5, 5.00000000000000000000e-01) (3, 5, 5.00000000000000000000e-01) (3, 5, 5.00000000000000000000e-01) (2, 5, 5.00000000000000000000e-01) (3, 5, 5.00000000000000000000e-01) (3, 5, 5.00000000000000000000e-01) (2, 5, 5.00000000000000000000e-01) (3, 5, 5.00000000000000000000e-01) (3, 5, 5.00000000000000000000e-01) (2, 5, 5.00000000000000000000e-01) (3, 5, 5.00000000000000000000e-01) (3, 5, 5.00000000000000000000e-01) (2, 5, 5.00000000000000000000e-01) (3, 5, 5.00000000000000000000e-01) (3, 5, 5.00000000000000000000e-01) (3, 5, 5.00000000000000000000e-01) (0, 5, 0.00000000000000000000e+00) (21, 0, 5.00000000000000000000e-01) (21, 0, 5.00000000000000000000e-01) (21, 0, 5.00000000000000000000e-01) (21, 0, 5.00000000000000000000e-01) (21, 0, 5.00000000000000000000e-01) (0, 0, 0.00000000000000000000e+00)
connections (connected_to_neuron, weight)=(5, 6.08223024755716323853e-03) (3, -6.50403738021850585938e-01) (5, -5.17506264150142669678e-02) (3, 1.10407209396362304688e+00) (5, 1.26041245460510253906e+00) (3, 1.22028160095214843750e+00) (5, -9.12403047084808349609e-01) (3, 2.37265610694885253906e+00) (5, 4.90046054124832153320e-01) (3, -7.59431600570678710938e-01) (5, -5.26018798351287841797e-01) (3, 3.59604537487030029297e-01) (5, 2.35155653953552246094e+00) (0, -2.76364874839782714844e+00) (5, 6.57604485750198364258e-02) (4, -5.46215057373046875000e-01) (5, 9.90474402904510498047e-01) (4, 1.29302072525024414062e+00) (5, -5.40401302278041839600e-02) (1, 5.18492281436920166016e-01) (5, -9.77694869041442871094e-01) (1, 1.69405609369277954102e-01) (5, 4.65622216463088989258e-01) (3, 6.83528304100036621094e-01) (5, -8.97436857223510742188e-01) (4, -1.02568316459655761719e+00) (5, 6.84111177921295166016e-01) (1, 2.13110256195068359375e+00) (5, 6.88382327556610107422e-01) (3, 1.49537205696105957031e+00) (5, 1.05519783496856689453e+00) (1, -5.14593064785003662109e-01) (5, 1.38301467895507812500e+00) (2, 3.63834500312805175781e+00) (5, -6.61545276641845703125e-01) (1, 2.19997584819793701172e-01) (5, 7.44287818670272827148e-02) (3, 7.08326339721679687500e-01) (5, 5.15183210372924804688e-01) (2, 2.29275673627853393555e-01) (5, 8.32806587219238281250e-01) (0, -1.32184839248657226562e+00) (5, 3.03328514099121093750e-01) (1, 4.39734667539596557617e-01) (5, 6.06873333454132080078e-01) (3, 3.66701650619506835938e+00) (5, -6.64335191249847412109e-02) (2, -1.06892299652099609375e+00) (5, -1.77850238978862762451e-02) (0, 3.15064519643783569336e-01) (5, 1.01680743694305419922e+00) (1, 1.02181506156921386719e+00) (5, 6.38114273548126220703e-01) (1, 3.76642417907714843750e+00) (5, 3.35470914840698242188e-01) (1, 7.33163297176361083984e-01) (5, 3.77349433898925781250e+01) (0, 1.48010180664062500000e+03) (5, -7.74314701557159423828e-01) (1, 1.03545737266540527344e+00) (5, -1.48152947425842285156e-01) (1, -2.09433194249868392944e-02) (5, -3.89089554548263549805e-01) (0, 5.18401765823364257812e+00) (5, -2.51609534025192260742e-01) (3, -6.62134587764739990234e-01) (5, -4.22496467828750610352e-01) (1, 6.99813842773437500000e-01) (5, -6.30372047424316406250e-01) (3, -1.10158070921897888184e-01) (5, -5.63860511779785156250e+00) (2, 3.86638870239257812500e+01) (5, 1.99780929833650588989e-02) (1, -4.12652879953384399414e-01) (5, 1.27118432521820068359e+00) (4, -4.56318855285644531250e+00) (5, -3.87403786182403564453e-01) (3, 1.19896709918975830078e+00) (5, 3.04875314235687255859e-01) (2, 5.18886148929595947266e-01) (5, 3.85468214750289916992e-01) (0, -1.18814933300018310547e+00) (5, -6.91810607910156250000e-01) (3, 5.53812563419342041016e-01) (5, 1.05029928684234619141e+00) (1, 2.80645996332168579102e-01) (5, -6.61484599113464355469e-01) (2, -1.36646437644958496094e+00) (5, 1.08738928222656250000e+03) (2, 9.25791870117187500000e+02) (5, -5.20708739757537841797e-01) (1, -1.00070917606353759766e+00) (5, -5.07605493068695068359e-01) (1, -5.05327641963958740234e-01) (5, -4.16653156280517578125e-01) (0, 2.80703634023666381836e-01) (5, 5.63468448817729949951e-02) (0, 6.68033063411712646484e-01) (5, -1.04730689525604248047e+00) (4, 5.45880365371704101562e+00) (5, 9.26151752471923828125e-01) (1, -1.19866915047168731689e-01) (5, 7.73290693759918212891e-01) (1, 9.13080513477325439453e-01) (5, 3.25396090745925903320e-01) (3, 2.21735730767250061035e-01) (5, 2.89269781112670898438e+00) (3, 7.13906145095825195312e+00) (5, 1.67704761028289794922e-01) (3, -6.96384906768798828125e-01) (5, 8.24261188507080078125e-01) (2, 2.71073102951049804688e+00) (5, -1.73765793442726135254e-01) (2, -5.32282829284667968750e-01) (5, 1.47752344608306884766e-01) (1, -5.73536038398742675781e-01) (5, 5.87846755981445312500e-01) (2, -4.52145010232925415039e-01) (5, 3.19097518920898437500e-01) (3, 6.62089049816131591797e-01) (5, 2.31699347496032714844e-01) (1, -3.78644913434982299805e-01) (5, -3.53381586074829101562e+00) (4, -1.87347412109375000000e+00) (5, -2.72336292266845703125e+00) (0, 1.52927851676940917969e+00) (5, -6.53046786785125732422e-01) (4, -1.02621674537658691406e+00) (5, 6.36278808116912841797e-01) (1, 6.47993981838226318359e-01) (5, 5.00896871089935302734e-01) (1, -2.87356991320848464966e-02) (5, -5.34713231027126312256e-02) (1, -2.70407274365425109863e-02) (5, 2.36946225166320800781e+00) (1, 3.65423226356506347656e+00) (5, 4.83137011528015136719e-01) (1, -3.11751514673233032227e-01) (5, -1.70127463340759277344e+00) (1, 3.03899145126342773438e+00) (5, 6.35194420814514160156e-01) (3, -4.81912106275558471680e-01) (5, 4.44271899759769439697e-02) (2, -6.05035133361816406250e+01) (5, -5.87049841880798339844e-01) (2, -7.42216467857360839844e-01) (5, 8.89302194118499755859e-02) (4, 7.49942779541015625000e-01) (5, 6.43334805965423583984e-01) (3, -6.03084743022918701172e-01) (5, -3.39945644140243530273e-01) (0, 3.68865400552749633789e-01) (5, 9.23385143280029296875e+00) (1, 9.67296886444091796875e+00) (5, 7.16159224510192871094e-01) (2, 2.00128793716430664062e+00) (5, 1.85101792216300964355e-01) (2, 1.37684059143066406250e+00) (5, -1.64918869733810424805e-01) (1, 8.30126762390136718750e-01) (5, 1.10637867450714111328e+00) (2, 1.41082084178924560547e+00) (5, -1.39311701059341430664e-01) (1, 2.25746154785156250000e+00) (5, -3.32122951745986938477e-01) (1, 8.93319249153137207031e-01) (5, -3.51804399490356445312e+00) (0, 2.17927575111389160156e+00) (5, 8.25211629271507263184e-02) (2, -6.78329318761825561523e-02) (5, 9.04195547103881835938e-01) (1, -6.34850144386291503906e-01) (5, -9.34782344847917556763e-03) (4, -8.31697762012481689453e-01) (5, 1.17896163463592529297e+00) (1, -3.57938766479492187500e-01) (5, -2.00996065139770507812e+00) (1, -7.60372114181518554688e+00) (5, 6.14801883697509765625e-01) (2, 1.40729975700378417969e+00) (5, 1.03900182247161865234e+00) (0, 5.03912687301635742188e-01) (5, 8.13103318214416503906e-01) (1, 1.47320783138275146484e+00) (5, 6.12045645713806152344e-01) (2, 1.75316572189331054688e+00) (5, -3.61784026026725769043e-02) (3, 7.74795889854431152344e-01) (5, -4.71226871013641357422e-03) (1, 7.09549129009246826172e-01) (5, 2.56091976165771484375e+00) (4, 2.27135562896728515625e+00) (5, -8.83275493979454040527e-02) (3, 6.85533583164215087891e-01) (5, 4.73757922649383544922e-01) (2, 2.16308164596557617188e+00) (5, -3.84233206510543823242e-01) (3, -1.02693095803260803223e-01) (5, 4.74735945463180541992e-01) (4, 9.97385978698730468750e-01) (106, 5.46533048152923583984e-01) (67, 1.23382985591888427734e+00) (82, -1.57329499721527099609e+00) (84, -4.78172063827514648438e-01) (86, -1.32272178307175636292e-02) (94, 2.27578997611999511719e+00) (55, 1.73876523971557617188e+00) (99, -8.27252924442291259766e-01) (102, 5.98152160644531250000e-01) (106, 5.55484771728515625000e-01) (18, -6.53544783592224121094e-01) (29, 1.00902879238128662109e+00) (50, 2.72694021463394165039e-01) (59, -1.63442388176918029785e-01) (89, 2.48640492558479309082e-01) (90, 5.07878065109252929688e-01) (38, -1.10467052459716796875e+00) (8, -1.66336119174957275391e+00) (106, -1.84096977114677429199e-01) (6, -7.42145776748657226562e-01) (22, -2.61974960565567016602e-01) (99, 1.59630167484283447266e+00) (38, -7.13674783706665039062e-01) (76, -5.31119108200073242188e-01) (64, -1.27708947658538818359e+00) (92, -1.72753965854644775391e+00) (84, -1.35232341289520263672e+00) (31, 1.30391150712966918945e-01) (106, 6.49551689624786376953e-01) (13, 9.98837828636169433594e-01) (20, -1.03155560791492462158e-01) (42, 7.39457130432128906250e-01) (66, 3.63369166851043701172e-01) (85, 3.67525339126586914062e-01) (100, -7.87336155772209167480e-02) (102, -1.28226220607757568359e+00) (62, -2.30132079124450683594e+00) (106, 2.04998567700386047363e-01) (8, 2.76188459247350692749e-02) (36, -5.74957393109798431396e-02) (61, -9.26075950264930725098e-02) (68, -1.50217726826667785645e-01) (74, -2.84372538328170776367e-01) (97, 5.01443624496459960938e-01) (105, 2.15878105163574218750e+00) (17, 1.09952116012573242188e+00) (65, 2.92023444175720214844e+00) (106, -7.43129327893257141113e-02) (16, 1.00685346126556396484e+00) (56, -6.41643941402435302734e-01) (31, -7.49780130386352539062e+00) (49, -1.01923131942749023438e+00) (99, -1.09706807136535644531e+00) (11, 1.08712047338485717773e-01) (8, 8.39780867099761962891e-01) (63, 6.74627840518951416016e-01) (106, 6.38377666473388671875e-01) (26, 6.96084165573120117188e+00) (57, 5.44768953323364257812e+00) (70, 3.94512710571289062500e+01) (77, -7.25138950347900390625e+00) (78, -2.09689307212829589844e+00) (20, 3.96006047725677490234e-01) (33, 8.59414100646972656250e-01) (52, -8.44009971618652343750e+00) (10, 1.60458621978759765625e+01) (106, -4.61828738451004028320e-01) (11, 3.38177967071533203125e+00) (53, 5.08434891700744628906e-01) (79, 3.69223308563232421875e+00) (91, -5.96863687038421630859e-01) (95, -1.65680253505706787109e+00) (96, -1.33116698265075683594e+00) (49, 3.89544343948364257812e+00) (102, 5.45025825500488281250e+00) (106, -4.09375667572021484375e-01) (19, -6.74538552761077880859e-01) (69, -4.33449208736419677734e-01) (103, 6.35246694087982177734e-01) (35, 3.83361697196960449219e-01) (61, 5.97623467445373535156e-01) (81, 3.29493224620819091797e-01) (20, 2.13589698076248168945e-01) (63, 1.05826757848262786865e-01) (59, -1.96070790290832519531e-01) (106, 5.11518597602844238281e-01) (7, -2.98788279294967651367e-01) (9, -4.58410292863845825195e-01) (15, 9.47219312191009521484e-01) (39, 5.59478700160980224609e-01) (58, 7.83288717269897460938e-01) (65, -6.48184955120086669922e-01) (75, 3.50989013910293579102e-01) (50, -2.40199953317642211914e-01) (106, 9.33617115020751953125e-01) (12, -1.97643709182739257812e+00) (14, 4.70066595077514648438e+00) (25, 2.08309917449951171875e+01) (31, -3.21237015724182128906e+00) (37, -1.69949817657470703125e+00) (41, 1.71104177832603454590e-01) (62, -2.39378243684768676758e-01) (93, 1.75517368316650390625e+00) (106, -1.06996424496173858643e-01) (44, -5.34310817718505859375e-01) (28, -2.47053638100624084473e-01) (19, 4.79893952608108520508e-01) (63, -2.58182525634765625000e+00) (92, -9.07873153686523437500e-01) (54, 5.10493338108062744141e-01) (79, 6.09546005725860595703e-01) (86, -1.91875171661376953125e+00) (68, 4.10253345966339111328e-01) (106, 5.39925456047058105469e-01) (38, 1.05726552009582519531e+00) (51, -4.03089761734008789062e-01) (72, 1.81714236736297607422e-01) (81, -6.23200356960296630859e-01) (42, 9.83154833316802978516e-01) (19, -5.37698626518249511719e-01) (13, -1.39156651496887207031e+00) (46, -5.85122048854827880859e-01) (106, 5.92097565531730651855e-02) (32, 3.25600385665893554688e-01) (46, -1.12081319093704223633e-01) (48, -7.46550202369689941406e-01) (64, 3.64192634820938110352e-01) (76, -1.91741108894348144531e-01) (7, 3.39993625879287719727e-01) (55, -2.01758652925491333008e-01) (39, -2.08917200565338134766e-01) (84, -5.18155097961425781250e-01) (106, 8.56445014476776123047e-01) (24, -1.57524204254150390625e+00) (30, 1.17947185039520263672e+00) (45, -1.32553410530090332031e+00) (47, -2.09779247641563415527e-01) (60, 2.67365193367004394531e+00) (73, 8.22350978851318359375e-02) (80, 1.46948719024658203125e+00) (83, 2.98939418792724609375e+00) (106, 5.88183343410491943359e-01) (17, -6.92594647407531738281e-01) (28, -3.72649908065795898438e-01) (101, -1.03882086277008056641e+00) (71, 1.00817650556564331055e-01) (52, 6.47293925285339355469e-01) (65, -2.20082521438598632812e+00) (34, -5.14206409454345703125e-01) (68, -1.42169699072837829590e-01) (105, -2.67040580511093139648e-01) (106, -4.25101578235626220703e-01) (34, 5.22931694984436035156e-01) (49, 3.75765204429626464844e+00) (52, -2.87432521581649780273e-01) (54, -1.16862082481384277344e+00) (63, -4.48503484949469566345e-03) (98, -6.26965165138244628906e-01) (51, 7.86308407783508300781e-01) (9, 1.04395413398742675781e+00) (106, -2.71646864712238311768e-02) (21, -6.48903846740722656250e-01) (40, 7.39329218864440917969e-01) (87, 8.26062448322772979736e-03) (92, -2.13310384750366210938e+00) (104, 8.09367060661315917969e-01) (53, 5.69850802421569824219e-01) (20, 8.64171326160430908203e-01) (54, -4.21976260840892791748e-02) (61, -8.73686075210571289062e-01) (106, 7.84981716424226760864e-03) (10, 7.54495680332183837891e-01) (35, -1.33824729919433593750e+00) (43, 5.83646357059478759766e-01) (55, 5.66137731075286865234e-01) (71, 7.26455211639404296875e-01) (87, -1.20954573154449462891e+00) (79, 2.57862210273742675781e+00) (39, 5.67182540893554687500e-01) (106, -2.07588061690330505371e-01) (23, -2.55091786384582519531e-01) (27, 9.27554190158843994141e-01) (33, -1.07457533478736877441e-01) (88, -4.07213568687438964844e-01) (94, 4.27529573440551757812e-01) (31, 1.19621121883392333984e+00) (29, -4.22523438930511474609e-01) (49, 3.65202903747558593750e-01) (7, -2.14275002479553222656e+00) (127, 1.53464784622192382812e+01) (114, 1.44850354003906250000e+03) (127, 1.76896476745605468750e+00) (124, 1.13203763961791992188e+00) (121, -1.29887199401855468750e+00) (127, -1.25117778778076171875e-01) (119, -1.98518693447113037109e-01) (109, 4.25554418563842773438e+00) (127, -2.93450593948364257812e-01) (113, 6.16019487380981445312e-01) (127, 5.76142847537994384766e-01) (121, 1.41689252853393554688e+00) (126, 3.83356022834777832031e+00) (127, 1.17132171988487243652e-01) (112, -1.99821960926055908203e+00) (110, -7.19681605696678161621e-02) (127, 1.03119993209838867188e+00) (110, 1.29602127075195312500e+02) (127, -1.30684584379196166992e-01) (117, -2.11911305785179138184e-01) (118, 2.14126229286193847656e-01) (127, 9.89624261856079101562e-02) (118, -1.87626466155052185059e-01) (114, -1.19489841461181640625e+01) (127, 7.09090590476989746094e-01) (114, 1.14416182041168212891e+00) (127, 1.36768132448196411133e-01) (123, 1.95698535442352294922e+00) (122, 9.04111921787261962891e-01) (127, 1.05671182274818420410e-01) (112, -9.73550033569335937500e+00) (115, -1.28013183593750000000e+03) (127, 6.57542407512664794922e-01) (112, 1.01943552494049072266e+00) (127, 9.18117538094520568848e-02) (119, 1.14734387397766113281e+00) (113, -2.38775208592414855957e-01) (127, 1.29578094482421875000e+01) (108, -1.31662964820861816406e+00) (111, 2.20577983856201171875e+01) (127, -1.89790105819702148438e+00) (109, -3.83317303657531738281e+00) (118, -1.01773130893707275391e+00) (127, -1.86108350753784179688e-01) (126, -1.33036017417907714844e+00) (127, -1.75486460328102111816e-01) (115, 5.73971557617187500000e+00) (121, -2.78284645080566406250e+00) (127, 1.81461274623870849609e-01) (126, 1.02148771286010742188e+00) (120, -3.63246011734008789062e+00) (127, 1.20471246540546417236e-01) (125, 1.30522394180297851562e+00) (127, 1.96368262171745300293e-01) (111, -8.88220012187957763672e-01) (120, -4.71178889274597167969e-01) (127, 4.76706653833389282227e-01) (123, -1.07367448508739471436e-01) (109, -3.73653864860534667969e+00) (127, 7.62442946434020996094e-01) (109, -3.76518189907073974609e-01) (127, 1.08945536613464355469e+00) (121, 7.59007275104522705078e-01) (109, 6.16684961318969726562e+00) (127, -3.74356396496295928955e-02) (125, 5.52366733551025390625e-01) (121, 2.39820573478937149048e-02) (127, -3.09439152479171752930e-01) (112, 9.04364824295043945312e-01) (127, 6.69498503208160400391e-01) (123, 1.06307888031005859375e+00) (110, -1.03132836520671844482e-01) (127, 1.37746977806091308594e+00) (115, 2.79142642021179199219e+00) (116, -3.01685905456542968750e+00) (127, -6.87314987182617187500e-01) (111, 1.04271245002746582031e+00) (114, -8.30234050750732421875e-01) (127, -3.73659938573837280273e-01) (122, 1.02293724194169044495e-02) (127, 2.45467960834503173828e-01) (110, -6.87829554080963134766e-02) (117, 7.62882113456726074219e-01) (127, -4.12578642368316650391e-01) (125, -9.81730520725250244141e-01) (116, 9.55098807811737060547e-01) (127, 8.31496000289916992188e-01) (107, -3.22390937805175781250e+00) (127, -1.33704698085784912109e+00) (113, 5.71628153324127197266e-01) (110, 3.50338211059570312500e+01) (127, -6.89460989087820053101e-03) (108, 6.58615291118621826172e-01) (118, -4.48347300291061401367e-01) (127, -2.06825405359268188477e-01) (126, 3.63645017147064208984e-01) (127, 8.01680833101272583008e-02) (111, -4.79184975847601890564e-03) (121, -2.50633573532104492188e+00) (127, -3.04643392562866210938e-01) (118, 1.95020580291748046875e+00) (124, -5.60153543949127197266e-01) (127, 5.43807566165924072266e-01) (117, 5.24475216865539550781e-01) (127, -3.59307795763015747070e-01) (113, 9.81987118721008300781e-01) (117, 8.77088725566864013672e-01) (127, -4.47316944599151611328e-01) (126, 7.13042378425598144531e-01) (113, 6.47036552429199218750e-01) (127, 2.84045904874801635742e-01) (122, -3.42751932144165039062e+00) (127, -4.44670200347900390625e-01) (110, 1.25571057200431823730e-01) (112, 1.72896116971969604492e-01) (127, 2.73288011550903320312e-01) (125, -3.15554678440093994141e-01) (116, 4.28605556488037109375e-01) (127, -2.97835409641265869141e-01) (121, 1.63334071636199951172e+00) (116, 1.53091132640838623047e+00) (127, -1.09083816409111022949e-01) (112, 1.56288278102874755859e+00) (127, 7.35728800296783447266e-01) (121, -1.09651064872741699219e+00) (124, -1.98456794023513793945e-01) (127, 4.65621173381805419922e-01) (122, -1.08984708786010742188e+00) (112, 1.09123051166534423828e+00) (127, -7.76969969272613525391e-01) (117, 2.76925354003906250000e+01) (127, 1.11479803919792175293e-01) (109, 1.72222347259521484375e+01) (122, 4.29727220535278320312e+00) (127, -4.73984003067016601562e-01) (121, 4.79869693517684936523e-01) (107, 1.53084337711334228516e-01) (127, 9.60964965820312500000e+00) (114, 1.50000000000000000000e+03) (127, 4.60257023572921752930e-01) (112, 5.77997982501983642578e-01) (111, -1.56078505516052246094e+00) (127, 1.93509772419929504395e-01) (120, -1.12420868873596191406e+00) (123, 1.17360830307006835938e+00) (127, 4.01137828826904296875e-01) (107, 1.26726210117340087891e+00) (127, -3.59634935855865478516e-01) (116, 3.98776721954345703125e+00) (124, 3.62750911712646484375e+00) (127, 8.66845965385437011719e-01) (113, -7.52233434468507766724e-03) (112, -1.89176785945892333984e+00) (127, 4.02165800333023071289e-01) (124, -8.48391503095626831055e-02) (117, 2.33723783493041992188e+00) (127, -1.22233010828495025635e-01) (125, 8.57528865337371826172e-01) (127, -5.64529672265052795410e-02) (107, -2.39408105611801147461e-01) (116, -4.08158659934997558594e-01) (127, 4.60086375474929809570e-01) (121, -1.45098876953125000000e+00) (123, 5.06389856338500976562e-01) (127, -1.09999823570251464844e+00) (114, -1.29190521240234375000e+02) (127, -6.33105337619781494141e-02) (110, 1.01134423828125000000e+03) (118, 3.60136146545410156250e+01) (127, 1.43702733516693115234e+00) (125, -1.79231619834899902344e+00) (120, -1.24845466613769531250e+01) (127, 2.30833649635314941406e-01) (113, 4.95178818702697753906e-01) (127, 5.76155222952365875244e-02) (111, -2.15064048767089843750e-01) (117, 5.32523870468139648438e-01) (127, 4.14451867341995239258e-01) (119, -1.87919698655605316162e-02) (125, -6.88258349895477294922e-01) (127, -1.23401165008544921875e+00) (108, 2.00110961914062500000e+02) (127, -3.79475086927413940430e-01) (115, 2.62752318382263183594e+00) (120, -3.42530936002731323242e-01) (127, 2.71328997611999511719e+00) (109, -1.09529495239257812500e+01) (126, 2.54003000259399414062e+00) (127, 8.13834130764007568359e-01) (125, 1.76657497882843017578e+00) (127, -3.33390533924102783203e-01) (113, -4.41611862182617187500e+00) (124, 3.45515966415405273438e+00) (127, 7.68829822540283203125e-01) (117, 4.19730186462402343750e-01) (109, -2.36463963985443115234e-01) (127, -4.19589467346668243408e-02) (120, -2.50811129808425903320e-01) (107, -6.27485871315002441406e-01) (127, 5.98400473594665527344e-01) (125, -3.96570771932601928711e-01) (127, 1.44807410240173339844e+00) (115, 8.73947143554687500000e+00) (119, -1.47290241718292236328e+00) (127, 9.17684137821197509766e-02) (115, -5.06147921085357666016e-01) (113, 9.02163982391357421875e-01) (127, -2.28375777602195739746e-01) (123, -5.91272175312042236328e-01) (127, 5.40524005889892578125e-01) (116, -7.66728699207305908203e-01) (124, -2.99635863304138183594e+00) (127, -5.86933135986328125000e-01) (108, 8.17636609077453613281e-01) (119, -7.16821014881134033203e-01) (127, 6.99861764907836914062e-01) (112, 3.94506961107254028320e-01) (127, 1.45174473524093627930e-01) (117, 9.06851828098297119141e-01) (120, -8.35066223144531250000e+00) (127, -4.19504530727863311768e-02) (123, 2.79909896850585937500e+00) (126, 2.35578477382659912109e-01) (127, 3.18196594715118408203e-01) (113, 5.34065842628479003906e-01) (127, -4.12224262952804565430e-01) (114, -4.72013026475906372070e-01) (111, 7.66077280044555664062e-01) (127, 2.10366308689117431641e-01) (125, -2.08402022719383239746e-01) (119, -2.22474217414855957031e+00) (127, 1.61985889077186584473e-01) (118, 2.02579572796821594238e-01) (115, -3.31114912033081054688e+00) (127, -6.93480432033538818359e-01) (110, -1.81791191101074218750e+01) (127, -2.15344317257404327393e-02) (123, -5.74594497680664062500e-01) (116, -1.10031986236572265625e+00) (127, 3.99187564849853515625e-01) (113, -1.42196819186210632324e-01) (116, 1.37853294610977172852e-01) (127, -1.54388889670372009277e-01) (111, 1.16361784934997558594e+00) (127, -6.74170330166816711426e-02) (113, -8.47702980041503906250e-01) (118, 2.00037908554077148438e+00) (127, -4.31643962860107421875e-01) (125, -2.36740738153457641602e-01) (109, 4.98968219757080078125e+00) (127, -2.54696667194366455078e-01) (111, 4.77321505546569824219e-01) (127, 3.79915237426757812500e-01) (110, 2.29027385711669921875e+01) (109, -8.66830050945281982422e-01) (127, -2.08582997322082519531e-01) (110, 6.38479650020599365234e-01) (113, 1.40594512224197387695e-01) (127, 3.51396352052688598633e-01) (118, 6.62603020668029785156e-01) (127, 2.17616271972656250000e+00) (121, 1.56997461318969726562e+01) (124, -2.42947673797607421875e+01) (127, 3.68919014930725097656e-01) (122, -5.41176199913024902344e-01) (118, 9.83063697814941406250e-01) (127, 7.68051624298095703125e-01) (109, -5.78513205051422119141e-01) (112, 1.77650585770606994629e-01) (228, 2.47525036334991455078e-01) (135, 2.35534399747848510742e-01) (150, -5.03062367439270019531e-01) (158, -2.35290259122848510742e-01) (170, 8.22272300720214843750e-01) (171, -6.18826389312744140625e-01) (174, -1.71144831180572509766e+00) (175, 1.47417485713958740234e+00) (180, -1.91206657886505126953e+00) (185, -7.55329847335815429688e-01) (190, 3.55668783187866210938e-01) (191, -4.48300927877426147461e-01) (195, 1.17910109460353851318e-01) (200, -3.26274871826171875000e-01) (210, -1.08145630359649658203e+00) (213, 9.90868687629699707031e-01) (215, -7.45920956134796142578e-01) (219, 9.05257821083068847656e-01) (220, 1.56439983844757080078e+00) (225, 2.03239631652832031250e+00) (227, -3.63972365856170654297e-01) (228, -1.80534347891807556152e-01) (129, -1.18596231937408447266e+00) (136, 2.11910414695739746094e+00) (138, -9.54601943492889404297e-01) (139, -1.31257846951484680176e-01) (140, 1.16944372653961181641e+00) (143, -1.58075594902038574219e+00) (145, -4.01964634656906127930e-01) (146, -8.03305566310882568359e-01) (163, 3.25952315330505371094e+00) (167, -9.40499544143676757812e-01) (168, -1.34285956621170043945e-01) (173, 6.16026759147644042969e-01) (176, -1.99290290474891662598e-01) (177, 1.03672623634338378906e+00) (178, 9.44924354553222656250e-01) (182, -1.05390667915344238281e+00) (186, -4.43208396434783935547e-01) (192, 1.40754416584968566895e-01) (211, 1.19698546826839447021e-01) (212, 4.62058591842651367188e+00) (228, -2.61696070432662963867e-01) (142, 2.21887752413749694824e-01) (144, 4.76198166608810424805e-01) (148, -2.45512127876281738281e+00) (151, 6.53984546661376953125e-01) (157, 8.95321667194366455078e-01) (161, 1.21202766895294189453e+00) (164, -9.95143473148345947266e-01) (166, -2.36189499497413635254e-01) (169, 3.22491317987442016602e-01) (179, -1.45731329917907714844e+00) (181, -1.49574851989746093750e+00) (183, 5.94079792499542236328e-01) (184, -3.78083735704421997070e-01) (193, -1.84565043449401855469e+00) (197, -7.85799562931060791016e-01) (199, 4.15598660707473754883e-01) (203, 3.86499911546707153320e-01) (205, 4.30782079696655273438e-01) (207, 6.48062050342559814453e-01) (209, -5.60162723064422607422e-01) (228, 5.95918484032154083252e-02) (130, 1.67515182495117187500e+00) (131, -1.45865249633789062500e+00) (132, 4.44343477487564086914e-01) (134, 3.64222824573516845703e-01) (141, -3.86024832725524902344e-01) (152, -4.20086830854415893555e-01) (153, 1.05740571022033691406e+00) (154, -2.27445021271705627441e-01) (155, 5.15382468700408935547e-01) (156, 3.04058647155761718750e+00) (159, 2.48878389596939086914e-01) (160, 3.06420207023620605469e-01) (165, 7.47674703598022460938e-01) (187, 2.58812832832336425781e+00) (188, -5.76258540153503417969e-01) (189, 1.17167496681213378906e+00) (194, 6.76895678043365478516e-01) (196, 1.19777810573577880859e+00) (198, -4.71989363431930541992e-01) (208, 2.91294395923614501953e-01) (228, -3.71644824743270874023e-01) (128, -1.17686414718627929688e+00) (133, -5.21494746208190917969e-01) (137, -1.25113725662231445312e+00) (147, -7.76782035827636718750e-01) (149, -1.72931540012359619141e+00) (162, -1.36843252182006835938e+00) (172, 7.39067196846008300781e-01) (201, 1.48360049724578857422e+00) (202, 2.11800128221511840820e-01) (204, -7.42645561695098876953e-01) (206, 2.25370049476623535156e-01) (214, -8.83644700050354003906e-01) (216, 1.56778776645660400391e+00) (217, 5.86305141448974609375e-01) (218, 5.18037855625152587891e-01) (221, 4.44476366043090820312e+00) (222, 9.31391537189483642578e-01) (223, 3.49603295326232910156e-01) (224, 2.92599916458129882812e-01) (226, 7.38179683685302734375e-01)
input_names='betan' 'delta' 'kappa' 'neped' 'zeffped'
output_names='OUT_betaped_E1' 'OUT_p_E1' 'OUT_ptop_E1' 'OUT_wid_E1' 'OUT_widtop_E1'
MSE= 0.0356816127896