FANN_FLO_2.1
num_layers=5
learning_rate=0.700000
connection_rate=0.289655
network_type=0
learning_momentum=0.000000
training_algorithm=2
train_error_function=0
train_stop_function=0
cascade_output_change_fraction=0.010000
quickprop_decay=0.000330
quickprop_mu=1.750000
rprop_increase_factor=1.200000
rprop_decrease_factor=0.500000
rprop_delta_min=0.000000
rprop_delta_max=50.000000
rprop_delta_zero=0.100000
cascade_output_stagnation_epochs=12
cascade_candidate_change_fraction=0.010000
cascade_candidate_stagnation_epochs=12
cascade_max_out_epochs=150
cascade_min_out_epochs=50
cascade_max_cand_epochs=150
cascade_min_cand_epochs=50
cascade_num_candidate_groups=2
bit_fail_limit=3.49999994039535522461e-01
cascade_candidate_limit=1.00000000000000000000e+03
cascade_weight_multiplier=4.00000005960464477539e-01
cascade_activation_functions_count=10
cascade_activation_functions=3 5 7 8 10 11 14 15 16 17
cascade_activation_steepnesses_count=4
cascade_activation_steepnesses=2.50000000000000000000e-01 5.00000000000000000000e-01 7.50000000000000000000e-01 1.00000000000000000000e+00
layer_sizes=11 101 51 101 6
scale_included=1
scale_mean_in=1.614757 1.977650 3.919506 0.477078 8.369242 1.811925 2.117160 6.831164 4.992357 1.930114
scale_deviation_in=0.633328 0.591297 1.525321 0.062230 5.169559 0.080292 0.409959 3.539195 1.984548 0.607448
scale_new_min_in=-1.000000 -1.000000 -1.000000 -1.000000 -1.000000 -1.000000 -1.000000 -1.000000 -1.000000 -1.000000
scale_factor_in=1.000000 1.000000 1.000000 1.000000 1.000000 1.000000 1.000000 1.000000 1.000000 1.000000
scale_mean_out=0.765991 0.050966 0.065003 0.042671 0.064007
scale_deviation_out=0.216936 0.032711 0.041768 0.010606 0.015910
scale_new_min_out=-1.000000 -1.000000 -1.000000 -1.000000 -1.000000
scale_factor_out=1.000000 1.000000 1.000000 1.000000 1.000000
neurons (num_inputs, activation_function, activation_steepness)=(0, 0, 0.00000000000000000000e+00) (0, 0, 0.00000000000000000000e+00) (0, 0, 0.00000000000000000000e+00) (0, 0, 0.00000000000000000000e+00) (0, 0, 0.00000000000000000000e+00) (0, 0, 0.00000000000000000000e+00) (0, 0, 0.00000000000000000000e+00) (0, 0, 0.00000000000000000000e+00) (0, 0, 0.00000000000000000000e+00) (0, 0, 0.00000000000000000000e+00) (0, 0, 0.00000000000000000000e+00) (3, 5, 5.00000000000000000000e-01) (4, 5, 5.00000000000000000000e-01) (4, 5, 5.00000000000000000000e-01) (4, 5, 5.00000000000000000000e-01) (4, 5, 5.00000000000000000000e-01) (4, 5, 5.00000000000000000000e-01) (4, 5, 5.00000000000000000000e-01) (4, 5, 5.00000000000000000000e-01) (4, 5, 5.00000000000000000000e-01) (4, 5, 5.00000000000000000000e-01) (3, 5, 5.00000000000000000000e-01) (4, 5, 5.00000000000000000000e-01) (4, 5, 5.00000000000000000000e-01) (4, 5, 5.00000000000000000000e-01) (4, 5, 5.00000000000000000000e-01) (4, 5, 5.00000000000000000000e-01) (4, 5, 5.00000000000000000000e-01) (4, 5, 5.00000000000000000000e-01) (4, 5, 5.00000000000000000000e-01) (4, 5, 5.00000000000000000000e-01) (3, 5, 5.00000000000000000000e-01) (4, 5, 5.00000000000000000000e-01) (4, 5, 5.00000000000000000000e-01) (4, 5, 5.00000000000000000000e-01) (4, 5, 5.00000000000000000000e-01) (4, 5, 5.00000000000000000000e-01) (4, 5, 5.00000000000000000000e-01) (4, 5, 5.00000000000000000000e-01) (4, 5, 5.00000000000000000000e-01) (4, 5, 5.00000000000000000000e-01) (3, 5, 5.00000000000000000000e-01) (4, 5, 5.00000000000000000000e-01) (4, 5, 5.00000000000000000000e-01) (4, 5, 5.00000000000000000000e-01) (4, 5, 5.00000000000000000000e-01) (4, 5, 5.00000000000000000000e-01) (4, 5, 5.00000000000000000000e-01) (4, 5, 5.00000000000000000000e-01) (4, 5, 5.00000000000000000000e-01) (4, 5, 5.00000000000000000000e-01) (3, 5, 5.00000000000000000000e-01) (4, 5, 5.00000000000000000000e-01) (4, 5, 5.00000000000000000000e-01) (4, 5, 5.00000000000000000000e-01) (4, 5, 5.00000000000000000000e-01) (4, 5, 5.00000000000000000000e-01) (4, 5, 5.00000000000000000000e-01) (4, 5, 5.00000000000000000000e-01) (4, 5, 5.00000000000000000000e-01) (4, 5, 5.00000000000000000000e-01) (3, 5, 5.00000000000000000000e-01) (4, 5, 5.00000000000000000000e-01) (4, 5, 5.00000000000000000000e-01) (4, 5, 5.00000000000000000000e-01) (4, 5, 5.00000000000000000000e-01) (4, 5, 5.00000000000000000000e-01) (4, 5, 5.00000000000000000000e-01) (4, 5, 5.00000000000000000000e-01) (4, 5, 5.00000000000000000000e-01) (4, 5, 5.00000000000000000000e-01) (3, 5, 5.00000000000000000000e-01) (4, 5, 5.00000000000000000000e-01) (4, 5, 5.00000000000000000000e-01) (4, 5, 5.00000000000000000000e-01) (4, 5, 5.00000000000000000000e-01) (4, 5, 5.00000000000000000000e-01) (4, 5, 5.00000000000000000000e-01) (4, 5, 5.00000000000000000000e-01) (4, 5, 5.00000000000000000000e-01) (4, 5, 5.00000000000000000000e-01) (3, 5, 5.00000000000000000000e-01) (4, 5, 5.00000000000000000000e-01) (4, 5, 5.00000000000000000000e-01) (4, 5, 5.00000000000000000000e-01) (4, 5, 5.00000000000000000000e-01) (4, 5, 5.00000000000000000000e-01) (4, 5, 5.00000000000000000000e-01) (4, 5, 5.00000000000000000000e-01) (4, 5, 5.00000000000000000000e-01) (4, 5, 5.00000000000000000000e-01) (3, 5, 5.00000000000000000000e-01) (4, 5, 5.00000000000000000000e-01) (4, 5, 5.00000000000000000000e-01) (4, 5, 5.00000000000000000000e-01) (4, 5, 5.00000000000000000000e-01) (4, 5, 5.00000000000000000000e-01) (4, 5, 5.00000000000000000000e-01) (4, 5, 5.00000000000000000000e-01) (4, 5, 5.00000000000000000000e-01) (4, 5, 5.00000000000000000000e-01) (3, 5, 5.00000000000000000000e-01) (4, 5, 5.00000000000000000000e-01) (4, 5, 5.00000000000000000000e-01) (4, 5, 5.00000000000000000000e-01) (4, 5, 5.00000000000000000000e-01) (4, 5, 5.00000000000000000000e-01) (4, 5, 5.00000000000000000000e-01) (4, 5, 5.00000000000000000000e-01) (4, 5, 5.00000000000000000000e-01) (4, 5, 5.00000000000000000000e-01) (0, 5, 0.00000000000000000000e+00) (29, 5, 5.00000000000000000000e-01) (30, 5, 5.00000000000000000000e-01) (30, 5, 5.00000000000000000000e-01) (30, 5, 5.00000000000000000000e-01) (30, 5, 5.00000000000000000000e-01) (30, 5, 5.00000000000000000000e-01) (30, 5, 5.00000000000000000000e-01) (30, 5, 5.00000000000000000000e-01) (30, 5, 5.00000000000000000000e-01) (30, 5, 5.00000000000000000000e-01) (30, 5, 5.00000000000000000000e-01) (30, 5, 5.00000000000000000000e-01) (30, 5, 5.00000000000000000000e-01) (30, 5, 5.00000000000000000000e-01) (30, 5, 5.00000000000000000000e-01) (30, 5, 5.00000000000000000000e-01) (30, 5, 5.00000000000000000000e-01) (30, 5, 5.00000000000000000000e-01) (30, 5, 5.00000000000000000000e-01) (30, 5, 5.00000000000000000000e-01) (30, 5, 5.00000000000000000000e-01) (30, 5, 5.00000000000000000000e-01) (30, 5, 5.00000000000000000000e-01) (30, 5, 5.00000000000000000000e-01) (30, 5, 5.00000000000000000000e-01) (29, 5, 5.00000000000000000000e-01) (30, 5, 5.00000000000000000000e-01) (30, 5, 5.00000000000000000000e-01) (30, 5, 5.00000000000000000000e-01) (30, 5, 5.00000000000000000000e-01) (30, 5, 5.00000000000000000000e-01) (30, 5, 5.00000000000000000000e-01) (30, 5, 5.00000000000000000000e-01) (30, 5, 5.00000000000000000000e-01) (30, 5, 5.00000000000000000000e-01) (30, 5, 5.00000000000000000000e-01) (30, 5, 5.00000000000000000000e-01) (30, 5, 5.00000000000000000000e-01) (30, 5, 5.00000000000000000000e-01) (30, 5, 5.00000000000000000000e-01) (30, 5, 5.00000000000000000000e-01) (30, 5, 5.00000000000000000000e-01) (30, 5, 5.00000000000000000000e-01) (30, 5, 5.00000000000000000000e-01) (30, 5, 5.00000000000000000000e-01) (30, 5, 5.00000000000000000000e-01) (30, 5, 5.00000000000000000000e-01) (30, 5, 5.00000000000000000000e-01) (30, 5, 5.00000000000000000000e-01) (30, 5, 5.00000000000000000000e-01) (0, 5, 0.00000000000000000000e+00) (15, 5, 5.00000000000000000000e-01) (15, 5, 5.00000000000000000000e-01) (16, 5, 5.00000000000000000000e-01) (15, 5, 5.00000000000000000000e-01) (16, 5, 5.00000000000000000000e-01) (15, 5, 5.00000000000000000000e-01) (16, 5, 5.00000000000000000000e-01) (15, 5, 5.00000000000000000000e-01) (16, 5, 5.00000000000000000000e-01) (15, 5, 5.00000000000000000000e-01) (16, 5, 5.00000000000000000000e-01) (15, 5, 5.00000000000000000000e-01) (16, 5, 5.00000000000000000000e-01) (15, 5, 5.00000000000000000000e-01) (16, 5, 5.00000000000000000000e-01) (15, 5, 5.00000000000000000000e-01) (16, 5, 5.00000000000000000000e-01) (15, 5, 5.00000000000000000000e-01) (16, 5, 5.00000000000000000000e-01) (15, 5, 5.00000000000000000000e-01) (16, 5, 5.00000000000000000000e-01) (15, 5, 5.00000000000000000000e-01) (16, 5, 5.00000000000000000000e-01) (15, 5, 5.00000000000000000000e-01) (16, 5, 5.00000000000000000000e-01) (15, 5, 5.00000000000000000000e-01) (15, 5, 5.00000000000000000000e-01) (16, 5, 5.00000000000000000000e-01) (15, 5, 5.00000000000000000000e-01) (16, 5, 5.00000000000000000000e-01) (15, 5, 5.00000000000000000000e-01) (16, 5, 5.00000000000000000000e-01) (15, 5, 5.00000000000000000000e-01) (16, 5, 5.00000000000000000000e-01) (15, 5, 5.00000000000000000000e-01) (16, 5, 5.00000000000000000000e-01) (15, 5, 5.00000000000000000000e-01) (16, 5, 5.00000000000000000000e-01) (15, 5, 5.00000000000000000000e-01) (16, 5, 5.00000000000000000000e-01) (15, 5, 5.00000000000000000000e-01) (16, 5, 5.00000000000000000000e-01) (15, 5, 5.00000000000000000000e-01) (16, 5, 5.00000000000000000000e-01) (15, 5, 5.00000000000000000000e-01) (16, 5, 5.00000000000000000000e-01) (15, 5, 5.00000000000000000000e-01) (16, 5, 5.00000000000000000000e-01) (15, 5, 5.00000000000000000000e-01) (16, 5, 5.00000000000000000000e-01) (15, 5, 5.00000000000000000000e-01) (15, 5, 5.00000000000000000000e-01) (16, 5, 5.00000000000000000000e-01) (15, 5, 5.00000000000000000000e-01) (16, 5, 5.00000000000000000000e-01) (15, 5, 5.00000000000000000000e-01) (16, 5, 5.00000000000000000000e-01) (15, 5, 5.00000000000000000000e-01) (16, 5, 5.00000000000000000000e-01) (15, 5, 5.00000000000000000000e-01) (16, 5, 5.00000000000000000000e-01) (15, 5, 5.00000000000000000000e-01) (16, 5, 5.00000000000000000000e-01) (15, 5, 5.00000000000000000000e-01) (16, 5, 5.00000000000000000000e-01) (15, 5, 5.00000000000000000000e-01) (16, 5, 5.00000000000000000000e-01) (15, 5, 5.00000000000000000000e-01) (16, 5, 5.00000000000000000000e-01) (15, 5, 5.00000000000000000000e-01) (16, 5, 5.00000000000000000000e-01) (15, 5, 5.00000000000000000000e-01) (16, 5, 5.00000000000000000000e-01) (15, 5, 5.00000000000000000000e-01) (16, 5, 5.00000000000000000000e-01) (15, 5, 5.00000000000000000000e-01) (15, 5, 5.00000000000000000000e-01) (16, 5, 5.00000000000000000000e-01) (15, 5, 5.00000000000000000000e-01) (16, 5, 5.00000000000000000000e-01) (15, 5, 5.00000000000000000000e-01) (16, 5, 5.00000000000000000000e-01) (15, 5, 5.00000000000000000000e-01) (16, 5, 5.00000000000000000000e-01) (15, 5, 5.00000000000000000000e-01) (16, 5, 5.00000000000000000000e-01) (15, 5, 5.00000000000000000000e-01) (16, 5, 5.00000000000000000000e-01) (15, 5, 5.00000000000000000000e-01) (16, 5, 5.00000000000000000000e-01) (15, 5, 5.00000000000000000000e-01) (16, 5, 5.00000000000000000000e-01) (15, 5, 5.00000000000000000000e-01) (16, 5, 5.00000000000000000000e-01) (15, 5, 5.00000000000000000000e-01) (16, 5, 5.00000000000000000000e-01) (15, 5, 5.00000000000000000000e-01) (16, 5, 5.00000000000000000000e-01) (15, 5, 5.00000000000000000000e-01) (16, 5, 5.00000000000000000000e-01) (0, 5, 0.00000000000000000000e+00) (30, 0, 5.00000000000000000000e-01) (30, 0, 5.00000000000000000000e-01) (30, 0, 5.00000000000000000000e-01) (30, 0, 5.00000000000000000000e-01) (30, 0, 5.00000000000000000000e-01) (0, 0, 0.00000000000000000000e+00)
connections (connected_to_neuron, weight)=(10, -6.05713009834289550781e-01) (6, 2.81258106231689453125e-01) (7, -1.62120437622070312500e+00) (10, 6.30435198545455932617e-02) (0, -3.62691700458526611328e-01) (4, 4.66022014617919921875e-01) (6, 1.37561604380607604980e-01) (10, 4.19483572244644165039e-01) (7, -1.03670358657836914062e+00) (1, 8.63418996334075927734e-01) (3, 5.14780640602111816406e-01) (10, 1.31006741523742675781e+00) (2, 8.06880235671997070312e-01) (3, -1.00546941161155700684e-01) (4, -1.23395845293998718262e-02) (10, 4.13530260324478149414e-01) (6, -5.92208862304687500000e-01) (2, 1.24288332462310791016e+00) (7, -6.74763247370719909668e-02) (10, -4.17744189500808715820e-01) (6, 5.40168821811676025391e-01) (3, 8.86357724666595458984e-01) (1, 1.20511674880981445312e+00) (10, 3.49120944738388061523e-01) (1, 6.86024069786071777344e-01) (8, 4.60236035287380218506e-02) (4, 8.36622655391693115234e-01) (10, 2.33814501762390136719e+00) (4, 1.48298263549804687500e+00) (2, 4.77803081274032592773e-01) (1, 3.49345803260803222656e-01) (10, 3.85254502296447753906e-01) (8, -1.21825790405273437500e+00) (5, 2.98952400684356689453e-01) (1, 3.18343907594680786133e-01) (10, 8.86741101741790771484e-01) (9, 1.08287036418914794922e+00) (3, 6.38661801815032958984e-01) (4, 1.72052104026079177856e-02) (10, -2.50070273876190185547e-01) (4, 9.89556789398193359375e-01) (8, 4.65797305107116699219e-01) (10, 4.53842729330062866211e-01) (3, 8.49377810955047607422e-01) (1, 8.34685027599334716797e-01) (5, -1.77236452698707580566e-01) (10, 1.22542786598205566406e+00) (5, -6.67768120765686035156e-02) (8, -2.05450877547264099121e-01) (0, -8.66698101162910461426e-02) (10, 5.34512102603912353516e-01) (7, 1.50590524077415466309e-01) (2, -3.82715761661529541016e-02) (6, 1.10283660888671875000e+00) (10, -8.64491462707519531250e-01) (5, 2.71852999925613403320e-01) (8, 1.04599487781524658203e+00) (2, 1.69308793544769287109e+00) (10, -6.57867372035980224609e-01) (6, 2.89961308240890502930e-01) (2, 2.99633812904357910156e+00) (8, 7.28447794914245605469e-01) (10, -1.57659187912940979004e-01) (6, -7.22838342189788818359e-01) (4, 7.08750844001770019531e-01) (3, 3.52001488208770751953e-01) (10, 3.75053048133850097656e-01) (6, 3.14518921077251434326e-02) (7, 1.17678666114807128906e+00) (2, -4.43005204200744628906e-01) (10, 4.28408272564411163330e-02) (4, -4.48386764526367187500e+00) (8, -7.35426723957061767578e-01) (9, 2.45191410183906555176e-01) (10, 7.27954149246215820312e-01) (4, 4.99047130346298217773e-01) (8, 1.31592437624931335449e-01) (2, -8.26144576072692871094e-01) (10, -2.45291829109191894531e-01) (9, -4.67777371406555175781e-01) (2, -1.12046015262603759766e+00) (10, 8.00946831703186035156e-01) (6, -3.10842514038085937500e-01) (9, 2.35995918512344360352e-01) (1, 7.35553205013275146484e-01) (10, -7.86858201026916503906e-01) (6, 9.73303377628326416016e-01) (4, -8.03308427333831787109e-01) (1, 1.90352901816368103027e-01) (10, 5.32297968864440917969e-01) (7, -2.80804336071014404297e-01) (4, -8.09224486351013183594e-01) (5, 5.09393274784088134766e-01) (10, 9.54656839370727539062e-01) (6, 1.51005470752716064453e+00) (1, 6.61255121231079101562e-02) (5, 3.17645639181137084961e-01) (10, 4.93356026709079742432e-02) (7, -3.68446081876754760742e-01) (2, 3.46791326999664306641e-01) (8, -5.63876569271087646484e-01) (10, 5.96214830875396728516e-01) (8, 3.36341977119445800781e-01) (0, -2.00698003172874450684e-01) (3, 1.61937817931175231934e-01) (10, 4.74272698163986206055e-01) (4, -1.21528649330139160156e+00) (8, 4.83526617288589477539e-01) (0, 3.14584165811538696289e-01) (10, -5.71466863155364990234e-01) (7, 7.67929852008819580078e-01) (0, -3.13065856695175170898e-01) (8, 1.27126765251159667969e+00) (10, 1.06184768676757812500e+00) (8, 8.48606288433074951172e-01) (3, 1.65710878372192382812e+00) (7, 2.80832856893539428711e-01) (10, -1.87012284994125366211e-01) (7, 9.65183973312377929688e-01) (5, 1.11207389831542968750e+00) (10, 1.10365438461303710938e+00) (5, 2.12122291326522827148e-01) (6, 9.15889382362365722656e-01) (8, 4.30543631315231323242e-01) (10, -5.58966338634490966797e-01) (1, 9.49996709823608398438e-01) (5, 1.61367684602737426758e-01) (2, -7.03650653362274169922e-01) (10, 1.05901396274566650391e+00) (1, 8.62964570522308349609e-01) (6, -4.33549612760543823242e-01) (4, -1.14160895347595214844e+00) (10, 6.34857475757598876953e-01) (4, 1.61709934473037719727e-01) (1, 4.36904191970825195312e-01) (2, -1.61997497081756591797e-01) (10, -5.81243395805358886719e-01) (4, 1.35943913459777832031e+00) (3, 6.73237860202789306641e-01) (8, 6.11032664775848388672e-01) (10, 1.54626274108886718750e+00) (7, 4.04678058624267578125e+00) (8, 8.44212651252746582031e-01) (2, 3.83559286594390869141e-01) (10, -5.75537979602813720703e-02) (1, 6.90506219863891601562e-01) (3, 4.67682927846908569336e-02) (6, 2.02754795551300048828e-01) (10, 7.85684227943420410156e-01) (3, 3.10715109109878540039e-01) (9, 1.21253001689910888672e+00) (1, 1.12076140940189361572e-01) (10, -2.26468861103057861328e-01) (8, 3.90606522560119628906e-01) (6, 2.81746923923492431641e-01) (2, -9.08085703849792480469e-01) (10, 8.88605058193206787109e-01) (5, 5.91815054416656494141e-01) (7, -7.29474484920501708984e-01) (10, -1.73353590071201324463e-02) (6, 2.52187997102737426758e-02) (5, -3.03653925657272338867e-01) (0, -3.52553606033325195312e-01) (10, 7.22728848457336425781e-01) (1, -1.88482046127319335938e-01) (7, 1.34972941875457763672e+00) (2, -1.42421036958694458008e-01) (10, 6.06464743614196777344e-01) (0, -1.17467999458312988281e+00) (3, 8.73078227043151855469e-01) (7, 4.53065067529678344727e-01) (10, 1.19793117046356201172e+00) (2, -1.60427473019808530807e-03) (3, -3.76279026269912719727e-01) (6, 1.14599704742431640625e+00) (10, 3.92972409725189208984e-01) (2, 2.74838018417358398438e+00) (8, 8.63881185650825500488e-02) (1, 4.96064752340316772461e-01) (10, 2.65194863080978393555e-01) (5, 3.02936822175979614258e-01) (1, 6.41468763351440429688e-01) (8, 7.44533598423004150391e-01) (10, -2.32879355549812316895e-01) (8, -3.30352157354354858398e-01) (3, -2.75596112012863159180e-01) (6, -2.00652062892913818359e-01) (10, 9.05861377716064453125e-01) (3, -5.84903657436370849609e-01) (4, 4.93345022201538085938e-01) (2, 1.03370749950408935547e+00) (10, 2.19698572158813476562e+00) (0, 1.81033313274383544922e+00) (6, -1.17211961746215820312e+00) (9, -2.35439985990524291992e-01) (10, 3.66704821586608886719e-01) (4, 7.29747653007507324219e-01) (6, 4.63620036840438842773e-01) (10, 1.39772891998291015625e+00) (4, 3.88854801654815673828e-01) (8, 4.30532366037368774414e-01) (7, 1.42334532737731933594e+00) (10, 2.98995763063430786133e-01) (3, 9.56376433372497558594e-01) (5, 2.34693706035614013672e-01) (6, 3.23659509420394897461e-01) (10, 4.86969947814941406250e-01) (8, 4.09832382202148437500e+00) (1, -7.38045752048492431641e-01) (3, 1.36830604076385498047e+00) (10, -3.12283299863338470459e-02) (4, 6.59123957157135009766e-01) (2, 3.56970697641372680664e-01) (1, 5.39213180541992187500e-01) (10, 3.28961223363876342773e-01) (3, -3.51678639650344848633e-01) (6, -3.87654572725296020508e-01) (4, 1.35492908954620361328e+00) (10, 3.84714156389236450195e-01) (3, -4.36650991439819335938e-01) (2, 6.71006068587303161621e-02) (5, -6.20210647583007812500e-01) (10, 1.36897408962249755859e+00) (6, 4.69039147719740867615e-03) (9, -4.25664693117141723633e-01) (4, 3.79292577505111694336e-01) (10, 3.75085383653640747070e-01) (5, -2.39375829696655273438e-01) (6, 2.83160150051116943359e-01) (3, -2.84032970666885375977e-01) (10, 7.93459787964820861816e-02) (7, 5.95858320593833923340e-02) (4, 1.84960806369781494141e+00) (8, -5.08529663085937500000e-01) (10, 4.74430650472640991211e-01) (8, -3.40309262275695800781e-01) (7, 1.06757283210754394531e+00) (10, 3.07758837938308715820e-01) (1, 4.80241179466247558594e-01) (6, -6.61372661590576171875e-01) (4, -1.05685544013977050781e+00) (10, -2.17635273933410644531e-01) (0, -1.91463208198547363281e+00) (8, -1.87116956710815429688e+00) (7, 2.74699211120605468750e-01) (10, 3.64833511412143707275e-02) (4, 6.32013499736785888672e-01) (8, -6.29308819770812988281e-01) (6, 4.45936053991317749023e-01) (10, 7.84594416618347167969e-01) (3, 1.04591882228851318359e+00) (7, 1.28164517879486083984e+00) (2, 9.20495092868804931641e-01) (10, -4.81649339199066162109e-02) (5, -5.21497189998626708984e-01) (1, 1.17194958031177520752e-01) (2, 9.40628230571746826172e-01) (10, -7.67937839031219482422e-01) (2, 3.59847128391265869141e-01) (3, -9.94663387537002563477e-02) (5, 6.72940731048583984375e-01) (10, -8.60424458980560302734e-01) (6, -1.43751442432403564453e-01) (1, 2.49637365341186523438e-01) (7, 2.19177782535552978516e-01) (10, 9.83623981475830078125e-01) (7, -9.60816800594329833984e-01) (8, 1.55780506134033203125e+00) (2, 7.03071355819702148438e-01) (10, 1.90820574760437011719e-01) (6, -6.22758381068706512451e-02) (3, 3.39076876640319824219e-01) (2, -1.09863311052322387695e-01) (10, -4.10030245780944824219e-01) (1, 5.83039879798889160156e-01) (3, -9.46546792984008789062e-01) (10, 1.76930844783782958984e-01) (4, 1.10256388783454895020e-01) (7, -8.84500503540039062500e-01) (3, -4.34018045663833618164e-01) (10, -7.74248242378234863281e-01) (3, 1.22461684048175811768e-01) (6, 4.49692219495773315430e-01) (0, 9.44990396499633789062e-01) (10, 4.21054959297180175781e-01) (1, -5.72118163108825683594e-01) (5, 5.04453957080841064453e-01) (7, 1.07006639242172241211e-01) (10, -6.79400861263275146484e-01) (1, 5.71146845817565917969e-01) (6, 2.40827217698097229004e-01) (8, -6.35530054569244384766e-01) (10, 2.20259398221969604492e-01) (6, 5.99414288997650146484e-01) (4, -4.40007418394088745117e-01) (7, 5.54528176784515380859e-01) (10, 1.95811375975608825684e-01) (4, 3.01092773675918579102e-01) (8, 6.70943111181259155273e-02) (2, -6.06374263763427734375e-01) (10, 7.55605340003967285156e-01) (4, 7.18170627951622009277e-02) (2, 9.16355431079864501953e-01) (7, 1.09713888168334960938e+00) (10, -2.47563764452934265137e-01) (1, 2.55507230758666992188e-01) (7, 1.11052906513214111328e+00) (4, -9.12517309188842773438e-01) (10, 3.92700970172882080078e-01) (8, 1.19302713871002197266e+00) (0, 1.85342803597450256348e-01) (2, 1.29529988765716552734e+00) (10, 1.46868419647216796875e+00) (3, -2.21203714609146118164e-02) (5, 5.17292246222496032715e-02) (10, 1.38274133205413818359e-01) (3, -5.43276071548461914062e-01) (1, 3.64537775516510009766e-01) (2, -1.46224045753479003906e+00) (10, 5.57280957698822021484e-01) (5, -2.92213797569274902344e-01) (9, 1.91519469022750854492e-01) (6, -3.65183115005493164062e-01) (10, -8.92814338207244873047e-01) (6, 6.29201352596282958984e-01) (8, -1.70145988464355468750e-01) (2, -1.25739112496376037598e-01) (10, -1.21014565229415893555e-01) (1, 5.40632367134094238281e-01) (8, -9.51206743717193603516e-01) (6, 5.42591929435729980469e-01) (10, 1.26177549362182617188e+00) (6, 7.68271908164024353027e-02) (9, -3.21277767419815063477e-01) (1, -1.16897797584533691406e+00) (10, 1.83735251426696777344e-01) (2, 7.41061985492706298828e-01) (3, 3.87969892472028732300e-03) (7, -1.05561494827270507812e+00) (10, 4.03943568468093872070e-01) (6, -5.55022776126861572266e-01) (1, 1.59714400768280029297e-01) (0, 6.21917307376861572266e-01) (10, -8.44860851764678955078e-01) (2, 1.78217780590057373047e+00) (5, 6.55853271484375000000e-01) (9, -3.37939292192459106445e-01) (10, 1.59453725814819335938e+00) (5, -6.26483699306845664978e-03) (8, 7.08306908607482910156e-01) (6, 5.58428108692169189453e-01) (10, -9.25390645861625671387e-02) (3, 5.34872293472290039062e-01) (4, 7.79897689819335937500e-01) (10, 6.02360963821411132812e-01) (1, 9.08925831317901611328e-01) (8, -5.44003009796142578125e-01) (7, 7.34587550163269042969e-01) (10, -6.41132056713104248047e-01) (8, 2.48659342527389526367e-01) (0, -4.95351821184158325195e-01) (4, -3.56913417577743530273e-01) (10, 4.76732641458511352539e-01) (8, 3.83254915475845336914e-01) (4, 5.74916779994964599609e-01) (0, -5.22720098495483398438e-01) (10, 3.85058164596557617188e-01) (7, 3.15723717212677001953e-01) (3, -6.13234043121337890625e-01) (4, -1.27759850025177001953e+00) (10, 7.21951723098754882812e-02) (7, 4.46453809738159179688e-01) (6, 6.95223689079284667969e-01) (9, 3.92264008522033691406e-01) (10, 3.53417456150054931641e-01) (4, 4.73922681808471679688e+00) (6, 1.24156951904296875000e+00) (7, -1.56821057200431823730e-01) (10, -4.33573663234710693359e-01) (0, 5.01244008541107177734e-01) (3, 1.51132643222808837891e+00) (4, 1.32114484906196594238e-01) (10, -5.00362336635589599609e-01) (6, 4.47896182537078857422e-01) (3, 2.80809134244918823242e-01) (2, 1.31996822357177734375e+00) (10, 1.19475281238555908203e+00) (5, -2.05094143748283386230e-01) (6, 8.63110542297363281250e-01) (2, 6.95620000362396240234e-01) (111, 6.72597825527191162109e-01) (62, -4.37932133674621582031e-01) (71, 1.26438486576080322266e+00) (85, 5.82636594772338867188e+00) (80, -6.01778459548950195312e+00) (96, 2.03692317008972167969e-01) (87, 1.64861813187599182129e-01) (78, -1.63902580738067626953e+00) (12, -1.86362228393554687500e+01) (42, -9.01064097881317138672e-01) (84, 3.00863504409790039062e+00) (29, 2.28956446051597595215e-01) (73, 1.00032889842987060547e+00) (23, -8.89848947525024414062e-01) (31, -2.84005552530288696289e-01) (48, 9.32734489440917968750e-01) (53, 1.38396155834197998047e+00) (92, -2.23184490203857421875e+00) (108, -1.36935186386108398438e+00) (26, -7.80605852603912353516e-01) (19, 1.00125875473022460938e+01) (22, -1.23583638668060302734e+00) (66, -3.23072695732116699219e+00) (97, -2.50804400444030761719e+00) (58, 3.84876310825347900391e-01) (81, 5.96834838390350341797e-01) (17, 9.15090024471282958984e-01) (64, -5.38091719150543212891e-01) (72, 1.10777878761291503906e+00) (111, -3.95184516906738281250e-01) (53, -5.80803692340850830078e-01) (55, 2.44941711425781250000e-02) (38, -1.21073633432388305664e-01) (73, 9.96103823184967041016e-01) (62, 6.35566981509327888489e-03) (101, -2.09562644362449645996e-01) (79, 2.30548471212387084961e-01) (46, -1.62129819393157958984e-01) (42, 1.34772479534149169922e+00) (100, 1.48535418510437011719e+00) (84, 8.89124810695648193359e-01) (107, -4.38886880874633789062e-01) (39, 4.50689375400543212891e-01) (99, 1.56743848323822021484e+00) (63, 4.23084050416946411133e-01) (31, -8.13138961791992187500e-01) (83, -7.10219502449035644531e-01) (66, -1.22893834114074707031e+00) (85, 1.49147534370422363281e+00) (15, 6.55239343643188476562e-01) (75, -5.74224352836608886719e-01) (23, 2.40765631198883056641e-01) (27, -4.19274896383285522461e-01) (88, -2.46894866228103637695e-01) (61, -6.17033839225769042969e-01) (68, 1.01973092555999755859e+00) (87, -7.42076575756072998047e-01) (28, -2.11528158187866210938e+00) (86, -3.80236029624938964844e-01) (111, 1.45747745037078857422e+00) (59, -4.65447247028350830078e-01) (65, 9.53999757766723632812e-01) (66, 2.41822409629821777344e+00) (83, -1.65091399103403091431e-02) (93, 7.07354426383972167969e-01) (101, 2.29775950312614440918e-01) (74, 1.75446395874023437500e+01) (81, -2.11859047412872314453e-01) (97, -1.90030443668365478516e+00) (40, -2.41280511021614074707e-01) (49, -2.06429082900285720825e-02) (17, -1.96450352668762207031e-01) (56, -9.04221311211585998535e-02) (18, 2.82076978683471679688e+00) (51, -4.08152751624584197998e-02) (45, 2.23843240737915039062e+00) (62, 6.64771497249603271484e-01) (63, -1.92068308591842651367e-01) (31, 5.54978370666503906250e-01) (100, 1.14964456558227539062e+01) (86, -4.65784978866577148438e+00) (68, 4.63346898555755615234e-01) (33, -2.18836841583251953125e+01) (35, 4.86883461475372314453e-01) (48, 2.37851715087890625000e+00) (58, -3.93044985830783843994e-02) (32, 1.18217587471008300781e+00) (41, -3.79329314455389976501e-03) (54, 4.51741367578506469727e-01) (111, 1.02613520622253417969e+00) (12, -1.13622941970825195312e+01) (74, 3.38787007331848144531e+00) (98, 8.57101678848266601562e-02) (83, -2.67463684082031250000e-01) (50, 8.45562756061553955078e-01) (77, -5.23940622806549072266e-01) (27, 1.16412723064422607422e+00) (19, 1.05121350288391113281e+00) (75, 1.07869371771812438965e-01) (17, 7.16388046741485595703e-01) (28, 1.62358492612838745117e-01) (71, 1.67458760738372802734e+00) (21, 1.09166309237480163574e-01) (63, 2.12604656815528869629e-01) (37, 2.69559979438781738281e-01) (58, -5.50352275371551513672e-01) (85, 1.73348993062973022461e-01) (78, -3.82195085287094116211e-01) (66, 5.91273665428161621094e-01) (69, -6.46594583988189697266e-01) (81, 3.73721301555633544922e-01) (33, 1.13321378827095031738e-01) (82, -1.24328923225402832031e+00) (64, -1.01165853440761566162e-01) (55, -5.16553521156311035156e-01) (54, -4.35536205768585205078e-01) (43, -3.29176545143127441406e-01) (99, 2.53040850162506103516e-01) (104, 2.82420277595520019531e-01) (111, 4.56170625984668731689e-02) (11, -6.02184891700744628906e-01) (26, -9.39795494079589843750e-01) (40, -3.16857099533081054688e-01) (76, -7.63598382472991943359e-02) (85, -4.33426052331924438477e-01) (29, 9.00447607040405273438e-01) (32, -8.96337032318115234375e-02) (14, -1.63390970230102539062e+00) (20, 1.00521254539489746094e+00) (34, -1.43944442272186279297e+00) (82, -1.56398773193359375000e-01) (16, -6.29354655742645263672e-01) (106, -1.90435603260993957520e-01) (52, -5.43936416506767272949e-02) (96, -5.86252033710479736328e-01) (97, -3.86728572845458984375e+00) (71, -2.73049324750900268555e-01) (42, 6.18218064308166503906e-01) (93, 1.17715573310852050781e+00) (17, 7.98727095127105712891e-01) (23, 6.38032972812652587891e-01) (30, 8.37506115436553955078e-01) (33, -8.13225507736206054688e-01) (51, 7.09729641675949096680e-02) (72, -2.30615162849426269531e+00) (104, 1.49416163563728332520e-01) (12, 2.47751787304878234863e-01) (92, 1.07112228870391845703e+00) (90, -8.16408023238182067871e-02) (111, -2.15653151273727416992e-01) (24, -1.45393043756484985352e-01) (44, -8.08808445930480957031e-01) (74, 5.60362935066223144531e-01) (88, 4.48358714580535888672e-01) (110, 8.75335574150085449219e-01) (83, 2.77561992406845092773e-01) (57, 6.90586388111114501953e-01) (19, -7.06844851374626159668e-02) (49, -2.22116202116012573242e-01) (35, -2.00910642743110656738e-01) (17, 1.18490302562713623047e+00) (37, -4.23594117164611816406e-01) (13, -1.13397479057312011719e+00) (69, 3.92706811428070068359e-01) (78, 6.47172152996063232422e-01) (29, 6.79984211921691894531e-01) (52, -4.72877562046051025391e-01) (86, -1.76628339290618896484e+00) (51, 1.33718717098236083984e+00) (85, 1.05858337879180908203e+00) (72, 1.00284349918365478516e+00) (70, 1.20313942432403564453e+00) (67, 2.01369500160217285156e+00) (103, -8.12880992889404296875e-02) (81, 6.39171659946441650391e-01) (108, 5.14661431312561035156e-01) (47, -1.14883277565240859985e-02) (90, 1.03813064098358154297e+00) (32, -3.05435091257095336914e-01) (111, 1.70555591583251953125e-01) (96, 4.94646608829498291016e-01) (86, -5.26006996631622314453e-01) (82, -1.04805004596710205078e+00) (29, 2.16059756278991699219e+00) (63, -3.21746408939361572266e-01) (88, 1.83031141757965087891e-01) (44, 4.58355784416198730469e-01) (24, 7.13332593441009521484e-01) (35, 1.04110995307564735413e-02) (54, 5.12698709964752197266e-01) (61, -2.91591453552246093750e+00) (47, -3.36271554231643676758e-01) (13, -7.93498694896697998047e-01) (11, 6.50667369365692138672e-01) (20, 4.74865525960922241211e-01) (32, -1.02704131603240966797e+00) (101, 5.10054945945739746094e-01) (83, 9.34026956558227539062e-01) (73, 1.47045600414276123047e+00) (93, 1.86818778514862060547e-01) (21, -6.84677720069885253906e-01) (70, 6.38902008533477783203e-01) (109, 3.87954562902450561523e-01) (99, 1.06140387058258056641e+00) (67, -4.67147320508956909180e-01) (85, 1.72006642818450927734e+00) (26, 9.19604718685150146484e-01) (43, 1.27019858360290527344e+00) (40, -7.98178836703300476074e-02) (111, -1.44279435276985168457e-01) (40, 1.34372627735137939453e+00) (55, 5.52010834217071533203e-01) (102, -9.14061009883880615234e-01) (52, 7.13698625564575195312e-01) (42, -8.23645889759063720703e-01) (91, 4.99834239482879638672e-01) (16, -3.07199925184249877930e-01) (101, -1.10286509990692138672e+00) (80, -2.61624693870544433594e-01) (22, 6.55656993389129638672e-01) (104, -1.09613621234893798828e+00) (79, 1.60056754946708679199e-01) (105, 9.34671640396118164062e-01) (57, 7.83595204353332519531e-01) (103, 2.00816288590431213379e-01) (41, 2.35731333494186401367e-01) (51, 1.02530789375305175781e+00) (31, 1.53629988431930541992e-01) (108, -2.78879292309284210205e-02) (97, 1.21712291240692138672e+00) (21, -2.43825599551200866699e-01) (72, -2.29107901453971862793e-01) (66, -2.04966068267822265625e-01) (39, 4.49012368917465209961e-01) (88, -3.51579725742340087891e-01) (56, 1.16625040769577026367e-01) (60, 9.79015648365020751953e-01) (58, -6.44760966300964355469e-01) (62, -1.69593915343284606934e-01) (111, -4.97346282005310058594e-01) (97, 9.39910650253295898438e-01) (64, -3.83112937211990356445e-01) (110, 1.39973270893096923828e+00) (67, -8.33240628242492675781e-01) (103, 3.69690477848052978516e-01) (95, 6.86653256416320800781e-01) (30, -1.18543958663940429688e+00) (35, -2.15932413935661315918e-01) (94, 3.50826948881149291992e-01) (50, -3.80208373069763183594e+00) (15, 1.48343288898468017578e+00) (76, 1.68707180023193359375e+00) (93, 8.38337361812591552734e-01) (74, -1.50848579406738281250e+00) (98, -8.12603175640106201172e-01) (39, 1.07490551471710205078e+00) (57, -2.44135797023773193359e-01) (29, 1.99989402294158935547e+00) (102, 1.22628822922706604004e-01) (34, 1.02967476844787597656e+00) (11, 1.52178868651390075684e-01) (43, 1.28172922134399414062e+00) (18, -1.91631293296813964844e+00) (12, 4.52641218900680541992e-01) (100, -9.42743957042694091797e-01) (54, 4.18226532638072967529e-02) (77, 6.51531457901000976562e-01) (17, -1.43681120872497558594e+00) (56, -4.02509123086929321289e-01) (111, 7.57964611053466796875e-01) (68, -6.18418693542480468750e-01) (75, 7.55891144275665283203e-01) (92, 8.22514057159423828125e-01) (78, 7.60764181613922119141e-01) (80, 2.01905176043510437012e-01) (86, -6.86314046382904052734e-01) (88, 4.94387209415435791016e-01) (57, -9.20748293399810791016e-01) (35, 9.99791622161865234375e-01) (109, -2.84303903579711914062e-01) (82, -3.83752375841140747070e-01) (54, 3.17637354135513305664e-01) (95, 3.70939195156097412109e-01) (17, 1.48434615135192871094e+00) (55, 1.04261684417724609375e+00) (64, 1.72008490562438964844e+00) (83, 7.66295015811920166016e-01) (49, 2.09009861946105957031e+00) (69, -1.00358419120311737061e-01) (91, 3.02832931280136108398e-01) (38, 6.34691417217254638672e-02) (103, -1.05355584621429443359e+00) (102, 1.44188916683197021484e+00) (99, -2.39308282732963562012e-01) (87, -1.14014700055122375488e-01) (26, -4.38029989600181579590e-02) (45, 6.83752417564392089844e-01) (94, -7.91929543018341064453e-01) (108, -9.04180943965911865234e-01) (111, 4.40577983856201171875e-01) (17, -2.60025680065155029297e-01) (50, 5.32790243625640869141e-01) (24, 1.26828396320343017578e+00) (52, -1.82343095541000366211e-01) (15, -1.74115091562271118164e-01) (90, 6.38485550880432128906e-01) (16, 6.97883605957031250000e-01) (58, 7.99871563911437988281e-01) (25, -1.50264516472816467285e-01) (55, 2.92289882898330688477e-01) (94, -2.99619007855653762817e-02) (12, 5.33871936798095703125e+00) (103, 1.20973989367485046387e-01) (13, 3.39543335139751434326e-02) (41, 1.97570100426673889160e-01) (21, 3.59617114067077636719e-01) (99, 1.09698617458343505859e+00) (105, -8.01659747958183288574e-02) (93, -3.09019178152084350586e-01) (36, -3.89945596456527709961e-01) (80, 1.38401067256927490234e+00) (82, -1.61032134201377630234e-03) (29, 4.21327531337738037109e-01) (27, -1.02750748395919799805e-01) (106, 6.40685141086578369141e-01) (75, 7.23126083612442016602e-02) (43, -2.17662572860717773438e+00) (101, 1.19286119937896728516e+00) (42, 3.36480569839477539062e+00) (111, 1.30970752239227294922e+00) (78, 3.62135976552963256836e-01) (104, -4.73131448030471801758e-01) (81, 2.77709484100341796875e-01) (34, -6.35761618614196777344e-01) (96, 1.15268683433532714844e+00) (95, 5.60608625411987304688e-01) (57, -5.74560880661010742188e-01) (58, 1.01879930496215820312e+00) (68, -6.56909883022308349609e-01) (84, -7.01881527900695800781e-01) (32, 4.83461230993270874023e-01) (48, -4.82219368219375610352e-01) (56, -6.22159123420715332031e-01) (100, 1.23580045998096466064e-01) (109, -9.15025055408477783203e-01) (64, -1.22034525871276855469e+00) (25, 9.02279734611511230469e-01) (54, -3.94263595342636108398e-01) (102, 6.51037739589810371399e-03) (107, -1.39285421371459960938e+00) (38, 1.44409060478210449219e+00) (71, -1.05602093040943145752e-01) (16, -2.95737802982330322266e-01) (17, 3.40333759784698486328e-01) (36, 2.80588459968566894531e+00) (44, -3.16908508539199829102e-02) (77, -3.32116901874542236328e-01) (76, 9.20400023460388183594e-01) (41, 5.80555498600006103516e-01) (111, 5.76464116573333740234e-01) (19, 9.13631916046142578125e-01) (52, -6.28000140190124511719e-01) (61, 1.30968344211578369141e+00) (91, 3.53742331266403198242e-01) (106, 5.98727054893970489502e-02) (26, 9.91712152957916259766e-01) (69, 2.61089932173490524292e-02) (92, -6.81650280952453613281e-01) (30, -6.56347990036010742188e-01) (94, -9.51368272304534912109e-01) (66, -9.35947418212890625000e-01) (23, 5.72529435157775878906e-01) (24, 4.64449040591716766357e-02) (16, 7.75307655334472656250e-01) (73, -1.07296906411647796631e-01) (59, 6.24426782131195068359e-01) (67, 2.93131113052368164062e-01) (33, -1.29620075225830078125e-01) (57, -1.94048196077346801758e-01) (108, -4.43854406476020812988e-02) (65, -2.38355726003646850586e-01) (104, -4.73157763481140136719e-02) (87, -1.12658548355102539062e+00) (20, -6.49570822715759277344e-01) (17, -5.34145832061767578125e-02) (82, -1.44913524389266967773e-01) (43, -1.02924811840057373047e+00) (32, 6.25382602214813232422e-01) (40, -5.44250607490539550781e-01) (111, 7.56042480468750000000e-01) (101, -2.53445744514465332031e-01) (26, -1.65312755852937698364e-02) (15, -4.62021857500076293945e-01) (81, -2.55870193243026733398e-01) (48, -5.73979914188385009766e-01) (93, 1.32726848125457763672e+00) (91, 7.22894310951232910156e-01) (19, 1.35773587226867675781e+00) (13, -3.70441347360610961914e-01) (60, -6.76791131496429443359e-01) (100, -6.68300762772560119629e-02) (46, 1.17793810367584228516e+00) (71, 8.92044901847839355469e-01) (79, -7.08560526371002197266e-01) (52, 1.66781675815582275391e+00) (90, -2.65483468770980834961e-01) (57, -1.78883194923400878906e-01) (95, 1.10844679176807403564e-01) (99, -1.73678910732269287109e+00) (67, -1.05234241485595703125e+00) (24, 8.17832350730895996094e-02) (63, -9.61853638291358947754e-02) (75, -3.25210034847259521484e-01) (77, 1.06599211692810058594e+00) (64, -1.05709053575992584229e-01) (49, 1.58547103404998779297e+00) (51, -2.61858940124511718750e+00) (92, 7.16591835021972656250e-01) (70, 3.83778750896453857422e-01) (111, 4.02280211448669433594e-01) (28, 4.79511439800262451172e-01) (59, 1.94645360112190246582e-01) (108, 7.12860882282257080078e-01) (81, 2.47789263725280761719e-01) (109, 7.85486876964569091797e-01) (17, 1.75027918815612792969e+00) (100, 8.71778190135955810547e-01) (52, -3.59435558319091796875e+00) (75, -1.84839665889739990234e-01) (18, -5.02955401316285133362e-03) (110, 8.80532741546630859375e-01) (105, 3.69885981082916259766e-01) (63, -2.34838891029357910156e+00) (51, -3.21154564619064331055e-01) (58, 1.35189503431320190430e-01) (39, 1.43122661113739013672e+00) (87, 1.21409937739372253418e-01) (36, -2.49617624282836914062e+00) (50, 2.75425672531127929688e-01) (26, 3.97397786378860473633e-01) (77, 7.60291397571563720703e-01) (22, 3.30745697021484375000e-01) (23, -5.72437584400177001953e-01) (101, 1.54984247684478759766e+00) (102, -1.32109224796295166016e+00) (20, 1.98883199691772460938e+00) (46, 1.21725893020629882812e+00) (80, 1.21589863300323486328e+00) (70, -1.80508255958557128906e+00) (111, 2.63236761093139648438e-01) (77, 1.09877669811248779297e+00) (105, -7.74627089500427246094e-01) (29, 2.10147476196289062500e+00) (69, 4.02090966701507568359e-01) (23, -2.89481252431869506836e-01) (36, 2.58684188127517700195e-01) (33, 6.36739373207092285156e-01) (59, 1.29463624954223632812e+00) (35, -3.75299632549285888672e-01) (108, 1.21576309204101562500e+00) (32, 6.15939795970916748047e-01) (66, 2.02445670962333679199e-01) (19, 1.80200323462486267090e-01) (84, 1.73084318637847900391e+00) (52, -4.01175355911254882812e+00) (81, 7.93635129928588867188e-01) (76, 1.54634952545166015625e+00) (38, 1.20861029624938964844e+00) (92, -2.58174270391464233398e-01) (99, 2.03755044937133789062e+00) (16, 1.12621557712554931641e+00) (25, 1.07710266113281250000e+00) (72, 7.80121922492980957031e-01) (11, 1.37195944786071777344e+00) (79, 4.20725297927856445312e+00) (21, 2.91454941034317016602e-01) (15, 7.23434567451477050781e-01) (101, -4.17456597089767456055e-01) (49, -2.68560814857482910156e+00) (111, 5.36225080490112304688e-01) (30, -2.68519539386034011841e-02) (58, 1.11859762668609619141e+00) (93, 9.04324829578399658203e-01) (99, -3.02701331675052642822e-02) (104, 6.58795595169067382812e-01) (66, -3.71426939964294433594e-01) (31, 3.99495631456375122070e-01) (74, 9.61502492427825927734e-01) (95, -6.70261263847351074219e-01) (41, 1.43004268407821655273e-01) (48, 1.42772495746612548828e-02) (108, 7.36691236495971679688e-01) (110, 6.95949196815490722656e-01) (86, 5.02444744110107421875e-01) (21, 4.81525659561157226562e-01) (103, -3.66936475038528442383e-01) (26, 5.07603511214256286621e-02) (94, 6.33160173892974853516e-01) (109, -3.84440898895263671875e-01) (14, 3.20206493139266967773e-01) (97, -4.54773008823394775391e-01) (81, 2.03330308198928833008e-01) (17, 2.59238004684448242188e-01) (29, 1.09248244762420654297e+00) (45, 4.75113362073898315430e-01) (12, 8.90655815601348876953e-01) (69, 5.86146414279937744141e-01) (19, 7.62156486511230468750e-01) (35, 2.51240372657775878906e-01) (111, -9.17345106601715087891e-01) (15, -1.08661115169525146484e+00) (57, -9.83226239681243896484e-01) (94, -8.61375927925109863281e-02) (22, 7.52872407436370849609e-01) (61, 1.27480804920196533203e+00) (30, 6.38426899909973144531e-01) (89, 1.20411634445190429688e+00) (84, 7.50127017498016357422e-01) (88, -6.26393258571624755859e-01) (99, -5.62128365039825439453e-01) (81, 9.49169993400573730469e-01) (44, -7.02713906764984130859e-01) (93, -7.74570286273956298828e-01) (58, -3.97921174764633178711e-01) (29, 7.76846706867218017578e-01) (107, 6.56488686800003051758e-02) (28, 1.18082582950592041016e+00) (80, 6.91223680973052978516e-01) (39, 3.36957931518554687500e-01) (38, -9.71144735813140869141e-01) (50, 9.18431162834167480469e-01) (35, -1.35793960094451904297e+00) (13, -3.03910315036773681641e-01) (20, -1.31119585037231445312e+00) (43, -6.36657655239105224609e-01) (68, -5.39919912815093994141e-01) (54, -4.87523004412651062012e-02) (37, 2.13035404682159423828e-01) (47, -1.16353690624237060547e+00) (111, -6.89891934394836425781e-01) (20, 2.59912848472595214844e-01) (37, -3.96981447935104370117e-01) (47, -4.83769029378890991211e-02) (64, 4.50876593589782714844e-01) (90, -2.83905148506164550781e-01) (100, 1.58998146653175354004e-01) (98, 9.13619399070739746094e-01) (83, 2.75357037782669067383e-01) (82, 8.85802328586578369141e-01) (63, 8.55989396572113037109e-01) (12, -1.70032672882080078125e+01) (75, -1.29048287868499755859e-01) (17, 2.62049347162246704102e-01) (55, -3.71156156063079833984e-01) (60, -4.90645408630371093750e-01) (42, 6.83480560779571533203e-01) (74, 2.77267313003540039062e+00) (14, 7.01973140239715576172e-01) (26, -7.10412502288818359375e-01) (91, -4.52914685010910034180e-01) (23, 1.39488625526428222656e+00) (85, 2.11168706417083740234e-01) (54, -3.29822570085525512695e-01) (66, -7.48876273632049560547e-01) (50, 6.55547142028808593750e-01) (18, -4.29974853992462158203e-01) (38, 1.62795519828796386719e+00) (39, 9.84946966171264648438e-01) (43, 4.88047242164611816406e-01) (111, 1.92276552319526672363e-01) (82, 4.29397439956665039062e+00) (94, -1.99310332536697387695e-01) (49, 2.00686782598495483398e-01) (43, 4.37519669532775878906e-01) (58, 1.44577693939208984375e+00) (47, -3.96688282489776611328e-01) (65, 8.76863598823547363281e-02) (16, 3.23930740356445312500e-01) (14, 9.49036896228790283203e-01) (61, -1.20501577854156494141e+00) (80, 8.76468241214752197266e-01) (74, 6.75681543350219726562e+00) (27, 4.54435884952545166016e-01) (51, 1.67414522171020507812e+00) (90, -3.69458347558975219727e-01) (89, 2.40408137440681457520e-01) (103, -7.37271383404731750488e-02) (84, 3.48041206598281860352e-01) (52, 1.22022676467895507812e+00) (50, -1.61329078674316406250e+00) (20, -4.79034841060638427734e-01) (66, -1.33960008621215820312e-01) (12, -1.53603191375732421875e+01) (45, -1.91407069563865661621e-01) (23, -9.29478406906127929688e-01) (101, 5.83441071212291717529e-02) (30, -1.65669178962707519531e+00) (56, 5.48381805419921875000e-01) (78, 6.96366429328918457031e-01) (111, 6.77408039569854736328e-01) (51, 2.40611836314201354980e-01) (69, 2.49805212020874023438e-01) (103, 2.88830325007438659668e-02) (89, 9.62961435317993164062e-01) (54, 1.41471278667449951172e+00) (36, 6.64909422397613525391e-01) (102, -3.03040742874145507812e-01) (66, 4.55741137266159057617e-02) (41, 1.57540154457092285156e+00) (79, 1.11517810821533203125e+00) (32, 1.69573438167572021484e+00) (70, -7.64483273029327392578e-01) (44, 2.07686752080917358398e-01) (29, 3.58210802078247070312e-01) (39, 5.63467144966125488281e-02) (72, 7.87468478083610534668e-02) (108, -1.01121425628662109375e+00) (27, 1.36273264884948730469e-01) (95, 1.59496963024139404297e+00) (53, 3.94591409713029861450e-03) (19, 1.43608725070953369141e+00) (81, 3.06437134742736816406e-01) (80, -1.29767727851867675781e+00) (13, -5.09373724460601806641e-01) (49, 1.14214205741882324219e+00) (104, -3.52192580699920654297e-01) (87, -1.89902877807617187500e+00) (30, -1.23490333557128906250e+00) (38, 1.45743691921234130859e+00) (111, 6.48456037044525146484e-01) (83, -1.29595249891281127930e-01) (14, -4.42760038375854492188e+00) (20, 1.46490931510925292969e+00) (92, -9.71353292465209960938e-01) (17, -1.90784394741058349609e-01) (95, 1.02073037624359130859e+00) (21, 4.18976604938507080078e-01) (102, -2.24852383136749267578e-01) (46, 3.38865906000137329102e-01) (78, 8.89736831188201904297e-01) (86, 5.67340970039367675781e-01) (109, 1.08941447734832763672e+00) (62, 7.56508767604827880859e-01) (65, 7.08011746406555175781e-01) (29, 9.45010423660278320312e-01) (71, 1.54023575782775878906e+00) (32, 3.80847960710525512695e-01) (89, 5.93122482299804687500e-01) (99, 6.30627036094665527344e-01) (33, -3.76697897911071777344e-01) (54, 1.37188568711280822754e-01) (87, 8.58937084674835205078e-01) (77, 1.15678995847702026367e-01) (107, 3.91317814588546752930e-01) (58, 1.08346843719482421875e+00) (75, 7.86218523979187011719e-01) (18, -5.80252826213836669922e-01) (101, 2.12213516235351562500e+00) (41, 5.39204537868499755859e-01) (111, 8.75675499439239501953e-01) (36, 1.83813273906707763672e+00) (95, 5.92784047126770019531e-01) (99, -6.39395236968994140625e-01) (45, -9.07001793384552001953e-01) (12, 2.38332796096801757812e+00) (106, 2.04398125410079956055e-01) (15, 1.24824011325836181641e+00) (101, 1.89032286405563354492e-01) (26, 9.89336490631103515625e-01) (49, -2.38703832030296325684e-01) (31, 6.39291107654571533203e-01) (34, -2.20996946096420288086e-01) (25, 1.16643416881561279297e+00) (22, 7.59697481989860534668e-02) (55, -5.66851854324340820312e-01) (65, 4.42102104425430297852e-02) (51, 5.03825306892395019531e-01) (104, -1.39780879020690917969e-01) (93, 1.23204874992370605469e+00) (94, 4.74828667938709259033e-02) (53, 5.52922964096069335938e-01) (83, 3.89473915100097656250e-01) (69, -4.39300954341888427734e-01) (48, -4.37290579080581665039e-01) (74, 2.09850716590881347656e+00) (64, 9.60500955581665039062e-01) (60, 2.32248395681381225586e-01) (23, 4.92740690708160400391e-01) (86, -3.78959625959396362305e-01) (111, -6.08083367347717285156e-01) (25, 1.56100225448608398438e+00) (42, 4.90091711282730102539e-01) (45, -3.17663162946701049805e-01) (48, 1.26148390769958496094e+00) (102, -8.92250657081604003906e-01) (100, -1.30588263273239135742e-01) (89, 2.56570816040039062500e-01) (44, 7.36712634563446044922e-01) (22, -1.74324065446853637695e-01) (97, -1.45111310482025146484e+00) (33, 3.68914604187011718750e-02) (41, 1.85105532407760620117e-01) (86, -6.80700898170471191406e-01) (52, -3.59044253826141357422e-01) (77, -6.65757238864898681641e-01) (29, -4.08927708864212036133e-01) (109, 1.92562967538833618164e-01) (54, -4.55128818750381469727e-01) (17, 8.60861420631408691406e-01) (14, 5.54661989212036132812e-01) (73, 8.13094496726989746094e-01) (57, 2.39385038614273071289e-01) (18, 2.94874578714370727539e-01) (20, -3.97345602512359619141e-01) (59, 1.15560889244079589844e+00) (13, -5.22866070270538330078e-01) (68, 2.21067562699317932129e-01) (26, -5.94784975051879882812e-01) (70, -8.34076523780822753906e-01) (111, -3.47826957702636718750e-01) (79, -2.57863402366638183594e-01) (28, -1.82928240299224853516e+00) (40, 5.74280083179473876953e-01) (27, -8.33650827407836914062e-01) (85, 4.03541564941406250000e-01) (88, 8.28500628471374511719e-01) (99, -5.10937035083770751953e-01) (59, 5.25999546051025390625e-01) (74, 2.21811223030090332031e+00) (15, -6.90582334995269775391e-01) (80, -2.64493131637573242188e+00) (12, -1.01807184219360351562e+01) (83, -5.37142992019653320312e-01) (42, 5.63626110553741455078e-01) (52, -1.34808695316314697266e+00) (98, 8.30857813358306884766e-01) (95, -9.28818732500076293945e-02) (51, 4.10576283931732177734e-01) (84, 1.02217841148376464844e+00) (38, 1.40027165412902832031e+00) (47, 4.08643215894699096680e-01) (43, 6.20755374431610107422e-01) (29, 6.38375803828239440918e-02) (20, -9.31126356124877929688e-01) (56, 8.87888297438621520996e-02) (68, 5.32456040382385253906e-01) (13, -3.81604790687561035156e-01) (33, -3.21620523929595947266e-01) (25, 1.15271949768066406250e+00) (111, 6.16890415549278259277e-02) (67, -9.53972399234771728516e-01) (84, 1.62197351455688476562e-01) (45, 5.77071070671081542969e-01) (24, -2.48937591910362243652e-01) (70, 8.84040355682373046875e-01) (29, -8.68588209152221679688e-01) (80, 3.31280708312988281250e-01) (76, 5.21116331219673156738e-02) (39, 3.22560214996337890625e+00) (12, 3.68381917476654052734e-01) (103, -1.07258951663970947266e+00) (88, 5.02030253410339355469e-01) (35, -7.01409697532653808594e-01) (14, -1.08280515670776367188e+00) (26, -1.56574055552482604980e-01) (61, 1.59204971790313720703e+00) (37, 5.78587889671325683594e-01) (54, -2.19100809097290039062e+00) (69, 9.95464384555816650391e-01) (32, 4.39515382051467895508e-01) (30, 1.54640480875968933105e-01) (101, 2.32455945014953613281e+00) (44, -5.36082923412322998047e-01) (77, -1.28186428546905517578e+00) (55, 3.24402391910552978516e-01) (52, 6.01002395153045654297e-01) (33, -1.15648853778839111328e+00) (83, 6.57812416553497314453e-01) (111, 3.52318823337554931641e-01) (23, 1.99674859642982482910e-01) (34, 3.23560810089111328125e+00) (38, 5.65466403961181640625e-01) (46, -3.66975903511047363281e-01) (73, -6.21617019176483154297e-01) (80, 1.03301131725311279297e+00) (60, -1.47071078419685363770e-01) (103, 3.67008656263351440430e-01) (72, -5.72291195392608642578e-01) (27, -3.26690912246704101562e-01) (35, -2.67992228269577026367e-01) (102, 1.47102028131484985352e-01) (43, 3.40977758169174194336e-01) (85, 2.37107828259468078613e-01) (57, 4.73509961739182472229e-03) (91, 5.51300823688507080078e-01) (105, 1.23931407928466796875e+00) (67, 1.56697237491607666016e+00) (28, -1.46476542949676513672e+00) (40, -2.43971705436706542969e-01) (49, -7.47770130634307861328e-01) (16, 5.13060986995697021484e-01) (109, -1.36853945255279541016e+00) (68, 9.81893837451934814453e-01) (61, -4.17510747909545898438e-01) (50, 3.00578570365905761719e+00) (93, 5.25482118129730224609e-01) (106, -7.45415151119232177734e-01) (42, -2.18532115221023559570e-01) (111, 4.32522833347320556641e-01) (12, -4.70517444610595703125e+00) (103, 4.61766541004180908203e-01) (26, 1.10091793537139892578e+00) (87, -9.26170289516448974609e-01) (42, -1.14400768280029296875e+00) (53, 9.29255068302154541016e-01) (99, 5.11664628982543945312e-01) (79, 2.72574871778488159180e-01) (65, 1.19568395614624023438e+00) (60, 4.48470890522003173828e-01) (35, 4.73037242889404296875e-01) (57, 6.48520469665527343750e-01) (88, -8.69498014450073242188e-01) (16, -3.75214934349060058594e-01) (24, 2.02852320671081542969e+00) (45, 1.32199525833129882812e+00) (83, -6.16044461727142333984e-01) (51, -5.79600632190704345703e-01) (52, -1.01126812398433685303e-01) (95, 6.24224781990051269531e-01) (29, -1.07148540019989013672e+00) (13, -1.63883164525032043457e-01) (37, -2.36122727394104003906e-01) (72, 5.03772199153900146484e-01) (62, 4.49012726545333862305e-01) (56, 6.82858765125274658203e-01) (30, 3.61057370901107788086e-01) (41, 3.46583217382431030273e-01) (69, -6.26414835453033447266e-01) (111, 1.18909657001495361328e+00) (41, 2.74292618036270141602e-01) (49, 2.21295148134231567383e-01) (58, 5.75582496821880340576e-02) (38, 9.01471674442291259766e-01) (48, -5.00639736652374267578e-01) (29, 4.12394136190414428711e-01) (67, 1.02124571800231933594e+00) (44, 1.10580086708068847656e+00) (100, 4.50897598266601562500e+00) (98, -2.02428317070007324219e+00) (26, -7.34807014465332031250e-01) (55, 8.13078641891479492188e-01) (14, -3.29168462753295898438e+00) (45, -4.85129743814468383789e-01) (24, 1.30333113670349121094e+00) (51, -1.04431128501892089844e+00) (53, 1.66096889972686767578e+00) (77, 1.74564826488494873047e+00) (83, 1.00751221179962158203e+00) (66, 1.72639048099517822266e+00) (104, 3.44074177742004394531e+00) (103, 7.66351938247680664062e-01) (89, -2.59628534317016601562e+00) (109, 6.77557051181793212891e-01) (90, 1.06628382205963134766e+00) (73, -3.17159771919250488281e-01) (72, 3.47220093011856079102e-01) (32, 8.14080476760864257812e-01) (39, 6.40463769435882568359e-01) (111, -3.99542320519685745239e-03) (33, 1.02985508739948272705e-01) (63, 1.11054005101323127747e-02) (72, 6.78756296634674072266e-01) (81, 6.08094632625579833984e-01) (98, 2.42962145805358886719e+00) (94, 1.43545341491699218750e+00) (61, 6.50774776935577392578e-01) (62, -8.65437388420104980469e-01) (21, 3.51969480514526367188e-01) (47, 9.09903459250926971436e-03) (80, 1.13613533973693847656e+00) (31, 1.81524634361267089844e+00) (40, -1.78048189263790845871e-03) (108, 3.84840548038482666016e-01) (75, -2.37170577049255371094e+00) (13, -4.69873510301113128662e-02) (52, -1.32887795567512512207e-01) (101, 3.08447337150573730469e+00) (23, -3.27553510665893554688e-01) (19, -3.70800822973251342773e-01) (44, -7.85998031497001647949e-02) (30, -8.12391191720962524414e-03) (50, 1.24055421352386474609e+00) (26, -2.65631210058927536011e-02) (92, 1.99618399143218994141e-01) (17, -1.81353473663330078125e+00) (65, 2.61473625898361206055e-01) (32, 1.43530890345573425293e-01) (60, 1.95839464664459228516e-01) (111, 6.71306908130645751953e-01) (31, 3.70417213439941406250e+00) (85, -8.70775878429412841797e-01) (66, 1.51950967311859130859e+00) (99, 8.09675395488739013672e-01) (67, 1.57525992393493652344e+00) (14, 8.22530806064605712891e-01) (21, 7.89062142372131347656e-01) (52, 1.07641196250915527344e+00) (97, 8.50252568721771240234e-01) (88, 1.27398300170898437500e+00) (19, 7.23664581775665283203e-01) (92, 4.43330228328704833984e-01) (50, 3.32833003997802734375e+00) (57, -1.66737273335456848145e-01) (72, -7.31218397617340087891e-01) (82, -3.27252835035324096680e-01) (39, -2.21665993332862854004e-01) (102, -7.24757075309753417969e-01) (30, 9.81113719940185546875e+00) (101, -4.17175143957138061523e-01) (65, 8.57607424259185791016e-01) (103, 6.00412905216217041016e-01) (79, 1.30497443675994873047e+00) (18, 9.74189758300781250000e-01) (68, 1.65720272064208984375e+00) (23, -1.54803991317749023438e-01) (100, 2.40056082606315612793e-01) (94, -8.97882938385009765625e-01) (69, 2.31243610382080078125e+00) (111, 7.18258798122406005859e-01) (35, 4.05404753983020782471e-02) (50, -8.58184754848480224609e-01) (36, 6.74089312553405761719e-01) (84, 2.34177485108375549316e-01) (61, -5.51731586456298828125e-01) (82, 5.81037640571594238281e-01) (59, 1.01060517132282257080e-01) (75, 3.17362636327743530273e-01) (95, 2.32500359416007995605e-01) (104, -8.81492793560028076172e-01) (101, 1.03074622154235839844e+00) (79, -3.91509026288986206055e-01) (20, -3.48651185631752014160e-02) (41, 8.76475930213928222656e-01) (94, 7.83291280269622802734e-01) (16, 1.05779159069061279297e+00) (91, 1.27686008810997009277e-01) (48, -9.75456893444061279297e-01) (85, 1.43192839622497558594e+00) (86, 1.38879024982452392578e+00) (68, -4.48972225189208984375e-01) (90, 5.85998058319091796875e-01) (62, 2.81665295362472534180e-01) (24, -1.27368819713592529297e+00) (97, 6.60895258188247680664e-02) (72, -5.80954968929290771484e-01) (64, 4.12199079990386962891e-01) (38, 7.92441725730895996094e-01) (25, 2.49930601567029953003e-02) (111, 7.58733630180358886719e-01) (13, 1.11339688301086425781e+00) (27, -1.10970117151737213135e-01) (29, -6.85404837131500244141e-01) (87, 7.88811981678009033203e-01) (55, 5.07186949253082275391e-01) (33, -2.05260133743286132812e+00) (57, 3.72177481651306152344e-01) (54, 4.77568656206130981445e-01) (72, -4.54936891794204711914e-01) (41, -3.04233640432357788086e-01) (43, 5.47968208789825439453e-01) (85, -2.48483300209045410156e-01) (84, 7.69386172294616699219e-01) (92, 9.91536021232604980469e-01) (105, -6.30088388919830322266e-01) (71, 9.72392439842224121094e-01) (106, -3.36558520793914794922e-02) (12, 1.21222534179687500000e+01) (50, 9.31868888437747955322e-03) (70, 2.15221092104911804199e-01) (48, -8.28837990760803222656e-01) (56, 9.66962516307830810547e-01) (89, -3.01226305961608886719e+00) (59, 5.17778873443603515625e-01) (49, -9.64448690414428710938e-01) (18, 3.01189780235290527344e+00) (101, 1.51971444487571716309e-01) (20, 4.31789517402648925781e-01) (82, 8.68802845478057861328e-01) (111, 7.03932940959930419922e-01) (49, 5.47658205032348632812e-01) (51, -2.11209878325462341309e-01) (12, 4.39105653762817382812e+00) (21, 8.46576452255249023438e-01) (96, 7.50809192657470703125e-01) (31, 1.07348120212554931641e+00) (81, 1.25808095932006835938e+00) (94, 6.64225935935974121094e-01) (70, 5.70627868175506591797e-01) (54, -2.90946334600448608398e-01) (29, 4.81100052595138549805e-01) (27, -5.69487288594245910645e-02) (14, -4.96906906366348266602e-01) (93, 1.10213029384613037109e+00) (59, -4.63041096925735473633e-01) (92, 3.47933799028396606445e-01) (78, 1.71693116426467895508e-01) (83, 1.26771092414855957031e-01) (23, 3.71720820665359497070e-01) (41, 2.32431516051292419434e-01) (108, 2.08966064453125000000e+00) (90, 4.39393788576126098633e-01) (67, 1.28996610641479492188e+00) (16, -3.07610464096069335938e+00) (48, -1.64253249764442443848e-01) (82, 2.78988146781921386719e+00) (38, -2.74123024940490722656e+00) (73, 1.53653785586357116699e-01) (43, 8.35589349269866943359e-01) (111, 2.33804062008857727051e-01) (16, 7.32423841953277587891e-01) (28, 1.71124413609504699707e-01) (46, -4.01770412921905517578e-01) (82, 1.63428872823715209961e-01) (106, -4.54420149326324462891e-01) (18, 8.85914325714111328125e-01) (104, 5.99784374237060546875e-01) (92, 1.92171320319175720215e-01) (102, 1.25900506973266601562e+00) (56, 1.88171076774597167969e+00) (43, 4.88359063863754272461e-01) (80, 2.51367449760437011719e+00) (91, 5.22176265716552734375e-01) (27, 7.63056695461273193359e-01) (64, 2.22832393646240234375e+00) (40, -8.59080255031585693359e-01) (39, -3.41709762811660766602e-01) (62, 9.96951162815093994141e-01) (25, 8.96297216415405273438e-01) (100, 1.25506758689880371094e-01) (47, 6.27554953098297119141e-02) (89, -5.75232934951782226562e+00) (86, -3.56546342372894287109e-01) (38, 1.98549520969390869141e+00) (99, 5.15893983840942382812e+00) (36, 1.89266133308410644531e+00) (29, 3.36547064781188964844e+00) (78, 1.13888347148895263672e+00) (94, 1.25990307331085205078e+00) (111, 2.66265183687210083008e-01) (43, 3.90264064073562622070e-01) (86, 2.63418674468994140625e-01) (91, 4.76296901702880859375e-01) (80, 1.81288146972656250000e+00) (88, 1.96674361824989318848e-01) (79, 5.15621423721313476562e-01) (75, 5.31811714172363281250e-01) (60, -5.90880393981933593750e-01) (41, -1.53528273105621337891e+00) (73, 2.42922633886337280273e-01) (24, 9.78267312049865722656e-01) (52, 1.02251803874969482422e+00) (32, 5.14839649200439453125e-01) (89, 5.66177129745483398438e-01) (106, -1.20111607015132904053e-01) (35, -1.50017499923706054688e-01) (67, -2.06191897392272949219e+00) (47, 2.08803966641426086426e-01) (77, 6.66504502296447753906e-02) (108, -1.46179735660552978516e+00) (99, 9.00031507015228271484e-01) (100, 2.76419579982757568359e-01) (103, 3.47808092832565307617e-01) (19, 4.95816802978515625000e+00) (56, -5.55743603035807609558e-03) (104, 2.46346101164817810059e-01) (53, -2.85944968461990356445e-01) (98, 1.53676211833953857422e-01) (107, -4.57280397415161132812e-01) (111, -1.63133099675178527832e-01) (109, -1.04154682159423828125e+00) (50, 1.58320873975753784180e-01) (49, 2.73512661457061767578e-01) (85, 1.29131125286221504211e-02) (80, 4.92643070220947265625e+00) (38, 6.29461002349853515625e+00) (53, 6.68926417827606201172e-01) (75, 7.23578572273254394531e-01) (78, -9.13157820701599121094e-01) (55, 6.60084962844848632812e-01) (93, -1.04682765901088714600e-01) (82, 5.65281093120574951172e-01) (73, -4.04350847005844116211e-01) (26, -6.82140231132507324219e-01) (81, -1.30187201499938964844e+00) (12, -1.80676341056823730469e-01) (45, 2.11623692512512207031e+00) (61, 2.00143739581108093262e-01) (31, 1.98711502552032470703e+00) (47, -6.93211257457733154297e-01) (69, 9.23905849456787109375e-01) (62, 1.60770833492279052734e-01) (51, -1.39771178364753723145e-01) (25, 6.36664211750030517578e-01) (20, 6.38905405998229980469e-01) (43, 2.70602047443389892578e-01) (94, 6.68415069580078125000e-01) (18, 4.14532929658889770508e-01) (32, 1.08854496479034423828e+00) (111, -6.15714371204376220703e-01) (21, 7.91349649429321289062e-01) (32, 7.15593248605728149414e-02) (62, -4.89361792802810668945e-01) (65, 1.90279114246368408203e+00) (48, -3.22506308555603027344e-01) (101, 3.80055069923400878906e-01) (44, -3.69991719722747802734e-01) (74, 5.42330443859100341797e-02) (39, 6.21224999427795410156e-01) (84, 9.84856843948364257812e-01) (52, -2.31396019458770751953e-01) (89, 1.99603557586669921875e-01) (103, 1.20120298862457275391e+00) (11, -1.64068058133125305176e-01) (92, -4.76461172103881835938e-01) (106, -2.37722843885421752930e-01) (69, -5.61645746231079101562e-01) (37, 1.57861381769180297852e-01) (78, 7.04801857471466064453e-01) (41, -1.28826034069061279297e+00) (90, 6.33797705173492431641e-01) (59, -6.71286106109619140625e-01) (81, 3.37092697620391845703e-01) (56, 4.81483459472656250000e-01) (91, -5.80229580402374267578e-01) (70, -5.36464571952819824219e-01) (58, -3.08922320604324340820e-01) (96, 7.06255614757537841797e-01) (75, 6.73596322536468505859e-01) (111, 7.89698958396911621094e-01) (14, -8.19488048553466796875e-01) (22, -1.29532903432846069336e-01) (28, 4.44030493497848510742e-01) (15, -9.68083024024963378906e-01) (34, -5.33730685710906982422e-01) (101, -3.45436304807662963867e-01) (12, 2.09686899185180664062e+00) (37, 6.44135892391204833984e-01) (62, -4.54695284366607666016e-01) (99, -2.08509778976440429688e+00) (32, 9.15273904800415039062e-01) (90, 3.61622929573059082031e-01) (61, 4.47904169559478759766e-01) (24, 6.30472838878631591797e-01) (26, -9.13111567497253417969e-01) (79, -2.23119497299194335938e+00) (53, -5.17051160335540771484e-01) (68, -5.21953284740447998047e-01) (16, -4.67780828475952148438e-01) (67, 3.34347039461135864258e-01) (17, -8.38595032691955566406e-01) (42, -1.07161998748779296875e+00) (39, -3.90478223562240600586e-01) (104, 2.08982467651367187500e-01) (74, 1.51768767833709716797e+00) (100, 8.97088125348091125488e-02) (71, 1.54966115951538085938e+00) (81, 1.84029653668403625488e-01) (82, -1.18955862522125244141e+00) (111, 5.92496871948242187500e-01) (61, -1.34136021137237548828e+00) (30, -1.04540288448333740234e+00) (51, -8.62522363662719726562e-01) (17, 5.54236590862274169922e-01) (27, -5.43849647045135498047e-01) (47, -6.89982712268829345703e-01) (88, 6.00416421890258789062e-01) (91, 6.35725975036621093750e-01) (42, 4.47434425354003906250e-01) (69, 2.88821041584014892578e-01) (53, -9.88731861114501953125e-01) (97, 4.97862398624420166016e-01) (57, 2.52262294292449951172e-01) (96, 3.77273969352245330811e-02) (83, 8.30708205699920654297e-01) (16, 8.52163434028625488281e-02) (54, 3.04672265052795410156e+00) (103, -1.13205775618553161621e-01) (59, 2.22439980506896972656e+00) (62, 1.00857198238372802734e+00) (66, 5.47150611877441406250e-01) (82, -4.58831191062927246094e-01) (12, -2.71359920501708984375e+00) (60, -2.20674052834510803223e-01) (29, 1.85922479629516601562e+00) (98, 1.07616221904754638672e+00) (105, 3.77850413322448730469e+00) (84, 5.99880993366241455078e-01) (14, 3.29423666000366210938e-01) (111, -7.93751180171966552734e-01) (56, 8.20308387279510498047e-01) (107, 3.85635554790496826172e-01) (99, 1.35250592231750488281e+00) (83, 9.88473773002624511719e-01) (19, -6.90086305141448974609e-01) (106, 1.14346645772457122803e-01) (79, 2.68724001944065093994e-02) (48, -4.31701719760894775391e-01) (60, -3.57926607131958007812e-01) (102, 2.28824988007545471191e-01) (15, -3.12029182910919189453e-01) (23, -8.74247670173645019531e-01) (64, 9.97388362884521484375e-02) (75, 1.19265794754028320312e-01) (57, 9.08180475234985351562e-02) (28, -1.22846412658691406250e+00) (55, 3.68593521416187286377e-02) (44, 7.24842309951782226562e-01) (35, -4.08697307109832763672e-01) (18, 5.23678958415985107422e-01) (70, 5.21096289157867431641e-01) (110, -2.38202944397926330566e-01) (12, -2.64960944652557373047e-01) (46, -7.00933814048767089844e-01) (68, -3.17928940057754516602e-01) (61, 9.49302852153778076172e-01) (80, 1.45211303234100341797e+00) (32, 1.51818066835403442383e-01) (90, -1.58412128686904907227e-01) (111, 1.77191591262817382812e+00) (39, -1.93171039223670959473e-01) (54, -9.92976367473602294922e-01) (60, 9.86074864864349365234e-01) (83, 5.41318416595458984375e-01) (40, 6.59886181354522705078e-01) (37, 2.14874124526977539062e+00) (107, 9.56328296661376953125e+00) (26, 6.04964542388916015625e+00) (46, 6.37000560760498046875e+00) (91, 1.49731647968292236328e+00) (47, -5.54995870590209960938e+00) (31, 8.29292106628417968750e+00) (76, -2.62067556381225585938e+00) (96, -8.64617586135864257812e-01) (65, 1.28017354011535644531e+00) (34, 1.20419197082519531250e+01) (41, -2.46352478861808776855e-01) (53, 1.18603038787841796875e+00) (11, 7.45430886745452880859e-01) (15, 1.73928813934326171875e+01) (79, -3.41161757707595825195e-01) (19, 2.22075390815734863281e+00) (58, -1.50502796173095703125e+01) (66, 1.18168315887451171875e+01) (17, -2.75043666362762451172e-01) (81, 2.01575064659118652344e+00) (56, 1.70177686214447021484e+00) (18, 1.53627085685729980469e+00) (105, -6.62180244922637939453e-01) (111, -1.31447404623031616211e-01) (109, 7.45594143867492675781e-01) (38, -2.79291510581970214844e-01) (70, 3.03859889507293701172e-01) (15, 9.87030327320098876953e-01) (82, 2.15926122665405273438e+00) (53, 3.55788064189255237579e-03) (28, -9.56450879573822021484e-01) (25, 1.01829278469085693359e+00) (86, -4.70506995916366577148e-01) (17, 3.35521101951599121094e-02) (26, 6.45474374294281005859e-01) (36, 5.62260925769805908203e-01) (55, 2.19756531715393066406e+00) (46, 9.76581498980522155762e-03) (57, 1.28358960151672363281e-01) (56, -3.75212192535400390625e-01) (68, 2.55872100591659545898e-01) (29, -4.13358736038208007812e+00) (79, 1.83047783374786376953e+00) (44, -7.71028473973274230957e-02) (62, 1.25383520126342773438e+00) (91, 6.26140892505645751953e-01) (72, 1.63896217942237854004e-01) (45, 1.59228205680847167969e+00) (40, 8.34642589092254638672e-01) (59, -5.76675117015838623047e-01) (81, -4.66459214687347412109e-01) (33, -2.53767341375350952148e-01) (22, 3.80626350641250610352e-01) (111, 1.32481563091278076172e+00) (70, 1.47235703468322753906e+00) (12, 9.95658755302429199219e-01) (38, 1.57570332288742065430e-01) (101, 2.79298567771911621094e+00) (33, -4.09046679735183715820e-01) (105, 4.38673526048660278320e-01) (47, 2.88272053003311157227e-01) (21, -6.95573911070823669434e-02) (76, -5.56907773017883300781e-01) (46, 8.06015968322753906250e-01) (65, -4.88813370466232299805e-01) (95, 6.26881659030914306641e-01) (59, 4.39365178346633911133e-01) (72, -2.85505354404449462891e-01) (15, -1.23769259452819824219e+00) (80, -1.64506450295448303223e-01) (26, -7.65483617782592773438e-01) (78, 9.94285881519317626953e-01) (35, 4.90315735340118408203e-01) (36, 1.02085244655609130859e+00) (73, 4.27132248878479003906e-01) (93, 8.43539476394653320312e-01) (75, -1.16059315204620361328e+00) (25, 1.34079480171203613281e+00) (14, -1.71760082244873046875e-01) (67, 8.23898673057556152344e-01) (27, 4.42141354084014892578e-01) (64, -2.07807272672653198242e-01) (58, 1.72927153110504150391e+00) (111, -1.14197814464569091797e+00) (102, 6.90983176231384277344e-01) (18, 5.32897949218750000000e-01) (95, 2.68973976373672485352e-01) (40, 1.51682507991790771484e+00) (29, 5.66781222820281982422e-01) (89, -2.75069117546081542969e+00) (53, 3.59019666910171508789e-01) (84, 9.14855897426605224609e-01) (73, 1.89189136028289794922e+00) (64, 5.08119404315948486328e-01) (42, -8.00506412982940673828e-01) (25, 9.29223954677581787109e-01) (33, 2.71420329809188842773e-01) (58, -2.92008817195892333984e-01) (43, 4.47888448834419250488e-02) (93, -8.74525606632232666016e-01) (70, 8.18759575486183166504e-02) (22, 1.07485461235046386719e+00) (106, -1.11447548866271972656e+00) (62, 2.12888121604919433594e-01) (67, -7.59988307952880859375e-01) (61, 5.56228339672088623047e-01) (85, 1.20361125469207763672e+00) (24, 3.41678231954574584961e-01) (45, 9.09413248300552368164e-02) (76, -8.03062319755554199219e-01) (23, 3.53504091501235961914e-01) (88, 4.78398829698562622070e-01) (108, -2.03138637542724609375e+00) (111, 6.08246684074401855469e-01) (48, 9.73223209381103515625e-01) (16, -2.08167582750320434570e-01) (43, 3.75862330198287963867e-01) (22, -3.05913954973220825195e-01) (21, -1.13677906990051269531e+00) (56, -3.47182363271713256836e-01) (42, 6.40302151441574096680e-02) (69, 1.12404334545135498047e+00) (34, 1.57625007629394531250e+00) (38, 1.47196793556213378906e+00) (26, 1.58779114484786987305e-01) (98, 1.27037405967712402344e+00) (74, -2.53891015052795410156e+00) (81, 1.41829192638397216797e-01) (37, -2.12504505179822444916e-03) (65, 6.66455805301666259766e-01) (80, 6.16861343383789062500e-01) (93, 9.70372557640075683594e-01) (27, -1.31648194789886474609e+00) (101, 8.16691160202026367188e-01) (105, 2.18037605285644531250e+00) (76, 1.19699585437774658203e+00) (19, 6.55711218714714050293e-02) (66, -5.96359729766845703125e-01) (97, 1.09285795688629150391e+00) (104, 1.10119223594665527344e-01) (73, -3.25241863727569580078e-01) (20, -8.25106739997863769531e-01) (79, 1.20319679379463195801e-01) (111, -1.46254569292068481445e-01) (18, -1.07221710681915283203e+00) (74, 1.20712089538574218750e+00) (52, -6.25169098377227783203e-01) (69, -1.52660354971885681152e-01) (45, 1.73979531973600387573e-02) (46, 8.12255084514617919922e-01) (101, 7.46207892894744873047e-01) (66, 2.98809438943862915039e-01) (57, 6.60299062728881835938e-01) (20, 1.42896425724029541016e+00) (96, 2.70086318254470825195e-01) (100, -9.15920674800872802734e-01) (13, -1.92074164748191833496e-01) (103, 1.85879766941070556641e-01) (82, -3.01277446746826171875e+00) (92, 3.02436798810958862305e-01) (43, 1.98543936014175415039e-01) (105, 6.45161747932434082031e-01) (41, -1.62722557783126831055e-01) (19, 9.69888150691986083984e-01) (56, 3.21715563535690307617e-01) (30, 4.86447066068649291992e-01) (79, -6.96683108806610107422e-01) (15, 2.51967310905456542969e-01) (38, 2.07541555166244506836e-01) (80, 4.91834789514541625977e-01) (67, 3.55620324611663818359e-01) (91, -1.07917761802673339844e+00) (31, -6.52314841747283935547e-01) (111, 6.60886466503143310547e-01) (35, 5.82158192992210388184e-02) (98, 1.16712760925292968750e+00) (52, -7.62948572635650634766e-01) (100, 4.42689031362533569336e-01) (16, -4.00101363658905029297e-01) (24, -8.74111428856849670410e-02) (45, -6.10263764858245849609e-01) (31, -4.85129386186599731445e-01) (93, -8.61684381961822509766e-01) (71, 1.24918866157531738281e+00) (92, -4.75802481174468994141e-01) (73, 4.66520339250564575195e-02) (108, -7.18158304691314697266e-01) (47, 4.09030556678771972656e-01) (63, 1.03652822971343994141e+00) (32, -8.49773228168487548828e-01) (21, 8.39627027511596679688e-01) (25, 5.76437771320343017578e-01) (49, 1.25956416130065917969e-01) (101, -9.74770843982696533203e-01) (51, 7.17453837394714355469e-01) (86, -4.33765292167663574219e-01) (105, 1.10005557537078857422e+00) (41, -8.53856503963470458984e-01) (53, -5.15815317630767822266e-02) (77, -7.38983333110809326172e-01) (109, -2.33527317643165588379e-01) (75, 3.95483225584030151367e-01) (85, 8.69477927684783935547e-01) (111, -7.54202187061309814453e-01) (89, 1.57146647572517395020e-01) (51, -1.71141016483306884766e+00) (71, 7.79590547084808349609e-01) (45, -1.70048847794532775879e-01) (59, 1.65555670857429504395e-01) (97, -1.06728422641754150391e+00) (85, -1.22012898325920104980e-01) (21, 6.31587624549865722656e-01) (52, 1.06287062168121337891e-01) (47, 8.78868460655212402344e-01) (32, -8.48279714584350585938e-01) (64, -4.56456035375595092773e-01) (63, 3.17272090911865234375e+00) (95, 1.27751290798187255859e+00) (88, -1.95931375026702880859e-01) (39, -4.40668910741806030273e-01) (15, 1.05516505241394042969e+00) (60, -3.04155826568603515625e-01) (57, 5.34976124763488769531e-01) (35, -9.53202486038208007812e-01) (25, -4.78049963712692260742e-02) (36, -1.85530602931976318359e-01) (86, 5.85147619247436523438e-01) (48, -2.77980566024780273438e-01) (20, 3.04841995239257812500e-01) (16, -5.32550334930419921875e-01) (65, 2.91439235210418701172e-01) (53, -2.98177808523178100586e-01) (19, 2.79591560363769531250e-01) (111, -6.24628126621246337891e-01) (108, 1.88791084289550781250e+00) (46, -9.78702381253242492676e-02) (93, 1.12239336967468261719e+00) (75, 1.82939755916595458984e+00) (65, 1.08185684680938720703e+00) (84, 4.45472389459609985352e-01) (70, 1.87698528170585632324e-01) (58, 5.72972774505615234375e-01) (55, -5.60163438320159912109e-01) (22, -1.27083134651184082031e+00) (81, 3.70338410139083862305e-01) (77, 6.70468509197235107422e-01) (27, -8.74706745147705078125e-01) (59, -7.15800344944000244141e-01) (69, 8.68019998073577880859e-01) (43, 1.33214271068572998047e+00) (95, 2.52799242734909057617e-01) (96, 7.03257262706756591797e-01) (44, -2.86804199218750000000e-01) (74, -1.27472329139709472656e+00) (68, -1.32449793815612792969e+00) (16, -5.23199677467346191406e-01) (106, 4.74812299013137817383e-01) (107, -6.10946476459503173828e-01) (57, 3.74292165040969848633e-01) (72, 1.37340933084487915039e-01) (38, -9.39453959465026855469e-01) (67, 1.24692368507385253906e+00) (100, 7.27578163146972656250e-01) (162, 1.00058972835540771484e+00) (119, 8.73248755931854248047e-01) (128, 4.11397397518157958984e-01) (150, -4.10913825035095214844e-01) (157, -9.17662203311920166016e-01) (133, 1.24175202846527099609e+00) (156, 8.60613763332366943359e-01) (160, 9.42607820034027099609e-02) (140, 3.95138040184974670410e-02) (149, 8.79682838916778564453e-01) (131, 1.65084505081176757812e+00) (123, 5.26532709598541259766e-01) (127, 1.80462732911109924316e-01) (122, -4.52926903963088989258e-02) (134, 1.97526895999908447266e+00) (162, 7.17691123485565185547e-01) (135, 8.74283134937286376953e-01) (154, 3.03124451637268066406e+00) (139, 2.49590992927551269531e+00) (122, 2.06379607319831848145e-01) (145, 8.96888136863708496094e-01) (144, -3.64756435155868530273e-02) (160, 2.69284009933471679688e-01) (136, 3.49362874031066894531e+00) (142, 1.55513560771942138672e+00) (137, 2.10477733612060546875e+00) (132, -2.16285657882690429688e+00) (114, 1.06211841106414794922e+00) (153, 8.79630863666534423828e-01) (155, 3.23823428153991699219e+00) (162, -8.78537058830261230469e-01) (147, -1.11984267830848693848e-01) (133, 5.29877245426177978516e-01) (124, -8.97760152816772460938e-01) (146, -5.85178196430206298828e-01) (132, 7.91516423225402832031e-01) (151, -1.20570130646228790283e-01) (123, 5.49991011619567871094e-01) (156, 7.10050106048583984375e-01) (128, 6.43824517726898193359e-01) (134, -1.83442324399948120117e-01) (117, 1.35264277458190917969e+00) (118, -4.27312672138214111328e-01) (135, -1.75618901848793029785e-01) (121, -1.85054063796997070312e-01) (136, 3.45611780881881713867e-01) (162, -7.03062534332275390625e-01) (137, 4.84606772661209106445e-01) (155, 1.84528338909149169922e+00) (122, -8.85266244411468505859e-01) (132, -7.95076608657836914062e-01) (113, -1.11540246009826660156e+00) (115, 3.08902812004089355469e+00) (130, 2.48271971940994262695e-01) (123, 4.44637656211853027344e-01) (160, -8.27941775321960449219e-01) (149, 8.10101330280303955078e-01) (118, 1.40686750411987304688e+00) (119, 1.48398922756314277649e-02) (120, 1.62848854064941406250e+00) (139, 1.89100746065378189087e-02) (162, 2.09618759155273437500e+00) (131, 2.67074036598205566406e+00) (121, 6.85166656970977783203e-01) (116, 1.49398350715637207031e+00) (135, -7.01898574829101562500e-01) (146, -1.01280823349952697754e-01) (119, -1.88012093305587768555e-01) (153, 1.50322771072387695312e+00) (144, 2.04690265655517578125e+00) (113, 2.96420741081237792969e+00) (152, 2.76225447654724121094e-01) (159, 3.45363974571228027344e+00) (127, 7.88056492805480957031e-01) (140, 3.06849217414855957031e+00) (114, 3.23152691125869750977e-01) (160, -3.63386034965515136719e-01) (162, 4.39105939865112304688e+00) (154, -3.51037669181823730469e+00) (153, 3.47857117652893066406e+00) (126, 1.45395421981811523438e+00) (130, -9.05169582366943359375e+00) (119, 2.02342872619628906250e+01) (159, 5.40168714523315429688e+00) (123, 3.57298821210861206055e-01) (129, -1.01756250858306884766e+00) (149, 2.64778733253479003906e+00) (127, -4.89250135421752929688e+00) (117, 1.54850375652313232422e+00) (148, 1.88631951808929443359e+00) (114, 7.73755693435668945312e+00) (157, -1.17108917236328125000e+00) (162, 1.07888770103454589844e+00) (161, 5.79573810100555419922e-01) (148, 3.14464306831359863281e+00) (157, -1.65236508846282958984e+00) (160, 5.30738234519958496094e-01) (121, 8.63969102501869201660e-02) (144, -7.21268588677048683167e-03) (123, 1.15632772445678710938e-01) (117, -7.57403433322906494141e-01) (134, -1.28755533695220947266e+00) (114, 4.89945888519287109375e-01) (146, -2.30687808990478515625e+00) (138, 3.51315426826477050781e+00) (122, 1.71257659792900085449e-01) (142, 4.76245075464248657227e-01) (152, -6.65318727493286132812e-01) (162, -8.25339972972869873047e-01) (160, 9.58730220794677734375e-01) (161, 4.96197032928466796875e+00) (124, 1.29761295318603515625e+01) (131, 3.72552061080932617188e+00) (157, -1.22521746158599853516e+00) (114, -1.69655323028564453125e+01) (153, 2.47173219919204711914e-01) (159, -1.07384419441223144531e+00) (147, -2.12589800357818603516e-01) (134, 2.87880271673202514648e-01) (139, 2.46801480650901794434e-01) (150, 2.22102046012878417969e+00) (158, -2.39255800843238830566e-02) (115, 6.40615463256835937500e+00) (162, -9.41302478313446044922e-01) (153, 1.06675636768341064453e+00) (142, 3.52362012863159179688e+00) (148, -2.03096643090248107910e-01) (159, 6.01560510694980621338e-02) (157, -8.79609346389770507812e-01) (137, 3.74911159276962280273e-01) (130, -2.52310132980346679688e+00) (121, 1.99438595771789550781e+00) (133, 1.96431856602430343628e-02) (151, 1.05904829502105712891e+00) (156, -4.37642693519592285156e-01) (160, -1.26803621649742126465e-01) (154, 6.03607296943664550781e-01) (123, -6.85250818729400634766e-01) (147, 1.67166435718536376953e+00) (162, 7.68331289291381835938e-01) (120, -1.61332622170448303223e-01) (132, 2.71165227890014648438e+00) (119, -5.97812950611114501953e-01) (151, 1.17015576362609863281e+00) (117, -2.46825709939002990723e-01) (154, 1.23429429531097412109e+00) (139, -9.24227714538574218750e-01) (135, -2.47227400541305541992e-02) (159, -6.71696364879608154297e-01) (149, 2.92948627471923828125e+00) (141, 3.61274027824401855469e+00) (143, 3.55258911848068237305e-01) (127, -1.43776404857635498047e+00) (128, -1.03902745246887207031e+00) (162, 4.74910497665405273438e-01) (133, -1.35127079486846923828e+00) (113, 1.22661960124969482422e+00) (141, 1.11383175849914550781e+00) (157, 5.31117916107177734375e-01) (154, 2.51767694950103759766e-01) (152, -3.00673842430114746094e+00) (126, 6.21505379676818847656e-01) (132, -1.42080605030059814453e-01) (144, 9.59373235702514648438e-01) (137, 5.52952468395233154297e-01) (121, -2.87534028291702270508e-01) (158, 2.45100438594818115234e-01) (122, -3.50673973560333251953e-01) (147, 5.25791645050048828125e-01) (142, -3.70509564876556396484e-01) (162, 1.34077763557434082031e+00) (114, 5.94957232475280761719e-01) (113, -1.01944595575332641602e-01) (153, -4.01006758213043212891e-01) (143, -5.18375098705291748047e-01) (155, 1.85954070091247558594e+00) (121, 4.17966604232788085938e-01) (124, -4.28958743810653686523e-01) (160, -1.11625146865844726562e+00) (130, -2.69568294286727905273e-01) (120, 7.96540796756744384766e-01) (129, 2.82078027725219726562e-01) (112, 7.20567584037780761719e-01) (133, -1.40967577695846557617e-01) (125, 1.31201624870300292969e+00) (162, 5.95612823963165283203e-01) (140, 3.66943955421447753906e-01) (152, 2.65331566333770751953e-01) (156, 1.25262868404388427734e+00) (158, 3.41987228393554687500e+00) (113, 2.47948050498962402344e-01) (124, -3.95891442894935607910e-02) (160, -5.09809076786041259766e-01) (119, 3.11279557645320892334e-02) (157, 3.36296223104000091553e-02) (129, 1.89349782466888427734e+00) (154, -5.93923926353454589844e-01) (151, -2.96598464250564575195e-01) (159, -4.48769062757492065430e-01) (136, -6.47882878780364990234e-01) (117, 1.06955386698246002197e-01) (162, 6.33143961429595947266e-01) (130, -7.19334959983825683594e-01) (146, 3.69385063648223876953e-01) (135, 1.10883986949920654297e+00) (116, -1.45852220058441162109e+00) (150, 6.87092483043670654297e-01) (159, -5.48354089260101318359e-01) (137, 8.69367599487304687500e-01) (120, -7.00261354446411132812e-01) (128, 2.26667851209640502930e-01) (138, 6.51657402515411376953e-01) (115, -1.52251267433166503906e+00) (158, -2.79324829578399658203e-01) (139, 9.86627459526062011719e-01) (143, -7.71634936332702636719e-01) (162, 1.38000935316085815430e-01) (118, -4.13921058177947998047e-01) (145, 9.79911625385284423828e-01) (120, -3.45000296831130981445e-01) (158, -1.49379730224609375000e+00) (127, -5.51466822624206542969e-01) (137, 7.29826331138610839844e-01) (146, -3.94565880298614501953e-01) (149, -4.47065085172653198242e-01) (144, -7.95596688985824584961e-02) (159, -2.96650481224060058594e+00) (132, 7.72059917449951171875e-01) (161, 1.77461385726928710938e+00) (133, 1.02931261062622070312e+00) (134, 8.04548859596252441406e-01) (151, 7.37633645534515380859e-01) (162, 1.32752573490142822266e+00) (161, 8.96009385585784912109e-01) (127, -9.65742096304893493652e-02) (144, 4.16255481541156768799e-02) (158, -1.29969477653503417969e-01) (138, 1.49052166938781738281e+00) (150, 1.20735645294189453125e+00) (123, 5.03664374351501464844e-01) (141, 7.46490776538848876953e-01) (118, -6.02311491966247558594e-01) (120, 7.14665174484252929688e-01) (136, -4.56871330738067626953e-01) (132, 6.52522087097167968750e-01) (143, -1.53809592127799987793e-01) (124, -7.93968558311462402344e-01) (162, 3.77868384122848510742e-01) (134, 7.29957401752471923828e-01) (121, -1.68496823310852050781e+00) (140, 8.45437109470367431641e-01) (156, -1.60685971379280090332e-01) (150, -1.99313464690931141376e-04) (147, 2.91914415359497070312e+00) (151, -6.70899569988250732422e-01) (149, 7.80091583728790283203e-01) (130, 1.07777976989746093750e+00) (142, -3.86797875165939331055e-01) (135, 1.18833529949188232422e+00) (126, 1.38762086629867553711e-01) (139, 5.00610649585723876953e-01) (122, 2.78773140907287597656e+00) (115, 4.92786973714828491211e-01) (162, 3.84409308433532714844e-01) (131, -4.33604097366333007812e+00) (141, -1.72139816284179687500e+01) (128, 5.69310151040554046631e-02) (117, 1.39433879852294921875e+01) (120, 1.54324567317962646484e+00) (112, -2.80531430244445800781e+00) (137, -4.77743816375732421875e+00) (159, 4.96835613250732421875e+00) (160, 2.90369558334350585938e+00) (114, -2.10675978660583496094e+00) (126, 8.02728557586669921875e+00) (132, 4.06441164016723632812e+00) (156, -1.55454759597778320312e+01) (134, 2.29510277509689331055e-01) (162, -8.50828707218170166016e-01) (139, 8.03417980670928955078e-01) (153, 5.08958458900451660156e-01) (121, 4.14125323295593261719e-01) (158, 1.46768927574157714844e+00) (127, -4.38293099403381347656e-01) (128, 2.17181771993637084961e-01) (155, 1.99979746341705322266e+00) (160, 4.26387861371040344238e-02) (130, -3.40307457372546195984e-03) (129, 6.89071238040924072266e-01) (125, 9.20776605606079101562e-01) (137, 8.77151429653167724609e-01) (114, 8.58815729618072509766e-01) (112, -6.04778349399566650391e-01) (119, -7.55282759666442871094e-01) (162, 1.12115669250488281250e+00) (121, 1.23787736892700195312e+00) (155, 4.37587797641754150391e-01) (119, -5.89893236756324768066e-02) (154, 1.21837675571441650391e+00) (147, 7.64871597290039062500e-01) (151, 1.00643742084503173828e+00) (138, -3.78821402788162231445e-01) (125, -3.31736683845520019531e-01) (152, 4.27084714174270629883e-01) (153, 1.42087614536285400391e+00) (124, 8.09146761894226074219e-01) (141, 1.31157755851745605469e+00) (149, -2.35844299197196960449e-01) (131, 5.48564076423645019531e-01) (162, 1.44299030303955078125e+00) (123, 3.85545670986175537109e-01) (127, 1.28586852550506591797e+00) (116, 1.94612812995910644531e+00) (158, -4.04840421676635742188e+00) (112, 1.71332967281341552734e+00) (146, 2.37313485145568847656e+00) (126, -1.17381584644317626953e+00) (129, 1.85646009445190429688e+00) (152, -4.66459065675735473633e-01) (153, 5.36841154098510742188e-01) (113, 4.27995085716247558594e-01) (134, 2.14800190925598144531e+00) (121, 2.02798509597778320312e+00) (148, -3.02791714668273925781e-01) (156, 9.86914634704589843750e-01) (162, 2.51960456371307373047e-01) (126, -1.49074614048004150391e-01) (142, 1.61532592773437500000e+00) (135, -6.27397775650024414062e-01) (117, 1.37166988849639892578e+00) (113, -4.48694825172424316406e-01) (152, 1.57137572765350341797e-01) (124, 3.13507169485092163086e-01) (150, 6.93523108959197998047e-01) (153, 8.27066481113433837891e-01) (136, 3.92638832330703735352e-01) (145, 9.50841665267944335938e-01) (160, 3.11970472335815429688e-01) (161, 1.22345209121704101562e+00) (131, -1.06816804036498069763e-02) (162, 1.08275747299194335938e+00) (142, -4.66436952352523803711e-01) (143, 7.52086460590362548828e-01) (144, 8.14157605171203613281e-01) (149, -1.29699397087097167969e+00) (147, 8.15893113613128662109e-01) (157, -7.62634634971618652344e-01) (153, 2.43938994407653808594e+00) (139, 5.07007837295532226562e-01) (151, 3.40652801096439361572e-02) (132, -2.67211675643920898438e-01) (156, 2.69151955842971801758e-01) (126, -7.91006684303283691406e-01) (137, -1.24504804611206054688e+00) (154, 7.51045718789100646973e-02) (121, 1.19752764701843261719e+00) (162, 7.61853009462356567383e-02) (157, 4.12860125303268432617e-01) (120, -1.40762314200401306152e-01) (130, 6.43255770206451416016e-01) (158, -3.55958551168441772461e-01) (123, 1.19891929626464843750e+00) (112, -4.44726437330245971680e-01) (118, 1.49006998538970947266e+00) (139, -3.01936417818069458008e-01) (128, 1.84142255783081054688e+00) (132, 5.06728351116180419922e-01) (135, -8.84915608912706375122e-03) (114, 6.96314096450805664062e-01) (134, 1.26074746251106262207e-01) (133, -1.99857607483863830566e-01) (162, 3.41452121734619140625e-01) (154, -1.12405562400817871094e+00) (128, 1.62679827213287353516e+00) (129, 3.78877997398376464844e-01) (157, -8.13770949840545654297e-01) (155, 1.69115936756134033203e+00) (149, 5.39261162281036376953e-01) (123, 4.04236525297164916992e-01) (145, 1.71828627586364746094e+00) (118, 9.97139096260070800781e-01) (114, 4.94315773248672485352e-01) (150, -1.32734090089797973633e-01) (120, 1.13011610507965087891e+00) (115, 9.70017254352569580078e-01) (143, 3.89341473579406738281e-01) (132, 9.26451012492179870605e-02) (162, 1.79432272911071777344e-01) (159, -3.76250594854354858398e-01) (148, 1.32149088382720947266e+00) (126, 7.45393335819244384766e-01) (131, 7.43973031640052795410e-02) (140, -1.02336549758911132812e+00) (125, 1.35926282405853271484e+00) (156, -4.89046245813369750977e-01) (134, 8.31788599491119384766e-01) (124, 5.09366318583488464355e-02) (122, 6.11902177333831787109e-01) (150, 1.03037381172180175781e+00) (133, 1.09411084651947021484e+00) (136, 3.59511077404022216797e-01) (157, 8.18684101104736328125e-01) (162, 1.16770990192890167236e-01) (132, 9.17659401893615722656e-01) (155, 1.05815970897674560547e+00) (131, -1.13975417613983154297e+00) (134, 2.11537435650825500488e-01) (143, -1.65875422954559326172e+00) (119, -6.31263375282287597656e-01) (146, 1.53778150677680969238e-01) (121, 3.79563271999359130859e-01) (128, -3.68104934692382812500e-01) (135, -1.84246331453323364258e-01) (160, 6.21737539768218994141e-01) (142, -2.46784687042236328125e-01) (140, 2.08398908376693725586e-01) (150, 7.52660214900970458984e-01) (162, -3.45498442649841308594e-01) (127, -3.68828058242797851562e-01) (150, 3.85766118764877319336e-01) (124, -3.02090823650360107422e-01) (153, 1.45553934574127197266e+00) (136, -1.75794064998626708984e-01) (129, 1.83010533452033996582e-01) (130, 4.48488742113113403320e-01) (125, 1.37466275691986083984e+00) (133, 3.14048385620117187500e+00) (154, -4.40183192491531372070e-01) (141, -2.53489702939987182617e-01) (159, -4.16755437850952148438e-01) (157, -6.49587213993072509766e-02) (123, 5.15391111373901367188e-01) (152, -1.75187334418296813965e-01) (162, 4.50462728738784790039e-01) (144, 2.99676895141601562500e-01) (153, -1.07967865467071533203e+00) (134, 2.86832618713378906250e+00) (141, -1.37633228302001953125e+00) (114, 1.27237021923065185547e+00) (138, -4.53290432691574096680e-01) (125, 3.65176916122436523438e-01) (145, 2.56026778370141983032e-02) (133, 1.59644412994384765625e+00) (154, 3.70851486921310424805e-01) (121, 1.05068409442901611328e+00) (156, -2.98433160781860351562e+00) (143, 7.61059761047363281250e-01) (139, 6.23821802437305450439e-02) (162, 9.91186276078224182129e-02) (159, -3.75789403915405273438e-01) (127, -1.82752525806427001953e+00) (118, -2.09474897384643554688e+00) (142, -5.54761707782745361328e-01) (122, -8.76619279384613037109e-01) (123, 2.07588458061218261719e+00) (134, 2.02257013320922851562e+00) (114, 1.13448989391326904297e+00) (149, 1.60708713531494140625e+00) (137, 1.14215409755706787109e+00) (156, 2.31716108322143554688e+00) (153, -5.42249739170074462891e-01) (131, 7.63249158859252929688e-01) (147, 1.67883479595184326172e+00) (126, 6.35759579017758369446e-03) (162, 9.57026600837707519531e-01) (153, 8.83809924125671386719e-01) (154, 7.83099293708801269531e-01) (158, -1.42563652992248535156e+00) (114, -3.10740649700164794922e-01) (125, -5.87844312191009521484e-01) (146, -7.62430965900421142578e-01) (161, 1.28788375854492187500e+00) (126, -2.53349453210830688477e-01) (145, 3.10350835323333740234e-01) (135, -4.48709756135940551758e-01) (150, 6.40082359313964843750e-02) (134, -6.58148586750030517578e-01) (138, 8.55049490928649902344e-01) (151, -1.53775826096534729004e-01) (162, -9.27715539932250976562e-01) (116, 1.27293217182159423828e+00) (112, -8.20668697357177734375e-01) (135, 1.38915920257568359375e+00) (122, 2.00107675045728683472e-02) (154, 1.19264090061187744141e+00) (127, -2.59294390678405761719e+00) (126, 2.59365707635879516602e-01) (152, -1.21500301361083984375e+00) (147, -1.64467322826385498047e+00) (137, 7.60815918445587158203e-01) (148, -9.15200233459472656250e-01) (151, -5.67023456096649169922e-02) (141, 1.31931114196777343750e+00) (140, 2.39573791623115539551e-01) (153, -6.90964043140411376953e-01) (162, -1.00597643852233886719e+00) (149, 1.52145788073539733887e-01) (119, -1.51420369744300842285e-01) (132, 1.97492748498916625977e-01) (118, 1.44989952445030212402e-01) (123, 6.75082623958587646484e-01) (131, 2.39448949694633483887e-01) (143, -6.34043633937835693359e-01) (152, 1.15286064147949218750e+00) (151, -1.78415775299072265625e-01) (134, 2.53677785396575927734e-01) (147, 7.56740629673004150391e-01) (144, 1.38461363315582275391e+00) (117, 5.16518913209438323975e-02) (122, 5.86064696311950683594e-01) (162, 5.18378853797912597656e-01) (126, 8.22294473648071289062e-01) (161, 5.28654515743255615234e-01) (159, 1.02728700637817382812e+00) (128, 5.41798830032348632812e-01) (153, 4.88012939691543579102e-01) (156, -5.08406579494476318359e-01) (121, 7.74316549301147460938e-01) (144, -1.89088845252990722656e+00) (125, 3.53867188096046447754e-02) (143, 4.99690890312194824219e-01) (151, 1.61563474684953689575e-02) (137, 6.30288600921630859375e-01) (124, 3.30154967308044433594e+00) (120, 8.89689385890960693359e-01) (129, -7.93508529663085937500e-01) (162, -1.87270855903625488281e+00) (158, -8.82495760917663574219e-01) (149, 3.85135561227798461914e-01) (141, -2.00592711567878723145e-01) (112, 9.31703090667724609375e-01) (138, -3.87342274188995361328e-01) (113, 1.89141333103179931641e+00) (146, 3.20216953754425048828e-01) (127, 1.08041524887084960938e+00) (117, 7.94449090957641601562e-01) (144, -1.72598481178283691406e-01) (135, 9.91147458553314208984e-01) (136, -2.04997763037681579590e-01) (132, -2.08262538909912109375e+00) (140, 2.87936866283416748047e-01) (162, -2.94395804405212402344e-01) (136, 6.53192877769470214844e-01) (133, 4.37218993902206420898e-01) (152, 1.06077575683593750000e+00) (137, 6.67371451854705810547e-01) (157, -6.20402038097381591797e-01) (113, 8.74538302421569824219e-01) (155, 3.35623931884765625000e+00) (116, 1.69317948818206787109e+00) (153, 9.56383764743804931641e-01) (120, -5.80735802650451660156e-01) (128, 3.52483808994293212891e-01) (118, 1.72915220260620117188e+00) (114, 2.03730440139770507812e+00) (127, 4.11057442426681518555e-01) (125, -7.23526179790496826172e-01) (162, 2.63937473297119140625e-01) (150, 6.28366708755493164062e-01) (125, 1.42240762710571289062e+00) (145, -6.54565155506134033203e-01) (119, 5.02000376582145690918e-02) (116, 5.27074396610260009766e-01) (135, 5.91407530009746551514e-02) (158, 7.89402544498443603516e-01) (138, 2.95848965644836425781e-01) (141, -1.35443258285522460938e+00) (112, -1.12908244132995605469e+00) (159, -1.10691398382186889648e-01) (154, -6.10706806182861328125e-01) (133, 3.66027206182479858398e-01) (114, -8.51284027099609375000e-01) (162, 8.13828408718109130859e-01) (126, -3.77356082201004028320e-01) (143, 6.89586639404296875000e-01) (161, 1.40143477916717529297e+00) (120, 3.65006566047668457031e-01) (125, -9.29489552974700927734e-01) (142, 6.00123465061187744141e-01) (147, -1.21383309364318847656e+00) (135, -3.76111596822738647461e-01) (144, 1.00468373298645019531e+00) (157, 9.09629344940185546875e-01) (160, 1.13691830635070800781e+00) (145, 8.40496718883514404297e-01) (158, 3.86681050062179565430e-01) (118, -2.21083804965019226074e-01) (123, 4.45242881774902343750e-01) (162, -6.42524957656860351562e-01) (146, -1.29642474651336669922e+00) (143, 6.25785350799560546875e-01) (119, -3.69419932365417480469e-01) (149, 7.81936466693878173828e-01) (122, -1.20089866220951080322e-01) (125, 3.55527687072753906250e+00) (130, 2.82494217157363891602e-01) (160, -1.25964355468750000000e+00) (137, 6.68918013572692871094e-01) (136, 1.20712506771087646484e+00) (144, 1.53264415264129638672e+00) (138, -8.07017266750335693359e-01) (116, 5.35851240158081054688e-01) (118, 9.21235322952270507812e-01) (162, 7.36250698566436767578e-01) (155, 1.43907690048217773438e+00) (158, -2.10069537162780761719e+00) (137, -9.28214192390441894531e-01) (128, -1.33031994104385375977e-01) (132, -3.54599744081497192383e-01) (161, -1.19980323314666748047e+00) (159, 3.32754164934158325195e-01) (136, -9.85509216785430908203e-01) (126, 1.73343396186828613281e+00) (157, 4.41475063562393188477e-01) (160, -6.49138450622558593750e-01) (115, 6.10056102275848388672e-01) (116, 1.27004837989807128906e+00) (139, 8.04466664791107177734e-01) (147, 1.29769241809844970703e+00) (162, -1.30707338452339172363e-01) (133, -7.33954966068267822266e-01) (156, 2.68906188011169433594e+00) (112, -1.08771085739135742188e+00) (121, -1.01230585575103759766e+00) (118, 1.37270712852478027344e+00) (136, 2.92641669511795043945e-01) (115, -9.58833158016204833984e-01) (161, -7.33966767787933349609e-01) (146, -1.40998888015747070312e+00) (137, -1.28993272781372070312e+00) (127, -6.33073270320892333984e-01) (119, 3.62212926149368286133e-01) (151, 6.03085458278656005859e-01) (143, -2.58580446243286132812e-01) (162, 1.06534814834594726562e+00) (161, 6.70576930046081542969e-01) (120, 1.26240253448486328125e+00) (113, -6.15646660327911376953e-01) (122, 1.63408660888671875000e+00) (141, -7.71364986896514892578e-01) (150, 1.08942556381225585938e+00) (132, -2.65748314559459686279e-02) (117, -6.82700753211975097656e-01) (115, 3.55549246072769165039e-01) (148, 6.53549134731292724609e-01) (123, 1.49091207981109619141e+00) (159, 2.97904312610626220703e-01) (152, 7.82546877861022949219e-01) (136, -7.92352199554443359375e-01) (128, -5.21630287170410156250e-01) (162, 6.45915627479553222656e-01) (152, 2.93617606163024902344e-01) (117, -1.49342626333236694336e-01) (159, 1.65133619308471679688e+00) (125, 2.23259210586547851562e-01) (143, 8.77818092703819274902e-02) (135, 9.09016251564025878906e-01) (118, 7.17133641242980957031e-01) (146, 9.62905287742614746094e-01) (158, 6.00368976593017578125e-01) (123, -2.79498100280761718750e-01) (114, -2.29529690742492675781e+00) (113, 7.21880495548248291016e-01) (140, -6.97827696800231933594e-01) (116, 2.17595890164375305176e-01) (162, -5.99674940109252929688e-01) (113, 1.26075708866119384766e+00) (159, 6.09120488166809082031e-01) (131, -1.61973133683204650879e-01) (150, 1.09622740745544433594e+00) (123, -4.42989736795425415039e-01) (122, 9.93909955024719238281e-01) (139, 5.03293871879577636719e-01) (140, -5.08931159973144531250e-01) (121, -3.88363897800445556641e-01) (138, 2.43390813469886779785e-01) (153, 1.70069471001625061035e-01) (118, 1.34108364582061767578e+00) (154, -5.42449295520782470703e-01) (149, 1.44032156467437744141e+00) (160, -1.97458410263061523438e+00) (162, 2.00450801849365234375e+00) (142, 6.84573113918304443359e-01) (127, 3.18777322769165039062e+00) (144, -2.20242786407470703125e+00) (154, 1.36611270904541015625e+00) (132, 2.27897381782531738281e+00) (153, 9.49990451335906982422e-01) (123, 1.76857364177703857422e+00) (159, 1.07974267005920410156e+00) (155, -1.18899834156036376953e+00) (114, 1.33242523670196533203e+00) (160, -9.31027770042419433594e-01) (115, 1.04131674766540527344e+00) (120, 8.74043405055999755859e-01) (151, -5.11995404958724975586e-02) (162, 9.49163734912872314453e-01) (142, -2.83637046813964843750e-01) (130, 7.07667917013168334961e-02) (161, 1.11339226365089416504e-01) (129, 9.91731047630310058594e-01) (113, 6.57384455204010009766e-01) (156, 3.71750816702842712402e-02) (119, 9.52322185039520263672e-01) (145, 1.40365326404571533203e+00) (147, -5.57078123092651367188e-01) (155, 1.36970296502113342285e-01) (133, 1.06189525127410888672e+00) (127, 1.45756185054779052734e-01) (128, 1.76384657621383666992e-01) (136, 3.33494663238525390625e-01) (117, -1.24003696441650390625e+00) (162, 1.12076842784881591797e+00) (122, 1.57974720001220703125e-01) (118, -4.87442255020141601562e-01) (156, 1.34020373225212097168e-01) (152, -1.73958808183670043945e-01) (115, 7.37834572792053222656e-01) (143, 1.53163075447082519531e+00) (144, -6.83984756469726562500e-01) (123, -2.66770035028457641602e-01) (124, -6.68259441852569580078e-01) (127, -2.31116652488708496094e+00) (114, -4.38826739788055419922e-01) (128, 4.54540044069290161133e-01) (113, 3.85969758033752441406e-01) (134, 8.32468926906585693359e-01) (162, 5.15532672405242919922e-01) (145, 4.78943616151809692383e-01) (153, 7.75301277637481689453e-01) (113, -1.06369554996490478516e-01) (124, 1.29469025135040283203e+00) (159, 6.90917789936065673828e-01) (157, 4.04396414756774902344e-01) (134, 2.80722737312316894531e-01) (137, -3.91418755054473876953e-01) (114, -9.64153647422790527344e-01) (142, -2.78551131486892700195e-01) (121, 4.89675700664520263672e-01) (141, 1.16021656990051269531e+00) (133, -5.14075398445129394531e-01) (127, 8.84695529937744140625e-01) (130, 6.47131145000457763672e-01) (162, 