FANN_FLO_2.1
num_layers=5
learning_rate=0.700000
connection_rate=0.400000
network_type=0
learning_momentum=0.000000
training_algorithm=2
train_error_function=0
train_stop_function=0
cascade_output_change_fraction=0.010000
quickprop_decay=0.000322
quickprop_mu=1.750000
rprop_increase_factor=1.200000
rprop_decrease_factor=0.500000
rprop_delta_min=0.000000
rprop_delta_max=50.000000
rprop_delta_zero=0.100000
cascade_output_stagnation_epochs=12
cascade_candidate_change_fraction=0.010000
cascade_candidate_stagnation_epochs=12
cascade_max_out_epochs=150
cascade_min_out_epochs=50
cascade_max_cand_epochs=150
cascade_min_cand_epochs=50
cascade_num_candidate_groups=2
bit_fail_limit=3.49999994039535522461e-01
cascade_candidate_limit=1.00000000000000000000e+03
cascade_weight_multiplier=4.00000005960464477539e-01
cascade_activation_functions_count=10
cascade_activation_functions=3 5 7 8 10 11 14 15 16 17
cascade_activation_steepnesses_count=4
cascade_activation_steepnesses=2.50000000000000000000e-01 5.00000000000000000000e-01 7.50000000000000000000e-01 1.00000000000000000000e+00
layer_sizes=11 101 51 101 6
scale_included=1
scale_mean_in=1.614757 1.977650 3.919506 0.477078 8.369242 1.811925 2.117160 6.831164 4.992357 1.930114
scale_deviation_in=0.633328 0.591297 1.525321 0.062230 5.169559 0.080292 0.409959 3.539195 1.984548 0.607448
scale_new_min_in=-1.000000 -1.000000 -1.000000 -1.000000 -1.000000 -1.000000 -1.000000 -1.000000 -1.000000 -1.000000
scale_factor_in=1.000000 1.000000 1.000000 1.000000 1.000000 1.000000 1.000000 1.000000 1.000000 1.000000
scale_mean_out=0.765991 0.050966 0.065003 0.042671 0.064007
scale_deviation_out=0.216936 0.032711 0.041768 0.010606 0.015910
scale_new_min_out=-1.000000 -1.000000 -1.000000 -1.000000 -1.000000
scale_factor_out=1.000000 1.000000 1.000000 1.000000 1.000000
neurons (num_inputs, activation_function, activation_steepness)=(0, 0, 0.00000000000000000000e+00) (0, 0, 0.00000000000000000000e+00) (0, 0, 0.00000000000000000000e+00) (0, 0, 0.00000000000000000000e+00) (0, 0, 0.00000000000000000000e+00) (0, 0, 0.00000000000000000000e+00) (0, 0, 0.00000000000000000000e+00) (0, 0, 0.00000000000000000000e+00) (0, 0, 0.00000000000000000000e+00) (0, 0, 0.00000000000000000000e+00) (0, 0, 0.00000000000000000000e+00) (5, 5, 5.00000000000000000000e-01) (5, 5, 5.00000000000000000000e-01) (5, 5, 5.00000000000000000000e-01) (5, 5, 5.00000000000000000000e-01) (5, 5, 5.00000000000000000000e-01) (5, 5, 5.00000000000000000000e-01) (5, 5, 5.00000000000000000000e-01) (5, 5, 5.00000000000000000000e-01) (5, 5, 5.00000000000000000000e-01) (5, 5, 5.00000000000000000000e-01) (5, 5, 5.00000000000000000000e-01) (5, 5, 5.00000000000000000000e-01) (5, 5, 5.00000000000000000000e-01) (5, 5, 5.00000000000000000000e-01) (5, 5, 5.00000000000000000000e-01) (5, 5, 5.00000000000000000000e-01) (5, 5, 5.00000000000000000000e-01) (5, 5, 5.00000000000000000000e-01) (5, 5, 5.00000000000000000000e-01) (5, 5, 5.00000000000000000000e-01) (5, 5, 5.00000000000000000000e-01) (5, 5, 5.00000000000000000000e-01) (5, 5, 5.00000000000000000000e-01) (5, 5, 5.00000000000000000000e-01) (5, 5, 5.00000000000000000000e-01) (5, 5, 5.00000000000000000000e-01) (5, 5, 5.00000000000000000000e-01) (5, 5, 5.00000000000000000000e-01) (5, 5, 5.00000000000000000000e-01) (5, 5, 5.00000000000000000000e-01) (5, 5, 5.00000000000000000000e-01) (5, 5, 5.00000000000000000000e-01) (5, 5, 5.00000000000000000000e-01) (5, 5, 5.00000000000000000000e-01) (5, 5, 5.00000000000000000000e-01) (5, 5, 5.00000000000000000000e-01) (5, 5, 5.00000000000000000000e-01) (5, 5, 5.00000000000000000000e-01) (5, 5, 5.00000000000000000000e-01) (5, 5, 5.00000000000000000000e-01) (5, 5, 5.00000000000000000000e-01) (5, 5, 5.00000000000000000000e-01) (5, 5, 5.00000000000000000000e-01) (5, 5, 5.00000000000000000000e-01) (5, 5, 5.00000000000000000000e-01) (5, 5, 5.00000000000000000000e-01) (5, 5, 5.00000000000000000000e-01) (5, 5, 5.00000000000000000000e-01) (5, 5, 5.00000000000000000000e-01) (5, 5, 5.00000000000000000000e-01) (5, 5, 5.00000000000000000000e-01) (5, 5, 5.00000000000000000000e-01) (5, 5, 5.00000000000000000000e-01) (5, 5, 5.00000000000000000000e-01) (5, 5, 5.00000000000000000000e-01) (5, 5, 5.00000000000000000000e-01) (5, 5, 5.00000000000000000000e-01) (5, 5, 5.00000000000000000000e-01) (5, 5, 5.00000000000000000000e-01) (5, 5, 5.00000000000000000000e-01) (5, 5, 5.00000000000000000000e-01) (5, 5, 5.00000000000000000000e-01) (5, 5, 5.00000000000000000000e-01) (5, 5, 5.00000000000000000000e-01) (5, 5, 5.00000000000000000000e-01) (5, 5, 5.00000000000000000000e-01) (5, 5, 5.00000000000000000000e-01) (5, 5, 5.00000000000000000000e-01) (5, 5, 5.00000000000000000000e-01) (5, 5, 5.00000000000000000000e-01) (5, 5, 5.00000000000000000000e-01) (5, 5, 5.00000000000000000000e-01) (5, 5, 5.00000000000000000000e-01) (5, 5, 5.00000000000000000000e-01) (5, 5, 5.00000000000000000000e-01) (5, 5, 5.00000000000000000000e-01) (5, 5, 5.00000000000000000000e-01) (5, 5, 5.00000000000000000000e-01) (5, 5, 5.00000000000000000000e-01) (5, 5, 5.00000000000000000000e-01) (5, 5, 5.00000000000000000000e-01) (5, 5, 5.00000000000000000000e-01) (5, 5, 5.00000000000000000000e-01) (5, 5, 5.00000000000000000000e-01) (5, 5, 5.00000000000000000000e-01) (5, 5, 5.00000000000000000000e-01) (5, 5, 5.00000000000000000000e-01) (5, 5, 5.00000000000000000000e-01) (5, 5, 5.00000000000000000000e-01) (5, 5, 5.00000000000000000000e-01) (5, 5, 5.00000000000000000000e-01) (5, 5, 5.00000000000000000000e-01) (5, 5, 5.00000000000000000000e-01) (5, 5, 5.00000000000000000000e-01) (5, 5, 5.00000000000000000000e-01) (5, 5, 5.00000000000000000000e-01) (5, 5, 5.00000000000000000000e-01) (5, 5, 5.00000000000000000000e-01) (5, 5, 5.00000000000000000000e-01) (5, 5, 5.00000000000000000000e-01) (0, 5, 0.00000000000000000000e+00) (41, 5, 5.00000000000000000000e-01) (41, 5, 5.00000000000000000000e-01) (41, 5, 5.00000000000000000000e-01) (41, 5, 5.00000000000000000000e-01) (41, 5, 5.00000000000000000000e-01) (41, 5, 5.00000000000000000000e-01) (41, 5, 5.00000000000000000000e-01) (41, 5, 5.00000000000000000000e-01) (41, 5, 5.00000000000000000000e-01) (41, 5, 5.00000000000000000000e-01) (41, 5, 5.00000000000000000000e-01) (41, 5, 5.00000000000000000000e-01) (41, 5, 5.00000000000000000000e-01) (41, 5, 5.00000000000000000000e-01) (41, 5, 5.00000000000000000000e-01) (41, 5, 5.00000000000000000000e-01) (41, 5, 5.00000000000000000000e-01) (41, 5, 5.00000000000000000000e-01) (41, 5, 5.00000000000000000000e-01) (41, 5, 5.00000000000000000000e-01) (41, 5, 5.00000000000000000000e-01) (41, 5, 5.00000000000000000000e-01) (41, 5, 5.00000000000000000000e-01) (41, 5, 5.00000000000000000000e-01) (41, 5, 5.00000000000000000000e-01) (41, 5, 5.00000000000000000000e-01) (41, 5, 5.00000000000000000000e-01) (41, 5, 5.00000000000000000000e-01) (41, 5, 5.00000000000000000000e-01) (41, 5, 5.00000000000000000000e-01) (41, 5, 5.00000000000000000000e-01) (41, 5, 5.00000000000000000000e-01) (41, 5, 5.00000000000000000000e-01) (41, 5, 5.00000000000000000000e-01) (41, 5, 5.00000000000000000000e-01) (41, 5, 5.00000000000000000000e-01) (41, 5, 5.00000000000000000000e-01) (41, 5, 5.00000000000000000000e-01) (41, 5, 5.00000000000000000000e-01) (41, 5, 5.00000000000000000000e-01) (41, 5, 5.00000000000000000000e-01) (41, 5, 5.00000000000000000000e-01) (41, 5, 5.00000000000000000000e-01) (41, 5, 5.00000000000000000000e-01) (41, 5, 5.00000000000000000000e-01) (41, 5, 5.00000000000000000000e-01) (41, 5, 5.00000000000000000000e-01) (41, 5, 5.00000000000000000000e-01) (41, 5, 5.00000000000000000000e-01) (41, 5, 5.00000000000000000000e-01) (0, 5, 0.00000000000000000000e+00) (21, 5, 5.00000000000000000000e-01) (21, 5, 5.00000000000000000000e-01) (21, 5, 5.00000000000000000000e-01) (21, 5, 5.00000000000000000000e-01) (21, 5, 5.00000000000000000000e-01) (21, 5, 5.00000000000000000000e-01) (21, 5, 5.00000000000000000000e-01) (21, 5, 5.00000000000000000000e-01) (21, 5, 5.00000000000000000000e-01) (21, 5, 5.00000000000000000000e-01) (21, 5, 5.00000000000000000000e-01) (21, 5, 5.00000000000000000000e-01) (21, 5, 5.00000000000000000000e-01) (21, 5, 5.00000000000000000000e-01) (21, 5, 5.00000000000000000000e-01) (21, 5, 5.00000000000000000000e-01) (21, 5, 5.00000000000000000000e-01) (21, 5, 5.00000000000000000000e-01) (21, 5, 5.00000000000000000000e-01) (21, 5, 5.00000000000000000000e-01) (21, 5, 5.00000000000000000000e-01) (21, 5, 5.00000000000000000000e-01) (21, 5, 5.00000000000000000000e-01) (21, 5, 5.00000000000000000000e-01) (21, 5, 5.00000000000000000000e-01) (21, 5, 5.00000000000000000000e-01) (21, 5, 5.00000000000000000000e-01) (21, 5, 5.00000000000000000000e-01) (21, 5, 5.00000000000000000000e-01) (21, 5, 5.00000000000000000000e-01) (21, 5, 5.00000000000000000000e-01) (21, 5, 5.00000000000000000000e-01) (21, 5, 5.00000000000000000000e-01) (21, 5, 5.00000000000000000000e-01) (21, 5, 5.00000000000000000000e-01) (21, 5, 5.00000000000000000000e-01) (21, 5, 5.00000000000000000000e-01) (21, 5, 5.00000000000000000000e-01) (21, 5, 5.00000000000000000000e-01) (21, 5, 5.00000000000000000000e-01) (21, 5, 5.00000000000000000000e-01) (21, 5, 5.00000000000000000000e-01) (21, 5, 5.00000000000000000000e-01) (21, 5, 5.00000000000000000000e-01) (21, 5, 5.00000000000000000000e-01) (21, 5, 5.00000000000000000000e-01) (21, 5, 5.00000000000000000000e-01) (21, 5, 5.00000000000000000000e-01) (21, 5, 5.00000000000000000000e-01) (21, 5, 5.00000000000000000000e-01) (21, 5, 5.00000000000000000000e-01) (21, 5, 5.00000000000000000000e-01) (21, 5, 5.00000000000000000000e-01) (21, 5, 5.00000000000000000000e-01) (21, 5, 5.00000000000000000000e-01) (21, 5, 5.00000000000000000000e-01) (21, 5, 5.00000000000000000000e-01) (21, 5, 5.00000000000000000000e-01) (21, 5, 5.00000000000000000000e-01) (21, 5, 5.00000000000000000000e-01) (21, 5, 5.00000000000000000000e-01) (21, 5, 5.00000000000000000000e-01) (21, 5, 5.00000000000000000000e-01) (21, 5, 5.00000000000000000000e-01) (21, 5, 5.00000000000000000000e-01) (21, 5, 5.00000000000000000000e-01) (21, 5, 5.00000000000000000000e-01) (21, 5, 5.00000000000000000000e-01) (21, 5, 5.00000000000000000000e-01) (21, 5, 5.00000000000000000000e-01) (21, 5, 5.00000000000000000000e-01) (21, 5, 5.00000000000000000000e-01) (21, 5, 5.00000000000000000000e-01) (21, 5, 5.00000000000000000000e-01) (21, 5, 5.00000000000000000000e-01) (21, 5, 5.00000000000000000000e-01) (21, 5, 5.00000000000000000000e-01) (21, 5, 5.00000000000000000000e-01) (21, 5, 5.00000000000000000000e-01) (21, 5, 5.00000000000000000000e-01) (21, 5, 5.00000000000000000000e-01) (21, 5, 5.00000000000000000000e-01) (21, 5, 5.00000000000000000000e-01) (21, 5, 5.00000000000000000000e-01) (21, 5, 5.00000000000000000000e-01) (21, 5, 5.00000000000000000000e-01) (21, 5, 5.00000000000000000000e-01) (21, 5, 5.00000000000000000000e-01) (21, 5, 5.00000000000000000000e-01) (21, 5, 5.00000000000000000000e-01) (21, 5, 5.00000000000000000000e-01) (21, 5, 5.00000000000000000000e-01) (21, 5, 5.00000000000000000000e-01) (21, 5, 5.00000000000000000000e-01) (21, 5, 5.00000000000000000000e-01) (21, 5, 5.00000000000000000000e-01) (21, 5, 5.00000000000000000000e-01) (21, 5, 5.00000000000000000000e-01) (21, 5, 5.00000000000000000000e-01) (21, 5, 5.00000000000000000000e-01) (0, 5, 0.00000000000000000000e+00) (41, 0, 5.00000000000000000000e-01) (41, 0, 5.00000000000000000000e-01) (41, 0, 5.00000000000000000000e-01) (41, 0, 5.00000000000000000000e-01) (41, 0, 5.00000000000000000000e-01) (0, 0, 0.00000000000000000000e+00)
connections (connected_to_neuron, weight)=(10, 4.29332345724105834961e-01) (3, 3.68301421403884887695e-01) (6, -7.09817767143249511719e-01) (4, 1.08148074150085449219e+00) (5, -2.31575101613998413086e-01) (10, 4.52573210000991821289e-01) (3, 1.21572703123092651367e-01) (6, -5.28253972530364990234e-01) (5, -6.98143362998962402344e-01) (8, 6.55462801456451416016e-01) (10, 4.12687391042709350586e-01) (5, 2.80820112675428390503e-02) (6, 1.57109653949737548828e+00) (7, -7.69712254405021667480e-02) (9, -9.10792965441942214966e-03) (10, 1.92251890897750854492e-01) (4, 3.13551694154739379883e-01) (9, -5.64271330833435058594e-01) (2, -4.43319916725158691406e-01) (7, 6.67152762413024902344e-01) (10, -1.07786929607391357422e+00) (2, 1.27865540981292724609e+00) (8, -1.02365225553512573242e-01) (1, 2.01973348855972290039e-01) (3, 6.46388113498687744141e-01) (10, 2.71815687417984008789e-01) (5, 5.55828392505645751953e-01) (8, 4.68796998262405395508e-01) (6, 8.02279233932495117188e-01) (3, 3.11087608337402343750e-01) (10, -4.80442911386489868164e-01) (3, 2.38075673580169677734e-01) (0, 4.08078521490097045898e-01) (9, 3.34472566843032836914e-01) (5, -2.31909286230802536011e-02) (10, 1.65685504674911499023e-01) (7, 4.03532117605209350586e-01) (6, 1.07964837551116943359e+00) (1, -1.65069624781608581543e-01) (8, 5.51711022853851318359e-01) (10, 1.97913363575935363770e-01) (3, -2.22820907831192016602e-01) (6, 6.31176948547363281250e-01) (4, 1.39934802055358886719e+00) (5, -2.95820772647857666016e-01) (10, 7.69546508789062500000e-01) (4, -1.85659617185592651367e-01) (9, 2.52715110778808593750e-01) (2, 6.78951561450958251953e-01) (6, 2.81865358352661132812e-01) (10, 1.38200867176055908203e+00) (5, -1.92265242338180541992e-01) (7, 7.39824950695037841797e-01) (3, 9.58623643964529037476e-03) (4, -1.19767904281616210938e+00) (10, 8.67795228958129882812e-01) (6, 6.51594758033752441406e-01) (9, 3.43839675188064575195e-01) (0, -1.84631302952766418457e-01) (2, 2.35535383224487304688e-01) (10, 2.77508199214935302734e-01) (1, 1.34753838181495666504e-01) (5, 1.23302154242992401123e-01) (3, -8.96439850330352783203e-02) (4, 9.54957604408264160156e-01) (10, 8.04126381874084472656e-01) (1, 8.95959511399269104004e-02) (6, 8.99566352367401123047e-01) (4, 6.12768888473510742188e-01) (5, -2.63361245393753051758e-01) (10, 9.20957863330841064453e-01) (5, 1.68897643685340881348e-01) (3, 8.93923103809356689453e-01) (4, -2.98895239830017089844e-01) (8, 1.57601487636566162109e+00) (10, 1.36501801013946533203e+00) (3, -1.48985564708709716797e-01) (4, 3.06737869977951049805e-01) (8, 1.19458103179931640625e+00) (5, 8.11491608619689941406e-02) (10, -4.96827036142349243164e-01) (1, 2.91762083768844604492e-01) (2, 3.68521034717559814453e-01) (3, -6.81996285915374755859e-01) (8, -5.46094954013824462891e-01) (10, 3.71802806854248046875e-01) (4, 1.44129562377929687500e+00) (7, 7.49683499336242675781e-01) (2, 7.14745283126831054688e-01) (5, 8.22344124317169189453e-01) (10, 1.05719637870788574219e+00) (2, -3.55458736419677734375e-01) (1, 4.93095368146896362305e-01) (7, 1.71800184249877929688e+00) (5, 2.95602053403854370117e-01) (10, 3.87699753046035766602e-02) (1, 5.21733239293098449707e-02) (4, 1.35790741443634033203e+00) (8, -6.21642231941223144531e-01) (7, -7.98786044120788574219e-01) (10, -8.20668995380401611328e-01) (3, 5.63610613346099853516e-01) (5, 1.66659839451313018799e-02) (0, -4.26578104496002197266e-01) (8, -5.80897092819213867188e-01) (10, 1.54223239421844482422e+00) (0, 6.65451347827911376953e-01) (3, 2.26433560252189636230e-01) (4, 1.46248722076416015625e+00) (7, 1.85125440359115600586e-01) (10, 8.17485988140106201172e-01) (1, -1.00828856229782104492e-01) (5, -1.56927734613418579102e-01) (0, -1.60819306969642639160e-01) (7, 1.00743365287780761719e+00) (10, 1.41576066613197326660e-01) (6, 6.72679483890533447266e-01) (8, 2.88843200542032718658e-03) (4, -1.68023735284805297852e-01) (7, -5.13281226158142089844e-01) (10, -1.93517833948135375977e-01) (4, 9.09610688686370849609e-01) (8, 1.43195116519927978516e+00) (5, -3.22820991277694702148e-01) (7, 7.25040853023529052734e-01) (10, 9.20079946517944335938e-01) (6, 8.87989223003387451172e-01) (3, -1.45787119865417480469e-01) (4, 1.28054296970367431641e+00) (7, -1.16136066615581512451e-01) (10, 9.25136625766754150391e-01) (1, 2.04303592443466186523e-01) (6, 2.81443983316421508789e-01) (8, 8.28025877475738525391e-01) (3, 1.02370059490203857422e+00) (10, 1.56543576717376708984e+00) (7, 1.45659792423248291016e+00) (2, 1.13803982734680175781e+00) (1, 1.97813689708709716797e-01) (8, 1.18431016802787780762e-01) (10, -1.46228000521659851074e-01) (5, -7.03307986259460449219e-02) (7, -4.40321981906890869141e-01) (4, 2.04654455184936523438e-01) (1, 7.42784142494201660156e-01) (10, -1.08422756195068359375e+00) (0, 6.07810437679290771484e-01) (7, 2.91437983512878417969e-01) (9, 5.00184595584869384766e-01) (2, 9.79881942272186279297e-01) (10, -2.81325608491897583008e-01) (5, 9.76538434624671936035e-02) (8, -2.17537951469421386719e+00) (1, 8.47692668437957763672e-01) (6, -2.58742302656173706055e-01) (10, 8.44644665718078613281e-01) (2, -7.54769980907440185547e-01) (1, -6.87102496623992919922e-01) (4, 6.18385016918182373047e-01) (9, -2.49338969588279724121e-01) (10, -3.80696535110473632812e-01) (2, 1.05519509315490722656e+00) (0, 1.65401685237884521484e+00) (6, 4.42105561494827270508e-01) (3, 1.96321830153465270996e-01) (10, 4.39404636621475219727e-01) (3, 1.08570933341979980469e-01) (2, 2.69610071182250976562e+00) (1, 3.12099128961563110352e-01) (4, -1.37933447957038879395e-01) (10, 1.79250395298004150391e+00) (1, 1.72304630279541015625e-01) (2, 7.68042087554931640625e-01) (7, -5.52368164062500000000e-01) (9, -3.57611209154129028320e-01) (10, 7.48052224516868591309e-02) (8, 8.79029572010040283203e-01) (6, 2.27236106991767883301e-01) (2, 2.69055217504501342773e-01) (5, 8.45646321773529052734e-01) (10, 3.41186642646789550781e-01) (1, 3.82614701986312866211e-01) (3, 9.36920881271362304688e-01) (5, 1.88888534903526306152e-02) (9, 1.09972918033599853516e+00) (10, 2.35924810171127319336e-01) (4, 9.29789662361145019531e-01) (9, 5.63646614551544189453e-01) (6, 1.26601397991180419922e+00) (3, -7.04582780599594116211e-02) (10, 7.26507604122161865234e-01) (6, 4.28497381508350372314e-02) (4, 3.14646661281585693359e-01) (8, 7.30130672454833984375e-01) (0, 1.10581886768341064453e+00) (10, 3.72089594602584838867e-01) (7, -5.18107265233993530273e-02) (5, -7.37232342362403869629e-02) (8, 1.13262236118316650391e+00) (4, -1.08522915840148925781e+00) (10, 6.57923996448516845703e-01) (1, 6.17064416408538818359e-01) (3, 1.63445904850959777832e-01) (6, 1.34611439704895019531e+00) (8, -2.79587596654891967773e-01) (10, -3.23899090290069580078e-01) (8, 1.49589488282799720764e-02) (1, -1.20167739689350128174e-01) (9, 3.18864643573760986328e-01) (2, 1.23856768012046813965e-01) (10, -4.24207657575607299805e-01) (1, 7.88645029067993164062e-01) (3, 8.56092691421508789062e-01) (5, -4.68178391456604003906e-01) (7, 1.02911388874053955078e+00) (10, -1.08838236331939697266e+00) (9, 1.53095975518226623535e-01) (3, 4.18777734041213989258e-01) (7, 2.90527194738388061523e-01) (2, -1.95784360170364379883e-01) (10, 3.45122933387756347656e-01) (0, -2.59920418262481689453e-01) (2, -8.57136070728302001953e-01) (4, 6.41591727733612060547e-01) (8, 5.77045619487762451172e-01) (10, -5.46918958425521850586e-02) (6, -1.05290269851684570312e+00) (8, 2.77088731527328491211e-01) (4, -3.05342435836791992188e-01) (3, 2.84550815820693969727e-01) (10, 8.27991843223571777344e-01) (6, -1.55565917491912841797e+00) (5, -5.46395294368267059326e-02) (2, 6.55458748340606689453e-01) (7, 9.23994481563568115234e-01) (10, -2.79551088809967041016e-01) (3, 6.76118969917297363281e-01) (5, 3.62822920083999633789e-01) (6, 2.12081313133239746094e-01) (2, 3.08616399765014648438e+00) (10, -1.01927146315574645996e-01) (3, 7.73021042346954345703e-01) (5, -3.27574700117111206055e-01) (6, 5.73942124843597412109e-01) (7, 1.19576513767242431641e+00) (10, -7.23002851009368896484e-01) (1, 8.39514553546905517578e-01) (9, 1.40148047357797622681e-02) (5, 7.86851584911346435547e-01) (3, -6.13465666770935058594e-01) (10, 4.20891076326370239258e-01) (3, -5.65802633762359619141e-01) (5, -8.20188939571380615234e-01) (4, 1.36427354812622070312e+00) (8, 5.97121357917785644531e-01) (10, 2.35931262373924255371e-01) (2, -1.27102005481719970703e+00) (7, 2.58755683898925781250e-01) (8, 5.15730261802673339844e-01) (0, 5.56107163429260253906e-01) (10, -4.07312773168087005615e-02) (9, 9.97616872191429138184e-02) (3, 1.25605061650276184082e-01) (1, 5.76314151287078857422e-01) (8, 3.79710793495178222656e-02) (10, -2.18845188617706298828e-01) (0, 1.96890771389007568359e-01) (6, -9.72070276737213134766e-01) (9, 1.92257985472679138184e-01) (1, 3.11284482479095458984e-01) (10, 4.86587703227996826172e-01) (3, 7.72130429744720458984e-01) (9, 1.03490126132965087891e+00) (4, 5.59952080249786376953e-01) (1, 8.29733431339263916016e-01) (10, 8.04414331912994384766e-01) (0, 5.00965237617492675781e-01) (6, -7.07201242446899414062e-01) (4, -1.03943622112274169922e+00) (3, -6.39132678508758544922e-01) (10, 1.15237498283386230469e+00) (1, -2.49411836266517639160e-01) (2, 6.41621887683868408203e-01) (7, 1.38793635368347167969e+00) (6, -1.43230974674224853516e+00) (10, -4.38055127859115600586e-01) (7, 6.56052887439727783203e-01) (3, 8.54672119021415710449e-02) (1, 7.55471289157867431641e-01) (4, 8.96860718727111816406e-01) (10, 2.07467123866081237793e-01) (2, 6.18311464786529541016e-01) (6, -1.99294000864028930664e-01) (5, 9.05179977416992187500e-01) (7, -3.29529881477355957031e-01) (10, 9.62175965309143066406e-01) (7, 7.00059950351715087891e-01) (6, -7.88251340389251708984e-01) (8, -1.00232154130935668945e-01) (0, 1.19321966171264648438e+00) (10, 1.58073389530181884766e+00) (6, -1.48161196708679199219e+00) (8, -7.21412524580955505371e-02) (3, -5.90092718601226806641e-01) (2, 3.46973866224288940430e-01) (10, 1.32778358459472656250e+00) (7, -1.12387962639331817627e-01) (3, -3.39060485363006591797e-01) (4, -5.62663018703460693359e-01) (2, -1.80244117975234985352e-01) (10, -1.96854844689369201660e-01) (2, -2.58068352937698364258e-01) (1, -5.01572005450725555420e-02) (5, 1.51418866589665412903e-02) (4, -2.63292908668518066406e-01) (10, -3.52098017930984497070e-01) (8, -1.32568374276161193848e-01) (7, 5.61077117919921875000e-01) (1, -2.35721722245216369629e-01) (5, 1.28130182623863220215e-01) (10, -5.47203660011291503906e-01) (6, 6.00053727626800537109e-01) (0, -2.37357750535011291504e-01) (4, -1.22696828842163085938e+00) (5, 6.47580862045288085938e-01) (10, 2.07901790738105773926e-01) (1, -3.95487457513809204102e-01) (6, 3.88844609260559082031e-01) (8, 3.17651659250259399414e-01) (0, 4.55663263797760009766e-01) (10, 6.11415445804595947266e-01) (5, 8.94178152084350585938e-02) (8, 4.95888024568557739258e-01) (7, -5.36681618541479110718e-03) (9, 4.55241858959197998047e-01) (10, 2.01495981216430664062e+00) (3, 8.07959884405136108398e-02) (2, -2.98140138387680053711e-01) (6, 1.34233009815216064453e+00) (7, 1.40625572204589843750e+00) (10, -2.64503002166748046875e-01) (5, -1.06357082724571228027e-01) (3, 1.10540282726287841797e+00) (7, -1.40202283859252929688e+00) (8, -4.10629510879516601562e+00) (10, -2.17736983299255371094e+00) (5, -9.23873931169509887695e-02) (8, 1.02700674533843994141e+00) (9, 1.11661158502101898193e-01) (2, 1.11793887615203857422e+00) (10, -1.34321779012680053711e-01) (8, 3.25810098648071289062e+00) (0, 2.83962821960449218750e+00) (2, 2.77656823396682739258e-01) (3, -2.57856726646423339844e+00) (10, 2.39038884639739990234e-01) (5, 4.81454312801361083984e-01) (6, -2.55891174077987670898e-01) (1, 7.79098093509674072266e-01) (3, -1.65729776024818420410e-01) (10, 6.18899405002593994141e-01) (1, 4.08993929624557495117e-01) (6, 2.91354417800903320312e+00) (2, 3.12460392713546752930e-01) (0, 1.08465567231178283691e-01) (10, -8.91249775886535644531e-01) (1, -2.17016786336898803711e-02) (3, -5.47319889068603515625e-01) (0, 2.75787204504013061523e-01) (7, 5.30197203159332275391e-01) (10, -5.78173398971557617188e-01) (1, 3.36523085832595825195e-01) (5, 3.23797374963760375977e-01) (4, -1.22118782997131347656e+00) (6, -5.53146779537200927734e-01) (10, 2.88644265383481979370e-02) (3, 1.53677916526794433594e+00) (6, 8.78807127475738525391e-01) (1, -1.11493632197380065918e-01) (5, -3.19535076618194580078e-01) (10, 5.90618431568145751953e-01) (1, -7.83389568328857421875e-01) (3, 2.15404808521270751953e-01) (4, -7.14065879583358764648e-02) (0, 2.73992270231246948242e-01) (10, -8.65165174007415771484e-01) (1, -3.09389024972915649414e-01) (8, 1.07446992397308349609e+00) (6, 1.99689924716949462891e-01) (9, 2.36224204301834106445e-01) (10, 1.03142075240612030029e-01) (0, 1.30915200710296630859e+00) (8, 2.04815745353698730469e+00) (1, -5.75034081935882568359e-01) (7, 5.39144992828369140625e-01) (10, -3.68463844060897827148e-01) (9, 3.75880688428878784180e-01) (0, 1.11064898967742919922e+00) (6, 2.91479438543319702148e-01) (8, 4.91072267293930053711e-01) (10, 2.66738414764404296875e-01) (7, -7.34260119497776031494e-03) (9, 1.03055858612060546875e+00) (5, 5.78265823423862457275e-03) (3, 6.80897951126098632812e-01) (10, 1.22744152322411537170e-02) (5, 4.68717813491821289062e-01) (3, 2.34749317169189453125e-01) (4, -6.25133335590362548828e-01) (8, -2.91650205850601196289e-01) (10, -3.70263844728469848633e-01) (8, 9.23157513141632080078e-01) (2, 4.43954877555370330811e-02) (5, -4.61284697055816650391e-01) (7, -2.91442666202783584595e-02) (10, 5.49419105052947998047e-01) (2, 8.19327414035797119141e-01) (7, 9.46285426616668701172e-01) (5, -2.42269691079854965210e-02) (6, 6.47574782371520996094e-01) (10, -4.63245064020156860352e-01) (6, 4.74021673202514648438e-01) (3, -5.55482149124145507812e-01) (8, -1.13707780838012695312e+00) (5, 3.45615774393081665039e-01) (10, -2.64029115438461303711e-01) (1, 7.94680774211883544922e-01) (4, 2.54650801420211791992e-01) (7, 2.97958135604858398438e-01) (8, 2.87347942590713500977e-01) (10, 2.52286970615386962891e-01) (2, 1.72131076455116271973e-01) (8, -5.43887689709663391113e-02) (9, -2.17826545238494873047e-01) (0, 3.31666380167007446289e-01) (10, -1.07053101062774658203e+00) (8, -1.34655034542083740234e+00) (1, -5.03813266754150390625e-01) (0, -1.43519222736358642578e+00) (7, -8.76892879605293273926e-02) (10, -6.75825417041778564453e-01) (4, -9.13153767585754394531e-01) (3, 9.11525711417198181152e-02) (6, 4.04980331659317016602e-01) (2, -1.06268262863159179688e+00) (10, -8.37769329547882080078e-01) (1, 1.29625927656888961792e-02) (2, -5.13530194759368896484e-01) (7, 5.13158202171325683594e-01) (5, -9.67583060264587402344e-01) (10, 7.39372491836547851562e-01) (4, 1.37232339382171630859e+00) (3, 9.77560281753540039062e-01) (5, -7.20019459724426269531e-01) (8, 6.15849435329437255859e-01) (10, -1.67174291610717773438e+00) (2, 9.72370445728302001953e-01) (3, 5.08181095123291015625e-01) (8, 1.31075191497802734375e+00) (5, 5.57545542716979980469e-01) (10, 1.22818738222122192383e-01) (8, -8.02399456501007080078e-01) (1, 4.57721978425979614258e-01) (4, -5.80967843532562255859e-01) (0, -7.59199917316436767578e-01) (10, 9.22708928585052490234e-01) (0, 3.54243546724319458008e-01) (7, -1.12296104431152343750e+00) (4, 1.28791856765747070312e+00) (6, 1.21778726577758789062e+00) (10, 5.32623350620269775391e-01) (1, -4.40761834383010864258e-01) (3, -4.27089333534240722656e-01) (7, -7.04250097274780273438e-01) (8, -1.76922082901000976562e-01) (10, 1.78857177495956420898e-01) (2, 4.66233491897583007812e-02) (4, 9.92782592773437500000e-01) (1, -1.69766500592231750488e-01) (3, 1.05566918849945068359e+00) (10, -1.40285640954971313477e-01) (4, -1.12239754199981689453e+00) (6, 5.28731942176818847656e-01) (3, 1.90851047635078430176e-01) (7, 3.17821174860000610352e-01) (10, 1.80560529232025146484e-01) (7, 1.29077887535095214844e+00) (1, -3.67365926504135131836e-01) (5, -8.54823812842369079590e-02) (6, 3.20701032876968383789e-01) (10, 1.40916931629180908203e+00) (4, 7.03242897987365722656e-01) (2, 1.02923500537872314453e+00) (5, 4.49418574571609497070e-02) (7, -1.29536405205726623535e-01) (10, 1.38949736952781677246e-01) (7, -7.07947254180908203125e-01) (4, 1.77716565132141113281e+00) (1, 3.44210356473922729492e-01) (2, 2.16589474678039550781e+00) (111, -7.45728075504302978516e-01) (33, 7.18274474143981933594e-01) (38, 3.38489972054958343506e-02) (85, 6.39909207820892333984e-01) (71, 3.71753163635730743408e-02) (78, 1.01545262336730957031e+00) (69, -6.70349180698394775391e-01) (44, -8.65355789661407470703e-01) (110, 2.87435483187437057495e-02) (90, 1.08533787727355957031e+00) (59, 3.75695914030075073242e-01) (50, -2.37054443359375000000e+00) (45, -7.69930720329284667969e-01) (43, 6.90912783145904541016e-01) (67, -5.85366189479827880859e-01) (93, -6.58163130283355712891e-02) (95, 6.63538992404937744141e-01) (99, 4.34620529413223266602e-01) (24, 1.88344806432723999023e-01) (39, -1.69480216503143310547e+00) (70, 6.37454748153686523438e-01) (76, -3.26575934886932373047e-01) (18, -4.06608819961547851562e-01) (106, 4.46016579866409301758e-01) (52, 1.07842588424682617188e+00) (73, 9.35849964618682861328e-01) (22, -1.96832969784736633301e-01) (97, 4.87235575914382934570e-01) (62, 4.06298828125000000000e+00) (26, 4.56384390592575073242e-01) (105, -7.83515200018882751465e-02) (92, 1.10380208492279052734e+00) (64, 9.78548884391784667969e-01) (27, 4.04315799474716186523e-01) (63, 1.31326198577880859375e+00) (25, -9.37726616859436035156e-01) (65, 3.33546936511993408203e-01) (96, 5.05326032638549804688e-01) (75, -3.07201147079467773438e-01) (108, 2.87452459335327148438e-01) (100, 6.36538743972778320312e-01) (111, -6.62042200565338134766e-01) (18, 4.50242936611175537109e-01) (61, -1.27027720212936401367e-01) (69, -1.41770696640014648438e+00) (100, -2.59461477398872375488e-02) (20, -7.12472259998321533203e-01) (47, 1.36765074729919433594e+00) (50, 3.33654451370239257812e+00) (109, -6.79460525512695312500e-01) (86, -3.30404460430145263672e-01) (33, 2.19471916556358337402e-01) (99, 1.24963331222534179688e+00) (98, 5.38948595523834228516e-01) (64, -7.67512395977973937988e-02) (95, -1.35977542400360107422e+00) (67, 1.50681257247924804688e+00) (102, 9.50135648250579833984e-01) (56, 5.77918104827404022217e-02) (19, 5.06255447864532470703e-01) (22, 4.88565027713775634766e-01) (94, -7.13838338851928710938e-01) (68, 3.15413266420364379883e-01) (107, -6.27243280410766601562e-01) (103, 2.32982605695724487305e-01) (48, -2.32981443405151367188e-01) (41, 5.16855061054229736328e-01) (40, 7.34714150428771972656e-01) (23, 5.03047287464141845703e-01) (26, 1.64793744683265686035e-01) (76, -4.59031760692596435547e-01) (93, 8.79148960113525390625e-01) (31, 4.07803535461425781250e-01) (57, -7.93620705604553222656e-01) (59, 9.37203228473663330078e-01) (55, -2.21378430724143981934e-01) (105, -7.51150727272033691406e-01) (77, -6.97747766971588134766e-01) (43, 3.75311821699142456055e-01) (83, 8.42151820659637451172e-01) (108, 4.50963020324707031250e-01) (15, 1.27257570624351501465e-01) (111, -1.03590972721576690674e-01) (16, 1.52287334203720092773e-01) (54, 1.80681586265563964844e-01) (55, 4.70895767211914062500e+00) (93, -7.72604763507843017578e-01) (108, 7.63432204723358154297e-01) (89, -4.45325553417205810547e-01) (86, 1.01096212863922119141e+00) (20, -3.53012859821319580078e-01) (78, 5.08965998888015747070e-02) (70, -3.81061136722564697266e-02) (74, -7.58491873741149902344e-01) (24, 1.52519595623016357422e+00) (110, 7.06608533859252929688e-01) (11, -6.18914246559143066406e-01) (45, 1.41754031181335449219e+00) (72, -3.50848823785781860352e-01) (81, 8.19877460598945617676e-02) (44, -2.34099030494689941406e-01) (13, 3.84917944669723510742e-01) (56, 1.36317038536071777344e+00) (27, 2.18275394290685653687e-02) (21, 8.25277745723724365234e-01) (95, 6.27541780471801757812e-01) (62, -1.99310135841369628906e+00) (80, 7.05740869045257568359e-01) (90, 1.03613841533660888672e+00) (85, 1.12603878974914550781e+00) (66, 1.06220841407775878906e+00) (42, 5.55307149887084960938e-01) (60, 7.79150605201721191406e-01) (33, 1.26451149582862854004e-01) (105, 9.49279546737670898438e-01) (39, -1.60663247108459472656e-01) (104, 3.76197010278701782227e-01) (84, -2.34189495444297790527e-01) (46, 6.49959206581115722656e-01) (107, 1.30051422119140625000e+00) (37, 4.71410840749740600586e-01) (77, 7.19640403985977172852e-02) (28, -1.03127574920654296875e+00) (111, -1.46377133205533027649e-03) (84, 6.71690106391906738281e-01) (79, 1.41394245624542236328e+00) (25, 3.17023783922195434570e-01) (90, -3.32033991813659667969e-01) (104, 8.74224491417407989502e-03) (83, -3.26412469148635864258e-01) (36, 2.74302124977111816406e-01) (92, -2.70944094657897949219e+00) (16, 5.44153479859232902527e-03) (59, -7.21521735191345214844e-01) (54, 4.94065135717391967773e-01) (71, 8.42769443988800048828e-01) (18, -9.80030179023742675781e-01) (99, 1.45261073112487792969e+00) (76, 1.39833736419677734375e+00) (64, -1.49887576699256896973e-01) (78, 7.52877652645111083984e-01) (75, 2.60719239711761474609e-01) (98, 9.91015672683715820312e-01) (93, -3.35137173533439636230e-02) (14, 1.72141933441162109375e+00) (62, -2.39022922515869140625e+00) (38, -7.97100543975830078125e-01) (22, 1.28643894195556640625e+00) (53, -7.27284193038940429688e-01) (35, -6.13780878484249114990e-03) (44, -4.76509094238281250000e-01) (88, -4.69978302717208862305e-01) (82, -1.02002196013927459717e-01) (60, 8.86847376823425292969e-01) (33, -6.58288836479187011719e-01) (15, 6.25074326992034912109e-01) (12, 1.69780552387237548828e-01) (96, -2.22598001360893249512e-01) (109, -6.30369484424591064453e-01) (50, -2.70971035957336425781e+00) (41, 8.52347910404205322266e-01) (106, 1.23368608951568603516e+00) (77, 4.13290470838546752930e-01) (43, 4.20767366886138916016e-01) (111, -1.89222171902656555176e-01) (82, 9.51797738671302795410e-02) (27, -6.95059061050415039062e-01) (63, -6.45087718963623046875e-01) (100, 1.01197373867034912109e+00) (49, -1.14682757854461669922e+00) (97, 1.51724517345428466797e-01) (104, 2.04585254192352294922e-01) (43, 1.20229041576385498047e+00) (107, 1.35784852504730224609e+00) (75, 5.85645616054534912109e-01) (15, 7.93832898139953613281e-01) (91, 1.01844143867492675781e+00) (77, -1.21173954010009765625e+00) (78, 1.18775628507137298584e-01) (28, 1.09369374811649322510e-01) (47, -3.41770708560943603516e-01) (72, 5.98263144493103027344e-01) (51, -1.64724677801132202148e-01) (56, 1.24793589115142822266e+00) (74, 1.22033059597015380859e-01) (109, 7.76777505874633789062e-01) (64, 9.13927927613258361816e-02) (17, 1.28494620323181152344e+00) (36, 1.05123817920684814453e+00) (66, 3.11132121086120605469e+00) (90, 1.23339211940765380859e+00) (88, -1.04611253738403320312e+00) (39, -3.81252765655517578125e-02) (33, -9.90744471549987792969e-01) (41, -7.87164390087127685547e-01) (30, -2.83575677871704101562e+00) (32, -5.93245089054107666016e-01) (14, -9.91649031639099121094e-01) (50, -1.67264714837074279785e-01) (94, 1.13222992420196533203e+00) (35, -4.12835508584976196289e-01) (96, -5.73930799961090087891e-01) (61, 6.55215799808502197266e-01) (40, 6.67982816696166992188e-01) (24, 4.54728186130523681641e-01) (111, 4.45676356554031372070e-01) (27, 3.16691040992736816406e-01) (50, -1.40018808841705322266e+00) (107, -7.49652981758117675781e-02) (109, -1.09251594543457031250e+00) (52, 1.08536159992218017578e+00) (71, 1.79354786872863769531e-01) (33, 1.92994415760040283203e-01) (59, 9.51139569282531738281e-01) (13, 3.27126443386077880859e-01) (49, 8.35841655731201171875e-01) (58, 5.44847309589385986328e-01) (19, -1.21904946863651275635e-02) (44, 9.91281628608703613281e-01) (30, 2.95380711555480957031e+00) (36, 7.03191459178924560547e-01) (60, -8.17845821380615234375e-01) (47, 6.51353776454925537109e-01) (94, -3.35994809865951538086e-01) (72, 1.01496207714080810547e+00) (64, -2.60252803564071655273e-01) (55, -5.10589694976806640625e+00) (54, 1.05115270614624023438e+00) (45, -5.49682378768920898438e-01) (84, 1.04153823852539062500e+00) (74, 8.19155752658843994141e-01) (90, 6.51295661926269531250e-01) (96, 3.75177681446075439453e-01) (79, 1.78172349929809570312e+00) (20, 3.04517984390258789062e-01) (77, -7.36815869808197021484e-01) (23, -3.48816633224487304688e-01) (41, 5.84531091153621673584e-02) (66, 1.43717658519744873047e+00) (62, -8.92032742500305175781e-01) (15, -3.23979556560516357422e-01) (56, -2.31877326965332031250e-01) (14, 1.50510811805725097656e+00) (110, -3.87631237506866455078e-01) (97, -8.40850472450256347656e-01) (26, -7.69505560398101806641e-01) (111, -1.47820696234703063965e-01) (71, 8.71256172657012939453e-01) (98, 1.12284755706787109375e+00) (49, 2.82920926809310913086e-01) (62, 1.93609368801116943359e+00) (50, -2.50649929046630859375e+00) (68, 7.86811590194702148438e-01) (77, 3.27821612358093261719e-01) (67, 2.56043553352355957031e-01) (12, -5.57355225086212158203e-01) (103, 9.30558741092681884766e-01) (84, 1.84423577785491943359e+00) (81, 4.51259911060333251953e-01) (78, 2.93874263763427734375e-01) (92, -1.37086316943168640137e-01) (51, -3.55853497982025146484e-01) (76, 6.02503299713134765625e-01) (102, -7.09912702441215515137e-02) (36, 1.67005491256713867188e+00) (38, -3.45453210175037384033e-02) (80, 4.77103382349014282227e-01) (93, -1.72263175249099731445e-01) (65, 1.09800982475280761719e+00) (15, 1.65298685431480407715e-01) (41, 1.46657183766365051270e-01) (54, 2.55402779579162597656e+00) (21, 6.67650699615478515625e-01) (105, -3.28595876693725585938e-01) (99, 1.57894158363342285156e+00) (29, 1.39394426345825195312e+00) (52, 1.65753388404846191406e+00) (82, -5.67046463489532470703e-01) (59, 4.72542494535446166992e-01) (44, -2.65576958656311035156e+00) (25, -6.54855489730834960938e-01) (60, -1.94742131233215332031e+00) (100, 1.37486922740936279297e+00) (74, -2.96151667833328247070e-01) (37, -9.03361737728118896484e-01) (107, -1.08302080631256103516e+00) (110, -3.54717344045639038086e-01) (111, -8.01012873649597167969e-01) (82, 4.95312839746475219727e-01) (50, 7.10832118988037109375e-01) (75, 3.95006120204925537109e-01) (22, 3.11709970235824584961e-01) (88, 7.14156508445739746094e-01) (89, 1.21874785423278808594e+00) (21, 4.88698959350585937500e-01) (94, -3.45137029886245727539e-01) (46, -3.45407009124755859375e-01) (77, -2.44153082370758056641e-01) (84, 8.45735728740692138672e-01) (43, -1.02009274065494537354e-01) (60, -1.35020747780799865723e-01) (72, -1.31502281874418258667e-02) (83, -6.36259377002716064453e-01) (87, -1.44774662330746650696e-02) (30, 3.89690279960632324219e-01) (74, 1.16057538986206054688e+00) (73, 4.05758559703826904297e-01) (61, -9.25182342529296875000e-01) (31, 9.99356508255004882812e-01) (105, 1.37430459260940551758e-01) (52, 7.16997981071472167969e-01) (69, -5.98648548126220703125e-01) (91, 3.38408052921295166016e-01) (96, -1.31960958242416381836e-01) (108, 1.31527674198150634766e+00) (56, 7.82595515251159667969e-01) (34, 9.67018827795982360840e-02) (32, -2.01298385858535766602e-01) (64, -1.50253549218177795410e-01) (23, -3.81324261426925659180e-01) (35, -7.76035189628601074219e-01) (17, 7.81838715076446533203e-01) (104, -6.14273011684417724609e-01) (66, 1.34212231636047363281e+00) (62, 1.55060255527496337891e+00) (41, 1.19372153282165527344e+00) (53, 9.44575786590576171875e-01) (19, -2.67138540744781494141e-01) (111, 7.13418006896972656250e-01) (26, 4.98082071542739868164e-01) (106, -1.27097618579864501953e+00) (29, -2.60552346706390380859e-01) (71, -5.92396616935729980469e-01) (67, 9.96697604656219482422e-01) (65, -3.93595546483993530273e-02) (33, -2.16535598039627075195e-01) (74, -8.19912075996398925781e-01) (88, 7.77165889739990234375e-01) (77, -2.80386716127395629883e-01) (107, 1.27373373508453369141e+00) (25, 8.49832177162170410156e-01) (73, 9.37561154365539550781e-01) (19, -9.07668232917785644531e-01) (83, -6.42640650272369384766e-01) (61, -5.85809648036956787109e-01) (84, 9.57859337329864501953e-01) (102, 1.69214114546775817871e-01) (94, 3.17141503095626831055e-01) (91, 3.05542685091495513916e-02) (32, 6.54659867286682128906e-02) (80, -2.29207277297973632812e-01) (78, -1.27497279644012451172e+00) (36, -7.92219340801239013672e-01) (51, 6.66903257369995117188e-01) (93, 1.90096747875213623047e+00) (58, 1.57456696033477783203e+00) (72, -5.58211743831634521484e-01) (23, -3.06924462318420410156e-01) (16, -8.66184294223785400391e-01) (89, 1.62923169136047363281e+00) (95, 8.60800325870513916016e-01) (13, -1.30891844630241394043e-01) (85, 1.74135291576385498047e+00) (34, 9.50680136680603027344e-01) (55, -5.95087170600891113281e-01) (57, -6.21822893619537353516e-01) (104, -3.03087204694747924805e-01) (35, -1.70339494943618774414e-01) (28, -2.41018116474151611328e-01) (111, -2.09105730056762695312e-01) (21, 1.72610655426979064941e-01) (25, 4.53454113006591796875e+00) (44, 5.79698896408081054688e+00) (68, -2.20884680747985839844e+00) (80, -1.10031139850616455078e+00) (12, 1.40192306041717529297e+00) (84, -1.32426774501800537109e+00) (24, 3.55889391899108886719e+00) (63, 2.48069214820861816406e+00) (47, -5.62555074691772460938e+00) (77, 6.75380051136016845703e-01) (50, 5.08582210540771484375e+00) (91, -1.08503177762031555176e-01) (74, -3.01669859886169433594e+00) (16, 1.29737782478332519531e+00) (55, -3.49313426017761230469e+00) (48, 9.02413368225097656250e-01) (99, -1.75480639934539794922e+00) (75, 2.79256868362426757812e+00) (51, -1.26377725601196289062e+00) (31, -1.51855599880218505859e+00) (28, -2.07294154167175292969e+00) (36, -6.93538725376129150391e-01) (60, 3.55416560173034667969e+00) (102, 1.42668771743774414062e+00) (87, 3.01955628395080566406e+00) (88, -9.20237660408020019531e-01) (92, 1.96784389019012451172e+00) (29, -4.61865758895874023438e+00) (83, 3.90297979116439819336e-01) (89, 2.16031789779663085938e+00) (85, 5.73789119720458984375e+00) (18, -6.46741449832916259766e-01) (107, -1.73574829101562500000e+00) (65, -3.79846900701522827148e-01) (26, 9.61448073387145996094e-01) (58, 3.28942537307739257812e+00) (30, 6.20840597152709960938e+00) (72, -6.90528228878974914551e-02) (27, -1.66493272781372070312e+00) (111, 3.98882105946540832520e-02) (74, 9.65170383453369140625e-01) (76, 5.58726131916046142578e-01) (94, 3.67454469203948974609e-01) (70, 7.46187567710876464844e-01) (98, 4.04918879270553588867e-01) (36, 1.01037792861461639404e-01) (54, 1.11913633346557617188e+00) (97, 3.12835812568664550781e-01) (109, -1.19937323033809661865e-01) (91, 3.19963485002517700195e-01) (110, 7.51918181777000427246e-02) (108, 1.01654976606369018555e-01) (64, 1.93387418985366821289e-01) (14, 2.31343150138854980469e-01) (81, 5.57581149041652679443e-03) (65, -2.98129677772521972656e-01) (27, -5.19218325614929199219e-01) (51, 2.07160502672195434570e-01) (44, 7.47006237506866455078e-02) (53, -4.32055801153182983398e-01) (104, 2.27621093392372131348e-01) (82, 1.15952527523040771484e+00) (96, 5.51738321781158447266e-01) (34, 2.79200434684753417969e-01) (57, -5.64332008361816406250e-01) (103, 1.32154762744903564453e+00) (47, 1.09034264087677001953e+00) (86, 4.51661884784698486328e-01) (100, 7.94858783483505249023e-02) (37, 1.47947633266448974609e+00) (56, -9.79332864284515380859e-01) (43, -3.67770165205001831055e-01) (49, -3.91456604003906250000e-01) (39, 8.40384781360626220703e-01) (12, -5.94110012054443359375e-01) (63, -9.60905134677886962891e-01) (93, 9.08086061477661132812e-01) (68, 5.65869286656379699707e-02) (41, -1.70250579714775085449e-01) (33, 5.48048555850982666016e-01) (111, 4.68646347522735595703e-01) (75, 5.24053394794464111328e-01) (23, 2.71369144320487976074e-02) (12, 1.10721838474273681641e+00) (110, -1.61794215440750122070e-01) (56, -7.07406699657440185547e-01) (49, 5.36660790443420410156e-01) (37, -1.58486753702163696289e-01) (35, 9.16329503059387207031e-01) (47, 7.55483984947204589844e-01) (17, 5.62637686729431152344e-01) (29, 4.86453622579574584961e-01) (102, 6.13027870655059814453e-01) (25, 1.00651729106903076172e+00) (42, -3.45191091299057006836e-01) (21, 4.78193014860153198242e-01) (105, 1.53153538703918457031e-01) (52, 8.54446113109588623047e-01) (41, -8.88110756874084472656e-01) (63, -4.99586075544357299805e-01) (87, 1.17764735221862792969e+00) (69, 5.54213762283325195312e-01) (91, -7.16682016849517822266e-01) (48, -7.27755725383758544922e-01) (98, -1.22588820755481719971e-01) (85, 4.86084759235382080078e-01) (19, -4.75750297307968139648e-01) (89, 7.01118588447570800781e-01) (40, 1.72716331481933593750e+00) (50, 1.34583508968353271484e+00) (103, 7.93462514877319335938e-01) (77, 4.02770638465881347656e-01) (79, 1.08747625350952148438e+00) (34, 9.74886789917945861816e-02) (20, -5.79883456230163574219e-01) (45, 1.27210700511932373047e+00) (108, -1.12166702747344970703e+00) (51, 7.23086893558502197266e-02) (88, -6.31112694740295410156e-01) (92, -1.10838437080383300781e+00) (106, -5.84776818752288818359e-01) (111, 1.08968484401702880859e+00) (47, -4.96548384428024291992e-01) (53, -2.84951359033584594727e-01) (95, -6.84664309024810791016e-01) (96, 1.45101085305213928223e-01) (66, 1.49201571941375732422e+00) (32, 2.26218134164810180664e-01) (102, 7.59997129440307617188e-01) (11, -1.05718231201171875000e+00) (100, 3.64730566740036010742e-01) (31, -9.21632707118988037109e-01) (13, 4.40764951705932617188e+00) (12, -5.37603378295898437500e-01) (68, -4.75277185440063476562e-01) (50, 1.23818588256835937500e+01) (82, 4.91059213876724243164e-01) (25, 2.93754100799560546875e+00) (103, 2.33164817094802856445e-01) (72, 1.39010798931121826172e+00) (23, -1.08001962304115295410e-01) (49, 3.95152717828750610352e-01) (35, 1.11394000053405761719e+00) (15, -3.60497355461120605469e-01) (71, 9.47834074497222900391e-01) (22, -2.22820565104484558105e-01) (65, 7.38696515560150146484e-01) (55, -2.32421374320983886719e+00) (34, 9.53021273016929626465e-02) (64, 4.71400827169418334961e-01) (54, -4.77283573150634765625e+00) (84, 3.24069350957870483398e-01) (52, -1.08007299900054931641e+00) (73, 6.28636419773101806641e-01) (43, 6.81831240653991699219e-01) (21, -6.43983483314514160156e-01) (87, 4.82301056385040283203e-01) (93, -8.55672001838684082031e-01) (30, -3.08629798889160156250e+00) (77, 1.23149883747100830078e+00) (76, -9.53977584838867187500e-01) (42, -2.18687579035758972168e-01) (111, 8.38623762130737304688e-01) (51, 9.05102908611297607422e-01) (97, -3.37812036275863647461e-01) (100, 5.39494156837463378906e-01) (99, 9.92383599281311035156e-01) (20, 6.26539468765258789062e-01) (30, -1.78388762474060058594e+00) (29, -1.94176360964775085449e-01) (19, 6.62275791168212890625e-01) (12, 3.34408640861511230469e-01) (90, -4.02843832969665527344e-01) (23, 2.11284232139587402344e+00) (103, 3.63796621561050415039e-01) (96, 1.06788337230682373047e+00) (63, -3.64770841598510742188e+00) (94, -5.89397907257080078125e-01) (24, 4.70561921596527099609e-01) (15, -2.25807356834411621094e+00) (60, -1.23713517189025878906e+00) (44, -4.78017270565032958984e-01) (62, 4.45203113555908203125e+00) (105, -1.43143191933631896973e-01) (47, 2.08996415138244628906e+00) (109, -1.14565181732177734375e+00) (110, -8.95466923713684082031e-01) (95, -5.57302713394165039062e-01) (46, -4.79669630527496337891e-01) (22, -7.31174722313880920410e-02) (34, -3.62083137035369873047e-01) (98, 6.88021123409271240234e-01) (26, 1.00339043140411376953e+00) (76, -4.14668679237365722656e-01) (16, -1.24394202232360839844e+00) (70, -4.17210087180137634277e-02) (80, -9.36145037412643432617e-02) (49, 5.15943825244903564453e-01) (61, 1.32083714008331298828e+00) (40, -1.11804282665252685547e+00) (81, -8.28879654407501220703e-01) (28, -4.83826965093612670898e-01) (39, 3.70841562747955322266e-01) (111, -4.25138950347900390625e-01) (31, 1.25302612781524658203e+00) (92, 1.41751050949096679688e+00) (43, 1.20017242431640625000e+00) (44, 1.18943226337432861328e+00) (37, -5.42144894599914550781e-01) (108, 1.55374121665954589844e+00) (107, 3.47371190786361694336e-01) (40, 1.71955776214599609375e+00) (19, 7.14902520179748535156e-01) (102, 7.44714677333831787109e-01) (97, -1.03697299957275390625e+00) (81, -6.31185650825500488281e-01) (90, 7.83118844032287597656e-01) (91, -7.81314551830291748047e-01) (28, -3.83273601531982421875e-01) (79, 4.08007353544235229492e-01) (32, 1.31845068931579589844e+00) (14, 3.19846659898757934570e-01) (41, -4.21291947364807128906e-01) (85, 7.94833838939666748047e-01) (52, -1.01364684104919433594e+00) (12, -1.29678499698638916016e+00) (70, 7.72135913372039794922e-01) (50, 1.68428587913513183594e+00) (63, -3.61530892550945281982e-02) (16, 7.90825307369232177734e-01) (83, -3.69987599551677703857e-02) (22, 2.00801134109497070312e+00) (86, -3.70076489448547363281e+00) (61, 6.66563928127288818359e-01) (69, 1.38810563087463378906e+00) (74, -4.88715572282671928406e-03) (96, -1.64397239685058593750e+00) (36, 7.69902110099792480469e-01) (39, 2.83509564399719238281e+00) (101, 2.86710691452026367188e+00) (26, -4.83144074678421020508e-01) (33, -8.24480175971984863281e-01) (72, -1.14349842071533203125e-01) (24, -8.13080310821533203125e-01) (111, 1.19759249687194824219e+00) (43, -1.55177265405654907227e-01) (79, 5.00589609146118164062e-01) (51, 6.94790482521057128906e-01) (15, -5.79655706882476806641e-01) (100, 7.19488561153411865234e-01) (94, -5.48009276390075683594e-01) (109, 3.86337339878082275391e-01) (73, -1.57324969768524169922e-01) (47, -1.04997444152832031250e+00) (61, 7.62537658214569091797e-01) (78, 6.42313882708549499512e-02) (33, 6.29637122154235839844e-01) (66, 8.78248572349548339844e-01) (92, 1.73354363441467285156e+00) (25, 3.16771119832992553711e-02) (101, 1.01603376865386962891e+00) (54, -2.39423060417175292969e+00) (88, 1.56947448849678039551e-01) (29, 4.56961452960968017578e-01) (80, 9.15546268224716186523e-02) (107, 6.75190091133117675781e-01) (68, 2.50336617231369018555e-01) (82, 3.53809863328933715820e-01) (55, 6.77978754043579101562e+00) (104, 2.98521012067794799805e-01) (32, 1.02178335189819335938e+00) (42, 1.17110061645507812500e+00) (50, -7.06107139587402343750e-01) (93, 3.10910403728485107422e-01) (35, 1.28610789775848388672e+00) (91, 1.74718856811523437500e+00) (59, -3.15626204013824462891e-01) (75, 8.51025760173797607422e-01) (72, -6.49818420410156250000e-01) (63, -2.10177734494209289551e-01) (30, 8.70310401916503906250e+00) (45, 1.09606313705444335938e+00) (23, 2.52293586730957031250e-01) (106, 9.22761738300323486328e-01) (57, 2.58331203460693359375e+00) (111, -4.06087875366210937500e-01) (100, -1.06903624534606933594e+00) (85, 7.77709364891052246094e-01) (92, -7.09441900253295898438e-01) (25, 3.60753655433654785156e-01) (58, -6.29902720451354980469e-01) (68, -5.72975635528564453125e-01) (86, -9.67551887035369873047e-01) (102, 5.01026451587677001953e-01) (59, 5.90213894844055175781e-01) (107, 8.90485942363739013672e-01) (71, -4.09645110368728637695e-01) (76, 2.96633988618850708008e-02) (69, 1.25899285078048706055e-01) (70, 1.17422091960906982422e+00) (94, -7.66554236412048339844e-01) (34, -7.96737074851989746094e-02) (72, -2.74437636137008666992e-01) (48, 7.50642597675323486328e-01) (87, 2.05310523509979248047e-01) (50, 3.66446912288665771484e-01) (39, 1.53019523620605468750e+00) (103, 2.30008602142333984375e-01) (80, -5.94776988029479980469e-01) (26, -2.88769662380218505859e-01) (99, -3.42254608869552612305e-01) (56, 1.12679755687713623047e+00) (29, 4.91868853569030761719e-01) (93, -1.49347752332687377930e-01) (27, 9.85068157315254211426e-02) (73, -9.19231176376342773438e-01) (95, 2.06305041909217834473e-01) (83, 4.33112055063247680664e-01) (20, -5.15682399272918701172e-01) (23, 9.62435603141784667969e-01) (42, 1.68724346160888671875e+00) (30, 8.03445756435394287109e-01) (67, 1.94749549031257629395e-01) (96, 4.68128502368927001953e-01) (19, 4.17439103126525878906e-01) (12, 9.47934329509735107422e-01) (111, 9.35282409191131591797e-02) (15, -2.85965025424957275391e-01) (35, 6.98613703250885009766e-01) (52, 1.11025738716125488281e+00) (81, -2.74756371974945068359e-01) (99, 8.16390573978424072266e-01) (74, 1.46182930469512939453e+00) (65, 9.44863617420196533203e-01) (82, -3.57470273971557617188e-01) (40, 1.74476039409637451172e+00) (84, 1.36414659023284912109e+00) (20, 1.55181437730789184570e-01) (79, 4.50947284698486328125e-01) (16, -3.37763696908950805664e-01) (34, 1.35504722595214843750e-01) (53, -3.91579896211624145508e-01) (67, 9.63984429836273193359e-01) (33, 4.24354583024978637695e-01) (27, 1.52778089046478271484e+00) (94, 1.22612619400024414062e+00) (42, 1.43530166149139404297e+00) (22, 2.20883592963218688965e-01) (78, 6.59518778324127197266e-01) (93, 1.54964172840118408203e+00) (95, 4.43707436323165893555e-01) (80, 1.50823855400085449219e+00) (97, 1.17096495628356933594e+00) (28, -9.24346446990966796875e-02) (103, -9.35502231121063232422e-01) (63, 1.53257048130035400391e+00) (75, -1.64908356964588165283e-02) (55, 4.36866188049316406250e+00) (62, 8.86699557304382324219e-01) (104, -7.01482534408569335938e-01) (72, 8.72173830866813659668e-02) (17, 1.24496948719024658203e+00) (54, -7.52256691455841064453e-01) (59, 2.96102076768875122070e-01) (58, -5.89008927345275878906e-02) (49, -8.96863400936126708984e-01) (43, 4.09570157527923583984e-01) (111, 3.07121187448501586914e-01) (19, 1.04327633976936340332e-01) (70, 4.11904215812683105469e-01) (15, 4.24681752920150756836e-01) (39, -7.84351289272308349609e-01) (29, -1.35914587974548339844e+00) (88, -2.53407955169677734375e-01) (65, 5.33815979957580566406e-01) (104, 5.20783253014087677002e-02) (94, -5.05376338958740234375e-01) (93, 7.80389368534088134766e-01) (99, -4.75882381200790405273e-01) (109, 1.05889046192169189453e+00) (102, 8.26789021492004394531e-01) (107, -2.87739306688308715820e-01) (48, -4.64625477790832519531e-01) (95, 3.97203356027603149414e-01) (90, 7.37896442413330078125e-01) (49, -3.93111944198608398438e-01) (100, -1.80345511436462402344e+00) (12, 4.35208588838577270508e-01) (68, 1.07875001430511474609e+00) (22, -3.28119993209838867188e-01) (72, 1.59255993366241455078e+00) (34, -3.87053012847900390625e-01) (60, 2.52321153879165649414e-01) (17, -2.44828417897224426270e-01) (76, -5.35279572010040283203e-01) (43, -4.48025465011596679688e-01) (50, 1.13615903854370117188e+01) (81, 1.00512528419494628906e+00) (71, 5.96678256988525390625e-01) (96, 7.57824301719665527344e-01) (47, -9.72641855478286743164e-02) (64, 4.29192453622817993164e-01) (33, -4.66370433568954467773e-02) (69, -2.31009408831596374512e-01) (56, -1.48558926582336425781e+00) (32, 4.26633030176162719727e-01) (73, 4.64710593223571777344e-01) (30, -2.09290623664855957031e+00) (111, -4.33994978666305541992e-01) (83, 1.75530940294265747070e-01) (101, 8.28525364398956298828e-01) (73, -2.32391014695167541504e-01) (17, 7.40983307361602783203e-01) (105, -3.17359328269958496094e-01) (66, -3.10187965631484985352e-01) (84, 1.47615814208984375000e+00) (71, 1.02580153942108154297e+00) (80, 1.04057537391781806946e-02) (31, 3.47051978111267089844e-01) (13, -1.68798074126243591309e-01) (16, -7.61350691318511962891e-01) (27, 8.46560060977935791016e-01) (19, -3.03042143583297729492e-01) (14, 1.36006344109773635864e-02) (100, -1.20298779010772705078e+00) (72, -7.81096458435058593750e-01) (79, -6.11179411411285400391e-01) (81, 7.45113253593444824219e-01) (89, 8.01914811134338378906e-01) (64, -1.73259949684143066406e+00) (18, -2.08975836634635925293e-01) (29, -2.92909860610961914062e-01) (102, 8.91646265983581542969e-01) (24, -5.36914030089974403381e-03) (49, -4.63343292474746704102e-01) (28, -2.69798547029495239258e-01) (95, -1.33667603135108947754e-01) (48, -2.87357300519943237305e-01) (42, -1.00869584083557128906e+00) (77, 3.50353628396987915039e-01) (96, -1.30277767777442932129e-01) (108, 1.39116990566253662109e+00) (34, 2.20258180052042007446e-02) (55, -1.85861802101135253906e+00) (110, 1.82717299461364746094e+00) (97, 1.85211384296417236328e+00) (94, -7.32502341270446777344e-02) (36, 7.72975206375122070312e-01) (74, 6.47333621978759765625e-01) (111, -2.33438566327095031738e-01) (29, 8.73104333877563476562e-01) (76, 6.75765931606292724609e-01) (70, 7.61219620704650878906e-01) (71, -2.31150031089782714844e-01) (43, -7.88444995880126953125e-01) (57, -3.85492801666259765625e+00) (13, -4.04454946517944335938e+00) (92, -1.30209431052207946777e-01) (22, 2.71825566887855529785e-02) (53, -3.26774209737777709961e-01) (32, -9.20729562640190124512e-02) (19, -2.14656770229339599609e-01) (39, 5.18194317817687988281e-01) (64, 6.54814720153808593750e-01) (73, 1.78569579124450683594e+00) (85, -3.78876030445098876953e-01) (54, -3.44706982374191284180e-01) (79, -1.12926967442035675049e-01) (35, 3.85880917310714721680e-01) (62, 2.18328495025634765625e+01) (98, 1.39909195899963378906e+00) (82, 1.95688195526599884033e-02) (108, 9.29036796092987060547e-01) (45, -6.56603217124938964844e-01) (26, -1.01348888874053955078e+00) (88, 2.22344771027565002441e-01) (66, -4.84582394361495971680e-01) (49, -5.62758445739746093750e-01) (61, 5.90901136398315429688e-01) (105, 1.08824872970581054688e+00) (67, -2.42082428932189941406e+00) (34, 9.92931425571441650391e-01) (33, -2.44658797979354858398e-01) (37, 5.63057541847229003906e-01) (100, -1.35108921676874160767e-02) (55, -4.17457275390625000000e+01) (48, -2.45374232530593872070e-01) (80, 9.58865284919738769531e-01) (14, -7.01860263943672180176e-02) (102, 1.07697272300720214844e+00) (111, -1.11062228679656982422e+00) (103, 1.47247362136840820312e+00) (106, 4.96653653681278228760e-02) (52, 5.04466593265533447266e-01) (33, -2.26680450141429901123e-02) (94, 9.13164857774972915649e-03) (18, 4.27407294511795043945e-01) (27, 9.04508054256439208984e-01) (107, 1.84178566932678222656e+00) (99, 9.30384337902069091797e-01) (91, -2.24964648485183715820e-01) (15, 8.25975596904754638672e-01) (62, -3.49880242347717285156e+00) (87, 6.48453950881958007812e-01) (105, -8.80192339420318603516e-01) (17, 1.48983156681060791016e+00) (25, 9.68751132488250732422e-01) (24, 8.09633493423461914062e-01) (60, 6.90750598907470703125e-01) (67, -1.05195629596710205078e+00) (92, 1.65382158756256103516e+00) (51, -5.77966749668121337891e-01) (82, -8.47828328609466552734e-01) (54, -1.33504009246826171875e+00) (93, 1.15056300163269042969e+00) (71, 6.83278977870941162109e-01) (73, 1.32307302951812744141e+00) (46, 9.34453785419464111328e-01) (47, 4.79467093944549560547e-01) (102, -1.44535124301910400391e-01) (76, -8.49970698356628417969e-01) (68, 5.17740607261657714844e-01) (59, 2.17226058244705200195e-01) (11, -9.97010707855224609375e-01) (64, 4.39678616821765899658e-02) (32, -5.38205087184906005859e-01) (26, -6.15665800869464874268e-02) (50, 3.57014274597167968750e+00) (35, 6.93240225315093994141e-01) (28, 5.56300222873687744141e-01) (42, 4.98481392860412597656e-01) (111, 6.41662120819091796875e-01) (46, -2.23922222852706909180e-01) (15, -5.65286353230476379395e-02) (62, -6.48834645748138427734e-01) (35, 7.87377357482910156250e-01) (70, 1.65291741490364074707e-01) (84, 1.05447992682456970215e-01) (105, 1.10305607318878173828e+00) (57, -1.15808494389057159424e-01) (37, 3.81540328264236450195e-01) (69, -3.08952331542968750000e-01) (82, 1.62398576736450195312e+00) (44, 9.40034016966819763184e-02) (109, -8.03970575332641601562e-01) (72, 1.01088631153106689453e+00) (43, 4.87336188554763793945e-01) (29, 1.47040024399757385254e-01) (68, -8.39368462562561035156e-01) (64, 6.68564140796661376953e-01) (66, -5.34936070442199707031e-01) (21, -9.48509797453880310059e-02) (79, -6.09295547008514404297e-01) (106, -7.33698904514312744141e-02) (77, -1.58468711376190185547e+00) (59, -9.63786482810974121094e-01) (93, 7.35462307929992675781e-01) (49, 3.50817918777465820312e-01) (101, 7.06037640571594238281e-01) (52, 4.95179370045661926270e-02) (91, -1.58459097146987915039e-01) (47, -2.30882167816162109375e-01) (16, 7.30702579021453857422e-01) (102, 9.27374899387359619141e-01) (65, -8.60742270946502685547e-01) (73, 1.48097765445709228516e+00) (40, 3.31092417240142822266e-01) (78, -3.65299850702285766602e-01) (63, 3.17689418792724609375e-01) (27, 6.35277271270751953125e-01) (96, -9.01325702667236328125e-01) (95, -1.07052159309387207031e+00) (111, 1.20766842365264892578e+00) (14, 6.98092818260192871094e-01) (17, 3.46058607101440429688e-01) (28, -4.86715614795684814453e-01) (91, -8.71323514729738235474e-03) (40, 7.10192501544952392578e-01) (54, 2.22064495086669921875e+00) (81, 2.73624628782272338867e-01) (47, 3.64927321672439575195e-01) (39, -3.39075565338134765625e-01) (95, -1.49021416902542114258e-01) (94, 1.20275568962097167969e+00) (25, -3.58269423246383666992e-01) (76, 4.89939928054809570312e-01) (106, -5.46240448951721191406e-01) (69, 5.11176511645317077637e-02) (19, -6.35271787643432617188e-01) (36, -8.68211016058921813965e-02) (67, 9.19206082820892333984e-01) (92, 5.16618609428405761719e-01) (72, 4.95015978813171386719e-01) (24, -4.83036711812019348145e-02) (82, 1.23992538452148437500e+00) (15, 1.70683816075325012207e-01) (16, -4.75185781717300415039e-01) (56, 8.54614496231079101562e-01) (58, -3.72178405523300170898e-02) (41, -9.22851115465164184570e-02) (27, -8.51761221885681152344e-01) (83, 1.03295671939849853516e+00) (18, 9.76574361324310302734e-01) (38, 4.15484756231307983398e-01) (70, 1.73353266716003417969e+00) (45, -6.30850046873092651367e-02) (101, 2.12877440452575683594e+00) (61, 2.80073344707489013672e-01) (35, -4.58996921777725219727e-01) (80, -8.94251823425292968750e-01) (51, -3.83584424853324890137e-02) (65, 1.38771474361419677734e+00) (57, -8.79351735115051269531e-01) (111, 9.05499160289764404297e-01) (13, -3.88906568288803100586e-01) (20, 3.86514604091644287109e-01) (62, 6.37452542781829833984e-01) (83, 4.25419837236404418945e-01) (35, 4.29837131500244140625e+00) (33, 1.67776453495025634766e+00) (28, 1.60965526103973388672e+00) (24, 8.21442186832427978516e-01) (73, -3.24196368455886840820e-01) (48, 9.31270122528076171875e-01) (76, 9.67856585979461669922e-01) (59, 7.37885415554046630859e-01) (15, 3.74567925930023193359e-01) (81, 1.49975275993347167969e+00) (44, 1.32420003414154052734e+00) (77, 1.31445074081420898438e+00) (56, 5.93599975109100341797e-01) (38, 2.38974571228027343750e+00) (23, 1.53012990951538085938e+00) (67, -1.13281615078449249268e-01) (53, 7.51607194542884826660e-02) (42, -5.23581624031066894531e-01) (39, -1.37465941905975341797e+00) (55, -4.83346402645111083984e-01) (101, 1.24189710617065429688e+00) (85, 4.90134060382843017578e-01) (26, 8.10793161392211914062e-01) (104, -5.48393011093139648438e-01) (102, 1.32360649108886718750e+00) (61, 3.90632331371307373047e-01) (11, -5.09359061717987060547e-01) (71, -1.73270016908645629883e-01) (30, -1.91807985305786132812e-01) (74, -6.78010463714599609375e-01) (69, 6.48162841796875000000e-01) (49, 1.01519680023193359375e+00) (78, 9.06625986099243164062e-01) (54, -2.02570900321006774902e-01) (109, -4.05148684978485107422e-01) (32, 7.57745265960693359375e-01) (111, 5.58261752128601074219e-01) (72, -1.97467401623725891113e-01) (89, -6.13905489444732666016e-01) (82, 4.15550321340560913086e-01) (43, -4.61686789989471435547e-01) (93, -3.84911864995956420898e-01) (16, 4.83640208840370178223e-02) (22, 1.00889191031455993652e-01) (75, 7.94900953769683837891e-01) (85, 1.66053354740142822266e-01) (29, -1.02329564094543457031e+00) (70, -3.38026843965053558350e-02) (106, -2.08560913801193237305e-01) (88, -1.80997312068939208984e+00) (12, -1.19242846965789794922e-01) (71, 9.44365441799163818359e-01) (102, -1.01448126137256622314e-01) (21, 1.14498722553253173828e+00) (20, 5.68814694881439208984e-01) (60, 2.92405724525451660156e-01) (109, -8.72623361647129058838e-03) (97, 7.99211323261260986328e-01) (57, 8.84670197963714599609e-01) (36, 1.39959490299224853516e+00) (90, -7.05143511295318603516e-02) (91, -3.90285909175872802734e-01) (54, -1.03147852420806884766e+00) (50, 1.96162271499633789062e+00) (81, -1.99622943997383117676e-01) (35, -4.48148012161254882812e-01) (66, 6.76594614982604980469e-01) (77, 8.73195901513099670410e-02) (48, 6.55634224414825439453e-01) (92, 9.28582072257995605469e-01) (46, 7.81750798225402832031e-01) (62, -2.10541152954101562500e+00) (78, 1.67186692357063293457e-01) (25, 7.65085339546203613281e-01) (42, 1.44155174493789672852e-01) (26, -9.33731906116008758545e-03) (94, 6.58306539058685302734e-01) (111, 5.64067661762237548828e-01) (40, -6.83818578720092773438e-01) (58, 7.36231923103332519531e-01) (27, -2.31942147016525268555e-01) (54, 6.90016388893127441406e-01) (24, -9.42541599273681640625e-01) (19, -1.00831222534179687500e+00) (33, 2.38668870925903320312e+00) (78, 2.17417344450950622559e-01) (52, -3.17927271127700805664e-01) (26, -4.60017502307891845703e-01) (46, 1.87004446983337402344e-01) (20, 2.60387897491455078125e-01) (18, 8.24054956436157226562e-01) (99, -4.40269440412521362305e-01) (42, -1.48699268698692321777e-01) (13, -3.81775081157684326172e-01) (102, -1.20093369483947753906e+00) (94, 5.62706589698791503906e-01) (72, 1.77856910228729248047e+00) (23, -1.38130104541778564453e+00) (65, -5.67891657352447509766e-01) (17, -1.66299664974212646484e+00) (98, 4.38889950513839721680e-01) (43, 5.27828335762023925781e-01) (49, 3.44719886779785156250e-01) (103, -1.98771730065345764160e-01) (41, 1.27695429325103759766e+00) (62, 1.37696933746337890625e+00) (28, 1.28397583961486816406e+00) (29, 1.73647701740264892578e+00) (12, 4.83107864856719970703e-01) (110, 7.34842598438262939453e-01) (107, 1.03576660156250000000e+00) (51, 7.78342783451080322266e-01) (45, -5.19119262695312500000e-01) (77, 5.61643302440643310547e-01) (83, 1.84072569012641906738e-01) (47, 7.59130060672760009766e-01) (16, -1.69391584396362304688e+00) (93, 1.01554870605468750000e+00) (111, -9.24269199371337890625e-01) (41, 6.77516385912895202637e-02) (58, 4.86438542604446411133e-01) (87, 1.72227466106414794922e+00) (100, 4.58749495446681976318e-02) (84, 6.81875526905059814453e-01) (28, -1.78323283791542053223e-01) (68, 5.80997049808502197266e-01) (18, 4.46975464001297950745e-03) (63, -8.84266316890716552734e-01) (64, -1.41972720623016357422e+00) (26, 9.63161349296569824219e-01) (16, -6.90474092960357666016e-01) (21, -2.18801438808441162109e-01) (69, 4.97525334358215332031e-01) (95, 4.86381202936172485352e-01) (78, -3.36970984935760498047e-01) (13, 3.14131945371627807617e-01) (74, -7.66041949391365051270e-02) (80, -1.08538493514060974121e-01) (88, 3.94363522529602050781e+00) (35, 1.30161857604980468750e+00) (11, 1.20470750331878662109e+00) (70, -2.29770541191101074219e-01) (48, -7.21696674823760986328e-01) (51, -1.02710628509521484375e+00) (89, 5.48329889774322509766e-01) (104, 1.24433183670043945312e+00) (23, 3.66788268089294433594e-01) (12, 8.32006871700286865234e-01) (40, -2.75283515453338623047e-01) (24, -4.79060709476470947266e-02) (107, -1.19602763652801513672e+00) (20, -8.10500800609588623047e-01) (99, 1.18375256657600402832e-01) (54, 8.85363817214965820312e-01) (17, -5.65063118934631347656e-01) (60, 3.45295846462249755859e-01) (108, -1.92534637451171875000e+00) (39, 2.75567936897277832031e+00) (14, 7.37204849720001220703e-01) (111, 4.97534036636352539062e-01) (30, -3.15036803483963012695e-01) (73, -3.33294719457626342773e-01) (96, -2.79126214981079101562e+00) (101, 3.74332815408706665039e-01) (44, 2.57520731538534164429e-02) (28, -7.22501218318939208984e-01) (93, 1.44647121429443359375e+00) (82, 5.88226842880249023438e+00) (45, -9.15265679359436035156e-01) (47, 3.74073982238769531250e-02) (54, -3.12624573707580566406e-01) (14, -1.25164747238159179688e+00) (43, 4.87721264362335205078e-01) (102, 9.78576242923736572266e-02) (66, -1.05936026573181152344e+00) (46, 1.89861536026000976562e+00) (17, 3.88938021659851074219e+00) (31, -9.13761019706726074219e-01) (91, -7.17410147190093994141e-01) (98, -2.06127023696899414062e+00) (81, 5.64846992492675781250e-01) (95, -1.96206498146057128906e+00) (64, -1.13075301051139831543e-01) (32, 1.33284211158752441406e+00) (83, 1.33405792713165283203e+00) (20, -2.25609874725341796875e+00) (63, -2.45580697059631347656e+00) (48, 1.53458261489868164062e+00) (107, -3.12809991836547851562e+00) (22, -2.76924967765808105469e+00) (59, 6.59600377082824707031e-01) (105, 1.23630988597869873047e+00) (106, -9.61691915988922119141e-01) (34, 1.25589931011199951172e+00) (41, -2.66475826501846313477e-01) (94, 4.07769065350294113159e-03) (78, -7.99859344959259033203e-01) (57, -3.90429973602294921875e-01) (25, 4.40325617790222167969e-01) (104, 5.30108809471130371094e-01) (111, 6.03309273719787597656e-01) (22, 2.91106820106506347656e-01) (42, 4.79248285293579101562e-01) (66, 5.75703561305999755859e-01) (26, -6.84108495712280273438e-01) (96, 7.49032571911811828613e-02) (46, 4.31932359933853149414e-02) (103, -3.63444462418556213379e-02) (99, 1.65425717830657958984e+00) (53, 9.12601292133331298828e-01) (40, 1.23021818697452545166e-01) (25, 9.41673994064331054688e-01) (79, 1.52383422851562500000e+00) (51, 9.69728976488113403320e-02) (13, -2.10005059838294982910e-01) (70, 7.33888208866119384766e-01) (50, 7.42797195911407470703e-01) (83, 1.15208828449249267578e+00) (93, 1.39023816585540771484e+00) (82, -5.35245537757873535156e-01) (74, -6.15265190601348876953e-01) (36, -1.15699672698974609375e+00) (60, 1.28988480567932128906e+00) (29, -3.55102896690368652344e-01) (77, -1.61879158020019531250e+00) (90, -1.75953567028045654297e-01) (91, 6.22762620449066162109e-01) (39, 1.34328281879425048828e+00) (81, 5.89804053306579589844e-01) (48, 3.07980179786682128906e-01) (107, 1.16711556911468505859e+00) (80, 1.09687817096710205078e+00) (49, 9.96594548225402832031e-01) (17, 6.20180189609527587891e-01) (47, 4.04521077871322631836e-01) (106, -4.59771305322647094727e-02) (92, 1.95555675029754638672e+00) (102, 8.81968855857849121094e-01) (12, -1.30377605557441711426e-01) (109, -3.61510127782821655273e-01) (84, -2.66141325235366821289e-01) (111, -4.82547670602798461914e-01) (108, -3.37211966514587402344e-01) (44, -2.28331041336059570312e+00) (38, 3.04353795945644378662e-02) (12, -6.68546259403228759766e-01) (16, -4.71994668245315551758e-01) (95, 2.58379846811294555664e-01) (32, 6.10930502414703369141e-01) (97, 8.76910746097564697266e-01) (68, -3.27573210000991821289e-01) (99, -5.71821331977844238281e-01) (72, 1.32388770580291748047e+00) (83, 5.92641174793243408203e-01) (33, -2.29598224163055419922e-01) (90, -5.37714064121246337891e-01) (86, -3.39706450700759887695e-01) (22, 3.48157505504786968231e-03) (27, -6.63688004016876220703e-01) (21, 9.73172426223754882812e-01) (56, 6.51715397834777832031e-02) (109, 1.30206465721130371094e-01) (67, 3.00835937261581420898e-01) (40, 2.93130666017532348633e-01) (82, 1.09539771080017089844e+00) (45, -1.49810624122619628906e+00) (37, -1.54238820075988769531e-01) (91, 1.37479341030120849609e+00) (102, -3.69512468576431274414e-01) (24, -2.77159661054611206055e-01) (18, 5.92139542102813720703e-01) (69, -8.98753106594085693359e-01) (28, -9.04288351535797119141e-01) (107, -9.66369926929473876953e-01) (61, 7.69086718559265136719e-01) (85, 3.55955481529235839844e-01) (39, -3.67608577013015747070e-01) (63, 5.00752806663513183594e-01) (70, -7.70641028881072998047e-01) (49, 5.10938704013824462891e-01) (105, 4.53749597072601318359e-01) (104, 4.99322056770324707031e-01) (111, 1.25674888491630554199e-01) (99, 2.10887119174003601074e-01) (54, 1.41608071327209472656e+00) (103, 1.03093123435974121094e+00) (109, 7.71245181560516357422e-01) (41, 1.07547521591186523438e+00) (68, 1.41784346103668212891e+00) (62, -2.15130352973937988281e+00) (107, 7.46521830558776855469e-01) (44, 6.58089458942413330078e-01) (88, 5.90160965919494628906e-01) (80, 1.28310656547546386719e+00) (82, -6.11981093883514404297e-01) (28, -2.03935360908508300781e+00) (75, 7.84736812114715576172e-01) (19, 3.15481603145599365234e-01) (108, -9.16920006275177001953e-02) (50, -2.02670359611511230469e+00) (77, 5.62295675277709960938e-01) (51, 9.62561905384063720703e-01) (43, -6.02741718292236328125e-01) (42, 9.22261834144592285156e-01) (74, 2.75579929351806640625e+00) (89, -5.15450417995452880859e-01) (69, -8.07105362415313720703e-01) (48, 8.10566127300262451172e-01) (47, 1.26258254051208496094e-01) (24, -1.13700315356254577637e-01) (97, 2.15609955787658691406e+00) (94, -7.22944319248199462891e-01) (79, 4.97976958751678466797e-01) (36, 9.25152838230133056641e-01) (29, 7.52101659774780273438e-01) (56, 8.46830844879150390625e-01) (61, -2.10553094744682312012e-01) (98, 9.73096787929534912109e-01) (45, 1.05538868904113769531e+00) (27, 1.59055256843566894531e+00) (40, 4.99802589416503906250e-01) (70, -5.47976672649383544922e-01) (55, -1.85809016227722167969e-01) (111, 3.20445358753204345703e-01) (62, 1.26133394241333007812e+00) (25, -5.74750006198883056641e-01) (70, -5.98268568515777587891e-01) (13, 1.53435373306274414062e+00) (30, 1.92053750157356262207e-01) (53, 6.01148545742034912109e-01) (100, -9.36963140964508056641e-01) (40, 9.75893437862396240234e-01) (74, -2.65275985002517700195e-01) (83, 5.83303160965442657471e-02) (67, 5.41888952255249023438e-01) (31, 1.21366989612579345703e+00) (43, 2.12669777870178222656e+00) (35, -4.92922693490982055664e-01) (45, 7.96026825904846191406e-01) (64, 1.13392040133476257324e-01) (75, 2.19528123736381530762e-01) (85, 3.88848960399627685547e-01) (59, -8.07632803916931152344e-01) (109, -6.00551009178161621094e-01) (63, -3.05441409349441528320e-01) (102, -8.49068403244018554688e-01) (29, -1.34175193309783935547e+00) (94, -1.93061947822570800781e+00) (72, -1.92808106541633605957e-01) (50, -1.16534459590911865234e+00) (57, 5.49352988600730895996e-02) (68, 9.89468488842248916626e-03) (82, 1.21528363227844238281e+00) (61, 1.55530557036399841309e-01) (86, -1.39766693115234375000e+00) (65, -1.27041554450988769531e+00) (84, 4.20459985733032226562e-01) (99, 1.07304942607879638672e+00) (51, 5.13256669044494628906e-01) (79, 1.43990671634674072266e+00) (92, 4.32497024536132812500e-01) (52, -3.71607124805450439453e-01) (71, 3.98901939392089843750e-01) (22, -3.32370489835739135742e-01) (111, -4.88116294145584106445e-01) (104, 5.37756621837615966797e-01) (92, -2.75414109230041503906e-01) (86, 1.33497297763824462891e+00) (69, 8.80102574825286865234e-01) (61, 2.18291759490966796875e-01) (68, -8.26256871223449707031e-02) (93, 1.65127232670783996582e-01) (34, 1.41478908061981201172e+00) (42, 2.93197423219680786133e-01) (28, -5.95132708549499511719e-01) (12, -2.33194902539253234863e-01) (96, 9.41640198230743408203e-01) (37, -9.65966224670410156250e-01) (32, -5.42531490325927734375e-01) (45, 3.82368713617324829102e-01) (20, 9.59631562232971191406e-01) (108, 1.26225873827934265137e-01) (81, -7.71030843257904052734e-01) (59, -4.64002013206481933594e-01) (39, -2.00237020850181579590e-01) (57, 8.48567426204681396484e-01) (22, -2.18201443552970886230e-01) (99, 4.07069146633148193359e-01) (40, 3.34511488676071166992e-01) (46, 5.46626806259155273438e-01) (29, -2.84124225378036499023e-01) (60, 1.42088687419891357422e+00) (94, -1.07276074588298797607e-01) (49, -3.02067101001739501953e-01) (73, 1.06035053730010986328e+00) (62, 3.95351111888885498047e-01) (38, -8.56355905532836914062e-01) (77, -8.32826673984527587891e-01) (65, -1.06875693798065185547e+00) (23, 5.08998811244964599609e-01) (63, 2.01370432972908020020e-01) (97, -6.74505770206451416016e-01) (70, -4.64349180459976196289e-01) (109, -3.86171549558639526367e-01) (58, -3.72386217117309570312e-01) (111, -8.00404667854309082031e-01) (23, -2.22233399748802185059e-01) (64, 1.41997575759887695312e+00) (77, -7.50417053699493408203e-01) (110, -3.60806733369827270508e-01) (29, -1.66700077056884765625e+00) (16, 5.28296045958995819092e-02) (58, -4.55978333950042724609e-01) (57, -8.63097608089447021484e-01) (51, -5.57003021240234375000e-01) (69, 2.91813671588897705078e-01) (100, -4.33586612343788146973e-02) (60, 1.03335654735565185547e+00) (33, -1.32791149616241455078e+00) (31, 7.77974128723144531250e-01) (105, 6.78195655345916748047e-01) (70, 1.30395162105560302734e+00) (54, 8.04536879062652587891e-01) (94, 4.66420114040374755859e-01) (93, 3.45523238182067871094e-01) (28, 8.24872791767120361328e-01) (18, -1.79827660322189331055e-01) (95, 4.81895595788955688477e-01) (72, -2.56619453430175781250e-01) (66, 1.57889175415039062500e+00) (82, -2.87461280822753906250e-01) (30, -9.61718738079071044922e-01) (106, -2.15969398617744445801e-01) (73, 1.03736150264739990234e+00) (42, 1.13853323459625244141e+00) (97, -5.17510354518890380859e-01) (101, -4.21869695186614990234e-01) (68, -2.07724779844284057617e-01) (12, -7.32487067580223083496e-02) (19, 3.32982093095779418945e-01) (71, 5.88903605937957763672e-01) (52, 4.84597384929656982422e-01) (59, 3.15407097339630126953e-01) (80, -1.29432693123817443848e-01) (14, 1.61085999011993408203e+00) (92, -8.30770969390869140625e-01) (111, 1.17481732368469238281e+00) (59, 8.75033318996429443359e-01) (102, 2.09173202514648437500e-01) (110, -8.08295249938964843750e-01) (53, -6.93451106548309326172e-01) (103, 1.76494359970092773438e+00) (30, -3.43490266799926757812e+00) (24, 3.79358351230621337891e-01) (72, 1.24525201320648193359e+00) (46, 4.52756494283676147461e-01) (51, 2.42138457298278808594e+00) (69, 1.68651390075683593750e+00) (45, 1.73258379101753234863e-01) (75, 5.66779494285583496094e-01) (23, 3.84581893682479858398e-01) (25, -3.27868551015853881836e-01) (105, 2.38103359937667846680e-01) (90, 1.80875912308692932129e-01) (52, -5.97442269325256347656e-01) (15, 9.26104605197906494141e-01) (95, 1.05505454540252685547e+00) (21, 2.85024166107177734375e-01) (106, -1.00132489204406738281e+00) (39, 4.94132965803146362305e-01) (32, -3.06705266237258911133e-01) (49, 1.20744287967681884766e-01) (20, 1.58437025547027587891e+00) (64, 1.44982075691223144531e+00) (83, 2.54591405391693115234e-01) (96, -2.53034681081771850586e-01) (17, 1.09987592697143554688e+00) (70, 6.09446823596954345703e-01) (50, 2.90178179740905761719e-01) (61, -1.73645555973052978516e-01) (34, -1.25565394759178161621e-01) (42, -1.24317121505737304688e+00) (58, -5.64356327056884765625e-01) (12, -5.05366384983062744141e-01) (98, 6.73632472753524780273e-02) (100, -9.48449552059173583984e-01) (36, 2.47955426573753356934e-01) (111, 1.01329112052917480469e+00) (11, -6.91797435283660888672e-02) (39, 7.72682547569274902344e-01) (60, 5.21230936050415039062e-01) (90, 4.11720693111419677734e-01) (50, 3.79293352365493774414e-01) (86, -6.35272681713104248047e-01) (105, 8.71539652347564697266e-01) (61, -1.83205664157867431641e-01) (107, 4.39353764057159423828e-01) (92, 3.41297596693038940430e-01) (58, 1.81931421160697937012e-01) (36, 1.03896714746952056885e-01) (96, -9.30892646312713623047e-01) (69, 8.16307008266448974609e-01) (56, -2.94063478708267211914e-01) (52, 2.98900842666625976562e-01) (33, -1.13455407321453094482e-01) (42, 3.76132816076278686523e-01) (46, -9.57480788230895996094e-01) (59, 6.14557802677154541016e-01) (78, 5.38412213325500488281e-01) (101, -3.28705012798309326172e-01) (43, 4.82426881790161132812e-01) (83, 4.12079542875289916992e-01) (76, 1.05527913570404052734e+00) (82, 1.24967777729034423828e+00) (102, -1.98715835809707641602e-01) (27, 7.37391114234924316406e-01) (53, 1.62597000598907470703e-01) (54, 9.57913696765899658203e-01) (20, -2.78581172227859497070e-01) (41, 4.53230261802673339844e-01) (40, 3.89426290988922119141e-01) (99, 6.66039735078811645508e-02) (103, 8.00542771816253662109e-01) (80, -6.71797692775726318359e-01) (12, 1.21842466294765472412e-01) (68, -3.26528519392013549805e-01) (38, 4.50365990400314331055e-01) (93, -1.60359844565391540527e-01) (111, 7.02793896198272705078e-01) (59, 2.54496908187866210938e+00) (82, -9.28129959106445312500e+00) (55, 9.03907680511474609375e+00) (32, 5.00216722488403320312e+00) (100, -1.89494585990905761719e+00) (31, -5.37766337394714355469e-01) (75, 3.61827701330184936523e-01) (80, 1.33484229445457458496e-01) (52, -4.06833112239837646484e-01) (66, -1.77108681201934814453e+00) (14, 1.74446761608123779297e+00) (41, 1.13057971000671386719e+00) (64, -7.64904975891113281250e-01) (104, 5.30922698974609375000e+00) (23, 5.53145110607147216797e-01) (78, 1.06616270542144775391e+00) (61, 3.59171819686889648438e+00) (50, 2.31506681442260742188e+00) (24, 4.33064460754394531250e-01) (67, 2.35695052146911621094e+00) (96, 1.40138030052185058594e+00) (107, 3.22925597429275512695e-01) (81, 1.79385101795196533203e+00) (71, 1.33541071414947509766e+00) (65, 3.44159007072448730469e+00) (38, -7.39597380161285400391e-02) (92, 1.95533061027526855469e+00) (86, -1.05503690242767333984e+00) (98, -6.73705875873565673828e-01) (18, 1.61731386184692382812e+00) (103, 3.68321803398430347443e-03) (72, 4.39667224884033203125e-01) (21, 2.30195760726928710938e+00) (33, -4.25573873519897460938e+00) (63, -4.14404344558715820312e+00) (26, 5.20951747894287109375e-01) (36, -2.19979509711265563965e-01) (45, -3.38466078042984008789e-01) (91, -2.22540068626403808594e+00) (54, 2.56954669952392578125e-01) (111, 4.65204030275344848633e-01) (32, -5.16353905200958251953e-01) (37, -2.54611551761627197266e-01) (97, -1.05583775043487548828e+00) (27, 7.94266521930694580078e-01) (80, 1.56949266791343688965e-01) (90, -5.58665692806243896484e-01) (101, 1.04265737533569335938e+00) (49, 7.35267221927642822266e-01) (108, 6.85663402080535888672e-01) (87, 1.04562842845916748047e+00) (63, -6.93262636661529541016e-01) (78, -6.45826160907745361328e-01) (52, 2.61816322803497314453e-01) (29, 8.15865814685821533203e-01) (25, 3.72010409832000732422e-01) (42, -7.83636927604675292969e-01) (81, -6.24483346939086914062e-01) (54, 7.26345300674438476562e-01) (18, -4.85724002122879028320e-01) (30, 1.39920258522033691406e+00) (20, -9.44247394800186157227e-02) (77, -5.75446307659149169922e-01) (103, 8.63250851631164550781e-01) (102, -3.09248685836791992188e-01) (13, -1.04575741291046142578e+00) (105, 6.42996728420257568359e-02) (69, 6.82213187217712402344e-01) (64, 9.94106769561767578125e-01) (71, -4.29651737213134765625e-02) (93, 1.16170048713684082031e+00) (92, 8.59266698360443115234e-01) (79, 4.59474235773086547852e-01) (21, -6.92687809467315673828e-01) (60, 2.89549112319946289062e-01) (26, -9.98403549194335937500e-01) (99, 2.61393874883651733398e-01) (16, 3.32150071859359741211e-01) (24, -6.51017367839813232422e-01) (72, 5.16091659665107727051e-02) (88, 6.52723312377929687500e-01) (111, -1.94623678922653198242e-01) (88, -9.43643748760223388672e-01) (108, -1.17731297016143798828e+00) (64, -2.14827701449394226074e-01) (29, 1.22216796875000000000e+00) (47, -3.90350997447967529297e-01) (42, 1.22137165069580078125e+00) (102, -1.03034889698028564453e+00) (39, 3.09697198867797851562e+00) (96, -9.61559116840362548828e-01) (79, -2.21954107284545898438e-01) (33, 2.76702374219894409180e-01) (98, 1.04961860179901123047e+00) (87, 4.78012174367904663086e-01) (61, -4.62811917066574096680e-01) (49, 1.18502402305603027344e+00) (56, 9.13968682289123535156e-01) (73, 8.63308310508728027344e-01) (12, -1.16304278373718261719e+00) (86, -1.76703348755836486816e-01) (94, 9.59490910172462463379e-02) (31, 2.67697125673294067383e-01) (66, 1.49367606639862060547e+00) (48, -3.58928769826889038086e-01) (17, 5.51588654518127441406e-01) (69, 2.51252174377441406250e+00) (24, 5.93168675899505615234e-01) (99, 1.30519020557403564453e+00) (15, -6.99991941452026367188e-01) (62, 2.08470559120178222656e+00) (46, 1.44033646583557128906e+00) (107, 4.55981008708477020264e-02) (60, -3.08879256248474121094e+00) (103, 9.08790603280067443848e-02) (44, 4.60472375154495239258e-01) (35, -1.79395899176597595215e-01) (97, 9.76327896118164062500e-01) (11, 1.79848551750183105469e-01) (41, -3.18928956985473632812e-01) (22, 7.14594960212707519531e-01) (74, 4.08245205879211425781e-01) (111, 1.14188693463802337646e-01) (48, -1.01352787017822265625e+00) (105, -1.20257422327995300293e-01) (18, 5.46598359942436218262e-02) (85, 9.02472794055938720703e-01) (24, -7.54467785358428955078e-01) (61, 1.57905351370573043823e-02) (53, -9.18274670839309692383e-02) (71, -3.56253772974014282227e-01) (54, 4.71325993537902832031e-01) (110, -3.16516667604446411133e-01) (28, -9.24881696701049804688e-01) (65, -1.15419721603393554688e+00) (69, 3.20663958787918090820e-01) (76, -3.16965788602828979492e-01) (66, 2.14035227894783020020e-01) (57, 5.47067463397979736328e-01) (56, 1.01910686492919921875e+00) (108, -4.14903461933135986328e-01) (81, 1.37990796938538551331e-02) (26, -1.57569915056228637695e-01) (39, -2.47146524488925933838e-02) (27, 6.60093247890472412109e-01) (49, 5.18835306167602539062e-01) (25, 1.26719683408737182617e-01) (34, 1.11762499809265136719e+00) (22, -7.62048363685607910156e-01) (38, -5.63306689262390136719e-01) (51, -8.70905537158250808716e-03) (47, 1.90611183643341064453e-01) (94, -3.84117215871810913086e-02) (32, -5.93305408954620361328e-01) (50, -4.26144510507583618164e-01) (40, 1.47174727916717529297e+00) (11, 5.17358362674713134766e-01) (33, 1.04573702812194824219e+00) (90, -5.88030636310577392578e-01) (88, 5.52103161811828613281e-01) (37, -7.36547052860260009766e-01) (77, 8.82520973682403564453e-01) (23, 5.50184011459350585938e-01) (111, 2.30010882019996643066e-01) (85, 2.57661730051040649414e-01) (86, 3.59529733657836914062e-01) (91, -3.26851457357406616211e-01) (34, -2.91309863328933715820e-01) (59, -9.44367945194244384766e-02) (42, 3.88133376836776733398e-01) (62, -1.04534006118774414062e+00) (102, 1.11425384879112243652e-01) (77, -4.95401889085769653320e-01) (32, 4.71221953630447387695e-01) (75, -1.00214147567749023438e+00) (13, -6.57870531082153320312e-01) (41, 1.55407935380935668945e-01) (50, -4.20983582735061645508e-01) (48, 1.19528472423553466797e+00) (55, 1.55656158924102783203e+00) (109, 1.32699012756347656250e-01) (82, 9.65353071689605712891e-01) (108, 6.12424276769161224365e-02) (88, 1.24087505042552947998e-01) (106, 2.94963568449020385742e-01) (49, -5.02242088317871093750e-01) (47, -2.96357929706573486328e-01) (92, 1.04166257381439208984e+00) (107, -3.89181673526763916016e-01) (51, 3.33852916955947875977e-01) (36, 5.42993187904357910156e-01) (35, -2.44242191314697265625e-01) (67, 1.22267127037048339844e+00) (15, 5.38055896759033203125e-01) (81, 5.73606133460998535156e-01) (80, -2.86350071430206298828e-01) (99, 3.24710577726364135742e-01) (17, -3.33471804857254028320e-01) (54, -4.91741389036178588867e-01) (90, -5.93095660209655761719e-01) (43, -1.34325221180915832520e-01) (28, 7.50101089477539062500e-01) (30, 5.00856447219848632812e+00) (87, 2.33139172196388244629e-01) (111, 1.01198840141296386719e+00) (23, 1.65003156661987304688e+00) (67, 2.34650418162345886230e-01) (82, -1.27526390552520751953e+00) (21, 9.52016055583953857422e-01) (84, 1.06120944023132324219e+00) (45, -2.96230375766754150391e-01) (40, -7.58183121681213378906e-01) (33, 3.03726053237915039062e+00) (59, 1.30993437767028808594e+00) (57, 1.38035845756530761719e+00) (44, 1.40238747000694274902e-01) (13, 7.00473594665527343750e+00) (83, 7.16250240802764892578e-01) (87, 1.73100888729095458984e+00) (68, 1.21747398376464843750e+00) (53, 3.18747073411941528320e-01) (71, 1.07907569408416748047e+00) (52, 1.12644553184509277344e+00) (14, 5.86482405662536621094e-01) (62, 1.10232238769531250000e+01) (105, 5.45660376548767089844e-01) (104, 1.36873793601989746094e+00) (72, 2.35562264919281005859e-01) (89, 1.18969075381755828857e-01) (11, 1.00392170250415802002e-01) (86, -8.84319901466369628906e-01) (79, -1.29860687255859375000e+00) (24, 2.75217318534851074219e+00) (98, -6.34448230266571044922e-01) (65, 9.63887035846710205078e-01) (18, 2.20159101486206054688e+00) (16, -2.32335906475782394409e-02) (92, -1.84594345092773437500e+00) (48, 1.00168538093566894531e+00) (106, -2.51348644495010375977e-01) (30, -4.17910242080688476562e+00) (50, 1.94157481193542480469e-01) (108, 4.68549281358718872070e-01) (25, 8.83282899856567382812e-01) (70, -8.00982356071472167969e-01) (111, 3.30885916948318481445e-01) (65, 2.65190631151199340820e-01) (104, 5.57566285133361816406e-01) (105, 7.88513302803039550781e-01) (66, -1.08329880237579345703e+00) (51, -6.99662089347839355469e-01) (74, 2.09158849716186523438e+00) (36, -6.20536923408508300781e-01) (33, 6.22759878635406494141e-01) (87, 8.86146903038024902344e-01) (62, -2.67915821075439453125e+00) (84, 1.35267496109008789062e+00) (75, 1.28889012336730957031e+00) (19, 6.31704270839691162109e-01) (96, 7.40906655788421630859e-01) (100, 1.48987424373626708984e+00) (58, 1.03576576709747314453e+00) (13, 3.02324295043945312500e-01) (25, 8.97590398788452148438e-01) (26, -1.65193274617195129395e-01) (18, 2.52315342426300048828e-01) (54, 1.39043807983398437500e+00) (50, -1.73749256134033203125e+00) (31, 5.07312655448913574219e-01) (47, -1.28179043531417846680e-01) (91, 1.16645157337188720703e+00) (107, 4.67666864395141601562e-01) (68, 1.20095491409301757812e+00) (42, 8.35569798946380615234e-02) (49, -4.23384457826614379883e-01) (81, -3.44865560531616210938e-01) (40, 8.10330629348754882812e-01) (97, 4.82540965080261230469e-01) (24, -6.03431642055511474609e-01) (64, 3.80588829517364501953e-01) (16, -3.27506870031356811523e-01) (86, -1.07980799674987792969e+00) (76, 8.14915120601654052734e-01) (53, 1.19196712970733642578e+00) (92, 1.08998119831085205078e+00) (38, -6.38760089874267578125e-01) (111, -5.38670897483825683594e-01) (34, 1.26578688621520996094e+00) (49, 7.35132455825805664062e-01) (56, -1.03092126548290252686e-01) (67, 3.14111781120300292969e+00) (92, -6.13769471645355224609e-01) (74, 5.95603704452514648438e-01) (44, 3.41832727193832397461e-01) (104, -6.92640125751495361328e-01) (71, 8.64515006542205810547e-01) (24, -4.90092664957046508789e-01) (72, -6.75846576690673828125e-01) (99, 5.46952724456787109375e-01) (63, 1.48295426368713378906e+00) (35, 1.51934087276458740234e+00) (16, 1.35360622406005859375e+00) (12, 1.67516565322875976562e+00) (108, 1.25431406497955322266e+00) (40, -7.81286895275115966797e-01) (70, 3.05293887853622436523e-01) (85, -2.11546882987022399902e-01) (88, 1.19774711132049560547e+00) (53, 2.51398414373397827148e-01) (82, -1.73048615455627441406e+00) (103, 3.55931311845779418945e-01) (75, 1.98528277873992919922e+00) (90, 1.06511008739471435547e+00) (86, 1.65168738365173339844e+00) (89, 4.12170886993408203125e-02) (59, 9.57218468189239501953e-01) (109, -2.22734868526458740234e-01) (96, 8.80226075649261474609e-01) (68, 1.00967156887054443359e+00) (27, 3.01185399293899536133e-01) (52, -5.57699561119079589844e-01) (14, -1.25867676734924316406e+00) (65, 4.72878068685531616211e-01) (102, 2.33696714043617248535e-01) (37, 1.29037988185882568359e+00) (76, 1.22935163974761962891e+00) (77, 1.28281426429748535156e+00) (111, -1.64097502827644348145e-01) (12, -3.01795601844787597656e-01) (45, 4.92720067501068115234e-01) (57, -2.12305173277854919434e-01) (22, -4.03626739978790283203e-01) (110, 2.14732661843299865723e-01) (44, -8.10855388641357421875e-01) (58, 5.67127108573913574219e-01) (80, -2.44530841708183288574e-01) (36, 1.60465276241302490234e+00) (53, 8.76861140131950378418e-02) (71, -3.48943024873733520508e-01) (87, 1.64115893840789794922e+00) (75, -1.56416678428649902344e+00) (88, 2.21500411629676818848e-01) (50, 1.01481236517429351807e-01) (62, 6.82624864578247070312e+00) (107, -2.10511803627014160156e-01) (31, -5.44049799442291259766e-01) (17, -8.09373438358306884766e-01) (21, -9.05571579933166503906e-01) (43, -6.64998054504394531250e-01) (64, 6.71788930892944335938e-01) (92, -1.07159113883972167969e+00) (106, -3.32070261240005493164e-01) (98, -2.03224495053291320801e-01) (26, 1.75918817520141601562e+00) (13, -2.23667964339256286621e-01) (49, 3.57450038194656372070e-01) (60, -3.70198875665664672852e-01) (37, -6.06635510921478271484e-01) (55, 7.65146732330322265625e-01) (93, 6.19626998901367187500e-01) (52, 2.30792284011840820312e+00) (104, 1.66721776127815246582e-01) (42, 9.76611077785491943359e-02) (109, 1.12665307521820068359e+00) (51, 3.22213649749755859375e-01) (14, 1.29709911346435546875e+00) (28, -1.59464403986930847168e-01) (20, 1.11139380931854248047e+00) (111, 7.47066974639892578125e-01) (83, -3.79059821367263793945e-01) (81, -5.00610470771789550781e-01) (94, 4.72108781337738037109e-01) (58, 4.31210041046142578125e-01) (63, 1.77777335047721862793e-01) (14, 1.36859583854675292969e+00) (92, 1.16853845119476318359e+00) (45, 5.52183747291564941406e-01) (105, 1.30777978897094726562e+00) (13, -7.62553453445434570312e-01) (35, -3.53833109140396118164e-01) (19, 5.77831029891967773438e-01) (107, 7.60240912437438964844e-01) (38, 1.23385763168334960938e+00) (106, -2.75707745552062988281e+00) (36, 4.09291565418243408203e-01) (20, -6.05091750621795654297e-01) (95, 1.41560661792755126953e+00) (53, -1.49943172931671142578e+00) (31, 8.36476922035217285156e-01) (100, -4.85215961933135986328e-01) (23, -7.64598667621612548828e-01) (88, 2.33438587188720703125e+00) (40, 5.95983937382698059082e-02) (102, 5.55652916431427001953e-01) (49, 5.79387843608856201172e-01) (37, -3.22177022695541381836e-01) (74, -1.41081416606903076172e+00) (98, 1.22189342975616455078e+00) (77, -5.38195669651031494141e-01) (34, -3.41920107603073120117e-01) (76, 6.34960651397705078125e-01) (29, 9.63693261146545410156e-01) (62, 1.40202596783638000488e-01) (104, 4.18697446584701538086e-02) (41, 1.39734435081481933594e+00) (21, 8.56220364570617675781e-01) (108, -6.80562198162078857422e-01) (12, -6.17793858051300048828e-01) (71, 1.06566810607910156250e+00) (111, -1.54958367347717285156e-01) (109, -9.95261818170547485352e-02) (27, 1.88728407025337219238e-01) (12, 1.53387993574142456055e-01) (64, 1.33706831932067871094e+00) (51, 2.82553762197494506836e-01) (23, 1.53531074523925781250e+00) (53, -4.06835079193115234375e-01) (56, -6.03464245796203613281e-01) (28, 1.23376131057739257812e+00) (30, 2.12535977363586425781e+00) (13, -1.03344857692718505859e+00) (96, 9.06107068061828613281e-01) (43, -5.76460659503936767578e-01) (70, 6.03207111358642578125e-01) (66, -3.27827125787734985352e-01) (50, 1.01935791969299316406e+00) (68, -2.00208115577697753906e+00) (79, 5.53277730941772460938e-01) (49, 7.89812743663787841797e-01) (80, 4.55325007438659667969e-01) (91, 5.60850679874420166016e-01) (72, -2.60501950979232788086e-01) (63, 3.23969221115112304688e+00) (84, -5.46106159687042236328e-01) (58, 4.98919457197189331055e-01) (88, 3.55991512537002563477e-01) (94, 7.40258991718292236328e-01) (46, 2.39539638161659240723e-01) (34, 2.31468892097473144531e+00) (90, -2.69131988286972045898e-01) (40, 1.10893428325653076172e+00) (45, 9.04025077819824218750e-01) (107, -1.82046151161193847656e+00) (48, -3.31864766776561737061e-02) (97, 2.07749962806701660156e-01) (39, -4.30345201492309570312e+00) (44, 7.61643797159194946289e-02) (19, 4.30154561996459960938e+00) (87, -1.07114720344543457031e+00) (32, 8.62551391124725341797e-01) (111, 7.41814255714416503906e-01) (24, 1.06950151920318603516e+00) (36, 6.15782082080841064453e-01) (63, 3.13316226005554199219e-01) (78, 1.52848601341247558594e+00) (12, -4.33402746915817260742e-01) (45, 1.74405016005039215088e-02) (30, 5.02658224105834960938e+00) (31, -4.88309919834136962891e-01) (88, 4.74919080734252929688e-01) (37, 1.33102583885192871094e+00) (21, 1.50898158550262451172e-01) (56, -9.63546097278594970703e-01) (38, 1.04811537265777587891e+00) (104, -6.39512479305267333984e-01) (28, 1.73438861966133117676e-01) (59, -5.36165893077850341797e-01) (42, 9.41256105899810791016e-01) (64, 5.56407198309898376465e-02) (70, 9.93588328361511230469e-01) (92, 5.93703091144561767578e-01) (81, -4.06990945339202880859e-01) (65, -1.16180881857872009277e-01) (76, -4.98232901096343994141e-01) (101, 1.40047395229339599609e+00) (11, 7.41184473037719726562e-01) (26, 5.45256733894348144531e-01) (87, 1.13302476704120635986e-01) (58, 1.65794298052787780762e-01) (25, -2.81456112861633300781e-01) (109, -2.73899942636489868164e-01) (13, -1.76640129089355468750e+00) (39, 2.20973223447799682617e-01) (67, 1.89124250411987304688e+00) (23, -6.72960996627807617188e-01) (20, 5.92565238475799560547e-01) (50, -3.21731626987457275391e-01) (97, 3.95590990781784057617e-01) (48, -1.60064443945884704590e-01) (84, 4.86824274063110351562e-01) (54, -9.31303501129150390625e-01) (111, 9.61892783641815185547e-01) (31, -8.44903707504272460938e-01) (77, 7.37874865531921386719e-01) (106, -2.72777765989303588867e-01) (90, 1.30431556701660156250e+00) (81, -1.51719488203525543213e-02) (58, -4.42037224769592285156e-01) (44, -5.11231005191802978516e-01) (23, 6.61848962306976318359e-01) (47, 6.41804635524749755859e-02) (59, 4.55908775329589843750e-01) (43, -8.27433407306671142578e-01) (16, -7.95292377471923828125e-01) (36, -1.49438187479972839355e-01) (85, 1.13136422634124755859e+00) (89, -8.07697415351867675781e-01) (49, 1.08267366886138916016e+00) (101, -2.32606589794158935547e-01) (24, -4.84844356775283813477e-01) (28, -4.89477097988128662109e-01) (13, 1.15435194969177246094e+00) (99, 9.66121673583984375000e-01) (60, 7.89784863591194152832e-02) (75, -1.38781294226646423340e-01) (82, -2.34842970967292785645e-01) (20, 1.14097476005554199219e+00) (61, -6.26685440540313720703e-01) (33, 2.28943929076194763184e-01) (19, -2.95918375253677368164e-01) (109, -1.17877610027790069580e-01) (72, 2.19757199287414550781e+00) (96, -1.97505116462707519531e-01) (84, -1.25002288818359375000e+00) (26, 2.42432564496994018555e-01) (34, -1.50897860527038574219e+00) (38, 9.47477877140045166016e-01) (48, -9.25952941179275512695e-02) (14, 6.80917143821716308594e-01) (80, -9.42365825176239013672e-01) (29, 3.12192905694246292114e-02) (69, -1.72057710587978363037e-02) (162, 6.57010555267333984375e-01) (128, 1.31135821342468261719e+00) (147, 4.71641719341278076172e-01) (131, -1.66268393397331237793e-01) (125, 8.87911319732666015625e-01) (156, 5.32573223114013671875e-01) (126, 2.01569125056266784668e-01) (146, 2.37340188026428222656e+00) (115, -1.03069156408309936523e-01) (159, 3.70027124881744384766e-01) (157, 1.32235789299011230469e+00) (160, -2.84234344959259033203e-01) (142, 7.37943530082702636719e-01) (135, 2.83170402050018310547e-01) (151, 6.31846725940704345703e-01) (152, 9.92729421705007553101e-03) (118, 7.64573812484741210938e-01) (141, -2.33325815200805664062e+00) (129, -7.81583845615386962891e-01) (150, -2.48802155256271362305e-01) (119, -1.60285615921020507812e+00) (162, 2.97666144371032714844e+00) (147, 1.64275920391082763672e+00) (156, 3.69850754737854003906e-01) (128, -3.82770240306854248047e-01) (139, 1.42601990699768066406e+00) (159, -1.87926739454269409180e-01) (126, 8.62682521343231201172e-01) (145, -1.28282502293586730957e-01) (154, 2.50909239053726196289e-01) (133, 4.52078962326049804688e+00) (138, 3.06693887710571289062e+00) (152, -4.42896425724029541016e-01) (117, -1.18484525680541992188e+01) (123, 1.71549606323242187500e+01) (125, 1.04752707481384277344e+00) (127, -2.88187241554260253906e+00) (119, -4.00449562072753906250e+00) (118, -7.30638980865478515625e-01) (143, -4.58947837352752685547e-01) (153, -8.92121124267578125000e+00) (132, 3.16852140426635742188e+00) (162, 4.94773626327514648438e-01) (128, -7.68918320536613464355e-02) (114, -6.15410506725311279297e-01) (161, -1.52460825443267822266e+00) (140, 1.05779278278350830078e+00) (150, 4.94986981153488159180e-01) (117, 1.91417619585990905762e-01) (123, 6.80194944143295288086e-02) (127, -5.67815959453582763672e-01) (160, 1.31293666362762451172e+00) (156, 4.94203925132751464844e-01) (125, -3.74145992100238800049e-02) (145, 4.02801096439361572266e-01) (133, 9.49951946735382080078e-01) (132, 1.03577625751495361328e+00) (157, -6.39079287648200988770e-02) (155, 7.03708767890930175781e-01) (112, -2.33954399824142456055e-01) (122, -5.77693462371826171875e-01) (141, 2.96522993594408035278e-02) (154, -1.66333466768264770508e-01) (162, 9.95769798755645751953e-01) (158, -4.27076667547225952148e-01) (130, 7.06552803516387939453e-01) (121, 1.28218382596969604492e-01) (122, 1.97231322526931762695e-01) (119, 1.69924125075340270996e-01) (123, 1.11119723320007324219e+00) (145, 8.07895481586456298828e-01) (143, -1.07559013366699218750e+00) (146, -6.67002677917480468750e-01) (153, -1.11471545696258544922e+00) (159, 9.23548281192779541016e-01) (144, 6.79687634110450744629e-02) (157, 5.49435615539550781250e-01) (150, -5.83469808101654052734e-01) (125, 5.76938986778259277344e-01) (135, -7.20379650592803955078e-02) (152, 1.89807921648025512695e-01) (115, 7.71887242794036865234e-01) (148, 9.76606369018554687500e-01) (151, 2.58642673492431640625e-01) (162, 7.38008320331573486328e-01) (137, 3.84928584098815917969e-01) (156, 1.51659750938415527344e+00) (146, -1.63826155662536621094e+00) (155, 1.86724865436553955078e+00) (140, 3.14217716455459594727e-01) (126, 4.30609762668609619141e-01) (154, -1.45102903246879577637e-01) (120, 2.92001396417617797852e-01) (119, -2.30466321110725402832e-01) (161, 1.28829568624496459961e-01) (118, -1.60607755184173583984e-01) (142, 4.04138952493667602539e-01) (123, -1.91067063808441162109e+00) (147, 1.00098097324371337891e+00) (159, 4.69797283411026000977e-01) 