FANN_FLO_2.1
num_layers=5
learning_rate=0.700000
connection_rate=0.201724
network_type=0
learning_momentum=0.000000
training_algorithm=2
train_error_function=0
train_stop_function=0
cascade_output_change_fraction=0.010000
quickprop_decay=0.432107
quickprop_mu=1.750000
rprop_increase_factor=1.200000
rprop_decrease_factor=0.500000
rprop_delta_min=0.000000
rprop_delta_max=50.000000
rprop_delta_zero=0.100000
cascade_output_stagnation_epochs=12
cascade_candidate_change_fraction=0.010000
cascade_candidate_stagnation_epochs=12
cascade_max_out_epochs=150
cascade_min_out_epochs=50
cascade_max_cand_epochs=150
cascade_min_cand_epochs=50
cascade_num_candidate_groups=2
bit_fail_limit=3.49999994039535522461e-01
cascade_candidate_limit=1.00000000000000000000e+03
cascade_weight_multiplier=4.00000005960464477539e-01
cascade_activation_functions_count=10
cascade_activation_functions=3 5 7 8 10 11 14 15 16 17
cascade_activation_steepnesses_count=4
cascade_activation_steepnesses=2.50000000000000000000e-01 5.00000000000000000000e-01 7.50000000000000000000e-01 1.00000000000000000000e+00
layer_sizes=11 101 51 101 6
scale_included=1
scale_mean_in=1.310377 1.754107 3.366432 0.474419 7.491674 1.797194 2.207405 5.575891 4.008757 2.025753
scale_deviation_in=0.696427 0.359677 1.650996 0.074935 6.549469 0.078397 0.246345 2.650119 2.216017 0.648365
scale_new_min_in=-1.000000 -1.000000 -1.000000 -1.000000 -1.000000 -1.000000 -1.000000 -1.000000 -1.000000 -1.000000
scale_factor_in=1.000000 1.000000 1.000000 1.000000 1.000000 1.000000 1.000000 1.000000 1.000000 1.000000
scale_mean_out=0.741916 0.038713 0.049037 0.038546 0.057819
scale_deviation_out=0.218866 0.032577 0.041357 0.008630 0.012946
scale_new_min_out=-1.000000 -1.000000 -1.000000 -1.000000 -1.000000
scale_factor_out=1.000000 1.000000 1.000000 1.000000 1.000000
neurons (num_inputs, activation_function, activation_steepness)=(0, 0, 0.00000000000000000000e+00) (0, 0, 0.00000000000000000000e+00) (0, 0, 0.00000000000000000000e+00) (0, 0, 0.00000000000000000000e+00) (0, 0, 0.00000000000000000000e+00) (0, 0, 0.00000000000000000000e+00) (0, 0, 0.00000000000000000000e+00) (0, 0, 0.00000000000000000000e+00) (0, 0, 0.00000000000000000000e+00) (0, 0, 0.00000000000000000000e+00) (0, 0, 0.00000000000000000000e+00) (3, 5, 5.00000000000000000000e-01) (3, 5, 5.00000000000000000000e-01) (3, 5, 5.00000000000000000000e-01) (3, 5, 5.00000000000000000000e-01) (3, 5, 5.00000000000000000000e-01) (3, 5, 5.00000000000000000000e-01) (3, 5, 5.00000000000000000000e-01) (3, 5, 5.00000000000000000000e-01) (3, 5, 5.00000000000000000000e-01) (3, 5, 5.00000000000000000000e-01) (3, 5, 5.00000000000000000000e-01) (3, 5, 5.00000000000000000000e-01) (3, 5, 5.00000000000000000000e-01) (3, 5, 5.00000000000000000000e-01) (3, 5, 5.00000000000000000000e-01) (3, 5, 5.00000000000000000000e-01) (3, 5, 5.00000000000000000000e-01) (3, 5, 5.00000000000000000000e-01) (3, 5, 5.00000000000000000000e-01) (3, 5, 5.00000000000000000000e-01) (3, 5, 5.00000000000000000000e-01) (3, 5, 5.00000000000000000000e-01) (3, 5, 5.00000000000000000000e-01) (3, 5, 5.00000000000000000000e-01) (3, 5, 5.00000000000000000000e-01) (3, 5, 5.00000000000000000000e-01) (3, 5, 5.00000000000000000000e-01) (3, 5, 5.00000000000000000000e-01) (3, 5, 5.00000000000000000000e-01) (3, 5, 5.00000000000000000000e-01) (3, 5, 5.00000000000000000000e-01) (3, 5, 5.00000000000000000000e-01) (3, 5, 5.00000000000000000000e-01) (3, 5, 5.00000000000000000000e-01) (3, 5, 5.00000000000000000000e-01) (3, 5, 5.00000000000000000000e-01) (3, 5, 5.00000000000000000000e-01) (3, 5, 5.00000000000000000000e-01) (3, 5, 5.00000000000000000000e-01) (3, 5, 5.00000000000000000000e-01) (3, 5, 5.00000000000000000000e-01) (3, 5, 5.00000000000000000000e-01) (3, 5, 5.00000000000000000000e-01) (3, 5, 5.00000000000000000000e-01) (3, 5, 5.00000000000000000000e-01) (3, 5, 5.00000000000000000000e-01) (3, 5, 5.00000000000000000000e-01) (3, 5, 5.00000000000000000000e-01) (3, 5, 5.00000000000000000000e-01) (4, 5, 5.00000000000000000000e-01) (3, 5, 5.00000000000000000000e-01) (3, 5, 5.00000000000000000000e-01) (3, 5, 5.00000000000000000000e-01) (3, 5, 5.00000000000000000000e-01) (3, 5, 5.00000000000000000000e-01) (3, 5, 5.00000000000000000000e-01) (3, 5, 5.00000000000000000000e-01) (3, 5, 5.00000000000000000000e-01) (3, 5, 5.00000000000000000000e-01) (3, 5, 5.00000000000000000000e-01) (3, 5, 5.00000000000000000000e-01) (3, 5, 5.00000000000000000000e-01) (3, 5, 5.00000000000000000000e-01) (3, 5, 5.00000000000000000000e-01) (3, 5, 5.00000000000000000000e-01) (3, 5, 5.00000000000000000000e-01) (3, 5, 5.00000000000000000000e-01) (3, 5, 5.00000000000000000000e-01) (3, 5, 5.00000000000000000000e-01) (3, 5, 5.00000000000000000000e-01) (3, 5, 5.00000000000000000000e-01) (3, 5, 5.00000000000000000000e-01) (3, 5, 5.00000000000000000000e-01) (3, 5, 5.00000000000000000000e-01) (3, 5, 5.00000000000000000000e-01) (3, 5, 5.00000000000000000000e-01) (3, 5, 5.00000000000000000000e-01) (3, 5, 5.00000000000000000000e-01) (3, 5, 5.00000000000000000000e-01) (3, 5, 5.00000000000000000000e-01) (3, 5, 5.00000000000000000000e-01) (3, 5, 5.00000000000000000000e-01) (3, 5, 5.00000000000000000000e-01) (3, 5, 5.00000000000000000000e-01) (3, 5, 5.00000000000000000000e-01) (3, 5, 5.00000000000000000000e-01) (3, 5, 5.00000000000000000000e-01) (3, 5, 5.00000000000000000000e-01) (3, 5, 5.00000000000000000000e-01) (3, 5, 5.00000000000000000000e-01) (3, 5, 5.00000000000000000000e-01) (3, 5, 5.00000000000000000000e-01) (3, 5, 5.00000000000000000000e-01) (3, 5, 5.00000000000000000000e-01) (3, 5, 5.00000000000000000000e-01) (3, 5, 5.00000000000000000000e-01) (3, 5, 5.00000000000000000000e-01) (3, 5, 5.00000000000000000000e-01) (3, 5, 5.00000000000000000000e-01) (4, 5, 5.00000000000000000000e-01) (0, 5, 0.00000000000000000000e+00) (21, 5, 5.00000000000000000000e-01) (21, 5, 5.00000000000000000000e-01) (21, 5, 5.00000000000000000000e-01) (21, 5, 5.00000000000000000000e-01) (21, 5, 5.00000000000000000000e-01) (22, 5, 5.00000000000000000000e-01) (21, 5, 5.00000000000000000000e-01) (21, 5, 5.00000000000000000000e-01) (21, 5, 5.00000000000000000000e-01) (21, 5, 5.00000000000000000000e-01) (21, 5, 5.00000000000000000000e-01) (22, 5, 5.00000000000000000000e-01) (21, 5, 5.00000000000000000000e-01) (21, 5, 5.00000000000000000000e-01) (21, 5, 5.00000000000000000000e-01) (21, 5, 5.00000000000000000000e-01) (22, 5, 5.00000000000000000000e-01) (21, 5, 5.00000000000000000000e-01) (21, 5, 5.00000000000000000000e-01) (21, 5, 5.00000000000000000000e-01) (21, 5, 5.00000000000000000000e-01) (21, 5, 5.00000000000000000000e-01) (22, 5, 5.00000000000000000000e-01) (21, 5, 5.00000000000000000000e-01) (21, 5, 5.00000000000000000000e-01) (21, 5, 5.00000000000000000000e-01) (21, 5, 5.00000000000000000000e-01) (22, 5, 5.00000000000000000000e-01) (21, 5, 5.00000000000000000000e-01) (21, 5, 5.00000000000000000000e-01) (21, 5, 5.00000000000000000000e-01) (21, 5, 5.00000000000000000000e-01) (21, 5, 5.00000000000000000000e-01) (22, 5, 5.00000000000000000000e-01) (21, 5, 5.00000000000000000000e-01) (21, 5, 5.00000000000000000000e-01) (21, 5, 5.00000000000000000000e-01) (21, 5, 5.00000000000000000000e-01) (22, 5, 5.00000000000000000000e-01) (21, 5, 5.00000000000000000000e-01) (21, 5, 5.00000000000000000000e-01) (21, 5, 5.00000000000000000000e-01) (21, 5, 5.00000000000000000000e-01) (21, 5, 5.00000000000000000000e-01) (22, 5, 5.00000000000000000000e-01) (21, 5, 5.00000000000000000000e-01) (21, 5, 5.00000000000000000000e-01) (21, 5, 5.00000000000000000000e-01) (21, 5, 5.00000000000000000000e-01) (22, 5, 5.00000000000000000000e-01) (0, 5, 0.00000000000000000000e+00) (11, 5, 5.00000000000000000000e-01) (11, 5, 5.00000000000000000000e-01) (11, 5, 5.00000000000000000000e-01) (11, 5, 5.00000000000000000000e-01) (11, 5, 5.00000000000000000000e-01) (11, 5, 5.00000000000000000000e-01) (11, 5, 5.00000000000000000000e-01) (11, 5, 5.00000000000000000000e-01) (11, 5, 5.00000000000000000000e-01) (11, 5, 5.00000000000000000000e-01) (11, 5, 5.00000000000000000000e-01) (12, 5, 5.00000000000000000000e-01) (11, 5, 5.00000000000000000000e-01) (11, 5, 5.00000000000000000000e-01) (11, 5, 5.00000000000000000000e-01) (11, 5, 5.00000000000000000000e-01) (11, 5, 5.00000000000000000000e-01) (11, 5, 5.00000000000000000000e-01) (11, 5, 5.00000000000000000000e-01) (11, 5, 5.00000000000000000000e-01) (11, 5, 5.00000000000000000000e-01) (11, 5, 5.00000000000000000000e-01) (12, 5, 5.00000000000000000000e-01) (11, 5, 5.00000000000000000000e-01) (11, 5, 5.00000000000000000000e-01) (11, 5, 5.00000000000000000000e-01) (11, 5, 5.00000000000000000000e-01) (11, 5, 5.00000000000000000000e-01) (11, 5, 5.00000000000000000000e-01) (11, 5, 5.00000000000000000000e-01) (11, 5, 5.00000000000000000000e-01) (11, 5, 5.00000000000000000000e-01) (11, 5, 5.00000000000000000000e-01) (12, 5, 5.00000000000000000000e-01) (11, 5, 5.00000000000000000000e-01) (11, 5, 5.00000000000000000000e-01) (11, 5, 5.00000000000000000000e-01) (11, 5, 5.00000000000000000000e-01) (11, 5, 5.00000000000000000000e-01) (11, 5, 5.00000000000000000000e-01) (11, 5, 5.00000000000000000000e-01) (11, 5, 5.00000000000000000000e-01) (11, 5, 5.00000000000000000000e-01) (11, 5, 5.00000000000000000000e-01) (12, 5, 5.00000000000000000000e-01) (11, 5, 5.00000000000000000000e-01) (11, 5, 5.00000000000000000000e-01) (11, 5, 5.00000000000000000000e-01) (11, 5, 5.00000000000000000000e-01) (11, 5, 5.00000000000000000000e-01) (11, 5, 5.00000000000000000000e-01) (11, 5, 5.00000000000000000000e-01) (11, 5, 5.00000000000000000000e-01) (11, 5, 5.00000000000000000000e-01) (11, 5, 5.00000000000000000000e-01) (12, 5, 5.00000000000000000000e-01) (11, 5, 5.00000000000000000000e-01) (11, 5, 5.00000000000000000000e-01) (11, 5, 5.00000000000000000000e-01) (11, 5, 5.00000000000000000000e-01) (11, 5, 5.00000000000000000000e-01) (11, 5, 5.00000000000000000000e-01) (11, 5, 5.00000000000000000000e-01) (11, 5, 5.00000000000000000000e-01) (11, 5, 5.00000000000000000000e-01) (11, 5, 5.00000000000000000000e-01) (12, 5, 5.00000000000000000000e-01) (11, 5, 5.00000000000000000000e-01) (11, 5, 5.00000000000000000000e-01) (11, 5, 5.00000000000000000000e-01) (11, 5, 5.00000000000000000000e-01) (11, 5, 5.00000000000000000000e-01) (11, 5, 5.00000000000000000000e-01) (11, 5, 5.00000000000000000000e-01) (11, 5, 5.00000000000000000000e-01) (11, 5, 5.00000000000000000000e-01) (11, 5, 5.00000000000000000000e-01) (12, 5, 5.00000000000000000000e-01) (11, 5, 5.00000000000000000000e-01) (11, 5, 5.00000000000000000000e-01) (11, 5, 5.00000000000000000000e-01) (11, 5, 5.00000000000000000000e-01) (11, 5, 5.00000000000000000000e-01) (11, 5, 5.00000000000000000000e-01) (11, 5, 5.00000000000000000000e-01) (11, 5, 5.00000000000000000000e-01) (11, 5, 5.00000000000000000000e-01) (11, 5, 5.00000000000000000000e-01) (12, 5, 5.00000000000000000000e-01) (11, 5, 5.00000000000000000000e-01) (11, 5, 5.00000000000000000000e-01) (11, 5, 5.00000000000000000000e-01) (11, 5, 5.00000000000000000000e-01) (11, 5, 5.00000000000000000000e-01) (11, 5, 5.00000000000000000000e-01) (11, 5, 5.00000000000000000000e-01) (11, 5, 5.00000000000000000000e-01) (11, 5, 5.00000000000000000000e-01) (11, 5, 5.00000000000000000000e-01) (12, 5, 5.00000000000000000000e-01) (0, 5, 0.00000000000000000000e+00) (21, 0, 5.00000000000000000000e-01) (21, 0, 5.00000000000000000000e-01) (21, 0, 5.00000000000000000000e-01) (21, 0, 5.00000000000000000000e-01) (22, 0, 5.00000000000000000000e-01) (0, 0, 0.00000000000000000000e+00)
connections (connected_to_neuron, weight)=(10, -1.41382485628128051758e-01) (2, 6.96074515581130981445e-02) (7, 3.03651571273803710938e+00) (10, -3.58749717473983764648e-01) (1, 1.51615962386131286621e-01) (7, 5.00438392162322998047e-01) (10, 5.98197281360626220703e-02) (3, 2.51858800649642944336e-01) (0, 7.59864151477813720703e-02) (10, 7.71385729312896728516e-02) (8, 2.48800784349441528320e-01) (7, 3.15513581037521362305e-01) (10, -1.42474517226219177246e-01) (3, -1.02761469781398773193e-01) (9, 7.05335959792137145996e-02) (10, 1.14558808505535125732e-01) (3, -1.37585520744323730469e-01) (5, 3.30798864364624023438e-01) (10, 4.15257252752780914307e-02) (8, -1.91667377948760986328e-02) (3, 1.27201974391937255859e-01) (10, 2.04812496900558471680e-01) (5, -2.31972396373748779297e-01) (3, -1.18543016910552978516e+00) (10, -6.71365484595298767090e-02) (6, 7.28497728705406188965e-02) (0, 7.80460517853498458862e-03) (10, 4.66483235359191894531e-01) (8, 8.02295625209808349609e-01) (9, 1.61300027370452880859e+00) (10, 1.71492695808410644531e-01) (7, 2.97264993190765380859e-01) (2, 8.58665164560079574585e-03) (10, 1.81256920099258422852e-01) (5, 8.34949553012847900391e-01) (7, 4.00863168761134147644e-03) (10, 1.09937690198421478271e-01) (8, 5.89764863252639770508e-02) (2, 2.80223965644836425781e-01) (10, 1.63497641682624816895e-01) (9, 2.96194732189178466797e-01) (8, -4.31473255157470703125e-01) (10, 1.23787321150302886963e-01) (3, 1.39302223920822143555e-01) (4, -4.14614416658878326416e-02) (10, 1.64287582039833068848e-01) (0, -5.26097323745489120483e-03) (7, 2.54771143198013305664e-01) (10, -6.69735819101333618164e-02) (4, -1.66541710495948791504e-01) (2, 6.13039806485176086426e-02) (10, 5.16175150871276855469e-01) (7, -1.60055756568908691406e-01) (1, 1.36236146092414855957e-01) (10, 2.65558600425720214844e-01) (3, 2.30454301834106445312e+00) (5, -3.30867975950241088867e-01) (10, -1.62752166390419006348e-01) (2, 2.57959254086017608643e-02) (1, 4.27344888448715209961e-01) (10, 8.19997955113649368286e-03) (0, -1.62008479237556457520e-01) (3, -3.49859409034252166748e-02) (10, 2.17129185795783996582e-01) (2, 2.41341158747673034668e-01) (5, -1.16209343075752258301e-01) (10, -1.69675767421722412109e-01) (8, 6.16058111190795898438e-01) (1, 8.34191441535949707031e-01) (10, 1.14075347781181335449e-01) (3, 1.81118220090866088867e-01) (5, -3.20509850978851318359e-01) (10, 1.95928305387496948242e-01) (5, 1.45173430442810058594e-01) (8, 4.34974730014801025391e-01) (10, -8.70574906002730131149e-04) (3, -9.82110276818275451660e-02) (2, 1.68577000498771667480e-01) (10, 1.38705059885978698730e-01) (5, -4.37992870807647705078e-01) (6, 7.91228339076042175293e-02) (10, 2.13685959577560424805e-01) (8, 1.40595614910125732422e-01) (2, 3.95203292369842529297e-01) (10, -3.25161665678024291992e-02) (1, 1.06422030925750732422e+00) (2, 1.94236487150192260742e-01) (10, -3.77173095941543579102e-01) (2, 2.57444000244140625000e+00) (1, -6.16358220577239990234e-01) (10, 1.68165713548660278320e-01) (7, -1.84189043939113616943e-02) (6, -1.95872321724891662598e-01) (10, 1.44812569022178649902e-01) (9, 3.41002881526947021484e-01) (7, -3.09286892414093017578e-01) (10, 2.26507425308227539062e-01) (6, 8.75920131802558898926e-02) (5, 5.53895160555839538574e-02) (10, -2.41268977522850036621e-01) (4, 5.14327511191368103027e-02) (0, 2.51616090536117553711e-01) (10, 4.89262312650680541992e-01) (5, 4.73097443580627441406e-01) (1, -9.21889860183000564575e-03) (10, 3.16768079996109008789e-01) (8, 1.57203137874603271484e-01) (7, -2.27581068873405456543e-01) (10, 2.14768022298812866211e-01) (1, 1.63867488503456115723e-01) (5, -2.18316331505775451660e-01) (10, -3.84761542081832885742e-01) (8, 1.49168580770492553711e-01) (2, 1.68413743376731872559e-01) (10, -1.73479706048965454102e-01) (2, 2.63538062572479248047e-01) (1, 4.20094877481460571289e-02) (10, 2.27327886968851089478e-02) (4, -7.78113901615142822266e-02) (7, 7.34688118100166320801e-02) (10, 4.63147871196269989014e-02) (7, -1.49324387311935424805e-01) (6, 1.60692244768142700195e-01) (10, 1.82998269796371459961e-01) (8, -1.22788801789283752441e-01) (3, -1.53255119919776916504e-01) (10, 1.23227678239345550537e-01) (2, -9.92661714553833007812e-02) (7, 1.80825322866439819336e-01) (10, 1.25095856189727783203e+00) (5, 4.62039518356323242188e+00) (1, 3.85206192731857299805e-01) (10, 1.75149127840995788574e-01) (7, -4.30464744567871093750e-03) (1, -1.11665919423103332520e-01) (10, 1.96646004915237426758e-01) (8, 1.73016507178544998169e-02) (0, 1.77215233445167541504e-01) (10, 1.86264272779226303101e-02) (1, 1.74090504646301269531e-01) (3, 1.10222086310386657715e-01) (10, -1.77935644984245300293e-01) (5, 7.16040506958961486816e-02) (6, 2.24442332983016967773e-02) (10, -7.86772444844245910645e-02) (6, -5.42918033897876739502e-02) (7, -8.74271318316459655762e-02) (10, -1.76820680499076843262e-01) (0, 8.36746115237474441528e-03) (3, 2.68959432840347290039e-01) (6, 2.07033067941665649414e-01) (10, -1.97919368743896484375e-01) (4, 2.29274451732635498047e-01) (5, 1.24178558588027954102e-01) (10, 3.38324725627899169922e-01) (6, 6.99516758322715759277e-02) (0, -9.40195173025131225586e-02) (10, 1.09025835990905761719e-01) (6, -1.37054175138473510742e-01) (4, 1.51539325714111328125e-01) (10, 6.61642802879214286804e-03) (3, -9.38757508993148803711e-02) (4, 7.34097436070442199707e-02) (10, 1.96617007255554199219e-01) (7, 2.21891343593597412109e-01) (6, -1.03274010121822357178e-01) (10, -2.34173741191625595093e-02) (2, 1.49379357695579528809e-01) (5, 6.09627306461334228516e-01) (10, -5.86857236921787261963e-02) (3, -3.58531087636947631836e-01) (0, 3.02930682897567749023e-01) (10, 3.42715941369533538818e-02) (4, 1.15154683589935302734e-03) (7, 1.75157979130744934082e-01) (10, 6.32421597838401794434e-02) (9, -2.18171745538711547852e-01) (4, 2.31625705957412719727e-01) (10, 2.25112587213516235352e-01) (3, 4.77587580680847167969e-02) (5, 3.07105958461761474609e-01) (10, -5.58911003172397613525e-02) (6, 1.75372481346130371094e-01) (2, 8.29255729913711547852e-02) (10, -3.02183553576469421387e-02) (3, -2.75132991373538970947e-02) (8, 1.80230301339179277420e-03) (10, 3.44250202178955078125e-01) (8, 8.90279337763786315918e-02) (3, -6.55056089162826538086e-02) (10, 2.13735159486532211304e-02) (2, -1.08110919594764709473e-01) (0, 1.78426370024681091309e-01) (10, 4.35407124459743499756e-02) (3, 3.25421959161758422852e-01) (6, 3.42637121677398681641e-01) (10, 3.70565764605998992920e-02) (4, 5.84251396358013153076e-02) (3, 4.53004419803619384766e-01) (10, 1.16149723529815673828e-01) (2, -1.83058291673660278320e-01) (1, -1.13045081496238708496e-01) (10, -1.07651665806770324707e-01) (8, 9.28573831915855407715e-02) (4, 3.06780487298965454102e-02) (10, 1.20589502155780792236e-01) (7, -1.09634742140769958496e-01) (8, -7.06783160567283630371e-02) (10, 1.96564197540283203125e-01) (4, -2.28410944342613220215e-01) (1, 4.19158756732940673828e-01) (10, -7.81583711504936218262e-02) (1, 7.83588439226150512695e-02) (7, -3.23292464017868041992e-02) (10, 7.86028578877449035645e-02) (0, -2.16963201761245727539e-01) (6, 7.55044892430305480957e-02) (10, 1.99112355709075927734e-01) (7, -3.72013859450817108154e-02) (6, 6.75172656774520874023e-02) (10, 1.27791957929730415344e-02) (9, -1.23394894599914550781e+00) (1, 1.06404639780521392822e-01) (10, 2.52141624689102172852e-01) (7, 7.11033791303634643555e-02) (6, 3.61892133951187133789e-01) (10, 1.62876769900321960449e-01) (9, -1.11675933003425598145e-01) (7, -1.92248389124870300293e-01) (10, -6.93395584821701049805e-02) (6, -3.42718809843063354492e-01) (1, 1.70513302087783813477e-01) (10, 1.82840060442686080933e-02) (6, 2.27695226669311523438e-01) (4, 3.93851846456527709961e-01) (10, 7.72725120186805725098e-02) (9, 1.06220930814743041992e-01) (7, 6.90940916538238525391e-02) (10, 1.48509427905082702637e-01) (1, 4.59124057670123875141e-05) (9, -1.92468613386154174805e-01) (10, -1.17390170693397521973e-01) (7, 2.42492253892123699188e-03) (6, 1.01219788193702697754e-01) (10, -1.09916761517524719238e-01) (3, -1.82075854390859603882e-02) (2, -1.72705084085464477539e-01) (10, -5.41651964187622070312e-01) (7, 5.08579432964324951172e-01) (0, -2.61478461325168609619e-02) (10, 5.45134663581848144531e-01) (7, 2.86803752183914184570e-01) (2, 3.89636397361755371094e-01) (10, -2.52570360898971557617e-02) (4, 2.83643960952758789062e-01) (8, 2.61890709400177001953e-01) (10, 3.21320533752441406250e-01) (6, -7.73131847381591796875e-02) (0, 8.31249207258224487305e-02) (10, -9.20693110674619674683e-03) (6, 1.72463133931159973145e-01) (8, 1.52569308876991271973e-01) (10, 2.00121819972991943359e-01) (3, -1.66374698281288146973e-01) (1, 6.68767154216766357422e-01) (10, -1.13481067121028900146e-01) (6, -1.05561904609203338623e-01) (4, 6.60442188382148742676e-02) (10, -1.31430044770240783691e-01) (9, 2.10825011134147644043e-01) (2, 2.57099896669387817383e-01) (10, 4.36275124549865722656e-01) (3, 1.44055187702178955078e-01) (5, 8.07668045163154602051e-02) (10, 5.19270189106464385986e-02) (8, 2.77070611715316772461e-01) (3, -8.94289761781692504883e-02) (10, 6.24804675579071044922e-01) (9, 8.78542602062225341797e-01) (2, -3.43241035938262939453e-01) (10, 3.17363590002059936523e-01) (7, -4.17355634272098541260e-02) (5, 6.66599273681640625000e-01) (10, 4.66402899473905563354e-03) (3, -2.39710077643394470215e-01) (2, -3.88464964926242828369e-02) (10, -2.96541806310415267944e-02) (3, 2.84524977207183837891e-01) (5, 3.30219507217407226562e+00) (10, -5.27154305018484592438e-04) (5, 5.45505762100219726562e-01) (4, -2.34432920813560485840e-01) (10, 3.13773661851882934570e-01) (6, 8.09684693813323974609e-02) (4, 2.39852234721183776855e-01) (10, 5.51088564097881317139e-02) (4, 2.42827236652374267578e-01) (3, 1.32868796586990356445e-01) (10, -3.54176163673400878906e-01) (1, 5.60091137886047363281e-01) (5, 1.56821072101593017578e+00) (6, 7.77526140213012695312e-01) (111, 2.60199517011642456055e-01) (27, 2.03286409378051757812e-01) (66, 1.24662943184375762939e-01) (97, 1.04230195283889770508e-01) (19, 5.48729240894317626953e-01) (59, 1.13020516932010650635e-01) (79, 7.02501386404037475586e-02) (57, 2.25370064377784729004e-01) (26, -4.95667159557342529297e-01) (44, 2.30407655239105224609e-01) (54, 5.97384810447692871094e-01) (102, -1.13434970378875732422e-01) (60, 5.49442887306213378906e-01) (103, 3.37284564971923828125e+00) (94, -3.00592124462127685547e-01) (80, 3.04966509342193603516e-01) (39, -8.56125652790069580078e-01) (15, 3.53692799806594848633e-01) (105, 3.21566748619079589844e+00) (93, -1.55100459232926368713e-02) (12, -1.30434989929199218750e-01) (111, -3.86442951858043670654e-02) (22, 2.38815650343894958496e-01) (54, 8.50719586014747619629e-02) (80, 3.22118371725082397461e-01) (79, -1.70650944113731384277e-01) (83, -5.39378583431243896484e-01) (97, 1.05543747544288635254e-01) (41, -5.17478324472904205322e-02) (17, 1.61647021770477294922e-01) (94, 1.07800938189029693604e-01) (39, 5.50751984119415283203e-02) (77, 3.04346203804016113281e-01) (25, 1.92890524864196777344e-01) (106, 2.78820425271987915039e-01) (93, -1.59608691930770874023e-01) (107, 3.12311291694641113281e-01) (62, -1.84955269098281860352e-01) (28, -3.86964790523052215576e-02) (21, 2.04814299941062927246e-01) (16, 7.72731482982635498047e-01) (73, 1.20583750307559967041e-01) (111, 3.26511561870574951172e-01) (89, -1.26377090811729431152e-01) (100, 5.37879355251789093018e-02) (84, 3.44015568494796752930e-01) (31, 1.92620053887367248535e-01) (47, 5.30436635017395019531e-02) (39, 3.54727119207382202148e-01) (25, 2.30148732662200927734e-02) (87, 1.88234746456146240234e-01) (81, 4.34996150434017181396e-02) (77, -1.00795783102512359619e-01) (24, 2.54636883735656738281e-01) (50, 2.25188031792640686035e-01) (78, -1.17493897676467895508e-01) (70, 4.25979912281036376953e-01) (52, 2.65615254640579223633e-01) (71, 1.81972980499267578125e-01) (90, 1.21181666851043701172e-01) (16, 1.38962399959564208984e+00) (44, -1.98867470026016235352e-01) (27, 1.45401969552040100098e-01) (111, 8.20816904306411743164e-02) (43, 2.54656653851270675659e-02) (84, -1.02365338802337646484e+00) (36, -7.69268810749053955078e-01) (30, 3.23012053966522216797e-01) (63, 2.19388350844383239746e-01) (24, 2.95960396528244018555e-01) (19, -6.97576403617858886719e-02) (47, 5.79385906457901000977e-02) (108, -1.25514730811119079590e-01) (105, 7.32719182968139648438e-01) (65, 1.51899054646492004395e-01) (92, 1.28601893782615661621e-01) (49, 2.18083728104829788208e-02) (59, 4.81017231941223144531e-01) (38, -5.04720658063888549805e-02) (66, -2.96282142400741577148e-01) (82, 5.82140266895294189453e-01) (74, -1.22657680511474609375e+00) (77, 2.24319323897361755371e-01) (16, 2.70039558410644531250e+00) (111, 2.74960994720458984375e-01) (21, -1.36148303747177124023e-01) (60, 9.14679095149040222168e-02) (83, 3.82040202617645263672e-01) (92, -5.22679662704467773438e+00) (97, -6.67508468031883239746e-02) (49, 2.13428497314453125000e-01) (42, 1.02746494114398956299e-01) (105, 2.18302786350250244141e-01) (30, -6.10944665968418121338e-02) (20, -9.29538533091545104980e-02) (12, 2.37710714340209960938e-01) (63, -9.62786376476287841797e-02) (100, 2.30334684252738952637e-01) (74, -1.81133449077606201172e+00) (64, 2.47057512402534484863e-01) (85, 1.32425200939178466797e+00) (96, 9.83564481139183044434e-02) (67, 2.71805226802825927734e-01) (56, 3.83362732827663421631e-02) (101, 3.45221161842346191406e-02) (111, -1.07597574591636657715e-01) (71, 1.52419671416282653809e-01) (97, -9.33075696229934692383e-02) (107, -9.28037017583847045898e-02) (48, 2.71006554365158081055e-01) (87, 4.55741100013256072998e-02) (18, -8.56120064854621887207e-02) (52, 3.64346474409103393555e-01) (93, 1.73992589116096496582e-01) (100, 6.36385828256607055664e-02) (70, 1.51483982801437377930e-01) (96, 4.82363626360893249512e-02) (60, 6.44449964165687561035e-02) (99, 4.21401187777519226074e-02) (65, -4.92378585040569305420e-02) (34, -5.96044921875000000000e+00) (88, -2.83840182237327098846e-03) (67, 2.03102052211761474609e-01) (53, -1.46180896759033203125e+01) (51, 1.99777275323867797852e-01) (101, -1.23840279877185821533e-01) (98, 1.40113079547882080078e+00) (111, 9.84726473689079284668e-02) (98, 1.24133475124835968018e-01) (43, 6.67918240651488304138e-03) (67, -7.93426036834716796875e-01) (94, -1.40344530344009399414e-01) (51, 1.47470104694366455078e+00) (15, 7.09859132766723632812e-02) (86, 2.25454062223434448242e-01) (36, -1.04372143745422363281e+00) (84, 1.66218295693397521973e-01) (63, 3.73257428407669067383e-01) (20, 7.43375867605209350586e-02) (35, -7.60014802217483520508e-02) (66, 1.54425218701362609863e-01) (79, 2.26092219352722167969e-01) (97, 3.31170782446861267090e-02) (69, -5.55847808718681335449e-02) (96, 3.15049067139625549316e-02) (45, 7.73731023073196411133e-02) (39, -3.42434570193290710449e-02) (48, -9.51987430453300476074e-02) (111, 1.43282011151313781738e-01) (19, -1.43980637192726135254e-01) (76, 5.52092865109443664551e-02) (92, -8.83134269714355468750e+00) (53, -3.80305838584899902344e+00) (48, -4.78910990059375762939e-02) (102, 3.18816065788269042969e-01) (31, 2.32389703392982482910e-01) (95, -4.63817715644836425781e-02) (49, -7.26746395230293273926e-02) (78, 1.47248953580856323242e-02) (61, 7.98571184277534484863e-02) (25, -1.80989000946283340454e-02) (34, 5.15008091926574707031e-01) (100, 1.80045738816261291504e-01) (35, 1.99452206492424011230e-01) (50, -2.12197110056877136230e-01) (42, 2.09139943122863769531e-01) (28, -1.03069454431533813477e-01) (80, -8.81807878613471984863e-02) (89, 5.63345134258270263672e-01) (111, 9.73801389336585998535e-02) (23, 2.77132708579301834106e-02) (25, 9.69181418418884277344e-01) (28, 2.13359370827674865723e-01) (73, -7.44733437895774841309e-02) (82, -2.16416139155626296997e-02) (66, -2.42976516485214233398e-01) (107, 3.92458051443099975586e-01) (62, 1.18373200297355651855e-01) (98, 6.07332706451416015625e-01) (65, -3.18542391061782836914e-01) (70, 9.40299689769744873047e-01) (12, -2.89169669151306152344e-01) (110, 1.82542532682418823242e-01) (26, -8.10589119791984558105e-02) (22, -4.21170890331268310547e-01) (85, -8.75385478138923645020e-02) (91, -7.08760647103190422058e-03) (108, 1.58750727772712707520e-01) (84, 1.63808111101388931274e-02) (58, 5.30860461294651031494e-02) (111, 3.05506344884634017944e-02) (13, -1.18947041034698486328e+00) (39, 6.24829307198524475098e-02) (74, -6.76100587844848632812e+00) (40, 6.56529888510704040527e-02) (24, 2.90307641029357910156e-01) (20, 1.03096298873424530029e-01) (28, 7.53911882638931274414e-02) (108, -1.50986447930335998535e-01) (12, -1.58841624855995178223e-01) (94, -2.15900689363479614258e-01) (92, 1.68239504098892211914e-01) (72, 1.76433861255645751953e-01) (86, 1.69084638357162475586e-01) (56, -8.07659104466438293457e-02) (36, 2.33147703111171722412e-02) (11, 2.53204137086868286133e-01) (45, -2.18206197023391723633e-01) (43, -4.79539334774017333984e-02) (14, -6.53742905706167221069e-03) (50, 6.46437378600239753723e-03) (111, 5.79793751239776611328e-02) (27, 3.02604347467422485352e-01) (52, -1.45498704910278320312e+00) (87, 6.38728365302085876465e-02) (53, 3.33477824926376342773e-01) (20, 1.10436722636222839355e-01) (93, 2.42488503456115722656e-01) (44, 8.74739408493041992188e-01) (45, -1.47137510776519775391e+00) (73, -4.37961757183074951172e-01) (101, -8.26087668538093566895e-02) (107, 1.70779824256896972656e-01) (96, -1.22047498822212219238e-01) (13, 1.92563951015472412109e-01) (90, -7.71476775407791137695e-02) (36, -1.80396005511283874512e-01) (22, -8.10698568820953369141e-01) (105, -2.31010246276855468750e+00) (43, -1.11651694774627685547e+00) (30, 3.61737847328186035156e-01) (88, 2.30218753218650817871e-01) (111, -3.92264723777770996094e-02) (36, -7.12580606341361999512e-02) (66, 1.28514602780342102051e-01) (107, 1.92402541637420654297e-01) (105, -2.38830738067626953125e+01) (71, 3.11070084571838378906e-01) (57, -1.06443872451782226562e+01) (20, 2.54279822111129760742e-01) (100, 3.55063006281852722168e-02) (62, 4.64054107666015625000e-01) (26, -3.08166563510894775391e-01) (102, -3.14246088266372680664e-01) (92, -2.43803605437278747559e-01) (32, 3.96354570984840393066e-02) (18, -2.85287523269653320312e+00) (16, 5.98249816894531250000e+00) (33, -3.12440991401672363281e-01) (15, -4.59720231592655181885e-02) (65, 2.76928078383207321167e-02) (13, 5.07820427417755126953e-01) (83, 1.64654874801635742188e+00) (12, -8.56135010719299316406e-01) (111, 1.89283818006515502930e-01) (103, -1.01128943264484405518e-01) (56, -1.10203512012958526611e-01) (75, -6.52721077203750610352e-02) (84, 9.24303829669952392578e-02) (62, 2.17494755983352661133e-01) (95, 1.83020755648612976074e-01) (91, 2.37419992685317993164e-01) (50, 5.49106240272521972656e-01) (31, 1.08196385554037988186e-04) (37, 3.94853621721267700195e-01) (25, 2.11365565657615661621e-01) (16, -2.77084708213806152344e-02) (54, -4.10362571477890014648e-01) (19, 8.84607881307601928711e-02) (41, 3.11092525720596313477e-01) (88, -2.50602692365646362305e-01) (64, 2.00670585036277770996e-01) (71, -4.40321862697601318359e-02) (102, -9.71982628107070922852e-02) (40, 5.67162483930587768555e-02) (111, 7.24100992083549499512e-02) (85, -1.38659790158271789551e-01) (79, 1.05553299188613891602e-01) (46, -1.28417462110519409180e-01) (44, 2.45814412832260131836e-01) (60, 1.54032135009765625000e+00) (33, 9.58599969744682312012e-02) (16, -2.04747110605239868164e-01) (61, 3.55086594820022583008e-01) (106, 2.73935467004776000977e-01) (81, 1.98392376303672790527e-01) (107, -1.10535830259323120117e-01) (102, 1.84216842055320739746e-01) (29, 1.07521954923868179321e-02) (95, 2.26455152034759521484e-01) (62, -2.04807326197624206543e-01) (47, -1.08045838773250579834e-01) (83, -1.55537828803062438965e-01) (96, -1.78405717015266418457e-01) (34, 4.64668031781911849976e-03) (26, 9.11172702908515930176e-02) (111, -8.51931497454643249512e-02) (78, 4.28546629846096038818e-02) (24, 1.75833702087402343750e-01) (91, 1.58207333087921142578e+00) (26, 3.44935506582260131836e-01) (21, 1.82551264762878417969e-01) (50, -6.25542849302291870117e-02) (88, 3.89659591019153594971e-02) (101, 2.02021330595016479492e-01) (37, 3.73378008604049682617e-01) (34, 2.20990136265754699707e-01) (87, -5.78059196472167968750e-01) (15, 8.23388174176216125488e-02) (31, 6.84047713875770568848e-02) (84, 5.67514598369598388672e-01) (66, -2.35479995608329772949e-02) (104, 8.34845229983329772949e-02) (17, -4.78957742452621459961e-01) (90, -4.44308109581470489502e-02) (98, 8.93648490309715270996e-02) (99, -1.74479987472295761108e-02) (111, 2.39640101790428161621e-01) (50, -2.08420619368553161621e-01) (108, -1.16998799145221710205e-01) (41, 5.93911767005920410156e-01) (73, 1.89009219408035278320e-01) (86, 6.46070814132690429688e+00) (85, 2.05571472644805908203e-01) (28, 2.17744871973991394043e-01) (102, -3.92380326986312866211e-01) (71, -8.30402299761772155762e-02) (58, 9.48316678404808044434e-02) (23, 5.09000457823276519775e-02) (52, 7.04688072204589843750e-01) (89, 1.97168742306530475616e-03) (27, 3.28272432088851928711e-02) (76, 8.14242482185363769531e-01) (21, -1.12845867872238159180e-01) (39, -1.67469322681427001953e-01) (37, -8.09487402439117431641e-01) (62, 3.40263873338699340820e-01) (34, -6.20526790618896484375e-01) (111, -9.77013334631919860840e-02) (72, -5.48134088516235351562e-01) (56, 1.81763634085655212402e-01) (99, 2.17219993472099304199e-01) (17, 3.20454567670822143555e-01) (14, 1.80062633007764816284e-02) (88, 1.39073878526687622070e-01) (26, -5.54183840751647949219e-01) (97, 2.67131030559539794922e-01) (40, 2.27702200412750244141e-01) (82, 1.12623788416385650635e-01) (106, -3.89551073312759399414e-02) (108, -3.02102357149124145508e-01) (45, 3.36427651345729827881e-02) (103, 2.90065146982669830322e-02) (91, -1.09478220343589782715e-01) (57, -9.12626934051513671875e+00) (12, -1.14123150706291198730e-01) (46, -6.08569309115409851074e-02) (16, -5.26278674602508544922e-01) (60, 2.45865695178508758545e-02) (11, 3.68223674595355987549e-02) (111, -1.39174357056617736816e-01) (93, 1.10899291932582855225e-01) (96, 3.70914116501808166504e-02) (15, 3.35695177316665649414e-01) (23, 1.10582783818244934082e-01) (102, 2.09021002054214477539e-01) (24, 7.05494523048400878906e-01) (90, 2.84994512796401977539e-01) (77, -1.73671897500753402710e-02) (20, -1.49709269404411315918e-01) (91, 2.73357272148132324219e-01) (53, -1.49483191967010498047e+00) (22, -4.02936071157455444336e-01) (60, 4.31710749864578247070e-01) (58, 5.45619167387485504150e-02) (99, 2.90824145078659057617e-01) (32, 1.05344571173191070557e-01) (105, -1.08930253982543945312e+00) (62, -3.30483049154281616211e-01) (61, 4.98078837990760803223e-02) (108, -5.47252260148525238037e-02) (111, 1.69898137450218200684e-01) (30, 3.03875301033258438110e-02) (74, 4.03777170181274414062e+00) (26, 3.53263020515441894531e-01) (75, 5.10975755751132965088e-02) (68, -2.32100993394851684570e-01) (105, 7.62299895286560058594e-02) (89, -1.88323616981506347656e-01) (81, -1.41754671931266784668e-01) (72, -3.06260108947753906250e-01) (36, 1.85283944010734558105e-01) (15, 8.37761443108320236206e-03) (35, 2.34691411256790161133e-01) (53, 7.09028661251068115234e-01) (90, -1.18877016007900238037e-01) (64, 7.70240873098373413086e-02) (58, -4.41299796104431152344e-01) (48, 1.96901299059391021729e-02) (52, -1.20974697172641754150e-01) (18, 3.72825860977172851562e-02) (29, 6.19873916730284690857e-03) (111, -8.84212926030158996582e-02) (29, 1.88604354858398437500e-01) (64, 2.92422443628311157227e-01) (95, 1.43951892852783203125e-01) (109, -1.44865596294403076172e+00) (40, -9.46097634732723236084e-03) (78, 1.21572270989418029785e-01) (82, -7.18688666820526123047e-02) (107, 3.03911179304122924805e-01) (14, 8.31764191389083862305e-02) (72, 7.45053350925445556641e-01) (42, -2.58146882057189941406e-01) (108, -1.32989257812500000000e+02) (13, 1.32473361492156982422e+00) (41, -9.50050204992294311523e-02) (31, 1.55289053916931152344e-01) (18, -1.49340197443962097168e-01) (53, 1.08740007877349853516e+00) (102, 1.27049291133880615234e+00) (83, 1.28251194953918457031e-01) (21, -2.03670835494995117188e+00) (111, -1.62351548671722412109e-01) (24, -4.94995260238647460938e+00) (78, 1.67448196411132812500e+01) (26, -1.77231281995773315430e-01) (95, 7.70237386226654052734e-01) (12, 1.22473478317260742188e-01) (105, 4.19098997116088867188e+00) (104, 2.50522098541259765625e+01) (93, -6.18131041526794433594e-01) (62, -1.50259435176849365234e-01) (51, 1.06803817749023437500e+02) (83, 1.21825143694877624512e-01) (99, -9.29758399724960327148e-02) (96, -3.99464964866638183594e-01) (103, -1.05069227218627929688e+01) (57, 1.01669578552246093750e+01) (17, -3.75252990722656250000e+01) (85, -6.67132902890443801880e-03) (44, 1.27862462997436523438e+01) (106, 3.15371245145797729492e-01) (59, -6.04956746101379394531e-02) (111, 8.04780423641204833984e-02) (62, 4.31515812873840332031e-01) (69, 9.91340875625610351562e-02) (83, 9.83912199735641479492e-02) (27, 2.10409894585609436035e-01) (55, 2.95235306024551391602e-01) (76, -1.93553820252418518066e-01) (51, 1.05024089813232421875e+01) (30, -9.59927439689636230469e-02) (75, 8.07420834898948669434e-02) (46, 2.87710189819335937500e-01) (52, 2.08593010902404785156e-01) (90, 1.10481417179107666016e+00) (12, -4.65301662683486938477e-01) (80, 3.67944389581680297852e-01) (72, -1.23965525627136230469e+00) (35, 4.29019965231418609619e-02) (45, 1.12977588176727294922e+00) (66, 4.91318941116333007812e-01) (71, 2.23603859543800354004e-01) (101, 2.65246868133544921875e-01) (111, 1.61139350384473800659e-02) (108, 1.01690955460071563721e-01) (28, -1.16231441497802734375e-01) (51, -1.94265651702880859375e+00) (86, -4.14076238870620727539e-01) (99, 2.28016465902328491211e-01) (101, -6.56823068857192993164e-02) (57, 3.30410033464431762695e-01) (95, -5.19070588052272796631e-02) (21, 1.89760431647300720215e-01) (97, -3.50324437022209167480e-02) (25, 1.23241685330867767334e-01) (77, 6.49123191833496093750e-02) (82, 3.25638145208358764648e-01) (104, -5.91020882129669189453e-02) (43, 1.60596668720245361328e-02) (42, 3.77646796405315399170e-02) (84, 1.76442816853523254395e-01) (38, -2.35119789838790893555e-01) (61, 2.86049157381057739258e-01) (83, 5.99509477615356445312e-02) (91, 2.77083396911621093750e-01) (111, 7.99624398350715637207e-02) (15, -1.21168863773345947266e+00) (53, -1.21426649093627929688e+01) (23, 4.79610383510589599609e-01) (33, 1.81965112686157226562e+00) (77, -1.08853340148925781250e-01) (47, -2.34885692596435546875e+00) (87, -7.42204487323760986328e-01) (89, -6.72294521331787109375e+00) (76, 9.96520161628723144531e-01) (102, 1.27556353807449340820e-01) (13, 2.39072060585021972656e+00) (40, 5.96223115921020507812e-01) (85, 3.89081910252571105957e-02) (86, 3.11700272560119628906e+00) (29, -7.94165074825286865234e-01) (80, -3.08610463142395019531e+00) (31, -8.17457586526870727539e-02) (78, 9.59381833672523498535e-02) (49, 2.11212396621704101562e-01) (54, 7.20458984375000000000e-01) (111, -2.30875447392463684082e-01) (18, 5.90726770460605621338e-02) (59, -1.81206792593002319336e-01) (75, 9.53676477074623107910e-02) (110, -7.43092238903045654297e-01) (91, 3.06466979980468750000e+02) (51, -2.66778182983398437500e+00) (44, 5.04939675331115722656e-01) (84, -1.02205418050289154053e-01) (47, 1.04027807712554931641e-01) (53, 2.04061120748519897461e-01) (43, 1.89616560935974121094e-01) (100, 2.18003883361816406250e+01) (68, 4.23971354961395263672e-01) (106, -4.54492926597595214844e-01) (65, 2.43993446230888366699e-01) (78, 7.68694980069994926453e-03) (73, 3.51317897439002990723e-02) (69, 1.42122179269790649414e-01) (35, 3.41384783387184143066e-02) (41, -2.18611732125282287598e-01) (111, 3.20303201675415039062e-01) (102, 4.44076448678970336914e-01) (41, -1.52908384799957275391e-01) (55, 9.59212112426757812500e+00) (27, -5.58881640434265136719e-01) (70, 1.57920913696289062500e+01) (56, 3.23423981666564941406e+00) (25, 3.08688659667968750000e+01) (73, 1.07165360450744628906e+00) (103, 4.21298265457153320312e+00) (80, 1.40228509902954101562e+01) (101, 1.50698590278625488281e+00) (65, 3.13051319122314453125e+00) (63, 2.18515167236328125000e+01) (97, 4.27208751440048217773e-01) (32, 3.93953382968902587891e-01) (29, 7.88564634323120117188e+00) (99, -4.33627039194107055664e-01) (53, 2.78938331604003906250e+01) (75, 2.35943531990051269531e+00) (104, 1.59990034103393554688e+01) (111, -7.43059441447257995605e-04) (91, 2.32058763504028320312e-01) (94, -1.19046665728092193604e-01) (106, 4.62133288383483886719e-01) (18, 1.68519973754882812500e-01) (96, 2.58085757493972778320e-01) (85, -8.70055705308914184570e-02) (36, -2.72731874138116836548e-02) (58, 7.84705802798271179199e-02) (62, 1.40726223587989807129e-01) (73, 3.70144359767436981201e-02) (32, -1.58634245395660400391e-01) (29, 9.24091875553131103516e-01) (53, 5.92831850051879882812e-01) (19, 2.60632896423339843750e+00) (47, 8.68715465068817138672e-01) (78, 8.16685855388641357422e-02) (75, 3.51563751697540283203e-01) (16, 1.10354743897914886475e-01) (95, 3.31498645246028900146e-02) (64, -8.21249365806579589844e-01) (111, -2.07363851368427276611e-02) (58, 9.96451005339622497559e-02) (64, -1.15351691842079162598e-01) (25, 1.39713898301124572754e-01) (85, 1.13247133791446685791e-01) (55, 7.59826675057411193848e-02) (95, 3.44822645187377929688e-01) (76, 1.44942954182624816895e-01) (22, 1.88482388854026794434e-01) (86, -6.11907057464122772217e-03) (79, -8.51772204041481018066e-02) (15, -9.43951308727264404297e-03) (81, -1.72700290568172931671e-03) (90, 3.99135231971740722656e-01) (21, 7.92636334896087646484e-01) (104, -5.87605796754360198975e-02) (40, 3.36707711219787597656e-01) (74, 3.25540614128112792969e+00) (28, 3.16707938909530639648e-01) (63, 1.77852749824523925781e-01) (101, 2.76073932647705078125e-01) (54, 1.53078392148017883301e-01) (111, 2.85365015268325805664e-01) (17, -1.88320115208625793457e-01) (35, 2.48076289892196655273e-01) (44, 7.98086002469062805176e-02) (45, -6.16067685186862945557e-02) (56, -6.39829710125923156738e-02) (68, -1.24462872743606567383e-01) (81, -1.89058139920234680176e-01) (74, 1.95818102359771728516e+00) (80, 2.37757697701454162598e-01) (37, 4.60457056760787963867e-01) (21, -1.89000934362411499023e-01) (11, -1.82671044021844863892e-02) (36, 2.20116361975669860840e-01) (82, 6.01676143705844879150e-02) (97, 4.58673089742660522461e-02) (61, -1.24611765146255493164e-01) (39, 7.58952572941780090332e-02) (25, -6.59793391823768615723e-02) (41, 8.15716609358787536621e-02) (86, 1.85767874121665954590e-01) (111, -5.12071092089172452688e-05) (20, 2.44087159633636474609e-01) (35, 3.25358770787715911865e-02) (86, -3.00296157598495483398e-01) (22, -1.31100565195083618164e-01) (57, 1.82861074805259704590e-01) (76, 3.52331727743148803711e-01) (55, -1.96813553571701049805e-01) (15, 2.95882850885391235352e-01) (26, 6.91478788852691650391e-01) (45, 4.04626056551933288574e-02) (16, -8.31500470638275146484e-01) (93, 3.16310912370681762695e-01) (95, 1.13189004361629486084e-01) (31, 3.73242855072021484375e-01) (32, 1.38839006423950195312e-01) (75, -8.07350203394889831543e-02) (14, 2.41376496851444244385e-02) (39, 1.70621976256370544434e-01) (87, -1.19489813223481178284e-02) (80, -1.90077070146799087524e-02) (111, 2.54707068204879760742e-01) (37, -7.73308351635932922363e-02) (38, 1.42679333686828613281e+00) (85, 3.06450277566909790039e-01) (35, 2.73724853992462158203e-01) (110, 1.62361070513725280762e-01) (29, 8.47047492861747741699e-02) (73, 3.57514947652816772461e-01) (16, 4.58475500345230102539e-01) (56, 9.19231623411178588867e-02) (53, -2.41624164581298828125e+00) (65, 7.24278613924980163574e-02) (67, 2.16636434197425842285e-01) (109, -1.01171946525573730469e+00) (75, 2.89062500000000000000e-01) (88, -3.50748933851718902588e-02) (39, 1.63508877158164978027e-02) (84, 5.85953742265701293945e-02) (40, 7.78003334999084472656e-02) (47, 3.64876598119735717773e-01) (79, -6.23650178313255310059e-02) (111, -1.61915600299835205078e-01) (88, -3.04767694324254989624e-02) (96, -1.82049170136451721191e-01) (66, 1.13303279876708984375e+00) (89, 1.23261916637420654297e+00) (110, 2.08234333992004394531e+00) (49, 2.28437826037406921387e-01) (61, 2.21197590231895446777e-01) (83, -1.08538627624511718750e-01) (16, -2.99801135063171386719e+00) (25, 4.80492681264877319336e-01) (106, 5.49882769584655761719e-01) (92, 1.39565634727478027344e+00) (53, 1.52487814426422119141e+00) (24, 6.78859412670135498047e-01) (39, 2.39208877086639404297e-01) (21, -2.17616721056401729584e-03) (65, 4.94556203484535217285e-02) (84, -4.46184605360031127930e-01) (30, 2.71857500076293945312e+00) (78, 7.86356851458549499512e-02) (111, 1.79558530449867248535e-01) (24, 3.39942902326583862305e-01) (42, 1.15538574755191802979e-02) (67, 7.72935748100280761719e-02) (72, 5.72367846965789794922e-01) (17, 3.05002648383378982544e-02) (40, 5.02533838152885437012e-02) (80, -1.30072697997093200684e-01) (46, 4.32958573102951049805e-01) (39, -3.09418737888336181641e-01) (59, 2.01094225049018859863e-01) (107, -5.29605448246002197266e-02) (94, 1.33580580353736877441e-01) (58, 3.97518575191497802734e-02) (81, -1.42881870269775390625e-01) (19, 1.05992130935192108154e-01) (53, -9.37392711639404296875e-01) (25, 1.00665740668773651123e-01) (14, 1.22952602803707122803e-01) (104, -7.54318684339523315430e-02) (93, 1.97583019733428955078e-01) (111, 6.01419061422348022461e-02) (34, 2.14732599258422851562e+00) (79, -3.33792790770530700684e-02) (105, -9.69399070739746093750e+00) (42, 5.91658391058444976807e-02) (101, 3.12373667955398559570e-01) (13, 3.48217086866497993469e-03) (54, 2.27018401026725769043e-01) (24, 7.31127634644508361816e-02) (77, 7.40379244089126586914e-02) (20, -3.07809915393590927124e-02) (51, 3.55118942260742187500e+00) (14, -6.37981668114662170410e-02) (41, 5.95863256603479385376e-03) (48, 6.81069940328598022461e-02) (25, 2.85845100879669189453e-01) (45, 3.33576679229736328125e-01) (47, -1.22055746614933013916e-01) (55, 1.53513520956039428711e-01) (68, -1.39723539352416992188e-01) (82, 5.98533987998962402344e-01) (80, -9.10368412733078002930e-02) (111, 3.15905839204788208008e-01) (26, -8.56278315186500549316e-02) (28, 1.89997166395187377930e-01) (30, -1.24856136739253997803e-01) (99, 1.67149454355239868164e-01) (53, 1.54277410507202148438e+01) (39, -2.92944133281707763672e-01) (69, -3.24925690889358520508e-01) (16, -3.37090879678726196289e-01) (61, -9.98418629169464111328e-02) (19, -6.42364099621772766113e-02) (11, 5.23816468194127082825e-03) (36, -1.83881118893623352051e-01) (47, 5.57084739208221435547e-01) (109, 2.15578839182853698730e-01) (48, -5.04242628812789916992e-02) (27, 1.42625337466597557068e-02) (54, -2.38175332546234130859e-01) (21, 2.74564594030380249023e-01) (58, -1.12771883606910705566e-01) (40, 7.42168501019477844238e-02) (111, 7.49410390853881835938e-02) (70, 1.35272011160850524902e-01) (64, -1.81060805916786193848e-02) (81, 2.11544394493103027344e-01) (39, 6.22804015874862670898e-02) (71, -6.92959651350975036621e-02) (52, 1.67150068283081054688e+00) (76, 7.17020153999328613281e-01) (43, 2.45842307806015014648e-01) (84, 2.12320044636726379395e-01) (75, -1.19369700551033020020e-01) (57, 7.13686496019363403320e-02) (110, -8.50636232644319534302e-03) (41, 3.86466264724731445312e-01) (58, 1.15923890843987464905e-02) (12, -3.26672464609146118164e-01) (36, 6.88533484935760498047e-02) (77, 4.31465417146682739258e-01) (72, 7.75229930877685546875e-02) (19, -5.97358751296997070312e+00) (66, 6.27196192741394042969e-01) (111, 2.11383804678916931152e-01) (33, 6.04937300086021423340e-02) (41, 2.93399006128311157227e-01) (72, -2.59092390537261962891e-01) (25, 1.86677992343902587891e-01) (43, -6.21397234499454498291e-02) (82, -5.32574169337749481201e-02) (70, -3.03881498984992504120e-03) (91, 5.49489594995975494385e-02) (110, 5.93809993006289005280e-04) (56, 3.26575136184692382812e+00) (58, 1.44895538687705993652e-01) (60, 1.78692981600761413574e-01) (74, 5.58718490600585937500e+00) (76, -4.07835766673088073730e-02) (50, 1.71047270298004150391e-01) (38, 6.45617619156837463379e-02) (48, 1.41854450106620788574e-01) (16, 7.01009333133697509766e-02) (71, 1.36716082692146301270e-01) (73, -1.16860270500183105469e-01) (111, 4.09002862870693206787e-02) (46, 8.43672007322311401367e-02) (18, 2.60946787893772125244e-02) (13, 1.45498204231262207031e+00) (82, 2.61771231889724731445e-01) (85, 7.30194270610809326172e-01) (67, -1.38853624463081359863e-01) (37, -7.41441428661346435547e-01) (57, 3.56030678749084472656e+00) (36, -1.78358629345893859863e-02) (69, 1.71694576740264892578e-01) (32, -1.77672338485717773438e+00) (108, 9.45657268166542053223e-02) (97, -1.03668287396430969238e-01) (84, 1.70773211866617202759e-02) (38, 9.40833315253257751465e-02) (103, 1.88656881451606750488e-01) (104, 7.20443576574325561523e-02) (50, 8.45866501331329345703e-02) (31, 2.56958901882171630859e-01) (19, -7.72236734628677368164e-02) (111, -2.26370811462402343750e-01) (48, 1.94277629256248474121e-01) (86, -4.17478233575820922852e-01) (64, -2.23716989159584045410e-01) (103, -3.76012146472930908203e-01) (47, 4.20200154185295104980e-02) (98, 1.47996358573436737061e-02) (101, -3.70151847600936889648e-02) (80, -1.02857798337936401367e-01) (75, 1.54269203543663024902e-01) (61, 2.86275744438171386719e-01) (32, -9.52544435858726501465e-02) (21, 7.25691094994544982910e-02) (43, -7.10158273577690124512e-02) (73, -1.33901119232177734375e-01) (12, -4.78685125708580017090e-02) (28, 5.05540296435356140137e-02) (95, 8.88074561953544616699e-02) (82, 8.50923061370849609375e-02) (88, 1.70478612184524536133e-01) (94, -2.73111667484045028687e-02) (24, -2.77933273464441299438e-02) (111, -1.66795268654823303223e-01) (12, 1.41476228833198547363e-01) (51, 2.18282365798950195312e+00) (61, -2.67435163259506225586e-01) (90, -3.31706926226615905762e-03) (78, -3.06229703128337860107e-02) (76, -3.06327551603317260742e-01) (103, -5.99455654621124267578e-01) (45, -2.40234541893005371094e+00) (20, 1.52057814598083496094e+00) (38, -1.38694465160369873047e-01) (83, 2.11248874664306640625e-01) (85, -8.07696878910064697266e-02) (102, -8.17080959677696228027e-03) (88, 3.25739294290542602539e-01) (23, 7.33753368258476257324e-02) (30, 1.15123122930526733398e-01) (72, 1.72764286398887634277e-01) (60, 3.15647393465042114258e-01) (109, -2.24954175949096679688e+00) (93, 1.94656401872634887695e-01) (111, 8.01676884293556213379e-02) (16, 1.20480048656463623047e+00) (60, -1.37380838394165039062e-01) (72, 1.64375156164169311523e-01) (39, -2.40152209997177124023e-01) (104, 1.83233991265296936035e-01) (95, -2.61628217995166778564e-02) (83, 5.49169629812240600586e-02) (18, 3.18353235721588134766e-01) (98, -7.69164681434631347656e-01) (81, -2.77926206588745117188e-01) (79, 2.62725614011287689209e-02) (109, 1.84112465381622314453e+00) (27, -8.23242378234863281250e+00) (74, -2.84422397613525390625e+00) (67, 1.20331361889839172363e-01) (87, -2.59452939033508300781e-01) (54, 6.02327734231948852539e-02) (12, 5.25911301374435424805e-02) (70, 2.77908921241760253906e-01) (29, -3.00755232572555541992e-01) (111, 2.32761487364768981934e-01) (14, 1.44728899002075195312e-01) (31, 4.07856293022632598877e-02) (47, 1.24652869999408721924e-01) (55, 2.35070660710334777832e-01) (63, 1.63394808769226074219e-01) (91, 4.24881316721439361572e-02) (64, 3.68290096521377563477e-01) (95, 1.94443300366401672363e-01) (13, 1.90700635313987731934e-01) (17, -2.90522098541259765625e-01) (65, -1.34850129485130310059e-01) (66, 4.95397485792636871338e-02) (93, -3.98033531382679939270e-03) (42, -6.53111860156059265137e-02) (89, 1.44457146525382995605e-02) (79, -2.98261996358633041382e-02) (73, 6.21271654963493347168e-02) (83, 1.14948667585849761963e-01) (27, -7.89295101165771484375e+00) (15, -9.48574617505073547363e-02) (111, -1.56659260392189025879e-01) (32, -2.79318124055862426758e-01) (66, -1.74446627497673034668e-01) (75, 3.07018190622329711914e-01) (56, -6.50573614984750747681e-03) (92, 7.55845010280609130859e-02) (102, -2.75948077440261840820e-01) (44, 1.51827663183212280273e-01) (97, 4.27637919783592224121e-02) (82, 3.11741918325424194336e-01) (77, 2.93989986181259155273e-01) (59, 1.30400925874710083008e-01) (19, 1.95294976234436035156e-01) (61, 2.05192547291517257690e-02) (35, 7.80723243951797485352e-02) (108, 5.78072547912597656250e-01) (100, 3.80106978118419647217e-02) (69, 4.39102426171302795410e-02) (42, 2.73420065641403198242e-01) (57, 2.57728189229965209961e-01) (15, 3.06300401687622070312e-01) (111, 4.23803567886352539062e-01) (77, 1.44085228443145751953e-01) (101, 4.48729485273361206055e-01) (85, 1.04877576828002929688e+01) (53, 4.18976783752441406250e+00) (83, 2.79735445976257324219e-01) (55, -3.42898488044738769531e-01) (23, 1.85500606894493103027e-01) (21, 5.41371002197265625000e+01) (12, 8.79981964826583862305e-02) (71, 2.42688819766044616699e-01) (58, -2.66635954380035400391e-01) (49, 8.95238295197486877441e-02) (106, -2.73593497276306152344e+00) (76, -1.98870487213134765625e+01) (95, 2.99724131822586059570e-01) (64, 7.99185276031494140625e-01) (67, 5.18194675445556640625e-01) (98, 9.96791267395019531250e+00) (88, 1.83434545993804931641e-01) (97, 1.30630418658256530762e-01) (111, 2.44013324379920959473e-01) (49, 1.01863071322441101074e-02) (57, 5.54074668884277343750e+00) (65, 4.54413205385208129883e-01) (99, -2.20221072435379028320e-01) (102, -1.18449598550796508789e-01) (97, -1.83781653642654418945e-01) (24, 2.73846477270126342773e-01) (31, 1.15595906972885131836e-01) (34, 1.32894921302795410156e+00) (70, -5.66263459622859954834e-02) (94, 2.48407162725925445557e-02) (76, 1.77403783798217773438e+00) (91, 4.77555803954601287842e-02) (46, 5.03096580505371093750e-01) (39, -3.12961578369140625000e-01) (75, -7.93033838272094726562e-02) (18, 1.93371653556823730469e-01) (84, -8.15910577774047851562e-01) (87, 6.15150511264801025391e-01) (35, -1.75337977707386016846e-02) (50, 8.07578945159912109375e+00) (111, 6.43226653337478637695e-02) (52, 3.11242759227752685547e-01) (93, 9.80310365557670593262e-02) (44, -4.62380284443497657776e-03) (101, 2.83480316400527954102e-01) (102, 1.41026154160499572754e-01) (86, -2.83617556095123291016e-01) (30, -5.81165216863155364990e-02) (72, -5.72131752967834472656e-01) (100, 6.74722203984856605530e-03) (67, -1.74770057201385498047e-02) (70, -4.06137928366661071777e-02) (32, 5.11455357074737548828e-01) (62, 4.52959597110748291016e-01) (37, 2.44074082374572753906e+00) (20, 1.43679547309875488281e+00) (34, 3.95288538932800292969e+00) (87, 1.99619513005018234253e-02) (49, 1.16518646478652954102e-01) (78, -9.67617034912109375000e-02) (39, -7.50460624694824218750e-02) (111, 2.27513574063777923584e-02) (11, 1.07525405883789062500e+01) (21, 3.76372128725051879883e-01) (92, -1.86192929744720458984e-01) (51, 2.87107887268066406250e+01) (20, 6.87754297256469726562e+00) (19, 9.31273326277732849121e-02) (43, -1.16948612034320831299e-01) (44, 4.48281288146972656250e+00) (17, -4.19053411483764648438e+00) (14, 1.67984561920166015625e+01) (40, 3.43462491035461425781e+00) (38, 2.33643126487731933594e+00) (85, 3.72511774301528930664e-01) (88, 7.16596937179565429688e+00) (94, 1.80414184927940368652e-01) (34, 3.26554336547851562500e+01) (47, -7.42808198928833007812e+00) (42, 3.62859159708023071289e-01) (64, 1.64637887477874755859e+00) (41, -6.31593465805053710938e-01) (111, -8.60646516084671020508e-02) (104, -2.09548637270927429199e-01) (80, 6.35161685943603515625e+00) (65, -2.70109474658966064453e-01) (56, 1.37014538049697875977e-01) (49, 5.15819025039672851562e+00) (106, 1.83562263846397399902e-01) (75, 3.56912404298782348633e-01) (18, 1.04857176542282104492e-01) (61, 3.12940578460693359375e+01) (101, -3.15747894346714019775e-02) (48, 1.88495680689811706543e-01) (95, -8.26117768883705139160e-02) (100, 9.72635459899902343750e+00) (88, 1.70578569173812866211e-01) (16, 2.12159347534179687500e+00) (91, 1.04810290527343750000e+03) (60, 4.47269935607910156250e+01) (14, 1.25696510076522827148e-01) (23, 3.01454961299896240234e-01) (26, 3.05075228214263916016e-01) (111, 3.08877706527709960938e-01) (40, -9.21462997794151306152e-02) (80, 1.20830267667770385742e-01) (78, 9.20988917350769042969e-02) (50, -7.78318494558334350586e-02) (52, 3.58055867254734039307e-02) (100, 1.26633435487747192383e-01) (56, 2.06381887197494506836e-01) (34, 2.47743204236030578613e-01) (60, 1.95439755916595458984e-01) (32, 1.93197622895240783691e-01) (62, 9.27094090729951858521e-03) (84, -2.81969495117664337158e-02) (17, 5.55264204740524291992e-02) (99, -8.68713378906250000000e-01) (49, -1.97990145534276962280e-03) (69, -5.55914461612701416016e-01) (37, -6.62962198257446289062e-02) (33, 1.25598028302192687988e-01) (68, 4.96413290500640869141e-01) (11, 1.49036988615989685059e-01) (111, -1.33598878979682922363e-01) (39, 7.89416491985321044922e-01) (63, -5.51633894443511962891e-01) (86, -1.02629148960113525391e+00) (27, 1.54018597677350044250e-02) (36, 1.44524246454238891602e-01) (70, 1.15322187542915344238e-01) (56, 2.23320871591567993164e-01) (104, 2.85990148782730102539e-01) (77, -6.71690981835126876831e-03) (92, 1.33487451821565628052e-02) (45, 1.09929472208023071289e-01) (55, -1.23480260372161865234e-01) (50, -6.74730241298675537109e-02) (46, -5.40786683559417724609e-01) (84, 2.39415973424911499023e-01) (35, 1.71757675707340240479e-02) (100, 1.66269385814666748047e+00) (109, 1.85106837749481201172e+00) (101, 4.24122363328933715820e-02) (64, -2.86737829446792602539e-01) (20, 2.43495739996433258057e-02) (162, -2.55440291948616504669e-03) (144, -6.61812871694564819336e-02) (135, -1.78072944283485412598e-01) (142, 2.31570899486541748047e-01) (143, 3.35098177194595336914e-01) (141, -3.13592106103897094727e-02) (147, 1.86957538127899169922e-01) (115, 1.53945177793502807617e-01) (117, -2.19587370753288269043e-01) (114, 1.97955846786499023438e-01) (138, -6.35450854897499084473e-02) (162, 2.82611399888992309570e-01) (123, 3.23492497205734252930e-01) (153, -2.33592808246612548828e-01) (150, -1.44237846136093139648e-01) (114, 2.55993217229843139648e-01) (138, -6.90956413745880126953e-02) (149, 2.80846834182739257812e-01) (161, -1.31956627592444419861e-02) (151, -1.87597900629043579102e-01) (132, 5.92646658420562744141e-01) (145, 2.10319980978965759277e-01) (162, -1.34582206606864929199e-01) (134, 2.29080632328987121582e-01) (130, 7.57694393396377563477e-02) (159, 3.53113472461700439453e-01) (123, 7.71550275385379791260e-03) (115, 3.97787503898143768311e-02) (147, -2.04646855592727661133e-01) (142, 1.62001416087150573730e-01) (135, -4.55108545720577239990e-02) (146, 4.05896008014678955078e-01) (114, 1.40182211995124816895e-01) (162, 2.40435957908630371094e-01) (161, 5.35906292498111724854e-02) (137, 6.34346976876258850098e-02) (156, 4.97668310999870300293e-02) (160, -3.71940732002258300781e-01) (138, -4.70290258526802062988e-02) (119, 4.70000177621841430664e-01) (114, 4.00726884603500366211e-01) (124, 2.08666533231735229492e-01) (136, 2.76331633329391479492e-01) (148, -5.90519845485687255859e-01) (162, 1.02492749691009521484e-01) (151, -1.90530955791473388672e-01) (159, -7.34789669513702392578e-02) (122, -1.44258394837379455566e-01) (154, 3.07519823312759399414e-01) (114, 4.10587340593338012695e-02) (112, 2.82279103994369506836e-01) (116, 1.01225815713405609131e-01) (113, 5.50757527351379394531e-01) (155, 3.51922631263732910156e-01) (148, 1.76259368658065795898e-01) (162, -1.51256114244461059570e-01) (141, 9.48282182216644287109e-01) (160, -8.75733494758605957031e-02) (155, -3.77801656723022460938e-01) (140, -9.61283370852470397949e-02) (151, 1.41819953918457031250e-01) (133, -1.55125033855438232422e+00) (135, 5.42966723442077636719e-01) (142, -1.02672731876373291016e+00) (158, 2.04235601425170898438e+00) (146, 2.51843124628067016602e-01) (162, -1.37193454429507255554e-02) (121, 2.27734684944152832031e-01) (133, -1.51770755648612976074e-01) (161, -2.69175767898559570312e-01) (135, 6.56395927071571350098e-02) (130, 2.46558994054794311523e-01) (156, 1.55775606632232666016e-01) (152, -5.56408107280731201172e-01) (113, -1.64714217185974121094e-01) (125, -1.27421781420707702637e-01) (122, 2.14511677622795104980e-01) (162, 1.31293058395385742188e-01) (114, 1.87925755977630615234e-01) (122, -9.07135456800460815430e-02) (133, 2.77751952409744262695e-01) (126, 2.22070068120956420898e-02) (157, 1.04796998202800750732e-01) (147, -2.09781676530838012695e-02) (134, 1.89271852374076843262e-01) (130, 3.46886664628982543945e-01) (125, 2.55456566810607910156e-01) (132, 1.51009306311607360840e-01) (162, -1.89002707600593566895e-01) (123, 1.52319163084030151367e-01) (137, 2.30437919497489929199e-01) (121, -8.36014226078987121582e-02) (120, -5.27120865881443023682e-02) (154, -6.41038268804550170898e-02) (136, 3.66215914487838745117e-01) (153, 1.73931032419204711914e-01) (161, 9.64066922664642333984e-01) (148, -1.86014454811811447144e-02) (139, 2.96923160552978515625e-01) (162, -3.22007685899734497070e-02) (152, -8.69724452495574951172e-01) (159, -9.94360685348510742188e-01) (118, 5.24284896850585937500e+01) (127, -6.81029796600341796875e-01) (143, 4.31251764297485351562e-01) (144, 6.78374767303466796875e-02) (145, 2.17503830790519714355e-01) (116, 2.07388326525688171387e-02) (121, -2.56372779607772827148e-01) (138, -7.98328065872192382812e+00) (162, 1.17255663499236106873e-02) (139, 9.37111601233482360840e-02) (130, -9.82107818126678466797e-02) (155, -5.59072084724903106689e-02) (129, 3.62291455268859863281e-01) (121, 1.95266023278236389160e-01) (146, 2.05809235572814941406e+00) (147, -4.06079947948455810547e-01) (127, -1.09693696722388267517e-02) (154, 7.52674722671508789062e+00) (134, 2.58011549711227416992e-01) (162, 1.33623247966170310974e-02) (114, -2.48151347041130065918e-01) (129, -3.03261280059814453125e-02) (152, 1.79147452116012573242e-01) (128, 2.26797759532928466797e-01) (146, -6.12228810787200927734e-02) (139, -4.41520400345325469971e-02) (151, 2.61867284774780273438e-01) (144, -5.38195930421352386475e-02) (113, -8.85712742805480957031e-01) (127, 1.20988942682743072510e-01) (124, -7.24709331989288330078e-01) (162, 5.27999252080917358398e-02) (153, -8.99659767746925354004e-02) (150, 1.31818220019340515137e-01) (130, 1.06567537784576416016e+00) (115, 6.77714422345161437988e-02) (137, 3.87838512659072875977e-01) (136, 3.93839657306671142578e-01) (151, -2.80628707259893417358e-02) (134, -5.34584969282150268555e-02) (129, 1.76647100597620010376e-02) (112, 9.78000238537788391113e-02) (162, 3.09850335121154785156e-01) (160, 1.41424345970153808594e+00) (116, 1.32475972175598144531e+00) (119, -2.31644898653030395508e-01) (115, -2.54675913602113723755e-02) (141, -3.92456233501434326172e-01) (114, 2.88534671068191528320e-01) (123, -2.74796813726425170898e-01) (125, 1.08817562460899353027e-01) (157, 4.85360831022262573242e-01) (124, 1.77716708183288574219e+00) (162, 1.09321445226669311523e-01) (147, -1.66086144745349884033e-02) (128, 1.48395895957946777344e-01) (121, -3.16808313131332397461e-01) (156, -1.39184007421135902405e-02) (126, -1.14322796463966369629e-01) (138, -3.77127975225448608398e-02) (123, 9.11455750465393066406e-02) (155, 1.29314616322517395020e-01) (158, -3.09177756309509277344e-01) (115, 2.62413084506988525391e-01) (162, 8.53570085018873214722e-03) (140, 5.75274229049682617188e-01) (141, -6.96563482284545898438e+00) (157, 2.33938768506050109863e-01) (119, -8.83351862430572509766e-01) (146, -4.18651610612869262695e-01) (120, -1.74222216010093688965e-01) (125, -1.03126846253871917725e-01) (160, -3.00052309036254882812e+00) (145, -3.67621749639511108398e-01) (133, 2.33326897025108337402e-01) (162, -9.75880324840545654297e-02) (128, 1.97386756539344787598e-01) (115, -1.41747802495956420898e-01) (157, -6.47684326171875000000e+01) (155, 1.64319419860839843750e+00) (135, 2.64669656753540039062e-01) (152, 2.23727893829345703125e+00) (119, 3.67857050895690917969e+00) (125, 1.46129935979843139648e-01) (142, -1.33396416902542114258e-01) (149, 7.86888040602207183838e-03) (162, 1.55097693204879760742e-01) (125, 1.72565639019012451172e-01) (119, 1.13269738852977752686e-01) (128, 2.08556786179542541504e-01) (161, 2.19146564602851867676e-01) (160, 9.71557050943374633789e-02) (146, 2.67899651080369949341e-02) (152, -1.13239318132400512695e-01) (155, 5.22143006324768066406e-01) (118, 8.08149129152297973633e-02) (137, 1.41532029956579208374e-02) (162, 6.99821934103965759277e-02) (140, -3.05554747581481933594e-01) (147, 5.68679310381412506104e-02) (145, 1.65990829467773437500e-01) (157, 2.17899270355701446533e-02) (131, 4.69589605927467346191e-02) (151, 2.38094002008438110352e-01) (141, 2.80680954456329345703e-01) (158, -5.33034920692443847656e-01) (118, 1.25070944428443908691e-01) (121, 1.68734341859817504883e-01) (162, 2.73551136255264282227e-01) (123, -1.05475641787052154541e-01) (149, 3.02268534898757934570e-01) (136, 3.06976437568664550781e-01) (160, 1.77496805787086486816e-01) (122, 3.24958443641662597656e-01) (154, -8.88887405395507812500e-01) (120, 3.65055382251739501953e-01) (144, -1.60459931939840316772e-02) (148, -5.09354054927825927734e-01) (129, -6.54586479067802429199e-02) (162, -5.01787886023521423340e-02) (116, 9.55467224121093750000e-02) (147, 1.93230673670768737793e-01) (150, 1.77085064351558685303e-02) (134, -1.75706669688224792480e-01) (123, -1.39440461993217468262e-01) (132, 1.42756924033164978027e-01) (127, -5.92145835980772972107e-03) (121, 4.56056088209152221680e-01) (126, -7.71840512752532958984e-02) (141, 2.61306345462799072266e-01) (162, -2.57126152515411376953e-01) (142, -3.56806889176368713379e-02) (119, 2.54762798547744750977e-01) (137, 1.01551674306392669678e-02) (131, 1.39707848429679870605e-01) (151, 3.21849316358566284180e-01) (160, 2.90862828493118286133e-01) (113, 2.86278516054153442383e-01) (145, 1.85116499662399291992e-01) (155, 1.78214505314826965332e-01) (120, -4.69922507181763648987e-03) (162, 2.31424272060394287109e-01) (143, -1.93871581554412841797e+00) (146, -1.20585694909095764160e-01) (118, 5.10356235504150390625e+00) (132, -2.20756888389587402344e+00) (157, 2.97931581735610961914e-01) (122, -4.08748817443847656250e+00) (131, 3.92876923084259033203e-01) (114, -3.76040004193782806396e-02) (120, 5.45234346389770507812e+00) (123, -6.21654808521270751953e-01) (160, 6.20561838150024414062e-01) (162, 2.10134357213973999023e-01) (118, -6.59074932336807250977e-02) (138, -1.67889058589935302734e-01) (147, 1.87889650464057922363e-01) (125, 2.84929305315017700195e-01) (157, 8.23367834091186523438e-02) (146, -1.98169797658920288086e-01) (148, 1.83148942887783050537e-02) (122, 3.20206433534622192383e-02) (133, 1.08477011322975158691e-01) (142, 8.54337990283966064453e-01) (162, -2.63370592147111892700e-02) (121, -6.44016087055206298828e-01) (132, -2.07017138600349426270e-01) (147, 3.18406462669372558594e-01) (124, 7.41037726402282714844e-01) (115, 4.45827454328536987305e-01) (144, -1.35344669222831726074e-01) (114, 4.26359266042709350586e-01) (139, 1.77505955100059509277e-01) (122, 2.05641344189643859863e-01) (116, 2.42519065737724304199e-01) (162, 1.63627322763204574585e-02) (122, 1.43298313021659851074e-01) (118, 7.88596421480178833008e-02) (133, 3.28791111707687377930e-01) (157, 1.84118479490280151367e-01) (150, -1.02366231381893157959e-01) (128, -2.34654486179351806641e-01) (112, 4.55898158252239227295e-02) (144, 7.15432362630963325500e-03) (116, 8.15384447574615478516e-01) (126, 1.11942425370216369629e-01) (162, 1.00102037191390991211e-01) (147, 4.54773724079132080078e-01) (134, -1.17559820413589477539e-01) (142, -1.72512102872133255005e-02) (152, 1.14792537689208984375e+00) (119, 8.44520032405853271484e-02) (120, 5.83381533622741699219e-01) (125, -3.30240987241268157959e-02) (130, 4.45171087980270385742e-01) (141, -6.01159274578094482422e-01) (135, 5.79152345657348632812e-01) (162, 1.70829489827156066895e-01) (113, 1.80426463484764099121e-01) (158, 2.40946695208549499512e-01) (142, 2.82362967729568481445e-01) (151, 2.24851787090301513672e-01) (125, -1.12680599093437194824e-01) (124, 8.33024606108665466309e-02) (133, 1.35314926505088806152e-01) (117, 9.20785740017890930176e-02) (128, 2.83876210451126098633e-01) (121, 3.13706457614898681641e-01) (162, -1.20645098388195037842e-01) (149, 5.63951539993286132812e+00) (158, -1.19593083858489990234e-01) (126, 2.79587954282760620117e-01) (150, 1.86717569828033447266e-01) (118, 4.06789571046829223633e-01) (122, -4.85757559537887573242e-01) (142, -3.93162280321121215820e-01) (154, 1.43537817001342773438e+01) (151, 2.65723061561584472656e+00) (146, -3.43675160408020019531e+00) (162, -1.56458139419555664062e-01) (157, 1.83311805129051208496e-01) (152, 6.85351863503456115723e-02) (150, 6.54692128300666809082e-02) (116, -3.20301032066345214844e+00) (133, 1.01435426622629165649e-02) (158, -7.15556323528289794922e-01) (114, 3.19697111845016479492e-02) (148, 6.11648082733154296875e-01) (125, 1.65065407752990722656e-01) (127, -1.39846548438072204590e-01) (162, 1.63657531142234802246e-01) (160, 1.33452117443084716797e+00) (137, 4.77668941020965576172e-01) (144, -2.90840268135070800781e+00) (142, -5.82769453525543212891e-01) (134, 6.51460587978363037109e-01) (136, 1.44357103854417800903e-02) (139, -5.49620799720287322998e-02) (135, -1.07719779014587402344e+00) (148, 2.78602886199951171875e+00) (114, -3.52742671966552734375e-01) (162, 1.70982107520103454590e-01) (136, -3.98283123970031738281e-01) (113, -3.49454849958419799805e-01) (135, 3.24942946434020996094e-01) (142, 2.65834182500839233398e-01) (132, 9.23263311386108398438e-01) (161, -4.37582321465015411377e-02) (114, 2.51348233222961425781e+00) (131, -3.27107340097427368164e-01) (145, 5.35443425178527832031e-01) (154, -5.75562417507171630859e-01) (162, 2.34528794884681701660e-01) (146, -3.36854755878448486328e-02) (153, -3.28703880310058593750e+00) (138, -3.03551030158996582031e+00) (133, 1.03173255920410156250e+01) (157, -1.49217939376831054688e+00) (117, 8.60214084386825561523e-02) (152, 1.59457349777221679688e+00) (113, -2.02784228324890136719e+00) (114, 8.01430892944335937500e+00) (127, 2.51441717147827148438e+00) (162, 2.18513663858175277710e-02) (128, -6.21361017227172851562e-01) (140, 4.23645004630088806152e-02) (147, -4.49830174446105957031e-01) (139, 1.01048484444618225098e-01) (113, 1.55741381645202636719e+00) (116, -6.69873058795928955078e-01) (138, 3.24914097785949707031e+00) (132, -1.53625953197479248047e+00) (158, -1.95225083827972412109e+00) (136, -1.55229195952415466309e-01) (137, 1.49046850204467773438e+00) (162, 2.18608424067497253418e-01) (121, -3.83388936519622802734e-01) (137, 3.92584472894668579102e-01) (132, 3.30729961395263671875e-01) (117, -6.45383521914482116699e-02) (141, -9.02474880218505859375e-01) (113, 7.89540484547615051270e-02) (114, 1.51554501056671142578e+00) (146, 3.43852758407592773438e-01) (124, 3.60092401504516601562e-01) (148, -2.99193406105041503906e+00) (162, -6.18918724358081817627e-02) (121, -9.18392598628997802734e-01) (150, -1.57933220267295837402e-01) (156, 1.22395880520343780518e-01) (138, 4.18891869485378265381e-02) (159, 4.60110791027545928955e-02) (114, 9.71931405365467071533e-03) (126, -1.70016497373580932617e-01) (139, 4.48310285806655883789e-01) (148, -7.12141208350658416748e-03) (141, 7.88572505116462707520e-02) (162, 2.10778072476387023926e-01) (153, 1.67277371883392333984e+00) (155, 7.19814658164978027344e-01) (135, -5.02761960029602050781e-01) (122, -7.61368945240974426270e-02) (138, 5.70070445537567138672e-01) (132, -9.04025793075561523438e-01) (149, 1.79419293999671936035e-01) (123, 2.53873825073242187500e-01) (125, 5.12790322303771972656e-01) (130, 4.66591215133666992188e+00) (162, 2.31786400079727172852e-01) (148, -3.58602833747863769531e+00) (144, 2.26459547877311706543e-01) (122, 9.02049914002418518066e-02) (153, 3.03314914703369140625e+01) (117, 4.57172870635986328125e-01) (145, 3.65136265754699707031e-01) (119, 5.40370702743530273438e-01) (127, -1.15158461034297943115e-01) (118, -1.70437857508659362793e-01) (147, 7.62049406766891479492e-02) (162, 7.54404664039611816406e-02) (121, 1.35764092206954956055e-01) (149, 2.29060322046279907227e-01) (139, 1.36301860213279724121e-01) (154, -4.78528857231140136719e-01) (138, 2.04869210720062255859e-01) (124, -1.58491447567939758301e-01) (126, 5.57665109634399414062e-01) (160, -5.25528229773044586182e-02) (145, -5.99100142717361450195e-02) (151, -2.56054848432540893555e-01) (162, 1.38419345021247863770e-01) (123, -1.13450353965163230896e-02) (132, -1.87834560871124267578e-01) (127, -1.73155173659324645996e-01) (116, 4.10911053419113159180e-01) (157, 4.60374057292938232422e-01) (154, 1.84780210256576538086e-01) (125, 1.59493893384933471680e-01) (149, 2.88715422153472900391e-01) (119, 2.41735111922025680542e-02) (159, 3.69631886482238769531e-01) (162, 1.25471502542495727539e-01) (138, -6.87768533825874328613e-02) (155, -7.80803803354501724243e-03) (144, -1.37831652164459228516e+00) (131, -6.22019672393798828125e+00) (149, 1.68458804488182067871e-01) (159, 2.05752253532409667969e-02) (145, 1.74146275967359542847e-02) (118, -3.86354920919984579086e-04) (146, -3.94797563552856445312e+00) (120, -3.33458453416824340820e-01) (162, -1.77663013339042663574e-01) (120, 1.59269496798515319824e-01) (158, -2.16073676943778991699e-01) (146, 4.46853935718536376953e-01) (114, 2.59993612766265869141e-01) (150, -2.98303961753845214844e-02) (151, 5.85513981059193611145e-03) (152, -3.40948365628719329834e-02) (145, -8.68509113788604736328e-02) (140, 1.73150569200515747070e-01) (113, 1.46841436624526977539e-01) (162, 2.95843090862035751343e-02) (150, -9.87256467342376708984e-02) (116, 3.28460663557052612305e-01) (123, -1.66295040398836135864e-02) (134, 3.47165703773498535156e-01) (132, 6.65506124496459960938e-01) (151, -4.91008311510086059570e-01) (143, -2.31272190809249877930e-01) (133, 1.64843499660491943359e+00) (156, -1.96227326989173889160e-01) (144, -7.91020691394805908203e-03) (162, 5.64455464482307434082e-02) (117, 1.26537895202636718750e+00) (133, -1.52113333344459533691e-01) (149, 4.62031394243240356445e-01) (114, 1.28794774413108825684e-01) (128, 2.00814381241798400879e-01) (124, -3.55238258838653564453e-01) (123, 1.84729009866714477539e-01) (145, 4.01927411556243896484e-01) (136, -6.32180154323577880859e-01) (127, 3.56414377689361572266e-01) (162, -1.10052391886711120605e-01) (130, -4.61801916360855102539e-01) (136, 1.42802849411964416504e-01) (129, 2.65569865703582763672e-01) (132, 3.63098531961441040039e-02) (143, 9.56125110387802124023e-02) (144, 3.56612861156463623047e-01) (157, 2.15029692649841308594e+00) (116, -9.03146982192993164062e-01) (124, -7.92516395449638366699e-02) (117, 7.75903522968292236328e-01) (155, -1.57737672328948974609e-01) (162, 2.27229334414005279541e-02) (124, -3.58249402046203613281e+00) (132, 1.31132245063781738281e+00) (138, -7.44677603244781494141e-01) (146, -4.12775230407714843750e+00) (161, 9.64408814907073974609e-02) (155, -1.83519124984741210938e-01) (136, -2.81309541314840316772e-02) (157, 5.84432601928710937500e-01) (117, 9.44682538509368896484e-01) (112, -1.32739984989166259766e+00) (162, 9.48881357908248901367e-02) (130, -7.92423367500305175781e-01) (133, -1.33688017725944519043e-01) (122, 2.62387990951538085938e-01) (148, -1.60640463232994079590e-01) (159, 1.76082528196275234222e-03) (149, -8.44654813408851623535e-02) (153, 1.84299677610397338867e-01) (112, 1.50021299719810485840e-01) (124, -1.20111100375652313232e-01) (139, 2.86745220422744750977e-01) (162, 7.37969800829887390137e-02) (130, 2.25146598815917968750e+01) (129, 4.51715737581253051758e-02) (134, 4.91500012576580047607e-02) (141, -6.69669389724731445312e-01) (115, 1.56634539365768432617e-01) (126, -4.50040549039840698242e-01) (143, -5.84446229040622711182e-02) (116, 1.66188573837280273438e+00) (118, 1.80845096707344055176e-01) (132, -1.43878042697906494141e-01) (162, -2.97106075286865234375e+00) (115, -2.71028661727905273438e+00) (144, -2.96092009544372558594e+00) (116, 9.74440127611160278320e-02) (113, 7.42220973968505859375e+00) (145, 1.30560994148254394531e+00) (157, 4.39708852767944335938e+00) (120, -2.55213756561279296875e+01) (141, 7.70539951324462890625e+00) (143, 6.41269350051879882812e+00) (142, 3.95921796560287475586e-01) (162, 7.45863392949104309082e-02) (145, 3.61857563257217407227e-02) (116, 3.67430627346038818359e-01) (161, 1.78931891918182373047e-01) (113, -2.94605176895856857300e-02) (117, 9.78633463382720947266e-02) (114, 2.02898085117340087891e-01) (159, 1.48846074938774108887e-01) (150, 7.60634839534759521484e-02) (137, -7.97785148024559020996e-02) (129, 6.47895112633705139160e-02) (162, 2.89220690727233886719e-01) (124, 2.88194966316223144531e+00) (122, -3.45453763008117675781e+00) (120, -2.72295212745666503906e+00) (141, -1.94097650051116943359e+00) (155, -5.97981214523315429688e-02) (135, 7.85314500331878662109e-01) (153, 2.20407158136367797852e-01) (129, 2.71831095218658447266e-01) (119, 4.55885648727416992188e+00) (127, 5.94443261623382568359e-01) (162, -1.81334882974624633789e-01) (157, 1.26266729831695556641e+00) (138, 1.98771730065345764160e-01) (153, -1.72464549541473388672e-02) (146, 7.43804275989532470703e-01) (160, 1.48714765906333923340e-01) (126, -5.80200031399726867676e-02) (154, 3.77921730279922485352e-01) (152, -2.26651458069682121277e-03) (127, -2.51182287931442260742e-01) (136, 8.89537557959556579590e-02) (162, -4.52348947525024414062e-01) (123, -1.06289558112621307373e-01) (147, -5.46053218841552734375e+00) (148, -6.91861212253570556641e-01) (132, 1.86245727539062500000e+00) (115, -6.16949275135993957520e-02) (124, 1.44670829176902770996e-01) (125, 1.08780364990234375000e+01) (158, 2.04299777746200561523e-01) (155, -8.04135948419570922852e-02) (143, -5.96714243292808532715e-02) (162, 9.93883088231086730957e-02) (148, -3.35140347480773925781e+00) (134, -1.41787352040410041809e-02) (115, 5.99623620510101318359e-02) (129, 2.92129218578338623047e-02) (117, 1.31385713815689086914e-01) (119, 9.35383617877960205078e-01) (147, -1.11301913857460021973e-01) (116, 1.07977094650268554688e+01) (136, 3.12407184392213821411e-02) (124, 1.60943102836608886719e+00) (162, -1.57274261116981506348e-01) (138, -6.74868822097778320312e-02) (115, 1.31239220499992370605e-02) (140, -4.03991341590881347656e-01) (123, 7.07625448703765869141e-02) (146, 3.98613691329956054688e-01) (149, -3.73425483703613281250e-02) (152, 2.35809445381164550781e-01) (124, 2.80645042657852172852e-02) (128, 2.72744834423065185547e-01) (143, 3.35607022047042846680e-01) (162, 2.32293441891670227051e-01) (116, 1.21627651154994964600e-01) (124, -9.66216802597045898438e-01) (118, 3.18365156650543212891e-01) (135, 5.35281002521514892578e-01) (128, -2.09158688783645629883e-01) (140, -3.66968326270580291748e-02) (125, 2.42302983999252319336e-01) (141, -1.44850850105285644531e-01) (123, 1.60432606935501098633e-01) (158, -4.03281480073928833008e-01) (151, -1.45222283899784088135e-02) (162, 1.91537648439407348633e-01) (150, 9.12803187966346740723e-02) (152, 3.07162404060363769531e+00) (129, -2.30693086981773376465e-01) (161, -7.13857635855674743652e-02) (139, 1.93615004420280456543e-01) (144, -1.88478723168373107910e-01) (128, -7.49663770198822021484e-01) (114, 5.26155054569244384766e-01) (153, 4.03456764221191406250e+01) (120, 3.20721000432968139648e-01) (162, -4.01282943785190582275e-02) (158, -3.21474969387054443359e-01) (151, 9.05371084809303283691e-02) (159, 1.77487414330244064331e-02) (147, 1.83850135654211044312e-02) (143, 1.48401665687561035156e+00) (115, 5.74113279581069946289e-02) (127, 8.80583226680755615234e-02) (140, 1.53113096952438354492e-01) (114, 9.61708799004554748535e-02) (148, 4.25172388553619384766e-01) (162, 8.32020789384841918945e-02) (114, -7.64647945761680603027e-02) (120, -4.05326187610626220703e-01) (139, -2.50202957540750503540e-02) (125, -1.28497973084449768066e-01) (138, 4.33319956064224243164e-01) (152, -1.45854175090789794922e+00) (148, 1.08707034587860107422e+00) (155, 1.26864448189735412598e-01) (157, 4.22147549688816070557e-02) (142, 5.02672314643859863281e-01) (162, -1.38157355785369873047e+00) (123, -3.17585945129394531250e-01) (141, -2.15884327888488769531e+00) (152, -6.99932813644409179688e-01) (121, -1.36768703460693359375e+01) (118, -6.83835887908935546875e+00) (147, -1.58264434337615966797e+00) (130, 2.14819625020027160645e-01) (136, 5.77699244022369384766e-01) (132, 2.50761795043945312500e+00) (156, -7.73222386837005615234e-01) (162, -4.93822135031223297119e-02) (134, 1.99111208319664001465e-01) (140, 9.93675649166107177734e-01) (149, -1.42455130815505981445e-01) (129, 5.34727334976196289062e-01) (122, 1.83991089463233947754e-01) (145, -3.18616926670074462891e-01) (154, 8.02711009979248046875e+00) (117, -2.35486328601837158203e-01) (146, 1.51295328140258789062e+00) (123, -2.89112418889999389648e-01) (162, 3.03828120231628417969e-02) (147, 1.61250662058591842651e-02) (159, 4.03594195842742919922e-01) (113, 1.34437114000320434570e-01) (125, 7.20672234892845153809e-02) (136, 8.75155702233314514160e-02) (157, 1.89240239560604095459e-02) (156, -3.84545437991619110107e-02) (121, 2.18922927975654602051e-01) (139, 1.54029101133346557617e-01) (154, 1.70022740960121154785e-01) (162, 9.88292992115020751953e-02) (150, 2.81214982271194458008e-01) (141, 1.84123128652572631836e-01) (118, 4.21228781342506408691e-02) (127, -8.71904715895652770996e-02) (139, 8.09287503361701965332e-02) (160, 1.02150350809097290039e-01) (153, -3.00899654626846313477e-01) (128, -1.53046250343322753906e-01) (124, -1.90093469619750976562e+00) (152, 2.26380586624145507812e-01) (162, 2.45389133691787719727e-01) (151, 9.55192446708679199219e-02) (112, 6.12124919891357421875e-01) (140, 5.78288197517395019531e-01) (118, 2.77685046195983886719e-01) (161, 1.05965927243232727051e-01) (147, -2.63243556022644042969e-01) (125, -5.49990177154541015625e-01) (131, 9.09478604793548583984e-01) (152, 2.29146018624305725098e-01) (121, -2.16069936752319335938e+00) (162, 1.96895152330398559570e-01) (159, -3.83098334074020385742e-01) (131, 3.43329846858978271484e-01) (144, 2.45142877101898193359e-01) (136, -3.92441928386688232422e-01) (148, 6.47633790969848632812e-01) (146, -1.05914361774921417236e-01) (140, -1.94855555891990661621e-02) (120, -7.20622062683105468750e-01) (127, 2.80525982379913330078e-01) (153, 1.20955407619476318359e-01) (162, 1.94927453994750976562e-01) (127, -1.55939054489135742188e+01) (137, 1.56508624553680419922e-01) (134, -1.66323490142822265625e+01) (115, -7.45165824890136718750e-01) (144, 1.41692829132080078125e+00) (124, 4.25681877136230468750e+00) (148, -2.75255346298217773438e+00) (125, 1.77500267028808593750e+01) (117, -2.48488575220108032227e-01) (132, -1.17589640617370605469e+00) (162, 1.80875390768051147461e-01) (118, 2.42868870496749877930e-01) (114, -6.94953858852386474609e-01) (119, 2.13338509202003479004e-01) (116, -1.07055768370628356934e-01) (128, 3.05945754051208496094e-01) (154, 5.45315086841583251953e-01) (121, -3.38742822408676147461e-01) (149, 2.06356406211853027344e-01) (150, -1.50654524564743041992e-01) (143, 3.13577391207218170166e-02) (112, -2.55417913198471069336e-01) (162, 2.92434722185134887695e-01) (157, -1.86035662889480590820e-01) (119, 3.78558844327926635742e-01) (151, -8.10448378324508666992e-02) (158, 2.67570436000823974609e-01) (159, 5.48893511295318603516e-02) (153, -3.34523528814315795898e-01) (139, -3.03594142198562622070e-01) (138, -1.21776230633258819580e-01) (145, 2.04348564147949218750e-01) (123, -4.46594655513763427734e-01) (162, -2.76880413293838500977e-02) (137, 2.86076754331588745117e-01) (129, 4.10228580236434936523e-01) (123, 1.81125938892364501953e-01) (134, 9.38158705830574035645e-02) (139, 1.16853982210159301758e-01) (149, -7.25470632314682006836e-02) (125, 5.08409023284912109375e-01) (159, 1.09902858734130859375e+00) (150, 1.24373897910118103027e-01) (126, -1.12439453601837158203e-01) (162, -1.81884825229644775391e-01) (131, -7.27680563926696777344e-01) (135, 5.58590888977050781250e-02) (118, -5.92353753745555877686e-02) (159, 2.84233957529067993164e-01) (115, 1.34229704737663269043e-01) (158, -9.08330529928207397461e-02) (157, 2.15832665562629699707e-01) (119, 1.12220972776412963867e-01) (142, 4.16546791791915893555e-01) (156, 8.05763714015483856201e-03) (162, 1.55598968267440795898e-01) (137, 2.12347395718097686768e-02) (124, -4.53783452510833740234e-01) (135, 4.86850827932357788086e-01) (146, 5.26345260441303253174e-02) (134, 3.64452078938484191895e-02) (121, 9.96760189533233642578e-01) (138, -1.65775313973426818848e-01) (152, 2.32753120362758636475e-02) (144, 6.31493255496025085449e-02) (126, -5.31151175498962402344e-01) (162, -5.33602595329284667969e-01) (144, 1.00669908523559570312e+01) (124, -4.70338201522827148438e+00) (138, -5.66407620906829833984e-01) (134, -1.58271789550781250000e+01) (157, -2.02928471565246582031e+00) (127, -3.55920672416687011719e-01) (131, 5.41597509384155273438e+00) (125, -1.55729508399963378906e+00) (129, 1.13363492488861083984e+00) (135, -1.17466802597045898438e+01) (162, 1.89593791961669921875e-01) (120, -9.47421044111251831055e-02) (128, -1.20587185025215148926e-01) (127, -3.76414619386196136475e-02) (125, -1.40477102249860763550e-02) (114, 1.33960723876953125000e-01) (149, -1.05804157257080078125e+00) (138, 3.08521091938018798828e-01) (137, -2.34028711915016174316e-01) (130, 5.71258842945098876953e-01) (157, 1.01118981838226318359e+00) (162, 2.17653855681419372559e-01) (116, -6.33492887020111083984e-01) (124, 1.95048734545707702637e-01) (115, 1.90396159887313842773e-01) (137, -7.77574926614761352539e-02) (140, 1.86405435204505920410e-01) (119, -2.79307246208190917969e-01) (135, 8.71653482317924499512e-02) (156, 2.70202577114105224609e-01) (158, 1.97594925761222839355e-01) (157, -1.73148363828659057617e-01) (162, -2.51836888492107391357e-02) (156, -1.17832362651824951172e-01) (121, 8.74601125717163085938e-01) (129, 3.35096903145313262939e-02) (149, -1.47114858031272888184e-01) (131, 4.72802966833114624023e-02) (161, -4.26374897360801696777e-02) (160, -2.46350541710853576660e-01) (138, -1.54020702466368675232e-02) (119, -3.68765294551849365234e-02) (153, 8.74733403325080871582e-02) (162, 4.78320010006427764893e-02) (126, 3.36522030830383300781e+00) (153, 4.59243923425674438477e-01) (138, -1.66882610321044921875e+00) (148, -1.26232910156250000000e+00) (159, 1.02783167362213134766e+00) (160, 2.61028315871953964233e-02) (151, 1.14488087594509124756e-01) (117, 8.19215536117553710938e-01) (135, 4.01106983423233032227e-01) (115, -1.03628486394882202148e-01) (162, 5.05594648420810699463e-02) (120, 2.17140272259712219238e-01) (156, 2.98110306262969970703e-01) (155, 1.58075213432312011719e-01) (114, 1.25177532434463500977e-01) (140, 1.44298672676086425781e-01) (117, -7.19246983528137207031e-01) (161, 1.93603247404098510742e-01) (144, 2.20996096730232238770e-01) (122, -3.80435846745967864990e-02) (142, 4.76042479276657104492e-02) (162, 3.85063998401165008545e-02) (121, 5.77281489968299865723e-02) (146, 2.11062803864479064941e-01) (147, -8.46125259995460510254e-02) (125, 4.23785410821437835693e-02) (133, 3.38207185268402099609e-01) (134, 3.11604678630828857422e-01) (112, 1.25576317310333251953e-01) (129, 5.62230497598648071289e-02) (122, 2.32271328568458557129e-01) (113, 1.41923338174819946289e-01) (130, 9.82761383056640625000e-02) (162, -7.25040212273597717285e-02) (154, 4.12519454956054687500e-01) (133, -6.28734081983566284180e-02) (113, 3.31648051738739013672e-01) (143, 4.80392605066299438477e-01) (159, 1.03408686816692352295e-01) (126, 2.91401296854019165039e-01) (127, 2.23083943128585815430e-01) (152, 1.66925191879272460938e-01) (117, -1.14248663187026977539e-01) (122, 3.03766429424285888672e-01) (162, -3.93895953893661499023e-02) (146, -2.12982341647148132324e-01) (152, 2.06074807792901992798e-02) (140, 2.38165318965911865234e-01) (125, 2.55427002906799316406e-01) (128, 9.50510352849960327148e-02) (114, -1.39526143670082092285e-01) (144, 1.84308439493179321289e-01) (158, 1.74873590469360351562e-01) (142, 1.52932992205023765564e-02) (134, -1.42486751079559326172e-01) (162, -1.44346773624420166016e-01) (127, 1.91696301102638244629e-01) (113, 1.73654735088348388672e-01) (130, -7.46883273124694824219e-01) (160, 1.53698772192001342773e-01) (129, 1.60132452845573425293e-01) (145, 2.29797914624214172363e-01) (159, -9.26025286316871643066e-02) (156, -8.99691581726074218750e-02) (131, -5.39687037467956542969e-01) (144, -1.33919194340705871582e-01) (162, 1.32847845554351806641e-01) (147, 3.32243852317333221436e-02) (134, -4.38457202911376953125e+00) (120, 3.04809492081403732300e-02) (148, 9.25206482410430908203e-01) (119, 1.05422039031982421875e+01) (160, 8.74546110630035400391e-01) (141, -1.36031702160835266113e-01) (152, -1.22389674186706542969e+00) (154, -3.19481086730957031250e+01) (122, -9.68786701560020446777e-02) (162, 8.52167047560214996338e-03) (134, -1.99504330754280090332e-01) (114, 3.73657733201980590820e-01) (120, 4.15756368637084960938e+00) (154, 2.58365654945373535156e+00) (150, 3.28487679362297058105e-02) (155, 1.45711123943328857422e-01) (140, -1.14846043288707733154e-01) (112, 8.79469990730285644531e-01) (151, 1.63900628685951232910e-02) (129, 1.25129842758178710938e+00) (162, -4.15745556354522705078e-01) (142, 2.47390210628509521484e-01) (146, -2.15670990943908691406e+00) (129, 5.69552183151245117188e-01) (158, -2.13751241564750671387e-01) (156, -8.36971473693847656250e+00) (135, 2.41284990310668945312e+00) (136, 6.97251781821250915527e-02) (131, 3.81804764270782470703e-01) (124, -1.58047742843627929688e+01) (153, -4.33696538209915161133e-01) (162, 1.90520331263542175293e-01) (129, 2.52408176660537719727e-01) (140, -1.48643285036087036133e-01) (134, 2.71121472120285034180e-01) (153, 5.54505884647369384766e-01) (125, 2.19669148325920104980e-01) (128, 1.68980523943901062012e-01) (127, 1.83954641222953796387e-01) (137, 1.35432749986648559570e-01) (150, 2.75848120450973510742e-01) (115, 1.54191419482231140137e-01) (162, 2.28998303413391113281e-01) (125, -7.92867615818977355957e-02) (113, -8.74671861529350280762e-02) (140, 5.10534107685089111328e-01) (159, 2.09977496415376663208e-02) (141, 8.25754329562187194824e-02) (156, 3.82298380136489868164e-01) (135, 7.47940763831138610840e-02) (131, 1.77677422761917114258e-01) (151, 8.07518959045410156250e-02) (120, 3.30296275205910205841e-03) (162, -2.56634224206209182739e-02) (122, 2.50736534595489501953e-01) (138, 1.71843931078910827637e-01) (126, 5.05503594875335693359e-01) (134, 3.63457918167114257812e-01) (116, 1.75994068384170532227e-01) (113, 1.04755014181137084961e-01) (115, 3.20646874606609344482e-02) (132, -1.62012532353401184082e-01) (130, 3.09168606996536254883e-01) (120, 6.35254919528961181641e-01) (162, 1.27587229013442993164e-01) (119, -1.87946557998657226562e-02) (154, 1.81882962584495544434e-01) (160, 6.11846566200256347656e-01) (132, -1.07023697346448898315e-02) (139, 9.34219509363174438477e-02) (143, 2.75423437356948852539e-01) (136, -1.17063589394092559814e-01) (137, -3.91843803226947784424e-02) (126, 5.30612766742706298828e-01) (128, 1.35665193200111389160e-01) (162, 2.75509655475616455078e-01) (143, 5.82229439169168472290e-03) (159, 1.08845248818397521973e-01) (134, 2.02174782752990722656e-01) (131, 2.80457556247711181641e-01) (123, 1.64531752467155456543e-01) (120, 1.09910778701305389404e-01) (144, 1.98889404535293579102e-01) (122, -1.60288810729980468750e-01) (155, 1.39492288231849670410e-01) (138, -2.12068066000938415527e-01) (161, 7.99609124660491943359e-02) (162, 1.49523138999938964844e-01) (152, -3.60145419836044311523e-02) (114, -7.41904824972152709961e-02) (134, 2.93790306895971298218e-02) (157, 2.94244349002838134766e-01) (158, 1.26269003376364707947e-02) (131, -8.64158421754837036133e-02) (142, -2.47292518615722656250e-01) (123, 4.58729900419712066650e-02) (115, 1.08651928603649139404e-01) (148, 2.11569026112556457520e-01) (162, 1.79938957095146179199e-01) (157, 6.46620452404022216797e-01) (138, 6.38556480407714843750e-02) (159, 4.08767163753509521484e-03) (146, 1.43623694777488708496e-01) (141, 2.33703702688217163086e-01) (122, 2.28992506861686706543e-01) (161, 4.64647784829139709473e-02) (118, 2.18913942575454711914e-01) (148, -2.60399401187896728516e-01) (129, 2.22263425588607788086e-01) (162, 6.46114721894264221191e-02) (152, 7.15498253703117370605e-02) (135, -7.94295072555541992188e-01) (147, -2.16053724288940429688e-01) (113, -2.13640362024307250977e-01) (123, -1.47840201854705810547e-01) (153, 4.83927875757217407227e-01) (128, 9.61633622646331787109e-02) (116, -1.34828388690948486328e-01) (131, -2.97731548547744750977e-01) (144, -2.16689318418502807617e-01) (162, -9.43071842193603515625e-02) (129, 1.61459192633628845215e-01) (119, -8.51790606975555419922e-01) (142, -1.90557842254638671875e+01) (153, -7.73305654525756835938e+00) (156, 3.53516221046447753906e-01) (121, 4.58600409328937530518e-02) (117, -6.30022406578063964844e-01) (150, 2.28876713663339614868e-02) (118, 3.83909702301025390625e-01) (125, 5.90060278773307800293e-02) (162, -1.97980314493179321289e-01) (133, 9.33490768074989318848e-02) (128, -5.89240454137325286865e-02) (146, -2.92170226573944091797e-01) (120, 1.78734108805656433105e-01) (134, 8.75790894031524658203e-01) (130, -1.38375291824340820312e+01) (141, 6.78820908069610595703e-01) (125, 8.88072624802589416504e-02) (144, -5.09024364873766899109e-03) (149, -2.01262071728706359863e-01) (162, 1.24191820621490478516e-01) (160, 1.88477650284767150879e-01) (129, 1.06951091438531875610e-02) (144, 2.15481251478195190430e-01) (115, -7.36053287982940673828e-02) (154, -7.14259088039398193359e-01) (156, 4.98818755149841308594e-02) (146, -1.71221822500228881836e-01) (140, 1.72908887267112731934e-01) (131, 2.72699028253555297852e-01) (149, -1.06703750789165496826e-01) (162, 1.24867536127567291260e-01) (148, 2.67955636978149414062e+00) (157, -6.17099523544311523438e-01) (134, 2.18816018104553222656e+00) (122, 1.74246931076049804688e+00) (118, 3.72528694570064544678e-02) (144, -5.43898046016693115234e-02) (153, -6.60014569759368896484e-01) (137, -8.07028174400329589844e-01) (158, 1.27526867389678955078e+00) (132, -1.44599890708923339844e+00) (162, -5.97685538232326507568e-02) (145, 3.44901233911514282227e-01) (141, 6.48704409599304199219e-01) (143, 7.58273422718048095703e-01) (133, 1.61065891385078430176e-01) (139, 4.27374076843261718750e+00) (144, -5.47216892242431640625e+00) (131, 3.79484009742736816406e+00) (134, 3.23909550905227661133e-01) (148, 7.03623437881469726562e+00) (136, 1.81161478161811828613e-01) (162, 1.76121182739734649658e-02) (112, 5.82593262195587158203e-01) (114, 4.94399853050708770752e-02) (131, 8.59849095344543457031e-01) (150, 4.51932884752750396729e-02) (116, -1.10222645103931427002e-01) (113, 5.58959096670150756836e-02) (132, 8.59721958637237548828e-01) (119, 3.15423667430877685547e-01) (133, 6.85092389583587646484e-01) (152, 3.74317884445190429688e-01) (162, 1.55066132545471191406e-01) (139, -2.77244150638580322266e-01) (154, -1.78492531180381774902e-01) (153, 3.25687789916992187500e+01) (123, -6.74681141972541809082e-02) (113, 8.06359574198722839355e-02) (132, 1.51352867484092712402e-01) (149, -1.45829305052757263184e-01) (130, -1.05863151550292968750e+01) (114, -7.20518976449966430664e-02) (156, 1.31381750106811523438e-01) (162, 2.18385472893714904785e-01) (160, 2.73392200469970703125e-01) (145, 4.95316274464130401611e-02) (147, 1.60017400979995727539e-01) (141, 2.16943211853504180908e-02) (155, 2.11650237441062927246e-01) (159, -2.24757660180330276489e-02) (128, -2.33998689800500869751e-02) (137, 6.10588848590850830078e-01) (134, 1.41099989414215087891e-01) (153, -8.02052915096282958984e-02) (114, 1.22359618544578552246e-01) (263, 1.32814735174179077148e-01) (172, 4.30547356605529785156e-01) (180, 2.93808639049530029297e-01) (183, -7.14287579059600830078e-01) (189, 1.60860478878021240234e-01) (190, -3.80403256416320800781e+00) (196, -6.13540828227996826172e-01) (218, 1.06302714347839355469e+00) (223, 1.66395604610443115234e+00) (230, -2.29815769195556640625e+00) (234, -3.46573531627655029297e-01) (240, 3.84719431400299072266e-01) (241, 9.13069128990173339844e-01) (244, -2.60690951347351074219e+00) (245, 2.26934060454368591309e-01) (247, 2.47243785858154296875e+00) (252, 7.25719094276428222656e-01) (253, 7.55399763584136962891e-01) (254, 1.82052814960479736328e+00) (257, -1.75082206726074218750e+01) (258, -1.12815630435943603516e+00) (263, -1.64259076118469238281e-02) (173, 2.13368073105812072754e-01) (181, 4.48115974664688110352e-01) (184, 1.09213478863239288330e-01) (185, -5.33105790615081787109e-01) (193, 8.08045789599418640137e-02) (202, 1.19544351100921630859e+00) (205, 4.03551042079925537109e-01) (207, -2.43926227092742919922e-01) (211, 2.20054715871810913086e-01) (212, 6.07252895832061767578e-01) (214, 3.14436674118041992188e-01) (216, 5.17097413539886474609e-01) (217, 3.00646722316741943359e-01) (219, 2.27838307619094848633e-01) (222, 5.22943675518035888672e-01) (224, 3.65057051181793212891e-01) (225, 1.99437007308006286621e-01) (227, -6.56123876571655273438e-01) (229, -2.84777879714965820312e-01) (231, 5.36405205726623535156e-01) (263, 8.56353044509887695312e-02) (165, 9.15473222732543945312e-01) (166, 1.53483241796493530273e-01) (169, -1.46387428045272827148e-01) (171, 5.41696429252624511719e-01) (178, -3.28538924455642700195e-01) (182, 3.26717793941497802734e-01) (191, -9.71300899982452392578e-02) (194, 3.42776298522949218750e-01) (199, 2.34840318560600280762e-01) (201, 4.45496052503585815430e-01) (206, -1.81516051292419433594e-01) (213, 1.92284733057022094727e-01) (215, 1.27512931823730468750e+00) (220, 1.14894054830074310303e-01) (221, -4.21203464269638061523e-01) (228, 3.41087073087692260742e-01) (232, 5.48809051513671875000e-01) (235, 1.90820604562759399414e-01) (236, -1.38894951343536376953e+00) (237, -1.68155536055564880371e-01) (263, 2.12929189205169677734e-01) (163, 1.81386458873748779297e+00) (164, 1.55599093437194824219e+00) (167, 4.02771383523941040039e-01) (168, -2.89247363805770874023e-01) (170, 8.78020286560058593750e-01) (174, -2.14629203081130981445e-01) (175, 1.20676422119140625000e+00) (176, 3.32474440336227416992e-01) (179, -6.21569566428661346436e-02) (186, 1.13325037062168121338e-01) (187, 2.36162856221199035645e-01) (188, 1.96927025914192199707e-01) (192, 6.28769338130950927734e-01) (197, 2.77115374803543090820e-01) (198, 1.36340165138244628906e+00) (200, -5.58717775344848632812e+00) (203, -1.00625848770141601562e+00) (208, -2.86718964576721191406e-01) (209, -5.90070784091949462891e-01) (210, 3.05110526084899902344e+00) (263, 2.14357286691665649414e-01) (177, 5.13549029827117919922e-01) (195, 2.21702128648757934570e-01) (204, 2.58089780807495117188e+00) (226, 1.09053075313568115234e+00) (233, -2.28185224533081054688e+00) (238, 2.93281912803649902344e-01) (239, 3.71688961982727050781e-01) (242, -3.96175570785999298096e-02) (243, -5.22764623165130615234e-01) (246, -9.59392338991165161133e-02) (248, 1.30488723516464233398e-01) (249, 2.24306511878967285156e+00) (250, 4.46433335542678833008e-01) (251, 3.02008461952209472656e+00) (255, 5.45260369777679443359e-01) (256, -2.60561990737915039062e+00) (259, 2.29234382510185241699e-01) (260, 1.79331779479980468750e+00) (261, -5.45372724533081054688e+00) (262, 4.23245370388031005859e-01) (237, -1.40217435359954833984e+00)
input_names='a' 'betan' 'bt' 'delta' 'ip' 'kappa' 'm' 'neped' 'r' 'zeffped'
output_names='OUT_betaped_E1' 'OUT_p_E1' 'OUT_ptop_E1' 'OUT_wid_E1' 'OUT_widtop_E1'
norm_output=0.0 0.0 0.0 0.0 0.0 0.0 0.0 0.0 0.0 0.0 0.0 0.0 0.0 0.0 0.0 0.0 0.0 0.0 0.0 0.0 0.0 0.0 0.0 0.0 0.0 0.0 0.0 0.0 0.0 0.0 0.0 0.0 0.0 0.0 0.0 0.0 0.0 0.0 0.0 0.0 0.0 0.0 0.0 0.0 0.0 0.0 0.0 0.0 0.0 0.0
MSE= 0.0196222439408