FANN_FLO_2.1
num_layers=5
learning_rate=0.700000
connection_rate=0.300000
network_type=0
learning_momentum=0.000000
training_algorithm=2
train_error_function=0
train_stop_function=0
cascade_output_change_fraction=0.010000
quickprop_decay=0.011894
quickprop_mu=1.750000
rprop_increase_factor=1.200000
rprop_decrease_factor=0.500000
rprop_delta_min=0.000000
rprop_delta_max=50.000000
rprop_delta_zero=0.100000
cascade_output_stagnation_epochs=12
cascade_candidate_change_fraction=0.010000
cascade_candidate_stagnation_epochs=12
cascade_max_out_epochs=150
cascade_min_out_epochs=50
cascade_max_cand_epochs=150
cascade_min_cand_epochs=50
cascade_num_candidate_groups=2
bit_fail_limit=3.49999994039535522461e-01
cascade_candidate_limit=1.00000000000000000000e+03
cascade_weight_multiplier=4.00000005960464477539e-01
cascade_activation_functions_count=10
cascade_activation_functions=3 5 7 8 10 11 14 15 16 17
cascade_activation_steepnesses_count=4
cascade_activation_steepnesses=2.50000000000000000000e-01 5.00000000000000000000e-01 7.50000000000000000000e-01 1.00000000000000000000e+00
layer_sizes=16 51 26 51 5
scale_included=1
scale_mean_in=0.751931 0.034440 0.004287 0.083840 1.426260 2.065624 11.077409 1.146319 2.420896 2.453427 3.039549 0.589617 0.185673 1.203894 0.089657
scale_deviation_in=0.047428 0.007106 0.003614 0.042970 0.091245 0.799373 10.414528 1.365134 1.370780 1.681486 0.041713 0.230705 0.201450 0.153074 0.080643
scale_new_min_in=-1.000000 -1.000000 -1.000000 -1.000000 -1.000000 -1.000000 -1.000000 -1.000000 -1.000000 -1.000000 -1.000000 -1.000000 -1.000000 -1.000000 -1.000000
scale_factor_in=1.000000 1.000000 1.000000 1.000000 1.000000 1.000000 1.000000 1.000000 1.000000 1.000000 1.000000 1.000000 1.000000 1.000000 1.000000
scale_mean_out=2.556615 4.437705 0.200184 1.690693
scale_deviation_out=4.569037 6.969524 0.300797 2.906913
scale_new_min_out=-1.000000 -1.000000 -1.000000 -1.000000
scale_factor_out=1.000000 1.000000 1.000000 1.000000
neurons (num_inputs, activation_function, activation_steepness)=(0, 0, 0.00000000000000000000e+00) (0, 0, 0.00000000000000000000e+00) (0, 0, 0.00000000000000000000e+00) (0, 0, 0.00000000000000000000e+00) (0, 0, 0.00000000000000000000e+00) (0, 0, 0.00000000000000000000e+00) (0, 0, 0.00000000000000000000e+00) (0, 0, 0.00000000000000000000e+00) (0, 0, 0.00000000000000000000e+00) (0, 0, 0.00000000000000000000e+00) (0, 0, 0.00000000000000000000e+00) (0, 0, 0.00000000000000000000e+00) (0, 0, 0.00000000000000000000e+00) (0, 0, 0.00000000000000000000e+00) (0, 0, 0.00000000000000000000e+00) (0, 0, 0.00000000000000000000e+00) (5, 5, 5.00000000000000000000e-01) (6, 5, 5.00000000000000000000e-01) (5, 5, 5.00000000000000000000e-01) (6, 5, 5.00000000000000000000e-01) (5, 5, 5.00000000000000000000e-01) (6, 5, 5.00000000000000000000e-01) (5, 5, 5.00000000000000000000e-01) (6, 5, 5.00000000000000000000e-01) (5, 5, 5.00000000000000000000e-01) (6, 5, 5.00000000000000000000e-01) (5, 5, 5.00000000000000000000e-01) (6, 5, 5.00000000000000000000e-01) (5, 5, 5.00000000000000000000e-01) (6, 5, 5.00000000000000000000e-01) (5, 5, 5.00000000000000000000e-01) (6, 5, 5.00000000000000000000e-01) (5, 5, 5.00000000000000000000e-01) (6, 5, 5.00000000000000000000e-01) (5, 5, 5.00000000000000000000e-01) (6, 5, 5.00000000000000000000e-01) (5, 5, 5.00000000000000000000e-01) (6, 5, 5.00000000000000000000e-01) (5, 5, 5.00000000000000000000e-01) (6, 5, 5.00000000000000000000e-01) (5, 5, 5.00000000000000000000e-01) (6, 5, 5.00000000000000000000e-01) (5, 5, 5.00000000000000000000e-01) (6, 5, 5.00000000000000000000e-01) (5, 5, 5.00000000000000000000e-01) (6, 5, 5.00000000000000000000e-01) (5, 5, 5.00000000000000000000e-01) (6, 5, 5.00000000000000000000e-01) (5, 5, 5.00000000000000000000e-01) (6, 5, 5.00000000000000000000e-01) (5, 5, 5.00000000000000000000e-01) (6, 5, 5.00000000000000000000e-01) (5, 5, 5.00000000000000000000e-01) (6, 5, 5.00000000000000000000e-01) (5, 5, 5.00000000000000000000e-01) (6, 5, 5.00000000000000000000e-01) (5, 5, 5.00000000000000000000e-01) (6, 5, 5.00000000000000000000e-01) (5, 5, 5.00000000000000000000e-01) (6, 5, 5.00000000000000000000e-01) (5, 5, 5.00000000000000000000e-01) (6, 5, 5.00000000000000000000e-01) (5, 5, 5.00000000000000000000e-01) (6, 5, 5.00000000000000000000e-01) (5, 5, 5.00000000000000000000e-01) (6, 5, 5.00000000000000000000e-01) (0, 5, 0.00000000000000000000e+00) (16, 5, 5.00000000000000000000e-01) (16, 5, 5.00000000000000000000e-01) (16, 5, 5.00000000000000000000e-01) (16, 5, 5.00000000000000000000e-01) (16, 5, 5.00000000000000000000e-01) (16, 5, 5.00000000000000000000e-01) (16, 5, 5.00000000000000000000e-01) (16, 5, 5.00000000000000000000e-01) (16, 5, 5.00000000000000000000e-01) (16, 5, 5.00000000000000000000e-01) (16, 5, 5.00000000000000000000e-01) (16, 5, 5.00000000000000000000e-01) (16, 5, 5.00000000000000000000e-01) (16, 5, 5.00000000000000000000e-01) (16, 5, 5.00000000000000000000e-01) (16, 5, 5.00000000000000000000e-01) (16, 5, 5.00000000000000000000e-01) (16, 5, 5.00000000000000000000e-01) (16, 5, 5.00000000000000000000e-01) (16, 5, 5.00000000000000000000e-01) (16, 5, 5.00000000000000000000e-01) (16, 5, 5.00000000000000000000e-01) (16, 5, 5.00000000000000000000e-01) (16, 5, 5.00000000000000000000e-01) (16, 5, 5.00000000000000000000e-01) (0, 5, 0.00000000000000000000e+00) (8, 5, 5.00000000000000000000e-01) (9, 5, 5.00000000000000000000e-01) (8, 5, 5.00000000000000000000e-01) (9, 5, 5.00000000000000000000e-01) (8, 5, 5.00000000000000000000e-01) (9, 5, 5.00000000000000000000e-01) (8, 5, 5.00000000000000000000e-01) (9, 5, 5.00000000000000000000e-01) (8, 5, 5.00000000000000000000e-01) (9, 5, 5.00000000000000000000e-01) (8, 5, 5.00000000000000000000e-01) (9, 5, 5.00000000000000000000e-01) (8, 5, 5.00000000000000000000e-01) (9, 5, 5.00000000000000000000e-01) (8, 5, 5.00000000000000000000e-01) (9, 5, 5.00000000000000000000e-01) (8, 5, 5.00000000000000000000e-01) (9, 5, 5.00000000000000000000e-01) (8, 5, 5.00000000000000000000e-01) (9, 5, 5.00000000000000000000e-01) (8, 5, 5.00000000000000000000e-01) (9, 5, 5.00000000000000000000e-01) (8, 5, 5.00000000000000000000e-01) (9, 5, 5.00000000000000000000e-01) (8, 5, 5.00000000000000000000e-01) (9, 5, 5.00000000000000000000e-01) (8, 5, 5.00000000000000000000e-01) (9, 5, 5.00000000000000000000e-01) (8, 5, 5.00000000000000000000e-01) (9, 5, 5.00000000000000000000e-01) (8, 5, 5.00000000000000000000e-01) (9, 5, 5.00000000000000000000e-01) (8, 5, 5.00000000000000000000e-01) (9, 5, 5.00000000000000000000e-01) (8, 5, 5.00000000000000000000e-01) (9, 5, 5.00000000000000000000e-01) (8, 5, 5.00000000000000000000e-01) (9, 5, 5.00000000000000000000e-01) (8, 5, 5.00000000000000000000e-01) (9, 5, 5.00000000000000000000e-01) (8, 5, 5.00000000000000000000e-01) (9, 5, 5.00000000000000000000e-01) (8, 5, 5.00000000000000000000e-01) (9, 5, 5.00000000000000000000e-01) (8, 5, 5.00000000000000000000e-01) (9, 5, 5.00000000000000000000e-01) (8, 5, 5.00000000000000000000e-01) (9, 5, 5.00000000000000000000e-01) (8, 5, 5.00000000000000000000e-01) (9, 5, 5.00000000000000000000e-01) (0, 5, 0.00000000000000000000e+00) (16, 0, 5.00000000000000000000e-01) (16, 0, 5.00000000000000000000e-01) (16, 0, 5.00000000000000000000e-01) (16, 0, 5.00000000000000000000e-01) (0, 0, 0.00000000000000000000e+00)
connections (connected_to_neuron, weight)=(15, -1.17782402038574218750e+00) (1, 1.02718196809291839600e-01) (11, 1.45654022693634033203e+00) (9, 3.80109459161758422852e-01) (4, -1.85029149055480957031e-01) (15, -8.54640841484069824219e-01) (9, -5.60192704200744628906e-01) (8, -1.03567153215408325195e-01) (2, -3.45144063234329223633e-01) (3, 1.08416974544525146484e+00) (6, 8.74835193157196044922e-01) (15, -1.22936034202575683594e+00) (3, -9.53930556774139404297e-01) (11, 1.71111202239990234375e+00) (5, 1.01828944683074951172e+00) (1, -6.69395327568054199219e-01) (15, -1.58072412014007568359e+00) (1, 2.82214379310607910156e+00) (8, -1.28919053077697753906e+00) (14, 2.87217164039611816406e+00) (10, 3.02808880805969238281e-01) (0, -4.97346252202987670898e-01) (15, 1.46664583683013916016e+00) (5, 2.69208908081054687500e-01) (10, 8.41601967811584472656e-01) (11, -3.59174579381942749023e-01) (3, 1.13002866506576538086e-01) (15, 6.54651403427124023438e-01) (7, 1.12415099143981933594e+00) (6, -2.36927819252014160156e+00) (8, 1.36800396442413330078e+00) (9, 5.31489253044128417969e-02) (13, -1.44018399715423583984e+00) (15, 1.22803413867950439453e+00) (11, 1.06903445720672607422e+00) (9, -4.63659048080444335938e-01) (2, 1.22127962112426757812e+00) (8, -6.10758103430271148682e-02) (15, 1.76805257797241210938e+00) (12, -3.33344250917434692383e-01) (2, 9.95436310768127441406e-01) (3, 4.31102991104125976562e-01) (9, 2.83494412899017333984e-01) (4, -7.68751323223114013672e-01) (15, 2.86988228559494018555e-01) (13, 1.76269397139549255371e-01) (11, 2.21757936477661132812e+00) (3, 7.94553831219673156738e-02) (12, 3.34279090166091918945e-01) (15, 1.65016546845436096191e-01) (10, -3.00032675266265869141e-01) (4, 9.40038502216339111328e-01) (1, -4.00964468717575073242e-02) (2, 1.09653425216674804688e+00) (6, -1.07752490043640136719e+00) (15, 1.47819287109375000000e+03) (3, -1.54456052780151367188e+01) (4, 4.31981018066406250000e+02) (13, 1.49763415527343750000e+03) (7, -2.83101837158203125000e+02) (15, 7.20456361770629882812e-01) (6, 5.21386265754699707031e-01) (12, 6.40005528926849365234e-01) (14, 1.29253491759300231934e-01) (7, 1.10548704862594604492e-01) (10, 4.54102337360382080078e-01) (15, 1.14538168907165527344e+00) (11, -5.54225146770477294922e-01) (7, -1.50827622413635253906e+00) (8, 8.21860253810882568359e-01) (6, -1.28267750144004821777e-01) (15, -9.12992596626281738281e-01) (9, 1.53301942348480224609e+00) (11, 6.22206270694732666016e-01) (2, 9.31674912571907043457e-02) (7, -3.84618401527404785156e-01) (13, 1.27826228737831115723e-01) (15, 9.15249586105346679688e-01) (5, 1.65326073765754699707e-01) (6, 1.01568913459777832031e+00) (14, -9.11324024200439453125e-01) (1, 2.57313430309295654297e-01) (15, 1.80470001697540283203e+00) (3, 1.76092475652694702148e-01) (12, 1.76298946142196655273e-01) (2, 5.58248281478881835938e-01) (11, -7.31636524200439453125e-01) (1, -2.09357589483261108398e-01) (15, -3.45143109560012817383e-01) (3, 2.31091231107711791992e-01) (11, 3.13270181417465209961e-01) (2, 1.36477661132812500000e+00) (4, 6.86738312244415283203e-01) (15, 1.46837592124938964844e-01) (10, 1.01601794362068176270e-01) (1, -5.92404305934906005859e-01) (13, -6.84022009372711181641e-01) (5, 1.10280446708202362061e-01) (6, 1.37259817123413085938e+00) (15, -6.86488270759582519531e-01) (4, -8.01372248679399490356e-03) (11, 9.93193909525871276855e-02) (12, 1.04377305507659912109e+00) (5, -4.28226530551910400391e-01) (15, -7.53098487854003906250e-01) (1, -1.30911409854888916016e+00) (7, -7.04309999942779541016e-01) (11, 5.29594063758850097656e-01) (8, -2.43474598973989486694e-02) (0, -8.93282592296600341797e-01) (15, 9.35645282268524169922e-01) (6, 7.93476104736328125000e-01) (12, 3.81569653749465942383e-01) (14, -1.85052108764648437500e+00) (2, 1.01549136638641357422e+00) (15, -6.37491762638092041016e-01) (0, -5.86401596665382385254e-02) (5, 1.03476262092590332031e+00) (4, 4.00540173053741455078e-01) (3, -1.26339301466941833496e-01) (8, 2.08452820777893066406e-01) (15, -7.62880504131317138672e-01) (6, 1.38591051101684570312e+00) (8, -2.30806216597557067871e-01) (5, 4.08764272928237915039e-01) (14, -8.30489099025726318359e-01) (15, 2.51333332061767578125e+00) (7, 1.08762763440608978271e-01) (1, 1.09452295303344726562e+00) (10, 1.37200379371643066406e+00) (13, 5.23229360580444335938e-01) (11, -4.11655187606811523438e-01) (15, -1.41418981552124023438e+00) (9, 1.70140194892883300781e+00) (14, -1.61074414849281311035e-01) (13, -3.95699858665466308594e-01) (8, 9.62008163332939147949e-02) (15, -3.90857648849487304688e+00) (1, 1.59973442554473876953e+00) (13, -1.86084061861038208008e-01) (5, 3.33077502250671386719e+00) (9, -1.20431482791900634766e+00) (11, -8.57995986938476562500e-01) (15, -2.28841400146484375000e+00) (12, 7.31644093990325927734e-01) (11, -3.97367507219314575195e-01) (8, 2.87610262632369995117e-01) (10, 3.89287352561950683594e-01) (15, 1.53171634674072265625e+00) (2, 8.17113935947418212891e-01) (1, -1.37931644916534423828e+00) (5, 4.03207361698150634766e-01) (6, -1.69409483671188354492e-01) (9, -1.14124715328216552734e+00) (15, 1.64970433712005615234e+00) (3, 5.50918519496917724609e-01) (2, 6.29428982734680175781e-01) (4, -6.48153603076934814453e-01) (12, -1.72384515404701232910e-01) (15, 1.72135603427886962891e+00) (1, 3.03842186927795410156e-01) (10, 9.53639388084411621094e-01) (6, 6.87120497226715087891e-01) (12, -2.69354552030563354492e-01) (2, 4.81252491474151611328e-01) (15, -9.90410000085830688477e-02) (1, 4.60399240255355834961e-01) (2, 4.15659725666046142578e-01) (6, 8.26651275157928466797e-01) (11, 5.79902809113264083862e-03) (15, -8.30587208271026611328e-01) (5, 9.34573233127593994141e-01) (3, 1.09020364284515380859e+00) (14, 2.21993491053581237793e-01) (13, -1.18676757812500000000e+00) (7, -6.15620732307434082031e-01) (15, -1.06244611740112304688e+00) (1, -3.21702539920806884766e-01) (10, -7.03974664211273193359e-01) (11, 4.20720577239990234375e-01) (0, -6.90170228481292724609e-01) (15, 9.72918093204498291016e-01) (12, 1.26218891143798828125e+00) (11, -1.62637329101562500000e+00) (10, 6.80763900279998779297e-01) (1, -1.10716366767883300781e+00) (8, -7.90516614913940429688e-01) (15, 7.22473680973052978516e-01) (5, -4.88584578037261962891e-01) (3, 4.77385461330413818359e-01) (6, -3.34913849830627441406e-01) (1, 7.25718617439270019531e-01) (15, 7.41313517093658447266e-01) (6, -6.55695199966430664062e-01) (3, 8.13358068466186523438e-01) (2, 1.43515086174011230469e+00) (5, -9.78647246956825256348e-02) (9, -4.94361191987991333008e-01) (15, -3.63342046737670898438e-01) (4, 4.37909305095672607422e-01) (6, 7.39298999309539794922e-01) (2, -3.81877645850181579590e-02) (13, -1.79763102531433105469e+00) (15, 1.22390139102935791016e+00) (10, 3.77869188785552978516e-01) (3, 8.89225065708160400391e-01) (11, 2.30644598603248596191e-01) (0, -5.46138808131217956543e-02) (1, 1.05037271976470947266e+00) (15, -2.11052250862121582031e+00) (4, 2.96755504608154296875e+00) (9, 1.42243969440460205078e+00) (3, 8.01274418830871582031e-01) (8, -1.20317184925079345703e+00) (15, -6.31641626358032226562e-01) (10, -1.13797321915626525879e-01) (3, 2.63706207275390625000e+00) (1, 9.72817659378051757812e-01) (8, 1.91420540213584899902e-01) (7, -8.68006110191345214844e-01) (15, -7.22080469131469726562e-01) (13, 5.32009363174438476562e-01) (11, 1.09876608848571777344e+00) (1, -5.93136906623840332031e-01) (5, -3.81783723831176757812e-01) (15, 8.56084406375885009766e-01) (4, -1.37852823734283447266e+00) (12, 1.03763449192047119141e+00) (5, -5.41027545928955078125e-01) (9, -2.82491952180862426758e-01) (10, -7.88797974586486816406e-01) (15, 1.44706678390502929688e+00) (13, -6.15994453430175781250e-01) (10, 1.03273546695709228516e+00) (6, 2.00090706348419189453e-01) (8, 1.96787729859352111816e-01) (15, 1.73015439510345458984e+00) (8, -4.19950276613235473633e-01) (0, 5.82985103130340576172e-01) (7, 7.28125035762786865234e-01) (6, -4.67086732387542724609e-02) (5, 1.43194556236267089844e-01) (15, 3.71170926094055175781e+00) (3, -8.00583004951477050781e-01) (10, -4.41853880882263183594e-01) (7, -4.75203245878219604492e-01) (2, -1.25378206372261047363e-01) (15, 1.41449141502380371094e+00) (0, 6.03412091732025146484e-01) (1, 3.10391247272491455078e-01) (3, -3.48865836858749389648e-01) (7, -9.43392336368560791016e-01) (6, 2.73336499929428100586e-01) (15, 4.36562716960906982422e-01) (7, 8.10607895255088806152e-02) (1, 6.20063096284866333008e-02) (12, -5.16511380672454833984e-01) (10, -3.83002966642379760742e-01) (15, -4.86644357442855834961e-01) (10, -6.74114972352981567383e-02) (4, 1.71608507633209228516e+00) (9, -1.10020065307617187500e+00) (11, -4.86934542655944824219e-01) (0, 7.35548734664916992188e-01) (15, 2.65824699401855468750e+00) (1, 5.19317531585693359375e+00) (2, 2.33631253242492675781e+00) (3, -4.74395543336868286133e-01) (11, -3.44356477260589599609e-01) (15, -5.72324037551879882812e-01) (1, -2.93375313282012939453e-01) (11, 1.05566330254077911377e-01) (9, 4.83312785625457763672e-01) (12, -3.85946094989776611328e-01) (13, 7.88656175136566162109e-01) (66, -7.61379301548004150391e-01) (54, 2.58154720067977905273e-01) (56, 1.64731264114379882812e-01) (61, 5.48876225948333740234e-01) (46, -1.14698886871337890625e+00) (34, -1.65184116363525390625e+00) (37, 1.13968610763549804688e+00) (55, 9.43291902542114257812e-01) (18, 1.58112680912017822266e+00) (53, -1.67124164104461669922e+00) (65, -1.24794638156890869141e+00) (25, -1.20642781257629394531e+00) (19, 1.35959851741790771484e+00) (52, -1.14234185218811035156e+00) (60, -6.77396878600120544434e-02) (27, 6.46272540092468261719e-01) (66, -2.00627878308296203613e-01) (46, -1.46736696362495422363e-01) (27, 5.89312613010406494141e-01) (25, 2.22027823328971862793e-01) (28, -6.89077615737915039062e-01) (57, -2.72574257850646972656e+00) (34, 2.35886812210083007812e+00) (48, 6.72221040725708007812e+00) (64, 2.29548439383506774902e-01) (38, -2.62014210224151611328e-01) (23, -4.95314931869506835938e+00) (26, 3.23599696159362792969e-01) (19, -5.04463315010070800781e-01) (24, -4.97211039066314697266e-01) (59, -3.72308433055877685547e-01) (44, -1.08274269104003906250e+00) (66, 6.23791098594665527344e-01) (32, 3.78738909959793090820e-01) (58, 4.51074331998825073242e-01) (48, -1.43032383918762207031e+00) (62, 1.80823254585266113281e+00) (34, 4.12871658802032470703e-01) (38, 2.39364504814147949219e+00) (26, 4.14148569107055664062e-01) (22, 2.10909867286682128906e+00) (21, -7.81581178307533264160e-02) (35, -6.43012523651123046875e-01) (59, -6.27330601215362548828e-01) (42, 8.79605650901794433594e-01) (51, 8.82430255413055419922e-01) (55, 7.74191737174987792969e-01) (43, -6.07266724109649658203e-01) (66, 4.73545044660568237305e-01) (36, -1.34972751140594482422e+00) (38, 2.09125328063964843750e+00) (43, 6.49976074695587158203e-01) (29, 2.69436192512512207031e+00) (23, -4.05764341354370117188e+00) (60, 6.11682653427124023438e-01) (52, 4.07452642917633056641e-01) (28, -1.76645231246948242188e+00) (41, 2.16333460807800292969e+00) (64, 8.91242504119873046875e-01) (31, 4.09198474884033203125e+00) (51, -1.93879354000091552734e+00) (30, -2.27457308769226074219e+00) (39, -8.33749175071716308594e-01) (37, -2.03389093279838562012e-01) (66, 4.50272381305694580078e-01) (46, -4.03003454208374023438e-01) (26, -3.61181125044822692871e-02) (45, 4.11501437425613403320e-01) (17, -1.91315829753875732422e+00) (48, -2.28061117231845855713e-02) (29, -1.53448939323425292969e-01) (25, 3.42845368385314941406e+00) (58, -4.69409108161926269531e-01) (39, -3.81487280130386352539e-01) (20, 3.48194718360900878906e-01) (44, 1.08901536464691162109e+00) (59, -3.97814810276031494141e-01) (31, 8.49305450916290283203e-01) (30, 3.61364436149597167969e+00) (37, 3.29451203346252441406e-01) (66, -5.11515885591506958008e-02) (26, -9.46176424622535705566e-02) (59, 4.03605073690414428711e-01) (46, 1.04868996143341064453e+00) (63, 5.37906646728515625000e-01) (25, 1.72564888000488281250e+00) (19, 8.27072143554687500000e-01) (36, 4.14523869752883911133e-01) (30, -2.07592082023620605469e+00) (18, 1.00570070743560791016e+00) (57, 4.13898855447769165039e-01) (37, -2.12900862097740173340e-01) (39, -1.12100839614868164062e+00) (52, 1.93733081221580505371e-01) (49, -9.62674081325531005859e-01) (34, 2.75131773948669433594e+00) (66, -1.55690178275108337402e-01) (41, 2.98704415559768676758e-01) (60, -1.59440243244171142578e+00) (53, 6.33130848407745361328e-01) (51, -2.55995005369186401367e-01) (33, -4.90801841020584106445e-01) (42, 1.62996912002563476562e+00) (46, 1.29953205585479736328e+00) (49, 2.72653549909591674805e-01) (62, -2.74598050117492675781e+00) (55, -2.38334551453590393066e-01) (52, 4.19202208518981933594e-01) (26, 7.92629837989807128906e-01) (20, 1.23479723930358886719e+00) (44, 2.16913953423500061035e-01) (58, -2.40705394744873046875e+00) (66, 1.54286503791809082031e+00) (64, -6.66223540902137756348e-02) (58, 6.53812140226364135742e-02) (32, 1.25644338130950927734e+00) (55, 1.43840909004211425781e+00) (28, -4.61084514856338500977e-01) (34, -2.85215377807617187500e+00) (38, -1.71243757009506225586e-01) (39, 3.15843433141708374023e-01) (47, 6.28012597560882568359e-01) (60, 2.67045289278030395508e-01) (51, 2.63210940361022949219e+00) (33, 3.03982943296432495117e-01) (37, -7.92156696319580078125e-01) (45, 2.10260272026062011719e+00) (20, 8.83333981037139892578e-01) (66, 9.56255912780761718750e-01) (16, -1.87114155292510986328e+00) (51, 9.83720570802688598633e-02) (61, 1.49456128478050231934e-01) (46, 4.17300432920455932617e-01) (62, 2.72350013256072998047e-01) (32, -2.97555327415466308594e+00) (26, 6.05436503887176513672e-01) (24, 4.18340563774108886719e-01) (63, -6.38856738805770874023e-02) (20, 1.05992043018341064453e+00) (54, -5.92838048934936523438e-01) (28, 1.55577659606933593750e-01) (19, -2.32109025120735168457e-01) (43, 5.79098388552665710449e-02) (36, 2.07311302423477172852e-01) (66, 1.01872775703668594360e-02) (30, -1.56812298297882080078e+00) (57, 7.43604612350463867188e+00) (36, 2.76181483268737792969e+00) (59, -1.80254623293876647949e-01) (61, 2.04615616798400878906e+00) (60, 1.54490017890930175781e+00) (45, 2.62426614761352539062e+00) (26, 1.18390631675720214844e+00) (42, -5.59221923351287841797e-01) (63, 3.46910691261291503906e+00) (21, 1.39086961746215820312e+00) (49, 9.64779317378997802734e-01) (55, -1.81650829315185546875e+00) (64, 1.68990373611450195312e+00) (53, 4.68424749374389648438e+00) (66, 5.05568456649780273438e+00) (34, -9.68284702301025390625e+00) (40, 9.31315898895263671875e-01) (36, 2.73059558868408203125e+00) (63, 2.85819864273071289062e+00) (23, -3.00320720672607421875e+00) (33, -1.60295701026916503906e+00) (17, -4.13896322250366210938e+00) (28, 5.88113927841186523438e+00) (38, 3.80065703392028808594e+00) (35, 6.19602240622043609619e-02) (57, 2.64588141441345214844e+00) (39, 3.49072527885437011719e+00) (48, 4.74895429611206054688e+00) (56, 3.64089339971542358398e-01) (21, 4.07258796691894531250e+00) (66, 1.60206484794616699219e+00) (23, 1.92025923728942871094e+00) (47, -4.04126584529876708984e-01) (22, 1.06392765045166015625e+00) (58, -2.45543456077575683594e+00) (39, 6.64246231317520141602e-02) (29, -7.89380550384521484375e-01) (52, 1.44741225242614746094e+00) (18, -1.81049656867980957031e+00) (60, 4.46473397314548492432e-02) (37, -6.00606739521026611328e-01) (63, 4.68481570482254028320e-01) (16, -9.82035577297210693359e-01) (25, 1.19829684495925903320e-01) (40, 1.69661426544189453125e+00) (46, -3.92740398645401000977e-01) (66, -3.12635540962219238281e-01) (22, -1.48564696311950683594e+00) (31, -7.13497281074523925781e-01) (53, -3.75953733921051025391e-01) (65, 1.74709153175354003906e+00) (51, -6.43139600753784179688e-01) (47, 3.48550111055374145508e-01) (63, 6.38171732425689697266e-01) (38, 1.57724499702453613281e+00) (40, -4.45480853319168090820e-01) (24, 1.35916614532470703125e+00) (58, 7.21440315246582031250e-01) (21, 2.55628317594528198242e-01) (32, 5.86457431316375732422e-01) (30, -1.76605319976806640625e+00) (48, 1.42953312397003173828e+00) (66, -8.19303169846534729004e-02) (42, -2.05969810485839843750e-01) (48, -8.36293041706085205078e-01) (59, 3.14844176173210144043e-02) (37, -8.80656123161315917969e-01) (62, 3.60907626152038574219e+00) (24, -7.71831035614013671875e-01) (58, 1.06222295761108398438e+00) (17, -1.22294771671295166016e+00) (34, 1.96549880504608154297e+00) (53, -2.43723958730697631836e-01) (39, 2.19624847173690795898e-01) (64, 4.66364562511444091797e-01) (52, 1.31770037114620208740e-02) (32, 1.36909329891204833984e+00) (25, -1.01609086990356445312e+00) (66, -4.27401423454284667969e-01) (33, -1.49959516525268554688e+00) (37, 2.78962135314941406250e+00) (27, 5.66935479640960693359e-01) (25, -3.16732668876647949219e+00) (18, 8.83656382560729980469e-01) (48, 3.90931367874145507812e+00) (42, 3.49922919273376464844e+00) (46, -3.92622852325439453125e+00) (40, 1.21568322181701660156e+00) (26, -1.20724678039550781250e+00) (51, 6.48025870323181152344e-01) (52, -1.87129918485879898071e-02) (24, 1.26721549034118652344e+00) (21, -9.31927002966403961182e-03) (55, -7.39144086837768554688e-01) (66, -2.74731248617172241211e-01) (18, -7.88623154163360595703e-01) (28, 8.67720127105712890625e-01) (29, -3.12292903661727905273e-01) (63, -6.23219490051269531250e-01) (27, 8.19491446018218994141e-02) (39, 1.09398257732391357422e+00) (19, -2.94427573680877685547e-01) (40, -6.11428499221801757812e-01) (65, -6.10369741916656494141e-01) (32, -6.59794434905052185059e-02) (51, 1.52627766132354736328e-01) (20, -5.31914770603179931641e-01) (60, 1.36705172061920166016e+00) (37, -1.78326249122619628906e+00) (38, 5.88727653026580810547e-01) (66, 1.95433109998703002930e-01) (17, 5.86147975921630859375e+00) (26, 8.25010418891906738281e-01) (46, 6.35232448577880859375e+00) (51, -2.12754178047180175781e+00) (64, 6.10597312450408935547e-01) (39, 8.30215036869049072266e-01) (34, 2.08181929588317871094e+00) (38, 4.32545804977416992188e+00) (63, -5.56913852691650390625e+00) (37, 2.90440380573272705078e-01) (30, -3.29856777191162109375e+00) (44, 4.70606279373168945312e+00) (28, -3.75613307952880859375e+00) (43, 7.41950082778930664062e+00) (42, -1.44609361886978149414e-01) (66, 1.08524847030639648438e+00) (19, 1.09505927562713623047e+00) (63, -2.27868604660034179688e+00) (34, -9.15733635425567626953e-01) (52, 6.54174864292144775391e-01) (45, 4.68772530555725097656e-01) (50, 2.26762914657592773438e+00) (60, -7.33912065625190734863e-02) (43, 1.42002213001251220703e+00) (26, -4.38584014773368835449e-02) (31, 7.21900045871734619141e-01) (61, -3.72315406799316406250e-01) (30, -1.02118062973022460938e+00) (27, 3.93189728260040283203e-01) (20, -2.93337821960449218750e-01) (44, 1.53163933753967285156e+00) (66, 6.37935817241668701172e-01) (24, 2.41935346275568008423e-03) (44, 1.06525433063507080078e+00) (50, 1.31804919242858886719e+00) (52, -1.19264721870422363281e-02) (59, 1.80053508281707763672e+00) (37, -8.07853877544403076172e-01) (29, -1.24532115459442138672e+00) (35, -2.20170661807060241699e-01) (63, -6.57767236232757568359e-01) (45, 1.91421690396964550018e-03) (18, -9.33888673782348632812e-01) (47, 1.09240353107452392578e+00) (22, 6.45851016044616699219e-01) (54, -3.07119563221931457520e-02) (36, -1.79473376274108886719e+00) (66, 7.23142445087432861328e-01) (39, 3.07935476303100585938e-01) (55, 8.30062508583068847656e-01) (32, 2.77164369821548461914e-01) (34, 1.10912203788757324219e+00) (48, 2.06613922119140625000e+00) (24, 9.06699478626251220703e-01) (52, -1.16362161934375762939e-02) (56, 1.86753511428833007812e+00) (31, -1.31620192527770996094e+00) (29, -1.43621221184730529785e-01) (35, -1.88246935606002807617e-01) (30, -2.58994269371032714844e+00) (57, -5.66160380840301513672e-01) (33, 1.46846878528594970703e+00) (23, -1.24885880947113037109e+00) (66, 7.47890248894691467285e-02) (27, -5.92698380351066589355e-02) (40, 2.83843398094177246094e-01) (45, -1.69943884015083312988e-01) (29, 8.50870236754417419434e-02) (26, -8.39584320783615112305e-03) (58, 3.49305659532546997070e-01) (25, -1.42117488384246826172e+00) (24, -1.73909008502960205078e+00) (28, 7.31257557868957519531e-01) (20, 1.02299284934997558594e+00) (33, -5.65966427326202392578e-01) (46, 6.75392210483551025391e-01) (44, -2.50807166099548339844e-01) (21, -4.15622472763061523438e-01) (17, -5.86619555950164794922e-01) (66, -5.45166313648223876953e-01) (21, 4.01804372668266296387e-02) (25, 2.18692749738693237305e-01) (47, -4.68032181262969970703e-01) (20, 6.67722404003143310547e-01) (60, 8.30320864915847778320e-02) (40, 1.37410783767700195312e+00) (53, 2.06159919500350952148e-01) (29, 6.70546352863311767578e-01) (23, 1.61863589286804199219e+00) (35, -3.94921213388442993164e-01) (34, -2.12061309814453125000e+00) (31, 8.52557539939880371094e-01) (37, 6.00653588771820068359e-01) (59, 6.28498077392578125000e-01) (64, -7.50856876373291015625e-01) (66, 6.52044236660003662109e-01) (20, -7.72398471832275390625e-01) (35, 1.33061742782592773438e+00) (24, 2.15246185660362243652e-01) (43, 9.30219948291778564453e-01) (56, -4.69554066658020019531e-01) (17, 1.96756458282470703125e+00) (42, 3.47453057765960693359e-01) (51, 6.19598664343357086182e-02) (64, 3.43432396650314331055e-01) (30, 4.87438350915908813477e-01) (61, -9.95385348796844482422e-01) (29, 5.15883803367614746094e-01) (50, 7.45655119419097900391e-01) (22, 4.08957332372665405273e-01) (44, -4.18111294507980346680e-01) (66, 9.40573811531066894531e-01) (62, 4.39214482903480529785e-02) (29, -4.61389264091849327087e-03) (59, -6.33027017116546630859e-01) (40, 1.03930556774139404297e+00) (31, 3.44789117574691772461e-01) (63, 1.04203872382640838623e-01) (51, 1.19087100028991699219e-01) (16, -6.70058429241180419922e-01) (48, -7.00167417526245117188e-01) (24, 4.71709817647933959961e-02) (44, -2.42138937115669250488e-01) (39, -4.45974230766296386719e-01) (27, -5.28282046318054199219e-01) (37, -6.78156092762947082520e-02) (43, 4.91047501564025878906e-01) (66, -5.79985320568084716797e-01) (49, -1.04232192039489746094e+00) (50, -3.76032400131225585938e+00) (20, -1.08002090454101562500e+00) (27, -1.17370629310607910156e+00) (64, 2.67865085601806640625e+00) (59, -2.10486814379692077637e-01) (22, -4.29374504089355468750e+00) (58, 2.68094515800476074219e+00) (24, 1.27498292922973632812e+00) (38, 4.08065557479858398438e+00) (42, 3.19376683235168457031e+00) (52, -2.97729372978210449219e+00) (26, -3.13257157802581787109e-01) (23, 1.55384314060211181641e+00) (60, 6.45768225193023681641e-01) (92, -3.77667516469955444336e-01) (88, -4.94003206491470336914e-01) (75, -1.26308465003967285156e+00) (82, -5.78577339649200439453e-01) (84, 3.31548720598220825195e-01) (71, -6.01132214069366455078e-01) (70, -2.76013553142547607422e-01) (76, 1.61921977996826171875e+00) (92, -5.06626546382904052734e-01) (73, 9.25816833972930908203e-01) (89, -3.63931238651275634766e-01) (91, -3.29327911138534545898e-01) (90, -1.04284131526947021484e+00) (75, 3.87567698955535888672e-01) (85, 1.23954176902770996094e+00) (84, 7.35801383852958679199e-02) (79, 3.32918673753738403320e-01) (92, 1.45508468151092529297e-01) (87, 5.99101662635803222656e-01) (86, -4.40931558609008789062e-01) (91, 1.72058701515197753906e+00) (75, 5.71242511272430419922e-01) (82, 1.27839672565460205078e+00) (83, 9.67747345566749572754e-02) (70, -5.40568947792053222656e-01) (92, 7.21152305603027343750e-01) (81, 7.37588107585906982422e-01) (84, 1.63873374462127685547e-01) (77, -3.10272753238677978516e-01) (79, 6.45328855514526367188e+00) (78, 7.82170653343200683594e-01) (70, 2.37107515335083007812e+00) (72, 1.93414151668548583984e+00) (76, 4.72920715808868408203e-01) (92, 1.13622355461120605469e+00) (69, -1.69675961136817932129e-01) (81, 3.07924151420593261719e-01) (78, -2.62590050697326660156e-01) (88, -6.54218941926956176758e-02) (77, 7.61334002017974853516e-01) (87, -3.81585240364074707031e-01) (82, 2.71651148796081542969e-01) (92, 7.16762900352478027344e-01) (84, -6.46569848060607910156e-01) (89, 9.58481967449188232422e-01) (88, 6.93314611911773681641e-01) (68, 1.61948755383491516113e-01) (85, -7.28374300524592399597e-03) (73, -4.44782823324203491211e-01) (79, 9.85118627548217773438e-01) (87, 6.43760338425636291504e-02) (92, 6.93204522132873535156e-01) (90, 6.72311723232269287109e-01) (69, -7.65875816345214843750e+00) (73, -1.11813049316406250000e+01) (76, 3.45432901382446289062e+00) (84, -1.88644719123840332031e+00) (72, 1.04719257354736328125e+00) (85, 3.87506151199340820312e+00) (92, 1.58981072902679443359e+00) (74, -7.76316046714782714844e-01) (67, 1.74213662743568420410e-01) (84, 1.01653897762298583984e+00) (80, 6.39921367168426513672e-01) (75, 1.44337666034698486328e+00) (72, -1.69000446796417236328e+00) (71, 7.97235488891601562500e-01) (69, -1.54215216636657714844e+00) (92, 4.02653515338897705078e-01) (69, 2.56414341926574707031e+00) (74, 2.04542207717895507812e+00) (78, 2.08942985534667968750e+00) (84, -2.17364573478698730469e+00) (68, -3.26336646080017089844e+00) (80, 3.35847520828247070312e+00) (88, -5.43272614479064941406e-01) (92, 9.01306629180908203125e-01) (68, -7.91594564914703369141e-01) (87, 1.15433669090270996094e+00) (78, 8.95142436027526855469e-01) (72, 1.43570613861083984375e+00) (75, -1.42428112030029296875e+00) (76, 1.90629267692565917969e+00) (82, 3.90663683414459228516e-01) (86, -1.47010016441345214844e+00) (92, 5.30616760253906250000e-01) (76, -8.51777553558349609375e-01) (75, 6.80377125740051269531e-01) (77, 1.38083517551422119141e-01) (89, 1.93068236112594604492e-02) (82, -3.40164124965667724609e-01) (90, -7.82434284687042236328e-01) (68, 7.73174047470092773438e-01) (92, 1.37399184703826904297e+00) (79, -1.60761439800262451172e+00) (85, 8.59451293945312500000e-01) (90, 4.35246527194976806641e-02) (68, -6.69165030121803283691e-02) (73, 1.95627880096435546875e+00) (86, -7.10725545883178710938e-01) (80, 3.75421941280364990234e-01) (75, -5.79962790012359619141e-01) (92, -1.76360636949539184570e-01) (85, 1.05430765151977539062e+01) (68, -3.79739975929260253906e+00) (78, 1.21571931838989257812e+01) (76, 1.27583742141723632812e+01) (86, 3.94660115242004394531e-01) (69, -4.62474775314331054688e+00) (83, -7.56216287612915039062e+00) (92, -3.44770461320877075195e-01) (86, -2.85627651214599609375e+00) (85, 1.48184454441070556641e+00) (70, -1.39408722519874572754e-01) (83, -1.04520618915557861328e+00) (88, -5.31976163387298583984e-01) (74, 7.75910913944244384766e-01) (71, 4.64574664831161499023e-01) (76, 2.23499417304992675781e-01) (92, 1.03818237781524658203e+00) (79, 7.54786670207977294922e-01) (80, 2.07620486617088317871e-01) (70, -1.24187529087066650391e+00) (72, -9.72520768642425537109e-01) (76, -6.15499556064605712891e-01) (78, -4.98742491006851196289e-01) (71, -5.98034560680389404297e-01) (92, 1.60858243703842163086e-01) (81, 2.34777736663818359375e+00) (72, 5.31275463104248046875e+00) (78, 3.31201958656311035156e+00) (89, 2.58467435836791992188e+00) (85, -9.65215206146240234375e-01) (73, 1.45341694355010986328e+00) (83, 9.56349432468414306641e-01) (70, -1.52082324028015136719e+00) (92, 1.23285067081451416016e+00) (85, 2.77735829353332519531e-01) (87, -8.43240395188331604004e-02) (78, -1.37742370367050170898e-01) (68, 2.68911093473434448242e-01) (73, 6.92965462803840637207e-02) (70, 7.40777924656867980957e-02) (74, -6.02376759052276611328e-01) (92, -4.28091764450073242188e-01) (68, 2.88886755704879760742e-01) (82, 1.49830710887908935547e+00) (73, -3.95849160850048065186e-02) (70, -2.42332264780998229980e-01) (72, 1.63449835777282714844e+00) (74, 1.37034542858600616455e-02) (83, 3.89072783291339874268e-02) (77, -7.08816170692443847656e-01) (92, -1.05922013521194458008e-01) (70, -2.79691293835639953613e-02) (68, 7.57658183574676513672e-02) (89, 2.18887895345687866211e-01) (82, 1.02199625968933105469e+00) (72, 1.10153913497924804688e+00) (78, 1.72868803143501281738e-01) (74, 2.60248109698295593262e-02) (92, 9.53703105449676513672e-01) (90, -1.00329971313476562500e+00) (70, 2.18646124005317687988e-01) (81, 8.41636657714843750000e-01) (67, 9.55716729164123535156e-01) (85, 2.60419920086860656738e-02) (82, 7.86736905574798583984e-02) (74, -5.94958722591400146484e-01) (68, 6.95187270641326904297e-01) (92, 7.74733066558837890625e-01) (69, 8.40914994478225708008e-02) (71, -2.96892189979553222656e+00) (87, 3.23351204395294189453e-01) (81, -1.73901185393333435059e-01) (85, 2.46313810348510742188e+00) (78, 1.08967947959899902344e+00) (89, 1.49402666091918945312e+00) (92, 9.96388316154479980469e-01) (71, 8.00238227844238281250e+00) (89, 3.61759141087532043457e-02) (90, 1.72992706298828125000e+01) (68, 2.22567768096923828125e+01) (72, 1.79418277740478515625e+01) (86, 2.43125289678573608398e-01) (85, -3.30490231513977050781e+00) (84, -2.12354588508605957031e+00) (92, -3.00319120287895202637e-02) (72, 1.25403976440429687500e+00) (84, 2.07134771347045898438e+00) (85, 1.74226367473602294922e+00) (88, 2.50594305992126464844e+00) (80, 1.35134005546569824219e+00) (82, 4.06568706035614013672e-01) (89, 1.66315948963165283203e+00) (92, 1.16295211017131805420e-01) (70, 6.09121441841125488281e-01) (68, 4.54928785562515258789e-01) (67, -5.61005771160125732422e-01) (86, 1.16680026054382324219e+00) (82, -2.55029071122407913208e-02) (89, 2.28951072692871093750e+00) (73, 7.96136856079101562500e-01) (88, -1.01112854480743408203e+00) (92, -6.09224975109100341797e-01) (80, -8.96779168397188186646e-03) (78, 2.25697064399719238281e+00) (87, 1.28772509098052978516e+00) (70, 9.55120027065277099609e-01) (85, 1.10988616943359375000e+00) (82, 5.08844852447509765625e-01) (83, -6.39050722122192382812e-01) (92, -4.63436633348464965820e-01) (82, -4.49609708786010742188e+00) (78, -6.42907142639160156250e-01) (85, 2.63397455215454101562e-01) (84, 2.60302238166332244873e-02) (72, 6.71518921852111816406e-01) (71, -1.07738077640533447266e+00) (87, 5.23705542087554931641e-01) (68, 1.02334499359130859375e+00) (92, -3.82306426763534545898e-01) (90, 1.39342474937438964844e+00) (88, 1.00859187543392181396e-01) (67, 7.26994156837463378906e-01) (87, 1.24459671974182128906e+00) (91, 5.89107275009155273438e-01) (78, 1.12815511226654052734e+00) (84, 3.61599653959274291992e-01) (92, 2.02562704682350158691e-01) (79, 2.61034995317459106445e-01) (80, -1.12443554401397705078e+00) (76, 1.12040065228939056396e-01) (69, 6.33596658706665039062e-01) (73, 3.31757456064224243164e-01) (90, 3.56985807418823242188e-01) (78, 9.26721930503845214844e-01) (70, -3.36796283721923828125e-01) (92, -1.34115830063819885254e-01) (91, 3.23958992958068847656e-01) (86, 7.97070145606994628906e-01) (90, 9.47178840637207031250e-01) (74, 5.15797808766365051270e-02) (72, -1.87178775668144226074e-01) (85, 9.75457727909088134766e-01) (77, 8.20395112037658691406e-01) (92, 1.33662295341491699219e+00) (85, 4.25717175006866455078e-01) (91, 3.49730563163757324219e+00) (68, -2.69660687446594238281e+00) (71, 2.79448032379150390625e+00) (80, 2.43350338935852050781e+00) (73, 1.11604952812194824219e+00) (90, -1.33088994026184082031e+00) (70, -1.09888422489166259766e+00) (92, -1.85597687959671020508e-01) (75, 1.21055996417999267578e+00) (69, -5.57925462722778320312e-01) (73, -5.56183815002441406250e-01) (74, 2.41152662783861160278e-02) (81, 1.17175304889678955078e+00) (88, 3.14272284507751464844e-01) (84, 1.86647975444793701172e+00) (92, -2.58571684360504150391e-01) (83, 9.83227610588073730469e-01) (85, 7.24646270275115966797e-01) (88, -2.10680484771728515625e+00) (82, -6.18857955932617187500e+00) (73, 2.85381579399108886719e+00) (77, 3.06052923202514648438e+00) (74, -3.02123951911926269531e+00) (80, -3.70462083816528320312e+00) (92, -2.55143135786056518555e-01) (80, 1.72602486610412597656e+00) (84, -1.59647333621978759766e+00) (78, -6.69878423213958740234e-01) (77, 2.45044326782226562500e+00) (74, 5.59983730316162109375e-01) (73, 5.57727098464965820312e-01) (86, -1.05911672115325927734e+00) (92, -3.22616875171661376953e-01) (80, 8.19290995597839355469e-01) (72, 3.93480110168457031250e+00) (81, -4.54767227172851562500e-01) (67, 4.60347354412078857422e-01) (75, -9.16967689990997314453e-01) (73, 8.79207730293273925781e-01) (69, 1.83793020248413085938e+00) (74, -6.63561046123504638672e-01) (92, 1.65870678424835205078e+00) (73, -8.00424194335937500000e+00) (75, 2.52704238891601562500e+00) (76, 1.43886601924896240234e+00) (79, -3.50108695030212402344e+00) (86, -8.38277101516723632812e-01) (80, 7.24098014831542968750e+00) (83, -3.70930314064025878906e+00) (92, 1.75159618258476257324e-01) (71, -8.69660198688507080078e-01) (89, 5.11730253696441650391e-01) (82, -9.57234919071197509766e-01) (73, -4.52312864363193511963e-02) (75, 2.27828010916709899902e-01) (77, 5.19881784915924072266e-01) (79, 1.25029772520065307617e-01) (81, 1.33142089843750000000e+00) (92, 6.63656294345855712891e-01) (76, -1.04424071311950683594e+00) (84, 5.08236177265644073486e-02) (81, -1.62717491388320922852e-01) (88, -1.19364297389984130859e+00) (74, 1.00144064426422119141e+00) (69, 5.90196438133716583252e-02) (85, -6.92540347576141357422e-01) (92, 1.28978312015533447266e-01) (72, 1.53220605850219726562e+00) (90, 2.21552729606628417969e+00) (74, -7.24843323230743408203e-01) (81, 2.45237326622009277344e+00) (73, -2.94318851083517074585e-02) (70, 3.11829757690429687500e+00) (79, 2.04903101921081542969e+00) (71, -2.32638406753540039062e+00) (92, 1.78532913327217102051e-01) (68, 2.68024086952209472656e-01) (81, -2.22302007675170898438e+00) (75, -9.42516803741455078125e+00) (80, 1.03876030445098876953e+00) (77, -5.19840180873870849609e-01) (82, 4.23196285963058471680e-01) (84, -5.44721984863281250000e+00) (92, 2.72169988602399826050e-02) (75, -5.99970281124114990234e-01) (86, -2.56989151239395141602e-01) (76, 1.43227016925811767578e+00) (81, -6.13255441188812255859e-01) (79, -3.14462035894393920898e-01) (72, 7.61787965893745422363e-02) (73, 7.25123211741447448730e-02) (88, 7.71460831165313720703e-01) (92, 6.16512060165405273438e-01) (75, 3.41709947586059570312e+00) (67, 1.11835455894470214844e+00) (85, 4.70012950897216796875e+00) (74, 2.15848112106323242188e+00) (73, 1.83239245414733886719e+00) (84, -2.74160051345825195312e+00) (77, -1.19382643699645996094e+00) (92, 7.67969414591789245605e-02) (90, -1.14818978309631347656e+00) (68, 6.81146264076232910156e-01) (86, 4.61715251207351684570e-01) (84, 5.85525691509246826172e-01) (85, -2.13828831911087036133e-01) (67, 1.18300855159759521484e+00) (82, 6.27117097377777099609e-01) (79, 1.07036507129669189453e+00) (92, -3.18342268466949462891e-01) (87, 2.91605353355407714844e+00) (85, -2.73234415054321289062e+00) (80, 6.48760616779327392578e-01) (78, 7.96363890171051025391e-01) (77, -2.77603197097778320312e+00) (73, 4.56991195678710937500e+00) (72, 6.19275331497192382812e+00) (92, -6.79269373416900634766e-01) (86, -1.34678268432617187500e+00) (81, 1.79847764968872070312e+00) (84, -4.41280174255371093750e+00) (75, -2.44819211959838867188e+00) (78, 1.44924774765968322754e-01) (69, 3.45129680633544921875e+00) (83, 5.10015010833740234375e-01) (77, 1.99749720096588134766e+00) (92, -5.21080076694488525391e-01) (86, 5.81375217437744140625e+00) (91, 2.17500519752502441406e+00) (89, 1.18987617492675781250e+01) (79, 6.38408899307250976562e-01) (72, 2.74872279167175292969e+00) (76, 1.11995667219161987305e-01) (81, 2.92510223388671875000e+00) (92, -5.44478058815002441406e-01) (72, -3.62673401832580566406e-01) (77, 5.54093420505523681641e-01) (84, 3.48345875740051269531e-01) (70, -1.71657323837280273438e-01) (74, -7.03010618686676025391e-01) (81, -3.70828509330749511719e-02) (67, 6.10064446926116943359e-01) (86, -6.76237463951110839844e-01) (92, -5.92446267604827880859e-01) (90, 1.59092676639556884766e+00) (77, 1.86104834079742431641e-01) (73, 1.23043704032897949219e+00) (89, 7.74442553520202636719e-01) (74, 5.59999048709869384766e-01) (78, 4.02038067579269409180e-01) (85, 1.85015037655830383301e-01) (92, -4.86679226160049438477e-01) (67, 1.00328680127859115601e-02) (89, 2.29517650604248046875e+00) (86, 2.66046833992004394531e+00) (78, 6.48955523967742919922e-01) (76, -1.40787169337272644043e-01) (79, 3.28782773017883300781e+00) (75, 2.27051824331283569336e-01) (73, 6.97652339935302734375e-01) (92, 4.51387357711791992188e+00) (70, -4.25152212381362915039e-01) (69, -7.88537597656250000000e+00) (76, 1.14011740684509277344e+00) (74, 5.94838619232177734375e+00) (89, -1.59660875797271728516e+00) (68, 1.36757159233093261719e+00) (83, 3.86208027601242065430e-01) (92, -9.85105112195014953613e-02) (73, -3.25702023506164550781e+00) (86, -5.97028076648712158203e-01) (83, -2.23839235305786132812e+00) (80, 2.41838693618774414062e+00) (69, 2.81441640853881835938e+00) (84, -1.37213850021362304688e+00) (76, 2.80154752731323242188e+00) (78, 1.17027533054351806641e+00) (143, 4.44645643234252929688e-01) (108, -3.26865524053573608398e-01) (110, -1.26259195804595947266e+00) (122, -5.74589669704437255859e-01) (124, 8.34050655364990234375e-01) (125, -4.28880482912063598633e-01) (130, 1.05264830589294433594e+00) (133, 8.35105121135711669922e-01) (141, 6.99114501476287841797e-01) (142, -7.77781248092651367188e-01) (101, -1.51892828941345214844e+00) (127, 2.82254517078399658203e-01) (109, 2.18778395652770996094e+00) (134, 1.04167962074279785156e+00) (128, -2.80955303460359573364e-02) (100, 1.38962638378143310547e+00) (143, -3.82125973701477050781e-01) (93, -2.18028092384338378906e+00) (95, -5.53533971309661865234e-01) (96, 1.28022277355194091797e+00) (101, -4.84695464372634887695e-01) (104, -5.39083957672119140625e-01) (113, 9.74012315273284912109e-01) (117, -3.88626486063003540039e-01) (126, -1.40888881683349609375e+00) (128, 1.10566902160644531250e+00) (131, -8.35042834281921386719e-01) (135, -1.12729787826538085938e+00) (136, -6.44263684749603271484e-01) (139, -3.29252958297729492188e-01) (140, 7.54837691783905029297e-01) (112, 1.59600567817687988281e+00) (143, 9.93722021579742431641e-01) (94, 1.11924421787261962891e+00) (97, 9.28070724010467529297e-01) (98, 1.13029241561889648438e+00) (99, -2.90034413337707519531e-01) (100, 6.21167778968811035156e-01) (102, -5.34980893135070800781e-01) (106, -3.04537504911422729492e-01) (109, 1.12731552124023437500e+00) (111, -1.28316223621368408203e+00) (112, 9.44114625453948974609e-01) (116, 4.00257647037506103516e-01) (118, 1.36504971981048583984e+00) (120, 3.91898214817047119141e-01) (123, 9.34885799884796142578e-01) (127, -3.05765330791473388672e-01) (143, 1.81578740477561950684e-01) (103, 1.03178143501281738281e+00) (105, -1.57480490207672119141e+00) (107, 2.37308454513549804688e+00) (114, -9.00379836559295654297e-01) (115, 1.16844892501831054688e+00) (119, -9.64065134525299072266e-01) (121, 4.54106539487838745117e-01) (129, -1.30873298645019531250e+00) (132, -1.28958451747894287109e+00) (134, 3.68364453315734863281e-01) (137, 3.98547142744064331055e-01) (138, -1.35991752147674560547e+00) (131, -5.82316517829895019531e-01) (95, -5.95468163490295410156e-01) (127, -5.32913446426391601562e-01)
input_names='AS_2' 'AS_3' 'BETAE' 'DELTA_LOC' 'KAPPA_LOC' 'Q_LOC' 'Q_PRIME_LOC' 'RLNS_1' 'RLTS_1' 'RLTS_2' 'RMAJ_LOC' 'RMIN_LOC' 'S_KAPPA_LOC' 'TAUS_2' 'XNUE'
output_names='OUT_ENERGY_FLUX_1_exp' 'OUT_ENERGY_FLUX_i_exp' 'OUT_PARTICLE_FLUX_1_exp' 'OUT_STRESS_TOR_i_exp'
norm_output=0.0 0.0 0.0 0.0 0.0 0.0 0.0 0.0 0.0 0.0 0.0 0.0 0.0 0.0 0.0 0.0 0.0 0.0 0.0 0.0 0.0 0.0 0.0 0.0 0.0 0.0 0.0 0.0 0.0 0.0 0.0 0.0 0.0 0.0 0.0 0.0 0.0 0.0 0.0 0.0 0.0 0.0 0.0 0.0 0.0 0.0 0.0 0.0 0.0 0.0 0.0 0.0 0.0 0.0 0.0 0.0 0.0 0.0 0.0 0.0
MSE= 0.0177746340632