FANN_FLO_2.1
num_layers=5
learning_rate=0.700000
connection_rate=0.472414
network_type=0
learning_momentum=0.000000
training_algorithm=2
train_error_function=0
train_stop_function=0
cascade_output_change_fraction=0.010000
quickprop_decay=0.015330
quickprop_mu=1.750000
rprop_increase_factor=1.200000
rprop_decrease_factor=0.500000
rprop_delta_min=0.000000
rprop_delta_max=50.000000
rprop_delta_zero=0.100000
cascade_output_stagnation_epochs=12
cascade_candidate_change_fraction=0.010000
cascade_candidate_stagnation_epochs=12
cascade_max_out_epochs=150
cascade_min_out_epochs=50
cascade_max_cand_epochs=150
cascade_min_cand_epochs=50
cascade_num_candidate_groups=2
bit_fail_limit=3.49999994039535522461e-01
cascade_candidate_limit=1.00000000000000000000e+03
cascade_weight_multiplier=4.00000005960464477539e-01
cascade_activation_functions_count=10
cascade_activation_functions=3 5 7 8 10 11 14 15 16 17
cascade_activation_steepnesses_count=4
cascade_activation_steepnesses=2.50000000000000000000e-01 5.00000000000000000000e-01 7.50000000000000000000e-01 1.00000000000000000000e+00
layer_sizes=16 51 26 51 5
scale_included=1
scale_mean_in=0.751931 0.034440 0.004287 0.083840 1.426260 2.065624 11.077409 1.146319 2.420896 2.453427 3.039549 0.589617 0.185673 1.203894 0.089657
scale_deviation_in=0.047428 0.007106 0.003614 0.042970 0.091245 0.799373 10.414528 1.365134 1.370780 1.681486 0.041713 0.230705 0.201450 0.153074 0.080643
scale_new_min_in=-1.000000 -1.000000 -1.000000 -1.000000 -1.000000 -1.000000 -1.000000 -1.000000 -1.000000 -1.000000 -1.000000 -1.000000 -1.000000 -1.000000 -1.000000
scale_factor_in=1.000000 1.000000 1.000000 1.000000 1.000000 1.000000 1.000000 1.000000 1.000000 1.000000 1.000000 1.000000 1.000000 1.000000 1.000000
scale_mean_out=2.556615 4.437705 0.200184 -1.690693
scale_deviation_out=4.569037 6.969524 0.300797 2.906913
scale_new_min_out=-1.000000 -1.000000 -1.000000 -1.000000
scale_factor_out=1.000000 1.000000 1.000000 1.000000
neurons (num_inputs, activation_function, activation_steepness)=(0, 0, 0.00000000000000000000e+00) (0, 0, 0.00000000000000000000e+00) (0, 0, 0.00000000000000000000e+00) (0, 0, 0.00000000000000000000e+00) (0, 0, 0.00000000000000000000e+00) (0, 0, 0.00000000000000000000e+00) (0, 0, 0.00000000000000000000e+00) (0, 0, 0.00000000000000000000e+00) (0, 0, 0.00000000000000000000e+00) (0, 0, 0.00000000000000000000e+00) (0, 0, 0.00000000000000000000e+00) (0, 0, 0.00000000000000000000e+00) (0, 0, 0.00000000000000000000e+00) (0, 0, 0.00000000000000000000e+00) (0, 0, 0.00000000000000000000e+00) (0, 0, 0.00000000000000000000e+00) (8, 5, 5.00000000000000000000e-01) (8, 5, 5.00000000000000000000e-01) (8, 5, 5.00000000000000000000e-01) (8, 5, 5.00000000000000000000e-01) (8, 5, 5.00000000000000000000e-01) (8, 5, 5.00000000000000000000e-01) (8, 5, 5.00000000000000000000e-01) (8, 5, 5.00000000000000000000e-01) (8, 5, 5.00000000000000000000e-01) (8, 5, 5.00000000000000000000e-01) (8, 5, 5.00000000000000000000e-01) (8, 5, 5.00000000000000000000e-01) (9, 5, 5.00000000000000000000e-01) (8, 5, 5.00000000000000000000e-01) (8, 5, 5.00000000000000000000e-01) (8, 5, 5.00000000000000000000e-01) (8, 5, 5.00000000000000000000e-01) (8, 5, 5.00000000000000000000e-01) (8, 5, 5.00000000000000000000e-01) (8, 5, 5.00000000000000000000e-01) (8, 5, 5.00000000000000000000e-01) (8, 5, 5.00000000000000000000e-01) (8, 5, 5.00000000000000000000e-01) (8, 5, 5.00000000000000000000e-01) (9, 5, 5.00000000000000000000e-01) (8, 5, 5.00000000000000000000e-01) (8, 5, 5.00000000000000000000e-01) (8, 5, 5.00000000000000000000e-01) (8, 5, 5.00000000000000000000e-01) (8, 5, 5.00000000000000000000e-01) (8, 5, 5.00000000000000000000e-01) (8, 5, 5.00000000000000000000e-01) (8, 5, 5.00000000000000000000e-01) (8, 5, 5.00000000000000000000e-01) (8, 5, 5.00000000000000000000e-01) (8, 5, 5.00000000000000000000e-01) (8, 5, 5.00000000000000000000e-01) (9, 5, 5.00000000000000000000e-01) (8, 5, 5.00000000000000000000e-01) (8, 5, 5.00000000000000000000e-01) (8, 5, 5.00000000000000000000e-01) (8, 5, 5.00000000000000000000e-01) (8, 5, 5.00000000000000000000e-01) (8, 5, 5.00000000000000000000e-01) (8, 5, 5.00000000000000000000e-01) (8, 5, 5.00000000000000000000e-01) (8, 5, 5.00000000000000000000e-01) (8, 5, 5.00000000000000000000e-01) (8, 5, 5.00000000000000000000e-01) (9, 5, 5.00000000000000000000e-01) (0, 5, 0.00000000000000000000e+00) (24, 5, 5.00000000000000000000e-01) (25, 5, 5.00000000000000000000e-01) (24, 5, 5.00000000000000000000e-01) (25, 5, 5.00000000000000000000e-01) (25, 5, 5.00000000000000000000e-01) (24, 5, 5.00000000000000000000e-01) (25, 5, 5.00000000000000000000e-01) (25, 5, 5.00000000000000000000e-01) (24, 5, 5.00000000000000000000e-01) (25, 5, 5.00000000000000000000e-01) (25, 5, 5.00000000000000000000e-01) (24, 5, 5.00000000000000000000e-01) (25, 5, 5.00000000000000000000e-01) (24, 5, 5.00000000000000000000e-01) (25, 5, 5.00000000000000000000e-01) (25, 5, 5.00000000000000000000e-01) (24, 5, 5.00000000000000000000e-01) (25, 5, 5.00000000000000000000e-01) (25, 5, 5.00000000000000000000e-01) (24, 5, 5.00000000000000000000e-01) (25, 5, 5.00000000000000000000e-01) (25, 5, 5.00000000000000000000e-01) (24, 5, 5.00000000000000000000e-01) (25, 5, 5.00000000000000000000e-01) (25, 5, 5.00000000000000000000e-01) (0, 5, 0.00000000000000000000e+00) (12, 5, 5.00000000000000000000e-01) (13, 5, 5.00000000000000000000e-01) (13, 5, 5.00000000000000000000e-01) (13, 5, 5.00000000000000000000e-01) (13, 5, 5.00000000000000000000e-01) (12, 5, 5.00000000000000000000e-01) (13, 5, 5.00000000000000000000e-01) (13, 5, 5.00000000000000000000e-01) (13, 5, 5.00000000000000000000e-01) (13, 5, 5.00000000000000000000e-01) (13, 5, 5.00000000000000000000e-01) (12, 5, 5.00000000000000000000e-01) (13, 5, 5.00000000000000000000e-01) (13, 5, 5.00000000000000000000e-01) (13, 5, 5.00000000000000000000e-01) (13, 5, 5.00000000000000000000e-01) (12, 5, 5.00000000000000000000e-01) (13, 5, 5.00000000000000000000e-01) (13, 5, 5.00000000000000000000e-01) (13, 5, 5.00000000000000000000e-01) (13, 5, 5.00000000000000000000e-01) (13, 5, 5.00000000000000000000e-01) (12, 5, 5.00000000000000000000e-01) (13, 5, 5.00000000000000000000e-01) (13, 5, 5.00000000000000000000e-01) (13, 5, 5.00000000000000000000e-01) (13, 5, 5.00000000000000000000e-01) (12, 5, 5.00000000000000000000e-01) (13, 5, 5.00000000000000000000e-01) (13, 5, 5.00000000000000000000e-01) (13, 5, 5.00000000000000000000e-01) (13, 5, 5.00000000000000000000e-01) (13, 5, 5.00000000000000000000e-01) (12, 5, 5.00000000000000000000e-01) (13, 5, 5.00000000000000000000e-01) (13, 5, 5.00000000000000000000e-01) (13, 5, 5.00000000000000000000e-01) (13, 5, 5.00000000000000000000e-01) (12, 5, 5.00000000000000000000e-01) (13, 5, 5.00000000000000000000e-01) (13, 5, 5.00000000000000000000e-01) (13, 5, 5.00000000000000000000e-01) (13, 5, 5.00000000000000000000e-01) (13, 5, 5.00000000000000000000e-01) (12, 5, 5.00000000000000000000e-01) (13, 5, 5.00000000000000000000e-01) (13, 5, 5.00000000000000000000e-01) (13, 5, 5.00000000000000000000e-01) (13, 5, 5.00000000000000000000e-01) (13, 5, 5.00000000000000000000e-01) (0, 5, 0.00000000000000000000e+00) (24, 0, 5.00000000000000000000e-01) (25, 0, 5.00000000000000000000e-01) (24, 0, 5.00000000000000000000e-01) (25, 0, 5.00000000000000000000e-01) (0, 0, 0.00000000000000000000e+00)
connections (connected_to_neuron, weight)=(15, 4.62940752506256103516e-01) (10, 3.14906090497970581055e-01) (11, -1.07705764472484588623e-01) (4, -8.46580862998962402344e-01) (2, -4.46326851844787597656e-01) (8, 1.52621418237686157227e-01) (14, 1.53467297554016113281e-01) (13, 1.90080866217613220215e-01) (15, -7.72808015346527099609e-01) (10, -1.87469065189361572266e-01) (6, 3.24965476989746093750e-01) (1, -2.22102552652359008789e-02) (14, 1.14020848274230957031e+00) (13, -2.01627627015113830566e-01) (8, 1.33515489101409912109e+00) (3, -4.86896067857742309570e-01) (15, 1.18464314937591552734e+00) (4, 2.93539427220821380615e-02) (7, -2.97688513994216918945e-01) (14, -5.17814278602600097656e-01) (6, 8.43255698680877685547e-01) (5, 6.09485089778900146484e-01) (0, -6.93336188793182373047e-01) (11, 5.81354558467864990234e-01) (15, -4.76474314928054809570e-01) (5, -3.71894180774688720703e-01) (1, -9.40691977739334106445e-02) (11, 4.58192348480224609375e-01) (6, 1.86466872692108154297e-01) (3, 1.10215258598327636719e+00) (12, -5.32479047775268554688e-01) (10, 4.07498240470886230469e-01) (15, -5.82012593746185302734e-01) (2, 6.50033235549926757812e-01) (11, 6.39199435710906982422e-01) (4, -3.28579783439636230469e-01) (9, -1.30593612790107727051e-01) (13, 7.27482259273529052734e-01) (10, 7.98761367797851562500e-01) (6, 6.72989547252655029297e-01) (15, -1.76917806267738342285e-01) (4, 4.44640107452869415283e-02) (5, 7.75938332080841064453e-01) (11, 1.71246677637100219727e-01) (13, 9.66136232018470764160e-02) (1, -8.15255343914031982422e-01) (6, 3.40792626142501831055e-01) (8, 8.36971700191497802734e-01) (15, 3.58374476432800292969e+00) (6, 8.60097184777259826660e-02) (12, -1.19506347179412841797e+00) (2, 5.66636919975280761719e-01) (7, -7.26615563035011291504e-02) (13, -1.46304368972778320312e-01) (3, 7.91870296001434326172e-01) (10, 9.05968725681304931641e-01) (15, 1.07081994414329528809e-01) (10, -2.91254073381423950195e-01) (2, -3.26184004545211791992e-01) (11, 4.73921597003936767578e-01) (14, 2.07639002799987792969e+00) (3, 1.18103593587875366211e-01) (6, -4.73863512277603149414e-01) (7, -2.70858108997344970703e-01) (15, -8.00718963146209716797e-01) (4, -3.00948858261108398438e-01) (3, -1.74303400516510009766e+00) (7, -4.45456695556640625000e+00) (14, -4.29240703582763671875e+00) (6, -3.33165526390075683594e-01) (13, -3.87958437204360961914e-01) (2, -1.61878621578216552734e+00) (15, 5.69382071495056152344e-01) (0, 1.67150151729583740234e+00) (10, -4.11542169749736785889e-02) (7, 1.59556341171264648438e+00) (8, 1.51046681404113769531e+00) (2, 1.49192237854003906250e+00) (6, 5.00080168247222900391e-01) (4, -8.75750839710235595703e-01) (15, 4.44334894418716430664e-01) (9, 3.96513819694519042969e-01) (11, 5.81706643104553222656e-01) (14, -1.08969032764434814453e+00) (1, -7.94684410095214843750e-01) (10, 7.26668000221252441406e-01) (4, 9.27518546581268310547e-01) (7, 1.09117306768894195557e-01) (15, 1.48307240009307861328e+00) (2, -1.01101048290729522705e-01) (12, -9.71748888492584228516e-01) (11, 7.57540225982666015625e-01) (8, 2.59397298097610473633e-01) (7, -5.64689077436923980713e-02) (4, -1.05796205997467041016e+00) (9, 3.70951801538467407227e-01) (15, 1.83726340532302856445e-01) (6, -3.85881990194320678711e-01) (4, 9.02362048625946044922e-01) (8, 5.52523910999298095703e-01) (1, 5.49136042594909667969e-01) (10, 1.38552689552307128906e+00) (11, -8.06575864553451538086e-02) (9, -2.58610427379608154297e-01) (2, 1.02467708289623260498e-01) (15, 6.77214384078979492188e-01) (8, -5.29919385910034179688e-01) (7, -1.39832258224487304688e-01) (3, 1.95504754781723022461e-01) (12, 8.15106272697448730469e-01) (4, 6.31871894001960754395e-02) (13, -3.50867286324501037598e-02) (10, -1.60071566700935363770e-01) (15, -1.84714391827583312988e-01) (12, -6.68352693319320678711e-02) (4, -7.06984698772430419922e-02) (2, 1.13251447677612304688e+00) (13, -4.00378346443176269531e-01) (6, 8.27114880084991455078e-01) (8, 7.65923738479614257812e-01) (7, -2.14692220091819763184e-01) (15, -2.36762857437133789062e+00) (5, 2.78786569833755493164e-01) (4, -1.30690062046051025391e+00) (9, 1.64355099201202392578e-01) (2, 6.19872450828552246094e-01) (13, 4.45007346570491790771e-02) (6, 7.71772742271423339844e-01) (12, -1.01862239837646484375e+00) (15, 3.91157925128936767578e-01) (5, 6.61338984966278076172e-01) (2, 5.42144060134887695312e-01) (13, -2.81350642442703247070e-01) (6, -8.52448284626007080078e-01) (10, -6.85261726379394531250e-01) (9, -7.19618201255798339844e-01) (7, 1.02284304797649383545e-01) (15, -1.25290524959564208984e+00) (11, 1.15797355771064758301e-01) (12, -1.00479900836944580078e+00) (6, -2.31374409049749374390e-02) (5, 1.50251424312591552734e+00) (7, 1.00878298282623291016e+00) (3, 7.28618144989013671875e-01) (4, 7.83875435590744018555e-02) (15, 2.50893890857696533203e-01) (9, -6.51199400424957275391e-01) (5, 1.29303425550460815430e-01) (3, 5.78910529613494873047e-01) (12, 2.86670207977294921875e-01) (10, 3.67741696536540985107e-02) (11, -5.90915858745574951172e-01) (0, 2.63926684856414794922e-01) (15, -3.47132027149200439453e-01) (8, 1.44518062472343444824e-01) (3, -4.85045969486236572266e-01) (14, 3.94805788993835449219e-01) (7, -7.94295221567153930664e-02) (4, -8.76767814159393310547e-01) (9, 6.91289722919464111328e-01) (13, -1.35364449024200439453e+00) (15, 1.23825991153717041016e+00) (10, 1.01299250125885009766e+00) (6, -1.35004401206970214844e-01) (13, -1.10934697091579437256e-01) (8, 2.69541114568710327148e-01) (2, -1.29285156726837158203e+00) (4, -6.04126229882240295410e-02) (11, 1.22032034397125244141e+00) (15, -3.18168967962265014648e-01) (2, -1.46426945924758911133e-01) (3, 4.94741946458816528320e-01) (11, -3.60377877950668334961e-01) (0, -9.61156189441680908203e-02) (14, 1.54760336875915527344e+00) (1, 1.99253022670745849609e+00) (8, -4.71748352050781250000e-01) (15, -3.33796292543411254883e-01) (14, 5.78751862049102783203e-01) (10, -2.70875513553619384766e-01) (2, -3.18525552749633789062e-01) (7, -2.59566634893417358398e-01) (11, -3.88346791267395019531e-01) (5, 1.50932492688298225403e-02) (13, -4.22572761774063110352e-01) (15, 5.94058454036712646484e-01) (4, 7.26338326930999755859e-01) (11, -1.87437057495117187500e-01) (2, 1.39698159694671630859e+00) (14, 7.58083224296569824219e-01) (8, 1.47147428989410400391e+00) (10, 3.54009032249450683594e-01) (9, 5.52642047405242919922e-01) (15, -4.78968560695648193359e-01) (12, -5.82999467849731445312e-01) (2, 1.96859508752822875977e-01) (10, 1.53875982761383056641e+00) (14, 3.95392596721649169922e-01) (6, 2.23049223423004150391e-01) (0, 5.58417499065399169922e-01) (8, -5.35235345363616943359e-01) (11, 9.05374944210052490234e-01) (15, -8.50994825363159179688e-01) (5, 1.70657837390899658203e+00) (0, 2.46605110168457031250e+00) (11, 4.39058005809783935547e-01) (9, 1.71927654743194580078e+00) (3, -1.23922681808471679688e+00) (7, 6.12811684608459472656e-01) (12, -1.10472118854522705078e+00) (15, -1.03725862503051757812e+00) (11, 1.19490551948547363281e+00) (5, -7.56404697895050048828e-01) (3, 1.37685775756835937500e+00) (7, 8.92355591058731079102e-02) (8, -2.41596603393554687500e+00) (10, -3.82772654294967651367e-01) (9, 8.53089615702629089355e-02) (15, 1.04267144203186035156e+00) (1, -9.71062123775482177734e-01) (4, 9.67400312423706054688e-01) (7, -2.96744167804718017578e-01) (9, 2.95999288558959960938e-01) (5, 1.81775689125061035156e-01) (12, -2.27144151926040649414e-01) (3, -8.36905896663665771484e-01) (15, 8.42494964599609375000e-01) (5, -3.43515127897262573242e-01) (14, -1.79702252149581909180e-01) (10, -2.79134780168533325195e-01) (7, -3.20153862237930297852e-01) (8, 1.80233821272850036621e-01) (4, -4.25272226333618164062e-01) (0, 2.01969838142395019531e+00) (15, -6.64895474910736083984e-01) (6, 1.77227091789245605469e+00) (1, -9.57392677664756774902e-02) (8, -4.41971302032470703125e-01) (3, -2.76648908853530883789e-01) (0, -2.34611943364143371582e-01) (4, 3.68364825844764709473e-02) (7, 1.10881477594375610352e-01) (15, -1.18200337886810302734e+00) (5, 4.23652112483978271484e-01) (1, 1.83761164546012878418e-01) (10, 3.89066249132156372070e-01) (7, 9.56535756587982177734e-01) (9, 1.83090552687644958496e-01) (8, 1.21735259890556335449e-01) (12, 4.63436424732208251953e-01) (15, 1.91351675987243652344e+00) (0, -3.32028627395629882812e-01) (8, -2.37951856106519699097e-02) (13, -5.01006424427032470703e-01) (5, 1.09521724283695220947e-01) (6, -9.13700938224792480469e-01) (7, -5.21285176277160644531e-01) (1, 3.92495304346084594727e-01) (15, 3.96692574024200439453e-01) (0, -6.09513044357299804688e-01) (5, 5.92790544033050537109e-01) (11, 1.44112145900726318359e+00) (12, -3.70221823453903198242e-01) (10, -7.87220001220703125000e-02) (8, 5.69981753826141357422e-01) (4, -7.42801964282989501953e-01) (15, -1.46862721443176269531e+00) (1, 1.26479983329772949219e+00) (5, -1.21409080922603607178e-01) (13, -5.81007719039916992188e-01) (11, 4.81891274452209472656e-01) (4, 3.74015152454376220703e-01) (10, 2.09627985954284667969e-01) (0, -9.91913259029388427734e-01) (15, 4.77444499731063842773e-01) (6, 1.21976256370544433594e-01) (5, 1.08730268478393554688e+00) (3, -2.44367048144340515137e-01) (10, 8.56327056884765625000e-01) (1, -3.02588462829589843750e+00) (14, -8.11306759715080261230e-02) (12, -1.02362781763076782227e-01) (15, 5.53719937801361083984e-01) (7, -5.13505220413208007812e-01) (5, -7.72033333778381347656e-01) (11, -8.09038460254669189453e-01) (10, 1.00157630443572998047e+00) (9, 5.54854512214660644531e-01) (2, -1.30166634917259216309e-01) (8, 3.66628408432006835938e-01) (15, 1.69630825519561767578e-01) (10, 9.26678121089935302734e-01) (1, -1.22196877002716064453e+00) (9, 8.07606220245361328125e-01) (5, 2.00623273849487304688e-01) (3, -5.09932398796081542969e-01) (11, -5.53551793098449707031e-01) (8, -3.15615773200988769531e-01) (15, 2.02618074417114257812e+00) (2, 8.15865278244018554688e-01) (1, 4.77661788463592529297e-01) (11, 3.21865439414978027344e-01) (5, -2.06307277083396911621e-01) (3, -4.74965542554855346680e-01) (7, 7.43422880768775939941e-02) (6, -2.28648573160171508789e-01) (14, -2.21664220094680786133e-01) (15, -6.85867547988891601562e-01) (7, -5.98577372729778289795e-02) (8, -1.04620921611785888672e+00) (2, 2.67731785774230957031e-01) (13, 1.91449061036109924316e-01) (5, -6.74192309379577636719e-01) (11, 4.74327951669692993164e-01) (9, 7.56752610206604003906e-01) (15, -5.61441659927368164062e-01) (4, 6.96791291236877441406e-01) (10, 3.87896031141281127930e-01) (11, 3.44905048608779907227e-01) (5, 1.23532880097627639771e-02) (6, -8.50204467773437500000e-01) (3, -2.70400434732437133789e-01) (14, 7.79974400997161865234e-01) (15, 1.73943907022476196289e-01) (8, -4.95871752500534057617e-01) (11, -1.64061367511749267578e+00) (0, 2.30756714940071105957e-01) (3, 7.96083137392997741699e-02) (13, -1.04255959391593933105e-01) (12, -5.43668031692504882812e-01) (5, -4.48552846908569335938e-01) (15, -8.76830935478210449219e-01) (14, -5.80807030200958251953e-01) (0, 2.97549545764923095703e-01) (12, 3.68450917303562164307e-02) (13, 6.55332684516906738281e-01) (4, 7.81527698040008544922e-01) (5, 8.90071213245391845703e-01) (6, 9.19771909713745117188e-01) (15, 4.77771162986755371094e-01) (7, -8.69150459766387939453e-01) (13, 5.30833959579467773438e-01) (2, -1.34265199303627014160e-01) (4, -1.08534240722656250000e+00) (12, -1.44473135471343994141e+00) (10, 1.61189234256744384766e+00) (1, 3.53917837142944335938e-01) (15, -6.70074284076690673828e-01) (3, -4.92634326219558715820e-01) (13, -3.06184560060501098633e-01) (5, 4.31468576192855834961e-01) (12, 1.28628706932067871094e+00) (1, 1.60750508308410644531e+00) (8, 3.70313763618469238281e-01) (14, 7.82539308071136474609e-01) (15, 2.20972514152526855469e+00) (10, -4.90339785814285278320e-01) (12, 9.82614994049072265625e-01) (1, -1.78426313400268554688e+00) (4, 3.68189096450805664062e-01) (8, -8.15983831882476806641e-01) (5, 1.24478571116924285889e-01) (6, 7.06593692302703857422e-02) (15, 1.83996307849884033203e+00) (3, 1.62515330314636230469e+00) (12, 2.21672844886779785156e+00) (10, 2.52960979938507080078e-01) (5, 6.36945843696594238281e-01) (4, 1.30317568778991699219e+00) (2, 2.20900440216064453125e+00) (11, -2.29741454124450683594e-01) (15, 2.04857707023620605469e+00) (13, 9.40044969320297241211e-02) (1, 9.92750406265258789062e-01) (8, -2.66427576541900634766e-01) (14, -8.01963090896606445312e-01) (6, -3.44773739576339721680e-01) (12, 9.46622490882873535156e-01) (4, -6.11075997352600097656e-01) (15, 1.06532943248748779297e+00) (8, -1.76093414425849914551e-01) (2, 9.60892736911773681641e-01) (5, 1.07324171066284179688e+00) (11, -8.05225908756256103516e-01) (13, 4.77333754301071166992e-01) (4, 1.75531789660453796387e-01) (6, 9.27092611789703369141e-01) (15, 2.41971969604492187500e+00) (9, -1.38208091259002685547e+00) (10, -6.09780788421630859375e-01) (8, -1.25718712806701660156e+00) (0, -3.24354141950607299805e-01) (13, 7.15016663074493408203e-01) (3, 4.22949761152267456055e-01) (4, -5.09575247764587402344e-01) (15, 3.14367055892944335938e-01) (0, 1.39344596862792968750e+00) (2, 3.19732129573822021484e-01) (13, -1.90175492316484451294e-02) (6, 3.35476130247116088867e-01) (3, -1.62925213575363159180e-01) (10, 8.88580739498138427734e-01) (9, 1.12322382628917694092e-01) (4, -1.48748546838760375977e-01) (66, 8.69767606258392333984e-01) (35, 1.43676006793975830078e+00) (56, -2.19688974320888519287e-02) (48, 6.79745554924011230469e-01) (22, 1.32352697849273681641e+00) (42, -5.52795886993408203125e-01) (63, 2.53119878470897674561e-02) (49, -8.10340464115142822266e-01) (31, 8.72097194194793701172e-01) (54, -1.95548966526985168457e-01) (34, 1.00519144535064697266e+00) (40, 9.98154953122138977051e-02) (62, 2.76349163055419921875e+00) (16, 6.07547760009765625000e+00) (33, -1.39809459447860717773e-01) (51, -4.54689294099807739258e-01) (47, 5.18360473215579986572e-02) (44, 5.83999752998352050781e-01) (64, 1.65174508094787597656e+00) (36, 1.08001697063446044922e+00) (53, -4.23637360334396362305e-01) (29, 7.17351496219635009766e-01) (43, -8.36528390645980834961e-02) (52, 4.71421480178833007812e-01) (66, -4.27032738924026489258e-01) (61, 1.30488324165344238281e+00) (26, -1.79687187075614929199e-01) (44, 4.59524720907211303711e-01) (36, 8.85049283504486083984e-01) (34, 1.10579407215118408203e+00) (58, 8.89823019504547119141e-01) (21, -6.82194709777832031250e-01) (43, -6.81675195693969726562e-01) (49, 1.21831633150577545166e-01) (63, 1.77621710300445556641e+00) (47, 1.22345018386840820312e+00) (28, -3.79547119140625000000e-01) (57, 4.66857075691223144531e-01) (20, 5.04254996776580810547e-01) (60, 1.32852494716644287109e+00) (23, -4.60708618164062500000e-01) (45, -1.20155394077301025391e+00) (42, 1.32184490561485290527e-01) (19, -5.72897386550903320312e+00) (33, -1.13127028942108154297e+00) (38, 2.96381115913391113281e-01) (41, 2.13283360004425048828e-01) (59, -4.08048033714294433594e-01) (46, 1.06100142002105712891e+00) (66, -8.63902986049652099609e-01) (18, -1.44835698604583740234e+00) (42, 8.99097025394439697266e-01) (62, -1.62352681159973144531e+00) (51, -5.83440586924552917480e-02) (36, 4.97089833021163940430e-01) (40, 8.69037270545959472656e-01) (31, 2.54967868328094482422e-01) (41, 1.26219713687896728516e+00) (39, 8.98488938808441162109e-01) (21, 5.53221106529235839844e-01) (63, -1.01741957664489746094e+00) (52, 8.61867070198059082031e-01) (20, 1.40764343738555908203e+00) (17, 9.24668371677398681641e-01) (65, -3.75876712799072265625e+00) (57, 9.54201221466064453125e-01) (43, 2.02233735471963882446e-02) (46, 3.03923249244689941406e-01) (59, 6.58837676048278808594e-01) (33, 5.59579670429229736328e-01) (19, -4.55413389205932617188e+00) (60, -7.40174472332000732422e-01) (50, 6.41246616840362548828e-01) (66, 1.96615982055664062500e+00) (49, -1.89976370334625244141e+00) (50, 1.41869640350341796875e+00) (31, -6.51555061340332031250e-01) (41, 2.54783667623996734619e-02) (26, 1.87923073768615722656e+00) (56, -7.35858559608459472656e-01) (32, 1.52204954624176025391e+00) (18, 5.27003908157348632812e+00) (37, -3.11383652687072753906e+00) (24, -8.18741500377655029297e-01) (30, -4.90587425231933593750e+00) (55, 6.56773042678833007812e+00) (54, -2.75394797325134277344e+00) (47, 4.44809257984161376953e-01) (60, -4.75580215454101562500e-01) (35, -9.10878717899322509766e-01) (53, 9.85465764999389648438e-01) (29, -6.54699707031250000000e+00) (63, 2.09437087178230285645e-01) (19, -3.10389118194580078125e+01) (62, 3.84135460853576660156e+00) (22, 5.04371833801269531250e+00) (48, 2.36410021781921386719e-01) (52, 1.88719224929809570312e+00) (66, 8.19444298744201660156e-01) (17, 3.72219234704971313477e-01) (20, 1.12255811691284179688e+00) (65, 1.11910259723663330078e+00) (51, 2.00456523895263671875e+00) (43, 6.62866592407226562500e-01) (53, 3.74697470664978027344e+00) (31, -3.32920670509338378906e-01) (61, 1.33592665195465087891e-01) (55, -5.18326601013541221619e-03) (34, 1.30059644579887390137e-01) (56, 6.74740254878997802734e-01) (50, -8.62861610949039459229e-03) (44, 1.20600855350494384766e+00) (52, 8.40164005756378173828e-01) (42, 3.36645424365997314453e-01) (38, -1.07876622676849365234e+00) (41, 3.33001106977462768555e-01) (33, 8.88639807701110839844e-01) (47, 3.74202460050582885742e-01) (21, -2.89375156164169311523e-01) (60, -4.52506750822067260742e-01) (36, -5.32837629318237304688e-01) (37, -1.04350298643112182617e-01) (23, 5.45798063278198242188e-01) (66, 1.35318011045455932617e-01) (27, -7.26668417453765869141e-01) (57, -3.76871049404144287109e-01) (41, 3.01298767328262329102e-01) (56, 1.09651600942015647888e-02) (22, -4.61763262748718261719e-01) (16, 6.06959939002990722656e-01) (35, 5.93434423208236694336e-02) (34, -4.95854765176773071289e-01) (37, 2.69889265298843383789e-01) (31, -3.98424834012985229492e-01) (19, 2.33905911445617675781e+00) (23, -4.53144341707229614258e-01) (42, 1.48494467139244079590e-02) (38, -5.60910068452358245850e-02) (49, 7.19565808773040771484e-01) (48, 1.04261326789855957031e+00) (53, -3.20577383041381835938e-01) (21, 1.29568314552307128906e+00) (17, 1.76339232921600341797e+00) (24, 2.11831573396921157837e-02) (52, -3.57977420091629028320e-01) (18, 3.47600057721138000488e-02) (39, -8.81669521331787109375e-01) (66, -5.73993206024169921875e-01) (22, -1.19632196426391601562e+00) (39, 2.59803801774978637695e-01) (41, -5.73567263782024383545e-02) (51, 1.51112779974937438965e-01) (27, -6.20886385440826416016e-01) (48, 1.30583178997039794922e+00) (60, 2.59367108345031738281e-01) (52, 6.52633190155029296875e-01) (32, -7.51039743423461914062e-01) (40, -4.40915167331695556641e-01) (53, -7.77767777442932128906e-01) (18, -7.31540322303771972656e-02) (38, -4.27455246448516845703e-01) (20, -4.94616806507110595703e-01) (36, 1.20763874053955078125e+00) (33, 2.11528754234313964844e+00) (45, 1.33914685249328613281e+00) (43, 1.10414719581604003906e+00) (61, -6.39810383319854736328e-01) (17, -4.29560184478759765625e-01) (54, 6.11954510211944580078e-01) (23, 1.35134017467498779297e+00) (37, 1.03240644931793212891e+00) (21, -7.58437931537628173828e-01) (66, -1.17805093526840209961e-01) (35, 1.12943017482757568359e+00) (60, -3.58626544475555419922e-01) (29, 8.14602613449096679688e-01) (25, 1.60751903057098388672e+00) (27, 1.93549621105194091797e+00) (57, 5.24089336395263671875e-01) (33, -1.56282946467399597168e-01) (65, 2.07433387637138366699e-01) (41, -6.29628360271453857422e-01) (21, 3.95200431346893310547e-01) (23, -4.28789705038070678711e-01) (62, 1.98115503787994384766e+00) (47, 8.51828455924987792969e-02) (16, -2.71567944437265396118e-02) (49, -1.05432224273681640625e+00) (54, 3.87629300355911254883e-01) (42, -4.32658255100250244141e-01) (64, 1.59617197513580322266e+00) (56, 7.33123242855072021484e-01) (58, 8.64361345767974853516e-01) (24, 6.93631768226623535156e-01) (39, 9.45305109024047851562e-01) (63, -1.52120888233184814453e-01) (34, 3.60531353950500488281e+00) (66, 5.74589371681213378906e-01) (23, -9.16364848613739013672e-01) (31, -4.15287576615810394287e-02) (18, 1.86792626976966857910e-01) (27, -7.72743880748748779297e-01) (58, 3.24854463338851928711e-01) (61, 2.82327264547348022461e-01) (55, -1.17528891563415527344e+00) (49, 5.41351377964019775391e-01) (33, -1.05202066898345947266e+00) (46, -1.32445681095123291016e+00) (38, -2.82223820686340332031e+00) (54, 2.91926860809326171875e-01) (40, 4.83669519424438476562e-01) (60, -6.47814214229583740234e-01) (21, 5.31685292720794677734e-01) (63, -2.24620485305786132812e+00) (32, 1.13949310779571533203e+00) (16, 3.93137931823730468750e+00) (43, 1.78750717639923095703e+00) (36, 1.01202130317687988281e+00) (57, -1.12567973136901855469e+00) (48, 3.92736792564392089844e-01) (20, -1.77434992790222167969e+00) (66, 8.16007614135742187500e-01) (38, -2.50799030065536499023e-01) (46, 1.65437114238739013672e+00) (54, 2.48730689287185668945e-01) (32, 6.18944764137268066406e-01) (16, 1.14605689048767089844e+00) (39, 1.60117781162261962891e+00) (22, 2.15998172760009765625e+00) (23, -1.33863374590873718262e-01) (49, 6.77091658115386962891e-01) (29, 6.63736343383789062500e-01) (47, 1.77041387557983398438e+00) (24, -3.38074743747711181641e-01) (37, -8.45714807510375976562e-01) (35, 1.18282628059387207031e+00) (48, -9.47558641433715820312e-01) (61, -5.45565962791442871094e-01) (44, -4.41118478775024414062e-02) (50, 6.05032444000244140625e-01) (40, -5.97502350807189941406e-01) (27, 3.56970518827438354492e-01) (59, -4.78861361742019653320e-01) (28, -6.74827158451080322266e-01) (42, 5.88203608989715576172e-01) (34, 2.12232112884521484375e-01) (66, 4.20068293809890747070e-01) (56, -7.61893332004547119141e-01) (55, 6.43897593021392822266e-01) (23, 8.56456696987152099609e-01) (28, 4.55627858638763427734e-01) (53, -1.76914572715759277344e-01) (43, 4.65148270130157470703e-01) (24, -3.25353354215621948242e-01) (40, 1.04737296700477600098e-01) (36, -1.79719477891921997070e-01) (25, -3.33534240722656250000e-01) (45, -3.73997271060943603516e-01) (18, -2.14685305953025817871e-01) (26, -7.00875818729400634766e-01) (51, 1.86099991202354431152e-01) (39, -8.13467502593994140625e-01) (57, 8.53707909584045410156e-01) (59, -4.40955609083175659180e-01) (47, -1.27838000655174255371e-01) (31, 1.19199049472808837891e+00) (52, 5.40084302425384521484e-01) (19, -2.84047305583953857422e-01) (48, 6.55657529830932617188e-01) (58, -2.79998153448104858398e-01) (22, -7.64700889587402343750e-01) (66, 8.44317853450775146484e-01) (33, 5.98657131195068359375e-01) (52, -1.08161464333534240723e-01) (54, 8.09883475303649902344e-01) (50, 8.80181550979614257812e-01) (22, -4.99790877103805541992e-01) (21, 8.09122443199157714844e-01) (42, -2.02970176935195922852e-01) (46, 1.28933870792388916016e+00) (24, 2.38113775849342346191e-01) (16, -2.85553765296936035156e+00) (62, -2.39123657345771789551e-01) (49, 8.34496140480041503906e-01) (29, -8.47713410854339599609e-01) (27, -1.48667737841606140137e-01) (31, 5.70659935474395751953e-01) (64, -2.10440173745155334473e-01) (59, 1.23817157745361328125e+00) (36, -8.52439880371093750000e-01) (17, -1.14357642829418182373e-01) (58, -3.63260120153427124023e-01) (19, 2.31153562664985656738e-01) (57, 2.87302047014236450195e-01) (30, -6.72636687755584716797e-01) (66, 4.27299469709396362305e-01) (25, 7.70917177200317382812e-01) (53, 6.58759623765945434570e-02) (22, 1.20356917381286621094e+00) (16, 1.44792699813842773438e+00) (30, -1.61538219451904296875e+00) (26, 1.19229471683502197266e+00) (45, 8.67373228073120117188e-01) (42, -3.69181126356124877930e-01) (56, 1.31157994270324707031e-01) (18, -5.44950723648071289062e-01) (50, 9.35475766658782958984e-01) (27, 3.75846886634826660156e+00) (33, -5.93333482742309570312e-01) (37, 4.00289855897426605225e-02) (54, 1.19711053371429443359e+00) (40, 1.22416591644287109375e+00) (24, 1.27742159366607666016e+00) (49, -2.10888162255287170410e-01) (55, -4.06989246606826782227e-01) (19, -7.00144290924072265625e-01) (48, -1.43187582492828369141e-01) (28, 1.54142117500305175781e+00) (47, -3.53269010782241821289e-01) (32, -2.45418354868888854980e-01) (66, -5.05166471004486083984e-01) (64, 2.25004172325134277344e+00) (39, 9.16428387165069580078e-01) (42, -8.25734794139862060547e-01) (47, 2.92136907577514648438e-01) (17, 8.68733823299407958984e-02) (34, 5.42131841182708740234e-01) (63, -4.34619933366775512695e-01) (29, 2.95784854888916015625e+00) (35, 1.77459073066711425781e+00) (21, 1.00472509860992431641e+00) (22, 7.94237279891967773438e+00) (28, 1.19039583206176757812e+00) (38, -1.71338641643524169922e+00) (18, 4.33076202869415283203e-01) (31, -8.07346701622009277344e-01) (37, -8.41921210289001464844e-01) (52, -1.54075074195861816406e+00) (32, 1.73913192749023437500e+00) (41, 3.79295498132705688477e-01) (44, 1.36984074115753173828e+00) (19, -1.66139068603515625000e+01) (24, 8.53303790092468261719e-01) (40, 8.72850537300109863281e-01) (66, 5.05262851715087890625e-01) (42, 7.68031120300292968750e-01) (36, 3.54704767465591430664e-01) (22, 1.84933018684387207031e+00) (35, 3.13675105571746826172e-01) (31, -6.51936650276184082031e-01) (56, 2.89002448320388793945e-01) (38, -1.82301187515258789062e+00) (48, 5.17636001110076904297e-01) (33, 4.87320065498352050781e-01) (39, -1.65180778503417968750e+00) (54, -1.75513339042663574219e+00) (51, -8.16732645034790039062e-02) (45, -3.31943655014038085938e+00) (50, 1.42343246936798095703e+00) (40, -3.52179139852523803711e-01) (65, -7.89612674713134765625e+00) (37, -4.97521877288818359375e-01) (43, 2.35779237747192382812e+00) (61, 1.04038572311401367188e+00) (27, 2.49902510643005371094e+00) (52, 2.50491309165954589844e+00) (26, 3.60248875617980957031e+00) (16, 5.36012077331542968750e+00) (17, -6.58220350742340087891e-02) (66, -6.06832265853881835938e-01) (30, 8.90737712383270263672e-01) (53, 4.11029905080795288086e-01) (56, 1.16990554332733154297e+00) (58, 7.26132750511169433594e-01) (59, -2.34101861715316772461e-01) (36, 8.65764677524566650391e-01) (62, 6.50440692901611328125e-01) (47, -1.41570255160331726074e-01) (23, -9.31228175759315490723e-02) (18, 3.51729273796081542969e-01) (17, -9.53921914100646972656e-01) (49, 2.18388184905052185059e-01) (63, 6.11753284931182861328e-01) (42, 4.53110843896865844727e-01) (60, -2.76636388152837753296e-02) (34, 6.45363926887512207031e-01) (44, -2.28224352002143859863e-01) (26, -3.21653336286544799805e-01) (41, 1.57365426421165466309e-02) (32, -2.32758983969688415527e-01) (19, -2.26455137133598327637e-01) (28, -5.84889650344848632812e-01) (20, -1.68580219149589538574e-01) (48, -2.97903150320053100586e-01) (66, -5.64323544502258300781e-01) (34, -1.73735773563385009766e+00) (43, 5.76441192626953125000e+00) (56, -5.28489768505096435547e-01) (38, -2.52330756187438964844e+00) (19, 1.76098501682281494141e+00) (16, -2.43642640113830566406e+00) (44, -3.11962485313415527344e+00) (48, -4.22593832015991210938e-01) (33, -2.12665128707885742188e+00) (36, 2.12460255622863769531e+00) (46, 2.65664172172546386719e+00) (47, -7.80061960220336914062e-01) (60, -6.71223700046539306641e-01) (59, 1.52605760097503662109e+00) (53, -5.32214307785034179688e+00) (39, -4.27436876296997070312e+00) (41, -6.28817737102508544922e-01) (45, 3.04882258176803588867e-01) (64, -1.75035142898559570312e+00) (58, 8.04691195487976074219e-01) (26, -5.27570903301239013672e-01) (17, 6.50402069091796875000e+00) (51, -4.09042209386825561523e-01) (66, 1.66620326042175292969e+00) (24, 6.33727192878723144531e-01) (29, 5.69727122783660888672e-01) (50, 3.56225401163101196289e-01) (43, -1.34033846855163574219e+00) (34, -6.19700372219085693359e-01) (60, 3.59535336494445800781e-01) (49, -1.12155199050903320312e+00) (61, 1.65677881240844726562e+00) (22, 3.27088737487792968750e+00) (57, 9.20255482196807861328e-02) (40, 1.22951015830039978027e-01) (20, 1.48308217525482177734e+00) (64, 6.74656093120574951172e-01) (32, 3.51243406534194946289e-01) (33, 7.65959694981575012207e-02) (55, -1.45951497554779052734e+00) (19, -1.02851390838623046875e+00) (37, -7.52117156982421875000e-01) (38, 4.65261840820312500000e+00) (26, 2.66717731952667236328e-01) (54, 3.14891457557678222656e-01) (18, 3.68025690317153930664e-01) (46, -5.52960395812988281250e-01) (31, 4.70716059207916259766e-01) (66, -2.89154827594757080078e-01) (21, 3.94610852003097534180e-01) (61, 2.08424702286720275879e-01) (47, 2.89733737707138061523e-01) (22, -8.52965354919433593750e-01) (24, 9.52549815177917480469e-01) (55, 2.07073187828063964844e+00) (39, -5.88801205158233642578e-01) (44, -8.65808725357055664062e-01) (64, -1.95277392864227294922e+00) (56, -7.59025514125823974609e-01) (45, 7.13875532150268554688e-01) (42, -3.97801727056503295898e-01) (37, 1.86467304825782775879e-01) (50, 3.00063401460647583008e-01) (57, -5.91561555862426757812e-01) (18, 6.81727051734924316406e-01) (38, 2.16393184661865234375e+00) (34, 1.54467248916625976562e+00) (63, 4.39309664070606231689e-02) (59, 1.65891933441162109375e+00) (33, 5.61490654945373535156e-01) (29, 2.14857959747314453125e+00) (58, 9.06330287456512451172e-01) (48, 8.84782791137695312500e-01) (66, 6.08298420906066894531e-01) (19, -1.26329874992370605469e+00) (48, 4.62462842464447021484e-01) (53, 2.86876296997070312500e+00) (41, -5.70246577262878417969e-01) (58, -3.99444252252578735352e-02) (59, 2.20933842658996582031e+00) (40, -7.03495144844055175781e-02) (34, 1.30951666831970214844e+00) (52, -1.73621311783790588379e-01) (36, -8.42196345329284667969e-01) (44, 6.74721956253051757812e-01) (32, 9.23590421676635742188e-01) (45, 2.57045626640319824219e-01) (61, 7.82732665538787841797e-01) (46, -1.39304786920547485352e-01) (28, -7.70853161811828613281e-01) (56, 5.19359171390533447266e-01) (43, 2.58787851780652999878e-02) (37, -1.39737153053283691406e+00) (39, 2.55631148815155029297e-01) (63, 7.29240119457244873047e-01) (42, 7.90698707103729248047e-01) (29, 1.53652802109718322754e-01) (66, 1.67383587360382080078e+00) (16, -3.19114470481872558594e+00) (28, 6.47729396820068359375e-01) (32, 3.44820475578308105469e+00) (36, 1.42361080646514892578e+00) (21, 5.23860901594161987305e-02) (27, 2.52253580093383789062e+00) (25, -1.14953231811523437500e+00) (20, -7.41794884204864501953e-01) (53, 1.43484294414520263672e+00) (60, 1.04398274421691894531e+00) (44, 1.12838733196258544922e+00) (38, -1.21178340911865234375e+00) (43, 1.60225486755371093750e+00) (45, 1.83028244972229003906e+00) (47, 1.49717319011688232422e+00) (30, 3.36274600028991699219e+00) (56, 8.77956509590148925781e-01) (49, 8.69450032711029052734e-01) (22, 6.46372795104980468750e-01) (31, -1.28215134143829345703e+00) (24, -1.13057158887386322021e-01) (55, -4.07039403915405273438e+00) (58, 1.78061819076538085938e+00) (51, -1.74010431766510009766e+00) (66, 1.07051238417625427246e-01) (40, -6.87884867191314697266e-01) (55, -4.51058387756347656250e-01) (63, 7.00637578964233398438e-01) (30, -2.02011927962303161621e-01) (53, 1.00255608558654785156e+00) (32, 3.74202752113342285156e+00) (50, -2.00248494744300842285e-01) (26, 7.68812298774719238281e-01) (43, 7.00280070304870605469e-01) (59, 1.33590912818908691406e+00) (37, 1.09412419795989990234e+00) (44, 2.86544293165206909180e-01) (42, -4.77913051843643188477e-01) (57, -4.27584052085876464844e-01) (45, -4.66861277818679809570e-01) (31, 8.12478005886077880859e-01) (49, -3.60062718391418457031e-01) (58, 2.28084951639175415039e-01) (60, -6.44761919975280761719e-01) (46, 1.05626249313354492188e+00) (25, -1.17650842666625976562e+00) (23, -6.71453237533569335938e-01) (16, 6.27785086631774902344e-01) (38, 2.16646209359169006348e-01) (66, 1.09475958347320556641e+00) (37, -2.45034471154212951660e-01) (44, 4.30740475654602050781e-01) (62, 1.05505549907684326172e+00) (25, -3.02094966173171997070e-01) (51, -4.22664523124694824219e-01) (27, 5.76544046401977539062e-01) (23, -4.97495502233505249023e-01) (34, 7.50453233718872070312e-01) (18, 1.06108033657073974609e+00) (55, 2.44605794548988342285e-01) (60, -1.03807345032691955566e-01) (17, -6.61901235580444335938e-02) (61, -7.10449218750000000000e-01) (57, 1.59790515899658203125e+00) (46, 7.78283476829528808594e-01) (52, 4.86092120409011840820e-01) (41, -1.08813539147377014160e-01) (19, 1.92388868331909179688e+00) (42, 1.59161341190338134766e+00) (35, 6.52036249637603759766e-01) (63, -1.21505498886108398438e-01) (59, 4.25500124692916870117e-01) (56, -4.18713510036468505859e-01) (66, 1.34525716304779052734e+00) (56, 7.28042364120483398438e-01) (42, 2.93787956237792968750e-01) (30, 5.30950736999511718750e+00) (29, 2.90847611427307128906e+00) (54, 1.31854844093322753906e+00) (34, -7.83755064010620117188e+00) (16, 9.22033405303955078125e+00) (32, 8.13060760498046875000e+00) (18, 7.10611009597778320312e+00) (60, 6.42675995826721191406e-01) (36, 1.32022321224212646484e+00) (62, 4.29598140716552734375e+00) (49, -1.62134516239166259766e+00) (47, -9.77410554885864257812e-01) (17, -1.72641074657440185547e+00) (44, 3.11439204216003417969e+00) (43, -1.37882292270660400391e-01) (53, 1.83320492506027221680e-01) (21, -3.28183710575103759766e-01) (28, 1.45119321346282958984e+00) (24, 7.57733941078186035156e-01) (22, 1.50790810585021972656e+00) (52, -1.89500427246093750000e+00) (51, -6.64847850799560546875e-01) (66, 4.40452903509140014648e-01) (26, 4.17497301101684570312e+00) (45, 6.42800617218017578125e+00) (47, -3.57668966054916381836e-01) (54, -2.96833753585815429688e+00) (57, 5.13292849063873291016e-01) (51, 1.74670144915580749512e-01) (38, -4.14131730794906616211e-01) (22, -1.06221151351928710938e+00) (23, 3.64312022924423217773e-01) (58, -1.41980350017547607422e-01) (41, -1.47256815433502197266e+00) (31, 1.05681866407394409180e-01) (65, -6.18614339828491210938e+00) (37, 1.59904921054840087891e+00) (34, -3.76199531555175781250e+00) (53, -2.06997756958007812500e+01) (42, -1.91095411777496337891e+00) (55, 1.37437605857849121094e+00) (24, -1.75947082042694091797e+00) (30, -3.30375099182128906250e+00) (29, -1.95399808883666992188e+00) (44, -1.24729894101619720459e-01) (20, -1.38156318664550781250e+00) (21, 1.09510159492492675781e+00) (92, -4.63272660970687866211e-01) (67, 5.35521984100341796875e-01) (79, 3.45666706562042236328e-01) (70, -7.58527100086212158203e-01) (86, 8.55319857597351074219e-01) (85, -1.48528032004833221436e-02) (69, 8.46428632736206054688e-01) (90, 1.05529272556304931641e+00) (89, -3.28473933041095733643e-02) (75, 9.64741408824920654297e-01) (78, 3.39095187187194824219e+00) (77, 4.33229827880859375000e+00) (92, 4.27423954010009765625e-01) (76, 1.79095938801765441895e-01) (82, -3.31295847892761230469e+00) (89, -2.59905487298965454102e-01) (78, -4.90195989608764648438e+00) (77, -4.45304960012435913086e-01) (85, 5.88178038597106933594e-01) (83, 4.44460004568099975586e-01) (74, 4.82271283864974975586e-01) (72, 1.45304536819458007812e+00) (90, -4.09177064895629882812e-01) (88, 3.28067946434020996094e+00) (80, -1.55624938011169433594e+00) (92, -1.43351286649703979492e-01) (75, 4.92593050003051757812e-01) (90, 1.79562032222747802734e+00) (70, 2.61462163925170898438e+00) (89, 3.11642742156982421875e+00) (87, 2.07257890701293945312e+00) (73, 4.61896210908889770508e-01) (77, -3.16390752792358398438e+00) (78, 8.33774328231811523438e-01) (76, 2.30307650566101074219e+00) (85, -1.95425808429718017578e+00) (68, 4.19169473648071289062e+00) (81, -3.31419467926025390625e+00) (92, -4.97740745544433593750e-01) (67, -7.53666543960571289062e+00) (78, -9.89721953868865966797e-01) (81, 2.45185089111328125000e+00) (77, -3.08824568986892700195e-01) (68, 1.29913587570190429688e+01) (72, -1.39497339725494384766e-01) (88, 9.77180671691894531250e+00) (76, 4.57416105270385742188e+00) (87, 1.40036869049072265625e+00) (85, -4.44176048040390014648e-01) (70, 1.35355806350708007812e+00) (74, 4.50494557619094848633e-01) (92, 1.00188827514648437500e+00) (85, 2.21950709819793701172e-01) (71, 4.75442081689834594727e-01) (86, -2.89960056543350219727e-01) (80, -1.69739544391632080078e-01) (89, -6.78961992263793945312e-01) (70, 1.30198433995246887207e-01) (82, -3.18396210670471191406e-01) (81, 1.91992497444152832031e+00) (77, -2.90308464318513870239e-02) (67, -9.61151540279388427734e-01) (83, 5.37639521062374114990e-02) (88, 1.67785122990608215332e-01) (92, 3.18326830863952636719e-01) (90, 2.81671315431594848633e-01) (81, 3.33585798740386962891e-01) (84, 6.13926887512207031250e-01) (76, -6.64775848388671875000e-01) (88, -1.22966575622558593750e+00) (77, -6.85442462563514709473e-02) (86, 5.07366716861724853516e-01) (91, 6.90168976783752441406e-01) (82, -5.79798519611358642578e-01) (67, 4.78818155825138092041e-02) (78, 1.08661627769470214844e+00) (92, 1.04132723808288574219e+00) (76, -3.43505859375000000000e-01) (75, -3.48063111305236816406e-01) (85, 8.82888257503509521484e-01) (80, 2.81238913536071777344e-01) (70, 1.02895760536193847656e+00) (90, 8.97835493087768554688e-01) (87, -7.48763740062713623047e-01) (68, 9.34064984321594238281e-01) (86, 1.82402336597442626953e+00) (83, 2.24493503570556640625e-01) (74, -9.82538461685180664062e-01) (89, 2.48863950371742248535e-01) (92, 2.02929854393005371094e-01) (75, 1.76518166065216064453e+00) (80, 1.42091795802116394043e-01) (88, -6.35362088680267333984e-01) (70, 1.00049126148223876953e+00) (82, -7.73734450340270996094e-01) (78, -8.52304279804229736328e-01) (81, -1.73638984560966491699e-01) (74, 8.02925050258636474609e-01) (84, -6.43137216567993164062e-01) (79, -2.51791238784790039062e+00) (73, 2.42279553413391113281e+00) (86, -1.31534421443939208984e+00) (92, 3.82110118865966796875e-01) (81, -4.02602940797805786133e-01) (80, -1.60074198246002197266e+00) (91, -4.65042740106582641602e-02) (72, -2.70376473665237426758e-01) (87, 2.08714795112609863281e+00) (89, 1.00449359416961669922e+00) (68, 1.09391677379608154297e+00) (79, 1.72206783294677734375e+00) (76, -3.76964509487152099609e-01) (90, -9.94827151298522949219e-02) (83, 2.07755565643310546875e-02) (77, -4.43996816873550415039e-01) (92, 1.30736756324768066406e+00) (82, -7.38902807235717773438e-01) (78, -2.81965684890747070312e+00) (86, 1.70475482940673828125e-01) (70, 3.82314801216125488281e+00) (83, -1.09802997112274169922e+00) (73, -4.37426775693893432617e-01) (80, -1.45328152179718017578e+00) (71, -1.02925360202789306641e+00) (79, 7.61667728424072265625e+00) (84, 2.15174984931945800781e+00) (75, -3.45274657011032104492e-01) (85, -1.60989128053188323975e-02) (92, -3.04648857563734054565e-02) (88, 1.95808279514312744141e+00) (69, 1.60651016235351562500e+00) (84, -1.55499541759490966797e+00) (71, -4.54723024368286132812e+00) (73, 2.07001495361328125000e+00) (68, -3.82205510139465332031e+00) (89, -1.08052551746368408203e+00) (80, -2.33124589920043945312e+00) (85, 1.19154334068298339844e-01) (87, 1.22187808156013488770e-02) (86, -9.59062337875366210938e-01) (90, -1.07444368302822113037e-01) (92, 8.99302735924720764160e-02) (83, -4.63911503553390502930e-01) (82, -3.87610703706741333008e-01) (88, 8.58955204486846923828e-01) (70, 1.10169184207916259766e+00) (86, 6.15805089473724365234e-01) (91, 1.30747258663177490234e-01) (84, 5.73024570941925048828e-01) (67, 9.65132355690002441406e-01) (77, 1.59242212772369384766e+00) (75, 5.54805099964141845703e-01) (76, -7.98414766788482666016e-01) (92, 3.58591526746749877930e-01) (89, -4.53870922327041625977e-01) (90, 9.84066903591156005859e-01) (88, 4.41873073577880859375e-01) (68, 7.56495177745819091797e-01) (81, -1.45948603749275207520e-01) (87, -1.11860501766204833984e+00) (82, -3.80877137184143066406e-01) (70, 1.67427182197570800781e+00) (86, 2.94690020382404327393e-02) (72, 8.13898026943206787109e-01) (79, 4.56773698329925537109e-01) (75, 4.30221796035766601562e-01) (92, 1.92816519737243652344e+00) (68, -6.19698129594326019287e-02) (90, -9.25195682793855667114e-03) (76, 1.17999702692031860352e-01) (81, 2.86370539665222167969e+00) (74, -1.53100818395614624023e-01) (75, -1.64901256561279296875e+00) (89, -1.72200596332550048828e+00) (86, 1.01026344299316406250e+00) (82, 2.05264687538146972656e+00) (79, -6.39240384101867675781e-01) (70, 1.14578402042388916016e+00) (88, 2.61806344985961914062e+00) (92, -4.09508734941482543945e-01) (78, 5.64512014389038085938e-01) (80, 8.17043602466583251953e-01) (82, 1.14437699317932128906e+00) (74, 3.77111464738845825195e-01) (75, -1.35334730148315429688e+00) (77, -2.16846898198127746582e-01) (68, -1.15525893867015838623e-01) (86, 1.29144918918609619141e+00) (84, -3.64006608724594116211e-01) (83, -1.46406805515289306641e+00) (88, 8.67277622222900390625e-01) (70, 5.07269352674484252930e-02) (92, 2.35426664352416992188e+00) (87, 1.03514552116394042969e+00) (80, -6.34079277515411376953e-01) (90, 2.18971776962280273438e+00) (73, -1.26829268410801887512e-02) (78, 1.99755311012268066406e-01) (77, 5.44785559177398681641e-01) (83, -5.24591088294982910156e-01) (72, 2.04234600067138671875e+00) (79, -2.11646109819412231445e-01) (89, 6.47929549217224121094e-01) (85, 1.83713388442993164062e+00) (74, 3.13717722892761230469e-01) (92, -6.60650014877319335938e-01) (86, 3.19313585758209228516e-01) (83, -7.26455152034759521484e-01) (78, 6.59149110317230224609e-01) (68, 9.39293146133422851562e-01) (74, -3.90344381332397460938e-01) (80, 1.05809545516967773438e+00) (89, 1.23937773704528808594e+00) (75, -3.76027256250381469727e-01) (73, -1.04251421988010406494e-01) (71, 8.64036321640014648438e-01) (69, 3.14602524042129516602e-01) (92, 9.70289528369903564453e-01) (82, 1.02632153034210205078e+00) (88, -1.14906430244445800781e-01) (90, 1.22360146045684814453e+00) (85, 7.85839930176734924316e-02) (81, -9.86043289303779602051e-02) (71, 6.24779272079467773438e+00) (78, -1.30994129180908203125e+00) (84, 2.06482306122779846191e-01) (80, 6.51695549488067626953e-01) (89, 7.84727036952972412109e-01) (76, -2.75189590454101562500e+00) (87, -1.15782916545867919922e+00) (92, -2.44424939155578613281e-01) (77, 2.72656142711639404297e-01) (78, -1.74805387854576110840e-01) (79, 6.08101427555084228516e-01) (86, 2.45084151625633239746e-01) (82, 1.42016267776489257812e+00) (89, 7.79914855957031250000e-01) (90, 1.20587527751922607422e-01) (75, 3.95785331726074218750e-01) (73, 1.45420491695404052734e-01) (83, 5.55262982845306396484e-01) (81, -4.81455832719802856445e-01) (85, 4.69489663839340209961e-01) (92, 5.15821337699890136719e-01) (73, -2.64250397682189941406e-01) (89, 1.81505419313907623291e-02) (85, -1.16251146793365478516e+00) (74, 7.91578590869903564453e-01) (82, -1.12569284439086914062e+00) (76, 5.59316873550415039062e-01) (80, -6.84685885906219482422e-01) (79, -8.01750898361206054688e-01) (87, -6.20442867279052734375e-01) (70, -6.87970519065856933594e-01) (91, 1.48128294944763183594e+00) (86, -4.07516151666641235352e-01) (92, -4.21807169914245605469e-03) (69, -4.25797514617443084717e-02) (85, 2.53370702266693115234e-02) (77, -1.48275196552276611328e-02) (83, -6.00881814956665039062e-01) (88, -9.75946605205535888672e-01) (86, 1.08199989795684814453e+00) (82, 4.42906022071838378906e-01) (81, 8.23695063591003417969e-01) (68, -6.91907154396176338196e-03) (80, 3.57937574386596679688e-01) (75, 9.83531415462493896484e-01) (84, -6.43461227416992187500e-01) (92, 6.09731674194335937500e-01) (73, -4.43423129618167877197e-02) (90, 1.50621938705444335938e+00) (87, 1.37084871530532836914e-01) (91, 8.60737144947052001953e-01) (75, -1.17695045471191406250e+00) (84, 4.14992153644561767578e-01) (83, 9.81694281101226806641e-01) (68, -5.67807853221893310547e-01) (88, 1.19243942201137542725e-01) (85, -2.90511131286621093750e-01) (81, -7.13076591491699218750e-01) (74, -1.06111299991607666016e+00) (92, 4.17739758267998695374e-03) (91, -2.42862606048583984375e+00) (76, -7.16187238693237304688e+00) (90, -2.98427641391754150391e-01) (71, 5.29339027404785156250e+00) (82, 5.11787712574005126953e-01) (87, 1.31552934646606445312e+00) (69, -4.46445226669311523438e+00) (70, 1.46265125274658203125e+00) (83, -1.59565842151641845703e+00) (86, 3.27881288528442382812e+00) (72, 5.24359166622161865234e-01) (92, 8.21001604199409484863e-02) (78, 1.63146066665649414062e+00) (90, 2.60679811239242553711e-01) (68, 1.69006600975990295410e-01) (71, 1.86481177806854248047e-01) (84, 2.01245516538619995117e-01) (70, -1.96327827870845794678e-02) (79, 1.60828125476837158203e+00) (81, -4.78144049644470214844e-01) (80, 4.06785726547241210938e-01) (86, 1.27058291435241699219e+00) (89, 2.70769667625427246094e+00) (88, -6.75151944160461425781e-01) (92, -6.75598204135894775391e-01) (79, -6.53743982315063476562e-01) (83, 6.36416792869567871094e-01) (88, 4.46363866329193115234e-01) (74, 2.96577036380767822266e-01) (75, 7.21661210060119628906e-01) (68, 3.88509899377822875977e-01) (77, 3.47865074872970581055e-01) (87, 1.30923199653625488281e+00) (76, 1.08002829551696777344e+00) (81, 6.74452111124992370605e-02) (89, 7.10399523377418518066e-02) (85, 1.04276311397552490234e+00) (92, 1.37685343623161315918e-01) (70, 2.21438789367675781250e+00) (75, 1.06008374691009521484e+00) (80, 3.96711111068725585938e-01) (82, -4.56223726272583007812e-01) (78, 8.97074520587921142578e-01) (79, 3.86434078216552734375e-01) (72, 1.07963609695434570312e+00) (81, -4.06235694885253906250e-01) (67, -2.77403503656387329102e-01) (69, 1.07139480113983154297e+00) (87, 9.48233306407928466797e-02) (85, -7.89261460304260253906e-01) (92, 8.48456978797912597656e-01) (74, 4.73694264888763427734e-01) (88, -1.79007202386856079102e-01) (83, 1.27691245079040527344e+00) (78, -9.54168200492858886719e-01) (82, 2.36604198813438415527e-01) (86, -5.54898418486118316650e-02) (77, 7.55604922771453857422e-01) (69, 1.84449517726898193359e+00) (80, -8.56770813465118408203e-01) (72, 3.37837427854537963867e-01) (85, -4.55242067575454711914e-01) (70, -3.00873100757598876953e-01) (92, -8.21694314479827880859e-01) (69, -6.01914644241333007812e-01) (79, 6.79360628128051757812e-01) (76, 7.20600128173828125000e-01) (83, 8.07000756263732910156e-01) (90, -9.16923224925994873047e-01) (85, -7.58256375789642333984e-01) (68, -2.23834705352783203125e+00) (86, -3.20361182093620300293e-02) (78, 1.67479348182678222656e+00) (80, 2.19873368740081787109e-01) (75, 1.98127165436744689941e-01) (92, 9.20575439929962158203e-01) (72, -1.21759086847305297852e-01) (80, 4.00152873992919921875e+00) (68, 4.37124109268188476562e+00) (84, 1.20415627956390380859e+00) (70, 6.53999447822570800781e-01) (67, 4.66306638717651367188e+00) (74, -1.61173760890960693359e+00) (85, -4.09262418746948242188e-01) (91, -1.78875148296356201172e-01) (83, 3.55926543474197387695e-01) (90, 8.42405438423156738281e-01) (79, 3.71394014358520507812e+00) (92, 8.70567500591278076172e-01) (77, -4.69838285446166992188e+00) (70, -6.14988803863525390625e-01) (82, -3.00613254308700561523e-01) (74, 4.06713485717773437500e-01) (78, -4.67679351568222045898e-01) (79, 7.53463199362158775330e-03) (83, 3.66973549127578735352e-01) (71, -1.59345075488090515137e-01) (89, 5.92685461044311523438e-01) (81, -4.69547390937805175781e-01) (91, -2.92474180459976196289e-01) (85, -8.17849993705749511719e-01) (92, -1.92917197942733764648e-01) (74, -2.08661779761314392090e-01) (80, 5.71044564247131347656e-01) (67, 7.36576676368713378906e-01) (84, 2.02562361955642700195e-01) (83, -3.15832406282424926758e-01) (69, -1.37804043292999267578e+00) (82, -4.79635223746299743652e-02) (71, 1.60986745357513427734e+00) (75, -7.86955296993255615234e-01) (86, 1.80411279201507568359e-01) (87, -2.56146669387817382812e-01) (88, 6.78010344505310058594e-01) (92, 8.51269662380218505859e-01) (68, 5.85639774799346923828e-01) (77, -4.06424522399902343750e+00) (83, 1.81407237052917480469e+00) (82, 1.26615655422210693359e+00) (79, -2.49376749992370605469e+00) (78, 7.33929455280303955078e-01) (76, 1.68056631088256835938e+00) (75, 2.58343607187271118164e-01) (85, 3.72041203081607818604e-02) (89, -3.87751042842864990234e-01) (84, 9.66651499271392822266e-01) (88, 1.15149366855621337891e+00) (92, 1.06758546829223632812e+00) (78, 1.05564570426940917969e+00) (83, -3.66314411163330078125e-01) (80, -1.25106894969940185547e+00) (79, -9.01573896408081054688e-01) (90, 2.82108259201049804688e+00) (69, -3.72544556856155395508e-01) (74, 6.71949863433837890625e+00) (68, -2.30815529823303222656e+00) (70, 3.55183172225952148438e+00) (73, -1.62064626812934875488e-01) (75, -6.31065890192985534668e-02) (72, 4.54993128776550292969e-01) (92, 1.06774163246154785156e+00) (70, 6.77927583456039428711e-02) (87, -9.86899554729461669922e-01) (85, 1.13220167160034179688e+00) (71, 2.22334265708923339844e+00) (83, -7.33003318309783935547e-02) (69, -3.50858163833618164062e+00) (76, 8.01139473915100097656e-01) (75, 5.75199306011199951172e-01) (73, -3.38976651430130004883e-01) (68, 5.89913463592529296875e+00) (72, 9.18644517660140991211e-02) (92, 3.06308478116989135742e-01) (82, -8.02022993564605712891e-01) (83, 1.09237289428710937500e+00) (89, 1.48860573768615722656e+00) (77, -1.84662137180566787720e-02) (78, 9.49261844158172607422e-01) (87, -6.13954007625579833984e-01) (71, 4.54431176185607910156e-01) (69, 1.02873754501342773438e+00) (80, 1.10163509845733642578e+00) (88, -8.33924412727355957031e-02) (90, 7.19369709491729736328e-01) (68, 1.03832733631134033203e+00) (92, 1.41833201050758361816e-01) (73, -5.15527427196502685547e-01) (91, 3.04347008466720581055e-01) (88, 1.40275552868843078613e-01) (71, 9.04096290469169616699e-03) (68, 3.57127428054809570312e-01) (82, 5.70901453495025634766e-01) (81, 1.29287433624267578125e+00) (78, 5.91740369796752929688e-01) (69, 3.43893289566040039062e-01) (87, 2.65383195877075195312e+00) (85, -1.34255504608154296875e+00) (74, -5.02394556999206542969e-01) (92, -5.02795651555061340332e-02) (87, 1.13354158401489257812e+00) (88, 7.84457862377166748047e-01) (77, -2.49077606201171875000e+00) (69, -3.91274064779281616211e-01) (85, 6.28265261650085449219e-01) (71, 3.04004311561584472656e+00) (89, -7.01430320739746093750e-01) (83, 3.70435714721679687500e-01) (90, -8.72515797615051269531e-01) (79, 1.65669548511505126953e+00) (75, 1.30253303050994873047e+00) (76, 2.37580817192792892456e-02) (92, 3.96113604307174682617e-01) (79, 1.20335328578948974609e+00) (90, 3.72578889131546020508e-01) (69, -5.47519564628601074219e-01) (84, 1.97678399085998535156e+00) (76, 5.21634936332702636719e-01) (81, -3.15509349107742309570e-01) (75, 6.96422755718231201172e-01) (83, -3.49316596984863281250e-01) (80, 7.95329809188842773438e-01) (89, -3.64605098962783813477e-01) (82, 4.49629694223403930664e-01) (72, 1.00702810287475585938e+00) (92, -5.62799721956253051758e-02) (68, 4.99355494976043701172e-01) (79, 1.29588246345520019531e+00) (71, -2.10698604583740234375e+00) (69, 6.18012905120849609375e-01) (90, -1.52473419904708862305e-01) (74, -1.08306241035461425781e+00) (73, -1.03613011538982391357e-01) (83, 1.54389515519142150879e-01) (77, 2.18266201019287109375e+00) (89, 7.80889272689819335938e-01) (85, -1.90007373690605163574e-01) (92, 4.57785844802856445312e-01) (75, 7.40936279296875000000e-01) (68, 1.33494049310684204102e-01) (89, -1.29945725202560424805e-01) (74, -6.39818489551544189453e-01) (73, 1.21014237403869628906e-01) (71, -7.05123722553253173828e-01) (69, 1.54155656695365905762e-01) (91, -5.58141589164733886719e-01) (78, -6.87984377145767211914e-02) (83, 1.12064361572265625000e+00) (72, 6.79652094841003417969e-01) (81, 3.35184544324874877930e-01) (92, 1.07701611518859863281e+00) (76, -4.56147976219654083252e-02) (69, -1.22197434306144714355e-01) (70, -1.62029489874839782715e-01) (89, 6.54681682586669921875e-01) (80, 3.46209853887557983398e-01) (78, -9.30960103869438171387e-02) (82, 5.07927536964416503906e-01) (79, -2.59731352329254150391e-01) (83, 1.35196805000305175781e+00) (68, 1.62752736359834671021e-02) (72, -2.07424946129322052002e-02) (73, 1.14055955410003662109e+00) (92, 1.27553427219390869141e+00) (88, -8.94458591938018798828e-01) (86, 9.67483073472976684570e-02) (76, -3.87770593166351318359e-01) (77, 9.41720068454742431641e-01) (78, 1.36931359767913818359e-01) (82, 1.22498296201229095459e-01) (72, 5.57352602481842041016e-01) (89, 3.11247438192367553711e-01) (68, -7.60872185230255126953e-01) (74, 4.48711395263671875000e-01) (71, -1.47958427667617797852e-01) (70, -2.53852069377899169922e-01) (92, 1.83404505252838134766e+00) (90, -2.95465856790542602539e-01) (68, -6.33251488208770751953e-01) (77, -3.98486971855163574219e-01) (79, 7.47407197952270507812e+00) (73, -1.08049786090850830078e+00) (81, 3.11093002557754516602e-01) (88, -1.28332054615020751953e+00) (83, 3.68034750223159790039e-01) (80, -4.92016375064849853516e-01) (85, 7.18643605709075927734e-01) (67, 6.88738155364990234375e+00) (91, -7.05787479877471923828e-01) (92, 1.09622478485107421875e+00) (84, 1.03847444057464599609e-01) (83, -3.25023055076599121094e-01) (67, 1.85239091515541076660e-01) (73, 8.76120746135711669922e-01) (79, -4.52002644538879394531e-01) (89, -7.10870772600173950195e-02) (72, 1.40097546577453613281e+00) (69, 5.30526638031005859375e-01) (80, -3.88491719961166381836e-01) (70, 1.15861594676971435547e+00) (81, -5.24385929107666015625e-01) (71, 2.63020604848861694336e-01) (92, 7.31433928012847900391e-01) (89, 1.33799970149993896484e-01) (68, -8.73887091875076293945e-02) (82, 3.21059972047805786133e-02) (70, 1.21101486682891845703e+00) (77, 8.62518548965454101562e-01) (80, -1.17687690258026123047e+00) (74, 1.21135139465332031250e+00) (76, 4.74068135023117065430e-01) (79, 2.27919030189514160156e+00) (81, 2.42490544915199279785e-01) (86, -1.20659315586090087891e+00) (92, 1.29767441749572753906e+00) (87, -5.22792041301727294922e-01) (88, 4.25648182630538940430e-01) (79, 7.85204648971557617188e-01) (84, -4.81294423341751098633e-01) (83, 1.43427634239196777344e+00) (81, 9.38940823078155517578e-01) (74, 8.90696048736572265625e-01) (89, -7.39645183086395263672e-01) (70, -2.40165919065475463867e-01) (72, -4.68702197074890136719e-01) (77, -2.47069135308265686035e-01) (69, 7.73543417453765869141e-01) (92, 3.60589414834976196289e-01) (71, 1.21642518043518066406e+00) (83, -1.49334645271301269531e+00) (79, -1.89132010936737060547e+00) (70, 7.43402838706970214844e-01) (77, 6.51221573352813720703e-01) (86, 6.57470285892486572266e-01) (80, 8.81457924842834472656e-01) (69, 1.91905486583709716797e+00) (75, 1.36975908279418945312e+00) (68, 3.19569826126098632812e-01) (76, 8.24584960937500000000e-01) (72, -6.62617921829223632812e-01) (92, 3.94515724182128906250e+01) (67, -3.36928520202636718750e+01) (83, 9.38170909881591796875e-01) (85, -1.32295112609863281250e+01) (86, 9.47548446655273437500e+01) (80, 3.86095428466796875000e+01) (70, 8.41387867927551269531e-01) (73, -1.81870222091674804688e-01) (75, 3.74767810106277465820e-01) (87, -7.09742724895477294922e-01) (72, 2.65138483047485351562e+00) (81, -2.56845861673355102539e-01) (90, 6.81599273681640625000e+01) (92, -4.14422512054443359375e-01) (83, -1.16388714313507080078e+00) (77, -3.75985693931579589844e+00) (84, 2.10273295640945434570e-01) (71, 7.40334653854370117188e+00) (78, 1.23397028446197509766e+00) (72, -3.02556902170181274414e-01) (80, -5.74605464935302734375e-01) (73, -1.00217616558074951172e+00) (82, 1.66393411159515380859e+00) (89, 8.96318137645721435547e-01) (85, 1.03465926647186279297e+00) (90, 8.50273445248603820801e-02) (92, 5.72910487651824951172e-01) (75, 3.10587096214294433594e+00) (74, -2.38305211067199707031e+00) (84, 9.44363057613372802734e-01) (70, 2.00107172131538391113e-01) (77, 4.06094837188720703125e+00) (89, 1.35044321417808532715e-01) (69, 2.14956596493721008301e-01) (78, 3.27627468109130859375e+00) (71, -1.07668876647949218750e+00) (68, 3.38011384010314941406e-01) (91, 2.71191048622131347656e+00) (85, 4.38947200775146484375e-01) (143, 8.08234810829162597656e-01) (100, 6.63990557193756103516e-01) (107, -3.26272845268249511719e-01) (117, -1.04571580886840820312e-02) (122, -6.33662045001983642578e-01) (139, 6.75231218338012695312e-01) (120, 6.48838654160499572754e-02) (101, -1.15774780511856079102e-01) (123, -1.03821240365505218506e-01) (95, -3.59747767448425292969e-01) (119, 3.45947623252868652344e-01) (140, 1.00323438644409179688e+00) (104, 1.19670474529266357422e+00) (115, -8.60654294490814208984e-01) (103, 7.98406004905700683594e-01) (133, 1.06696593761444091797e+00) (135, 1.75842776894569396973e-01) (138, 1.63602864742279052734e+00) (98, 8.93249094486236572266e-01) (113, 8.61619189381599426270e-02) (128, -2.54615187644958496094e-01) (131, 9.36963140964508056641e-01) (108, 4.17251318693161010742e-01) (137, 3.81231129169464111328e-01) (143, 2.14120715856552124023e-01) (94, 2.41442486643791198730e-01) (97, 4.44129407405853271484e-01) (98, 5.93504011631011962891e-01) (102, 4.96780663728713989258e-01) (109, -6.48099660873413085938e-01) (111, -4.85872507095336914062e-01) (113, -9.89029854536056518555e-02) (114, 4.09971058368682861328e-01) (115, -3.52581083774566650391e-01) (116, 2.77684569358825683594e-01) (119, 7.83812999725341796875e-01) (121, 4.73126679658889770508e-01) (124, -2.00534522533416748047e-01) (125, 6.89381361007690429688e-01) (128, 9.40032839775085449219e-01) (132, 5.79121887683868408203e-01) (133, 1.42836391925811767578e+00) (137, 1.15029549598693847656e+00) (139, -1.83712341822683811188e-03) (141, -5.19652068614959716797e-01) (142, 6.46268784999847412109e-01) (140, -7.06459224224090576172e-01) (126, -9.58417773246765136719e-01) (120, -7.44460880756378173828e-01) (143, 1.53430294990539550781e+00) (93, 8.86091113090515136719e-01) (96, -2.54196941852569580078e-01) (99, 5.84189146757125854492e-02) (101, 2.56224095821380615234e-01) (103, 2.25383102893829345703e-01) (104, -5.46645000576972961426e-02) (105, 1.06874787807464599609e+00) (108, 7.03860074281692504883e-02) (112, 6.36733114719390869141e-01) (126, -1.02410398423671722412e-01) (129, -2.33747929334640502930e-01) (130, -1.14854502677917480469e+00) (131, 1.05425882339477539062e+00) (134, 8.68994712829589843750e-01) (136, 3.19871604442596435547e-01) (138, 6.98080182075500488281e-01) (140, -3.57154786586761474609e-01) (133, 6.46838784217834472656e-01) (127, 2.24982947111129760742e-01) (125, 3.99247616529464721680e-01) (97, 4.72105145454406738281e-01) (128, 1.01364985108375549316e-01) (122, 7.05918490886688232422e-01) (143, 3.75232875347137451172e-01) (95, -4.05841022729873657227e-01) (106, -1.06102406978607177734e+00) (110, 4.08480107784271240234e-01) (118, -3.42640191316604614258e-01) (120, 2.26394340395927429199e-01) (123, 4.65300172567367553711e-01) (127, -5.02657949924468994141e-01) (135, -1.19256687164306640625e+00) (137, -1.66405284404754638672e+00) (124, 4.13852423429489135742e-01) (121, -2.31484293937683105469e-01) (117, 2.78343886137008666992e-01) (96, 1.83940255641937255859e+00) (140, -3.00853759050369262695e-01) (126, 6.79146707057952880859e-01) (113, 8.42419624328613281250e-01) (138, 4.04997557401657104492e-01) (99, -8.10333549976348876953e-01) (129, 1.07908082008361816406e+00) (101, -1.99169173836708068848e-01) (111, 6.23854100704193115234e-01) (107, -1.79012537002563476562e-01) (134, -4.02225673198699951172e-01) (109, 1.77885904908180236816e-01)
input_names='AS_2' 'AS_3' 'BETAE' 'DELTA_LOC' 'KAPPA_LOC' 'Q_LOC' 'Q_PRIME_LOC' 'RLNS_1' 'RLTS_1' 'RLTS_2' 'RMAJ_LOC' 'RMIN_LOC' 'S_KAPPA_LOC' 'TAUS_2' 'XNUE'
output_names='OUT_ENERGY_FLUX_1_exp' 'OUT_ENERGY_FLUX_i_exp' 'OUT_PARTICLE_FLUX_1_exp' 'OUT_STRESS_TOR_i_exp'
norm_output=0.0 0.0 0.0 0.0 0.0 0.0 0.0 0.0 0.0 0.0 0.0 0.0 0.0 0.0 0.0 0.0 0.0 0.0 0.0 0.0 0.0 0.0 0.0 0.0 0.0 0.0 0.0 0.0 0.0 0.0 0.0 0.0 0.0 0.0 0.0 0.0 0.0 0.0 0.0 0.0 0.0 0.0 0.0 0.0 0.0 0.0 0.0 0.0 0.0 0.0 0.0 0.0 0.0 0.0 0.0 0.0 0.0 0.0 0.0 0.0
MSE= 0.0164598319679