FANN_FLO_2.1
num_layers=5
learning_rate=0.700000
connection_rate=0.100000
network_type=0
learning_momentum=0.000000
training_algorithm=2
train_error_function=0
train_stop_function=0
cascade_output_change_fraction=0.010000
quickprop_decay=-0.000100
quickprop_mu=1.750000
rprop_increase_factor=1.200000
rprop_decrease_factor=0.500000
rprop_delta_min=0.000000
rprop_delta_max=50.000000
rprop_delta_zero=0.100000
cascade_output_stagnation_epochs=12
cascade_candidate_change_fraction=0.010000
cascade_candidate_stagnation_epochs=12
cascade_max_out_epochs=150
cascade_min_out_epochs=50
cascade_max_cand_epochs=150
cascade_min_cand_epochs=50
cascade_num_candidate_groups=2
bit_fail_limit=3.49999994039535522461e-01
cascade_candidate_limit=1.00000000000000000000e+03
cascade_weight_multiplier=4.00000005960464477539e-01
cascade_activation_functions_count=10
cascade_activation_functions=3 5 7 8 10 11 14 15 16 17
cascade_activation_steepnesses_count=4
cascade_activation_steepnesses=2.50000000000000000000e-01 5.00000000000000000000e-01 7.50000000000000000000e-01 1.00000000000000000000e+00
layer_sizes=10 101 51 101 5
scale_included=1
scale_mean_in=0.586500 1.591000 1.866000 0.514100 1.190000 1.818000 3.667825 1.688000 2.220380
scale_deviation_in=0.021942 0.403267 0.265534 0.080653 0.171537 0.040030 1.395646 0.031135 0.873251
scale_new_min_in=-1.000000 -1.000000 -1.000000 -1.000000 -1.000000 -1.000000 -1.000000 -1.000000 -1.000000
scale_factor_in=1.000000 1.000000 1.000000 1.000000 1.000000 1.000000 1.000000 1.000000 1.000000
scale_mean_out=0.011260 0.014070 0.045600 0.068400
scale_deviation_out=0.003440 0.004211 0.007561 0.011342
scale_new_min_out=-1.000000 -1.000000 -1.000000 -1.000000
scale_factor_out=1.000000 1.000000 1.000000 1.000000
neurons (num_inputs, activation_function, activation_steepness)=(0, 0, 0.00000000000000000000e+00) (0, 0, 0.00000000000000000000e+00) (0, 0, 0.00000000000000000000e+00) (0, 0, 0.00000000000000000000e+00) (0, 0, 0.00000000000000000000e+00) (0, 0, 0.00000000000000000000e+00) (0, 0, 0.00000000000000000000e+00) (0, 0, 0.00000000000000000000e+00) (0, 0, 0.00000000000000000000e+00) (0, 0, 0.00000000000000000000e+00) (2, 5, 5.00000000000000000000e-01) (2, 5, 5.00000000000000000000e-01) (2, 5, 5.00000000000000000000e-01) (2, 5, 5.00000000000000000000e-01) (2, 5, 5.00000000000000000000e-01) (2, 5, 5.00000000000000000000e-01) (2, 5, 5.00000000000000000000e-01) (2, 5, 5.00000000000000000000e-01) (2, 5, 5.00000000000000000000e-01) (2, 5, 5.00000000000000000000e-01) (2, 5, 5.00000000000000000000e-01) (2, 5, 5.00000000000000000000e-01) (2, 5, 5.00000000000000000000e-01) (2, 5, 5.00000000000000000000e-01) (2, 5, 5.00000000000000000000e-01) (2, 5, 5.00000000000000000000e-01) (2, 5, 5.00000000000000000000e-01) (2, 5, 5.00000000000000000000e-01) (2, 5, 5.00000000000000000000e-01) (2, 5, 5.00000000000000000000e-01) (2, 5, 5.00000000000000000000e-01) (2, 5, 5.00000000000000000000e-01) (2, 5, 5.00000000000000000000e-01) (2, 5, 5.00000000000000000000e-01) (2, 5, 5.00000000000000000000e-01) (2, 5, 5.00000000000000000000e-01) (2, 5, 5.00000000000000000000e-01) (2, 5, 5.00000000000000000000e-01) (2, 5, 5.00000000000000000000e-01) (2, 5, 5.00000000000000000000e-01) (2, 5, 5.00000000000000000000e-01) (2, 5, 5.00000000000000000000e-01) (2, 5, 5.00000000000000000000e-01) (2, 5, 5.00000000000000000000e-01) (2, 5, 5.00000000000000000000e-01) (2, 5, 5.00000000000000000000e-01) (2, 5, 5.00000000000000000000e-01) (2, 5, 5.00000000000000000000e-01) (2, 5, 5.00000000000000000000e-01) (2, 5, 5.00000000000000000000e-01) (2, 5, 5.00000000000000000000e-01) (2, 5, 5.00000000000000000000e-01) (2, 5, 5.00000000000000000000e-01) (2, 5, 5.00000000000000000000e-01) (2, 5, 5.00000000000000000000e-01) (2, 5, 5.00000000000000000000e-01) (2, 5, 5.00000000000000000000e-01) (2, 5, 5.00000000000000000000e-01) (2, 5, 5.00000000000000000000e-01) (2, 5, 5.00000000000000000000e-01) (2, 5, 5.00000000000000000000e-01) (2, 5, 5.00000000000000000000e-01) (2, 5, 5.00000000000000000000e-01) (2, 5, 5.00000000000000000000e-01) (2, 5, 5.00000000000000000000e-01) (2, 5, 5.00000000000000000000e-01) (2, 5, 5.00000000000000000000e-01) (2, 5, 5.00000000000000000000e-01) (2, 5, 5.00000000000000000000e-01) (2, 5, 5.00000000000000000000e-01) (2, 5, 5.00000000000000000000e-01) (2, 5, 5.00000000000000000000e-01) (2, 5, 5.00000000000000000000e-01) (2, 5, 5.00000000000000000000e-01) (2, 5, 5.00000000000000000000e-01) (2, 5, 5.00000000000000000000e-01) (2, 5, 5.00000000000000000000e-01) (2, 5, 5.00000000000000000000e-01) (2, 5, 5.00000000000000000000e-01) (2, 5, 5.00000000000000000000e-01) (2, 5, 5.00000000000000000000e-01) (2, 5, 5.00000000000000000000e-01) (2, 5, 5.00000000000000000000e-01) (2, 5, 5.00000000000000000000e-01) (2, 5, 5.00000000000000000000e-01) (2, 5, 5.00000000000000000000e-01) (2, 5, 5.00000000000000000000e-01) (2, 5, 5.00000000000000000000e-01) (2, 5, 5.00000000000000000000e-01) (2, 5, 5.00000000000000000000e-01) (2, 5, 5.00000000000000000000e-01) (2, 5, 5.00000000000000000000e-01) (2, 5, 5.00000000000000000000e-01) (2, 5, 5.00000000000000000000e-01) (2, 5, 5.00000000000000000000e-01) (2, 5, 5.00000000000000000000e-01) (2, 5, 5.00000000000000000000e-01) (2, 5, 5.00000000000000000000e-01) (2, 5, 5.00000000000000000000e-01) (2, 5, 5.00000000000000000000e-01) (2, 5, 5.00000000000000000000e-01) (2, 5, 5.00000000000000000000e-01) (2, 5, 5.00000000000000000000e-01) (2, 5, 5.00000000000000000000e-01) (2, 5, 5.00000000000000000000e-01) (2, 5, 5.00000000000000000000e-01) (2, 5, 5.00000000000000000000e-01) (2, 5, 5.00000000000000000000e-01) (2, 5, 5.00000000000000000000e-01) (2, 5, 5.00000000000000000000e-01) (0, 5, 0.00000000000000000000e+00) (11, 5, 5.00000000000000000000e-01) (11, 5, 5.00000000000000000000e-01) (11, 5, 5.00000000000000000000e-01) (11, 5, 5.00000000000000000000e-01) (11, 5, 5.00000000000000000000e-01) (11, 5, 5.00000000000000000000e-01) (11, 5, 5.00000000000000000000e-01) (11, 5, 5.00000000000000000000e-01) (11, 5, 5.00000000000000000000e-01) (11, 5, 5.00000000000000000000e-01) (11, 5, 5.00000000000000000000e-01) (11, 5, 5.00000000000000000000e-01) (11, 5, 5.00000000000000000000e-01) (11, 5, 5.00000000000000000000e-01) (11, 5, 5.00000000000000000000e-01) (11, 5, 5.00000000000000000000e-01) (11, 5, 5.00000000000000000000e-01) (11, 5, 5.00000000000000000000e-01) (11, 5, 5.00000000000000000000e-01) (11, 5, 5.00000000000000000000e-01) (11, 5, 5.00000000000000000000e-01) (11, 5, 5.00000000000000000000e-01) (11, 5, 5.00000000000000000000e-01) (11, 5, 5.00000000000000000000e-01) (11, 5, 5.00000000000000000000e-01) (11, 5, 5.00000000000000000000e-01) (11, 5, 5.00000000000000000000e-01) (11, 5, 5.00000000000000000000e-01) (11, 5, 5.00000000000000000000e-01) (11, 5, 5.00000000000000000000e-01) (11, 5, 5.00000000000000000000e-01) (11, 5, 5.00000000000000000000e-01) (11, 5, 5.00000000000000000000e-01) (11, 5, 5.00000000000000000000e-01) (11, 5, 5.00000000000000000000e-01) (11, 5, 5.00000000000000000000e-01) (11, 5, 5.00000000000000000000e-01) (11, 5, 5.00000000000000000000e-01) (11, 5, 5.00000000000000000000e-01) (11, 5, 5.00000000000000000000e-01) (11, 5, 5.00000000000000000000e-01) (11, 5, 5.00000000000000000000e-01) (11, 5, 5.00000000000000000000e-01) (11, 5, 5.00000000000000000000e-01) (11, 5, 5.00000000000000000000e-01) (11, 5, 5.00000000000000000000e-01) (11, 5, 5.00000000000000000000e-01) (11, 5, 5.00000000000000000000e-01) (11, 5, 5.00000000000000000000e-01) (11, 5, 5.00000000000000000000e-01) (0, 5, 0.00000000000000000000e+00) (6, 5, 5.00000000000000000000e-01) (6, 5, 5.00000000000000000000e-01) (6, 5, 5.00000000000000000000e-01) (6, 5, 5.00000000000000000000e-01) (6, 5, 5.00000000000000000000e-01) (6, 5, 5.00000000000000000000e-01) (6, 5, 5.00000000000000000000e-01) (6, 5, 5.00000000000000000000e-01) (6, 5, 5.00000000000000000000e-01) (6, 5, 5.00000000000000000000e-01) (6, 5, 5.00000000000000000000e-01) (6, 5, 5.00000000000000000000e-01) (6, 5, 5.00000000000000000000e-01) (6, 5, 5.00000000000000000000e-01) (6, 5, 5.00000000000000000000e-01) (6, 5, 5.00000000000000000000e-01) (6, 5, 5.00000000000000000000e-01) (6, 5, 5.00000000000000000000e-01) (6, 5, 5.00000000000000000000e-01) (6, 5, 5.00000000000000000000e-01) (6, 5, 5.00000000000000000000e-01) (6, 5, 5.00000000000000000000e-01) (6, 5, 5.00000000000000000000e-01) (6, 5, 5.00000000000000000000e-01) (6, 5, 5.00000000000000000000e-01) (6, 5, 5.00000000000000000000e-01) (6, 5, 5.00000000000000000000e-01) (6, 5, 5.00000000000000000000e-01) (6, 5, 5.00000000000000000000e-01) (6, 5, 5.00000000000000000000e-01) (6, 5, 5.00000000000000000000e-01) (6, 5, 5.00000000000000000000e-01) (6, 5, 5.00000000000000000000e-01) (6, 5, 5.00000000000000000000e-01) (6, 5, 5.00000000000000000000e-01) (6, 5, 5.00000000000000000000e-01) (6, 5, 5.00000000000000000000e-01) (6, 5, 5.00000000000000000000e-01) (6, 5, 5.00000000000000000000e-01) (6, 5, 5.00000000000000000000e-01) (6, 5, 5.00000000000000000000e-01) (6, 5, 5.00000000000000000000e-01) (6, 5, 5.00000000000000000000e-01) (6, 5, 5.00000000000000000000e-01) (6, 5, 5.00000000000000000000e-01) (6, 5, 5.00000000000000000000e-01) (6, 5, 5.00000000000000000000e-01) (6, 5, 5.00000000000000000000e-01) (6, 5, 5.00000000000000000000e-01) (6, 5, 5.00000000000000000000e-01) (6, 5, 5.00000000000000000000e-01) (6, 5, 5.00000000000000000000e-01) (6, 5, 5.00000000000000000000e-01) (6, 5, 5.00000000000000000000e-01) (6, 5, 5.00000000000000000000e-01) (6, 5, 5.00000000000000000000e-01) (6, 5, 5.00000000000000000000e-01) (6, 5, 5.00000000000000000000e-01) (6, 5, 5.00000000000000000000e-01) (6, 5, 5.00000000000000000000e-01) (6, 5, 5.00000000000000000000e-01) (6, 5, 5.00000000000000000000e-01) (6, 5, 5.00000000000000000000e-01) (6, 5, 5.00000000000000000000e-01) (6, 5, 5.00000000000000000000e-01) (6, 5, 5.00000000000000000000e-01) (6, 5, 5.00000000000000000000e-01) (6, 5, 5.00000000000000000000e-01) (6, 5, 5.00000000000000000000e-01) (6, 5, 5.00000000000000000000e-01) (6, 5, 5.00000000000000000000e-01) (6, 5, 5.00000000000000000000e-01) (6, 5, 5.00000000000000000000e-01) (6, 5, 5.00000000000000000000e-01) (6, 5, 5.00000000000000000000e-01) (6, 5, 5.00000000000000000000e-01) (6, 5, 5.00000000000000000000e-01) (6, 5, 5.00000000000000000000e-01) (6, 5, 5.00000000000000000000e-01) (6, 5, 5.00000000000000000000e-01) (6, 5, 5.00000000000000000000e-01) (6, 5, 5.00000000000000000000e-01) (6, 5, 5.00000000000000000000e-01) (6, 5, 5.00000000000000000000e-01) (6, 5, 5.00000000000000000000e-01) (6, 5, 5.00000000000000000000e-01) (6, 5, 5.00000000000000000000e-01) (6, 5, 5.00000000000000000000e-01) (6, 5, 5.00000000000000000000e-01) (6, 5, 5.00000000000000000000e-01) (6, 5, 5.00000000000000000000e-01) (6, 5, 5.00000000000000000000e-01) (6, 5, 5.00000000000000000000e-01) (6, 5, 5.00000000000000000000e-01) (6, 5, 5.00000000000000000000e-01) (6, 5, 5.00000000000000000000e-01) (6, 5, 5.00000000000000000000e-01) (6, 5, 5.00000000000000000000e-01) (6, 5, 5.00000000000000000000e-01) (6, 5, 5.00000000000000000000e-01) (0, 5, 0.00000000000000000000e+00) (26, 0, 5.00000000000000000000e-01) (26, 0, 5.00000000000000000000e-01) (26, 0, 5.00000000000000000000e-01) (26, 0, 5.00000000000000000000e-01) (0, 0, 0.00000000000000000000e+00)
connections (connected_to_neuron, weight)=(9, 9.89566922187805175781e-01) (3, 1.39450621604919433594e+00) (9, -4.67013269662857055664e-01) (0, -1.54504764080047607422e+00) (9, 2.97680586576461791992e-01) (8, -4.17397767305374145508e-01) (9, 3.52919816970825195312e-01) (7, 6.81895732879638671875e-01) (9, -1.55272841453552246094e-01) (5, 9.98236835002899169922e-01) (9, 7.17670559883117675781e-01) (4, 7.14115798473358154297e-01) (9, 4.69437062740325927734e-01) (5, 4.41210865974426269531e-01) (9, -3.03947448730468750000e-01) (0, 1.34133428335189819336e-01) (9, 2.54743725061416625977e-01) (3, 2.41232901811599731445e-01) (9, 1.24271059036254882812e+00) (6, 1.48500585556030273438e+00) (9, -4.75726336240768432617e-01) (4, -3.76385003328323364258e-01) (9, -2.19765111804008483887e-01) (7, 1.02095949649810791016e+00) (9, -3.63846540451049804688e-01) (3, -9.20348539948463439941e-02) (9, -9.43355262279510498047e-01) (1, 3.01721000671386718750e+00) (9, 4.00049120187759399414e-01) (3, -1.80244490504264831543e-01) (9, 2.28253751993179321289e-01) (5, 7.97234654426574707031e-01) (9, 5.56146562099456787109e-01) (7, -5.87692379951477050781e-01) (9, 1.10040891170501708984e+00) (6, 1.36620569229125976562e+00) (9, 5.87444841861724853516e-01) (1, -2.70525544881820678711e-01) (9, 8.81500840187072753906e-01) (5, 4.68752503395080566406e-01) (9, -8.00333440303802490234e-01) (0, -3.54724794626235961914e-01) (9, 9.35059964656829833984e-01) (6, -6.75229370594024658203e-01) (9, 8.52929651737213134766e-02) (7, 3.89985942840576171875e+00) (9, 3.15333247184753417969e-01) (7, -3.60749736428260803223e-02) (9, 1.90686953067779541016e+00) (7, -1.71940171718597412109e+00) (9, 5.89478671550750732422e-01) (7, -8.60871851444244384766e-01) (9, -3.20720553398132324219e-01) (4, -2.95186430215835571289e-01) (9, 2.54833400249481201172e-01) (1, 7.78867244720458984375e-01) (9, 7.41654455661773681641e-01) (4, 3.55429172515869140625e-01) (9, 6.64774477481842041016e-02) (7, -2.60115098953247070312e+00) (9, -1.64701268076896667480e-01) (7, -7.09285199642181396484e-01) (9, -4.26503181457519531250e-01) (5, -1.98455661535263061523e-01) (9, 6.96753680706024169922e-01) (0, 6.25995337963104248047e-01) (9, -7.07895085215568542480e-02) (3, -2.05393493175506591797e-01) (9, 7.82125592231750488281e-01) (2, -2.75709718465805053711e-01) (9, 1.44500926136970520020e-01) (1, -3.93813908100128173828e-01) (9, 3.84481281042098999023e-01) (1, -9.90438103675842285156e-01) (9, -1.53222131729125976562e+00) (6, 1.25181663036346435547e+00) (9, -8.84954035282135009766e-02) (4, -3.06912094354629516602e-01) (9, 4.17211428284645080566e-02) (6, -1.34373605251312255859e+00) (9, 1.41779957339167594910e-02) (4, -3.02160322666168212891e-01) (9, -6.74137115478515625000e-01) (6, -1.31181359291076660156e+00) (9, 5.41875958442687988281e-02) (7, 7.25122094154357910156e-01) (9, 2.36476182937622070312e-01) (7, 6.85218200087547302246e-02) (9, 9.05161201953887939453e-01) (3, -1.65776759386062622070e-01) (9, 3.12897890806198120117e-01) (8, 8.56770634651184082031e-01) (9, -2.75965869426727294922e-01) (2, 6.55441522598266601562e-01) (9, -4.29135054349899291992e-01) (7, -5.07172346115112304688e-01) (9, -6.77866535261273384094e-03) (0, -4.43381458520889282227e-01) (9, -1.39559343457221984863e-01) (4, 1.25130280852317810059e-01) (9, 1.25881505012512207031e+00) (5, 1.03386569023132324219e+00) (9, 6.05202391743659973145e-02) (2, 5.87500572204589843750e-01) (9, 9.93322432041168212891e-02) (0, 2.56359934806823730469e-01) (9, 5.83863794803619384766e-01) (1, -8.06657791137695312500e-01) (9, 1.31230902671813964844e+00) (1, -7.93338179588317871094e-01) (9, 4.84690964221954345703e-01) (7, -1.62491607666015625000e+00) (9, 7.69089698791503906250e-01) (2, 1.95516717433929443359e+00) (9, 4.94786351919174194336e-01) (3, 2.35449120402336120605e-01) (9, 6.45011901855468750000e-01) (4, 3.46452474594116210938e-01) (9, -4.09409672021865844727e-01) (5, -2.78910726308822631836e-01) (9, 5.40551126003265380859e-01) (2, -4.62806791067123413086e-01) (9, -5.56774914264678955078e-01) (4, 3.48669916391372680664e-01) (9, 7.05788671970367431641e-01) (5, -3.92049290239810943604e-02) (9, 3.61716330051422119141e-01) (1, 6.54391944408416748047e-01) (9, 8.92268180847167968750e-01) (2, -6.94316029548645019531e-01) (9, 2.03729927539825439453e-01) (2, -4.16310012340545654297e-01) (9, 4.46526616811752319336e-01) (2, 1.79159426689147949219e+00) (9, -3.60770672559738159180e-01) (3, -6.64495630189776420593e-04) (9, 7.61732179671525955200e-03) (4, -5.16322970390319824219e-01) (9, 2.18636944890022277832e-01) (3, 1.99577569961547851562e-01) (9, 9.97094094753265380859e-01) (0, 5.93181729316711425781e-01) (9, -6.16032183170318603516e-01) (3, 3.57830971479415893555e-02) (9, 8.07289838790893554688e-01) (2, -4.80910748243331909180e-01) (9, 6.31790637969970703125e-01) (2, 1.13506913185119628906e+00) (9, 1.52598547935485839844e+00) (6, 1.25606465339660644531e+00) (9, -3.03914695978164672852e-01) (5, -2.59325027465820312500e-01) (9, 1.00054466724395751953e+00) (0, -6.09043359756469726562e-01) (9, 1.64668150246143341064e-02) (4, 3.46011042594909667969e-01) (9, -1.28789111971855163574e-01) (6, -9.91055965423583984375e-01) (9, 6.25059068202972412109e-01) (1, 1.07910466194152832031e+00) (9, -4.25056546926498413086e-01) (3, 1.59861549735069274902e-01) (9, 1.53404131531715393066e-01) (7, -2.76234388351440429688e-01) (9, 4.93108415603637695312e+00) (3, 1.07926619052886962891e+00) (9, -2.44269251823425292969e-01) (3, 4.93724793195724487305e-01) (9, 6.81800007820129394531e-01) (7, 6.41622424125671386719e-01) (9, -5.70215582847595214844e-01) (4, -3.78190875053405761719e-01) (9, -1.54516458511352539062e-01) (7, 7.28306353092193603516e-01) (9, 2.30117961764335632324e-01) (5, -2.00173854827880859375e-01) (9, -7.31877982616424560547e-02) (0, 5.42813062667846679688e-01) (9, -8.92654240131378173828e-01) (3, 1.72528862953186035156e+00) (9, -7.50404745340347290039e-02) (8, -9.85370159149169921875e-01) (9, 2.98756062984466552734e-01) (7, -2.54047560691833496094e+00) (9, 7.05678701400756835938e-01) (1, 2.36151561141014099121e-01) (9, 2.06537678837776184082e-01) (3, 2.43548616766929626465e-01) (9, 2.51819431781768798828e-01) (3, -1.63358479738235473633e-01) (9, -1.00230593234300613403e-02) (3, 1.75307914614677429199e-01) (9, 7.51682281494140625000e-01) (4, -6.12236373126506805420e-02) (9, -3.46103072166442871094e-01) (3, 2.02604964375495910645e-01) (9, -9.07522618770599365234e-01) (5, 2.66075972467660903931e-02) (9, 3.49245023727416992188e+00) (0, -1.19576811790466308594e+00) (110, 5.07918298244476318359e-01) (83, 7.34194707870483398438e+00) (104, 1.60421204566955566406e+00) (65, 1.54189825057983398438e+00) (67, 1.61185419559478759766e+00) (96, -7.67017781734466552734e-01) (102, -5.67578136920928955078e-01) (56, 1.54572713375091552734e+00) (19, 3.89979243278503417969e-01) (18, 1.47374224662780761719e+00) (57, 5.33626794815063476562e-01) (110, 7.51119554042816162109e-01) (29, -6.44484281539916992188e-01) (24, -6.36253118515014648438e-01) (99, 4.17186081409454345703e-01) (11, 2.89922237396240234375e-01) (55, 2.95443952083587646484e-01) (89, 5.75599856674671173096e-02) (59, 7.90623605251312255859e-01) (84, 1.07747629284858703613e-01) (70, -1.20652496814727783203e+00) (41, -1.85996308922767639160e-01) (110, -3.29449653625488281250e-01) (51, -1.04250156879425048828e+00) (78, 1.73715031147003173828e+00) (69, 2.79304414987564086914e-01) (80, -4.31954443454742431641e-01) (18, 7.03803479671478271484e-01) (47, 2.96391725540161132812e+00) (67, 2.24568918347358703613e-01) (65, 2.21310034394264221191e-01) (55, 3.62327694892883300781e+00) (87, -3.73664945363998413086e-01) (110, 9.35079082846641540527e-02) (45, -1.12336254119873046875e+00) (107, 7.05677866935729980469e-01) (103, 9.29426193237304687500e-01) (105, 7.61724293231964111328e-01) (109, -1.26973375678062438965e-01) (42, 1.53764218091964721680e-01) (69, -1.11777320504188537598e-01) (20, 1.05193495750427246094e+00) (99, -7.39814490079879760742e-02) (72, 8.75302217900753021240e-03) (110, 5.26527822017669677734e-01) (32, -7.92254567146301269531e-01) (102, -6.28591656684875488281e-01) (101, 2.12156087160110473633e-01) (60, 4.66905683279037475586e-01) (81, 7.19676196575164794922e-01) (59, -4.48502361774444580078e-01) (14, -3.03740948438644409180e-01) (85, -6.16911888122558593750e-01) (97, 2.76378691196441650391e-01) (29, -1.77886918187141418457e-01) (110, -5.88548243045806884766e-01) (13, 6.10365569591522216797e-01) (57, 1.56760051846504211426e-01) (92, 7.76435017585754394531e-01) (27, 4.21697884798049926758e-01) (87, 5.57170331478118896484e-01) (22, 5.87330520153045654297e-01) (76, 6.54910504817962646484e-02) (28, -3.92141133546829223633e-01) (14, -1.39164596796035766602e-01) (94, -2.44174808263778686523e-01) (110, 7.22164630889892578125e-01) (42, -6.84500932693481445312e-01) (86, -4.94288295507431030273e-01) (24, -5.24875447154045104980e-02) (67, -1.88395977020263671875e-02) (105, -7.46954441070556640625e-01) (28, 3.15751314163208007812e-01) (34, -5.52993655204772949219e-01) (26, 7.11574852466583251953e-01) (73, 8.42586159706115722656e-01) (85, 7.98703908920288085938e-01) (110, 8.26579928398132324219e-01) (21, 5.45427465438842773438e+00) (25, 5.24365305900573730469e-01) (92, 4.47892665863037109375e+00) (45, -3.20768904685974121094e+00) (51, 7.84227192401885986328e-01) (17, 1.05241382122039794922e+00) (53, 2.39475756883621215820e-01) (68, 5.48007547855377197266e-01) (64, 4.41720068454742431641e-01) (31, 9.02853608131408691406e-01) (110, -2.80209422111511230469e-01) (59, 7.48079359531402587891e-01) (26, 5.17233252525329589844e-01) (99, -9.00896847248077392578e-01) (46, 6.34801089763641357422e-01) (70, 1.55640646815299987793e-01) (98, 1.83008253574371337891e+00) (60, -9.27264168858528137207e-02) (85, 7.91608512401580810547e-01) (33, -9.65386748313903808594e-01) (81, 6.89108967781066894531e-01) (110, 2.68888950347900390625e-01) (15, 2.94967591762542724609e-01) (26, 6.98494374752044677734e-01) (90, 7.63346672058105468750e-01) (105, 2.02098393440246582031e+00) (19, 3.37519824504852294922e-01) (104, -1.58839297294616699219e+00) (56, 1.05159616470336914062e+00) (91, -1.98320344090461730957e-01) (17, 2.10493400692939758301e-01) (64, 6.64527058601379394531e-01) (110, 9.38715100288391113281e-01) (27, -5.85884928703308105469e-01) (56, 6.66929602622985839844e-01) (74, -5.26230335235595703125e-01) (75, 8.61496746540069580078e-01) (99, 8.01923200488090515137e-02) (76, 3.95203411579132080078e-01) (39, -8.75821173191070556641e-01) (106, -3.88221472501754760742e-01) (51, 5.66203296184539794922e-01) (105, -2.28788065910339355469e+00) (110, 2.28045415133237838745e-02) (80, -1.25195550918579101562e+00) (84, 3.42959403991699218750e+00) (101, 8.20824682712554931641e-01) (42, -3.81890803575515747070e-01) (31, 1.45157823562622070312e+01) (29, 1.34520590305328369141e+00) (23, 1.95933568477630615234e+00) (66, 3.94555306434631347656e+00) (44, 4.98857684433460235596e-02) (67, 7.81021714210510253906e-01) (110, 3.55084300041198730469e-01) (89, 6.89513325691223144531e-01) (83, 6.26367747783660888672e-01) (104, -1.59584796428680419922e+00) (29, 4.09034997224807739258e-01) (106, 6.65201902389526367188e-01) (79, 2.21168294548988342285e-01) (77, 4.38429206609725952148e-01) (33, 3.12162518501281738281e-01) (70, -1.10443902015686035156e+00) (95, 1.94482779502868652344e+00) (110, 5.91032445430755615234e-01) (46, -1.09157180786132812500e+00) (47, -1.08876025676727294922e+00) (67, 1.01296460628509521484e+00) (76, 2.24219417572021484375e+00) (86, -1.20046891272068023682e-01) (104, -5.37062168121337890625e-01) (89, -1.62673369050025939941e-01) (43, -6.20957851409912109375e-01) (83, 3.61242949962615966797e-01) (32, 3.19405615329742431641e-01) (110, 1.03976264595985412598e-01) (28, -4.27578270435333251953e-01) (95, -2.68467515707015991211e-01) (42, -1.77945807576179504395e-01) (69, -1.41183480620384216309e-01) (72, -3.45764569938182830811e-02) (82, -5.64449131488800048828e-01) (17, 1.78275957703590393066e-01) (70, -5.29204130172729492188e-01) (87, 3.98295789957046508789e-01) (43, -8.89527142047882080078e-01) (110, 6.87657177448272705078e-01) (16, -5.50408780574798583984e-01) (46, 4.58874344825744628906e-01) (102, -3.73232126235961914062e-01) (89, -7.87822842597961425781e-01) (35, 6.96956753730773925781e-01) (52, 9.77574825286865234375e-01) (106, -4.32337373495101928711e-01) (65, -5.80250382423400878906e-01) (100, 5.76842904090881347656e-01) (32, -1.33989766240119934082e-01) (110, -1.63895070552825927734e-01) (63, 5.65949797630310058594e-01) (91, 8.62672865390777587891e-01) (107, -3.10553386807441711426e-02) (12, 1.30668377876281738281e+00) (19, -1.01541078090667724609e+00) (23, -2.16992553323507308960e-02) (51, 8.50871264934539794922e-01) (11, 5.26444971561431884766e-01) (55, -2.04711332917213439941e-01) (100, 1.73543441295623779297e+00) (110, 6.03820145130157470703e-01) (60, -1.22427964210510253906e+00) (67, -1.21223181486129760742e-02) (23, -7.33733355998992919922e-01) (51, -2.36764717102050781250e+00) (66, -1.82506918907165527344e+00) (24, 4.17397439479827880859e-01) (69, 1.96780061721801757812e+00) (74, -1.56058526039123535156e+00) (78, 1.80448460578918457031e+00) (90, -2.88150161504745483398e-01) (110, -3.14509570598602294922e-01) (43, -1.03914484381675720215e-01) (105, 9.97967481613159179688e-01) (77, -2.39379256963729858398e-01) (31, 1.28366303443908691406e+00) (67, -6.54016792774200439453e-01) (104, 1.50970935821533203125e-01) (61, 1.01187944412231445312e+00) (18, 9.14108574390411376953e-01) (95, -4.73361492156982421875e-01) (45, 3.54119944572448730469e+00) (110, -6.39921665191650390625e-01) (29, 1.94884610176086425781e+00) (33, -3.60238641500473022461e-01) (77, -2.46444866061210632324e-01) (47, -6.17697894573211669922e-01) (46, -1.67093122005462646484e+00) (26, 3.18547010421752929688e-01) (87, 7.62941777706146240234e-01) (49, 9.91442143917083740234e-01) (103, -3.64622741937637329102e-01) (57, -4.74567830562591552734e-01) (110, 1.22535981237888336182e-01) (34, 1.50557234883308410645e-01) (92, -3.95248651504516601562e+00) (99, 1.52069640159606933594e+00) (103, -1.05094852447509765625e+01) (70, 3.98343539237976074219e+00) (29, 3.23452162742614746094e+00) (89, -8.11452090740203857422e-01) (24, 8.50603818893432617188e-01) (53, 6.06528878211975097656e-01) (84, -4.82929086685180664062e+00) (110, 5.24920225143432617188e-01) (49, -5.61287164688110351562e-01) (76, 1.61677375435829162598e-02) (79, -1.76890820264816284180e-01) (100, -1.43436706066131591797e+00) (20, 1.64618861675262451172e+00) (71, -3.54076445102691650391e-01) (97, -9.13187682628631591797e-01) (27, 5.48258833587169647217e-02) (95, 7.68809199333190917969e-01) (19, 2.94815227389335632324e-02) (110, 9.10658240318298339844e-01) (57, -2.19576805830001831055e-01) (63, -5.12468755245208740234e-01) (12, 6.62105143070220947266e-01) (79, 5.17903566360473632812e-01) (100, 1.03490555286407470703e+00) (55, -2.62325346469879150391e-01) (26, -2.12391436100006103516e-01) (23, 2.43181765079498291016e-01) (10, -4.33441042900085449219e-01) (52, -6.15892171859741210938e-01) (110, 4.45527732372283935547e-02) (103, -1.18637911975383758545e-01) (88, 1.28879034519195556641e+00) (54, 6.41495287418365478516e-01) (93, 9.17930603027343750000e-01) (87, 7.50506222248077392578e-01) (21, -3.69469642639160156250e-01) (48, -1.50107550621032714844e+00) (71, 2.73123923689126968384e-02) (33, 1.71177768707275390625e+00) (50, -6.32910668849945068359e-01) (110, -3.96502047777175903320e-01) (11, 4.37122523784637451172e-01) (20, -8.98880243301391601562e-01) (24, 1.39203417301177978516e+00) (33, -2.41739768534898757935e-02) (72, 4.32213217020034790039e-01) (75, 8.25147390365600585938e-01) (48, 4.33884769678115844727e-01) (57, 4.66169416904449462891e-01) (38, 6.35487914085388183594e-01) (79, 1.10227301716804504395e-01) (110, 3.73457372188568115234e-01) (97, 4.56333112716674804688e+00) (12, -2.17151120305061340332e-02) (57, -7.37805545330047607422e-01) (23, -2.74726957082748413086e-01) (60, -1.86476111412048339844e+00) (52, 1.43865013122558593750e+00) (66, -3.04709696769714355469e+00) (31, -1.70204269886016845703e+00) (45, 9.04556334018707275391e-01) (47, 9.99474108219146728516e-01) (110, 3.51697988808155059814e-02) (74, 1.10936212539672851562e+00) (27, -6.92253351211547851562e-01) (79, -2.49468490481376647949e-01) (68, 1.31746101379394531250e+00) (104, 8.69964778423309326172e-01) (26, -7.72630751132965087891e-01) (58, 1.32188081741333007812e+00) (57, -7.42219090461730957031e-01) (43, 1.31411552429199218750e+00) (22, 7.80462086200714111328e-01) (110, 9.94407773017883300781e-01) (36, 1.31642073392868041992e-01) (43, -9.85752195119857788086e-02) (68, -9.17022824287414550781e-01) (77, -5.62076151371002197266e-01) (14, 5.50864674150943756104e-02) (107, 1.05043530464172363281e+00) (92, 8.79135280847549438477e-02) (12, 1.85615241527557373047e-01) (82, -2.40572288632392883301e-01) (90, 9.77023363113403320312e-01) (110, 4.06731843948364257812e-01) (94, 5.35997211933135986328e-01) (105, -7.66725921630859375000e+00) (77, 4.41104829311370849609e-01) (39, 1.01083528995513916016e+00) (85, -5.05650579929351806641e-01) (64, -2.76440590620040893555e-01) (100, 2.91420841217041015625e+00) (60, 7.57156670093536376953e-01) (96, -1.58029818534851074219e+00) (59, -2.45419597625732421875e+00) (110, 7.47319906949996948242e-02) (22, 5.84502637386322021484e-01) (53, -8.64247202873229980469e-01) (66, -1.54132232069969177246e-01) (69, 1.29585027694702148438e+00) (60, 6.20411634445190429688e-01) (15, 1.77321171760559082031e+00) (41, -1.07792034745216369629e-01) (109, 9.44108784198760986328e-01) (24, 5.43933033943176269531e-01) (64, 2.07436621189117431641e-01) (110, -4.53704118728637695312e-01) (38, 9.01166677474975585938e-01) (106, 8.68389725685119628906e-01) (92, 8.00971925258636474609e-01) (42, 2.39200294017791748047e-01) (19, 7.50158607959747314453e-01) (52, 9.51504766941070556641e-01) (13, 9.09828305244445800781e-01) (26, 8.53715360164642333984e-01) (54, -6.05002701282501220703e-01) (80, -8.25182914733886718750e-01) (110, 1.88416451215744018555e-01) (85, -1.24976837635040283203e+00) (43, 5.96621394157409667969e-01) (80, 9.26915287971496582031e-01) (73, 3.42767864465713500977e-01) (27, 1.26203358173370361328e+00) (28, 1.76458746194839477539e-01) (48, 7.14547693729400634766e-01) (86, 7.43512451648712158203e-01) (38, 9.23732638359069824219e-01) (40, -2.88811117410659790039e-01) (110, -3.25483322143554687500e-01) (10, -3.90079289674758911133e-01) (94, -3.91192793846130371094e-01) (49, -3.76400709152221679688e-01) (102, -8.22214424610137939453e-01) (74, -1.38988018035888671875e+00) (107, -4.89310175180435180664e-02) (75, -7.39865481853485107422e-01) (46, -1.95998942852020263672e+00) (28, -5.11937439441680908203e-02) (79, -4.89760369062423706055e-01) (110, -4.58774209022521972656e-01) (23, -1.76496952772140502930e-01) (41, -7.65390753746032714844e-01) (50, 3.99201035499572753906e-01) (64, 8.82312595844268798828e-01) (71, -7.10025787353515625000e-01) (107, -1.33093690872192382812e+00) (97, 9.17188227176666259766e-01) (48, 1.65982949733734130859e+00) (69, -5.22984325885772705078e-01) (57, -4.51513417065143585205e-02) (110, -1.07751929759979248047e+00) (19, 1.16033339500427246094e+00) (37, 4.61126595735549926758e-01) (40, 1.07595729827880859375e+00) (65, 6.53740584850311279297e-01) (93, 7.02525258064270019531e-01) (50, -9.71932053565979003906e-01) (78, -1.06452733278274536133e-01) (79, 9.62543129920959472656e-01) (100, -5.94593167304992675781e-01) (95, 5.12302875518798828125e-01) (110, -4.27187919616699218750e-01) (58, 1.05357360839843750000e+00) (62, -4.58678901195526123047e-01) (81, -7.19687879085540771484e-01) (99, 5.45612037181854248047e-01) (34, 8.77599835395812988281e-01) (68, 1.21335935592651367188e+00) (29, 1.46464359760284423828e+00) (66, 1.04074442386627197266e+00) (65, -4.25200849771499633789e-01) (67, 5.83483219146728515625e-01) (110, -3.25764507055282592773e-01) (44, 8.16512227058410644531e-01) (70, 7.99581587314605712891e-01) (87, 7.22893536090850830078e-01) (62, -7.62606322765350341797e-01) (88, 7.52249658107757568359e-01) (25, -4.43101972341537475586e-01) (99, -2.62059569358825683594e-01) (76, 4.63499903678894042969e-01) (68, 1.60628724098205566406e+00) (55, -4.31167662143707275391e-01) (110, -7.25699782371520996094e-01) (99, 1.54679566621780395508e-01) (13, -3.50303441286087036133e-01) (104, -9.63967704772949218750e+00) (84, 1.77369147539138793945e-01) (23, 4.71190869808197021484e-01) (30, 9.49853837490081787109e-01) (43, 3.82523059844970703125e-01) (95, 6.77419710159301757812e+00) (106, 2.10890769958496093750e-01) (100, -2.46856999397277832031e+00) (110, 5.44040560722351074219e-01) (31, 3.60238814353942871094e+00) (74, 7.68796563148498535156e-01) (87, 2.93310570716857910156e+00) (67, -1.62946339696645736694e-02) (50, -9.64435100555419921875e-01) (75, -1.56101644039154052734e-01) (93, -1.38704851269721984863e-02) (43, 2.11007356643676757812e+00) (29, 3.00712674856185913086e-01) (61, 1.06419789791107177734e+00) (110, 4.67334955930709838867e-01) (73, 2.57498532533645629883e-01) (58, -8.33904594182968139648e-02) (90, -5.87114036083221435547e-01) (62, -3.12822252511978149414e-01) (64, 4.45196449756622314453e-01) (103, 1.27154529094696044922e+00) (67, 1.49401605129241943359e+00) (44, 6.99250042438507080078e-01) (27, -5.24453163146972656250e-01) (33, -5.07729887962341308594e-01) (110, -1.00175812840461730957e-01) (108, 7.76023983955383300781e-01) (58, 6.30896687507629394531e-02) (82, 5.06437182426452636719e-01) (84, 6.66368484497070312500e-01) (75, -2.87565898895263671875e+00) (85, 1.16198909282684326172e+00) (101, 9.64166462421417236328e-01) (79, -5.76692104339599609375e-01) (100, 1.72574770450592041016e+00) (52, 1.57862555980682373047e+00) (110, 2.68764764070510864258e-01) (12, 7.56063580513000488281e-01) (35, 1.27556991577148437500e+00) (96, -2.85876572132110595703e-01) (28, 1.50150254368782043457e-01) (18, 1.07069337368011474609e+00) (83, -1.40994206070899963379e-01) (69, -2.51899409294128417969e+00) (16, 8.31214413046836853027e-02) (56, 7.57399141788482666016e-01) (31, 3.69288420677185058594e+00) (110, -5.11995851993560791016e-01) (48, 1.07399392127990722656e+00) (56, 6.35887145996093750000e-01) (103, -1.99329897761344909668e-01) (91, 3.46515846252441406250e+00) (36, 4.42122936248779296875e-01) (78, 9.02728557586669921875e-01) (49, 1.92953491210937500000e+00) (13, 7.26108610630035400391e-01) (14, 4.23580437898635864258e-01) (100, 2.03159511089324951172e-01) (110, 1.17823727428913116455e-01) (47, -5.15860728919506072998e-02) (29, 3.43646585941314697266e-01) (36, -3.96413542330265045166e-02) (70, -2.29878067970275878906e-01) (46, -1.85182225704193115234e+00) (33, 7.55344107747077941895e-02) (74, -1.81647360324859619141e-01) (50, -7.59009778499603271484e-01) (60, 1.93623945116996765137e-01) (61, 3.42445492744445800781e-01) (110, 4.90905851125717163086e-01) (88, -4.49729740619659423828e-01) (97, 1.04175138473510742188e+00) (56, -9.64479088783264160156e-01) (96, 1.65187084674835205078e+00) (19, 9.53332960605621337891e-01) (84, 4.78016901016235351562e+00) (35, -2.07068756222724914551e-01) (41, -2.14230969548225402832e-01) (64, 1.46556186676025390625e+00) (70, 4.07469481229782104492e-01) (110, -3.52782070636749267578e-01) (18, -1.00559318065643310547e+00) (34, 4.23466622829437255859e-01) (102, 1.02142326533794403076e-01) (97, 1.17813158035278320312e+00) (47, -1.93236005306243896484e+00) (17, 4.72078502178192138672e-01) (65, 1.47007250785827636719e+00) (61, -1.85576963424682617188e+00) (31, 1.76691353321075439453e+00) (38, 2.89809644222259521484e-01) (110, 3.53193819522857666016e-01) (17, 3.78975719213485717773e-01) (52, 1.05986982583999633789e-01) (54, -1.93621098995208740234e-01) (61, 2.99551177024841308594e+00) (82, -8.65130662918090820312e-01) (109, 8.24002087116241455078e-01) (50, 3.79269838333129882812e+00) (59, -1.79949969053268432617e-01) (26, 6.78665220737457275391e-01) (85, -3.43462347984313964844e+00) (110, -5.07125735282897949219e-01) (14, -3.30677330493927001953e-02) (16, -1.72693401575088500977e-01) (30, -1.24088205397129058838e-01) (98, 5.15337884426116943359e-01) (96, 1.00402009487152099609e+00) (108, 7.71710932254791259766e-01) (66, 3.60802173614501953125e-01) (55, 8.02924931049346923828e-01) (48, -2.63321191072463989258e-01) (71, 9.88617300987243652344e-01) (110, -4.58484999835491180420e-02) (39, -2.95240491628646850586e-01) (55, -9.72017526626586914062e-01) (103, 1.58844602108001708984e+00) (93, -8.97275134921073913574e-02) (84, 1.13302624225616455078e+00) (87, 3.95093727111816406250e+00) (10, 7.13180974125862121582e-02) (102, -1.51462242007255554199e-01) (96, -1.13015258312225341797e+00) (69, -2.29566678404808044434e-01) (110, 3.20774316787719726562e-01) (96, 2.23763084411621093750e+00) (16, -7.55627378821372985840e-02) (107, -7.55312368273735046387e-02) (52, -9.70904082059860229492e-02) (88, 2.27298045158386230469e+00) (55, 6.53369331359863281250e+00) (79, 1.71056795120239257812e+00) (67, 1.06885576248168945312e+00) (69, -1.64996933937072753906e+00) (24, 3.69601517915725708008e-01) (161, 2.05682307481765747070e-01) (145, 1.09131085872650146484e+00) (153, 1.09775686264038085938e+00) (126, -8.04980158805847167969e-01) (114, 3.70749306678771972656e+00) (121, -2.78901427984237670898e-01) (161, -5.13055086135864257812e-01) (111, 4.01382297277450561523e-01) (134, 5.56252837181091308594e-01) (120, 4.29757773876190185547e-01) (153, -2.89711356163024902344e-01) (154, 8.79195332527160644531e-01) (161, -4.79789614677429199219e-01) (133, 9.73001897335052490234e-01) (150, 8.41727197170257568359e-01) (123, 8.16884398460388183594e-01) (144, 2.74949461221694946289e-01) (136, 3.94416183233261108398e-01) (161, 5.84099352359771728516e-01) (136, -2.89100587368011474609e-01) (113, -9.96152043342590332031e-01) (137, 7.37153470516204833984e-01) (152, -8.90827059745788574219e-01) (135, 4.04907166957855224609e-01) (161, -1.46239548921585083008e-02) (154, 1.02034006267786026001e-02) (145, 3.07448714971542358398e-01) (130, 7.95389041304588317871e-02) (116, 2.11966729164123535156e+00) (117, 2.61416226625442504883e-01) (161, 3.78645122051239013672e-01) (151, 2.47552301734685897827e-02) (120, 1.36854304000735282898e-02) (155, 1.19433686137199401855e-01) (157, -9.74786818027496337891e-01) (156, 1.65240931510925292969e+00) (161, 6.23749434947967529297e-01) (144, -1.44279645755887031555e-02) (145, 1.44162821769714355469e+00) (131, -7.27946281433105468750e-01) (148, -4.37541343271732330322e-02) (141, 2.18578372150659561157e-02) (161, -2.71815359592437744141e-01) (155, -4.36865568161010742188e-01) (132, 6.47667503356933593750e+00) (114, 2.58657217025756835938e+00) (116, -6.19996643066406250000e+00) (139, 5.97510859370231628418e-02) (161, 8.30136597156524658203e-01) (124, 2.49893035888671875000e+01) (141, -4.79868829250335693359e-01) (152, 2.99454975128173828125e+01) (113, 1.14748764038085937500e+00) (146, 6.35462093353271484375e+00) (161, -5.31686544418334960938e-01) (140, -1.04981553554534912109e+00) (127, -9.71836566925048828125e-01) (141, -5.18198348581790924072e-02) (115, 2.88916826248168945312e-01) (121, -2.23629936575889587402e-01) (161, -1.45684510469436645508e-01) (149, -3.45116332173347473145e-02) (133, 4.33220446109771728516e-01) (160, 7.43429064750671386719e-01) (158, 9.00734663009643554688e-01) (136, 1.11876353621482849121e-01) (161, -3.56211155652999877930e-01) (142, 9.09786880016326904297e-01) (145, 1.16166627407073974609e+00) (141, 8.74227881431579589844e-01) (131, 5.18691062927246093750e-01) (129, 7.60111153125762939453e-01) (161, 2.04642146825790405273e-01) (130, -4.17993605136871337891e-01) (143, 8.40158879756927490234e-01) (136, -5.68211913108825683594e-01) (117, 9.83106791973114013672e-01) (132, -2.05905526876449584961e-01) (161, -3.49796116352081298828e-01) (137, -1.67664551734924316406e+00) (147, 1.05879020690917968750e+00) (112, -1.13288715481758117676e-01) (155, 9.98118340969085693359e-01) (141, 9.45421814918518066406e-01) (161, 1.95185225456953048706e-02) (133, -5.82391381263732910156e-01) (131, -2.58575439453125000000e-01) (140, 6.52557194232940673828e-01) (127, 1.23565351963043212891e+00) (120, 4.88044708967208862305e-01) (161, 8.00993263721466064453e-01) (140, -4.96660828590393066406e-01) (133, 6.00774168968200683594e-01) (137, -1.29159283638000488281e+00) (144, -1.55945807695388793945e-01) (153, 4.99531894922256469727e-01) (161, 2.64795362949371337891e-01) (153, 6.33788168430328369141e-01) (137, 1.43615949153900146484e+00) (155, 4.80730868875980377197e-02) (156, 9.05026018619537353516e-01) (113, -2.40880608558654785156e+00) (161, -5.45161187648773193359e-01) (138, 4.00690644979476928711e-01) (122, 8.26234996318817138672e-01) (149, -8.21038782596588134766e-01) (112, 6.17844939231872558594e-01) (131, -5.63916087150573730469e-01) (161, 9.48103964328765869141e-01) (120, -1.80434688925743103027e-01) (150, -2.66577333211898803711e-01) (148, -2.13186815381050109863e-01) (112, -1.76323801279067993164e-01) (146, -3.04050892591476440430e-01) (161, -3.59010457992553710938e-01) (116, 4.54623651504516601562e+00) (155, 6.43319427967071533203e-01) (144, -6.09093792736530303955e-02) (150, 4.64248746633529663086e-01) (132, 1.77684104442596435547e+00) (161, -4.74597781896591186523e-01) (156, 4.27602440118789672852e-01) (154, 1.11401903629302978516e+00) (126, 6.52994632720947265625e-01) (139, -8.33619713783264160156e-01) (151, 3.45216780900955200195e-01) (161, 9.20220315456390380859e-01) (119, -7.71284475922584533691e-02) (136, 1.94851234555244445801e-01) (142, -2.08141535520553588867e-01) (153, 6.28989815711975097656e-01) (154, 1.57744312286376953125e+00) (161, -5.88677823543548583984e-01) (126, -1.22183501720428466797e+00) (152, -3.38439331054687500000e+01) (143, 1.53899580240249633789e-01) (139, -4.53108966350555419922e-01) (114, -1.11268100738525390625e+01) (161, -7.13771760463714599609e-01) (112, 8.94374012947082519531e-01) (159, 9.14941966533660888672e-01) (150, -7.52573013305664062500e-01) (156, -6.44597232341766357422e-01) (160, 7.57671594619750976562e-01) (161, -4.91619199514389038086e-01) (154, -7.17336297035217285156e-01) (122, 5.73299169540405273438e-01) (155, 4.44944113492965698242e-01) (121, 8.65608155727386474609e-02) (133, -7.56185829639434814453e-01) (161, -2.21587324142456054688e+00) (120, 1.76970787048339843750e+01) (152, 4.74318237304687500000e+01) (143, 1.60398375988006591797e+00) (150, 5.37898302078247070312e-01) (146, 1.17742025852203369141e+00) (161, 2.38057345151901245117e-01) (154, 4.25003290176391601562e-01) (132, -2.29499079287052154541e-02) (138, 8.96370530128479003906e-01) (156, 2.72184193134307861328e-01) (139, 3.06850433349609375000e-01) (161, 6.83231174945831298828e-01) (151, 1.95578917860984802246e-01) (150, -3.31119775772094726562e-01) (129, 1.68764799833297729492e-01) (135, 1.30379056930541992188e+00) (157, -3.88594657182693481445e-01) (161, -4.28345978260040283203e-01) (122, 3.24985265731811523438e-01) (117, 5.94515912234783172607e-02) (140, -9.24388170242309570312e-01) (158, -2.59528785943984985352e-01) (129, -6.74412131309509277344e-01) (161, -5.79016625881195068359e-01) (134, 1.08865666389465332031e+00) (146, 1.17105853557586669922e+00) (137, 1.27502012252807617188e+00) (124, -2.96808809041976928711e-01) (144, 6.86944127082824707031e-01) (161, -2.45292276144027709961e-01) (144, 6.91387951374053955078e-01) (158, -7.73315489292144775391e-01) (133, 9.63346421718597412109e-01) (122, -9.61977601051330566406e-01) (135, 1.38320922851562500000e+00) (161, -9.55090001225471496582e-02) (149, 3.96517030894756317139e-02) (127, -2.78553992509841918945e-01) (135, -1.10682547092437744141e+00) (113, 3.88971447944641113281e-01) (141, 5.50785720348358154297e-01) (161, 1.21281825006008148193e-01) (113, -3.69036108255386352539e-01) (146, -2.68882304430007934570e-01) (130, 1.78291514515876770020e-01) (158, -4.49960261583328247070e-01) (122, -7.05467104911804199219e-01) (161, 6.54594779014587402344e-01) (158, 9.74165856838226318359e-01) (133, 3.59300374984741210938e-01) (128, -3.45587253570556640625e-01) (152, -4.36612755060195922852e-01) (143, 3.02245914936065673828e-02) (161, -3.88699740171432495117e-01) (123, -1.19631791114807128906e+00) (130, 2.70240902900695800781e-01) (151, 1.60105514526367187500e+00) (153, 4.13440376520156860352e-01) (133, 5.02886712551116943359e-01) (161, -3.57929646968841552734e-01) (148, -6.96837678551673889160e-02) (155, 1.19809877872467041016e+00) (118, 9.28375840187072753906e-01) (131, -3.42315733432769775391e-01) (125, 9.90122914314270019531e-01) (161, -7.47639611363410949707e-02) (153, -6.21906518936157226562e-01) (126, 9.89837124943733215332e-02) (125, 1.13141655921936035156e+00) (149, 4.92175012826919555664e-01) (127, -2.80410587787628173828e-01) (161, 6.97795450687408447266e-02) (132, -2.37783476710319519043e-01) (156, -4.51866872608661651611e-02) (139, -9.35835301876068115234e-01) (115, 1.91903218626976013184e-01) (143, 1.33508384227752685547e-01) (161, 4.37665581703186035156e-01) (149, -1.36552341282367706299e-02) (130, 5.54229199886322021484e-01) (141, -1.08388081192970275879e-01) (119, 2.59622335433959960938e-01) (124, -4.32099491357803344727e-01) (161, -4.78408694267272949219e-01) (114, 5.17827749252319335938e-01) (144, -7.92825281620025634766e-01) (136, 7.87075877189636230469e-01) (111, 7.07343146204948425293e-02) (159, 1.35268700122833251953e+00) (161, -3.06234329938888549805e-01) (144, 6.42185628414154052734e-01) (128, 7.87551105022430419922e-01) (132, 2.78080725669860839844e+00) (130, -1.86074471473693847656e+00) (141, 7.15345859527587890625e-01) (161, -4.79671172797679901123e-02) (129, 3.10573130846023559570e-01) (124, 2.79623895883560180664e-01) (118, -2.69133657217025756836e-01) (150, -1.75767868757247924805e-01) (160, 3.02454143762588500977e-01) (161, 6.85741484165191650391e-01) (159, 1.01260089874267578125e+00) (147, -1.39372074604034423828e+00) (122, 4.93622869253158569336e-01) (132, -6.20968580245971679688e-01) (153, -1.42467409372329711914e-01) (161, 4.44021016359329223633e-01) (136, 1.58606432378292083740e-02) (117, 1.43866911530494689941e-01) (120, 3.50101292133331298828e-01) (158, 7.39482760429382324219e-01) (144, -1.87477633357048034668e-01) (161, -8.03492546081542968750e-01) (158, 9.48948040604591369629e-03) (144, -2.49802529811859130859e-01) (155, 2.76052206754684448242e-01) (136, 7.75090217590332031250e-01) (159, -6.24504148960113525391e-01) (161, 1.50736207142472267151e-02) (150, -4.76763337850570678711e-01) (119, -6.18618309497833251953e-01) (147, 2.29395911097526550293e-01) (122, 3.92430275678634643555e-01) (156, -8.47945213317871093750e-01) (161, -6.58383846282958984375e-01) (131, 4.31663691997528076172e-01) (156, 1.26699730753898620605e-01) (135, -3.77212107181549072266e-01) (124, 5.88317252695560455322e-02) (142, 8.47197830677032470703e-01) (161, -1.52924942970275878906e+00) (112, 2.02840423583984375000e+00) (133, 4.65590655803680419922e-01) (151, 3.65115022659301757812e+00) (113, 2.45775389671325683594e+00) (158, 5.23668193817138671875e+00) (161, -4.53355461359024047852e-01) (155, 9.86498445272445678711e-02) (126, -6.34251117706298828125e-01) (123, 1.88559126853942871094e+00) (158, 1.43561869859695434570e-01) (140, -8.59667509794235229492e-02) (161, 5.70856869220733642578e-01) (157, -9.90823805332183837891e-01) (154, 1.18374001979827880859e+00) (118, -3.97670924663543701172e-01) (119, 7.49713778495788574219e-01) (148, -6.92245602607727050781e-01) (161, 9.27935004234313964844e-01) (129, -7.91447818279266357422e-01) (130, 4.99159783124923706055e-01) (151, 3.75423103570938110352e-01) (114, -2.51492786407470703125e+00) (118, 6.41085028648376464844e-01) (161, 5.92299222946166992188e-01) (146, -4.53548192977905273438e-01) (125, -9.40929317474365234375e+00) (121, 1.89638733863830566406e+00) (156, 1.20569038391113281250e+00) (143, 2.06908360123634338379e-01) (161, -4.08099204301834106445e-01) (123, 1.08418214321136474609e+00) (129, -2.62095689773559570312e-01) (119, 2.84326940774917602539e-01) (125, -8.50201249122619628906e-02) (138, 9.02704775333404541016e-01) (161, -1.13973231054842472076e-03) (147, -4.67882335186004638672e-01) (113, 1.11072099208831787109e+00) (143, 1.12629103660583496094e+00) (120, 1.25622844696044921875e+00) (158, 9.69244241714477539062e-01) (161, -2.31037080287933349609e-01) (143, -4.28612291812896728516e-01) (147, -2.35019356012344360352e-01) (125, 1.66038131713867187500e+00) (140, 2.37047467380762100220e-02) (148, -2.32261002063751220703e-01) (161, 9.65736746788024902344e-01) (141, -6.67316257953643798828e-01) (143, 1.21420778334140777588e-01) (155, -2.35089480876922607422e-01) (153, 1.60353109240531921387e-01) (154, 3.42759490013122558594e-01) (161, 1.69938638806343078613e-01) (111, 1.66508245468139648438e+00) (157, 3.44220972061157226562e+00) (120, -1.18930888175964355469e+00) (123, 2.21579164266586303711e-01) (142, 1.29669702053070068359e+00) (161, -1.79300606250762939453e+00) (135, -2.35842514038085937500e+00) (119, 8.40420532226562500000e+00) (138, -3.14494180679321289062e+00) (129, 2.12599679827690124512e-01) (146, 2.01388406753540039062e+00) (161, 2.52274990081787109375e-01) (130, 5.96907675266265869141e-01) (116, -1.98276031017303466797e+00) (118, 1.56419843435287475586e-01) (156, 3.44235002994537353516e-01) (153, 9.25062239170074462891e-01) (161, -1.12018093466758728027e-01) (139, 7.82481610774993896484e-01) (148, -4.47744540870189666748e-02) (115, 5.30508816242218017578e-01) (144, -1.92801803350448608398e-01) (118, -1.50520101189613342285e-01) (161, -3.35799485445022583008e-01) (142, 9.74816679954528808594e-01) (120, -9.97386217117309570312e-01) (132, -8.55029344558715820312e-01) (141, 7.31338322162628173828e-01) (114, -6.10799968242645263672e-01) (161, 1.01289522647857666016e+00) (114, 5.67966341972351074219e-01) (147, 1.95381374359130859375e+01) (148, 8.95517230033874511719e-01) (157, 1.26790742874145507812e+01) (154, -6.86419963836669921875e-01) (161, 5.62679111957550048828e-01) (125, -7.05044507980346679688e-01) (158, 2.03551650047302246094e+00) (157, 7.40721607208251953125e+00) (140, -5.98479151725769042969e-01) (141, 5.36428689956665039062e-01) (161, 1.09099960327148437500e+00) (156, 1.35317075252532958984e+00) (136, -9.72618043422698974609e-01) (119, -8.59531939029693603516e-01) (152, -4.53947216272354125977e-01) (149, -7.86425054073333740234e-01) (161, 8.33930015563964843750e-01) (147, 9.64663565158843994141e-01) (151, 5.12406766414642333984e-01) (137, 9.88784730434417724609e-01) (134, 3.45563173294067382812e+00) (132, -2.48599815368652343750e+00) (161, -5.28742909431457519531e-01) (151, 3.89864134788513183594e+00) (126, -2.42930889129638671875e-01) (115, -2.51553297042846679688e+00) (136, -1.21189683675765991211e-01) (138, -2.12903881072998046875e+00) (161, -1.29058077931404113770e-01) (144, 1.01300632953643798828e+00) (125, -8.45329821109771728516e-01) (116, -1.01064503192901611328e+00) (139, -7.46520638465881347656e-01) (131, 1.25550162792205810547e+00) (161, 1.41972944140434265137e-01) (146, 1.57483780384063720703e+00) (159, 6.23946607112884521484e-01) (124, 1.75763830542564392090e-01) (128, -1.20716460049152374268e-01) (114, 1.31824707984924316406e+00) (161, 1.12362742424011230469e-01) (145, -2.00526666641235351562e+00) (154, -1.06007784605026245117e-01) (122, -6.13257765769958496094e-01) (125, -2.79482388496398925781e+00) (132, -5.34320399165153503418e-02) (161, -5.71361064910888671875e-01) (151, 1.26102671027183532715e-01) (135, -2.86226212978363037109e-01) (141, 2.74909287691116333008e-01) (132, 8.90318214893341064453e-01) (129, 4.49457556009292602539e-01) (161, 7.02529966831207275391e-01) (144, -8.01436960697174072266e-01) (131, -1.13340303301811218262e-01) (142, 2.64160215854644775391e-01) (119, 5.17481744289398193359e-01) (147, -1.54096201062202453613e-01) (161, 6.05689346790313720703e-01) (133, 7.78639376163482666016e-01) (120, -7.19168707728385925293e-02) (156, 3.53909760713577270508e-01) (149, 2.13332965970039367676e-01) (138, -1.80680721998214721680e-01) (161, -3.34178954362869262695e-01) (146, 5.15614628791809082031e-01) (134, 2.88478779792785644531e+00) (120, -2.42921209335327148438e+00) (157, 8.36983263492584228516e-01) (131, 1.15064227581024169922e+00) (161, -6.39874815940856933594e-01) (121, 1.88633129000663757324e-01) (153, 8.37884902954101562500e-01) (159, 1.28617018461227416992e-01) (112, 3.51695008575916290283e-02) (113, -2.73834466934204101562e-01) (161, -5.49315214157104492188e-01) (144, 6.15954577922821044922e-01) (130, 7.60190069675445556641e-01) (120, 5.43813526630401611328e-01) (141, -2.09175780415534973145e-01) (146, 6.22869491577148437500e-01) (161, -5.00709772109985351562e-01) (114, -3.28440725803375244141e-01) (154, 7.68272697925567626953e-01) (125, 2.42569744586944580078e-02) (119, 6.02805674076080322266e-01) (140, 1.56495261192321777344e+00) (161, -6.19183897972106933594e-01) (128, 8.41653466224670410156e-01) (124, 7.28078186511993408203e-01) (156, -4.72538322210311889648e-01) (146, 3.23367685079574584961e-01) (153, 7.43653476238250732422e-01) (161, 1.25793531537055969238e-01) (117, 6.11660182476043701172e-01) (140, 2.05593442916870117188e+00) (146, 7.17242121696472167969e-01) (115, 4.97347414493560791016e-01) (120, -9.83048975467681884766e-01) (161, -2.07120940089225769043e-01) (115, -1.08140397071838378906e+00) (132, 9.54052090644836425781e-01) (151, 2.88275480270385742188e-01) (146, 7.82919168472290039062e-01) (158, -5.15269935131072998047e-01) (161, 6.68090701103210449219e-01) (119, 2.13716769218444824219e+00) (160, -1.44092470407485961914e-01) (154, -4.07414168119430541992e-01) (146, -3.79975557327270507812e-01) (121, -3.50631952285766601562e-01) (161, 2.91379302740097045898e-01) (113, -8.28531980514526367188e-02) (138, 6.22519791126251220703e-01) (153, -2.71025359630584716797e-01) (117, 1.62168836593627929688e+00) (128, 2.70634680986404418945e-01) (161, 1.17014683783054351807e-01) (119, 1.08501768112182617188e+00) (137, 8.66511344909667968750e+00) (151, 1.86065900325775146484e+00) (140, 6.89209818840026855469e-01) (115, 1.19640958309173583984e+00) (161, 3.64280551671981811523e-01) (134, 1.12482070922851562500e+00) (128, -1.09814710915088653564e-01) (147, -7.96703219413757324219e-01) (145, 3.64845007658004760742e-01) (117, -1.83871984481811523438e-01) (161, 6.44994258880615234375e-01) (133, -2.55974419414997100830e-02) (154, 4.11231517791748046875e+00) (152, 4.46431999206542968750e+01) (151, 9.11900699138641357422e-01) (145, 4.35577487945556640625e+00) (161, -1.53693124651908874512e-01) (145, 2.78164887428283691406e+00) (148, 9.96885061264038085938e-01) (147, 8.37619423866271972656e-01) (158, 1.29412770271301269531e+00) (112, 2.25164437294006347656e+00) (161, 3.36617022752761840820e-01) (123, 1.68060457706451416016e+00) (115, -1.45174652338027954102e-01) (122, 5.80582499504089355469e-01) (160, -2.80311286449432373047e-01) (121, -2.72061139345169067383e-01) (161, 5.95471501350402832031e-01) (116, -4.60967421531677246094e-01) (144, 2.12431502342224121094e+00) (149, -2.13894024491310119629e-01) (156, 2.57090377807617187500e+00) (143, -1.08604288101196289062e+00) (161, 1.24248139560222625732e-01) (111, 4.66609776020050048828e-01) (114, 3.42106890678405761719e+00) (121, -3.74810838699340820312e+00) (116, -2.81872093677520751953e-01) (131, 1.64819061756134033203e-01) (161, 3.69151949882507324219e-01) (121, -1.01641149520874023438e+01) (154, -5.48061907291412353516e-01) (122, 1.56997537612915039062e+01) (132, -1.01289062500000000000e+01) (119, 1.82820510864257812500e+00) (161, -6.59461855888366699219e-01) (114, 1.35247421264648437500e+00) (131, 8.31677436828613281250e-01) (154, -7.97632694244384765625e-01) (123, 1.00896632671356201172e+00) (151, 2.66945689916610717773e-01) (161, 5.33368110656738281250e-01) (150, -4.84124645590782165527e-02) (121, 3.92839871346950531006e-03) (112, -2.14722633361816406250e+00) (113, 9.37503278255462646484e-01) (114, 2.81418228149414062500e+00) (161, -4.75177049636840820312e-01) (115, 5.56130170822143554688e-01) (148, 9.10433650016784667969e-01) (142, -2.55811125040054321289e-01) (155, 3.71185779571533203125e-01) (152, 4.47915166616439819336e-01) (161, 6.07871115207672119141e-01) (118, -3.60831797122955322266e-01) (134, 3.78413772583007812500e+00) (153, -6.03709280490875244141e-01) (117, 1.96073377132415771484e+00) (113, -7.35780715942382812500e-01) (161, 4.68013733625411987305e-01) (156, -8.63868772983551025391e-01) (114, 1.14769744873046875000e+00) (160, 2.81236857175827026367e-01) (126, 4.35707449913024902344e-01) (137, -1.02429938316345214844e+00) (161, -3.78526866436004638672e-01) (155, -7.01559185981750488281e-01) (138, -2.93952350616455078125e+01) (128, 2.39900365471839904785e-01) (129, 2.10435247421264648438e+00) (145, 2.84925222396850585938e+00) (161, -5.79038321971893310547e-01) (127, 4.76280212402343750000e+00) (117, 3.93832349777221679688e+00) (135, 2.70240926742553710938e+00) (145, 5.11250674724578857422e-01) (138, 1.95508286356925964355e-01) (161, -2.84236550331115722656e-01) (121, 7.04754829406738281250e-01) (135, 9.47454810142517089844e-01) (137, 6.26746118068695068359e-01) (128, -1.38998687267303466797e-01) (160, -6.60749912261962890625e-01) (161, 2.23059296607971191406e-01) (155, 6.82529389858245849609e-01) (116, 8.32857489585876464844e-01) (131, 1.50410115718841552734e-01) (129, 1.63604259490966796875e-01) (149, -6.79787039756774902344e-01) (161, 1.17443110793828964233e-02) (138, -4.40806061029434204102e-01) (145, 4.62718635797500610352e-01) (132, 7.65049397945404052734e-01) (150, 4.29038494825363159180e-01) (156, 7.50401020050048828125e-02) (161, -3.22629988193511962891e-01) (128, -3.95326703786849975586e-01) (112, 8.23980689048767089844e-01) (144, 4.03321564197540283203e-01) (137, 1.16779422760009765625e+00) (124, -3.52770209312438964844e-01) (262, 4.56005454063415527344e-01) (163, 1.13786804676055908203e+00) (168, 2.77243107557296752930e-01) (180, -7.53787696361541748047e-01) (182, 5.80318748950958251953e-01) (185, 1.01830577850341796875e+00) (187, 6.24007582664489746094e-01) (197, 8.07125568389892578125e-01) (198, 1.30551624298095703125e+00) (202, 4.45361942052841186523e-01) (206, 9.07791435718536376953e-01) (215, 1.39395642280578613281e+00) (216, 4.58821249008178710938e+00) (221, -1.52145177125930786133e-01) (224, 2.76822656393051147461e-01) (232, 7.73938834667205810547e-01) (235, -4.46086615324020385742e-01) (236, -4.01015579700469970703e-01) (240, -7.15300515294075012207e-02) (241, 2.68723249435424804688e-01) (244, 7.22676038742065429688e-01) (246, 8.25338959693908691406e-01) (248, -7.47966051101684570312e-01) (249, 2.44792133569717407227e-01) (250, 1.17988288402557373047e+00) (251, -1.48091599345207214355e-01) (262, 8.39775204658508300781e-01) (165, -8.11833381652832031250e-01) (166, 1.23175609111785888672e+00) (169, -1.17904238402843475342e-01) (172, 5.44434487819671630859e-01) (173, 6.33223831653594970703e-01) (174, 2.40453913807868957520e-01) (178, -2.76485770940780639648e-01) (183, 3.22721332311630249023e-01) (184, -6.25809788703918457031e-01) (186, 1.01437211036682128906e+00) (188, 1.31240516901016235352e-01) (194, -1.91254281997680664062e+00) (195, -1.41202926635742187500e-01) (199, 2.15391445159912109375e+00) (201, 6.46271407604217529297e-01) (203, 6.23983860015869140625e-01) (207, 4.07357931137084960938e-01) (208, 8.40508282184600830078e-01) (209, 2.78589814901351928711e-01) (213, -1.17973661422729492188e+00) (218, 7.10789918899536132812e-01) (225, -8.13930809497833251953e-01) (228, -1.10237646102905273438e+00) (229, 2.68734365701675415039e-01) (230, -1.19197452068328857422e+00) (262, -1.92607700824737548828e-01) (162, 3.33277285099029541016e-01) (164, 7.37660944461822509766e-01) (167, -5.24771511554718017578e-01) (170, 1.11531472206115722656e+00) (171, 7.90363848209381103516e-01) (175, 7.69410014152526855469e-01) (176, -9.38616096973419189453e-02) (177, 1.36097180843353271484e+00) (190, 3.84093523025512695312e-01) (191, -7.95836985111236572266e-01) (192, -7.02357172966003417969e-01) (193, 2.61851906776428222656e+00) (196, -4.33350682258605957031e-01) (200, -3.97675544023513793945e-01) (204, 8.61159339547157287598e-02) (205, -4.06922847032546997070e-01) (211, -1.41199970245361328125e+00) (214, 6.77238821983337402344e-01) (217, -1.39418825507164001465e-01) (219, 1.95999462157487869263e-02) (220, 3.84056240320205688477e-01) (222, -3.92024964094161987305e-01) (226, -5.62636673450469970703e-01) (227, -4.26687955856323242188e-01) (234, -7.03585505485534667969e-01) (262, 5.94460427761077880859e-01) (179, 1.73949849605560302734e+00) (181, 4.64919745922088623047e-01) (189, -5.35205245018005371094e-01) (210, 6.57176852226257324219e-01) (212, -3.26981663703918457031e-01) (223, 9.87565100193023681641e-01) (231, 8.17246913909912109375e-01) (233, -2.56992101669311523438e-01) (237, -3.56705456972122192383e-01) (238, 1.07454109191894531250e+00) (239, -6.56685054302215576172e-01) (242, -2.00467661023139953613e-01) (243, -3.48132163286209106445e-01) (245, 6.39808595180511474609e-01) (247, 6.25668942928314208984e-01) (252, 8.36984336376190185547e-01) (253, 1.13277506828308105469e+00) (254, -8.42921435832977294922e-01) (255, 7.74863004684448242188e-01) (256, -2.24658265709877014160e-01) (257, -1.41979470849037170410e-01) (258, -8.06303679943084716797e-01) (259, 5.74265182018280029297e-01) (260, 5.63669264316558837891e-01) (261, -3.37591707706451416016e-01)
input_names='a' 'betan' 'bt' 'delta' 'ip' 'kappa' 'neped' 'r' 'zeffped'
output_names='OUT_p_E1' 'OUT_ptop_E1' 'OUT_wid_E1' 'OUT_widtop_E1'
MSE= 0.0218053124845