FANN_FLO_2.1
num_layers=4
learning_rate=0.700000
connection_rate=1.000000
network_type=0
learning_momentum=0.000000
training_algorithm=2
train_error_function=0
train_stop_function=0
cascade_output_change_fraction=0.010000
quickprop_decay=2926.659180
quickprop_mu=1.750000
rprop_increase_factor=1.200000
rprop_decrease_factor=0.500000
rprop_delta_min=0.000000
rprop_delta_max=50.000000
rprop_delta_zero=0.100000
cascade_output_stagnation_epochs=12
cascade_candidate_change_fraction=0.010000
cascade_candidate_stagnation_epochs=12
cascade_max_out_epochs=150
cascade_min_out_epochs=50
cascade_max_cand_epochs=150
cascade_min_cand_epochs=50
cascade_num_candidate_groups=2
bit_fail_limit=3.49999994039535522461e-01
cascade_candidate_limit=1.00000000000000000000e+03
cascade_weight_multiplier=4.00000005960464477539e-01
cascade_activation_functions_count=10
cascade_activation_functions=3 5 7 8 10 11 14 15 16 17
cascade_activation_steepnesses_count=4
cascade_activation_steepnesses=2.50000000000000000000e-01 5.00000000000000000000e-01 7.50000000000000000000e-01 1.00000000000000000000e+00
layer_sizes=8 31 31 13
scale_included=1
scale_mean_in=1.497693 0.756185 -0.985263 7.902929 0.160191 1.250321 1.422171
scale_deviation_in=0.514680 0.151253 1.205322 4.326889 0.098347 0.447391 0.453273
scale_new_min_in=-1.000000 -1.000000 -1.000000 -1.000000 -1.000000 -1.000000 -1.000000
scale_factor_in=1.000000 1.000000 1.000000 1.000000 1.000000 1.000000 1.000000
scale_mean_out=0.000000 0.000000 0.000000 0.000000 0.000000 0.000000 0.000000 0.000000 0.000000 0.000000 0.000000 0.000000
scale_deviation_out=0.070550 0.432414 0.390877 0.149355 0.507643 0.359429 0.127675 0.238679 0.378101 0.127675 0.481749 0.374762
scale_new_min_out=-1.000000 -1.000000 -1.000000 -1.000000 -1.000000 -1.000000 -1.000000 -1.000000 -1.000000 -1.000000 -1.000000 -1.000000
scale_factor_out=1.000000 1.000000 1.000000 1.000000 1.000000 1.000000 1.000000 1.000000 1.000000 1.000000 1.000000 1.000000
neurons (num_inputs, activation_function, activation_steepness)=(0, 0, 0.00000000000000000000e+00) (0, 0, 0.00000000000000000000e+00) (0, 0, 0.00000000000000000000e+00) (0, 0, 0.00000000000000000000e+00) (0, 0, 0.00000000000000000000e+00) (0, 0, 0.00000000000000000000e+00) (0, 0, 0.00000000000000000000e+00) (0, 0, 0.00000000000000000000e+00) (8, 5, 5.00000000000000000000e-01) (8, 5, 5.00000000000000000000e-01) (8, 5, 5.00000000000000000000e-01) (8, 5, 5.00000000000000000000e-01) (8, 5, 5.00000000000000000000e-01) (8, 5, 5.00000000000000000000e-01) (8, 5, 5.00000000000000000000e-01) (8, 5, 5.00000000000000000000e-01) (8, 5, 5.00000000000000000000e-01) (8, 5, 5.00000000000000000000e-01) (8, 5, 5.00000000000000000000e-01) (8, 5, 5.00000000000000000000e-01) (8, 5, 5.00000000000000000000e-01) (8, 5, 5.00000000000000000000e-01) (8, 5, 5.00000000000000000000e-01) (8, 5, 5.00000000000000000000e-01) (8, 5, 5.00000000000000000000e-01) (8, 5, 5.00000000000000000000e-01) (8, 5, 5.00000000000000000000e-01) (8, 5, 5.00000000000000000000e-01) (8, 5, 5.00000000000000000000e-01) (8, 5, 5.00000000000000000000e-01) (8, 5, 5.00000000000000000000e-01) (8, 5, 5.00000000000000000000e-01) (8, 5, 5.00000000000000000000e-01) (8, 5, 5.00000000000000000000e-01) (8, 5, 5.00000000000000000000e-01) (8, 5, 5.00000000000000000000e-01) (8, 5, 5.00000000000000000000e-01) (8, 5, 5.00000000000000000000e-01) (0, 5, 0.00000000000000000000e+00) (31, 5, 5.00000000000000000000e-01) (31, 5, 5.00000000000000000000e-01) (31, 5, 5.00000000000000000000e-01) (31, 5, 5.00000000000000000000e-01) (31, 5, 5.00000000000000000000e-01) (31, 5, 5.00000000000000000000e-01) (31, 5, 5.00000000000000000000e-01) (31, 5, 5.00000000000000000000e-01) (31, 5, 5.00000000000000000000e-01) (31, 5, 5.00000000000000000000e-01) (31, 5, 5.00000000000000000000e-01) (31, 5, 5.00000000000000000000e-01) (31, 5, 5.00000000000000000000e-01) (31, 5, 5.00000000000000000000e-01) (31, 5, 5.00000000000000000000e-01) (31, 5, 5.00000000000000000000e-01) (31, 5, 5.00000000000000000000e-01) (31, 5, 5.00000000000000000000e-01) (31, 5, 5.00000000000000000000e-01) (31, 5, 5.00000000000000000000e-01) (31, 5, 5.00000000000000000000e-01) (31, 5, 5.00000000000000000000e-01) (31, 5, 5.00000000000000000000e-01) (31, 5, 5.00000000000000000000e-01) (31, 5, 5.00000000000000000000e-01) (31, 5, 5.00000000000000000000e-01) (31, 5, 5.00000000000000000000e-01) (31, 5, 5.00000000000000000000e-01) (31, 5, 5.00000000000000000000e-01) (31, 5, 5.00000000000000000000e-01) (0, 5, 0.00000000000000000000e+00) (31, 0, 5.00000000000000000000e-01) (31, 0, 5.00000000000000000000e-01) (31, 0, 5.00000000000000000000e-01) (31, 0, 5.00000000000000000000e-01) (31, 0, 5.00000000000000000000e-01) (31, 0, 5.00000000000000000000e-01) (31, 0, 5.00000000000000000000e-01) (31, 0, 5.00000000000000000000e-01) (31, 0, 5.00000000000000000000e-01) (31, 0, 5.00000000000000000000e-01) (31, 0, 5.00000000000000000000e-01) (31, 0, 5.00000000000000000000e-01) (0, 0, 0.00000000000000000000e+00)
connections (connected_to_neuron, weight)=(0, 1.11821830272674560547e-01) (1, -2.62010514736175537109e-01) (2, 1.57755756378173828125e+00) (3, 4.38303768634796142578e-01) (4, -4.68990616500377655029e-02) (5, -2.17741012573242187500e-01) (6, 1.50456941127777099609e+00) (7, 8.74506294727325439453e-01) (0, -7.27579370141029357910e-02) (1, -3.28912854194641113281e+00) (2, -2.26809948682785034180e-01) (3, -6.53765797615051269531e-02) (4, -1.18907429277896881104e-01) (5, -1.84500977396965026855e-01) (6, -6.07051789760589599609e-01) (7, 6.13535165786743164062e+00) (0, 8.33543483167886734009e-03) (1, -3.67614179849624633789e-02) (2, 4.89828705787658691406e-01) (3, 1.35069102048873901367e-01) (4, -3.56867879629135131836e-01) (5, 5.03524422645568847656e-01) (6, 5.08137702941894531250e-01) (7, 1.24106621742248535156e+00) (0, 4.24657650291919708252e-02) (1, -1.07369653880596160889e-01) (2, 3.58261108398437500000e-01) (3, 1.48322088643908500671e-02) (4, 4.46362078189849853516e-01) (5, 3.83955001831054687500e-01) (6, 3.32762748003005981445e-01) (7, 1.22995102405548095703e+00) (0, -8.14227294176816940308e-03) (1, 9.73864272236824035645e-02) (2, -1.89471304416656494141e-01) (3, -1.46020337939262390137e-01) (4, -9.38410580158233642578e-01) (5, 4.41060841083526611328e-01) (6, -3.84939759969711303711e-01) (7, -6.65445148944854736328e-01) (0, -1.82040501385927200317e-02) (1, 2.65908986330032348633e-01) (2, -1.92974194884300231934e-01) (3, -2.64941364526748657227e-01) (4, 2.75892645120620727539e-01) (5, -3.84054109454154968262e-02) (6, 8.77792164683341979980e-02) (7, -8.11134696006774902344e-01) (0, 1.38265818357467651367e-01) (1, -4.41914975643157958984e-01) (2, 1.14394295215606689453e+00) (3, 3.28422635793685913086e-01) (4, -4.07024770975112915039e-01) (5, 2.61914044618606567383e-01) (6, -4.67717349529266357422e-01) (7, -8.42546761035919189453e-01) (0, -1.20941743254661560059e-01) (1, -1.50065086781978607178e-02) (2, 1.75932407379150390625e+00) (3, 4.83051508665084838867e-01) (4, -4.22399997711181640625e-01) (5, -3.02501529455184936523e-01) (6, 1.17210352420806884766e+00) (7, 2.24227651953697204590e-01) (0, -1.61383256316184997559e-01) (1, 5.56616365909576416016e-01) (2, -5.76637573540210723877e-02) (3, 3.72769869863986968994e-02) (4, -3.26699525117874145508e-01) (5, -4.62746322154998779297e-01) (6, -7.84668326377868652344e-01) (7, 8.11337113380432128906e-01) (0, 7.05215334892272949219e-02) (1, -3.13763320446014404297e-01) (2, 5.98613858222961425781e-01) (3, 4.53908927738666534424e-02) (4, 7.98910498619079589844e-01) (5, 4.06113475561141967773e-01) (6, 6.29900217056274414062e-01) (7, 8.07710170745849609375e-01) (0, 6.57374933362007141113e-02) (1, -1.77243486046791076660e-01) (2, -2.41545006632804870605e-01) (3, -7.23278224468231201172e-02) (4, -2.35901191830635070801e-01) (5, 2.03663915395736694336e-01) (6, 7.23460137844085693359e-01) (7, 7.15001404285430908203e-01) (0, -2.28238582611083984375e-01) (1, -3.48052382469177246094e-02) (2, 2.57321953773498535156e+00) (3, 6.51798903942108154297e-01) (4, -6.74336373805999755859e-01) (5, -4.40968014299869537354e-02) (6, 1.35901355743408203125e+00) (7, 2.79503971338272094727e-01) (0, 1.40771269798278808594e-02) (1, 1.23946845531463623047e-01) (2, -4.02123093605041503906e-01) (3, 7.39956200122833251953e-01) (4, -1.97321213781833648682e-02) (5, 1.40800504013895988464e-02) (6, 2.88095287978649139404e-02) (7, -8.51032912731170654297e-01) (0, 2.40784641355276107788e-02) (1, 6.91170711070299148560e-03) (2, 1.88855096697807312012e-01) (3, -6.84108026325702667236e-03) (4, -2.31291398406028747559e-01) (5, -1.94615256041288375854e-02) (6, 9.65326845645904541016e-01) (7, -8.32774415612220764160e-02) (0, 1.12233394756913185120e-02) (1, 2.66097515821456909180e-01) (2, 1.84842750430107116699e-01) (3, 1.25552102923393249512e-01) (4, -3.64239394664764404297e-01) (5, -3.44159156084060668945e-01) (6, -1.71410694718360900879e-01) (7, -7.72800147533416748047e-02) (0, -1.84084743261337280273e-01) (1, 2.20916688442230224609e-01) (2, 6.04162514209747314453e-01) (3, 7.63224586844444274902e-02) (4, 1.73841983079910278320e-01) (5, 1.29146203398704528809e-01) (6, -6.32991135120391845703e-01) (7, -6.32104516029357910156e-01) (0, -6.86722323298454284668e-02) (1, -2.44915917515754699707e-01) (2, 6.46707057952880859375e-01) (3, 2.29790538549423217773e-01) (4, -7.48039186000823974609e-01) (5, -3.45234364271163940430e-01) (6, 8.36073338985443115234e-01) (7, 2.75259160995483398438e+00) (0, -2.15453475713729858398e-01) (1, 1.39810025691986083984e-01) (2, -4.57517281174659729004e-02) (3, 1.43597319722175598145e-01) (4, -3.08673810213804244995e-02) (5, -3.87159407138824462891e-01) (6, 5.77900230884552001953e-01) (7, 1.53435170650482177734e-02) (0, 6.38259723782539367676e-02) (1, 1.12770929932594299316e-01) (2, -3.91014039516448974609e-01) (3, -6.05539903044700622559e-02) (4, 1.12443840503692626953e+00) (5, -3.82555723190307617188e-01) (6, -2.13095024228096008301e-02) (7, 1.40601217746734619141e+00) (0, 2.98558384180068969727e-01) (1, 4.50938105583190917969e-01) (2, 8.99246633052825927734e-01) (3, 3.41481179930269718170e-03) (4, 2.44367688894271850586e-01) (5, -4.12505380809307098389e-02) (6, 2.20457799732685089111e-02) (7, 2.25404977798461914062e-01) (0, 1.17091454565525054932e-01) (1, 8.25496539473533630371e-02) (2, -1.51337790489196777344e+00) (3, -4.86283093690872192383e-01) (4, 3.47302436828613281250e-01) (5, -1.62541866302490234375e-01) (6, -5.59353083372116088867e-02) (7, 1.15134739875793457031e+00) (0, 1.07509374618530273438e-01) (1, -2.03876405954360961914e-01) (2, 1.73631981015205383301e-01) (3, 7.75103643536567687988e-02) (4, 3.80689322948455810547e-01) (5, 5.37945985794067382812e-01) (6, -6.44746497273445129395e-02) (7, -8.60077202320098876953e-01) (0, 1.14783510565757751465e-01) (1, 2.83536046743392944336e-01) (2, -3.36050018668174743652e-02) (3, 2.25205019116401672363e-01) (4, -1.92879363894462585449e-01) (5, -1.18921063840389251709e-01) (6, -3.42211931943893432617e-01) (7, 1.37086439132690429688e+00) (0, -1.37127459049224853516e-01) (1, -2.95079141855239868164e-01) (2, -5.63055634498596191406e-01) (3, -4.53920699656009674072e-02) (4, -2.40831807255744934082e-01) (5, -8.53004381060600280762e-02) (6, -2.27345749735832214355e-01) (7, -3.71987968683242797852e-02) (0, -8.46921876072883605957e-02) (1, -3.01978737115859985352e-01) (2, 1.18949376046657562256e-01) (3, 5.78018510714173316956e-03) (4, -7.61294364929199218750e-01) (5, 1.79323643445968627930e-01) (6, 8.73476043343544006348e-02) (7, 9.43413794040679931641e-01) (0, 1.45872399210929870605e-01) (1, -1.20473623275756835938e-01) (2, 7.41604506969451904297e-01) (3, 2.39159002900123596191e-01) (4, -3.71806807816028594971e-02) (5, -4.54772323369979858398e-01) (6, 9.11363840103149414062e-01) (7, -6.44181430339813232422e-01) (0, -5.37927076220512390137e-02) (1, -1.30677625536918640137e-01) (2, 5.05612254142761230469e-01) (3, -3.79491522908210754395e-02) (4, 1.05530261993408203125e+00) (5, -1.47857859730720520020e-01) (6, -9.68447476625442504883e-02) (7, 2.17675971984863281250e+00) (0, 8.47829952836036682129e-02) (1, 5.57021982967853546143e-02) (2, 7.23152816295623779297e-01) (3, 4.52148504555225372314e-02) (4, 6.50483250617980957031e-01) (5, 4.30914849042892456055e-01) (6, -1.79110765457153320312e-02) (7, -1.07939548790454864502e-01) (0, 1.27138882875442504883e-01) (1, 8.77407267689704895020e-02) (2, -1.32972419261932373047e-01) (3, -2.17234075069427490234e-01) (4, -2.26262807846069335938e-01) (5, 8.15043672919273376465e-02) (6, -4.97760027647018432617e-01) (7, 4.90309596061706542969e-01) (0, -1.79067119956016540527e-01) (1, -7.63960480690002441406e-02) (2, -1.49786126613616943359e+00) (3, -5.16212046146392822266e-01) (4, 3.20346206426620483398e-01) (5, 6.29158973693847656250e-01) (6, -3.97174715995788574219e-01) (7, 6.46499812602996826172e-01) (8, -2.40397259593009948730e-01) (9, 9.18224394321441650391e-01) (10, 6.24902509152889251709e-02) (11, -2.92857170104980468750e-01) (12, 2.17111289501190185547e-01) (13, 1.91956400871276855469e-01) (14, -6.36907815933227539062e-01) (15, -8.37868094444274902344e-01) (16, -9.88688170909881591797e-01) (17, 2.43205979466438293457e-01) (18, 1.31904923915863037109e+00) (19, -6.94404900074005126953e-01) (20, 3.75603377819061279297e-01) (21, -6.31997644901275634766e-01) (22, 3.25328326225280761719e+00) (23, 1.48036941885948181152e-01) (24, 3.05213838815689086914e-01) (25, -7.83513188362121582031e-02) (26, 3.80155414342880249023e-01) (27, 4.24899548292160034180e-01) (28, -2.64295786619186401367e-01) (29, -6.17037057876586914062e-01) (30, -1.01706242561340332031e+00) (31, 6.11416220664978027344e-01) (32, -1.90873599052429199219e+00) (33, 3.75289767980575561523e-01) (34, 3.29247891902923583984e-01) (35, 9.88482296466827392578e-01) (36, -9.20365273952484130859e-01) (37, 1.05230462551116943359e+00) (38, 3.06092947721481323242e-01) (8, 2.94521719217300415039e-01) (9, 1.03874079883098602295e-01) (10, -5.72781801223754882812e-01) (11, 3.03118526935577392578e-01) (12, 1.10463070869445800781e+00) (13, 4.03741240501403808594e-01) (14, 1.87459394335746765137e-01) (15, -9.53576683998107910156e-01) (16, -7.54893481731414794922e-01) (17, -4.91673260927200317383e-01) (18, 8.22181522846221923828e-01) (19, -7.71757587790489196777e-02) (20, 6.45741820335388183594e-01) (21, -9.48756456375122070312e-01) (22, -2.65039533376693725586e-01) (23, 2.89389133453369140625e-01) (24, -8.06317269802093505859e-01) (25, 1.87516427040100097656e+00) (26, 1.28319895267486572266e+00) (27, 2.41703651845455169678e-02) (28, 9.41179156303405761719e-01) (29, -6.52910053730010986328e-01) (30, -5.61652034521102905273e-02) (31, -3.47658157348632812500e-01) (32, -4.53814625740051269531e-01) (33, 5.80425798892974853516e-01) (34, 1.08405518531799316406e+00) (35, 8.82952928543090820312e-01) (36, -1.69174239039421081543e-01) (37, 1.33522486686706542969e+00) (38, 4.67636346817016601562e-01) (8, 1.03715479373931884766e+00) (9, -1.23403692245483398438e+00) (10, -7.56385922431945800781e-01) (11, -5.65443709492683410645e-02) (12, 2.82626241445541381836e-01) (13, 1.80545139312744140625e+00) (14, -7.66740381717681884766e-01) (15, -8.51614236831665039062e-01) (16, 2.19178974628448486328e-01) (17, 8.38822424411773681641e-01) (18, 1.42390704154968261719e+00) (19, -2.19926133751869201660e-01) (20, 1.59469842910766601562e+00) (21, -8.86565089225769042969e-01) (22, 6.88567578792572021484e-01) (23, 1.38440334796905517578e+00) (24, 2.54999697208404541016e-01) (25, -1.20993447303771972656e+00) (26, 6.95495903491973876953e-01) (27, 2.06006020307540893555e-01) (28, 1.50751447677612304688e+00) (29, -6.28347814083099365234e-01) (30, 2.41679579019546508789e-01) (31, 9.81078147888183593750e-01) (32, 8.24798643589019775391e-01) (33, 4.18659001588821411133e-01) (34, 1.72815823554992675781e+00) (35, 3.62929165363311767578e-01) (36, 1.66780307888984680176e-01) (37, 1.22898602485656738281e+00) (38, -4.08360958099365234375e-02) (8, -4.92896020412445068359e-01) (9, 8.39245617389678955078e-01) (10, 1.83849704265594482422e+00) (11, 7.34673961997032165527e-02) (12, 1.10238635540008544922e+00) (13, 3.55605363845825195312e-01) (14, 2.81589239835739135742e-01) (15, -3.47102671861648559570e-01) (16, 4.83012914657592773438e-01) (17, -5.25966212153434753418e-02) (18, 5.84811925888061523438e-01) (19, 8.49086225032806396484e-01) (20, -2.02272132039070129395e-01) (21, -8.15795361995697021484e-02) (22, 9.43856179714202880859e-01) (23, 3.42384010553359985352e-01) (24, 7.01221600174903869629e-02) (25, 6.37637436389923095703e-01) (26, 9.27193403244018554688e-01) (27, -8.19507598876953125000e-01) (28, -2.67149180173873901367e-01) (29, 1.30948591232299804688e+00) (30, 4.05896157026290893555e-01) (31, -6.98380529880523681641e-01) (32, 8.29048752784729003906e-01) (33, -1.83136060833930969238e-01) (34, 8.75576496124267578125e-01) (35, 4.79010373353958129883e-01) (36, 5.79627633094787597656e-01) (37, -1.15004882216453552246e-01) (38, 2.34044101089239120483e-02) (8, 2.61236160993576049805e-01) (9, -2.83657848834991455078e-01) (10, 8.39235186576843261719e-01) (11, 5.92117786407470703125e-01) (12, -8.61739665269851684570e-02) (13, 1.70363232493400573730e-01) (14, 5.72355866432189941406e-01) (15, 1.77763640880584716797e-01) (16, -9.52186048030853271484e-01) (17, -6.51962697505950927734e-01) (18, 7.02651500701904296875e-01) (19, -7.93531715869903564453e-01) (20, -8.88751372694969177246e-02) (21, 9.85841572284698486328e-01) (22, 8.91138076782226562500e-01) (23, 9.78896081447601318359e-01) (24, -4.55813616514205932617e-01) (25, 1.29014885425567626953e+00) (26, -2.61790931224822998047e-01) (27, -1.31335115432739257812e+00) (28, 1.32452535629272460938e+00) (29, -9.80328142642974853516e-01) (30, 9.51851725578308105469e-01) (31, 3.21027725934982299805e-01) (32, -8.87142568826675415039e-02) (33, -2.91204422712326049805e-01) (34, 5.19292593002319335938e-01) (35, -4.85291242599487304688e-01) (36, 1.21241462230682373047e+00) (37, 1.15258760750293731689e-01) (38, 1.46395349502563476562e+00) (8, -7.30871737003326416016e-01) (9, 1.56064236164093017578e+00) (10, -4.41825687885284423828e-02) (11, 1.85726118087768554688e+00) (12, 3.63179802894592285156e-01) (13, 1.05479693412780761719e+00) (14, 5.30411899089813232422e-01) (15, 1.61577999591827392578e+00) (16, 8.28103303909301757812e-01) (17, 8.97687733173370361328e-01) (18, 5.34516990184783935547e-01) (19, -3.29186990857124328613e-02) (20, 1.33637070655822753906e+00) (21, 1.15839384496212005615e-01) (22, -2.25282406806945800781e+00) (23, -6.13005816936492919922e-01) (24, -8.53896960616111755371e-02) (25, -1.29132509231567382812e-01) (26, 2.01735424995422363281e+00) (27, -3.62733960151672363281e-01) (28, -9.31336998939514160156e-01) (29, 3.65801274776458740234e-01) (30, -3.20432722568511962891e-01) (31, 2.75487303733825683594e-01) (32, 1.21941697597503662109e+00) (33, 9.82721745967864990234e-01) (34, 3.14389967918395996094e+00) (35, -7.23456203937530517578e-01) (36, 1.52107822895050048828e+00) (37, -9.13557782769203186035e-02) (38, 8.03702533245086669922e-01) (8, -5.73794186115264892578e-01) (9, 3.26123386621475219727e-01) (10, -7.56280183792114257812e-01) (11, -1.60288065671920776367e-01) (12, -4.94750142097473144531e-02) (13, -7.72513002157211303711e-02) (14, 8.59353542327880859375e-01) (15, -1.10529470443725585938e+00) (16, -5.47490596771240234375e-01) (17, -1.34245842695236206055e-01) (18, 5.32860159873962402344e-01) (19, -1.04202139377593994141e+00) (20, 8.46478939056396484375e-01) (21, 5.86487174034118652344e-01) (22, -1.74143448472023010254e-01) (23, 4.61199849843978881836e-01) (24, -1.39886185526847839355e-01) (25, -7.21136689186096191406e-01) (26, 2.05424636602401733398e-01) (27, 1.00395488739013671875e+00) (28, 4.48648810386657714844e-01) (29, -4.41050022840499877930e-01) (30, -3.50614458322525024414e-01) (31, -2.43777826428413391113e-01) (32, 7.39041119813919067383e-02) (33, 4.28433328866958618164e-01) (34, -1.11677348613739013672e-01) (35, 7.86726355552673339844e-01) (36, -7.61035859584808349609e-01) (37, 4.30279135704040527344e-01) (38, -5.89717984199523925781e-01) (8, -5.76210021972656250000e-01) (9, 5.15305578708648681641e-01) (10, -5.71893751621246337891e-01) (11, 5.07300853729248046875e-01) (12, -2.82633572816848754883e-01) (13, 2.15015992522239685059e-01) (14, 1.17518693208694458008e-01) (15, 6.77446901798248291016e-01) (16, 6.86889946460723876953e-01) (17, -2.52644300460815429688e-01) (18, 3.84846292436122894287e-02) (19, 1.58846235275268554688e+00) (20, -1.97728037834167480469e-01) (21, 8.54379057884216308594e-01) (22, 9.74853575229644775391e-01) (23, -4.66600924730300903320e-01) (24, -8.89575958251953125000e-01) (25, 5.45745730400085449219e-01) (26, 4.50231492519378662109e-01) (27, -8.48608553409576416016e-01) (28, 9.33063387870788574219e-01) (29, -4.26031975075602531433e-03) (30, -1.99779585003852844238e-01) (31, 1.06379821896553039551e-01) (32, 1.02878284454345703125e+00) (33, -2.33988612890243530273e-01) (34, 1.29309487342834472656e+00) (35, -6.53010964393615722656e-01) (36, 3.71950954198837280273e-01) (37, 2.65390742570161819458e-02) (38, 2.89282292127609252930e-01) (8, 2.33516001701354980469e+00) (9, 2.13112068176269531250e+00) (10, 2.03858518600463867188e+00) (11, -1.95632874965667724609e+00) (12, -2.06059306859970092773e-01) (13, 1.20066776871681213379e-01) (14, -1.97299420833587646484e+00) (15, 6.75388097763061523438e-01) (16, 5.42278051376342773438e-01) (17, 2.19867825508117675781e+00) (18, 8.72819244861602783203e-01) (19, 8.14298689365386962891e-01) (20, -1.15849101543426513672e+00) (21, -1.34477138519287109375e+00) (22, 6.13092422485351562500e-01) (23, -5.45294404029846191406e-01) (24, 2.55896258354187011719e+00) (25, -1.42187833786010742188e+00) (26, -1.18274044990539550781e+00) (27, -2.64649128913879394531e+00) (28, -1.65605366230010986328e+00) (29, -1.35743021965026855469e+00) (30, 8.78591299057006835938e-01) (31, 7.50623166561126708984e-01) (32, -4.66033124923706054688e+00) (33, 2.43152067065238952637e-01) (34, 4.57441538572311401367e-01) (35, 9.95540440082550048828e-01) (36, 1.05182528495788574219e+00) (37, -7.34865248203277587891e-01) (38, 1.84067618846893310547e+00) (8, 4.82733637094497680664e-01) (9, 8.30524444580078125000e-01) (10, 5.37183046340942382812e-01) (11, 9.38370704650878906250e-01) (12, 2.44679078459739685059e-01) (13, -4.92937684059143066406e-01) (14, -1.18755199015140533447e-01) (15, -8.86115208268165588379e-02) (16, 3.34551990032196044922e-01) (17, 4.77890342473983764648e-01) (18, 4.58535373210906982422e-01) (19, 4.48067277669906616211e-01) (20, -5.55284559726715087891e-01) (21, 1.25451207160949707031e-01) (22, 1.18533742427825927734e+00) (23, 6.11619472503662109375e-01) (24, 7.61680066585540771484e-01) (25, 1.41555130481719970703e-01) (26, -2.87334024906158447266e-01) (27, -2.74833381175994873047e-01) (28, -9.34180557727813720703e-01) (29, 4.12365138530731201172e-01) (30, 1.22397683560848236084e-01) (31, 1.33638250827789306641e+00) (32, 3.79275083541870117188e-01) (33, -2.59369432926177978516e-01) (34, -3.20098012685775756836e-01) (35, 1.98148876428604125977e-01) (36, 1.06495313346385955811e-01) (37, -4.70076829195022583008e-01) (38, 6.11343123018741607666e-02) (8, -7.42312818765640258789e-02) (9, 3.09513565152883529663e-02) (10, 6.23436093330383300781e-01) (11, -8.10736715793609619141e-01) (12, 4.22650605440139770508e-01) (13, -3.77568989992141723633e-01) (14, -2.05080375075340270996e-01) (15, 9.67003762722015380859e-01) (16, 1.89320921897888183594e-01) (17, -3.01933377981185913086e-01) (18, -9.25154328346252441406e-01) (19, 6.67280517518520355225e-03) (20, -2.56881684064865112305e-01) (21, 1.26436221599578857422e+00) (22, -8.07953715324401855469e-01) (23, 8.22913289070129394531e-01) (24, -2.84350216388702392578e-01) (25, -1.93686932325363159180e-01) (26, -3.95697981119155883789e-01) (27, 2.03046798706054687500e-01) (28, -8.86426627635955810547e-01) (29, 3.82694184780120849609e-01) (30, 7.78895556926727294922e-01) (31, 2.40693902969360351562e+00) (32, 3.16964834928512573242e-02) (33, 1.48694407939910888672e+00) (34, -5.00176250934600830078e-01) (35, 5.36603391170501708984e-01) (36, 1.06714832782745361328e+00) (37, -1.59165218472480773926e-01) (38, 1.37609612941741943359e+00) (8, -3.77756208181381225586e-01) (9, -8.12553584575653076172e-01) (10, -6.07552433013916015625e+00) (11, -9.76890742778778076172e-01) (12, 3.88417911529541015625e+00) (13, -9.67199087142944335938e-01) (14, 1.77153503894805908203e+00) (15, 1.39952039718627929688e+00) (16, 6.34912908077239990234e-01) (17, -9.53333005309104919434e-02) (18, -2.41582207381725311279e-02) (19, -4.07915472984313964844e-01) (20, 1.39094161987304687500e+00) (21, 2.25416278839111328125e+00) (22, -1.81376242637634277344e+00) (23, 2.88653683662414550781e+00) (24, -4.94068431854248046875e+00) (25, -2.62396603822708129883e-01) (26, 5.76581835746765136719e-01) (27, -1.61568236351013183594e+00) (28, -2.69355207681655883789e-01) (29, 7.43829011917114257812e-01) (30, 6.58978641033172607422e-01) (31, 1.19276499748229980469e+00) (32, 1.24060666561126708984e+00) (33, 1.48181259632110595703e+00) (34, 7.22888231277465820312e-01) (35, 3.32501125335693359375e+00) (36, 6.72738134860992431641e-01) (37, -1.68456137180328369141e+00) (38, -6.39651596546173095703e-01) (8, -1.38327074050903320312e+00) (9, 4.00492250919342041016e-01) (10, 1.18282243609428405762e-01) (11, -5.60456573963165283203e-01) (12, 1.48954081535339355469e+00) (13, 1.78942009806632995605e-01) (14, 9.37317073345184326172e-01) (15, 1.00431406497955322266e+00) (16, 1.11934411525726318359e+00) (17, 6.62839591503143310547e-01) (18, 2.05170333385467529297e-01) (19, 5.20843625068664550781e-01) (20, 1.95332933217287063599e-02) (21, 3.35072368383407592773e-01) (22, -2.53240275382995605469e+00) (23, -4.17945116758346557617e-01) (24, 5.00304341316223144531e-01) (25, 3.98859798908233642578e-01) (26, 1.96088802814483642578e+00) (27, 5.89971780776977539062e-01) (28, 5.81597328186035156250e-01) (29, -5.35637810826301574707e-02) (30, 3.72876077890396118164e-01) (31, -7.72720158100128173828e-01) (32, 1.18208909034729003906e+00) (33, 2.18802168965339660645e-01) (34, 2.22277140617370605469e+00) (35, 1.11232793331146240234e+00) (36, 2.90307492017745971680e-01) (37, -7.67145216464996337891e-01) (38, 6.95510566234588623047e-01) (8, -6.12088263034820556641e-01) (9, 6.51678621768951416016e-01) (10, -5.90948760509490966797e-01) (11, 1.09868049621582031250e+00) (12, 5.28282701969146728516e-01) (13, 1.12428522109985351562e+00) (14, 7.79403224587440490723e-02) (15, 2.55553454160690307617e-01) (16, -2.37899318337440490723e-01) (17, 1.25020034611225128174e-02) (18, -2.72940337657928466797e-01) (19, -1.23517429828643798828e+00) (20, 9.20703589916229248047e-01) (21, 3.45983088016510009766e-01) (22, -7.06726014614105224609e-01) (23, -6.52491509914398193359e-01) (24, -7.61705338954925537109e-01) (25, 8.25417578220367431641e-01) (26, 6.81556522846221923828e-01) (27, 8.55602324008941650391e-01) (28, -3.54361627250909805298e-03) (29, -8.52269113063812255859e-01) (30, 9.84557047486305236816e-02) (31, 3.93378809094429016113e-02) (32, -7.95948147773742675781e-01) (33, -4.67906504869461059570e-01) (34, 5.84859192371368408203e-01) (35, 1.88909590244293212891e-01) (36, 2.68888264894485473633e-01) (37, 8.53598639369010925293e-02) (38, 1.11925110220909118652e-01) (8, -1.04174149036407470703e+00) (9, -7.25323200225830078125e-01) (10, 5.87747469544410705566e-02) (11, 6.55802845954895019531e-01) (12, -7.03904569149017333984e-01) (13, -1.43007591366767883301e-01) (14, 1.54955768585205078125e+00) (15, -1.39424860477447509766e+00) (16, -1.83153462409973144531e+00) (17, 1.47581517696380615234e+00) (18, 1.13427683711051940918e-01) (19, -1.30616462230682373047e+00) (20, 3.21917146444320678711e-01) (21, -2.65126186423003673553e-03) (22, 5.23723030090332031250e+00) (23, 9.48241531848907470703e-01) (24, -4.05236303806304931641e-01) (25, -1.29181110858917236328e+00) (26, 5.48678755760192871094e-01) (27, 6.83572232723236083984e-01) (28, 2.22336220741271972656e+00) (29, -7.13509798049926757812e-01) (30, 6.64201319217681884766e-01) (31, -8.37336301803588867188e-01) (32, 2.23504090309143066406e+00) (33, -3.73819231986999511719e-01) (34, 1.36709501966834068298e-02) (35, 4.74813252687454223633e-01) (36, -1.74000930786132812500e+00) (37, 5.05974173545837402344e-01) (38, -5.79280197620391845703e-01) (8, 1.00563085079193115234e+00) (9, 6.88105821609497070312e-01) (10, 6.18846595287322998047e-01) (11, 3.20161551237106323242e-01) (12, 8.53282511234283447266e-01) (13, 3.08607548475265502930e-01) (14, 6.10685586929321289062e-01) (15, 6.22913360595703125000e-01) (16, 2.29786783456802368164e-02) (17, 3.26974332332611083984e-01) (18, -2.10756093263626098633e-01) (19, 3.21869283914566040039e-01) (20, -4.69724684953689575195e-01) (21, -7.79741644859313964844e-01) (22, 3.28198820352554321289e-01) (23, 1.13815772533416748047e+00) (24, -1.27217117697000503540e-02) (25, 1.13404643535614013672e+00) (26, 4.21289920806884765625e-01) (27, 6.02169632911682128906e-01) (28, 5.97054660320281982422e-01) (29, 1.07071387767791748047e+00) (30, 4.04977845028042793274e-03) (31, 1.53519475460052490234e+00) (32, 7.76389062404632568359e-01) (33, 5.46073973178863525391e-01) (34, 1.17004156112670898438e+00) (35, 2.96421080827713012695e-01) (36, -3.35818767547607421875e-01) (37, -2.90106594562530517578e-01) (38, 3.75538140535354614258e-01) (8, -1.39721497893333435059e-01) (9, -1.56045806407928466797e+00) (10, 3.28297853469848632812e-01) (11, -2.80880540609359741211e-01) (12, -2.10924148559570312500e-01) (13, 2.50300312042236328125e+00) (14, -1.15301895141601562500e+00) (15, -1.76589429378509521484e+00) (16, 1.26718807220458984375e+00) (17, 1.46123480796813964844e+00) (18, 5.88724493980407714844e-01) (19, 7.76916742324829101562e-01) (20, 1.33299243450164794922e+00) (21, -5.73540329933166503906e-01) (22, 5.03742933273315429688e-01) (23, 9.52542424201965332031e-01) (24, 7.36916244029998779297e-01) (25, -1.98188126087188720703e+00) (26, -1.13457448780536651611e-01) (27, 7.95637890696525573730e-02) (28, 7.99250125885009765625e-01) (29, -2.21142515540122985840e-01) (30, -1.04071760177612304688e+00) (31, 1.40265655517578125000e+00) (32, -3.41781787574291229248e-02) (33, 7.55038857460021972656e-01) (34, 6.68141901493072509766e-01) (35, -8.62905561923980712891e-01) (36, -1.05837449431419372559e-01) (37, 3.43446403741836547852e-01) (38, 5.92146992683410644531e-01) (8, 1.12189006805419921875e+00) (9, 6.87535345554351806641e-01) (10, -2.44410216808319091797e-01) (11, 6.71167552471160888672e-01) (12, 1.74117898941040039062e+00) (13, 3.07272583246231079102e-01) (14, -8.22808742523193359375e-01) (15, 5.37490069866180419922e-01) (16, 1.07483732700347900391e+00) (17, -4.17236417531967163086e-01) (18, 3.40771108865737915039e-01) (19, 5.07744967937469482422e-01) (20, 3.44140172004699707031e-01) (21, 1.76385080814361572266e+00) (22, -2.56195592880249023438e+00) (23, 6.38667419552803039551e-02) (24, -4.95990902185440063477e-01) (25, 1.83846676349639892578e+00) (26, 1.14308726787567138672e+00) (27, 1.13989233970642089844e+00) (28, -4.08575326204299926758e-01) (29, 4.77347791194915771484e-01) (30, -2.21775043755769729614e-02) (31, 1.39731609821319580078e+00) (32, 5.38695037364959716797e-01) (33, -1.54038190841674804688e-01) (34, 7.88108348846435546875e-01) (35, 3.49650949239730834961e-01) (36, 4.51710402965545654297e-01) (37, 6.89977169036865234375e-01) (38, 2.98408985137939453125e+00) (8, 6.57041743397712707520e-02) (9, 8.16398203372955322266e-01) (10, -1.14965124521404504776e-03) (11, 1.29981219768524169922e+00) (12, 7.90598213672637939453e-01) (13, -1.26257583498954772949e-01) (14, 9.75252389907836914062e-01) (15, 4.95322257280349731445e-01) (16, 8.92238140106201171875e-01) (17, -4.84656274318695068359e-01) (18, 1.56369161605834960938e+00) (19, -4.23624485731124877930e-01) (20, 2.50063329935073852539e-01) (21, 4.96324449777603149414e-01) (22, -1.05423176288604736328e+00) (23, 1.57764088362455368042e-02) (24, -1.06793904304504394531e+00) (25, 7.56802737712860107422e-01) (26, 6.73932850360870361328e-01) (27, 1.04130089282989501953e-01) (28, -2.11564198136329650879e-01) (29, -2.18179941177368164062e-01) (30, 3.58046591281890869141e-01) (31, 4.42225009202957153320e-01) (32, 6.73660218715667724609e-01) (33, 6.13496184349060058594e-01) (34, -1.97064504027366638184e-01) (35, 4.42079544067382812500e-01) (36, 5.81880927085876464844e-01) (37, -4.50685501098632812500e-01) (38, 1.61210966110229492188e+00) (8, 2.68271148204803466797e-01) (9, 9.84072685241699218750e-01) (10, 6.24571979045867919922e-01) (11, -5.36039888858795166016e-01) (12, -3.21776241064071655273e-01) (13, 1.49605298042297363281e+00) (14, -9.53582897782325744629e-02) (15, 6.38513445854187011719e-01) (16, 1.79004985839128494263e-02) (17, -2.63895630836486816406e-01) (18, -1.71055984497070312500e+00) (19, 2.20019906759262084961e-01) (20, 7.42850244045257568359e-01) (21, 1.47588402032852172852e-01) (22, -2.21677377820014953613e-01) (23, 5.24057626724243164062e-01) (24, 9.98215675354003906250e-01) (25, -5.19458353519439697266e-01) (26, -1.45237672328948974609e+00) (27, 5.22417545318603515625e-01) (28, -2.27131307125091552734e-01) (29, 7.07779765129089355469e-01) (30, -1.39461576938629150391e+00) (31, 8.00106525421142578125e-01) (32, 1.18232822418212890625e+00) (33, 1.76998555660247802734e+00) (34, 6.59753620624542236328e-01) (35, 1.52965247631072998047e-01) (36, 1.09131179749965667725e-01) (37, -2.36124098300933837891e-01) (38, 3.05196225643157958984e-01) (8, 4.85267817974090576172e-01) (9, -4.65697228908538818359e-01) (10, 4.77962255477905273438e-01) (11, 5.21602988243103027344e-01) (12, 8.10345411300659179688e-01) (13, 1.81621980667114257812e+00) (14, 5.70123612880706787109e-01) (15, 2.60542660951614379883e-01) (16, -9.36586022377014160156e-01) (17, 5.02131044864654541016e-01) (18, -1.00382792949676513672e+00) (19, 7.33440876007080078125e-01) (20, 8.75555515289306640625e-01) (21, 2.46601969003677368164e-01) (22, 1.35740995407104492188e+00) (23, 7.66805946826934814453e-01) (24, -1.83632636070251464844e+00) (25, -5.26539683341979980469e-01) (26, 8.10265660285949707031e-01) (27, 5.64395606517791748047e-01) (28, 1.07517063617706298828e+00) (29, 7.06198990345001220703e-01) (30, 1.04945767670869827271e-02) (31, 1.69830358028411865234e+00) (32, 1.38667225837707519531e-01) (33, -3.78551287576556205750e-03) (34, 8.61369490623474121094e-01) (35, 5.78897356986999511719e-01) (36, -1.12945117056369781494e-01) (37, 4.17326152324676513672e-01) (38, -2.37592101097106933594e-01) (8, -3.23252156376838684082e-02) (9, -1.00462067127227783203e+00) (10, 5.62628209590911865234e-01) (11, 8.20801377296447753906e-01) (12, 3.24296653270721435547e-01) (13, 2.48903557658195495605e-01) (14, 1.35827350616455078125e+00) (15, -2.26139694452285766602e-01) (16, 1.49372890591621398926e-01) (17, -8.32802429795265197754e-02) (18, 7.35975444316864013672e-01) (19, 3.54344278573989868164e-01) (20, 8.12833085656166076660e-02) (21, 8.45353364944458007812e-01) (22, 1.53498196601867675781e+00) (23, 1.17878937721252441406e+00) (24, -6.22748017311096191406e-01) (25, 3.92353892326354980469e-01) (26, 9.73083078861236572266e-02) (27, -6.62677645683288574219e-01) (28, 7.00174689292907714844e-01) (29, -5.40164336562156677246e-02) (30, 1.51683375239372253418e-01) (31, 1.09143590927124023438e+00) (32, 1.24737834930419921875e+00) (33, 8.60264450311660766602e-02) (34, 6.76114782691001892090e-02) (35, 1.84329748153686523438e-01) (36, 1.78216230869293212891e+00) (37, -6.48095011711120605469e-01) (38, 7.06623196601867675781e-01) (8, -5.84786415100097656250e-01) (9, 2.05481916666030883789e-01) (10, -1.48008561134338378906e+00) (11, 1.01606130599975585938e+00) (12, 9.24778059124946594238e-02) (13, -8.20979401469230651855e-02) (14, 1.70262682437896728516e+00) (15, 9.42272186279296875000e-01) (16, 5.24436712265014648438e-01) (17, -8.61552715301513671875e-01) (18, 5.71517169475555419922e-01) (19, -9.51415970921516418457e-02) (20, 2.82469272613525390625e-01) (21, 1.02919697761535644531e+00) (22, -5.82278192043304443359e-01) (23, 1.33946073055267333984e+00) (24, -6.56035244464874267578e-01) (25, 4.54318672418594360352e-02) (26, 4.43741977214813232422e-01) (27, 1.06981396675109863281e+00) (28, 1.12494003772735595703e+00) (29, 2.15569138526916503906e+00) (30, -3.81779223680496215820e-01) (31, 1.04971373081207275391e+00) (32, 2.36598122864961624146e-02) (33, 4.17041778564453125000e-01) (34, -4.87683206796646118164e-01) (35, 5.03239572048187255859e-01) (36, 5.17590641975402832031e-01) (37, -8.03580462932586669922e-01) (38, -3.85188937187194824219e-01) (8, 4.16502475738525390625e-01) (9, 6.14040088653564453125e+00) (10, 1.43338012695312500000e+00) (11, -2.42980408668518066406e+00) (12, -1.72639095783233642578e+00) (13, 2.47479811310768127441e-01) (14, -2.19203543663024902344e+00) (15, 1.02591603994369506836e-01) (16, -1.87628519535064697266e+00) (17, 3.15207743644714355469e+00) (18, 2.44159251451492309570e-01) (19, 1.90850698947906494141e+00) (20, -8.80537569522857666016e-01) (21, -8.37546646595001220703e-01) (22, 1.13573145866394042969e+00) (23, 4.06172752380371093750e-01) (24, 1.15284848213195800781e+00) (25, -2.97970712184906005859e-01) (26, -3.16383647918701171875e+00) (27, -7.73750782012939453125e-01) (28, -6.73381149768829345703e-01) (29, -1.09619438648223876953e+00) (30, 1.30072999000549316406e+00) (31, 2.25160574913024902344e+00) (32, -8.28924179077148437500e-01) (33, 1.55166769027709960938e+00) (34, 1.39612093567848205566e-01) (35, -2.62683987617492675781e-01) (36, -1.05205583572387695312e+00) (37, 2.25536569952964782715e-01) (38, 7.29406297206878662109e-01) (8, 4.41552847623825073242e-01) (9, 1.54640483856201171875e+00) (10, -6.89518153667449951172e-01) (11, -8.90809670090675354004e-02) (12, -6.24061942100524902344e-01) (13, -1.95604610443115234375e+00) (14, 9.75125789642333984375e-01) (15, 1.22597895562648773193e-01) (16, 9.21050429344177246094e-01) (17, -5.07155954837799072266e-01) (18, -5.83417415618896484375e-01) (19, 2.87143528461456298828e-01) (20, -1.01944291591644287109e+00) (21, 1.78260791301727294922e+00) (22, 9.23634544014930725098e-02) (23, 1.52182713150978088379e-01) (24, 5.29720723628997802734e-01) (25, 1.35659247636795043945e-01) (26, -1.06622695922851562500e+00) (27, 9.46742445230484008789e-02) (28, 6.70927822589874267578e-01) (29, 7.99967885017395019531e-01) (30, 4.04531151056289672852e-01) (31, 8.10526907444000244141e-01) (32, -5.75771987438201904297e-01) (33, 2.85865545272827148438e-01) (34, -2.13586628437042236328e-01) (35, -4.25727397203445434570e-01) (36, 1.05614021420478820801e-01) (37, -1.74029216170310974121e-01) (38, 6.46022021770477294922e-01) (8, 9.81937825679779052734e-01) (9, -6.13828957080841064453e-01) (10, 5.40143907070159912109e-01) (11, -4.48188632726669311523e-01) (12, 3.47717583179473876953e-01) (13, 7.18757957220077514648e-02) (14, -5.80422729253768920898e-02) (15, -3.38786423206329345703e-01) (16, 1.54400050640106201172e-01) (17, 2.19496741890907287598e-01) (18, 2.01614081859588623047e-01) (19, -7.92872905731201171875e-02) (20, 2.81660109758377075195e-01) (21, 1.29502281546592712402e-01) (22, 7.07504868507385253906e-01) (23, 1.03690373897552490234e+00) (24, 1.27154946327209472656e+00) (25, -5.63783705234527587891e-01) (26, -3.35270076990127563477e-01) (27, 9.75435897707939147949e-02) (28, -5.03829658031463623047e-01) (29, -5.36490023136138916016e-01) (30, -6.78981006145477294922e-01) (31, 1.92539244890213012695e-01) (32, 1.33019018173217773438e+00) (33, 8.24958801269531250000e-01) (34, 6.27253055572509765625e-01) (35, -8.86341258883476257324e-02) (36, -4.95351180434226989746e-02) (37, -2.10054337978363037109e-01) (38, -1.98926776647567749023e-01) (8, -4.87066864967346191406e-01) (9, -3.65574359893798828125e-01) (10, -6.79325044155120849609e-01) (11, 1.66110396385192871094e+00) (12, -1.27321332693099975586e-01) (13, -7.86966621875762939453e-01) (14, 3.62129628658294677734e-01) (15, 1.26603734493255615234e+00) (16, -6.88722670078277587891e-01) (17, -2.29194462299346923828e-01) (18, 2.62784183025360107422e-01) (19, 8.29310268163681030273e-02) (20, 4.22440797090530395508e-01) (21, 1.31149208545684814453e+00) (22, 4.48127746582031250000e-01) (23, 6.19916915893554687500e-01) (24, 1.06979735195636749268e-01) (25, -1.90358027815818786621e-01) (26, -3.03159087896347045898e-01) (27, 8.42310208827257156372e-03) (28, 4.47696000337600708008e-02) (29, -3.63312959671020507812e-01) (30, -2.91006356477737426758e-01) (31, 8.74704062938690185547e-01) (32, 5.36911070346832275391e-01) (33, -2.87424921989440917969e-01) (34, 3.65819424390792846680e-01) (35, 1.07359814643859863281e+00) (36, 1.36590993404388427734e+00) (37, -4.25741165876388549805e-01) (38, 1.21237683296203613281e+00) (8, 1.01114094257354736328e+00) (9, -3.70906352996826171875e-01) (10, 3.70107173919677734375e-01) (11, 5.12316823005676269531e-02) (12, 8.34467828273773193359e-01) (13, 1.23968243598937988281e+00) (14, -6.32424652576446533203e-01) (15, -2.64553934335708618164e-01) (16, -2.09129944443702697754e-01) (17, -4.21062931418418884277e-02) (18, -8.53896558284759521484e-01) (19, -2.47995287179946899414e-01) (20, 4.37146425247192382812e-01) (21, -7.89434909820556640625e-01) (22, -3.04020464420318603516e-01) (23, -3.58942747116088867188e-01) (24, -4.87975746393203735352e-01) (25, 8.92061829566955566406e-01) (26, 1.12474286556243896484e+00) (27, -3.02418857812881469727e-01) (28, 4.52089905738830566406e-01) (29, 1.20104885101318359375e+00) (30, -4.14220690727233886719e-01) (31, 8.80288183689117431641e-01) (32, 1.46176561713218688965e-01) (33, -4.27475929260253906250e-01) (34, -2.37060546875000000000e-01) (35, 8.79804909229278564453e-01) (36, 7.07176744937896728516e-01) (37, 5.36253213882446289062e-01) (38, -2.30032801628112792969e-01) (8, -4.30034786462783813477e-01) (9, 2.03820037841796875000e+00) (10, 1.55839443206787109375e+00) (11, -9.14887487888336181641e-01) (12, -9.84017923474311828613e-02) (13, 7.01903462409973144531e-01) (14, -1.46321147680282592773e-01) (15, 1.81393480300903320312e+00) (16, -1.61191791296005249023e-01) (17, -5.27546346187591552734e-01) (18, -1.07639598846435546875e+00) (19, 1.48182284832000732422e+00) (20, -1.03089761734008789062e+00) (21, -5.57721674442291259766e-01) (22, -2.21365165710449218750e+00) (23, -1.72313690185546875000e+00) (24, 4.54176396131515502930e-01) (25, 6.88616573810577392578e-01) (26, -7.93263018131256103516e-02) (27, -3.72790515422821044922e-01) (28, -7.81491637229919433594e-01) (29, 3.52510005235671997070e-01) (30, 1.43552160263061523438e+00) (31, 4.82484191656112670898e-01) (32, -9.99697148799896240234e-01) (33, 1.68369972705841064453e+00) (34, 3.73030230402946472168e-02) (35, 9.51688271015882492065e-03) (36, -6.78749620914459228516e-01) (37, -1.87061607837677001953e-01) (38, 9.13840115070343017578e-01) (8, -1.63045600056648254395e-01) (9, 7.94608652591705322266e-01) (10, 1.02771866321563720703e+00) (11, -6.21204614639282226562e-01) (12, 9.59415972232818603516e-01) (13, 2.64476925134658813477e-01) (14, 9.55332741141319274902e-02) (15, 1.56139850616455078125e+00) (16, 3.56607884168624877930e-01) (17, -4.72833305597305297852e-01) (18, 7.73846745491027832031e-01) (19, -5.39292216300964355469e-01) (20, -2.77979075908660888672e-01) (21, -4.03765887022018432617e-01) (22, -1.49379873275756835938e+00) (23, 4.97769027948379516602e-01) (24, 3.68220031261444091797e-01) (25, -2.12577935308218002319e-02) (26, -4.07762736082077026367e-01) (27, -4.21188801527023315430e-01) (28, 2.09475234150886535645e-01) (29, 2.86705851554870605469e-01) (30, 1.37772428989410400391e+00) (31, 3.34535568952560424805e-01) (32, 5.38894772529602050781e-01) (33, 1.41646790504455566406e+00) (34, -5.87437570095062255859e-01) (35, 6.00591957569122314453e-01) (36, 3.69308382272720336914e-01) (37, -1.96433037519454956055e-01) (38, 1.48986443877220153809e-01) (39, 6.62625491619110107422e-01) (40, 4.36524271965026855469e-01) (41, -4.98297885060310363770e-02) (42, 2.14989304542541503906e-01) (43, 8.95043313503265380859e-01) (44, 3.61078262329101562500e-01) (45, 1.99447762966156005859e+00) (46, 1.19077455997467041016e+00) (47, 6.93217182159423828125e+00) (48, 2.05942362546920776367e-01) (49, -1.78959384560585021973e-01) (50, 3.65559887886047363281e+00) (51, -2.12921172380447387695e-01) (52, 7.63850450515747070312e-01) (53, -1.17885148525238037109e+00) (54, 7.38668859004974365234e-01) (55, -1.02747237682342529297e+00) (56, 8.61291587352752685547e-02) (57, 1.25202667713165283203e+00) (58, -8.52775514125823974609e-01) (59, 6.22195839881896972656e-01) (60, 1.39818572998046875000e+00) (61, 1.79159021377563476562e+00) (62, -3.24379682540893554688e+00) (63, 4.59657579660415649414e-01) (64, 1.56924232840538024902e-01) (65, 1.07903802394866943359e+00) (66, -4.93483841419219970703e-01) (67, -2.82763814926147460938e+00) (68, -1.22646033763885498047e+00) (69, 5.64569532871246337891e-01) (39, -1.82709276676177978516e-01) (40, 1.58035218715667724609e-01) (41, 2.32228040695190429688e+00) (42, 9.02805268764495849609e-01) (43, 6.96967661380767822266e-01) (44, -9.73847270011901855469e-01) (45, 1.72393238544464111328e+00) (46, 6.66868388652801513672e-01) (47, 7.81101703643798828125e-01) (48, -2.91993260383605957031e-01) (49, -5.92115163803100585938e-01) (50, 2.04030677676200866699e-01) (51, 1.26058626174926757812e+00) (52, -3.10473293066024780273e-01) (53, 3.60429227352142333984e-01) (54, -3.35563868284225463867e-01) (55, -1.83348274230957031250e+00) (56, -9.11033451557159423828e-01) (57, 1.71977534890174865723e-01) (58, 1.60113489627838134766e+00) (59, 8.88190031051635742188e-01) (60, -2.11245745420455932617e-01) (61, -5.56461632251739501953e-01) (62, 5.07776200771331787109e-01) (63, -4.09805446863174438477e-01) (64, -5.68260133266448974609e-01) (65, 7.36390709877014160156e-01) (66, 1.11916589736938476562e+00) (67, 1.08959329128265380859e+00) (68, 1.69786706566810607910e-01) (69, -1.23726613819599151611e-01) (39, -2.54092842340469360352e-01) (40, -3.71464163064956665039e-01) (41, 2.11584615707397460938e+00) (42, -1.97510376572608947754e-01) (43, 1.02985298633575439453e+00) (44, 2.96777427196502685547e-01) (45, 7.33861148357391357422e-01) (46, 2.42689430713653564453e-01) (47, 8.28640758991241455078e-01) (48, 5.09875416755676269531e-01) (49, 1.33552297949790954590e-01) (50, 2.82935928553342819214e-02) (51, 4.88395392894744873047e-01) (52, 7.76177406311035156250e-01) (53, -1.20752356946468353271e-01) (54, 2.70153313875198364258e-01) (55, 1.92725598812103271484e-01) (56, 1.62635520100593566895e-01) (57, -4.84742701053619384766e-01) (58, 1.52744340896606445312e+00) (59, 2.84508526325225830078e-01) (60, -1.26645267009735107422e-01) (61, 4.94766503572463989258e-01) (62, -2.43992671370506286621e-01) (63, -8.51067453622817993164e-02) (64, -6.95916295051574707031e-01) (65, 2.73845523595809936523e-01) (66, 7.80184566974639892578e-02) (67, 6.21787846088409423828e-01) (68, -5.07109284400939941406e-01) (69, -6.60428032279014587402e-02) (39, -1.66670516133308410645e-01) (40, -7.81350135803222656250e-02) (41, 4.33986842632293701172e-01) (42, 3.37982952594757080078e-01) (43, 6.26571774482727050781e-01) (44, 1.04502904415130615234e+00) (45, 6.68614804744720458984e-01) (46, 1.13310444355010986328e+00) (47, 5.55469691753387451172e-02) (48, -9.59594905376434326172e-01) (49, 2.27972745895385742188e+00) (50, 2.02704429626464843750e+00) (51, 4.94701653718948364258e-01) (52, 8.50101709365844726562e-01) (53, -1.22115522623062133789e-01) (54, 3.85729521512985229492e-01) (55, 1.42069369554519653320e-01) (56, 1.08883500099182128906e+00) (57, 1.36197316646575927734e+00) (58, -4.14683580398559570312e-01) (59, 2.56070882081985473633e-01) (60, -4.19345736503601074219e-01) (61, 1.02063524723052978516e+00) (62, -3.09076786041259765625e+00) (63, 1.13896882534027099609e+00) (64, -1.98675230145454406738e-01) (65, 7.91945159435272216797e-01) (66, 9.76999938488006591797e-01) (67, -7.21092998981475830078e-01) (68, -1.18748769164085388184e-01) (69, 1.21596860885620117188e+00) (39, 2.21099317073822021484e-01) (40, 7.39323019981384277344e-01) (41, 2.49903023242950439453e-01) (42, 8.37849915027618408203e-01) (43, 4.31932598352432250977e-01) (44, -1.34213045239448547363e-01) (45, 1.10818791389465332031e+00) (46, 4.06666278839111328125e-01) (47, 6.05492413043975830078e-01) (48, 3.64025712013244628906e-01) (49, -4.18512165546417236328e-01) (50, 2.14206010103225708008e-01) (51, 1.20110237598419189453e+00) (52, -8.09916630387306213379e-02) (53, 3.41855466365814208984e-01) (54, 3.29364418983459472656e-01) (55, 1.83632612228393554688e-01) (56, 3.02104093134403228760e-02) (57, 4.10608053207397460938e-01) (58, 5.96313238143920898438e-01) (59, 3.58069613575935363770e-02) (60, 1.79184257984161376953e-01) (61, -6.15002661943435668945e-02) (62, -5.97556829452514648438e-01) (63, -1.58155277371406555176e-01) (64, 1.98110365867614746094e+00) (65, -7.95906484127044677734e-02) (66, 2.98358964920043945312e+00) (67, 7.37801551818847656250e-01) (68, -6.61182463169097900391e-01) (69, -4.62458655238151550293e-02) (39, -4.30236101150512695312e-01) (40, 9.56667736172676086426e-02) (41, 5.70837557315826416016e-01) (42, -5.95312044024467468262e-02) (43, 7.24752306938171386719e-01) (44, 1.35904526710510253906e+00) (45, 2.85679429769515991211e-01) (46, 5.82600850611925125122e-03) (47, 4.81400415301322937012e-02) (48, -1.04300963878631591797e+00) (49, -6.10347807407379150391e-01) (50, -3.14739346504211425781e-02) (51, -1.58335212618112564087e-02) (52, 8.85263681411743164062e-01) (53, -1.48478671908378601074e-01) (54, 6.33397698402404785156e-01) (55, 9.19248938560485839844e-01) (56, 5.20765148103237152100e-02) (57, -4.75895673036575317383e-01) (58, 7.51963973045349121094e-01) (59, -9.87217016518115997314e-03) (60, 2.94939756393432617188e-01) (61, 5.67738831043243408203e-01) (62, 1.48684725165367126465e-01) (63, 4.27441000938415527344e-02) (64, 5.50673007965087890625e-01) (65, 7.54926502704620361328e-02) (66, 4.75326091051101684570e-01) (67, 1.89807519316673278809e-01) (68, -3.49900275468826293945e-01) (69, 7.92100429534912109375e-01) (39, -6.79042637348175048828e-01) (40, 4.80872213840484619141e-01) (41, 9.58363786339759826660e-02) (42, 1.76311820745468139648e-01) (43, 7.64266312122344970703e-01) (44, 5.41646301746368408203e-01) (45, 4.24162000417709350586e-01) (46, 8.99564027786254882812e-01) (47, -1.38510751724243164062e+00) (48, -4.81283068656921386719e-01) (49, 2.81153774261474609375e+00) (50, 3.83703660964965820312e+00) (51, 1.00649702548980712891e+00) (52, 1.32718968391418457031e+00) (53, 2.41336047649383544922e-01) (54, 1.94248855113983154297e-01) (55, 3.82771462202072143555e-01) (56, 1.79309320449829101562e+00) (57, 1.29421019554138183594e+00) (58, -3.93563330173492431641e-01) (59, 1.09509479999542236328e+00) (60, -2.30464890599250793457e-01) (61, 6.54808521270751953125e-01) (62, -1.90030112862586975098e-01) (63, 1.37798726558685302734e+00) (64, -1.21677964925765991211e-02) (65, 6.64443850517272949219e-01) (66, 1.05517816543579101562e+00) (67, -4.63310629129409790039e-01) (68, -7.26265370845794677734e-01) (69, 1.30243849754333496094e+00) (39, 1.12219548225402832031e+00) (40, -4.42290395498275756836e-01) (41, 6.03724062442779541016e-01) (42, 1.02993142604827880859e+00) (43, 2.78393298387527465820e-01) (44, -3.61545294523239135742e-01) (45, 1.26009702682495117188e+00) (46, 8.32226634025573730469e-01) (47, 1.26166844367980957031e+00) (48, 1.16925217211246490479e-01) (49, 7.83155560493469238281e-01) (50, -5.52402079105377197266e-01) (51, 6.23330831527709960938e-01) (52, 8.53603985160589218140e-03) (53, -2.03248515725135803223e-01) (54, 5.86220860481262207031e-01) (55, 2.50119805335998535156e-01) (56, 4.98691439628601074219e-01) (57, 7.35822379589080810547e-01) (58, -6.71168416738510131836e-02) (59, 1.60769951343536376953e+00) (60, 2.04958826303482055664e-01) (61, 2.67098486423492431641e-01) (62, 9.81786400079727172852e-02) (63, -2.35774445533752441406e+00) (64, 4.91765230894088745117e-01) (65, 1.26810282468795776367e-01) (66, 3.28814506530761718750e-01) (67, 3.91921758651733398438e-01) (68, -1.25911247730255126953e+00) (69, 1.41988366842269897461e-01) (39, -7.97023773193359375000e-01) (40, -1.17519728839397430420e-01) (41, 1.26191210746765136719e+00) (42, -5.60636864975094795227e-03) (43, 2.42497131228446960449e-01) (44, 7.51592874526977539062e-01) (45, 1.02523505687713623047e+00) (46, 3.14550310373306274414e-01) (47, 5.83164393901824951172e-01) (48, 4.74520236253738403320e-01) (49, 1.53140798211097717285e-01) (50, 5.30230700969696044922e-02) (51, 5.39227068424224853516e-01) (52, 1.46592867374420166016e+00) (53, -2.06290513277053833008e-01) (54, 1.72651514410972595215e-01) (55, 6.42580211162567138672e-01) (56, 1.63127839565277099609e-01) (57, -6.54851078987121582031e-01) (58, 8.72560977935791015625e-01) (59, 3.88743996620178222656e-01) (60, 2.01189622282981872559e-01) (61, 2.50331759452819824219e-01) (62, 2.78102569282054901123e-02) (63, -3.11092674732208251953e-01) (64, 7.21128731966018676758e-02) (65, -2.98857212066650390625e-01) (66, -1.22430384159088134766e-01) (67, 6.29891216754913330078e-01) (68, -6.87777519226074218750e-01) (69, 5.48952460289001464844e-01) (39, -7.08917558193206787109e-01) (40, 6.29871845245361328125e-01) (41, 1.58664118498563766479e-02) (42, 1.97272509336471557617e-01) (43, 8.99307608604431152344e-01) (44, 4.62234646081924438477e-01) (45, 3.78905594348907470703e-01) (46, 8.25818419456481933594e-01) (47, -1.54220926761627197266e+00) (48, -4.07503724098205566406e-01) (49, 2.80401897430419921875e+00) (50, 3.81564855575561523438e+00) (51, 1.07732772827148437500e+00) (52, 1.36204552650451660156e+00) (53, 2.16184914112091064453e-01) (54, 1.53216570615768432617e-01) (55, 3.37110996246337890625e-01) (56, 2.13208985328674316406e+00) (57, 9.41955566406250000000e-01) (58, -4.20768439769744873047e-01) (59, 1.08314716815948486328e+00) (60, -1.76775455474853515625e-01) (61, 8.50933551788330078125e-01) (62, -1.48130522575229406357e-03) (63, 1.30797708034515380859e+00) (64, -3.22863576002418994904e-03) (65, 6.70074522495269775391e-01) (66, 9.74742233753204345703e-01) (67, -4.95586574077606201172e-01) (68, -7.73819327354431152344e-01) (69, 1.30173087120056152344e+00) (39, -1.17843341827392578125e+00) (40, 7.05887734889984130859e-01) (41, 1.46601304411888122559e-01) (42, 9.12152647972106933594e-01) (43, -1.04085072875022888184e-01) (44, 6.04581952095031738281e-01) (45, 9.97744500637054443359e-01) (46, 6.57780647277832031250e-01) (47, 3.51805418729782104492e-01) (48, -3.38643461465835571289e-01) (49, -2.38679926842451095581e-02) (50, 1.16611585021018981934e-01) (51, 4.91461575031280517578e-01) (52, 1.28622961044311523438e+00) (53, 5.85370138287544250488e-02) (54, 4.42706972360610961914e-01) (55, 5.74775636196136474609e-01) (56, -3.38898628950119018555e-01) (57, 3.62862825393676757812e-01) (58, 4.04828399419784545898e-01) (59, 4.74607408046722412109e-01) (60, 4.00771498680114746094e-01) (61, -1.36769041419029235840e-01) (62, 2.60726455599069595337e-02) (63, -1.82125389575958251953e+00) (64, 5.37902534008026123047e-01) (65, -6.10801484435796737671e-03) (66, 9.55623328685760498047e-01) (67, 3.52010548114776611328e-01) (68, 2.45385512709617614746e-01) (69, 9.73739743232727050781e-01) (39, -9.14736032485961914062e-01) (40, 5.43359398841857910156e-01) (41, 4.22756761312484741211e-01) (42, -6.97548687458038330078e-02) (43, 1.20007440447807312012e-01) (44, 1.27006328105926513672e+00) (45, 2.79261708259582519531e-01) (46, 3.07106703519821166992e-01) (47, 2.33453996479511260986e-02) (48, -8.83576691150665283203e-01) (49, -2.20591798424720764160e-01) (50, -8.19388478994369506836e-02) (51, 3.71008694171905517578e-01) (52, 1.21489965915679931641e+00) (53, -6.44817426800727844238e-02) (54, 2.95372098684310913086e-01) (55, 6.75327718257904052734e-01) (56, 4.73495244979858398438e-01) (57, -8.05337905883789062500e-01) (58, 6.00012540817260742188e-01) (59, -6.53770342469215393066e-02) (60, 3.54759603738784790039e-01) (61, 4.23622548580169677734e-01) (62, 1.07679910957813262939e-01) (63, -3.05916815996170043945e-01) (64, 5.96642673015594482422e-01) (65, -6.12128227949142456055e-02) (66, 2.58145332336425781250e-01) (67, 7.36969709396362304688e-02) (68, -4.05898034572601318359e-01) (69, 8.45606625080108642578e-01)
input_names='mi2/mD' 'ni1/ne' 'nuee' 'q' 'rmin' 'ti1/te' 'zi2'
output_names='OUT_NEO_CnC' 'OUT_NEO_CnD' 'OUT_NEO_Cne' 'OUT_NEO_CtC' 'OUT_NEO_CtD' 'OUT_NEO_Cte' 'OUT_SAU_CnC' 'OUT_SAU_CnD' 'OUT_SAU_Cne' 'OUT_SAU_CtC' 'OUT_SAU_CtD' 'OUT_SAU_Cte'
norm_output=0.0 0.0 0.0 0.0 0.0 0.0 0.0 0.0 0.0 0.0 0.0 0.0 0.0 0.0 0.0 0.0 0.0 0.0 0.0 0.0 0.0 0.0 0.0 0.0 0.0 0.0 0.0 0.0 0.0 0.0 0.0 0.0 0.0 0.0 0.0 0.0 0.0 0.0 0.0 0.0 0.0 0.0 0.0 0.0 0.0 0.0 0.0 0.0 0.0 0.0 0.0 0.0 0.0 0.0 0.0 0.0 0.0 0.0 0.0 0.0 0.0 0.0 0.0 0.0 0.0 0.0 0.0 0.0 0.0 0.0 0.0 0.0 0.0 0.0 0.0 0.0 0.0 0.0 0.0 0.0 0.0 0.0 0.0 0.0
MSE= 0.0068324804306