FANN_FLO_2.1
num_layers=3
learning_rate=0.700000
connection_rate=1.000000
network_type=0
learning_momentum=0.000000
training_algorithm=2
train_error_function=0
train_stop_function=0
cascade_output_change_fraction=0.010000
quickprop_decay=0.000000
quickprop_mu=1.750000
rprop_increase_factor=1.200000
rprop_decrease_factor=0.500000
rprop_delta_min=0.000000
rprop_delta_max=50.000000
rprop_delta_zero=0.100000
cascade_output_stagnation_epochs=12
cascade_candidate_change_fraction=0.010000
cascade_candidate_stagnation_epochs=12
cascade_max_out_epochs=150
cascade_min_out_epochs=50
cascade_max_cand_epochs=150
cascade_min_cand_epochs=50
cascade_num_candidate_groups=2
bit_fail_limit=3.49999994039535522461e-01
cascade_candidate_limit=1.00000000000000000000e+03
cascade_weight_multiplier=4.00000005960464477539e-01
cascade_activation_functions_count=10
cascade_activation_functions=3 5 7 8 10 11 14 15 16 17
cascade_activation_steepnesses_count=4
cascade_activation_steepnesses=2.50000000000000000000e-01 5.00000000000000000000e-01 7.50000000000000000000e-01 1.00000000000000000000e+00
layer_sizes=18 61 9
scale_included=1
scale_mean_in=0.755938 0.033249 0.005021 0.059572 1.368678 1.522410 6.120536 0.698182 0.856447 0.289512 1.977486 2.141561 3.058481 0.500536 0.055487 1.123772 0.044516
scale_deviation_in=0.028585 0.006394 0.001668 0.017664 0.058893 0.315565 2.728760 0.150365 0.185113 0.480672 0.338437 0.357374 0.017996 0.054679 0.046297 0.127945 0.015687
scale_new_min_in=-1.000000 -1.000000 -1.000000 -1.000000 -1.000000 -1.000000 -1.000000 -1.000000 -1.000000 -1.000000 -1.000000 -1.000000 -1.000000 -1.000000 -1.000000 -1.000000 -1.000000
scale_factor_in=1.000000 1.000000 1.000000 1.000000 1.000000 1.000000 1.000000 1.000000 1.000000 1.000000 1.000000 1.000000 1.000000 1.000000 1.000000 1.000000 1.000000
scale_mean_out=1.776823 4.071677 0.284220 -0.006501 0.259692 0.717346 0.038363 0.323024
scale_deviation_out=1.323332 3.432462 0.224503 0.020868 0.276596 0.381505 0.016352 0.199198
scale_new_min_out=-1.000000 -1.000000 -1.000000 -1.000000 -1.000000 -1.000000 -1.000000 -1.000000
scale_factor_out=1.000000 1.000000 1.000000 1.000000 1.000000 1.000000 1.000000 1.000000
neurons (num_inputs, activation_function, activation_steepness)=(0, 0, 0.00000000000000000000e+00) (0, 0, 0.00000000000000000000e+00) (0, 0, 0.00000000000000000000e+00) (0, 0, 0.00000000000000000000e+00) (0, 0, 0.00000000000000000000e+00) (0, 0, 0.00000000000000000000e+00) (0, 0, 0.00000000000000000000e+00) (0, 0, 0.00000000000000000000e+00) (0, 0, 0.00000000000000000000e+00) (0, 0, 0.00000000000000000000e+00) (0, 0, 0.00000000000000000000e+00) (0, 0, 0.00000000000000000000e+00) (0, 0, 0.00000000000000000000e+00) (0, 0, 0.00000000000000000000e+00) (0, 0, 0.00000000000000000000e+00) (0, 0, 0.00000000000000000000e+00) (0, 0, 0.00000000000000000000e+00) (0, 0, 0.00000000000000000000e+00) (18, 5, 5.00000000000000000000e-01) (18, 5, 5.00000000000000000000e-01) (18, 5, 5.00000000000000000000e-01) (18, 5, 5.00000000000000000000e-01) (18, 5, 5.00000000000000000000e-01) (18, 5, 5.00000000000000000000e-01) (18, 5, 5.00000000000000000000e-01) (18, 5, 5.00000000000000000000e-01) (18, 5, 5.00000000000000000000e-01) (18, 5, 5.00000000000000000000e-01) (18, 5, 5.00000000000000000000e-01) (18, 5, 5.00000000000000000000e-01) (18, 5, 5.00000000000000000000e-01) (18, 5, 5.00000000000000000000e-01) (18, 5, 5.00000000000000000000e-01) (18, 5, 5.00000000000000000000e-01) (18, 5, 5.00000000000000000000e-01) (18, 5, 5.00000000000000000000e-01) (18, 5, 5.00000000000000000000e-01) (18, 5, 5.00000000000000000000e-01) (18, 5, 5.00000000000000000000e-01) (18, 5, 5.00000000000000000000e-01) (18, 5, 5.00000000000000000000e-01) (18, 5, 5.00000000000000000000e-01) (18, 5, 5.00000000000000000000e-01) (18, 5, 5.00000000000000000000e-01) (18, 5, 5.00000000000000000000e-01) (18, 5, 5.00000000000000000000e-01) (18, 5, 5.00000000000000000000e-01) (18, 5, 5.00000000000000000000e-01) (18, 5, 5.00000000000000000000e-01) (18, 5, 5.00000000000000000000e-01) (18, 5, 5.00000000000000000000e-01) (18, 5, 5.00000000000000000000e-01) (18, 5, 5.00000000000000000000e-01) (18, 5, 5.00000000000000000000e-01) (18, 5, 5.00000000000000000000e-01) (18, 5, 5.00000000000000000000e-01) (18, 5, 5.00000000000000000000e-01) (18, 5, 5.00000000000000000000e-01) (18, 5, 5.00000000000000000000e-01) (18, 5, 5.00000000000000000000e-01) (18, 5, 5.00000000000000000000e-01) (18, 5, 5.00000000000000000000e-01) (18, 5, 5.00000000000000000000e-01) (18, 5, 5.00000000000000000000e-01) (18, 5, 5.00000000000000000000e-01) (18, 5, 5.00000000000000000000e-01) (18, 5, 5.00000000000000000000e-01) (18, 5, 5.00000000000000000000e-01) (18, 5, 5.00000000000000000000e-01) (18, 5, 5.00000000000000000000e-01) (18, 5, 5.00000000000000000000e-01) (18, 5, 5.00000000000000000000e-01) (18, 5, 5.00000000000000000000e-01) (18, 5, 5.00000000000000000000e-01) (18, 5, 5.00000000000000000000e-01) (18, 5, 5.00000000000000000000e-01) (18, 5, 5.00000000000000000000e-01) (18, 5, 5.00000000000000000000e-01) (0, 5, 0.00000000000000000000e+00) (61, 0, 5.00000000000000000000e-01) (61, 0, 5.00000000000000000000e-01) (61, 0, 5.00000000000000000000e-01) (61, 0, 5.00000000000000000000e-01) (61, 0, 5.00000000000000000000e-01) (61, 0, 5.00000000000000000000e-01) (61, 0, 5.00000000000000000000e-01) (61, 0, 5.00000000000000000000e-01) (0, 0, 0.00000000000000000000e+00)
connections (connected_to_neuron, weight)=(0, 1.31697341799736022949e-01) (1, 7.93682858347892761230e-02) (2, 9.22338485717773437500e-01) (3, 1.25387156009674072266e+00) (4, 9.20012533664703369141e-01) (5, 3.05743724107742309570e-01) (6, -1.50780391693115234375e+00) (7, -4.09482747316360473633e-01) (8, 5.17165243625640869141e-01) (9, -7.74045139551162719727e-02) (10, -1.49176254868507385254e-01) (11, 1.26375281810760498047e+00) (12, 1.02819070219993591309e-01) (13, -6.43337821960449218750e+00) (14, 9.05186653137207031250e-01) (15, -4.75084446370601654053e-02) (16, 1.90354809165000915527e-02) (17, 2.52004051208496093750e+00) (0, 9.93689969182014465332e-02) (1, 9.30776819586753845215e-02) (2, 6.74871802330017089844e-01) (3, -5.25660634040832519531e-01) (4, 1.49540281295776367188e+00) (5, 3.21671925485134124756e-02) (6, -2.66088604927062988281e-01) (7, 1.63981154561042785645e-01) (8, 4.83682788908481597900e-02) (9, 2.87391901016235351562e-01) (10, 4.07079041004180908203e-01) (11, -1.32889285683631896973e-01) (12, 8.82090628147125244141e-02) (13, 4.60514277219772338867e-01) (14, -1.91501379013061523438e-02) (15, 2.05187544226646423340e-01) (16, -6.15857005119323730469e-01) (17, -2.39255860447883605957e-01) (0, 1.23967856168746948242e-01) (1, -3.45639526844024658203e-01) (2, 7.87929475307464599609e-01) (3, -9.01018679141998291016e-02) (4, 4.92742121219635009766e-01) (5, 2.76139117777347564697e-02) (6, -5.39254009723663330078e-01) (7, 7.55231022834777832031e-01) (8, -6.82853400707244873047e-01) (9, -5.31723201274871826172e-01) (10, 4.66128662228584289551e-02) (11, 4.10867094993591308594e-01) (12, -7.54430443048477172852e-02) (13, -1.37774860858917236328e+00) (14, -2.11192116141319274902e-01) (15, 6.89940620213747024536e-03) (16, -1.33492061868309974670e-02) (17, 7.91326761245727539062e-01) (0, -2.58664578199386596680e-01) (1, 4.40028697252273559570e-01) (2, 1.89137592911720275879e-01) (3, 8.75279903411865234375e-01) (4, -2.12703764438629150391e-01) (5, 3.46845656633377075195e-01) (6, 2.77307629585266113281e-01) (7, -3.44585329294204711914e-01) (8, 2.84730881452560424805e-01) (9, 4.28808927536010742188e-01) (10, -3.72650086879730224609e-01) (11, 1.30759701132774353027e-01) (12, 1.85940504074096679688e-01) (13, -3.81069362163543701172e-01) (14, -3.33851218223571777344e-01) (15, 1.30073654651641845703e+00) (16, 1.01994657516479492188e+00) (17, -2.04408621788024902344e+00) (0, 1.76203441619873046875e+00) (1, 2.17311906814575195312e+00) (2, 1.45925211906433105469e+00) (3, 3.44120591878890991211e-01) (4, 4.31325674057006835938e+00) (5, 2.58215832710266113281e+00) (6, -4.12965154647827148438e+00) (7, -3.74909937381744384766e-01) (8, 2.73865729570388793945e-01) (9, -6.45375907421112060547e-01) (10, 1.28982797265052795410e-01) (11, 1.27725160121917724609e+00) (12, -2.28020682930946350098e-01) (13, -1.69867587089538574219e+00) (14, -1.16365708410739898682e-01) (15, 4.14855450391769409180e-01) (16, -7.19079002737998962402e-02) (17, -3.45563220977783203125e+00) (0, -1.08679659664630889893e-01) (1, -4.26936149597167968750e-01) (2, -4.58988666534423828125e-01) (3, -6.95385754108428955078e-01) (4, 1.04217600822448730469e+00) (5, 4.80850398540496826172e-01) (6, -7.59954527020454406738e-02) (7, 3.45255404710769653320e-01) (8, -1.56334359198808670044e-02) (9, 8.46890266984701156616e-03) (10, -1.14317722618579864502e-01) (11, 6.61297857761383056641e-01) (12, -9.82814133167266845703e-02) (13, -4.29667204618453979492e-01) (14, 3.96951228380203247070e-01) (15, -4.55885767936706542969e-01) (16, -2.85407062619924545288e-02) (17, 8.13495397567749023438e-01) (0, -5.58942317962646484375e-01) (1, -7.06106185913085937500e-01) (2, -3.16992029547691345215e-02) (3, -1.43989160656929016113e-01) (4, -7.93037116527557373047e-01) (5, -2.18035981059074401855e-01) (6, 6.51038944721221923828e-01) (7, -1.40838772058486938477e-01) (8, 1.78420633077621459961e-01) (9, 2.19243407249450683594e-01) (10, 6.43411055207252502441e-02) (11, -2.57110685110092163086e-01) (12, -7.21573233604431152344e-02) (13, -1.08865106105804443359e+00) (14, -6.88364446163177490234e-01) (15, 2.05367937684059143066e-01) (16, 3.00954371690750122070e-01) (17, 5.98699599504470825195e-02) (0, 2.31135025620460510254e-01) (1, 1.15086805820465087891e+00) (2, 5.87952792644500732422e-01) (3, 6.49532854557037353516e-01) (4, -2.37770110368728637695e-01) (5, -5.08034288883209228516e-01) (6, 2.48338609933853149414e-01) (7, -3.56375634670257568359e-01) (8, -2.40178063511848449707e-01) (9, 5.27041733264923095703e-01) (10, -6.03830039501190185547e-01) (11, 8.73739898204803466797e-01) (12, 3.88900548219680786133e-01) (13, 1.85331642627716064453e-01) (14, 3.25056403875350952148e-01) (15, -3.84310007095336914062e-01) (16, -3.50236054509878158569e-03) (17, 3.81905972957611083984e-01) (0, 1.88553288578987121582e-01) (1, 6.46990418434143066406e-01) (2, -1.05664961040019989014e-01) (3, 4.53515956178307533264e-03) (4, -7.94871807098388671875e-01) (5, -2.77809667587280273438e+00) (6, 2.76518034934997558594e+00) (7, 1.01824380457401275635e-01) (8, -2.63649910688400268555e-01) (9, -3.26406359672546386719e-01) (10, -2.46517091989517211914e-01) (11, 4.44083720445632934570e-01) (12, 5.96153512597084045410e-02) (13, 1.55022883415222167969e+00) (14, -3.06896537542343139648e-01) (15, 1.79803282022476196289e-01) (16, -1.31657391786575317383e-01) (17, 2.15051203966140747070e-01) (0, -6.92992210388183593750e-01) (1, -4.40340429544448852539e-01) (2, -2.87769347429275512695e-01) (3, -4.20501828193664550781e-01) (4, -1.89566150307655334473e-01) (5, 4.21147346496582031250e-01) (6, 1.37014791369438171387e-01) (7, -4.86700624227523803711e-01) (8, 4.95480865240097045898e-01) (9, 3.92943739891052246094e-01) (10, 5.83262890577316284180e-02) (11, 2.59892582893371582031e-01) (12, -2.24690973758697509766e-01) (13, 5.56099057197570800781e-01) (14, -1.54985427856445312500e-01) (15, 5.97257494926452636719e-01) (16, -1.46476581692695617676e-01) (17, -9.11706864833831787109e-01) (0, 2.00844332575798034668e-01) (1, -2.69203513860702514648e-01) (2, 9.91802632808685302734e-01) (3, 1.18318235874176025391e+00) (4, 1.35308206081390380859e-01) (5, -3.68822485208511352539e-01) (6, 5.08938133716583251953e-01) (7, -5.15713930130004882812e-01) (8, 5.11895775794982910156e-01) (9, 2.52085596323013305664e-01) (10, 8.45575258135795593262e-02) (11, 4.80998337268829345703e-01) (12, -2.31730803847312927246e-01) (13, -7.45686233043670654297e-01) (14, 4.74268972873687744141e-01) (15, 9.39813032746315002441e-02) (16, -8.66960361599922180176e-02) (17, -1.94198824465274810791e-02) (0, -1.08442640304565429688e+00) (1, 2.33424365520477294922e-01) (2, 4.78466302156448364258e-01) (3, 7.56966173648834228516e-01) (4, 5.19253253936767578125e-01) (5, -6.36676847934722900391e-01) (6, 4.93426203727722167969e-01) (7, 7.98798128962516784668e-02) (8, 1.97567403316497802734e-01) (9, -5.27902096509933471680e-02) (10, 2.34454289078712463379e-01) (11, -4.58266973495483398438e-01) (12, -3.90115119516849517822e-02) (13, -1.03859162330627441406e+00) (14, 1.12545996904373168945e-01) (15, -1.37053102254867553711e-01) (16, 2.19226408004760742188e+00) (17, 2.62663936614990234375e+00) (0, 6.66640475392341613770e-02) (1, -1.73112511634826660156e-01) (2, -2.98408508300781250000e-01) (3, 3.00488471984863281250e-01) (4, 8.55374574661254882812e-01) (5, -3.98372232913970947266e-01) (6, 8.40665772557258605957e-02) (7, -3.68699729442596435547e-01) (8, 2.02393010258674621582e-01) (9, 6.12173378467559814453e-02) (10, 2.89782792329788208008e-01) (11, 2.07468882203102111816e-01) (12, -1.16602897644042968750e-01) (13, -1.01958066225051879883e-01) (14, 3.30461770296096801758e-01) (15, -2.61030912399291992188e-01) (16, 1.29444291815161705017e-02) (17, -1.33211553096771240234e+00) (0, -4.89497721195220947266e-01) (1, -1.37768757343292236328e+00) (2, 1.43979418277740478516e+00) (3, 1.14439703524112701416e-01) (4, 2.30688840150833129883e-01) (5, 4.83160823583602905273e-01) (6, 6.04972898960113525391e-01) (7, -4.52323317527770996094e-01) (8, 4.69062089920043945312e-01) (9, 3.06792944669723510742e-01) (10, 5.11042296886444091797e-01) (11, -2.63674110174179077148e-01) (12, -7.82705564051866531372e-03) (13, 4.75665554404258728027e-02) (14, 1.92554369568824768066e-01) (15, -6.67318329215049743652e-02) (16, -8.02016854286193847656e-02) (17, 3.48112404346466064453e-01) (0, 8.60708892345428466797e-01) (1, 1.59056735038757324219e+00) (2, 1.03521370887756347656e+00) (3, 1.65834382176399230957e-01) (4, 4.67969104647636413574e-02) (5, 6.82303845882415771484e-01) (6, -5.43064117431640625000e-01) (7, 5.47481060028076171875e-01) (8, -5.77323555946350097656e-01) (9, -2.49129205942153930664e-01) (10, 1.36943176388740539551e-01) (11, 1.72216922044754028320e-01) (12, -3.39418090879917144775e-02) (13, -2.64393001794815063477e-01) (14, 3.72514307498931884766e-01) (15, 1.75397142767906188965e-01) (16, 3.55968296527862548828e-01) (17, -1.24448642134666442871e-01) (0, -7.36456096172332763672e-01) (1, -2.66918361186981201172e-01) (2, 3.57777386903762817383e-01) (3, -2.56293118000030517578e-01) (4, 7.09698021411895751953e-01) (5, 3.99713933467864990234e-01) (6, -4.81786280870437622070e-01) (7, -3.42999875545501708984e-01) (8, 5.66910564899444580078e-01) (9, 3.65194320678710937500e-01) (10, -4.87874597311019897461e-02) (11, 2.21975669264793395996e-01) (12, -1.36648312211036682129e-01) (13, 4.77739632129669189453e-01) (14, 4.01896089315414428711e-01) (15, 4.72668886184692382812e-01) (16, -1.30578149110078811646e-02) (17, 1.06963860988616943359e+00) (0, 5.50859391689300537109e-01) (1, 4.23346698284149169922e-01) (2, 7.85001814365386962891e-01) (3, -6.12674295902252197266e-01) (4, 9.07801151275634765625e-01) (5, 1.64274200797080993652e-01) (6, 6.20429456233978271484e-01) (7, -9.08948242664337158203e-01) (8, 3.02075386047363281250e-01) (9, 4.50337141752243041992e-01) (10, 3.23093682527542114258e-02) (11, -1.17577940225601196289e-01) (12, 4.12872508168220520020e-02) (13, 3.03278058767318725586e-01) (14, -1.38538211584091186523e-01) (15, 8.48690450191497802734e-01) (16, -2.62390226125717163086e-01) (17, -1.59271848201751708984e+00) (0, 4.14178401231765747070e-01) (1, 2.18962118029594421387e-01) (2, -5.39463520050048828125e-01) (3, -5.65382838249206542969e-01) (4, -5.05369246006011962891e-01) (5, 8.33650946617126464844e-01) (6, 6.79303944110870361328e-01) (7, -3.61091569066047668457e-02) (8, 1.39032408595085144043e-01) (9, -6.00409135222434997559e-02) (10, 9.17181894183158874512e-02) (11, 6.12601399421691894531e-01) (12, 2.26398184895515441895e-02) (13, -3.06548237800598144531e-01) (14, -3.24387788772583007812e-01) (15, -2.33549609780311584473e-01) (16, -1.80990070104598999023e-01) (17, -1.48136627674102783203e+00) (0, 2.03136897087097167969e+00) (1, 3.37148904800415039062e+00) (2, 6.81608796119689941406e-01) (3, 4.37016822397708892822e-02) (4, 3.64894345402717590332e-02) (5, 1.03458631038665771484e+00) (6, -5.63588023185729980469e-01) (7, 4.31468486785888671875e-01) (8, -2.31334805488586425781e-01) (9, -2.19043120741844177246e-01) (10, 1.37161733582615852356e-02) (11, -1.16356179118156433105e-01) (12, 1.78256422281265258789e-01) (13, -3.75501036643981933594e-01) (14, 7.87817060947418212891e-01) (15, 1.73528358340263366699e-01) (16, 6.39559209346771240234e-01) (17, 1.79854780435562133789e-02) (0, 5.50615131855010986328e-01) (1, 5.03175497055053710938e-01) (2, 9.97065484523773193359e-01) (3, -5.45110344886779785156e-01) (4, 4.23764765262603759766e-01) (5, 7.85269498825073242188e-01) (6, -5.59990108013153076172e-02) (7, 4.55526530742645263672e-01) (8, -4.90510016679763793945e-01) (9, -1.93122267723083496094e-01) (10, 1.30853146314620971680e-01) (11, 2.49579668045043945312e-01) (12, -9.69544798135757446289e-02) (13, 5.91528475284576416016e-01) (14, 6.94046616554260253906e-01) (15, 2.34356313943862915039e-01) (16, -2.43369285017251968384e-02) (17, -5.48009164631366729736e-02) (0, -1.70909211039543151855e-01) (1, -5.25477349758148193359e-01) (2, 1.62197723984718322754e-01) (3, -1.10130067914724349976e-02) (4, 1.12162816524505615234e+00) (5, 3.77244710922241210938e-01) (6, -7.66088008880615234375e-01) (7, 8.91142547130584716797e-01) (8, -8.50064575672149658203e-01) (9, -5.13996183872222900391e-01) (10, 1.05566665530204772949e-01) (11, 2.11468130350112915039e-01) (12, -6.78572505712509155273e-02) (13, 2.26254177093505859375e+00) (14, 8.02487730979919433594e-01) (15, -2.52487689256668090820e-01) (16, -5.01479245722293853760e-02) (17, -1.69992041587829589844e+00) (0, -6.33946239948272705078e-01) (1, -9.01486039161682128906e-01) (2, 4.75947976112365722656e-01) (3, 6.30229115486145019531e-01) (4, -1.11512392759323120117e-02) (5, -5.93180358409881591797e-01) (6, 6.45057484507560729980e-02) (7, 1.46091217175126075745e-03) (8, -8.46238881349563598633e-02) (9, 1.55310571193695068359e-01) (10, -1.81008875370025634766e-02) (11, -3.78244996070861816406e-01) (12, 7.88588747382164001465e-02) (13, 1.53779137134552001953e+00) (14, -2.56246011704206466675e-02) (15, 2.59032070636749267578e-01) (16, 3.01830798387527465820e-01) (17, -5.50039231777191162109e-01) (0, -2.49056275933980941772e-02) (1, -2.18376621603965759277e-01) (2, -1.42182126641273498535e-01) (3, 1.02283298969268798828e+00) (4, 1.87692797183990478516e+00) (5, 3.88999342918395996094e-01) (6, -1.37058818340301513672e+00) (7, -4.05171960592269897461e-01) (8, -4.04731482267379760742e-02) (9, -1.07623942196369171143e-01) (10, 1.62863269448280334473e-01) (11, 5.76288163661956787109e-01) (12, -7.45154544711112976074e-02) (13, 3.27937126159667968750e+00) (14, 7.46848046779632568359e-01) (15, -3.69824886322021484375e-01) (16, -3.77294793725013732910e-02) (17, -2.25270941853523254395e-01) (0, -1.10020600259304046631e-01) (1, 1.09854435920715332031e+00) (2, 1.14588510990142822266e+00) (3, 4.78505462408065795898e-01) (4, -4.06120479106903076172e-01) (5, 9.16853725910186767578e-01) (6, 8.09378087520599365234e-01) (7, -6.50107085704803466797e-01) (8, 4.70862209796905517578e-01) (9, 3.53352069854736328125e-01) (10, 2.00581967830657958984e-01) (11, 5.77643290162086486816e-02) (12, -7.64095708727836608887e-02) (13, 3.84431898593902587891e-01) (14, 1.75894379615783691406e-01) (15, 2.40399077534675598145e-01) (16, -1.50766348838806152344e+00) (17, 1.09874141216278076172e+00) (0, -2.17853277921676635742e-01) (1, -1.52543902397155761719e-01) (2, 6.25327110290527343750e-01) (3, 1.55168509483337402344e+00) (4, 1.68881618976593017578e+00) (5, 1.64052665233612060547e+00) (6, -3.20407199859619140625e+00) (7, -2.88581579923629760742e-01) (8, 1.33385732769966125488e-01) (9, 3.25879976153373718262e-02) (10, -1.27041116356849670410e-02) (11, 4.02482181787490844727e-01) (12, -1.80210322141647338867e-01) (13, 2.35499787330627441406e+00) (14, 2.85704195499420166016e-01) (15, 8.73658359050750732422e-02) (16, 1.75980657339096069336e-01) (17, -1.60650148987770080566e-01) (0, 6.27402365207672119141e-01) (1, 8.81337583065032958984e-01) (2, 8.93354892730712890625e-01) (3, 2.17542648315429687500e+00) (4, 3.98449039459228515625e+00) (5, 3.87627542018890380859e-01) (6, -2.01609420776367187500e+00) (7, 3.95205259323120117188e-01) (8, -6.70193284749984741211e-02) (9, -6.17365241050720214844e-01) (10, 1.14316388964653015137e-01) (11, 7.61559605598449707031e-01) (12, 1.27935260534286499023e-01) (13, 2.16003775596618652344e+00) (14, 1.34637200832366943359e+00) (15, 1.47430688142776489258e-01) (16, 8.39890837669372558594e-02) (17, 9.54154074192047119141e-01) (0, -1.17735731601715087891e+00) (1, -1.29700386524200439453e+00) (2, -9.27497446537017822266e-01) (3, -1.66024211794137954712e-02) (4, 7.00060307979583740234e-01) (5, 3.11550080776214599609e-01) (6, -4.77365612983703613281e-01) (7, 1.82917758822441101074e-01) (8, 2.60310232639312744141e-01) (9, 6.79006427526473999023e-02) (10, 2.16995134949684143066e-01) (11, 1.12912654876708984375e-01) (12, 4.77371513843536376953e-02) (13, 3.48272949457168579102e-01) (14, 4.38477337360382080078e-01) (15, -1.46946802735328674316e-01) (16, 3.53309839963912963867e-01) (17, -2.43845653533935546875e+00) (0, 5.31130433082580566406e-01) (1, 8.46780061721801757812e-01) (2, 9.19067621231079101562e-01) (3, 5.44778347015380859375e-01) (4, 5.15761256217956542969e-01) (5, -5.19272265955805778503e-03) (6, -4.65469658374786376953e-01) (7, 4.21336948871612548828e-01) (8, -1.07396245002746582031e-01) (9, 3.25108468532562255859e-01) (10, -2.82170660793781280518e-02) (11, 7.05551624298095703125e-01) (12, 1.01455217227339744568e-02) (13, -2.23602592945098876953e-01) (14, 3.46603423357009887695e-01) (15, 1.61746472120285034180e-01) (16, 1.43488931655883789062e+00) (17, 6.03763341903686523438e-01) (0, -7.37760812044143676758e-02) (1, -1.55630901455879211426e-01) (2, -7.91050016880035400391e-01) (3, -4.05953615903854370117e-01) (4, -2.53052145242691040039e-01) (5, 3.79823356866836547852e-01) (6, 3.87721598148345947266e-01) (7, -1.28290094435214996338e-02) (8, -8.70485231280326843262e-02) (9, -1.00316889584064483643e-01) (10, 2.84585151821374893188e-02) (11, -1.70638009905815124512e-01) (12, -1.62355676293373107910e-02) (13, 6.18135929107666015625e-02) (14, -4.42161738872528076172e-01) (15, 5.94789385795593261719e-02) (16, 2.18594625592231750488e-01) (17, -2.28351759910583496094e+00) (0, -7.62179911136627197266e-01) (1, -3.92522662878036499023e-02) (2, -1.58763611316680908203e+00) (3, 4.78819876909255981445e-01) (4, -5.91514468193054199219e-01) (5, -3.12162488698959350586e-01) (6, 4.16053056716918945312e-01) (7, 1.57376945018768310547e-01) (8, -1.14490292966365814209e-01) (9, 4.03264211490750312805e-03) (10, 8.84973704814910888672e-01) (11, -7.33484029769897460938e-01) (12, -7.35884979367256164551e-02) (13, 2.11565089225769042969e+00) (14, 3.63556265830993652344e-01) (15, -1.19717381894588470459e-01) (16, 3.44877570867538452148e-01) (17, -9.88495171070098876953e-01) (0, 1.03614342212677001953e+00) (1, 1.02659189701080322266e+00) (2, -2.62908130884170532227e-01) (3, -6.48940801620483398438e-01) (4, 8.23554873466491699219e-01) (5, -1.59779697656631469727e-01) (6, -5.54294846951961517334e-02) (7, -3.83616089820861816406e-01) (8, 4.79552388191223144531e-01) (9, 2.30255559086799621582e-01) (10, -3.56827825307846069336e-02) (11, 1.13331520557403564453e+00) (12, -1.09617672860622406006e-01) (13, 1.26000493764877319336e-01) (14, 8.09202194213867187500e-01) (15, 4.91977274417877197266e-01) (16, -3.65410774946212768555e-01) (17, 1.78562149405479431152e-01) (0, 2.08881542086601257324e-01) (1, -2.83191263675689697266e-01) (2, 8.56109708547592163086e-02) (3, -1.08049940317869186401e-02) (4, 1.12957388162612915039e-01) (5, -6.56375527381896972656e-01) (6, 2.50758022069931030273e-01) (7, -3.48620802164077758789e-01) (8, 4.43299919366836547852e-01) (9, 2.28610903024673461914e-01) (10, 4.34490412473678588867e-01) (11, 4.06413599848747253418e-02) (12, -7.16358199715614318848e-02) (13, 2.49359190464019775391e-01) (14, -4.50642555952072143555e-01) (15, 6.45091980695724487305e-02) (16, -3.50818842649459838867e-01) (17, -2.40001416206359863281e+00) (0, 1.48417830467224121094e-01) (1, -7.13373646140098571777e-02) (2, 1.20601341128349304199e-01) (3, 5.46931505203247070312e-01) (4, 2.22177803516387939453e-01) (5, -2.73498535156250000000e-01) (6, -3.47255885601043701172e-01) (7, -1.83673739433288574219e-01) (8, -5.03935441374778747559e-02) (9, 7.42201926186680793762e-03) (10, 1.64014041423797607422e-01) (11, -4.45421069860458374023e-01) (12, -1.12759798765182495117e-01) (13, -3.42800587415695190430e-01) (14, 2.14211091399192810059e-01) (15, 1.35905876755714416504e-01) (16, 3.65959525108337402344e-01) (17, 4.96361941099166870117e-01) (0, -6.44786730408668518066e-02) (1, 6.81676208972930908203e-01) (2, 2.11885929107666015625e+00) (3, -5.06254471838474273682e-02) (4, -4.68979030847549438477e-01) (5, 9.64645922183990478516e-01) (6, -2.88047760725021362305e-01) (7, -8.24666023254394531250e-01) (8, 8.31236958503723144531e-01) (9, 5.03739118576049804688e-01) (10, -3.59695971012115478516e-01) (11, -5.03383457660675048828e-01) (12, 1.09671317040920257568e-01) (13, -5.12644886970520019531e-01) (14, 8.27078893780708312988e-02) (15, 6.21672868728637695312e-01) (16, 7.46019959449768066406e-01) (17, 1.48732519149780273438e+00) (0, 3.86032760143280029297e-01) (1, 3.82815867662429809570e-01) (2, 1.65913492441177368164e-01) (3, 2.61032193899154663086e-01) (4, 3.06585699319839477539e-01) (5, 1.63959956169128417969e+00) (6, -1.00804924964904785156e+00) (7, -4.95969116687774658203e-01) (8, 5.28259396553039550781e-01) (9, -9.13588106632232666016e-02) (10, -1.22815378010272979736e-01) (11, 7.77252495288848876953e-01) (12, 7.69664812833070755005e-03) (13, -4.11934554576873779297e-01) (14, 3.39955359697341918945e-01) (15, -2.20459382981061935425e-02) (16, -5.68583965301513671875e-01) (17, 1.66371905803680419922e+00) (0, -1.70278638601303100586e-01) (1, -4.85504090785980224609e-01) (2, -5.94213545322418212891e-01) (3, -2.65504300594329833984e-01) (4, -1.13591706752777099609e+00) (5, 2.08091545104980468750e+00) (6, -3.20065766572952270508e-01) (7, -7.87787430454045534134e-04) (8, -3.96803803741931915283e-02) (9, -1.98573976755142211914e-01) (10, -8.85365158319473266602e-02) (11, 7.73251235485076904297e-01) (12, 1.38696610927581787109e-01) (13, 9.14251804351806640625e-01) (14, 8.80505383014678955078e-01) (15, -4.47422176599502563477e-01) (16, -1.02621808648109436035e-01) (17, -7.70768672227859497070e-02) (0, 4.45868194103240966797e-01) (1, 2.06227049231529235840e-01) (2, 2.60186016559600830078e-01) (3, -1.28390574455261230469e+00) (4, -5.09417235851287841797e-01) (5, 1.16922356188297271729e-01) (6, 6.59875333309173583984e-01) (7, 8.26215147972106933594e-02) (8, 2.52871990203857421875e-01) (9, 1.06982253491878509521e-01) (10, 1.56250461935997009277e-01) (11, 2.65572458505630493164e-01) (12, 1.54475152492523193359e-01) (13, 3.38911938667297363281e+00) (14, 1.92529156804084777832e-01) (15, 1.84435434639453887939e-02) (16, 2.37007111310958862305e-01) (17, -2.60104680061340332031e+00) (0, 1.21670961380004882812e+00) (1, 1.91843998432159423828e+00) (2, 1.25263065099716186523e-01) (3, -1.40618503093719482422e-01) (4, 8.73636603355407714844e-01) (5, -2.80424445867538452148e-01) (6, 6.83170318603515625000e-01) (7, 2.06411316990852355957e-01) (8, -3.34102392196655273438e-01) (9, -6.68037980794906616211e-02) (10, 2.09192708134651184082e-01) (11, -4.38404083251953125000e-01) (12, -2.34550461173057556152e-02) (13, 4.77769285440444946289e-01) (14, -4.42052066326141357422e-01) (15, 1.83287441730499267578e-01) (16, -1.77938677370548248291e-02) (17, -2.19188261032104492188e+00) (0, 3.07439297437667846680e-01) (1, -1.62517782300710678101e-02) (2, 2.83080160617828369141e-01) (3, -1.60697191953659057617e-01) (4, 4.48977857828140258789e-01) (5, -4.79921489953994750977e-01) (6, 6.25478327274322509766e-01) (7, -4.28926706314086914062e-01) (8, 6.77291870117187500000e-01) (9, 1.85865774750709533691e-01) (10, -2.39629179239273071289e-01) (11, 6.11646950244903564453e-01) (12, -4.34270650148391723633e-02) (13, -1.37707561254501342773e-01) (14, -2.97637164592742919922e-01) (15, 5.34055978059768676758e-02) (16, 5.27040846645832061768e-02) (17, -1.78203570842742919922e+00) (0, 7.50223577022552490234e-01) (1, 2.37819170951843261719e+00) (2, 5.88445842266082763672e-01) (3, 5.16096293926239013672e-01) (4, -1.06391310691833496094e+00) (5, -9.07647371292114257812e-01) (6, 1.77459859848022460938e+00) (7, -3.67529243230819702148e-01) (8, 8.49242433905601501465e-02) (9, 4.76721048355102539062e-01) (10, -5.98892748355865478516e-01) (11, -1.16928660869598388672e+00) (12, 9.18542500585317611694e-03) (13, -6.30391478538513183594e-01) (14, -8.75898003578186035156e-01) (15, -4.19510900974273681641e-01) (16, -1.05006444454193115234e+00) (17, 4.87838983535766601562e+00) (0, 3.04826884530484676361e-04) (1, -8.87772664427757263184e-02) (2, 6.36816084384918212891e-01) (3, 3.72961051762104034424e-02) (4, 2.05405894666910171509e-02) (5, -8.03438007831573486328e-01) (6, -1.44080162048339843750e-01) (7, 2.24611639976501464844e-01) (8, -3.27850699424743652344e-01) (9, -7.60480463504791259766e-02) (10, -3.40824484825134277344e-01) (11, -9.05202999711036682129e-02) (12, 4.70609478652477264404e-02) (13, 3.63087296485900878906e-01) (14, -1.42799377441406250000e-01) (15, 7.26703524589538574219e-01) (16, 2.75796037167310714722e-02) (17, 2.36936640739440917969e+00) (0, 8.42482298612594604492e-02) (1, -7.53061234951019287109e-01) (2, 4.58486914634704589844e-01) (3, 1.90326988697052001953e-01) (4, 5.30513346195220947266e-01) (5, -5.74447453022003173828e-01) (6, -1.00117528438568115234e+00) (7, -5.43401241302490234375e-02) (8, -1.15417372435331344604e-02) (9, 2.55345374345779418945e-01) (10, -1.56207978725433349609e-01) (11, -1.58841814845800399780e-02) (12, 7.62177705764770507812e-02) (13, -8.93626630306243896484e-01) (14, 1.80802479386329650879e-01) (15, -4.80563491582870483398e-02) (16, 6.06125354766845703125e-01) (17, -8.63669455051422119141e-01) (0, 6.94925546646118164062e-01) (1, 2.52390295267105102539e-01) (2, 1.24704861640930175781e+00) (3, -1.36042511463165283203e+00) (4, 1.84010732173919677734e+00) (5, 9.77770626544952392578e-01) (6, -4.79372531175613403320e-01) (7, -3.55502009391784667969e-01) (8, 5.07773756980895996094e-01) (9, 4.92848396301269531250e-01) (10, -1.32226005196571350098e-01) (11, 1.03300489485263824463e-01) (12, 2.84484922885894775391e-01) (13, 1.61389088630676269531e+00) (14, 2.95619577169418334961e-01) (15, 2.94841587543487548828e-01) (16, -1.36232042312622070312e+00) (17, -3.83227974176406860352e-01) (0, -1.08868169784545898438e+00) (1, 2.74468995630741119385e-02) (2, -7.40665495395660400391e-01) (3, 2.34031394124031066895e-01) (4, 4.14381027221679687500e-01) (5, 8.95484313368797302246e-02) (6, 9.22578752040863037109e-01) (7, 2.44978535920381546021e-02) (8, -2.50073641538619995117e-01) (9, -8.60570892691612243652e-02) (10, -5.34468218684196472168e-02) (11, -6.83435425162315368652e-02) (12, -8.78405347466468811035e-02) (13, 3.72376704216003417969e+00) (14, -6.25790506601333618164e-02) (15, 4.49299037456512451172e-01) (16, 7.83345401287078857422e-01) (17, -2.25731635093688964844e+00) (0, 1.16319310665130615234e+00) (1, 2.76996278762817382812e+00) (2, 1.20630748569965362549e-01) (3, 6.92075431346893310547e-01) (4, 2.60317027568817138672e-01) (5, -1.19413387775421142578e+00) (6, 4.41584698855876922607e-02) (7, 3.08499723672866821289e-01) (8, -2.18311786651611328125e-01) (9, -1.19864575564861297607e-01) (10, -2.24992007017135620117e-01) (11, -1.76661685109138488770e-01) (12, 8.61366465687751770020e-02) (13, -1.22204196453094482422e+00) (14, 1.48640811443328857422e-01) (15, -6.54063969850540161133e-02) (16, 1.50314301252365112305e-01) (17, 2.11991310119628906250e+00) (0, 4.58952963352203369141e-01) (1, 7.49146461486816406250e-01) (2, 2.97995150089263916016e-01) (3, -1.82076230645179748535e-01) (4, -2.41406373679637908936e-02) (5, 1.69249325990676879883e-01) (6, -1.84612199664115905762e-01) (7, 1.19746141135692596436e-01) (8, -8.21167588233947753906e-01) (9, -2.36747235059738159180e-01) (10, 3.59244853258132934570e-01) (11, -3.80728334188461303711e-01) (12, 1.01990610361099243164e-01) (13, -8.92415046691894531250e-01) (14, 4.88934665918350219727e-01) (15, 1.80733744055032730103e-02) (16, -4.30152088403701782227e-01) (17, -8.65045666694641113281e-01) (0, -8.21522101759910583496e-02) (1, 1.80798634886741638184e-01) (2, 2.34055176377296447754e-01) (3, -3.13668072223663330078e-01) (4, 3.38971525430679321289e-01) (5, -3.67045134305953979492e-01) (6, -1.07545353472232818604e-01) (7, 9.64655399322509765625e-01) (8, -7.96010494232177734375e-01) (9, -3.50919723510742187500e-01) (10, -4.06731069087982177734e-01) (11, -2.59266257286071777344e-01) (12, 2.97185927629470825195e-02) (13, -5.31330168247222900391e-01) (14, 4.11070078611373901367e-01) (15, -1.05599559843540191650e-01) (16, 7.16867446899414062500e-01) (17, 2.23986363410949707031e+00) (0, 2.83315569162368774414e-01) (1, 1.12184238433837890625e+00) (2, -2.88800269365310668945e-01) (3, 2.13713139295578002930e-01) (4, 2.62677669525146484375e-01) (5, 9.49319481849670410156e-01) (6, -4.79956239461898803711e-01) (7, 7.43716433644294738770e-02) (8, 1.54628291726112365723e-01) (9, -1.66641995310783386230e-01) (10, 1.82318940758705139160e-01) (11, -3.25652301311492919922e-01) (12, 1.50125920772552490234e-01) (13, -3.72956484556198120117e-01) (14, 1.33854961395263671875e+00) (15, 2.93397516012191772461e-01) (16, 2.98676699399948120117e-01) (17, -7.19811916351318359375e-01) (0, 1.72027254104614257812e+00) (1, 1.94065988063812255859e+00) (2, -1.87719210982322692871e-01) (3, 4.29412186145782470703e-01) (4, 7.43709877133369445801e-02) (5, -1.44191825389862060547e+00) (6, -1.82355403900146484375e-01) (7, 9.28670316934585571289e-02) (8, -6.75017088651657104492e-02) (9, 2.18445807695388793945e-01) (10, -4.04408305883407592773e-01) (11, -2.36250594258308410645e-01) (12, 2.55524486303329467773e-01) (13, 3.59654068946838378906e-01) (14, -3.76742810010910034180e-01) (15, -2.48463883996009826660e-01) (16, -8.78336429595947265625e-01) (17, 6.75174772739410400391e-01) (0, 6.25925719738006591797e-01) (1, 1.17241072654724121094e+00) (2, -2.29791596531867980957e-01) (3, -2.25363634526729583740e-02) (4, 1.15426421165466308594e-01) (5, 1.83929309248924255371e-01) (6, -3.36385160684585571289e-01) (7, -3.64824354648590087891e-01) (8, 1.88503652811050415039e-01) (9, -2.88756519556045532227e-01) (10, -2.88676228374242782593e-02) (11, 1.32092073559761047363e-01) (12, 1.20142243802547454834e-01) (13, 4.01835948228836059570e-01) (14, -3.31822663545608520508e-01) (15, 7.02689960598945617676e-02) (16, 9.05340015888214111328e-01) (17, 2.40741109848022460938e+00) (0, 1.30044889450073242188e+00) (1, 1.08688378334045410156e+00) (2, 8.60627174377441406250e-01) (3, -1.17573268711566925049e-01) (4, 1.01855233311653137207e-01) (5, 3.63534003496170043945e-01) (6, 4.30920362472534179688e-01) (7, 5.73968112468719482422e-01) (8, -3.26376289129257202148e-01) (9, -2.56284236907958984375e-01) (10, -1.63244277238845825195e-01) (11, -7.08234086632728576660e-02) (12, -5.07889501750469207764e-02) (13, 2.39912375807762145996e-01) (14, 1.22850537300109863281e-02) (15, 1.45028397440910339355e-01) (16, -2.45356798171997070312e-01) (17, 3.90603840351104736328e-01) (0, 5.70280849933624267578e-01) (1, 8.40955615043640136719e-01) (2, 4.45008486509323120117e-01) (3, 4.09845747053623199463e-02) (4, 7.04468429088592529297e-01) (5, -8.00444781780242919922e-01) (6, -6.60524144768714904785e-02) (7, 1.94613695144653320312e-01) (8, -2.26085841655731201172e-01) (9, -2.01853841543197631836e-01) (10, -9.39318686723709106445e-02) (11, 2.81168520450592041016e-01) (12, -2.66045123338699340820e-01) (13, 2.01023861765861511230e-01) (14, 4.48243647813796997070e-01) (15, -1.02612726390361785889e-01) (16, 1.01918816566467285156e+00) (17, 2.94707512855529785156e+00) (0, 8.38188588619232177734e-01) (1, 1.27046167850494384766e+00) (2, 6.48467957973480224609e-01) (3, 3.37139308452606201172e-01) (4, 1.94603011012077331543e-01) (5, 3.99465918540954589844e-01) (6, -7.50847995281219482422e-01) (7, 4.42425280809402465820e-01) (8, -3.72344434261322021484e-01) (9, -1.50506705045700073242e-01) (10, 1.23661316931247711182e-01) (11, -7.65949999913573265076e-03) (12, 1.57075002789497375488e-01) (13, -1.45573902130126953125e+00) (14, 3.67521733045578002930e-01) (15, 1.44700914621353149414e-01) (16, -1.32290944457054138184e-01) (17, -1.65815639495849609375e+00) (0, -4.63529258966445922852e-01) (1, -7.41003751754760742188e-01) (2, 6.25125318765640258789e-02) (3, -5.36023557186126708984e-01) (4, 7.18188405036926269531e-01) (5, 2.74140268564224243164e-01) (6, -2.50329047441482543945e-01) (7, 3.60642552375793457031e-01) (8, -1.80378153920173645020e-01) (9, -1.65354400873184204102e-01) (10, 9.68197435140609741211e-02) (11, 4.12912935018539428711e-01) (12, -5.21045744419097900391e-01) (13, -6.20617270469665527344e-01) (14, 4.57794427871704101562e-01) (15, 5.05637049674987792969e-01) (16, 7.06796348094940185547e-01) (17, 3.10057222843170166016e-01) (0, 7.25419163703918457031e-01) (1, 6.87204182147979736328e-01) (2, 1.38135850429534912109e+00) (3, -1.04814457893371582031e+00) (4, -9.23414707183837890625e-01) (5, 2.90213346481323242188e+00) (6, -1.10455763339996337891e+00) (7, -7.89650022983551025391e-01) (8, 6.24660551548004150391e-01) (9, 3.88215303421020507812e-01) (10, -1.54259443283081054688e+00) (11, 7.73301005363464355469e-01) (12, 1.11176706850528717041e-01) (13, 6.69096803665161132812e+00) (14, 2.80629336833953857422e-01) (15, 4.98697310686111450195e-02) (16, -1.08095675706863403320e-01) (17, -1.66191446781158447266e+00) (0, -1.76645576953887939453e-01) (1, -8.41265767812728881836e-02) (2, -2.97196179628372192383e-01) (3, 2.59345203638076782227e-01) (4, -7.79762923717498779297e-01) (5, 9.71574723720550537109e-01) (6, -1.97871178388595581055e-01) (7, 1.48099929094314575195e-01) (8, 5.10517299175262451172e-01) (9, 1.19057297706604003906e-01) (10, -1.13859362900257110596e-01) (11, 2.19084948301315307617e-01) (12, 7.19401910901069641113e-02) (13, -3.53805094957351684570e-01) (14, -3.19999188184738159180e-01) (15, 1.80017128586769104004e-01) (16, -1.02471339702606201172e+00) (17, -1.24412024021148681641e+00) (0, 2.12324663996696472168e-01) (1, 1.92742183804512023926e-01) (2, -1.39936521649360656738e-01) (3, -6.61376178264617919922e-01) (4, -1.07582473754882812500e+00) (5, -7.56459116935729980469e-01) (6, 1.43934774398803710938e+00) (7, 4.36965346336364746094e-01) (8, -3.96310627460479736328e-01) (9, -3.57498079538345336914e-01) (10, 1.13788783550262451172e-01) (11, -3.77647578716278076172e-01) (12, 9.88702103495597839355e-02) (13, 1.23276007175445556641e+00) (14, -9.11109372973442077637e-02) (15, -7.50486105680465698242e-02) (16, -3.14670763909816741943e-02) (17, 2.49606847763061523438e+00) (0, 9.69532966613769531250e-01) (1, 1.08733165264129638672e+00) (2, -1.40017598867416381836e-01) (3, -3.22929352521896362305e-01) (4, -2.46130600571632385254e-01) (5, -3.57982158660888671875e-01) (6, 4.33899968862533569336e-01) (7, 3.78944784402847290039e-01) (8, 2.31943204998970031738e-02) (9, -1.96834895759820938110e-02) (10, -1.29177328199148178101e-03) (11, 1.79286539554595947266e-01) (12, -1.42997696995735168457e-01) (13, 9.64218676090240478516e-01) (14, -2.95908361673355102539e-01) (15, -1.32270306348800659180e-01) (16, 1.10557988286018371582e-01) (17, -2.12358236312866210938e+00) (0, -1.67891696095466613770e-01) (1, -1.39961406588554382324e-01) (2, 8.57769727706909179688e-01) (3, -1.05693471431732177734e+00) (4, -9.76188421249389648438e-01) (5, 7.52140462398529052734e-01) (6, 1.03801584243774414062e+00) (7, -4.57690268754959106445e-01) (8, 6.35693430900573730469e-01) (9, 3.09358954429626464844e-01) (10, -5.00234723091125488281e-01) (11, 2.01639175415039062500e-01) (12, -6.84168040752410888672e-02) (13, -7.77266383171081542969e-01) (14, -4.35320436954498291016e-01) (15, 1.88524812459945678711e-01) (16, 2.21407666802406311035e-01) (17, 1.53467476367950439453e+00) (0, -6.75539672374725341797e-01) (1, -9.66775357723236083984e-01) (2, 7.87648916244506835938e-01) (3, -4.50007110834121704102e-01) (4, 2.67631411552429199219e-01) (5, -2.38068699836730957031e-01) (6, 4.36708897352218627930e-01) (7, -1.66735187172889709473e-01) (8, 4.47059981524944305420e-02) (9, -3.26105430722236633301e-02) (10, 2.05922737717628479004e-01) (11, -2.00500190258026123047e-02) (12, -1.58245131373405456543e-01) (13, -1.33081972599029541016e-01) (14, 3.41070517897605895996e-02) (15, 5.61006784439086914062e-01) (16, 1.07168301939964294434e-01) (17, -1.55506765842437744141e+00) (18, 1.21101784706115722656e+00) (19, 7.80060350894927978516e-01) (20, 1.17392742633819580078e+00) (21, -1.88859358429908752441e-01) (22, 5.03021553158760070801e-02) (23, 6.59130096435546875000e-01) (24, 5.73047220706939697266e-01) (25, -1.75224050879478454590e-01) (26, 2.09041118621826171875e-01) (27, 4.40290242433547973633e-01) (28, 9.50953543186187744141e-01) (29, -1.04011878371238708496e-01) (30, -1.24148447066545486450e-02) (31, -3.49252104759216308594e-01) (32, 1.05877861380577087402e-01) (33, 1.06391978263854980469e+00) (34, -1.46854594349861145020e-01) (35, 1.43462061882019042969e+00) (36, 7.51463592052459716797e-01) (37, -1.97144657373428344727e-01) (38, 9.05475378036499023438e-01) (39, 2.12670132517814636230e-01) (40, 4.11192506551742553711e-01) (41, -2.14423000812530517578e-01) (42, 6.38009369373321533203e-01) (43, 3.99171650409698486328e-01) (44, 8.54793250560760498047e-01) (45, 4.25821900367736816406e-01) (46, 7.61718630790710449219e-01) (47, 7.99471259117126464844e-01) (48, -2.72337019443511962891e-01) (49, 2.43447875976562500000e+00) (50, 1.20739531517028808594e+00) (51, -1.29883632063865661621e-01) (52, 1.17805242538452148438e+00) (53, 1.33157232776284217834e-02) (54, 1.41214990615844726562e+00) (55, -3.61171305179595947266e-01) (56, 9.94276821613311767578e-01) (57, 2.42309167981147766113e-01) (58, 8.60843718051910400391e-01) (59, 1.21889770030975341797e-01) (60, -4.94858846068382263184e-02) (61, 4.64699953794479370117e-01) (62, 1.56547114253044128418e-01) (63, 5.90878844261169433594e-01) (64, -1.03897440433502197266e+00) (65, -1.49968996644020080566e-01) (66, 2.91824698448181152344e-01) (67, 8.36830615997314453125e-01) (68, -5.57670772075653076172e-01) (69, 4.93021458387374877930e-01) (70, -1.65588688850402832031e+00) (71, -8.97771775722503662109e-01) (72, -1.33649194240570068359e+00) (73, 4.70349937677383422852e-01) (74, 2.12458848953247070312e+00) (75, 5.16956984996795654297e-01) (76, 2.42496892809867858887e-01) (77, 3.91887545585632324219e-01) (78, 1.75502049922943115234e+00) (18, 1.89664840698242187500e+00) (19, -1.70806884765625000000e-01) (20, 9.14249956607818603516e-01) (21, 1.87311530113220214844e-01) (22, 8.34515690803527832031e-02) (23, 5.19741654396057128906e-01) (24, 8.63079667091369628906e-01) (25, -5.07528245449066162109e-01) (26, 1.90695181488990783691e-01) (27, 5.67506074905395507812e-01) (28, 1.15187609195709228516e+00) (29, -5.51763415336608886719e-01) (30, 1.60259437561035156250e+00) (31, -8.86946499347686767578e-01) (32, -8.77225875854492187500e-01) (33, 1.04597830772399902344e+00) (34, -7.83006966114044189453e-01) (35, 1.79403710365295410156e+00) (36, 6.44057035446166992188e-01) (37, 9.61924135684967041016e-01) (38, 1.30790114402770996094e+00) (39, -1.55063912272453308105e-01) (40, 4.54454630613327026367e-01) (41, -1.60647958517074584961e-01) (42, 7.24801063537597656250e-01) (43, 4.45655375719070434570e-01) (44, 5.89698731899261474609e-01) (45, 4.68923121690750122070e-01) (46, -6.10878244042396545410e-02) (47, 2.72161602973937988281e-01) (48, -8.86436402797698974609e-01) (49, -1.86801314353942871094e-01) (50, 8.20527493953704833984e-01) (51, -1.75415929406881332397e-02) (52, 1.03818619251251220703e+00) (53, 1.08710199594497680664e-01) (54, 1.00612413883209228516e+00) (55, 3.59537452459335327148e-01) (56, 2.85237574577331542969e+00) (57, 1.76281169056892395020e-01) (58, 1.46200203895568847656e+00) (59, 4.11312639713287353516e-01) (60, 2.61980026960372924805e-01) (61, 1.03360223770141601562e+00) (62, 2.80148804187774658203e-01) (63, 6.71556353569030761719e-01) (64, -1.02548778057098388672e+00) (65, -1.13618180155754089355e-01) (66, 5.56358516216278076172e-01) (67, 9.66046214103698730469e-01) (68, -1.56537032127380371094e+00) (69, 1.18202775716781616211e-01) (70, 8.94515141844749450684e-02) (71, -1.12387645244598388672e+00) (72, -1.00434437394142150879e-01) (73, 3.72473537921905517578e-01) (74, 2.28021693229675292969e+00) (75, 8.85779738426208496094e-01) (76, 1.40529668331146240234e+00) (77, 1.00540482997894287109e+00) (78, 2.61514139175415039062e+00) (18, 1.96086120605468750000e+00) (19, -9.72972273826599121094e-01) (20, -3.53240877389907836914e-01) (21, -3.51200968027114868164e-01) (22, 2.07666665315628051758e-01) (23, 1.06741726398468017578e+00) (24, 1.36966538429260253906e+00) (25, -3.42583954334259033203e-01) (26, 3.85131329298019409180e-01) (27, 1.18509304523468017578e+00) (28, 7.53646969795227050781e-01) (29, -1.17732055485248565674e-01) (30, -2.08132600784301757812e+00) (31, -2.41069450974464416504e-01) (32, -1.76981166005134582520e-01) (33, 6.16487264633178710938e-01) (34, -5.16046702861785888672e-01) (35, 6.15623950958251953125e-01) (36, 1.92765548825263977051e-01) (37, -1.48810505867004394531e+00) (38, 1.06994831562042236328e+00) (39, 7.51327574253082275391e-01) (40, 1.06267571449279785156e+00) (41, 2.45810784399509429932e-02) (42, 5.21285116672515869141e-01) (43, 6.32425248622894287109e-01) (44, 8.75512599945068359375e-01) (45, 1.02820122241973876953e+00) (46, 7.47166752815246582031e-01) (47, -5.17307460308074951172e-01) (48, -1.74003213644027709961e-01) (49, 4.63288068771362304688e-01) (50, 3.12761455774307250977e-01) (51, -3.94834309816360473633e-01) (52, 1.62129509449005126953e+00) (53, 1.11531652510166168213e-01) (54, 6.60553514957427978516e-01) (55, 3.29883873462677001953e-01) (56, 4.08399581909179687500e+00) (57, 8.90977531671524047852e-02) (58, 1.92841157317161560059e-01) (59, 3.80005002021789550781e-01) (60, 6.35419964790344238281e-01) (61, 1.16879232227802276611e-01) (62, -4.41803961992263793945e-01) (63, 2.45908951759338378906e+00) (64, 2.09311866760253906250e+00) (65, 3.99939268827438354492e-01) (66, 3.17904412746429443359e-01) (67, 1.04924631118774414062e+00) (68, 3.29503536224365234375e-01) (69, 6.36579036712646484375e-01) (70, -7.09758520126342773438e-01) (71, -3.14916074275970458984e-01) (72, 9.41187322139739990234e-01) (73, 1.67393791675567626953e+00) (74, 2.43903732299804687500e+00) (75, 1.03314876556396484375e+00) (76, 8.58465373516082763672e-01) (77, 3.06961208581924438477e-01) (78, 5.95751106739044189453e-01) (18, 4.52874183654785156250e+00) (19, 1.16031813621520996094e+00) (20, -4.14032429456710815430e-01) (21, -1.35483264923095703125e-01) (22, -2.37695217132568359375e+00) (23, 2.42939019203186035156e+00) (24, -1.18113052845001220703e+00) (25, -4.85494971275329589844e-01) (26, 2.70120644569396972656e+00) (27, 1.32058393955230712891e+00) (28, -6.81393027305603027344e-01) (29, 2.20400542020797729492e-01) (30, 2.21214008331298828125e+00) (31, 8.88611614704132080078e-01) (32, 2.09829258918762207031e+00) (33, 3.94567281007766723633e-01) (34, 1.87128269672393798828e+00) (35, -3.00213527679443359375e+00) (36, -2.25387245416641235352e-01) (37, -1.23058545589447021484e+00) (38, 1.14042043685913085938e+00) (39, 1.50579690933227539062e+00) (40, -1.83810150623321533203e+00) (41, 2.27854862809181213379e-01) (42, 3.54311895370483398438e+00) (43, -7.52803683280944824219e-01) (44, -2.03310489654541015625e+00) (45, -1.02081441879272460938e+00) (46, 2.52667760848999023438e+00) (47, 4.76188421249389648438e-01) (48, -2.88586974143981933594e-01) (49, 1.50787091255187988281e+00) (50, 1.86322319507598876953e+00) (51, -2.05795854330062866211e-01) (52, 1.61231803894042968750e+00) (53, 2.74238371849060058594e+00) (54, 2.17655754089355468750e+00) (55, 2.22232174873352050781e+00) (56, 1.55403494834899902344e+00) (57, 1.11436927318572998047e+00) (58, 1.24791789054870605469e+00) (59, 1.66695463657379150391e+00) (60, -8.48123013973236083984e-01) (61, 4.58421528339385986328e-01) (62, 9.13181379437446594238e-02) (63, -3.54874700307846069336e-01) (64, 8.79857897758483886719e-01) (65, -6.95167005062103271484e-01) (66, 2.04196482896804809570e-01) (67, 4.88193690776824951172e-01) (68, -1.41537046432495117188e+00) (69, -9.04771745204925537109e-01) (70, 9.23366189002990722656e-01) (71, -7.22159668803215026855e-02) (72, -1.25515031814575195312e+00) (73, -6.30758404731750488281e-01) (74, 2.14005351066589355469e+00) (75, 4.17438924312591552734e-01) (76, 1.11069798469543457031e+00) (77, -1.58693504333496093750e+00) (78, -2.85032987594604492188e-01) (18, 3.72779160737991333008e-01) (19, 6.25125348567962646484e-01) (20, 1.31036949157714843750e+00) (21, 4.23020929098129272461e-01) (22, 9.41130295395851135254e-02) (23, 2.37040305137634277344e+00) (24, 4.01103162765502929688e+00) (25, -6.78287327289581298828e-01) (26, 1.12061053514480590820e-01) (27, 1.61778426170349121094e+00) (28, 9.48940455913543701172e-01) (29, -2.91467905044555664062e-01) (30, 3.61430406570434570312e+00) (31, -8.67184937000274658203e-01) (32, 9.03082907199859619141e-01) (33, 2.15843558311462402344e+00) (34, -8.21980595588684082031e-01) (35, 2.27370357513427734375e+00) (36, 3.36352735757827758789e-01) (37, 1.07968068122863769531e+00) (38, 1.79824435710906982422e+00) (39, 9.09947097301483154297e-01) (40, 8.03585708141326904297e-01) (41, 5.52159786224365234375e-01) (42, 1.61539927124977111816e-01) (43, 2.85754352807998657227e-02) (44, 1.43478536605834960938e+00) (45, -5.59881865978240966797e-01) (46, 7.06395721435546875000e+00) (47, 9.45722877979278564453e-01) (48, 5.76318018138408660889e-02) (49, -1.43305397033691406250e+00) (50, 3.06536936759948730469e+00) (51, 1.47639107704162597656e+00) (52, -6.69609069824218750000e-01) (53, 6.09017312526702880859e-01) (54, 8.43958463519811630249e-03) (55, -2.71733045578002929688e+00) (56, 1.02171015739440917969e+00) (57, -3.66609215736389160156e-01) (58, 2.50916767120361328125e+00) (59, 1.64024627208709716797e+00) (60, -7.27569818496704101562e-01) (61, 7.13157057762145996094e-01) (62, -3.14836412668228149414e-01) (63, 7.42196105420589447021e-04) (64, 2.76077294349670410156e+00) (65, -5.75861409306526184082e-02) (66, 1.53848946094512939453e+00) (67, 1.54530763626098632812e+00) (68, -8.82249176502227783203e-01) (69, 1.34850907325744628906e+00) (70, -5.15956163406372070312e-01) (71, -3.23746538162231445312e+00) (72, -1.95778101682662963867e-01) (73, 1.76886487752199172974e-02) (74, 4.41104978322982788086e-01) (75, 4.48227584362030029297e-01) (76, 6.20351195335388183594e-01) (77, 1.57519388198852539062e+00) (78, 1.32905256748199462891e+00) (18, -1.27510819584131240845e-02) (19, -6.62689566612243652344e-01) (20, 1.10671512782573699951e-01) (21, 5.43006837368011474609e-01) (22, 6.14104419946670532227e-03) (23, 6.61268293857574462891e-01) (24, 1.32823967933654785156e+00) (25, -1.77058815956115722656e-01) (26, 1.32286474108695983887e-01) (27, -2.74187564849853515625e-01) (28, -1.59091100096702575684e-01) (29, -1.74333050847053527832e-01) (30, 4.81415659189224243164e-01) (31, 5.86203873157501220703e-01) (32, -2.70091629028320312500e+00) (33, 1.01973676681518554688e+00) (34, 5.23112304508686065674e-02) (35, 6.60368204116821289062e-01) (36, 6.39061927795410156250e-01) (37, 2.04554140567779541016e-01) (38, 1.69687032699584960938e+00) (39, 9.95904982089996337891e-01) (40, 8.82197469472885131836e-02) (41, 5.49879908561706542969e-01) (42, 1.76814552396535873413e-02) (43, -1.33967995643615722656e-01) (44, 1.78047943115234375000e+00) (45, 5.36081016063690185547e-01) (46, 2.93402075767517089844e+00) (47, 3.96490544080734252930e-01) (48, -4.02628481388092041016e-01) (49, 1.32105100154876708984e+00) (50, -8.66462439298629760742e-02) (51, 7.02032685279846191406e-01) (52, -1.84973567724227905273e-01) (53, 4.74894307553768157959e-02) (54, 3.04221391677856445312e-01) (55, -1.08595514297485351562e+00) (56, 2.46482178568840026855e-01) (57, -1.30158379673957824707e-01) (58, 1.39916807413101196289e-01) (59, 5.71044862270355224609e-01) (60, -3.64295244216918945312e-01) (61, 5.94733655452728271484e-01) (62, 1.99539735913276672363e-01) (63, 2.96746730804443359375e-01) (64, 8.35684955120086669922e-01) (65, -9.07010972499847412109e-01) (66, -1.80216491222381591797e-01) (67, 5.69621682167053222656e-01) (68, -4.99788284301757812500e-01) (69, 2.02083206176757812500e+00) (70, 1.42324352264404296875e+00) (71, 3.43345463275909423828e-01) (72, -1.99456006288528442383e-01) (73, -4.21058803796768188477e-01) (74, -1.16958871483802795410e-01) (75, -1.33722817897796630859e+00) (76, -3.99627715349197387695e-01) (77, -8.13123285770416259766e-01) (78, 1.24531185626983642578e+00) (18, 1.70935004949569702148e-01) (19, -2.94188588857650756836e-01) (20, 7.19921588897705078125e-02) (21, 6.17032885551452636719e-01) (22, 6.30696341395378112793e-02) (23, 1.14027988910675048828e+00) (24, 1.86783063411712646484e+00) (25, -2.29608520865440368652e-01) (26, 1.40582829713821411133e-01) (27, 7.60171115398406982422e-01) (28, 2.06361651420593261719e-01) (29, -8.32905918359756469727e-02) (30, 4.45061057806015014648e-01) (31, 4.55365806818008422852e-01) (32, -2.22155332565307617188e+00) (33, 1.24534702301025390625e+00) (34, -3.65622311830520629883e-01) (35, 8.30886781215667724609e-01) (36, 5.24757385253906250000e-01) (37, 5.04477143287658691406e-01) (38, 1.45354712009429931641e+00) (39, 1.35024988651275634766e+00) (40, 2.03267544507980346680e-01) (41, 3.90986770391464233398e-01) (42, 1.26432299613952636719e-01) (43, -3.13512235879898071289e-02) (44, 1.33988690376281738281e+00) (45, 2.18513906002044677734e-01) (46, 2.57490706443786621094e+00) (47, 2.83163577318191528320e-01) (48, -2.75457680225372314453e-01) (49, 2.59542137384414672852e-01) (50, 4.82507288455963134766e-01) (51, 6.48533940315246582031e-01) (52, -3.47512453794479370117e-01) (53, 1.84918940067291259766e-02) (54, 8.84528458118438720703e-02) (55, -1.42122006416320800781e+00) (56, 7.54257142543792724609e-01) (57, -1.56821668148040771484e-01) (58, 1.19902687147259712219e-02) (59, 7.45041072368621826172e-01) (60, -2.78728753328323364258e-01) (61, 4.27725583314895629883e-01) (62, -2.80052334070205688477e-01) (63, 4.35411870479583740234e-01) (64, 1.45696079730987548828e+00) (65, -4.05167460441589355469e-01) (66, 2.14476548135280609131e-02) (67, 9.01141762733459472656e-01) (68, -4.21174645423889160156e-01) (69, 1.58679342269897460938e+00) (70, 1.09103178977966308594e+00) (71, -2.62134879827499389648e-01) (72, 1.93231314420700073242e-01) (73, -4.08481359481811523438e-01) (74, 1.29983112215995788574e-01) (75, -1.22740316390991210938e+00) (76, -3.48292410373687744141e-01) (77, -5.63735604286193847656e-01) (78, 2.06405520439147949219e-01) (18, -8.85275602340698242188e-02) (19, -1.18985819816589355469e+00) (20, 1.76221144199371337891e+00) (21, 3.15816730260848999023e-01) (22, -2.36242767423391342163e-02) (23, -8.47005009651184082031e-01) (24, -7.09020912647247314453e-01) (25, 7.03001677989959716797e-01) (26, 3.74541208148002624512e-02) (27, 4.65976148843765258789e-01) (28, -5.22344589233398437500e-01) (29, 2.36425042152404785156e+00) (30, 5.88897287845611572266e-01) (31, 8.09297204017639160156e-01) (32, 4.94100123643875122070e-01) (33, 4.22129064798355102539e-01) (34, 4.05820598825812339783e-03) (35, -6.23169541358947753906e-01) (36, -2.67568135261535644531e+00) (37, -1.98558056354522705078e+00) (38, -4.35884743928909301758e-01) (39, -6.26316547393798828125e-01) (40, 2.93223317712545394897e-02) (41, -9.38241481781005859375e-01) (42, -8.63157883286476135254e-02) (43, 1.06795817613601684570e-01) (44, -1.29473477602005004883e-01) (45, 1.79647654294967651367e-01) (46, 6.59599959850311279297e-01) (47, 3.04222017526626586914e-01) (48, 1.25176763534545898438e+00) (49, 5.39523780345916748047e-01) (50, 7.87226676940917968750e-01) (51, -9.33619514107704162598e-02) (52, -2.49993670731782913208e-02) (53, 1.75198670476675033569e-02) (54, -2.81423717737197875977e-01) (55, 7.12380707263946533203e-02) (56, -6.47666454315185546875e-02) (57, -4.50310915708541870117e-01) (58, -4.23278272151947021484e-01) (59, -2.98732072114944458008e-01) (60, 1.82517981529235839844e+00) (61, 1.64900124073028564453e+00) (62, -3.85327625274658203125e+00) (63, 1.02077126502990722656e+00) (64, 1.64758491516113281250e+00) (65, 1.92791438102722167969e+00) (66, 1.84876215457916259766e+00) (67, -3.84242050349712371826e-02) (68, 1.51021313667297363281e+00) (69, 1.26959669589996337891e+00) (70, -2.43821039795875549316e-01) (71, 3.72190445661544799805e-01) (72, -3.95751625299453735352e-01) (73, 4.73590612411499023438e-01) (74, -4.39982898533344268799e-02) (75, 1.23400700092315673828e+00) (76, -7.50049650669097900391e-02) (77, -6.82408392429351806641e-01) (78, 5.70347368717193603516e-01)
input_names='AS_2' 'AS_3' 'BETAE' 'DELTA_LOC' 'KAPPA_LOC' 'Q_LOC' 'Q_PRIME_LOC' 'RLNS_1' 'RLNS_2' 'RLNS_3' 'RLTS_1' 'RLTS_2' 'RMAJ_LOC' 'RMIN_LOC' 'S_KAPPA_LOC' 'TAUS_2' 'XNUE'
output_names='OUT_ENERGY_FLUX_1' 'OUT_ENERGY_FLUX_i' 'OUT_PARTICLE_FLUX_1' 'OUT_STRESS_TOR_i' 'OUT_exp_ENERGY_FLUX_1' 'OUT_exp_ENERGY_FLUX_i' 'OUT_exp_PARTICLE_FLUX_1' 'OUT_exp_STRESS_TOR_i'
norm_output=0.0 0.0 0.0 0.0 0.0 0.0 0.0 0.0 0.0 0.0 0.0 0.0 0.0 0.0 0.0 0.0 0.0 0.0 0.0 0.0 0.0 0.0 0.0 0.0 0.0 0.0 0.0 0.0 0.0 0.0 0.0 0.0 0.0 0.0 0.0 0.0 0.0 0.0 0.0 0.0 0.0 0.0 0.0 0.0 0.0 0.0 0.0 0.0 0.0 0.0 0.0 0.0 0.0 0.0 0.0 0.0 0.0 0.0 0.0 0.0 0.0 0.0 0.0 0.0 0.0 0.0 0.0 0.0 0.0 0.0 0.0 0.0 0.0 0.0 0.0 0.0 0.0 0.0 0.0 0.0 0.0 0.0 0.0 0.0 0.0 0.0 0.0 0.0 0.0 0.0 0.0 0.0 0.0 0.0 0.0 0.0 0.0 0.0 0.0 0.0 0.0 0.0 0.0 0.0 0.0 0.0 0.0 0.0 0.0 0.0 0.0 0.0 0.0 0.0 0.0 0.0 0.0 0.0 0.0 0.0 0.0 0.0 0.0 0.0 0.0 0.0 0.0 0.0 0.0 0.0 0.0 0.0 0.0 0.0 0.0 0.0
MSE= 0.0390664450824