FANN_FLO_2.1
num_layers=3
learning_rate=0.700000
connection_rate=1.000000
network_type=0
learning_momentum=0.000000
training_algorithm=2
train_error_function=0
train_stop_function=0
cascade_output_change_fraction=0.010000
quickprop_decay=0.057601
quickprop_mu=1.750000
rprop_increase_factor=1.200000
rprop_decrease_factor=0.500000
rprop_delta_min=0.000000
rprop_delta_max=50.000000
rprop_delta_zero=0.100000
cascade_output_stagnation_epochs=12
cascade_candidate_change_fraction=0.010000
cascade_candidate_stagnation_epochs=12
cascade_max_out_epochs=150
cascade_min_out_epochs=50
cascade_max_cand_epochs=150
cascade_min_cand_epochs=50
cascade_num_candidate_groups=2
bit_fail_limit=3.49999994039535522461e-01
cascade_candidate_limit=1.00000000000000000000e+03
cascade_weight_multiplier=4.00000005960464477539e-01
cascade_activation_functions_count=10
cascade_activation_functions=3 5 7 8 10 11 14 15 16 17
cascade_activation_steepnesses_count=4
cascade_activation_steepnesses=2.50000000000000000000e-01 5.00000000000000000000e-01 7.50000000000000000000e-01 1.00000000000000000000e+00
layer_sizes=18 61 9
scale_included=1
scale_mean_in=0.754804 0.035201 0.003328 0.074319 1.391501 1.824100 10.871034 0.753892 0.962920 0.160403 2.154221 2.022697 3.043001 0.605491 0.139075 1.118977 0.063198
scale_deviation_in=0.033149 0.007197 0.001131 0.018020 0.053109 0.302778 3.589276 0.154937 0.188656 0.396111 0.342198 0.438397 0.017503 0.052244 0.073936 0.112121 0.022832
scale_new_min_in=-1.000000 -1.000000 -1.000000 -1.000000 -1.000000 -1.000000 -1.000000 -1.000000 -1.000000 -1.000000 -1.000000 -1.000000 -1.000000 -1.000000 -1.000000 -1.000000 -1.000000
scale_factor_in=1.000000 1.000000 1.000000 1.000000 1.000000 1.000000 1.000000 1.000000 1.000000 1.000000 1.000000 1.000000 1.000000 1.000000 1.000000 1.000000 1.000000
scale_mean_out=2.687472 5.407789 0.333561 -0.009275 0.565720 1.445093 0.068807 0.599715
scale_deviation_out=1.970079 5.031645 0.263407 0.046946 0.561185 0.813657 0.029430 0.379741
scale_new_min_out=-1.000000 -1.000000 -1.000000 -1.000000 -1.000000 -1.000000 -1.000000 -1.000000
scale_factor_out=1.000000 1.000000 1.000000 1.000000 1.000000 1.000000 1.000000 1.000000
neurons (num_inputs, activation_function, activation_steepness)=(0, 0, 0.00000000000000000000e+00) (0, 0, 0.00000000000000000000e+00) (0, 0, 0.00000000000000000000e+00) (0, 0, 0.00000000000000000000e+00) (0, 0, 0.00000000000000000000e+00) (0, 0, 0.00000000000000000000e+00) (0, 0, 0.00000000000000000000e+00) (0, 0, 0.00000000000000000000e+00) (0, 0, 0.00000000000000000000e+00) (0, 0, 0.00000000000000000000e+00) (0, 0, 0.00000000000000000000e+00) (0, 0, 0.00000000000000000000e+00) (0, 0, 0.00000000000000000000e+00) (0, 0, 0.00000000000000000000e+00) (0, 0, 0.00000000000000000000e+00) (0, 0, 0.00000000000000000000e+00) (0, 0, 0.00000000000000000000e+00) (0, 0, 0.00000000000000000000e+00) (18, 5, 5.00000000000000000000e-01) (18, 5, 5.00000000000000000000e-01) (18, 5, 5.00000000000000000000e-01) (18, 5, 5.00000000000000000000e-01) (18, 5, 5.00000000000000000000e-01) (18, 5, 5.00000000000000000000e-01) (18, 5, 5.00000000000000000000e-01) (18, 5, 5.00000000000000000000e-01) (18, 5, 5.00000000000000000000e-01) (18, 5, 5.00000000000000000000e-01) (18, 5, 5.00000000000000000000e-01) (18, 5, 5.00000000000000000000e-01) (18, 5, 5.00000000000000000000e-01) (18, 5, 5.00000000000000000000e-01) (18, 5, 5.00000000000000000000e-01) (18, 5, 5.00000000000000000000e-01) (18, 5, 5.00000000000000000000e-01) (18, 5, 5.00000000000000000000e-01) (18, 5, 5.00000000000000000000e-01) (18, 5, 5.00000000000000000000e-01) (18, 5, 5.00000000000000000000e-01) (18, 5, 5.00000000000000000000e-01) (18, 5, 5.00000000000000000000e-01) (18, 5, 5.00000000000000000000e-01) (18, 5, 5.00000000000000000000e-01) (18, 5, 5.00000000000000000000e-01) (18, 5, 5.00000000000000000000e-01) (18, 5, 5.00000000000000000000e-01) (18, 5, 5.00000000000000000000e-01) (18, 5, 5.00000000000000000000e-01) (18, 5, 5.00000000000000000000e-01) (18, 5, 5.00000000000000000000e-01) (18, 5, 5.00000000000000000000e-01) (18, 5, 5.00000000000000000000e-01) (18, 5, 5.00000000000000000000e-01) (18, 5, 5.00000000000000000000e-01) (18, 5, 5.00000000000000000000e-01) (18, 5, 5.00000000000000000000e-01) (18, 5, 5.00000000000000000000e-01) (18, 5, 5.00000000000000000000e-01) (18, 5, 5.00000000000000000000e-01) (18, 5, 5.00000000000000000000e-01) (18, 5, 5.00000000000000000000e-01) (18, 5, 5.00000000000000000000e-01) (18, 5, 5.00000000000000000000e-01) (18, 5, 5.00000000000000000000e-01) (18, 5, 5.00000000000000000000e-01) (18, 5, 5.00000000000000000000e-01) (18, 5, 5.00000000000000000000e-01) (18, 5, 5.00000000000000000000e-01) (18, 5, 5.00000000000000000000e-01) (18, 5, 5.00000000000000000000e-01) (18, 5, 5.00000000000000000000e-01) (18, 5, 5.00000000000000000000e-01) (18, 5, 5.00000000000000000000e-01) (18, 5, 5.00000000000000000000e-01) (18, 5, 5.00000000000000000000e-01) (18, 5, 5.00000000000000000000e-01) (18, 5, 5.00000000000000000000e-01) (18, 5, 5.00000000000000000000e-01) (0, 5, 0.00000000000000000000e+00) (61, 0, 5.00000000000000000000e-01) (61, 0, 5.00000000000000000000e-01) (61, 0, 5.00000000000000000000e-01) (61, 0, 5.00000000000000000000e-01) (61, 0, 5.00000000000000000000e-01) (61, 0, 5.00000000000000000000e-01) (61, 0, 5.00000000000000000000e-01) (61, 0, 5.00000000000000000000e-01) (0, 0, 0.00000000000000000000e+00)
connections (connected_to_neuron, weight)=(0, -2.03190818428993225098e-01) (1, 2.58812665939331054688e-01) (2, 9.88034531474113464355e-02) (3, -1.46727219223976135254e-01) (4, -3.01932990550994873047e-02) (5, -6.84975206851959228516e-01) (6, -3.07577610015869140625e-01) (7, 7.94784538447856903076e-03) (8, 4.62268628180027008057e-02) (9, 2.29252099990844726562e-01) (10, -1.02330418303608894348e-02) (11, -1.22368490695953369141e+00) (12, -3.76366451382637023926e-02) (13, -5.09445145726203918457e-02) (14, -4.76568728685379028320e-01) (15, 1.48106142878532409668e-01) (16, 2.97643154859542846680e-01) (17, -5.16917884349822998047e-01) (0, -5.73148608207702636719e-01) (1, -8.65148782730102539062e-01) (2, -4.39172595739364624023e-01) (3, -3.09831410646438598633e-01) (4, 1.29523038864135742188e-01) (5, 2.87353932857513427734e-01) (6, 3.17329168319702148438e-01) (7, -2.19926699995994567871e-01) (8, 3.01457852125167846680e-01) (9, 3.01887989044189453125e-01) (10, -5.14865741133689880371e-02) (11, 2.58862882852554321289e-01) (12, -1.48008793592453002930e-01) (13, -3.43044340610504150391e-01) (14, -2.51580864191055297852e-01) (15, 2.13378652930259704590e-01) (16, -8.19608122110366821289e-02) (17, 5.17298758029937744141e-01) (0, 5.85891455411911010742e-02) (1, -2.58733898401260375977e-01) (2, -2.58830606937408447266e-01) (3, 6.75619482994079589844e-01) (4, 3.87393057346343994141e-01) (5, 6.31996810436248779297e-01) (6, 3.87867867946624755859e-01) (7, 4.72141280770301818848e-02) (8, -6.35287389159202575684e-02) (9, -9.28934514522552490234e-02) (10, 2.44862988591194152832e-01) (11, -5.41785657405853271484e-02) (12, -2.05979302525520324707e-01) (13, 3.40602844953536987305e-01) (14, -3.80237586796283721924e-03) (15, -3.23408663272857666016e-01) (16, 4.12303581833839416504e-03) (17, 3.06755244731903076172e-01) (0, -2.06508815288543701172e-01) (1, 1.34301304817199707031e-01) (2, -5.39927110075950622559e-02) (3, 4.12270337343215942383e-01) (4, 4.00915965437889099121e-02) (5, -2.51023769378662109375e-01) (6, 2.51778334379196166992e-01) (7, 2.10425317287445068359e-01) (8, 4.61577670648694038391e-03) (9, 4.80852454900741577148e-01) (10, 2.82799601554870605469e-01) (11, -1.03834426403045654297e+00) (12, 5.17477154731750488281e-01) (13, -1.94244217127561569214e-02) (14, -2.59012818336486816406e-01) (15, 3.56529980897903442383e-01) (16, 3.25435370206832885742e-01) (17, -3.06344836950302124023e-01) (0, 1.52703940868377685547e-01) (1, -4.02215272188186645508e-02) (2, -1.29449650645256042480e-01) (3, -4.60734181106090545654e-02) (4, -5.03787636756896972656e-01) (5, -2.35395133495330810547e-01) (6, 1.03491020202636718750e+00) (7, -5.01438826322555541992e-02) (8, 2.29208394885063171387e-01) (9, 1.15400135517120361328e-01) (10, -1.11369742080569267273e-02) (11, 2.42957368493080139160e-01) (12, 6.32177740335464477539e-02) (13, 5.17510712146759033203e-01) (14, 1.65864139795303344727e-01) (15, 1.12069748342037200928e-01) (16, 4.92415055632591247559e-02) (17, 6.10026657581329345703e-01) (0, -6.93644940853118896484e-01) (1, -1.02832317352294921875e+00) (2, 5.09230911731719970703e-01) (3, 1.79579019546508789062e-01) (4, 7.12958723306655883789e-02) (5, 1.12804271280765533447e-01) (6, -1.06730532646179199219e+00) (7, 4.80859518051147460938e-01) (8, -2.58692681789398193359e-01) (9, 5.55830821394920349121e-02) (10, 3.12468677759170532227e-01) (11, -1.44840916618704795837e-02) (12, 7.01195523142814636230e-02) (13, -2.58563488721847534180e-01) (14, 5.10394394397735595703e-01) (15, -1.59443870186805725098e-01) (16, 1.28984242677688598633e-01) (17, 1.23945760726928710938e+00) (0, 7.06815198063850402832e-02) (1, 2.89308249950408935547e-01) (2, 3.95472683012485504150e-02) (3, 5.17510712146759033203e-01) (4, 8.33414867520332336426e-02) (5, 5.14484405517578125000e-01) (6, -1.03133344650268554688e+00) (7, -2.03843176364898681641e-01) (8, -9.34706553816795349121e-02) (9, 1.34171694517135620117e-01) (10, 4.80050966143608093262e-02) (11, 1.27574473619461059570e-01) (12, -2.59639769792556762695e-01) (13, 5.75437322258949279785e-02) (14, 7.70668461918830871582e-02) (15, -5.24362981319427490234e-01) (16, -3.59936431050300598145e-02) (17, -8.17591026425361633301e-02) (0, 6.20005559921264648438e+00) (1, 2.67229533195495605469e+00) (2, 9.45448935031890869141e-01) (3, -4.52237701416015625000e+00) (4, 8.55148410797119140625e+00) (5, -4.76021766662597656250e+00) (6, -1.17012590169906616211e-01) (7, 2.87590622901916503906e-01) (8, 3.27727556228637695312e-01) (9, -9.28817503154277801514e-03) (10, -1.86364620923995971680e-01) (11, 1.60674774646759033203e+00) (12, 1.14631995558738708496e-01) (13, 1.87062275409698486328e+00) (14, 3.11786007881164550781e+00) (15, -2.47343921661376953125e+00) (16, 1.22122511267662048340e-01) (17, 3.85957813262939453125e+00) (0, 2.09803059697151184082e-01) (1, 5.17812788486480712891e-01) (2, -3.01625460386276245117e-01) (3, 1.13728070259094238281e+00) (4, -1.30078613758087158203e+00) (5, -2.06142377853393554688e+00) (6, 1.18488281965255737305e-01) (7, 4.60906594991683959961e-01) (8, 1.03413295745849609375e+00) (9, 3.24626713991165161133e-02) (10, -5.05587942898273468018e-02) (11, 1.29082787036895751953e+00) (12, 3.14374379813671112061e-02) (13, -6.91656589508056640625e+00) (14, 1.83571010828018188477e-01) (15, 3.87493580579757690430e-01) (16, 1.57079584896564483643e-02) (17, 7.46043264865875244141e-01) (0, 1.11025013029575347900e-01) (1, 3.18167805671691894531e-01) (2, 1.18497163057327270508e-01) (3, -4.11149084568023681641e-01) (4, 7.16143995523452758789e-02) (5, -4.91466233506798744202e-03) (6, 2.58575350046157836914e-01) (7, -2.02662974596023559570e-01) (8, -5.92693507671356201172e-01) (9, -6.88356310129165649414e-02) (10, 1.71419292688369750977e-01) (11, -2.84896790981292724609e-01) (12, -3.73719334602355957031e-02) (13, -4.12366420030593872070e-01) (14, 2.58084386587142944336e-01) (15, -1.28475666046142578125e-01) (16, 1.26319706439971923828e-01) (17, 2.06512951850891113281e+00) (0, 1.16988122463226318359e-01) (1, 3.10570031404495239258e-01) (2, 5.18194258213043212891e-01) (3, -5.02770841121673583984e-01) (4, 1.00537598133087158203e-01) (5, 8.64934086799621582031e-01) (6, -4.03119102120399475098e-02) (7, 5.11274576187133789062e-01) (8, 2.79108226299285888672e-01) (9, 1.91107168793678283691e-01) (10, 2.16323822736740112305e-01) (11, 6.41118466854095458984e-01) (12, -9.47774574160575866699e-02) (13, -2.44600221514701843262e-01) (14, 1.27117754891514778137e-02) (15, 1.17828719317913055420e-01) (16, 1.28363266587257385254e-01) (17, 9.57474172115325927734e-01) (0, 5.17510712146759033203e-01) (1, 3.16730380058288574219e-01) (2, 1.31237193942070007324e-01) (3, -1.71592816710472106934e-01) (4, 2.23707765340805053711e-01) (5, -5.54351136088371276855e-02) (6, 2.58395433425903320312e-01) (7, -2.58259147405624389648e-01) (8, 2.61652231216430664062e-01) (9, -8.50007031112909317017e-03) (10, 3.22893969714641571045e-02) (11, 2.42334436625242233276e-02) (12, -1.29471808671951293945e-01) (13, 5.17462730407714843750e-01) (14, 5.10714650154113769531e-01) (15, -1.52764901518821716309e-01) (16, 3.92721652984619140625e-01) (17, 1.03458988666534423828e+00) (0, 1.54498547315597534180e-01) (1, 7.93775618076324462891e-02) (2, 5.17486572265625000000e-01) (3, 1.75763785839080810547e-01) (4, 2.25792422890663146973e-01) (5, 2.58755356073379516602e-01) (6, 6.17052197456359863281e-01) (7, -2.82487124204635620117e-02) (8, 1.73285648226737976074e-01) (9, 1.10759124159812927246e-01) (10, 1.46829947829246520996e-01) (11, 2.13884890079498291016e-01) (12, -6.84276893734931945801e-02) (13, 5.15129566192626953125e-01) (14, -3.09015084058046340942e-02) (15, -1.30861550569534301758e-01) (16, -2.58724242448806762695e-01) (17, 6.42438888549804687500e-01) (0, 5.17462909221649169922e-01) (1, 5.14089286327362060547e-01) (2, 5.12632191181182861328e-01) (3, -7.79139459133148193359e-01) (4, -2.69188731908798217773e-01) (5, -5.13642191886901855469e-01) (6, 1.42170384526252746582e-01) (7, 6.21783554553985595703e-01) (8, 2.02246606349945068359e-01) (9, 1.62631347775459289551e-01) (10, -5.65637797117233276367e-02) (11, 1.20111070573329925537e-01) (12, -1.21220454573631286621e-01) (13, 3.01863938570022583008e-01) (14, 3.54211956262588500977e-01) (15, 1.55515953898429870605e-01) (16, 6.86365187168121337891e-01) (17, 2.02219381928443908691e-01) (0, -2.23260194063186645508e-01) (1, -1.05860638618469238281e+00) (2, 2.16617941856384277344e+00) (3, 1.33768036961555480957e-01) (4, 3.82299095392227172852e-01) (5, 6.32280170917510986328e-01) (6, 5.17510712146759033203e-01) (7, 7.52786099910736083984e-02) (8, -2.15855300426483154297e-01) (9, -2.58690953254699707031e-01) (10, 2.29231864213943481445e-01) (11, -2.30825036764144897461e-01) (12, 2.00761064887046813965e-01) (13, 5.10444045066833496094e-01) (14, 3.40188220143318176270e-02) (15, 2.57689386606216430664e-01) (16, -4.22654412686824798584e-02) (17, -4.67811554670333862305e-01) (0, 1.96689128875732421875e-01) (1, -1.21190004050731658936e-01) (2, -5.16086280345916748047e-01) (3, 5.13728499412536621094e-01) (4, 9.18616652488708496094e-02) (5, -8.15708264708518981934e-02) (6, -2.03580379486083984375e+00) (7, -2.38419368863105773926e-01) (8, 1.30604967474937438965e-01) (9, 1.63197010755538940430e-01) (10, -2.03212052583694458008e-01) (11, 9.01778489351272583008e-02) (12, 1.21691480278968811035e-01) (13, -1.67808786034584045410e-01) (14, 2.75379687547683715820e-01) (15, 9.71974954009056091309e-02) (16, 2.56403565406799316406e-01) (17, -6.76874697208404541016e-01) (0, 2.58920758962631225586e-01) (1, -4.01689767837524414062e-01) (2, 1.03378951549530029297e+00) (3, -4.72095496952533721924e-02) (4, -6.16737343370914459229e-02) (5, -3.43819968402385711670e-02) (6, 1.03455388545989990234e+00) (7, -2.04024165868759155273e-01) (8, -2.58692681789398193359e-01) (9, -3.51061224937438964844e-02) (10, 1.50610422715544700623e-02) (11, -6.35716244578361511230e-02) (12, -1.27932786941528320312e-01) (13, 1.30494728684425354004e-01) (14, -7.38780677318572998047e-01) (15, 4.28839564323425292969e-01) (16, 2.21953257918357849121e-01) (17, 4.61059063673019409180e-01) (0, -1.02361671626567840576e-01) (1, 3.05795371532440185547e-01) (2, -4.73718374967575073242e-01) (3, -1.73305764794349670410e-01) (4, 7.26063251495361328125e-02) (5, -7.06143006682395935059e-02) (6, 3.25350970029830932617e-01) (7, 1.88703969120979309082e-01) (8, -2.29184538125991821289e-01) (9, -6.57375454902648925781e-02) (10, 3.02823986858129501343e-02) (11, 1.27090319991111755371e-01) (12, 1.59909576177597045898e-02) (13, 5.20120561122894287109e-01) (14, 2.74056524038314819336e-01) (15, -1.20404407382011413574e-01) (16, 3.99685949087142944336e-01) (17, -4.01653736829757690430e-01) (0, 2.21982598304748535156e-01) (1, 1.89424917101860046387e-01) (2, 9.74012017250061035156e-02) (3, -6.28258645534515380859e-01) (4, -2.29343846440315246582e-01) (5, -4.73245918750762939453e-01) (6, 8.56375813484191894531e-01) (7, -2.22420915961265563965e-01) (8, 3.09103161096572875977e-01) (9, 1.21435463428497314453e-01) (10, 3.42098809778690338135e-02) (11, 1.08803421258926391602e-01) (12, 1.83026894927024841309e-01) (13, 6.59145534038543701172e-01) (14, 1.28888770937919616699e-01) (15, 3.63423116505146026611e-02) (16, 4.49375025928020477295e-02) (17, 1.73436737060546875000e+00) (0, -6.56153038144111633301e-02) (1, 2.10932623594999313354e-02) (2, -5.40394671261310577393e-02) (3, 1.02247166633605957031e+00) (4, 3.11966896057128906250e-01) (5, 2.58428066968917846680e-01) (6, -7.21455991268157958984e-01) (7, -1.28871574997901916504e-01) (8, -4.46864962577819824219e-02) (9, -4.73528206348419189453e-02) (10, 1.04211300611495971680e-01) (11, 2.95226037502288818359e-01) (12, -6.63289509247988462448e-04) (13, 1.06710111722350120544e-02) (14, -4.52438974753022193909e-03) (15, -3.48489619791507720947e-02) (16, -9.95162059552967548370e-04) (17, 1.37769079208374023438e+00) (0, -4.05631989240646362305e-01) (1, -5.06122291088104248047e-01) (2, 5.07067859172821044922e-01) (3, 3.41508202254772186279e-02) (4, 2.91586339473724365234e-01) (5, 5.15444278717041015625e-01) (6, 1.94672599434852600098e-01) (7, 1.30273163318634033203e-01) (8, -4.14814390242099761963e-02) (9, -1.29435628652572631836e-01) (10, -2.28916052728891372681e-02) (11, -1.43365804105997085571e-02) (12, -1.41613483428955078125e-01) (13, -3.04562747478485107422e-01) (14, -1.32512943819165229797e-02) (15, 2.83856511116027832031e-01) (16, -5.07277488708496093750e-01) (17, -1.03473401069641113281e+00) (0, 1.73628374934196472168e-01) (1, -1.88558802008628845215e-01) (2, 2.58129268884658813477e-01) (3, -5.10457098484039306641e-01) (4, -3.87211591005325317383e-01) (5, 5.17450749874114990234e-01) (6, -1.28565430641174316406e-01) (7, 2.74044156074523925781e-01) (8, 1.00879058241844177246e-01) (9, -2.52594560384750366211e-01) (10, -3.30368131399154663086e-01) (11, 1.47866040468215942383e-01) (12, 2.38520845770835876465e-01) (13, 5.15119612216949462891e-01) (14, 5.23246228694915771484e-01) (15, 2.83095929771661758423e-02) (16, 4.32468056678771972656e-01) (17, -1.02523910999298095703e+00) (0, -2.63140350580215454102e-01) (1, 5.37205077707767486572e-02) (2, 1.67916119098663330078e-01) (3, 1.29554018378257751465e-01) (4, 6.61036968231201171875e-02) (5, -5.80633468925952911377e-02) (6, 6.38898760080337524414e-02) (7, 2.83593624830245971680e-01) (8, -3.46306115388870239258e-01) (9, -1.86908598989248275757e-02) (10, 1.37263789772987365723e-01) (11, -1.03110313415527343750e+00) (12, 1.04090593755245208740e-01) (13, -2.50884562730789184570e-01) (14, 2.21565485000610351562e-01) (15, -1.92037194967269897461e-01) (16, -2.59586602449417114258e-01) (17, -6.61196768283843994141e-01) (0, 3.19548845291137695312e-02) (1, -6.50459676980972290039e-02) (2, 1.01702526211738586426e-01) (3, 1.80783569812774658203e-02) (4, -1.09014082700014114380e-02) (5, 5.93376636505126953125e-01) (6, 7.83711299300193786621e-02) (7, -1.94292470812797546387e-01) (8, 2.32698187232017517090e-01) (9, -3.95558476448059082031e-02) (10, 3.21069237543269991875e-04) (11, 5.17563521862030029297e-01) (12, -3.07199824601411819458e-02) (13, -7.43240416049957275391e-02) (14, -3.28736245632171630859e-01) (15, 5.65137155354022979736e-02) (16, -2.58598238229751586914e-01) (17, -1.03141987323760986328e+00) (0, 3.07281345129013061523e-01) (1, 6.88584804534912109375e-01) (2, 4.44150203838944435120e-03) (3, -1.85162782669067382812e-01) (4, -2.38937199115753173828e-01) (5, -2.24282607436180114746e-01) (6, 2.94731914997100830078e-01) (7, -1.12067632377147674561e-01) (8, -5.80268390476703643799e-02) (9, -3.45645565539598464966e-03) (10, -1.19116926193237304688e+00) (11, 3.85700225830078125000e-01) (12, 6.94629251956939697266e-02) (13, -4.12372022867202758789e-01) (14, 2.29691520333290100098e-01) (15, -5.17652668058872222900e-02) (16, 2.64817595481872558594e-01) (17, 2.86777019500732421875e+00) (0, 4.04127120971679687500e-01) (1, 1.46156698465347290039e-01) (2, 9.45055410265922546387e-02) (3, -6.42854869365692138672e-02) (4, -4.07507449388504028320e-01) (5, 3.33807468414306640625e-01) (6, -4.31486576795578002930e-01) (7, -1.24667445197701454163e-02) (8, -3.11523620039224624634e-02) (9, -3.18259954452514648438e-01) (10, 7.88666903972625732422e-02) (11, 1.35995037853717803955e-02) (12, -2.14872956275939941406e-02) (13, -9.86068099737167358398e-02) (14, 5.03955125808715820312e-01) (15, -1.82685151696205139160e-01) (16, 1.92911684513092041016e-01) (17, -3.63639220595359802246e-02) (0, -1.02691292762756347656e-01) (1, -3.20804342627525329590e-02) (2, 6.20403587818145751953e-01) (3, 2.58332550525665283203e-01) (4, 2.59336773306131362915e-02) (5, 5.00864207744598388672e-01) (6, 2.88604587316513061523e-01) (7, 4.28453981876373291016e-01) (8, -3.56646180152893066406e-01) (9, -2.55504190921783447266e-01) (10, 6.62764072418212890625e-01) (11, -1.74731373786926269531e-01) (12, -1.39027461409568786621e-01) (13, 5.89076243340969085693e-02) (14, 4.18444871902465820312e-01) (15, -1.89638182520866394043e-01) (16, 5.17450749874114990234e-01) (17, 3.94150644540786743164e-01) (0, 1.25285947322845458984e+00) (1, 1.05681216716766357422e+00) (2, 8.17476093769073486328e-01) (3, 1.12415701150894165039e-02) (4, 6.15686714649200439453e-01) (5, -2.14575305581092834473e-02) (6, 5.84503054618835449219e-01) (7, -1.61132737994194030762e-01) (8, 2.22642809152603149414e-01) (9, 2.35469430685043334961e-01) (10, -1.25584274530410766602e-01) (11, 3.79029840230941772461e-01) (12, 1.38294443488121032715e-01) (13, 5.17331898212432861328e-01) (14, -2.94786453247070312500e-01) (15, 5.21357774734497070312e-01) (16, 3.56048971414566040039e-01) (17, 5.38070760667324066162e-02) (0, 3.64685863256454467773e-01) (1, 1.23391551896929740906e-02) (2, 1.03272116184234619141e+00) (3, 4.63911741971969604492e-01) (4, 2.70163081586360931396e-03) (5, 2.59130716323852539062e-01) (6, -3.43737840652465820312e-01) (7, 2.57313430309295654297e-01) (8, 9.44360066205263137817e-03) (9, 1.80777490139007568359e-01) (10, -2.73582547903060913086e-01) (11, 6.74209058284759521484e-01) (12, -4.39872629940509796143e-02) (13, -2.58778005838394165039e-01) (14, -2.63256311416625976562e-01) (15, 5.17933905124664306641e-01) (16, 1.03346061706542968750e+00) (17, 8.40341627597808837891e-01) (0, -3.85055631399154663086e-01) (1, 1.54748722910881042480e-01) (2, 5.19998848438262939453e-01) (3, 3.68164658546447753906e-01) (4, 5.10191679000854492188e-01) (5, -4.60640221834182739258e-01) (6, 1.72191441059112548828e-01) (7, 5.96383884549140930176e-02) (8, -4.56194356083869934082e-02) (9, -6.00294694304466247559e-02) (10, -2.58486479520797729492e-01) (11, -4.31499630212783813477e-01) (12, 1.28004178404808044434e-01) (13, 2.06210330128669738770e-01) (14, 4.57923896610736846924e-02) (15, -3.44606414437294006348e-02) (16, -4.79829132556915283203e-01) (17, 2.16490983963012695312e-01) (0, -5.07759749889373779297e-01) (1, -5.16869723796844482422e-01) (2, -3.17043006420135498047e-01) (3, -1.31035223603248596191e-01) (4, -5.17078042030334472656e-01) (5, -5.16674458980560302734e-01) (6, -2.56322056055068969727e-01) (7, 1.22977286577224731445e-01) (8, 1.29020065069198608398e-01) (9, 2.01792344450950622559e-02) (10, -2.72062510251998901367e-01) (11, 1.12663559615612030029e-01) (12, 1.08769319951534271240e-01) (13, 1.17236405611038208008e-01) (14, 1.48018628358840942383e-01) (15, 5.17023742198944091797e-01) (16, 5.93884959816932678223e-02) (17, 5.17510712146759033203e-01) (0, 2.21956983208656311035e-01) (1, 1.80174782872200012207e-01) (2, 5.13908505439758300781e-01) (3, 2.21331402659416198730e-01) (4, 5.20230531692504882812e-01) (5, 1.03326177597045898438e+00) (6, -7.07974433898925781250e-01) (7, -1.80615141987800598145e-01) (8, 1.70048531144857406616e-02) (9, -1.66158154606819152832e-01) (10, -3.98066528141498565674e-02) (11, 8.21944236755371093750e-01) (12, -9.64030474424362182617e-02) (13, -5.14899253845214843750e-01) (14, 3.45427364110946655273e-01) (15, -6.76206797361373901367e-02) (16, -6.65507838129997253418e-02) (17, 3.66074770689010620117e-01) (0, -5.14587275683879852295e-02) (1, -6.22702002525329589844e-01) (2, -1.77757978439331054688e-01) (3, 4.91390794515609741211e-01) (4, 7.67741799354553222656e-02) (5, -2.26657092571258544922e-01) (6, -1.16062951087951660156e+00) (7, -1.23162068426609039307e-01) (8, 1.70244425535202026367e-01) (9, 1.64630845189094543457e-01) (10, -8.73608589172363281250e-02) (11, 2.55202829837799072266e-01) (12, 1.02824360132217407227e-01) (13, -2.61776536703109741211e-01) (14, -4.14094895124435424805e-01) (15, 1.52755249291658401489e-02) (16, 1.78795799612998962402e-01) (17, 7.61927291750907897949e-02) (0, 8.77100899815559387207e-02) (1, -4.42914962768554687500e-02) (2, 2.86226212978363037109e-01) (3, 6.30477190017700195312e-01) (4, 6.34687423706054687500e-01) (5, 5.17534732818603515625e-01) (6, -6.84972047805786132812e-01) (7, 1.50250375270843505859e-01) (8, -1.24420570209622383118e-02) (9, -1.51469279080629348755e-03) (10, 7.10734367370605468750e-01) (11, 1.23215109109878540039e-01) (12, -5.53420819342136383057e-02) (13, -3.02351683378219604492e-01) (14, 6.55537992715835571289e-02) (15, 3.59184034168720245361e-02) (16, -1.67997956275939941406e-01) (17, -5.20525395870208740234e-01) (0, 6.44933506846427917480e-02) (1, -5.16496717929840087891e-01) (2, -3.74986141920089721680e-01) (3, -1.33984595537185668945e-01) (4, 2.57354021072387695312e-01) (5, -3.00078749656677246094e-01) (6, 5.16934931278228759766e-01) (7, -2.20070704817771911621e-02) (8, -1.22157469391822814941e-01) (9, -9.72951203584671020508e-02) (10, 1.45436719059944152832e-01) (11, 1.57073706388473510742e-01) (12, -2.01543092727661132812e-01) (13, 5.17812788486480712891e-01) (14, 1.09714895486831665039e-01) (15, -3.98885235190391540527e-02) (16, -4.64901208877563476562e-01) (17, -3.23020815849304199219e-01) (0, -6.43872678279876708984e-01) (1, -1.01675164699554443359e+00) (2, -6.83649897575378417969e-01) (3, -2.75002181529998779297e-01) (4, -5.11089920997619628906e-01) (5, 6.84896945953369140625e-01) (6, -5.12320637702941894531e-01) (7, -6.69817104935646057129e-02) (8, 9.94039922952651977539e-02) (9, 1.02050408720970153809e-01) (10, -7.40776583552360534668e-02) (11, 1.24562429264187812805e-02) (12, 6.23388551175594329834e-02) (13, 3.34811329841613769531e-01) (14, -1.03364929556846618652e-01) (15, 3.07601869106292724609e-01) (16, 3.39084029197692871094e-01) (17, -2.06901860237121582031e+00) (0, -4.33744303882122039795e-02) (1, 3.03479373455047607422e-01) (2, 7.82089293003082275391e-01) (3, 1.30718439817428588867e-01) (4, 2.57859855890274047852e-01) (5, 4.48886722326278686523e-01) (6, 6.13169908523559570312e-01) (7, 1.27259328961372375488e-01) (8, -5.97500763833522796631e-02) (9, -1.40501290559768676758e-01) (10, 4.14958670735359191895e-02) (11, 2.05435737967491149902e-01) (12, 1.40718460083007812500e-01) (13, -4.40957337617874145508e-01) (14, 6.44135326147079467773e-02) (15, -6.82344734668731689453e-02) (16, -5.21732330322265625000e-01) (17, -1.30419448018074035645e-01) (0, 4.91043537855148315430e-01) (1, -5.73946274816989898682e-02) (2, 8.43410491943359375000e-01) (3, -5.07246971130371093750e-01) (4, 2.41314589977264404297e-01) (5, -7.89083689451217651367e-02) (6, 1.07536919414997100830e-01) (7, 3.22720706462860107422e-02) (8, 2.24662967957556247711e-03) (9, 1.46852791309356689453e-01) (10, 2.10310921072959899902e-01) (11, 5.92916965484619140625e-01) (12, -1.47395566105842590332e-01) (13, 1.32130652666091918945e-01) (14, -3.63221801817417144775e-02) (15, -4.15719985961914062500e-01) (16, -3.36405239067971706390e-03) (17, -2.48885363340377807617e-01) (0, -2.19598546624183654785e-01) (1, -3.37947934865951538086e-01) (2, 5.17540037631988525391e-01) (3, 2.56293237209320068359e-01) (4, 1.59662261605262756348e-01) (5, 5.13261497020721435547e-01) (6, -2.59063988924026489258e-01) (7, -6.67438060045242309570e-02) (8, 2.57427275180816650391e-01) (9, -1.61427095532417297363e-01) (10, -2.13915437459945678711e-01) (11, 5.70093631744384765625e-01) (12, -3.90378013253211975098e-03) (13, -2.25159619003534317017e-02) (14, 5.05218684673309326172e-01) (15, -7.77935236692428588867e-02) (16, 1.08616061508655548096e-01) (17, -2.56297081708908081055e-01) (0, 3.13870370388031005859e-01) (1, 4.32517170906066894531e-01) (2, -9.80562195181846618652e-02) (3, -2.19608768820762634277e-01) (4, 5.17320990562438964844e-01) (5, -7.69835710525512695312e-01) (6, 1.00261259078979492188e+00) (7, -1.71941872686147689819e-02) (8, 1.02203629910945892334e-01) (9, 1.63108762353658676147e-02) (10, -6.40024319291114807129e-02) (11, 9.15382876992225646973e-02) (12, 8.98970738053321838379e-02) (13, -5.48863485455513000488e-02) (14, -2.12659880518913269043e-01) (15, 2.50243008136749267578e-01) (16, 3.75589340925216674805e-01) (17, 8.97655963897705078125e-01) (0, -2.97670462168753147125e-03) (1, -1.79152667522430419922e-01) (2, 3.45546156167984008789e-01) (3, -2.42667317390441894531e-01) (4, 5.10141968727111816406e-01) (5, 5.05439817905426025391e-01) (6, 5.06890751421451568604e-02) (7, -1.26742601394653320312e-01) (8, -1.50578796863555908203e-01) (9, -9.86294001340866088867e-02) (10, 2.82799661159515380859e-01) (11, -2.02192306518554687500e-01) (12, -3.33065651357173919678e-02) (13, 1.29388600587844848633e-01) (14, -5.11303544044494628906e-01) (15, -1.17495834827423095703e-01) (16, 2.16069981455802917480e-01) (17, 2.57745653390884399414e-01) (0, 1.40602514147758483887e-01) (1, -2.58743494749069213867e-01) (2, -2.82512664794921875000e-01) (3, -2.58797585964202880859e-01) (4, -1.13632917404174804688e-01) (5, -1.03170752525329589844e+00) (6, 1.61298617720603942871e-01) (7, 3.12365561723709106445e-01) (8, -4.79953080415725708008e-01) (9, -1.42305061221122741699e-01) (10, -1.71318098902702331543e-01) (11, 2.58862882852554321289e-01) (12, -3.50960381329059600830e-02) (13, 1.01285621523857116699e-01) (14, -2.09340736269950866699e-01) (15, 2.55332827568054199219e-01) (16, -5.23495711386203765869e-02) (17, 4.71358001232147216797e-03) (0, 1.03370857238769531250e+00) (1, 2.54247951507568359375e+00) (2, 3.67302238941192626953e-01) (3, 5.20365774631500244141e-01) (4, -1.63267254829406738281e-01) (5, -9.06984731554985046387e-02) (6, 6.85158977285027503967e-03) (7, 6.03812411427497863770e-02) (8, -1.14272177219390869141e-01) (9, -1.74325868487358093262e-01) (10, -1.31839618086814880371e-01) (11, -4.41154330968856811523e-01) (12, -2.42593139410018920898e-03) (13, -4.68356132507324218750e-01) (14, -1.03722415864467620850e-01) (15, 1.35276064276695251465e-01) (16, 8.56526553630828857422e-01) (17, 2.31279477477073669434e-01) (0, 5.15926659107208251953e-01) (1, 8.08729231357574462891e-01) (2, 5.38348138332366943359e-01) (3, -2.25811198353767395020e-01) (4, 4.06246364116668701172e-01) (5, 1.69102534651756286621e-01) (6, -3.35035711526870727539e-01) (7, 8.41383755207061767578e-01) (8, -2.65643656253814697266e-01) (9, 1.49252876639366149902e-01) (10, -3.43126147985458374023e-01) (11, -1.13933607935905456543e-01) (12, 3.35503299720585346222e-03) (13, 3.36804538965225219727e-01) (14, 1.78217977285385131836e-01) (15, 3.43953400850296020508e-01) (16, 2.37393379211425781250e-01) (17, 1.03365314006805419922e+00) (0, 6.23934507369995117188e-01) (1, 5.13630926609039306641e-01) (2, 2.58608072996139526367e-01) (3, -4.43046271800994873047e-01) (4, 3.99111628532409667969e-01) (5, 5.32890809699892997742e-03) (6, -1.36436456814408302307e-02) (7, 1.50027886033058166504e-01) (8, 5.40168106555938720703e-01) (9, 4.42027710378170013428e-02) (10, -1.51762783527374267578e-01) (11, 6.83024764060974121094e-01) (12, 1.62985458970069885254e-01) (13, 2.57298558950424194336e-01) (14, 4.11528468132019042969e-01) (15, 5.07110655307769775391e-02) (16, 5.08665502071380615234e-01) (17, -1.87091970443725585938e+00) (0, 1.08162887394428253174e-01) (1, 1.49109035730361938477e-01) (2, 1.47727370262145996094e-01) (3, 5.17510712146759033203e-01) (4, 7.39894568920135498047e-01) (5, 7.57021605968475341797e-01) (6, -2.05179500579833984375e+00) (7, -2.58609056472778320312e-01) (8, 1.10799044370651245117e-01) (9, -1.37596400454640388489e-02) (10, -4.12792116403579711914e-02) (11, 3.44831258058547973633e-01) (12, -3.26684452593326568604e-02) (13, -7.34499692916870117188e-01) (14, 2.74403333663940429688e-01) (15, -9.17661935091018676758e-02) (16, -4.77266684174537658691e-03) (17, -5.63969552516937255859e-01) (0, 1.03180158138275146484e+00) (1, 1.27582478523254394531e+00) (2, 4.08853381872177124023e-01) (3, -1.49435207247734069824e-01) (4, 3.93719375133514404297e-01) (5, 5.15959024429321289062e-01) (6, 5.91889798641204833984e-01) (7, -1.85178712010383605957e-01) (8, 1.83019757270812988281e-01) (9, 1.40695050358772277832e-01) (10, 2.64214694499969482422e-01) (11, -5.22855632007122039795e-02) (12, -3.30429598689079284668e-02) (13, 1.88604980707168579102e-01) (14, 1.32753208279609680176e-01) (15, -4.39842008054256439209e-02) (16, 9.38569894060492515564e-04) (17, -1.06783342361450195312e+00) (0, -3.87896597385406494141e-01) (1, -7.13290214538574218750e-01) (2, -2.40010112524032592773e-01) (3, -4.93868961930274963379e-02) (4, 8.91868844628334045410e-02) (5, 5.67840456962585449219e-01) (6, 5.05087792873382568359e-01) (7, -4.87665757536888122559e-02) (8, 3.53226177394390106201e-02) (9, -1.72203462570905685425e-02) (10, 1.45439594984054565430e-01) (11, 2.04091891646385192871e-03) (12, 6.51835510507225990295e-03) (13, 5.17510712146759033203e-01) (14, -1.44962862133979797363e-01) (15, 6.46278187632560729980e-02) (16, 3.42912107706069946289e-01) (17, -2.06252169609069824219e+00) (0, 1.30477666854858398438e-01) (1, -5.16547143459320068359e-01) (2, -2.80993431806564331055e-01) (3, 1.60000592470169067383e-01) (4, 5.16934931278228759766e-01) (5, 1.76810510456562042236e-02) (6, 2.13886916637420654297e-01) (7, -7.08125680685043334961e-02) (8, 1.39342665672302246094e-01) (9, 1.16959355771541595459e-01) (10, -2.19969585537910461426e-01) (11, -6.35909855365753173828e-01) (12, 2.08691149950027465820e-01) (13, 5.13524174690246582031e-01) (14, 5.16045033931732177734e-01) (15, 3.94445359706878662109e-01) (16, -3.05289328098297119141e-01) (17, 2.17357724905014038086e-01) (0, 1.23800061643123626709e-01) (1, 2.58862882852554321289e-01) (2, 1.33470678701996803284e-02) (3, 4.82678741216659545898e-01) (4, 8.40277671813964843750e-02) (5, -7.17318132519721984863e-02) (6, -2.74902701377868652344e-01) (7, -3.20609271526336669922e-01) (8, 2.14249715209007263184e-01) (9, 1.83565154671669006348e-01) (10, 1.29005640745162963867e-01) (11, 9.75275114178657531738e-02) (12, -3.90995405614376068115e-02) (13, 1.03455388545989990234e+00) (14, -1.72633156180381774902e-01) (15, 2.55772471427917480469e-01) (16, 2.58862882852554321289e-01) (17, -5.14743149280548095703e-01) (0, 1.03461313247680664062e+00) (1, 6.74877911806106567383e-02) (2, 8.27546492218971252441e-02) (3, 1.20281241834163665771e-01) (4, 4.01505418121814727783e-02) (5, -3.32717120647430419922e-01) (6, 5.17582118511199951172e-01) (7, -2.58795082569122314453e-01) (8, 5.32129466533660888672e-01) (9, 2.11200356483459472656e-01) (10, 3.25853154063224792480e-02) (11, 5.17273128032684326172e-01) (12, -1.52716770768165588379e-01) (13, -1.07089936733245849609e-01) (14, -4.27658334374427795410e-02) (15, 1.01251864433288574219e+00) (16, 5.17510712146759033203e-01) (17, 1.03474998474121093750e+00) (0, -1.32265642285346984863e-01) (1, -6.79215863347053527832e-02) (2, -2.58790701627731323242e-01) (3, -2.58387237787246704102e-01) (4, -1.99844315648078918457e-01) (5, 4.51004326343536376953e-01) (6, 4.90177929401397705078e-01) (7, -1.92837372422218322754e-01) (8, 5.17215669155120849609e-01) (9, 1.39905393123626708984e-01) (10, 5.65247416496276855469e-01) (11, -5.88571541011333465576e-02) (12, -1.66072770953178405762e-02) (13, 1.25587061047554016113e-01) (14, -2.55520313978195190430e-01) (15, 1.46328389644622802734e-01) (16, -5.17746806144714355469e-01) (17, -5.85783720016479492188e-01) (0, 4.73380208015441894531e-01) (1, 4.20815527439117431641e-01) (2, 1.03397357463836669922e+00) (3, 2.92677223682403564453e-01) (4, 3.37357558310031890869e-02) (5, -6.51854753494262695312e-01) (6, 8.68100821971893310547e-01) (7, -6.94176927208900451660e-02) (8, 2.87637382745742797852e-01) (9, -4.19052168726921081543e-02) (10, -1.43768712878227233887e-01) (11, -1.18947893381118774414e-01) (12, 1.69442117214202880859e-01) (13, 1.31420418620109558105e-01) (14, 2.75090128183364868164e-01) (15, 3.93690258264541625977e-01) (16, -9.12025347352027893066e-02) (17, -1.29507258534431457520e-01) (0, -1.24182604253292083740e-01) (1, -7.17401206493377685547e-01) (2, -4.16298121213912963867e-01) (3, -8.56374561786651611328e-01) (4, -9.88432228565216064453e-01) (5, 2.28792503476142883301e-02) (6, 7.25798666477203369141e-01) (7, -2.53562629222869873047e-01) (8, 5.70103228092193603516e-02) (9, 3.04020881652832031250e-01) (10, -2.08118274807929992676e-01) (11, 5.29433786869049072266e-01) (12, 1.44213035702705383301e-01) (13, -3.45659255981445312500e+00) (14, 6.59019278828054666519e-04) (15, 3.20581525564193725586e-01) (16, 4.03780996799468994141e-01) (17, -6.31108731031417846680e-02) (0, 1.50686517357826232910e-01) (1, -7.64291733503341674805e-02) (2, -4.40063234418630599976e-03) (3, -4.67965275049209594727e-01) (4, -1.03045916557312011719e+00) (5, 1.11507736146450042725e-02) (6, 1.23069012165069580078e+00) (7, 1.05302549898624420166e-01) (8, -2.02088400721549987793e-01) (9, -1.49074479937553405762e-01) (10, -3.14267538487911224365e-02) (11, 1.31186097860336303711e-01) (12, 1.37678205966949462891e-01) (13, 1.03343403339385986328e+00) (14, 1.58606674522161483765e-02) (15, 1.27260476350784301758e-01) (16, 1.94648995995521545410e-01) (17, -1.39477610588073730469e+00) (0, -3.77870261669158935547e-01) (1, -4.80209261178970336914e-01) (2, 2.24822491407394409180e-01) (3, 1.71248748898506164551e-01) (4, 3.12197834253311157227e-01) (5, 2.58942574262619018555e-01) (6, 3.32984209060668945312e-01) (7, -2.57461696863174438477e-01) (8, 2.34234184026718139648e-01) (9, -2.40834206342697143555e-02) (10, 2.92215317487716674805e-01) (11, -1.31909940391778945923e-02) (12, 2.27460358291864395142e-02) (13, 4.36449438333511352539e-01) (14, -1.05597592890262603760e-01) (15, 1.31866604089736938477e-01) (16, -1.80996227264404296875e+00) (17, -1.02677750587463378906e+00) (0, 2.17329189181327819824e-01) (1, 9.63555335998535156250e-01) (2, 3.19194197654724121094e-02) (3, 2.53964304924011230469e-01) (4, 1.67250001430511474609e+00) (5, 3.75055938959121704102e-01) (6, -3.07593554258346557617e-01) (7, 3.60886286944150924683e-03) (8, 9.05385822989046573639e-04) (9, 2.58862882852554321289e-01) (10, 8.41808691620826721191e-02) (11, -5.10124415159225463867e-02) (12, -1.96714326739311218262e-02) (13, -1.25604063272476196289e-01) (14, -3.76550890505313873291e-02) (15, 9.02568027377128601074e-02) (16, 6.66535019874572753906e-01) (17, 2.28401973843574523926e-01) (0, -1.95828840136528015137e-01) (1, 5.22803783416748046875e-01) (2, -9.20490473508834838867e-02) (3, 1.24355055391788482666e-01) (4, 2.58416503667831420898e-01) (5, 1.30565539002418518066e-01) (6, -4.59735810756683349609e-01) (7, 2.57504045963287353516e-01) (8, 3.86436194181442260742e-01) (9, -1.57461345195770263672e-01) (10, -5.44906780123710632324e-02) (11, -2.75690704584121704102e-01) (12, 2.58862882852554321289e-01) (13, 1.11216597259044647217e-01) (14, -1.02169141173362731934e-01) (15, -5.59723198413848876953e-01) (16, -2.58743494749069213867e-01) (17, -5.93371331691741943359e-01) (0, -2.17952087521553039551e-01) (1, -9.22151058912277221680e-02) (2, -1.67777940630912780762e-01) (3, 3.98800671100616455078e-01) (4, -2.76487674564123153687e-02) (5, 2.58815377950668334961e-01) (6, -1.32387131452560424805e-01) (7, -2.13203698396682739258e-01) (8, 2.68081486225128173828e-01) (9, 5.64742982387542724609e-01) (10, 4.95510518550872802734e-01) (11, -5.17605721950531005859e-01) (12, -2.06764861941337585449e-01) (13, -2.57024377584457397461e-01) (14, 3.76466624438762664795e-02) (15, 3.17270085215568542480e-02) (16, 5.10978400707244873047e-01) (17, -1.44056856632232666016e+00) (0, -6.56764488667249679565e-04) (1, 6.00415349006652832031e-01) (2, 3.24629172682762145996e-02) (3, 1.58082529902458190918e-01) (4, -8.59434977173805236816e-02) (5, 1.25995665788650512695e-01) (6, -4.17000874876976013184e-02) (7, 4.85343486070632934570e-02) (8, 2.63718478381633758545e-02) (9, 1.49454856291413307190e-02) (10, 1.35668460279703140259e-02) (11, -2.58635371923446655273e-01) (12, -8.56148079037666320801e-02) (13, -1.09850950539112091064e-01) (14, -1.62070274353027343750e-01) (15, -1.33589059114456176758e-01) (16, 1.35744225978851318359e+00) (17, 1.33851885795593261719e+00) (18, -1.96333527565002441406e-02) (19, 5.17289161682128906250e-01) (20, 2.59198129177093505859e-01) (21, -4.79611188173294067383e-01) (22, -9.77580994367599487305e-03) (23, 4.10433828830718994141e-01) (24, -5.08434176445007324219e-01) (25, -2.19395961612462997437e-02) (26, 6.49410367012023925781e-01) (27, -2.22985520958900451660e-01) (28, -4.34169918298721313477e-01) (29, 3.52594077587127685547e-01) (30, -2.59811013936996459961e-01) (31, 5.66494703292846679688e-01) (32, -1.49154350161552429199e-01) (33, 7.27878138422966003418e-03) (34, 3.50876331329345703125e-01) (35, 1.48454859852790832520e-01) (36, 1.98113417625427246094e+00) (37, 1.39398837089538574219e+00) (38, -5.23579597473144531250e-01) (39, 5.17534732818603515625e-01) (40, 4.81704920530319213867e-01) (41, 2.19074189662933349609e-02) (42, -1.86270296573638916016e+00) (43, -6.69980287551879882812e-01) (44, 9.54020395874977111816e-02) (45, 2.61757940053939819336e-01) (46, 1.44740045070648193359e-01) (47, 3.10337483882904052734e-01) (48, 1.74966052174568176270e-01) (49, 5.17462730407714843750e-01) (50, 5.02082169055938720703e-01) (51, 1.49238491058349609375e+00) (52, 1.41562914848327636719e+00) (53, 2.05102618783712387085e-02) (54, -2.30389952659606933594e-01) (55, 7.19869090244174003601e-03) (56, 8.71567845344543457031e-01) (57, 9.37254786491394042969e-01) (58, -3.07125627994537353516e-01) (59, -1.31197586655616760254e-01) (60, 1.93535834550857543945e-01) (61, 2.11681798100471496582e-01) (62, 6.73415541648864746094e-01) (63, 6.40002191066741943359e-01) (64, 2.07013979554176330566e-01) (65, -1.44844129681587219238e-01) (66, -5.26428818702697753906e-01) (67, 5.12430012226104736328e-01) (68, -3.01340997219085693359e-01) (69, 9.31614756584167480469e-01) (70, -4.51415479183197021484e-01) (71, -6.63371011614799499512e-02) (72, -5.16216933727264404297e-01) (73, -1.07340447604656219482e-01) (74, -2.58077561855316162109e-01) (75, 2.95295357704162597656e-01) (76, 2.67943829298019409180e-01) (77, -5.16856491565704345703e-01) (78, 1.03408241271972656250e+00) (18, 2.12358832359313964844e-01) (19, 2.79726147651672363281e-01) (20, 6.49104863405227661133e-02) (21, -5.17449080944061279297e-01) (22, 3.09092640876770019531e-01) (23, 4.49548095464706420898e-01) (24, -5.17569303512573242188e-01) (25, -4.27136905491352081299e-02) (26, 1.06705188751220703125e+00) (27, -1.28428429365158081055e-01) (28, -9.84608829021453857422e-02) (29, 4.69131737947463989258e-01) (30, 2.57275879383087158203e-01) (31, 5.24777770042419433594e-01) (32, -1.29847720265388488770e-01) (33, 2.29897171258926391602e-01) (34, 1.49278610944747924805e-01) (35, 5.16826450824737548828e-01) (36, 1.30398559570312500000e+00) (37, 1.03368520736694335938e+00) (38, -1.04761755466461181641e+00) (39, 6.53677135705947875977e-02) (40, 2.20376539230346679688e+00) (41, 3.71005296707153320312e+00) (42, 2.02131178230047225952e-03) (43, -5.16196787357330322266e-01) (44, 3.98412980139255523682e-02) (45, 2.58824676275253295898e-01) (46, 1.29455849528312683105e-01) (47, 1.70588359236717224121e-01) (48, 1.08361788094043731689e-01) (49, 1.03491699695587158203e+00) (50, 3.43753337860107421875e-01) (51, 2.54854023456573486328e-01) (52, 1.58993887901306152344e+00) (53, 3.09286043047904968262e-02) (54, -1.12688648700714111328e+00) (55, 5.06910383701324462891e-02) (56, 1.66444873809814453125e+00) (57, 1.72503900527954101562e+00) (58, -4.48954850435256958008e-01) (59, 9.70275923609733581543e-02) (60, 3.92425477504730224609e-01) (61, 1.36107981204986572266e-01) (62, 9.15382444858551025391e-01) (63, 5.93764662742614746094e-01) (64, -2.31825307011604309082e-01) (65, 1.34310618042945861816e-01) (66, -6.56368136405944824219e-01) (67, 1.37250792980194091797e+00) (68, -2.75441318750381469727e-01) (69, 5.17363548278808593750e-01) (70, -5.11034250259399414062e-01) (71, -5.78176509588956832886e-03) (72, -2.04766541719436645508e-01) (73, 2.08340659737586975098e-02) (74, -1.81468233466148376465e-01) (75, 2.49328445643186569214e-02) (76, -5.17330884933471679688e-01) (77, -8.89989316463470458984e-01) (78, 1.03802585601806640625e+00) (18, -1.03683900833129882812e+00) (19, 2.59918183088302612305e-01) (20, 2.59016394615173339844e-01) (21, -8.12283515930175781250e-01) (22, 8.60779210925102233887e-02) (23, 1.34535148739814758301e-01) (24, -7.38681674003601074219e-01) (25, -1.23422332108020782471e-01) (26, 7.06806063652038574219e-01) (27, -3.77265596389770507812e+00) (28, -1.10618102550506591797e+00) (29, 2.38359883427619934082e-01) (30, -3.23929578065872192383e-01) (31, 1.30689036846160888672e+00) (32, -4.46678251028060913086e-02) (33, 3.89027148485183715820e-01) (34, 4.04490917921066284180e-01) (35, 1.67018160223960876465e-01) (36, 1.03362762928009033203e+00) (37, 2.13569140434265136719e+00) (38, 5.17788469791412353516e-01) (39, -5.27301073074340820312e-01) (40, 8.46808969974517822266e-01) (41, -7.81716182827949523926e-02) (42, 1.56343221664428710938e+00) (43, -1.21075868606567382812e+00) (44, 1.04699008166790008545e-01) (45, -1.08769528567790985107e-01) (46, -5.38032650947570800781e-01) (47, -1.61785268783569335938e+00) (48, 1.17917910218238830566e-01) (49, 1.03048884868621826172e+00) (50, 4.80209708213806152344e-01) (51, -1.44536447525024414062e+00) (52, 8.16529691219329833984e-01) (53, -2.64290541410446166992e-01) (54, 1.10109984874725341797e+00) (55, -2.42548286914825439453e-02) (56, 1.25940978527069091797e+00) (57, 1.45811033248901367188e+00) (58, 3.52162808179855346680e-01) (59, 5.13914644718170166016e-01) (60, -1.21366538107395172119e-01) (61, 2.02359795570373535156e+00) (62, 1.06843972206115722656e+00) (63, 1.00104284286499023438e+00) (64, -1.33526831865310668945e-01) (65, -1.67425528168678283691e-01) (66, -7.06538379192352294922e-01) (67, 5.17333030700683593750e-01) (68, -1.79713085293769836426e-01) (69, 5.67269802093505859375e-01) (70, -4.74554635584354400635e-02) (71, -3.06779056787490844727e-01) (72, -1.46071642637252807617e-01) (73, -5.76151430606842041016e-01) (74, -1.83313414454460144043e-01) (75, 7.60753631591796875000e-01) (76, 5.16177892684936523438e-01) (77, -3.49717795848846435547e-01) (78, 2.57643878459930419922e-01) (18, -2.07010245323181152344e+00) (19, -5.60099601745605468750e-01) (20, -2.58558034896850585938e-01) (21, 6.24646246433258056641e-02) (22, 6.92494010925292968750e+00) (23, 1.03477644920349121094e+00) (24, 1.03455388545989990234e+00) (25, 9.12601351737976074219e-02) (26, -1.29794329404830932617e-01) (27, 1.03430128097534179688e+00) (28, -1.03336262702941894531e+00) (29, -2.56990462541580200195e-01) (30, -4.14976119995117187500e+00) (31, 7.28601440787315368652e-02) (32, 5.16968071460723876953e-01) (33, -3.42492723464965820312e+00) (34, 1.89169391989707946777e-01) (35, -5.15740811824798583984e-01) (36, 2.06608676910400390625e+00) (37, -3.16559720039367675781e+00) (38, 1.35248577594757080078e+00) (39, -2.58563488721847534180e-01) (40, 8.65603238344192504883e-02) (41, -5.12207508087158203125e-01) (42, 1.09127901494503021240e-01) (43, -2.60909795761108398438e-01) (44, -8.88808537274599075317e-03) (45, -1.87613055109977722168e-01) (46, -5.13278484344482421875e-01) (47, 3.16035859286785125732e-02) (48, 1.82707533240318298340e-02) (49, -4.28548669815063476562e+00) (50, 4.04947325587272644043e-02) (51, 6.90357536077499389648e-02) (52, 2.52334147691726684570e-01) (53, 2.45871931314468383789e-01) (54, 4.18720513582229614258e-01) (55, 2.53091529011726379395e-02) (56, 1.32155433297157287598e-01) (57, -3.03608030080795288086e-01) (58, 1.03412711620330810547e+00) (59, 2.32504457235336303711e-02) (60, 3.03899526596069335938e-01) (61, 9.75557804107666015625e-01) (62, -7.35474452376365661621e-02) (63, 1.06961936950683593750e+01) (64, 5.17510712146759033203e-01) (65, -3.83218348026275634766e-01) (66, -2.71309226751327514648e-01) (67, 2.59026080369949340820e-01) (68, 1.43340781331062316895e-01) (69, 5.70781491696834564209e-02) (70, 2.57991969585418701172e-01) (71, -1.27594459056854248047e+00) (72, -2.97517490386962890625e+00) (73, -2.64775250107049942017e-02) (74, 5.17510712146759033203e-01) (75, -1.01317441463470458984e+00) (76, 6.12456738948822021484e-01) (77, 5.26047646999359130859e-01) (78, -5.15572905540466308594e-01) (18, -3.47130931913852691650e-02) (19, 3.40801095962524414062e+00) (20, 5.31172990798950195312e-01) (21, -1.21648930013179779053e-01) (22, 5.15245497226715087891e-01) (23, 5.39536714553833007812e-01) (24, -7.90694281458854675293e-02) (25, -3.83216664195060729980e-02) (26, -1.08869798481464385986e-01) (27, 7.44459331035614013672e-01) (28, 6.76334500312805175781e-02) (29, 1.03439307212829589844e+00) (30, -5.08261859416961669922e-01) (31, 8.41981992125511169434e-02) (32, -2.47045949101448059082e-01) (33, 6.76082909107208251953e-01) (34, 5.86008906364440917969e-01) (35, 1.03466117382049560547e+00) (36, 5.72032332420349121094e-01) (37, 2.95726120471954345703e-01) (38, -9.56065282225608825684e-02) (39, 3.55517007410526275635e-02) (40, 6.90664291381835937500e-01) (41, -1.46542161703109741211e-01) (42, -1.51546493172645568848e-01) (43, 2.10860872268676757812e+00) (44, 1.03464913368225097656e+00) (45, 6.22485280036926269531e-01) (46, -4.32016938924789428711e-01) (47, 2.89109754562377929688e+00) (48, 6.47143781185150146484e-01) (49, -1.44338339567184448242e-01) (50, 1.03586113452911376953e+00) (51, 1.02991677820682525635e-01) (52, 2.58816123008728027344e-01) (53, 4.13903760910034179688e+00) (54, 1.03349411487579345703e+00) (55, 5.17510712146759033203e-01) (56, 2.79751121997833251953e-01) (57, 2.50073164701461791992e-01) (58, 7.42686629295349121094e-01) (59, 5.17510712146759033203e-01) (60, -2.58743494749069213867e-01) (61, 2.94965773820877075195e-01) (62, 2.77332335710525512695e-01) (63, -1.89081832766532897949e-01) (64, -2.08988690376281738281e+00) (65, 1.42201459407806396484e+00) (66, -4.81169104576110839844e-01) (67, 1.36476933956146240234e+00) (68, -1.34654074907302856445e-01) (69, 4.08355742692947387695e-02) (70, -3.50188851356506347656e-01) (71, 1.03470027446746826172e+00) (72, 5.17058908939361572266e-01) (73, -7.17144966125488281250e-01) (74, 9.49593484401702880859e-02) (75, 4.55581784248352050781e-01) (76, -1.24592415988445281982e-01) (77, 1.03376066684722900391e+00) (78, 5.86217761039733886719e-01) (18, 4.06514778733253479004e-02) (19, 3.01787805557250976562e+00) (20, 1.03328049182891845703e+00) (21, 5.72894886136054992676e-03) (22, 2.65702158212661743164e-01) (23, 1.03062045574188232422e+00) (24, 2.34496578574180603027e-01) (25, -2.07012161612510681152e-01) (26, -2.73791570216417312622e-02) (27, 1.83073788881301879883e-01) (28, -6.52700895443558692932e-03) (29, 1.08850753307342529297e+00) (30, 6.95918053388595581055e-02) (31, -1.21365867555141448975e-01) (32, 3.05815011262893676758e-01) (33, 5.17450749874114990234e-01) (34, 5.04846990108489990234e-01) (35, 1.03464913368225097656e+00) (36, 3.27355831861495971680e-01) (37, 1.96057915687561035156e-01) (38, -1.03511428833007812500e+00) (39, -1.44245754927396774292e-02) (40, 3.51312279701232910156e-01) (41, -1.21000625193119049072e-01) (42, -5.17287075519561767578e-01) (43, 6.77436828613281250000e-01) (44, 5.82005083560943603516e-01) (45, -5.17246484756469726562e-01) (46, -7.85751521587371826172e-01) (47, 1.78809261322021484375e+00) (48, 1.03297317028045654297e+00) (49, -4.54873256385326385498e-02) (50, 1.02317082881927490234e+00) (51, 1.22573368251323699951e-01) (52, -2.58839368820190429688e-01) (53, 2.30340194702148437500e+00) (54, 4.29305732250213623047e-01) (55, 5.17843306064605712891e-01) (56, 1.00650489330291748047e+00) (57, 5.17126977443695068359e-01) (58, 1.11697697639465332031e+00) (59, 5.05116105079650878906e-01) (60, -1.36411666870117187500e-01) (61, 1.16110831499099731445e-01) (62, -2.58667767047882080078e-01) (63, -2.58813530206680297852e-01) (64, -2.60380744934082031250e+00) (65, 3.30660223960876464844e+00) (66, 5.21580390632152557373e-02) (67, 5.00970721244812011719e-01) (68, -5.18166609108448028564e-02) (69, 2.55483359098434448242e-01) (70, 2.60548830032348632812e-01) (71, 5.17598092555999755859e-01) (72, 5.17354190349578857422e-01) (73, -7.94740617275238037109e-01) (74, -1.95463389158248901367e-01) (75, 2.83542990684509277344e-01) (76, 2.58812665939331054688e-01) (77, 6.19316041469573974609e-01) (78, 5.09907901287078857422e-01) (18, -4.43451404571533203125e-02) (19, 3.11602520942687988281e+00) (20, 7.15153813362121582031e-01) (21, 2.39502027630805969238e-01) (22, 5.13494491577148437500e-01) (23, 6.44943118095397949219e-01) (24, 1.29850953817367553711e-01) (25, -2.71133959293365478516e-01) (26, -4.99219559133052825928e-02) (27, 5.24686872959136962891e-02) (28, -6.54755607247352600098e-02) (29, 1.30118525028228759766e+00) (30, -1.03770874440670013428e-01) (31, -1.90069273114204406738e-01) (32, 6.25599920749664306641e-01) (33, 5.17393350601196289062e-01) (34, 2.58575439453125000000e-01) (35, 5.16823768615722656250e-01) (36, 2.57905870676040649414e-01) (37, 3.79445463418960571289e-01) (38, -5.15345096588134765625e-01) (39, 5.12821435928344726562e-01) (40, 3.34340006113052368164e-01) (41, 2.12349724024534225464e-02) (42, -3.16039055585861206055e-01) (43, -2.57399648427963256836e-01) (44, 6.35338485240936279297e-01) (45, -5.88673472404479980469e-01) (46, -5.21998703479766845703e-01) (47, 1.11421608924865722656e+00) (48, 1.03413712978363037109e+00) (49, -9.88482981920242309570e-02) (50, 5.17006635665893554688e-01) (51, -7.14109241962432861328e-02) (52, -1.00418068468570709229e-01) (53, 2.06992053985595703125e+00) (54, 2.73201912641525268555e-01) (55, 4.12016093730926513672e-01) (56, 1.02766215801239013672e+00) (57, -6.34446963667869567871e-02) (58, 1.03393959999084472656e+00) (59, 4.80301171541213989258e-01) (60, -2.68291383981704711914e-01) (61, 6.21204525232315063477e-02) (62, -4.18167352676391601562e-01) (63, -3.18823866546154022217e-02) (64, -2.32232880592346191406e+00) (65, 2.79387688636779785156e+00) (66, 2.52339593134820461273e-03) (67, 5.17477154731750488281e-01) (68, -2.30221033096313476562e-01) (69, 2.59157240390777587891e-01) (70, 4.11962121725082397461e-01) (71, 1.90856337547302246094e-01) (72, 1.77973076701164245605e-01) (73, -7.36755132675170898438e-01) (74, -2.10070505738258361816e-01) (75, 1.42854347825050354004e-01) (76, 7.86416511982679367065e-03) (77, 1.01481986045837402344e+00) (78, 5.08608043193817138672e-01) (18, 5.16917347908020019531e-01) (19, 1.07255947589874267578e+00) (20, -2.75284379720687866211e-01) (21, -1.36636927723884582520e-01) (22, 2.75965899229049682617e-01) (23, -8.64422991871833801270e-02) (24, 6.22658729553222656250e-01) (25, 1.18104112148284912109e+00) (26, -3.16764622926712036133e-01) (27, -1.55809000134468078613e-01) (28, 1.93960264325141906738e-01) (29, -6.96925461292266845703e-01) (30, -9.30876791477203369141e-01) (31, 1.43053606152534484863e-01) (32, 1.26856756210327148438e+00) (33, -7.71136861294507980347e-03) (34, 9.37294866889715194702e-03) (35, 2.14686736464500427246e-01) (36, -5.37571191787719726562e-01) (37, 2.58804678916931152344e-01) (38, -2.33768776059150695801e-01) (39, -5.17155289649963378906e-01) (40, -2.58743494749069213867e-01) (41, -1.20998151600360870361e-01) (42, -1.68545171618461608887e-01) (43, 3.50291758775711059570e-01) (44, 1.50210604071617126465e-01) (45, 3.42697620391845703125e-01) (46, 5.87097108364105224609e-01) (47, -1.10042321681976318359e+00) (48, -2.24584326148033142090e-01) (49, -1.63107588887214660645e-01) (50, -2.63392180204391479492e-01) (51, -5.16108036041259765625e-01) (52, 1.02618813514709472656e+00) (53, -4.12226170301437377930e-01) (54, 3.94990056753158569336e-01) (55, -1.64926648139953613281e+00) (56, 1.25685200095176696777e-01) (57, 5.13786673545837402344e-01) (58, -7.49485552310943603516e-01) (59, 5.38660049438476562500e-01) (60, -2.81411242485046386719e+00) (61, -3.74990850687026977539e-01) (62, -1.59490834921598434448e-02) (63, 1.34967058897018432617e-01) (64, -7.14561939239501953125e-01) (65, 1.64455628395080566406e+00) (66, -3.31558436155319213867e-02) (67, 5.17534732818603515625e-01) (68, -1.03464210033416748047e+00) (69, -3.12589704990386962891e-01) (70, 1.40995430946350097656e+00) (71, 1.71621695160865783691e-01) (72, -1.36055454611778259277e-01) (73, 6.65953159332275390625e-01) (74, 2.25116163492202758789e-01) (75, 4.54247206449508666992e-01) (76, 3.61207276582717895508e-01) (77, 3.42545938491821289062e+00) (78, 4.55119162797927856445e-02)
input_names='AS_2' 'AS_3' 'BETAE' 'DELTA_LOC' 'KAPPA_LOC' 'Q_LOC' 'Q_PRIME_LOC' 'RLNS_1' 'RLNS_2' 'RLNS_3' 'RLTS_1' 'RLTS_2' 'RMAJ_LOC' 'RMIN_LOC' 'S_KAPPA_LOC' 'TAUS_2' 'XNUE'
output_names='OUT_ENERGY_FLUX_1' 'OUT_ENERGY_FLUX_i' 'OUT_PARTICLE_FLUX_1' 'OUT_STRESS_TOR_i' 'OUT_exp_ENERGY_FLUX_1' 'OUT_exp_ENERGY_FLUX_i' 'OUT_exp_PARTICLE_FLUX_1' 'OUT_exp_STRESS_TOR_i'
norm_output=0.0 0.0 0.0 0.0 0.0 0.0 0.0 0.0 0.0 0.0 0.0 0.0 0.0 0.0 0.0 0.0 0.0 0.0 0.0 0.0 0.0 0.0 0.0 0.0 0.0 0.0 0.0 0.0 0.0 0.0 0.0 0.0 0.0 0.0 0.0 0.0 0.0 0.0 0.0 0.0 0.0 0.0 0.0 0.0 0.0 0.0 0.0 0.0 0.0 0.0 0.0 0.0 0.0 0.0 0.0 0.0 0.0 0.0 0.0 0.0 0.0 0.0 0.0 0.0 0.0 0.0 0.0 0.0 0.0 0.0 0.0 0.0 0.0 0.0 0.0 0.0 0.0 0.0 0.0 0.0 0.0 0.0 0.0 0.0 0.0 0.0 0.0 0.0 0.0 0.0 0.0 0.0 0.0 0.0 0.0 0.0 0.0 0.0 0.0 0.0 0.0 0.0 0.0 0.0 0.0 0.0 0.0 0.0 0.0 0.0 0.0 0.0 0.0 0.0 0.0 0.0 0.0 0.0 0.0 0.0 0.0 0.0 0.0 0.0 0.0 0.0 0.0 0.0 0.0 0.0 0.0 0.0 0.0 0.0 0.0 0.0
MSE= 0.0406483337283