FANN_FLO_2.1
num_layers=5
learning_rate=0.700000
connection_rate=1.000000
network_type=0
learning_momentum=0.000000
training_algorithm=2
train_error_function=0
train_stop_function=0
cascade_output_change_fraction=0.010000
quickprop_decay=4934.406738
quickprop_mu=1.750000
rprop_increase_factor=1.200000
rprop_decrease_factor=0.500000
rprop_delta_min=0.000000
rprop_delta_max=50.000000
rprop_delta_zero=0.100000
cascade_output_stagnation_epochs=12
cascade_candidate_change_fraction=0.010000
cascade_candidate_stagnation_epochs=12
cascade_max_out_epochs=150
cascade_min_out_epochs=50
cascade_max_cand_epochs=150
cascade_min_cand_epochs=50
cascade_num_candidate_groups=2
bit_fail_limit=3.49999994039535522461e-01
cascade_candidate_limit=1.00000000000000000000e+03
cascade_weight_multiplier=4.00000005960464477539e-01
cascade_activation_functions_count=10
cascade_activation_functions=3 5 7 8 10 11 14 15 16 17
cascade_activation_steepnesses_count=4
cascade_activation_steepnesses=2.50000000000000000000e-01 5.00000000000000000000e-01 7.50000000000000000000e-01 1.00000000000000000000e+00
layer_sizes=7 31 31 31 7
scale_included=1
scale_mean_in=0.205159 3.495238 -0.452626 0.834762 1.500000 0.570932
scale_deviation_in=0.127240 1.639921 1.057494 0.112615 0.385244 0.191171
scale_new_min_in=-1.000000 -1.000000 -1.000000 -1.000000 -1.000000 -1.000000
scale_factor_in=1.000000 1.000000 1.000000 1.000000 1.000000 1.000000
scale_mean_out=0.386420 0.569508 0.111745 0.410469 0.388165 0.083400
scale_deviation_out=0.253873 0.395353 0.124226 0.222192 0.269063 0.074937
scale_new_min_out=-1.000000 -1.000000 -1.000000 -1.000000 -1.000000 -1.000000
scale_factor_out=1.000000 1.000000 1.000000 1.000000 1.000000 1.000000
neurons (num_inputs, activation_function, activation_steepness)=(0, 0, 0.00000000000000000000e+00) (0, 0, 0.00000000000000000000e+00) (0, 0, 0.00000000000000000000e+00) (0, 0, 0.00000000000000000000e+00) (0, 0, 0.00000000000000000000e+00) (0, 0, 0.00000000000000000000e+00) (0, 0, 0.00000000000000000000e+00) (7, 5, 5.00000000000000000000e-01) (7, 5, 5.00000000000000000000e-01) (7, 5, 5.00000000000000000000e-01) (7, 5, 5.00000000000000000000e-01) (7, 5, 5.00000000000000000000e-01) (7, 5, 5.00000000000000000000e-01) (7, 5, 5.00000000000000000000e-01) (7, 5, 5.00000000000000000000e-01) (7, 5, 5.00000000000000000000e-01) (7, 5, 5.00000000000000000000e-01) (7, 5, 5.00000000000000000000e-01) (7, 5, 5.00000000000000000000e-01) (7, 5, 5.00000000000000000000e-01) (7, 5, 5.00000000000000000000e-01) (7, 5, 5.00000000000000000000e-01) (7, 5, 5.00000000000000000000e-01) (7, 5, 5.00000000000000000000e-01) (7, 5, 5.00000000000000000000e-01) (7, 5, 5.00000000000000000000e-01) (7, 5, 5.00000000000000000000e-01) (7, 5, 5.00000000000000000000e-01) (7, 5, 5.00000000000000000000e-01) (7, 5, 5.00000000000000000000e-01) (7, 5, 5.00000000000000000000e-01) (7, 5, 5.00000000000000000000e-01) (7, 5, 5.00000000000000000000e-01) (7, 5, 5.00000000000000000000e-01) (7, 5, 5.00000000000000000000e-01) (7, 5, 5.00000000000000000000e-01) (7, 5, 5.00000000000000000000e-01) (0, 5, 0.00000000000000000000e+00) (31, 5, 5.00000000000000000000e-01) (31, 5, 5.00000000000000000000e-01) (31, 5, 5.00000000000000000000e-01) (31, 5, 5.00000000000000000000e-01) (31, 5, 5.00000000000000000000e-01) (31, 5, 5.00000000000000000000e-01) (31, 5, 5.00000000000000000000e-01) (31, 5, 5.00000000000000000000e-01) (31, 5, 5.00000000000000000000e-01) (31, 5, 5.00000000000000000000e-01) (31, 5, 5.00000000000000000000e-01) (31, 5, 5.00000000000000000000e-01) (31, 5, 5.00000000000000000000e-01) (31, 5, 5.00000000000000000000e-01) (31, 5, 5.00000000000000000000e-01) (31, 5, 5.00000000000000000000e-01) (31, 5, 5.00000000000000000000e-01) (31, 5, 5.00000000000000000000e-01) (31, 5, 5.00000000000000000000e-01) (31, 5, 5.00000000000000000000e-01) (31, 5, 5.00000000000000000000e-01) (31, 5, 5.00000000000000000000e-01) (31, 5, 5.00000000000000000000e-01) (31, 5, 5.00000000000000000000e-01) (31, 5, 5.00000000000000000000e-01) (31, 5, 5.00000000000000000000e-01) (31, 5, 5.00000000000000000000e-01) (31, 5, 5.00000000000000000000e-01) (31, 5, 5.00000000000000000000e-01) (31, 5, 5.00000000000000000000e-01) (0, 5, 0.00000000000000000000e+00) (31, 5, 5.00000000000000000000e-01) (31, 5, 5.00000000000000000000e-01) (31, 5, 5.00000000000000000000e-01) (31, 5, 5.00000000000000000000e-01) (31, 5, 5.00000000000000000000e-01) (31, 5, 5.00000000000000000000e-01) (31, 5, 5.00000000000000000000e-01) (31, 5, 5.00000000000000000000e-01) (31, 5, 5.00000000000000000000e-01) (31, 5, 5.00000000000000000000e-01) (31, 5, 5.00000000000000000000e-01) (31, 5, 5.00000000000000000000e-01) (31, 5, 5.00000000000000000000e-01) (31, 5, 5.00000000000000000000e-01) (31, 5, 5.00000000000000000000e-01) (31, 5, 5.00000000000000000000e-01) (31, 5, 5.00000000000000000000e-01) (31, 5, 5.00000000000000000000e-01) (31, 5, 5.00000000000000000000e-01) (31, 5, 5.00000000000000000000e-01) (31, 5, 5.00000000000000000000e-01) (31, 5, 5.00000000000000000000e-01) (31, 5, 5.00000000000000000000e-01) (31, 5, 5.00000000000000000000e-01) (31, 5, 5.00000000000000000000e-01) (31, 5, 5.00000000000000000000e-01) (31, 5, 5.00000000000000000000e-01) (31, 5, 5.00000000000000000000e-01) (31, 5, 5.00000000000000000000e-01) (31, 5, 5.00000000000000000000e-01) (0, 5, 0.00000000000000000000e+00) (31, 0, 5.00000000000000000000e-01) (31, 0, 5.00000000000000000000e-01) (31, 0, 5.00000000000000000000e-01) (31, 0, 5.00000000000000000000e-01) (31, 0, 5.00000000000000000000e-01) (31, 0, 5.00000000000000000000e-01) (0, 0, 0.00000000000000000000e+00)
connections (connected_to_neuron, weight)=(0, -6.09087832272052764893e-02) (1, -2.61770218610763549805e-01) (2, -1.73327171802520751953e+00) (3, 2.31102362275123596191e-01) (4, 4.13886934518814086914e-01) (5, 6.95144683122634887695e-02) (6, 9.73027050495147705078e-01) (0, 6.32874310016632080078e-01) (1, 2.45819389820098876953e-01) (2, 1.60784542560577392578e+00) (3, 1.14278399944305419922e+00) (4, 2.09536477923393249512e-02) (5, -1.27146899700164794922e+00) (6, 3.09897124767303466797e-01) (0, 8.40277671813964843750e-01) (1, 2.63284325599670410156e-01) (2, 4.81224507093429565430e-01) (3, -7.71813333034515380859e-01) (4, -5.03671467304229736328e-02) (5, -1.97597458958625793457e-01) (6, -7.55210518836975097656e-01) (0, -5.31630814075469970703e-02) (1, 9.99180674552917480469e-02) (2, 4.75516647100448608398e-01) (3, 1.51725769042968750000e-01) (4, 1.10882616043090820312e+00) (5, -1.05648684501647949219e+00) (6, 2.42424821853637695312e+00) (0, 6.25142812728881835938e-01) (1, 7.86622881889343261719e-01) (2, 4.13703024387359619141e-01) (3, -1.07091479003429412842e-01) (4, -8.20551216602325439453e-02) (5, -9.77864041924476623535e-02) (6, -6.44561469554901123047e-01) (0, 7.55666077136993408203e-01) (1, -2.93807893991470336914e-01) (2, -3.96296322345733642578e-01) (3, 2.64810293912887573242e-01) (4, 8.29944536089897155762e-02) (5, 5.74793159961700439453e-01) (6, 1.58607614040374755859e+00) (0, -6.73340797424316406250e-01) (1, 4.44391906261444091797e-01) (2, 1.02229368686676025391e+00) (3, -6.68349340558052062988e-02) (4, -2.22571074962615966797e-01) (5, -3.90005111694335937500e-01) (6, 8.64289551973342895508e-02) (0, 2.42290496826171875000e-01) (1, -3.27927201986312866211e-01) (2, -5.19941568374633789062e-01) (3, -8.88896733522415161133e-02) (4, -3.84683795273303985596e-02) (5, 8.94382596015930175781e-01) (6, 9.82008397579193115234e-01) (0, 7.18903601169586181641e-01) (1, -3.80933076143264770508e-01) (2, 8.11726897954940795898e-02) (3, 3.83108705282211303711e-01) (4, 9.34082865715026855469e-02) (5, 6.46913468837738037109e-01) (6, -1.17979693412780761719e+00) (0, -2.79978692531585693359e-01) (1, -3.30414414405822753906e-01) (2, -8.66997838020324707031e-01) (3, 6.17452561855316162109e-01) (4, 4.22840535640716552734e-01) (5, -2.01787322759628295898e-01) (6, -2.68421322107315063477e-01) (0, -6.39523625373840332031e-01) (1, 4.17494028806686401367e-01) (2, 4.38670217990875244141e-01) (3, 3.80521982908248901367e-01) (4, 2.63161778450012207031e-01) (5, 6.18082061409950256348e-02) (6, 4.09939020872116088867e-01) (0, 3.59301149845123291016e-01) (1, 5.16031026840209960938e-01) (2, 1.88235104084014892578e+00) (3, -3.02103776484727859497e-02) (4, -8.47063958644866943359e-02) (5, -9.64509129524230957031e-01) (6, -7.52620622515678405762e-02) (0, -8.87860834598541259766e-01) (1, 1.00925415754318237305e-02) (2, -1.47874325513839721680e-01) (3, 4.46906805038452148438e-01) (4, 4.98704724013805389404e-02) (5, 5.75693137943744659424e-02) (6, 1.21722412109375000000e+00) (0, -2.07071587443351745605e-01) (1, 1.18404254317283630371e-01) (2, 9.79274451732635498047e-01) (3, 4.06655222177505493164e-01) (4, 1.37777581810951232910e-01) (5, 7.81128168106079101562e-01) (6, 1.80957928299903869629e-01) (0, -2.43649810552597045898e-01) (1, -3.58417272567749023438e-01) (2, -2.21130684018135070801e-01) (3, -1.85295730829238891602e-01) (4, 4.71179485321044921875e-01) (5, 8.53616416454315185547e-01) (6, -7.46359825134277343750e-01) (0, 4.02388006448745727539e-01) (1, -2.75960057973861694336e-01) (2, 4.30810004472732543945e-01) (3, 2.92310476303100585938e-01) (4, -1.92184254527091979980e-01) (5, -5.74044942855834960938e-01) (6, -3.08436453342437744141e-01) (0, -6.33663773536682128906e-01) (1, 9.53570902347564697266e-02) (2, 4.76545751094818115234e-01) (3, -5.57004868984222412109e-01) (4, -4.63689148426055908203e-01) (5, 5.50512135028839111328e-01) (6, -7.45184004306793212891e-01) (0, 7.57837474346160888672e-01) (1, 2.11521089076995849609e-01) (2, 8.01008045673370361328e-01) (3, 3.49692225456237792969e-01) (4, 6.52472734451293945312e-01) (5, 2.96317227184772491455e-02) (6, -3.40435713529586791992e-01) (0, 3.66002172231674194336e-02) (1, -6.51751220226287841797e-01) (2, -6.93839907646179199219e-01) (3, 5.29110968112945556641e-01) (4, 3.75564277172088623047e-01) (5, 9.22245085239410400391e-01) (6, 2.46517539024353027344e-01) (0, 1.68506875634193420410e-01) (1, 7.97831267118453979492e-02) (2, -1.27191090583801269531e+00) (3, -3.81196379661560058594e-01) (4, 2.36941620707511901855e-01) (5, 8.94475996494293212891e-01) (6, 3.95950734615325927734e-01) (0, -4.74671751260757446289e-01) (1, 1.88569456338882446289e-01) (2, 2.23925518989562988281e+00) (3, -8.07852074503898620605e-02) (4, 1.57490342855453491211e-01) (5, -3.31365765305235981941e-04) (6, -7.54444539546966552734e-01) (0, 4.65284675359725952148e-01) (1, 2.04573553055524826050e-02) (2, -2.59877741336822509766e-01) (3, 4.18113529682159423828e-01) (4, 1.40404239296913146973e-01) (5, -1.26563441753387451172e+00) (6, -7.56699740886688232422e-01) (0, -1.08068346977233886719e+00) (1, 2.39653915166854858398e-01) (2, -4.20105159282684326172e-01) (3, -3.30008655786514282227e-01) (4, -9.40534397959709167480e-02) (5, 9.51044499874114990234e-01) (6, -4.10168707370758056641e-01) (0, -3.38116794824600219727e-01) (1, -5.32263033092021942139e-02) (2, -2.66290664672851562500e-01) (3, 3.87765318155288696289e-01) (4, -6.40281811356544494629e-02) (5, -1.13028466701507568359e+00) (6, -6.21302843093872070312e-01) (0, -3.84381324052810668945e-01) (1, -1.11099112033843994141e+00) (2, 1.75313675403594970703e+00) (3, -7.01852813363075256348e-02) (4, -3.35799381136894226074e-02) (5, 6.74571335315704345703e-01) (6, 3.40384900569915771484e-01) (0, 3.73125106096267700195e-01) (1, 2.13013604283332824707e-01) (2, 4.04179215431213378906e-01) (3, 3.49697589874267578125e-01) (4, 2.29815348982810974121e-01) (5, 1.35157084465026855469e+00) (6, 2.00435802340507507324e-01) (0, 2.03117392957210540771e-02) (1, -2.50716749578714370728e-02) (2, 2.13952764868736267090e-01) (3, -4.12704139947891235352e-01) (4, -3.63912910223007202148e-01) (5, -8.27271640300750732422e-01) (6, 2.28143501281738281250e+00) (0, 4.65029686689376831055e-01) (1, -5.17007112503051757812e-01) (2, -9.63132321834564208984e-01) (3, 5.72010762989521026611e-02) (4, 1.37149572372436523438e-01) (5, -3.55898737907409667969e-01) (6, -8.18638861179351806641e-01) (0, -2.07573786377906799316e-01) (1, 2.89230018854141235352e-01) (2, 9.92037475109100341797e-01) (3, 4.33234512805938720703e-01) (4, 4.56417411565780639648e-01) (5, -1.03676462173461914062e+00) (6, -2.81705290079116821289e-01) (0, 1.08797836303710937500e+00) (1, -2.41769000887870788574e-01) (2, -9.55176413059234619141e-01) (3, 7.05361902713775634766e-01) (4, 2.34944641590118408203e-01) (5, 9.43009495735168457031e-01) (6, 3.29439580440521240234e-01) (7, -8.56152653694152832031e-01) (8, -4.41079400479793548584e-02) (9, -9.99565660953521728516e-01) (10, -1.82017490267753601074e-01) (11, 8.50507974624633789062e-01) (12, -7.33697474002838134766e-01) (13, 6.88295304775238037109e-01) (14, -2.32706502079963684082e-01) (15, 1.53005385398864746094e+00) (16, 7.68767237663269042969e-01) (17, 1.04048252105712890625e+00) (18, 1.34577348828315734863e-01) (19, 8.77206385135650634766e-01) (20, -2.16484114527702331543e-01) (21, 4.89541918039321899414e-01) (22, 3.33723515272140502930e-01) (23, 2.42187246680259704590e-01) (24, 1.30564212799072265625e+00) (25, -1.63005411624908447266e-01) (26, -3.36194485425949096680e-02) (27, -6.43903970718383789062e-01) (28, -3.74829739332199096680e-01) (29, 4.03575032949447631836e-01) (30, 2.41273999214172363281e+00) (31, -9.13767144083976745605e-02) (32, 1.25353395938873291016e-01) (33, -7.79579281806945800781e-02) (34, 1.44851374626159667969e+00) (35, 3.08092851191759109497e-02) (36, 6.16914868354797363281e-01) (37, -4.99090086668729782104e-03) (7, 5.23914247751235961914e-02) (8, -3.58178913593292236328e-01) (9, 1.14212310314178466797e+00) (10, 9.79497790336608886719e-01) (11, 7.85031080245971679688e-01) (12, 7.35954642295837402344e-01) (13, 5.84589421749114990234e-01) (14, -6.17172539234161376953e-01) (15, 1.78853556513786315918e-01) (16, 7.66144454479217529297e-01) (17, 5.92384099960327148438e-01) (18, -3.60915720462799072266e-01) (19, 1.88404902815818786621e-01) (20, 1.28507483005523681641e+00) (21, 1.28107511997222900391e+00) (22, 8.62061977386474609375e-01) (23, -1.52686193585395812988e-01) (24, -4.89276796579360961914e-01) (25, 3.07096958160400390625e-01) (26, 5.21978497505187988281e-01) (27, 2.04852093011140823364e-02) (28, 7.27423578500747680664e-02) (29, 2.69783854484558105469e-01) (30, -2.27932840585708618164e-01) (31, -2.11570039391517639160e-01) (32, 8.71375679969787597656e-01) (33, 5.90217590332031250000e-01) (34, 3.48603367805480957031e-01) (35, -8.62635523080825805664e-02) (36, -2.59405523538589477539e-01) (37, -1.13170087337493896484e+00) (7, 1.30493104457855224609e+00) (8, -3.65182131528854370117e-01) (9, 4.42738294601440429688e-01) (10, 1.81935048103332519531e+00) (11, 6.42800331115722656250e-01) (12, 4.89380568265914916992e-01) (13, 2.46969610452651977539e-01) (14, 2.19809710979461669922e-01) (15, 5.54664134979248046875e-01) (16, 1.46160498261451721191e-01) (17, -9.14967954158782958984e-01) (18, -1.61585509777069091797e-01) (19, -5.96240460872650146484e-01) (20, -4.19516742229461669922e-01) (21, -1.73434245586395263672e+00) (22, 1.99761128425598144531e+00) (23, 1.18957960605621337891e+00) (24, 3.20694863796234130859e-01) (25, 4.16772156953811645508e-01) (26, 7.48169198632240295410e-02) (27, -5.59955239295959472656e-01) (28, -1.91278427839279174805e-01) (29, -2.74410605430603027344e-01) (30, 1.01616919040679931641e+00) (31, -5.03721415996551513672e-01) (32, -1.26851987838745117188e+00) (33, 8.73008787631988525391e-01) (34, 8.35904181003570556641e-01) (35, 9.19068932533264160156e-01) (36, 1.16322481632232666016e+00) (37, 8.34203898906707763672e-01) (7, 3.54246646165847778320e-01) (8, 2.68771976232528686523e-01) (9, 1.09372758865356445312e+00) (10, 3.03201973438262939453e-01) (11, -4.63807910680770874023e-01) (12, -3.21520209312438964844e-01) (13, -5.19889473915100097656e-01) (14, 1.21404194831848144531e+00) (15, 8.45546185970306396484e-01) (16, 2.00164631009101867676e-01) (17, 1.63682863116264343262e-01) (18, -9.68402624130249023438e-01) (19, 9.86535787582397460938e-01) (20, -6.83314919471740722656e-01) (21, -1.53521525859832763672e+00) (22, 2.91745096445083618164e-01) (23, 1.00161755084991455078e+00) (24, 2.36073315143585205078e-01) (25, -3.35499644279479980469e-01) (26, 2.81836658716201782227e-01) (27, -7.81472384929656982422e-01) (28, 6.71397745609283447266e-01) (29, 3.22892904281616210938e-01) (30, 7.07596480846405029297e-01) (31, 8.07736933231353759766e-01) (32, 1.22231936454772949219e+00) (33, 4.23492163419723510742e-01) (34, 1.63780093193054199219e-01) (35, 2.32209697365760803223e-01) (36, 2.71457850933074951172e-01) (37, 1.66908949613571166992e-01) (7, 6.86445355415344238281e-01) (8, 8.13074946403503417969e-01) (9, -5.97910583019256591797e-01) (10, -8.86364519596099853516e-01) (11, 6.92300379276275634766e-01) (12, -4.90075498819351196289e-01) (13, 5.51840901374816894531e-01) (14, 6.54928684234619140625e-01) (15, -4.26257789134979248047e-01) (16, -6.51216030120849609375e-01) (17, -6.53865337371826171875e-01) (18, 8.72400760650634765625e-01) (19, -6.33748769760131835938e-01) (20, 4.45144698023796081543e-02) (21, 1.51993668079376220703e+00) (22, -1.02536654472351074219e+00) (23, 4.85952556133270263672e-01) (24, 1.12617814540863037109e+00) (25, -2.37596035003662109375e-01) (26, 7.20892310142517089844e-01) (27, 8.98689329624176025391e-01) (28, 1.91084074974060058594e+00) (29, 9.76435601711273193359e-01) (30, 2.43516430258750915527e-01) (31, 9.76976633071899414062e-01) (32, 9.07299816608428955078e-01) (33, -2.02376365661621093750e-01) (34, 1.79682105779647827148e-01) (35, -4.86111551523208618164e-01) (36, -6.59434080123901367188e-01) (37, 1.22639966011047363281e+00) (7, 1.13846145570278167725e-01) (8, 8.46699714660644531250e-01) (9, -8.61389860510826110840e-02) (10, 8.72086584568023681641e-01) (11, 6.40017032623291015625e-01) (12, -6.55540108680725097656e-01) (13, 4.23155903816223144531e-01) (14, -2.11492404341697692871e-02) (15, -6.94300532341003417969e-01) (16, 5.65029442310333251953e-01) (17, -6.38007640838623046875e-01) (18, -6.96436524391174316406e-01) (19, 1.25885748863220214844e+00) (20, 7.32969045639038085938e-01) (21, -3.98964524269104003906e-01) (22, 1.24188458919525146484e+00) (23, -1.98875665664672851562e-01) (24, 4.07521277666091918945e-01) (25, -7.62358456850051879883e-02) (26, 6.24997735023498535156e-01) (27, -2.77163207530975341797e-01) (28, -7.78687715530395507812e-01) (29, 3.76173496246337890625e-01) (30, 6.76275789737701416016e-01) (31, 4.75577950477600097656e-01) (32, 6.76016151905059814453e-01) (33, 1.02532565593719482422e+00) (34, -4.04660642147064208984e-01) (35, -2.59186834096908569336e-01) (36, -6.58746778964996337891e-01) (37, 3.14687252044677734375e-01) (7, 8.74581694602966308594e-01) (8, -4.60406869649887084961e-01) (9, 1.84071779251098632812e-01) (10, 1.23647637665271759033e-01) (11, 1.23957729339599609375e+00) (12, 5.60818076133728027344e-01) (13, 1.16957969963550567627e-01) (14, -2.94581741094589233398e-01) (15, 6.90044701099395751953e-01) (16, 6.22092306613922119141e-01) (17, 3.50238800048828125000e-01) (18, 4.03005719184875488281e-01) (19, 9.08450126647949218750e-01) (20, 3.29824626445770263672e-01) (21, 3.88086020946502685547e-01) (22, 9.90911126136779785156e-01) (23, -2.22646951675415039062e-01) (24, -4.48126047849655151367e-01) (25, 2.09944105148315429688e+00) (26, -3.55555564165115356445e-01) (27, -3.67696106433868408203e-01) (28, -9.60305809974670410156e-01) (29, 1.45679461956024169922e+00) (30, -3.39044928550720214844e-01) (31, -6.78444921970367431641e-01) (32, 7.79004171490669250488e-02) (33, -4.40496876835823059082e-02) (34, 1.11976742744445800781e-01) (35, -5.15073955059051513672e-01) (36, 3.24409544467926025391e-01) (37, 3.37455630302429199219e-01) (7, 2.54928350448608398438e-01) (8, -7.02728107571601867676e-02) (9, 5.23105442523956298828e-01) (10, -5.97282052040100097656e-01) (11, -4.59819942712783813477e-01) (12, 4.02495771646499633789e-01) (13, -1.83549419045448303223e-01) (14, -9.29043814539909362793e-02) (15, -5.21327555179595947266e-01) (16, 7.75668978691101074219e-01) (17, 3.89170527458190917969e-01) (18, 5.91410219669342041016e-01) (19, 4.81122016906738281250e-01) (20, -1.27662092447280883789e-01) (21, 6.89685702323913574219e-01) (22, 2.66035944223403930664e-02) (23, 1.56865105964243412018e-04) (24, 9.63885962963104248047e-01) (25, -4.92788493633270263672e-01) (26, 9.61504206061363220215e-02) (27, 2.19741854816675186157e-02) (28, 1.11717440187931060791e-01) (29, 2.06768155097961425781e+00) (30, 1.36268424987792968750e+00) (31, 3.38792145252227783203e-01) (32, 1.77261680364608764648e-01) (33, -2.89871960878372192383e-01) (34, 1.55365860462188720703e+00) (35, 7.65272855758666992188e-01) (36, 7.94000804424285888672e-01) (37, -1.00655734539031982422e+00) (7, -3.87201786041259765625e-01) (8, 9.49677050113677978516e-01) (9, 5.80025494098663330078e-01) (10, 7.80345201492309570312e-02) (11, 1.04109668731689453125e+00) (12, -1.47104537487030029297e+00) (13, 1.81755125522613525391e+00) (14, -1.61109104752540588379e-01) (15, -7.48623237013816833496e-02) (16, 4.80034112930297851562e-01) (17, 2.40485087037086486816e-01) (18, 8.69511663913726806641e-01) (19, -1.67606413364410400391e-01) (20, 1.05114138126373291016e+00) (21, -2.72802323102951049805e-01) (22, 4.99689191579818725586e-01) (23, 1.41123545169830322266e+00) (24, -2.05095261335372924805e-01) (25, 6.65326595306396484375e-01) (26, 5.91957211494445800781e-01) (27, -8.02252218127250671387e-02) (28, -8.37262719869613647461e-02) (29, -1.99659585952758789062e-01) (30, 2.90473163127899169922e-01) (31, 1.01318573951721191406e+00) (32, 1.02026712894439697266e+00) (33, 1.76727429032325744629e-01) (34, -3.61368134617805480957e-02) (35, -9.10341665148735046387e-02) (36, -7.97023117542266845703e-01) (37, 3.76542150974273681641e-01) (7, 1.07625162601470947266e+00) (8, -6.72439634799957275391e-01) (9, -5.19537746906280517578e-01) (10, 6.58279180526733398438e-01) (11, -7.70350456237792968750e-01) (12, 1.16910390555858612061e-01) (13, -1.46993294358253479004e-01) (14, 1.65583133697509765625e+00) (15, 4.33434456586837768555e-01) (16, -8.71738910675048828125e-01) (17, 8.15247893333435058594e-02) (18, -7.13403075933456420898e-02) (19, 4.23629939556121826172e-01) (20, -3.46288979053497314453e-01) (21, 4.45596456527709960938e-01) (22, 1.15869843959808349609e+00) (23, -6.12654030323028564453e-01) (24, 2.16945841908454895020e-01) (25, -3.00383210182189941406e-01) (26, 5.51717877388000488281e-01) (27, -1.10495841503143310547e+00) (28, -6.75960183143615722656e-02) (29, 6.85670316219329833984e-01) (30, -1.11672930419445037842e-01) (31, -8.52644622325897216797e-01) (32, -2.30173878371715545654e-02) (33, 9.38739418983459472656e-01) (34, 8.05805623531341552734e-01) (35, -3.75473618507385253906e-01) (36, -6.99593544006347656250e-01) (37, 3.53086441755294799805e-01) (7, 1.50921487808227539062e+00) (8, -8.02290380001068115234e-01) (9, 1.58036112785339355469e+00) (10, 6.60855276510119438171e-03) (11, 2.84523904323577880859e-01) (12, -1.15080727264285087585e-02) (13, 1.23772227764129638672e+00) (14, 5.82439303398132324219e-01) (15, 5.08259415626525878906e-01) (16, -4.66572642326354980469e-01) (17, -6.08009934425354003906e-01) (18, -4.68408107757568359375e-01) (19, 4.29329127073287963867e-01) (20, -3.79295572638511657715e-02) (21, 3.67403894662857055664e-01) (22, -1.02775901556015014648e-01) (23, 2.46701076626777648926e-01) (24, 1.40829786658287048340e-01) (25, -1.84911191463470458984e-01) (26, -2.49822467565536499023e-01) (27, -2.91272163391113281250e-01) (28, 8.65149125456809997559e-02) (29, 1.54901659488677978516e+00) (30, 9.45184051990509033203e-01) (31, 4.31268125772476196289e-01) (32, 2.06303149461746215820e-01) (33, 1.27561986446380615234e+00) (34, 1.11060929298400878906e+00) (35, 5.65122008323669433594e-01) (36, 2.90491789579391479492e-01) (37, -4.13199663162231445312e-01) (7, 6.12415596842765808105e-02) (8, 4.61538970470428466797e-01) (9, 3.71620431542396545410e-02) (10, -5.19864261150360107422e-01) (11, -6.24866306781768798828e-01) (12, -1.76011651754379272461e-01) (13, -9.42589819431304931641e-01) (14, 9.32634830474853515625e-01) (15, -6.72030270099639892578e-01) (16, -5.70382595062255859375e-01) (17, 1.36346578598022460938e+00) (18, -2.98976063728332519531e-01) (19, 1.66611003875732421875e+00) (20, -3.09332668781280517578e-01) (21, 1.05382978916168212891e-01) (22, 4.05883073806762695312e-01) (23, 8.61157774925231933594e-01) (24, -3.41290771961212158203e-01) (25, -3.32089036703109741211e-01) (26, -4.82297658920288085938e-01) (27, -1.04253806173801422119e-01) (28, 8.34142863750457763672e-01) (29, -1.09553778171539306641e+00) (30, -3.50019693374633789062e-01) (31, -1.38887524604797363281e-01) (32, 2.77247667312622070312e-01) (33, 6.29898488521575927734e-01) (34, -5.86001992225646972656e-01) (35, -7.86344468593597412109e-01) (36, -1.99366867542266845703e-01) (37, 5.17127752304077148438e-01) (7, 9.43498611450195312500e-02) (8, 4.76440787315368652344e-01) (9, 1.17874518036842346191e-01) (10, 7.46320337057113647461e-02) (11, 1.02575421333312988281e+00) (12, 8.87517750263214111328e-01) (13, 3.76961171627044677734e-01) (14, -2.85655230283737182617e-01) (15, 1.14777386188507080078e+00) (16, 4.80644583702087402344e-01) (17, 6.47988617420196533203e-02) (18, -4.88685607910156250000e-01) (19, 3.36188852787017822266e-01) (20, 3.01700621843338012695e-01) (21, 4.74579185247421264648e-01) (22, 1.10945560038089752197e-01) (23, 1.07637858390808105469e+00) (24, -7.75358915328979492188e-01) (25, 4.35355484485626220703e-01) (26, 6.76212310791015625000e-01) (27, -2.75637563318014144897e-02) (28, 3.96799713373184204102e-01) (29, 1.45532155036926269531e+00) (30, 1.12629735469818115234e+00) (31, -1.06199115514755249023e-01) (32, -6.08788013458251953125e-01) (33, 3.73212933540344238281e-01) (34, 4.23522293567657470703e-01) (35, 1.15155242383480072021e-01) (36, 8.65306705236434936523e-02) (37, 5.22666513919830322266e-01) (7, 5.62025070190429687500e-01) (8, -1.03149361908435821533e-01) (9, -3.48572164773941040039e-01) (10, -5.87247729301452636719e-01) (11, 1.45082914829254150391e+00) (12, -7.44997799396514892578e-01) (13, 1.40158903598785400391e+00) (14, 2.35747769474983215332e-01) (15, 2.28261685371398925781e+00) (16, 6.38148427009582519531e-01) (17, 1.27095413208007812500e+00) (18, -8.00319314002990722656e-01) (19, -1.55282020568847656250e-02) (20, -4.55338120460510253906e-01) (21, -9.67936158180236816406e-01) (22, 1.09958398342132568359e+00) (23, 7.21013844013214111328e-01) (24, -3.00574183464050292969e-01) (25, 2.71183788776397705078e-01) (26, -6.28757476806640625000e-02) (27, 2.84505397081375122070e-01) (28, -1.13892510533332824707e-01) (29, 3.16923141479492187500e-01) (30, -5.18127158284187316895e-02) (31, -3.84583711624145507812e-01) (32, 7.30837106704711914062e-01) (33, 2.51440405845642089844e-01) (34, 1.65261948108673095703e+00) (35, 5.05285859107971191406e-01) (36, -2.74100452661514282227e-01) (37, -3.70500177145004272461e-01) (7, -2.09440380334854125977e-01) (8, -6.44241496920585632324e-02) (9, 9.62492704391479492188e-01) (10, 8.00818681716918945312e-01) (11, 3.97338718175888061523e-01) (12, 7.83223211765289306641e-01) (13, 5.77114641666412353516e-01) (14, -6.85687780380249023438e-01) (15, 9.60091769695281982422e-01) (16, 3.80764096975326538086e-01) (17, 5.24725735187530517578e-01) (18, -1.23569779098033905029e-01) (19, 4.38355892896652221680e-01) (20, 1.77622318267822265625e-01) (21, -3.10142815113067626953e-01) (22, 5.92075645923614501953e-01) (23, 8.38861882686614990234e-01) (24, -7.89726823568344116211e-02) (25, -6.26973688602447509766e-01) (26, -7.05165266990661621094e-01) (27, 1.30438840389251708984e+00) (28, -1.96667745709419250488e-01) (29, 1.58273994922637939453e-01) (30, -4.85778212547302246094e-01) (31, 5.11056840419769287109e-01) (32, 6.13100886344909667969e-01) (33, -6.95329844951629638672e-01) (34, 7.90147900581359863281e-01) (35, 1.78868561983108520508e-01) (36, -7.67170906066894531250e-01) (37, 8.67938399314880371094e-01) (7, -1.22921422123908996582e-01) (8, 2.80968129634857177734e-01) (9, -1.63596972823143005371e-01) (10, 5.51924824714660644531e-01) (11, 5.80454647541046142578e-01) (12, -4.34844821691513061523e-01) (13, 1.23310074210166931152e-01) (14, -1.27405107021331787109e+00) (15, -3.39245021343231201172e-01) (16, -7.41182684898376464844e-01) (17, -2.89001800119876861572e-02) (18, -1.48132786154747009277e-01) (19, 8.80454719066619873047e-01) (20, 7.30049014091491699219e-01) (21, 1.68450191617012023926e-01) (22, -2.02700719237327575684e-01) (23, 1.51850724220275878906e+00) (24, 4.64773446321487426758e-01) (25, -7.78459683060646057129e-02) (26, 8.48488986492156982422e-01) (27, 3.96009385585784912109e-01) (28, 1.19495069980621337891e+00) (29, -4.86428499221801757812e-01) (30, 5.24848818778991699219e-01) (31, 5.22410750389099121094e-01) (32, 9.06066119670867919922e-01) (33, 2.11374640464782714844e+00) (34, 1.31994473934173583984e+00) (35, 7.50404536724090576172e-01) (36, -1.07738447189331054688e+00) (37, 1.31968510150909423828e+00) (7, -5.34253157675266265869e-02) (8, -6.86675727367401123047e-01) (9, 8.58118459582328796387e-02) (10, -1.69780239462852478027e-01) (11, 8.78867149353027343750e-01) (12, -8.74494969844818115234e-01) (13, -3.52139323949813842773e-01) (14, -1.75463363528251647949e-01) (15, 4.29017916321754455566e-02) (16, 9.82652455568313598633e-02) (17, -4.03643786907196044922e-01) (18, 1.07530260086059570312e+00) (19, -7.36712455749511718750e-01) (20, 1.99786710739135742188e+00) (21, -2.49057844281196594238e-01) (22, 4.68542009592056274414e-01) (23, 1.51014745235443115234e+00) (24, -4.12220269441604614258e-01) (25, -6.24842643737792968750e-01) (26, -1.26022681593894958496e-01) (27, 1.58885210752487182617e-01) (28, -2.75190830230712890625e-01) (29, -5.04948258399963378906e-01) (30, 1.00984287261962890625e+00) (31, 4.93455678224563598633e-01) (32, -3.21301490068435668945e-01) (33, 6.92394450306892395020e-02) (34, 4.19881314039230346680e-01) (35, 1.29444122314453125000e+00) (36, -4.60265308618545532227e-01) (37, -7.19950735569000244141e-01) (7, -2.29855850338935852051e-01) (8, 2.65954315662384033203e-01) (9, 5.82438051700592041016e-01) (10, -8.27546119689941406250e-01) (11, -9.14180636405944824219e-01) (12, 1.28980815410614013672e+00) (13, 1.49214798584580421448e-02) (14, 2.44691714644432067871e-01) (15, -7.71857440471649169922e-01) (16, 4.94088977575302124023e-01) (17, -5.29464840888977050781e-01) (18, -2.29935124516487121582e-01) (19, 1.24564707279205322266e+00) (20, 3.92539918422698974609e-01) (21, 7.30302572250366210938e-01) (22, 3.50734680891036987305e-01) (23, 7.42623150348663330078e-01) (24, -5.45220136642456054688e-01) (25, 1.43845230340957641602e-01) (26, 1.57801330089569091797e-01) (27, -7.96154856681823730469e-01) (28, 5.25106608867645263672e-01) (29, 8.24318826198577880859e-02) (30, 1.39096319675445556641e+00) (31, -9.79999899864196777344e-01) (32, 9.34730768203735351562e-01) (33, 8.00755083560943603516e-01) (34, 6.62375152111053466797e-01) (35, -4.64176535606384277344e-01) (36, 1.24409186840057373047e+00) (37, 5.09615480899810791016e-01) (7, 8.93869519233703613281e-01) (8, -8.00970673561096191406e-01) (9, 5.48560857772827148438e-01) (10, 1.36402070522308349609e+00) (11, 4.34648662805557250977e-01) (12, 5.30757308006286621094e-01) (13, -2.07164093852043151855e-01) (14, 2.60215580463409423828e-01) (15, 5.13425350189208984375e-01) (16, 1.04125893115997314453e+00) (17, -9.26628172397613525391e-01) (18, 4.39429432153701782227e-01) (19, 1.26357984542846679688e+00) (20, 8.65387499332427978516e-01) (21, -6.80633246898651123047e-01) (22, 1.71476528048515319824e-01) (23, 2.44524583220481872559e-01) (24, 5.01841939985752105713e-02) (25, 6.34410440921783447266e-01) (26, -2.38350510597229003906e-01) (27, -2.88722753524780273438e-01) (28, 3.59040111303329467773e-01) (29, 1.75243616104125976562e+00) (30, 2.47292131185531616211e-01) (31, -1.03197000920772552490e-01) (32, -6.62555694580078125000e-02) (33, -6.77293360233306884766e-01) (34, 6.79214656352996826172e-01) (35, -9.06585097312927246094e-01) (36, 1.69259179383516311646e-02) (37, -9.49405074119567871094e-01) (7, 5.07915914058685302734e-01) (8, -7.83322036266326904297e-01) (9, -2.28879719972610473633e-01) (10, 9.42109301686286926270e-02) (11, -2.30058372020721435547e-01) (12, 5.47816991806030273438e-01) (13, 1.02280759811401367188e+00) (14, 4.79143500328063964844e-01) (15, -1.07723796367645263672e+00) (16, 6.80799841880798339844e-01) (17, -9.34657692909240722656e-01) (18, 9.46813344955444335938e-01) (19, 7.18338847160339355469e-01) (20, -1.02772700786590576172e+00) (21, -9.21719193458557128906e-01) (22, 1.97373366355895996094e+00) (23, 1.17500174045562744141e+00) (24, -4.65091854333877563477e-01) (25, 3.72742116451263427734e-01) (26, 1.24447114765644073486e-01) (27, -2.09947764873504638672e-01) (28, -5.37842333316802978516e-01) (29, 2.88011044263839721680e-01) (30, -1.32274591922760009766e+00) (31, -3.82001698017120361328e-01) (32, -5.92137634754180908203e-01) (33, 1.96102666854858398438e+00) (34, -3.15812468528747558594e-01) (35, 5.40320314466953277588e-02) (36, 8.24437201023101806641e-01) (37, 1.09398341178894042969e+00) (7, -9.97004568576812744141e-01) (8, -4.39427703619003295898e-01) (9, 1.20873475074768066406e+00) (10, 2.43562176823616027832e-01) (11, -1.07797101140022277832e-01) (12, 8.79963755607604980469e-01) (13, 8.61452162265777587891e-01) (14, 3.71566981077194213867e-01) (15, 1.79466164112091064453e+00) (16, 6.06843352317810058594e-01) (17, 1.03656375408172607422e+00) (18, 1.70685395598411560059e-01) (19, -7.96607673168182373047e-01) (20, -8.41241776943206787109e-02) (21, -8.63492861390113830566e-02) (22, 1.03300261497497558594e+00) (23, 1.39912396669387817383e-01) (24, 3.52836042642593383789e-01) (25, 7.83593118190765380859e-01) (26, 5.18641293048858642578e-01) (27, 8.45620751380920410156e-01) (28, -1.78185001015663146973e-01) (29, 2.49685621261596679688e+00) (30, 4.43811237812042236328e-01) (31, -3.41432273387908935547e-01) (32, 2.38468542695045471191e-01) (33, -9.19606447219848632812e-01) (34, 1.21433484554290771484e+00) (35, 2.25748762488365173340e-01) (36, 4.61700111627578735352e-01) (37, -1.49043679237365722656e-01) (7, 3.53411078453063964844e-01) (8, -2.00923129916191101074e-01) (9, 7.20287680625915527344e-01) (10, 6.29838883876800537109e-01) (11, 4.10373419523239135742e-01) (12, -4.37815606594085693359e-01) (13, 6.18851855397224426270e-02) (14, 1.01130820810794830322e-01) (15, -4.52907055616378784180e-01) (16, -2.71770805120468139648e-01) (17, -9.62105870246887207031e-01) (18, 3.94114345312118530273e-01) (19, 6.06726109981536865234e-01) (20, 2.59381175041198730469e-01) (21, 1.61588907241821289062e+00) (22, 5.88553786277770996094e-01) (23, 7.69814789295196533203e-01) (24, -1.62111207842826843262e-01) (25, -4.41528260707855224609e-01) (26, -3.00342589616775512695e-01) (27, 9.94456648826599121094e-01) (28, 1.24087977409362792969e+00) (29, 1.86634421348571777344e+00) (30, 2.93876469135284423828e-01) (31, 6.62489533424377441406e-01) (32, 3.17374348640441894531e-01) (33, 5.35298764705657958984e-01) (34, 2.84659117460250854492e-01) (35, 1.07317514717578887939e-01) (36, 1.18785214424133300781e+00) (37, 8.60952317714691162109e-01) (7, 1.57211795449256896973e-01) (8, -6.32019117474555969238e-02) (9, -1.66568934917449951172e-01) (10, 2.19743534922599792480e-01) (11, 2.80947446823120117188e-01) (12, 6.10686659812927246094e-01) (13, 2.50432163476943969727e-01) (14, 9.90034520626068115234e-01) (15, 4.83063459396362304688e-01) (16, -8.12801420688629150391e-01) (17, -1.06011724472045898438e+00) (18, 1.99966907501220703125e-01) (19, -6.44343197345733642578e-01) (20, 4.32650327682495117188e-01) (21, 7.57994949817657470703e-01) (22, 9.24384534358978271484e-01) (23, -1.06863772869110107422e+00) (24, 3.44064570963382720947e-02) (25, 2.00188547372817993164e-01) (26, -3.94867420196533203125e-01) (27, -7.12281703948974609375e-01) (28, -4.21259850263595581055e-01) (29, 1.10830938816070556641e+00) (30, -3.91257673501968383789e-01) (31, -6.54501080513000488281e-01) (32, 1.19588159024715423584e-01) (33, 7.82487928867340087891e-01) (34, -9.91661176085472106934e-02) (35, 3.76234829425811767578e-01) (36, -4.53470259904861450195e-01) (37, -4.45261120796203613281e-01) (7, -1.14008903503417968750e-01) (8, -5.12797176837921142578e-01) (9, 4.34784621000289916992e-01) (10, -1.67981415987014770508e-01) (11, 6.39414429664611816406e-01) (12, -7.94543981552124023438e-01) (13, 1.86699226498603820801e-01) (14, 2.41329193115234375000e-01) (15, 4.05485570430755615234e-01) (16, 8.52968752384185791016e-01) (17, 3.75642180442810058594e-01) (18, 3.50694009102880954742e-03) (19, -2.06727907061576843262e-01) (20, 3.07671371847391128540e-02) (21, 7.89888799190521240234e-01) (22, 4.39586400985717773438e-01) (23, 2.97022968530654907227e-01) (24, 1.49274885654449462891e+00) (25, -4.69448496005497872829e-05) (26, 7.89712369441986083984e-01) (27, 1.34352040290832519531e+00) (28, 4.41549718379974365234e-01) (29, 8.46599698066711425781e-01) (30, -1.80671840906143188477e-01) (31, -5.93122765421867370605e-02) (32, -2.35824495553970336914e-01) (33, -2.17566147446632385254e-01) (34, 1.32720863819122314453e+00) (35, -5.62921203672885894775e-02) (36, 8.55104982852935791016e-01) (37, -1.00152885913848876953e+00) (7, 4.53474894165992736816e-02) (8, 8.66794645786285400391e-01) (9, 9.61148142814636230469e-01) (10, 2.13620916008949279785e-01) (11, -6.40623986721038818359e-01) (12, 3.00468325614929199219e-01) (13, 4.31005626916885375977e-01) (14, 1.07644367218017578125e+00) (15, 1.05586841702461242676e-01) (16, 5.33178031444549560547e-01) (17, 6.38545155525207519531e-02) (18, 9.27393794059753417969e-01) (19, -3.62062990665435791016e-01) (20, -3.20508718490600585938e-01) (21, -3.77975851297378540039e-01) (22, -4.11853611469268798828e-01) (23, 7.06150054931640625000e-01) (24, 1.18365556001663208008e-01) (25, 5.22857427597045898438e-01) (26, 3.74315828084945678711e-01) (27, 1.56352734565734863281e+00) (28, -6.78178668022155761719e-01) (29, 2.84957349300384521484e-01) (30, 3.23931932449340820312e-01) (31, 3.39692145586013793945e-01) (32, 8.48495602607727050781e-01) (33, 1.20966708660125732422e+00) (34, -1.47953045368194580078e+00) (35, 7.96345949172973632812e-01) (36, -1.66901439428329467773e-01) (37, 4.08649981021881103516e-01) (7, 7.70109370350837707520e-02) (8, 1.70784682035446166992e-01) (9, -3.18615823984146118164e-01) (10, -1.35899066925048828125e-01) (11, 3.19950699806213378906e-01) (12, 1.62983524799346923828e+00) (13, 6.83127164840698242188e-01) (14, 1.01588582992553710938e+00) (15, -2.16493889689445495605e-01) (16, 1.00605773925781250000e+00) (17, 1.11818321049213409424e-01) (18, 1.66783630847930908203e-01) (19, -1.25251904129981994629e-01) (20, -3.24317365884780883789e-01) (21, 1.51939779520034790039e-01) (22, 2.67879366874694824219e-01) (23, -4.04758721590042114258e-01) (24, 5.80451071262359619141e-01) (25, 1.69567838311195373535e-01) (26, 6.53072059154510498047e-01) (27, -5.52746832370758056641e-01) (28, -1.35206651687622070312e+00) (29, 1.37834203243255615234e+00) (30, -5.52545011043548583984e-01) (31, 3.06578297168016433716e-02) (32, 3.33743721246719360352e-01) (33, 9.97220695018768310547e-01) (34, -8.04435014724731445312e-01) (35, 3.40157568454742431641e-01) (36, 8.07959675788879394531e-01) (37, 4.91515427827835083008e-01) (7, -3.64114195108413696289e-01) (8, 8.74624073505401611328e-01) (9, 2.00462564826011657715e-02) (10, 3.25082205235958099365e-02) (11, 5.90455353260040283203e-01) (12, -3.30243468284606933594e-01) (13, 6.45901322364807128906e-01) (14, 3.52174103260040283203e-01) (15, 2.19483114778995513916e-02) (16, 4.12551194429397583008e-01) (17, -2.18050941824913024902e-01) (18, -5.42624115943908691406e-01) (19, -2.17447847127914428711e-01) (20, 3.74008417129516601562e-02) (21, -2.94869363307952880859e-01) (22, 7.07593560218811035156e-01) (23, 4.87698428332805633545e-02) (24, -4.58505362272262573242e-01) (25, 6.20576217770576477051e-02) (26, 2.60956257581710815430e-01) (27, -6.35072767734527587891e-01) (28, 5.58870434761047363281e-01) (29, -1.27300068736076354980e-01) (30, 4.90023076534271240234e-01) (31, -3.06916326284408569336e-01) (32, 1.36974954605102539062e+00) (33, -1.24987423419952392578e+00) (34, 1.70977652072906494141e+00) (35, 5.49422800540924072266e-01) (36, 1.41181302070617675781e+00) (37, -1.12527310848236083984e+00) (7, 3.99019718170166015625e-01) (8, 7.56395339965820312500e-01) (9, 1.65313892066478729248e-02) (10, 1.04355788230895996094e+00) (11, -1.35188892483711242676e-01) (12, 5.90429529547691345215e-02) (13, 7.43475198745727539062e-01) (14, 9.23686623573303222656e-01) (15, 5.86297512054443359375e-01) (16, -9.89568885415792465210e-03) (17, 1.12064868211746215820e-01) (18, 1.93010587245225906372e-02) (19, -2.43892520666122436523e-02) (20, 9.60246682167053222656e-01) (21, -6.13350391387939453125e-01) (22, -7.58503079414367675781e-01) (23, 3.17144393920898437500e-01) (24, -6.16876669228076934814e-02) (25, -2.30186760425567626953e-01) (26, 7.41341531276702880859e-01) (27, 9.52137410640716552734e-01) (28, -4.03163045644760131836e-01) (29, 1.43108260631561279297e+00) (30, 4.73771005868911743164e-01) (31, 1.06548464298248291016e+00) (32, 1.01562893390655517578e+00) (33, 1.04584002494812011719e+00) (34, -3.02432417869567871094e-01) (35, 4.55542236566543579102e-01) (36, 9.76199686527252197266e-01) (37, 1.01940274238586425781e+00) (7, 6.43157303333282470703e-01) (8, 2.26966321468353271484e-01) (9, -7.41074919700622558594e-01) (10, -5.97734332084655761719e-01) (11, 6.96081995964050292969e-01) (12, 7.59294867515563964844e-01) (13, 1.01313400268554687500e+00) (14, 5.88061511516571044922e-01) (15, -5.10142862796783447266e-01) (16, -6.17790937423706054688e-01) (17, -1.32731544971466064453e+00) (18, -8.62177729606628417969e-01) (19, 4.55046981573104858398e-01) (20, -1.97823956608772277832e-01) (21, 4.28639203310012817383e-01) (22, 8.62923502922058105469e-01) (23, 1.30998432636260986328e-01) (24, -9.69205021858215332031e-01) (25, -1.61556497216224670410e-01) (26, -3.61888647079467773438e-01) (27, 2.92762331664562225342e-02) (28, 1.77717775106430053711e-01) (29, 2.63835370540618896484e-01) (30, -3.53869229555130004883e-01) (31, -5.50004243850708007812e-02) (32, 5.31037151813507080078e-01) (33, -6.75199329853057861328e-01) (34, -6.51474237442016601562e-01) (35, -1.65505811572074890137e-01) (36, 7.71170198917388916016e-01) (37, -7.68550097942352294922e-01) (7, -1.61397978663444519043e-01) (8, -1.82167798280715942383e-01) (9, -6.37785673141479492188e-01) (10, -2.22405701875686645508e-01) (11, -4.09445017576217651367e-01) (12, 5.76440215110778808594e-01) (13, -3.20345431566238403320e-01) (14, 4.59779053926467895508e-01) (15, 9.84793603420257568359e-01) (16, -3.09092234820127487183e-02) (17, 3.23731273412704467773e-01) (18, -4.51785624027252197266e-02) (19, 4.74952489137649536133e-01) (20, 6.32450401782989501953e-01) (21, -3.34965169429779052734e-01) (22, 1.29519772529602050781e+00) (23, -4.43794578313827514648e-01) (24, -1.66734799742698669434e-01) (25, 1.91199019551277160645e-01) (26, 8.73157501220703125000e-01) (27, -9.10044789314270019531e-01) (28, -3.68782788515090942383e-01) (29, 1.46666181087493896484e+00) (30, 2.61607944965362548828e-01) (31, -2.61719763278961181641e-01) (32, 9.69668570905923843384e-03) (33, -7.25084319710731506348e-02) (34, 7.02392637729644775391e-01) (35, -7.46768265962600708008e-02) (36, -3.87441635131835937500e-01) (37, 4.80012223124504089355e-02) (38, 7.68517911434173583984e-01) (39, 1.57017663121223449707e-01) (40, 6.26809835433959960938e-01) (41, 1.12773865461349487305e-01) (42, -6.79072961211204528809e-02) (43, 6.48705840110778808594e-01) (44, 8.13547149300575256348e-02) (45, -5.57968497276306152344e-01) (46, 1.49554863572120666504e-01) (47, -4.70107980072498321533e-03) (48, 7.47151374816894531250e-01) (49, -1.11876703798770904541e-01) (50, -2.44731068611145019531e-01) (51, 6.70221626758575439453e-01) (52, -1.08949112892150878906e+00) (53, 1.05943238735198974609e+00) (54, 7.34895884990692138672e-01) (55, -4.20808851718902587891e-01) (56, -5.53113341331481933594e-01) (57, -4.47033047676086425781e-01) (58, 3.80421765148639678955e-02) (59, -2.48039484024047851562e-01) (60, -6.38392567634582519531e-01) (61, 4.91782069206237792969e-01) (62, 1.21308290958404541016e+00) (63, 1.70583091676235198975e-02) (64, -7.57484495639801025391e-01) (65, -5.59089064598083496094e-01) (66, 6.75678431987762451172e-01) (67, -6.60068631172180175781e-01) (68, 1.06385481357574462891e+00) (38, 1.73160225152969360352e-01) (39, -2.67588466405868530273e-01) (40, 4.42336797714233398438e-01) (41, 3.76657426357269287109e-01) (42, -4.70948100090026855469e-01) (43, 9.66534987092018127441e-02) (44, 6.37937784194946289062e-01) (45, 2.54923611879348754883e-01) (46, 7.71708905696868896484e-01) (47, -3.72511565685272216797e-01) (48, 1.07307302951812744141e+00) (49, 2.57805132865905761719e+00) (50, 2.78970032930374145508e-01) (51, 5.03650009632110595703e-01) (52, 8.40509176254272460938e-01) (53, -1.56673327088356018066e-01) (54, 9.37902569770812988281e-01) (55, -1.55332624912261962891e-01) (56, 3.04506212472915649414e-01) (57, 1.12889957427978515625e+00) (58, 4.24353212118148803711e-01) (59, -5.42699277400970458984e-01) (60, -9.31641101837158203125e-01) (61, 8.26941728591918945312e-02) (62, 1.08328831195831298828e+00) (63, -5.77574431896209716797e-01) (64, -6.60351514816284179688e-02) (65, -4.51609283685684204102e-01) (66, -3.04570883512496948242e-01) (67, 6.32172822952270507812e-01) (68, 1.16398763656616210938e+00) (38, 4.38627392053604125977e-01) (39, -1.80496722459793090820e-01) (40, -2.98919439315795898438e-01) (41, -2.95128107070922851562e-01) (42, -4.40569370985031127930e-01) (43, 7.30775177478790283203e-01) (44, -2.28864282369613647461e-01) (45, 7.98511326313018798828e-01) (46, -2.76490319520235061646e-02) (47, 8.26348178088665008545e-03) (48, 7.22914412617683410645e-02) (49, 1.44200444221496582031e+00) (50, 1.12065625190734863281e+00) (51, 1.26072597503662109375e+00) (52, 4.57960069179534912109e-01) (53, 1.84663259983062744141e+00) (54, 1.96199440956115722656e+00) (55, -9.81153130531311035156e-01) (56, -4.69663850963115692139e-02) (57, 6.94771826267242431641e-01) (58, 9.76408198475837707520e-02) (59, 9.76227402687072753906e-01) (60, -3.78662824630737304688e-01) (61, 1.16773927211761474609e+00) (62, 5.67018926143646240234e-01) (63, 1.71712711453437805176e-01) (64, -4.62753832340240478516e-01) (65, 4.27162319421768188477e-01) (66, 5.10705113410949707031e-01) (67, 9.98153686523437500000e-02) (68, 4.08520698547363281250e-01) (38, 2.58561391383409500122e-02) (39, -3.77093255519866943359e-01) (40, 6.33980780839920043945e-02) (41, 5.05106687545776367188e-01) (42, 5.24247646331787109375e-01) (43, -8.99230912327766418457e-02) (44, 5.41213095188140869141e-01) (45, 3.06923419237136840820e-01) (46, 8.06480765342712402344e-01) (47, -1.12591445446014404297e+00) (48, 7.81437635421752929688e-01) (49, 6.79041802883148193359e-01) (50, 7.13845789432525634766e-02) (51, 3.59935194253921508789e-01) (52, 9.36971902847290039062e-02) (53, -2.50499043613672256470e-02) (54, 1.09587228298187255859e+00) (55, 1.99487999081611633301e-01) (56, -6.40656113624572753906e-01) (57, 2.70324081182479858398e-01) (58, -6.83466017246246337891e-01) (59, -4.74409222602844238281e-01) (60, -7.75694474577903747559e-02) (61, -3.52724313735961914062e-01) (62, 1.08420491218566894531e+00) (63, -1.36563345789909362793e-01) (64, 6.92756712436676025391e-01) (65, 6.03541254997253417969e-01) (66, 1.49250423908233642578e+00) (67, 4.15052950382232666016e-01) (68, 5.16467511653900146484e-01) (38, -5.06537966430187225342e-03) (39, 6.15720629692077636719e-01) (40, 6.85259044170379638672e-01) (41, 7.79096543788909912109e-01) (42, 7.60107100009918212891e-01) (43, 1.33740842342376708984e-01) (44, 2.45556905865669250488e-01) (45, 2.41001337766647338867e-01) (46, 2.63676438480615615845e-02) (47, 4.66277867555618286133e-01) (48, -1.96700319647789001465e-01) (49, 3.71022939682006835938e-01) (50, -1.24607868492603302002e-01) (51, 3.78485113382339477539e-01) (52, 2.35537394881248474121e-01) (53, 8.64194989204406738281e-01) (54, 1.20909169316291809082e-01) (55, 6.94161474704742431641e-01) (56, -4.03087511658668518066e-02) (57, -5.51546216011047363281e-01) (58, 1.51074373722076416016e+00) (59, 1.63344836235046386719e+00) (60, -1.10052488744258880615e-01) (61, -5.47368109226226806641e-01) (62, 3.82617801427841186523e-01) (63, 8.74036252498626708984e-01) (64, 1.10342395305633544922e+00) (65, 2.11684733629226684570e-01) (66, 7.29603111743927001953e-01) (67, 2.46074378490447998047e-01) (68, 8.26946437358856201172e-01) (38, -9.38931882381439208984e-01) (39, 2.31151521205902099609e-01) (40, 3.42447966337203979492e-01) (41, 8.38114500045776367188e-01) (42, 1.10256552696228027344e+00) (43, -4.91185724735260009766e-01) (44, -2.53550827503204345703e-01) (45, 1.00183069705963134766e+00) (46, -8.08711647987365722656e-02) (47, 7.64571785926818847656e-01) (48, -2.05764755606651306152e-01) (49, 6.80679380893707275391e-01) (50, -4.77294713258743286133e-01) (51, 8.42715322971343994141e-01) (52, -8.11945125460624694824e-02) (53, -1.09039850533008575439e-01) (54, -2.58418887853622436523e-01) (55, 6.04389309883117675781e-01) (56, 3.68196129798889160156e-01) (57, -7.92538523674011230469e-01) (58, 8.02993535995483398438e-01) (59, 8.57186131179332733154e-03) (60, -2.42621839046478271484e-01) (61, 1.16842114925384521484e+00) (62, 4.18349206447601318359e-01) (63, 5.38781702518463134766e-01) (64, 6.84122025966644287109e-01) (65, 7.85552859306335449219e-01) (66, 5.08638679981231689453e-01) (67, -8.03275644779205322266e-01) (68, 3.30503314733505249023e-01) (38, 5.60471773147583007812e-01) (39, 1.03353716433048248291e-01) (40, -5.62103748321533203125e-01) (41, -4.96762216091156005859e-01) (42, 2.18550026416778564453e-01) (43, 5.40628805756568908691e-02) (44, 1.14984118938446044922e+00) (45, -5.76378345489501953125e-01) (46, -4.19625937938690185547e-01) (47, 1.71058845520019531250e+00) (48, -3.31391376676037907600e-04) (49, -1.84553861618041992188e-01) (50, 8.18980574607849121094e-01) (51, -3.27953517436981201172e-01) (52, 5.11260330677032470703e-01) (53, -3.55191111564636230469e-01) (54, 3.09475779533386230469e-01) (55, 6.91323220729827880859e-01) (56, 1.29508614540100097656e+00) (57, 9.22530233860015869141e-01) (58, -6.55707895755767822266e-01) (59, -1.58292278647422790527e-01) (60, 5.45983672142028808594e-01) (61, -3.71848016977310180664e-01) (62, 5.05746662616729736328e-01) (63, -5.01720368862152099609e-01) (64, 3.07618737220764160156e-01) (65, 1.11062586307525634766e+00) (66, 3.29894721508026123047e-01) (67, 9.86585617065429687500e-01) (68, -1.38307467103004455566e-01) (38, 6.48670224472880363464e-03) (39, -1.97710573673248291016e-01) (40, 2.43762210011482238770e-01) (41, 1.20885744690895080566e-01) (42, 1.30356982350349426270e-01) (43, 3.58781635761260986328e-01) (44, -1.39023944735527038574e-01) (45, 7.76634141802787780762e-02) (46, -3.35552603006362915039e-01) (47, 1.00677633285522460938e+00) (48, 4.19736385345458984375e-01) (49, -5.76392948627471923828e-01) (50, 2.92423397302627563477e-01) (51, -5.70843756198883056641e-01) (52, -2.88070082664489746094e-01) (53, -1.03802613914012908936e-01) (54, -1.03499516844749450684e-01) (55, 2.29807764291763305664e-01) (56, -2.66891479492187500000e-01) (57, 3.12409102916717529297e-01) (58, 2.58387207984924316406e-01) (59, -4.02112126350402832031e-01) (60, -5.90452671051025390625e-01) (61, 3.15800666809082031250e-01) (62, 2.41157761774957180023e-03) (63, -7.66101256012916564941e-02) (64, 5.01845061779022216797e-01) (65, 7.96827316284179687500e-01) (66, 6.62962138652801513672e-01) (67, 5.09960949420928955078e-01) (68, -5.73600947856903076172e-01) (38, -4.60229158401489257812e-01) (39, 4.25358235836029052734e-01) (40, 2.05573782324790954590e-01) (41, 1.20426513254642486572e-01) (42, 1.73061355948448181152e-01) (43, -4.66048508882522583008e-01) (44, -1.03552520275115966797e+00) (45, -1.52533993124961853027e-01) (46, -3.17777335643768310547e-01) (47, 1.36768209934234619141e+00) (48, -7.98991143703460693359e-01) (49, 8.43526542186737060547e-01) (50, 3.93255233764648437500e-01) (51, 1.94760665297508239746e-01) (52, -1.10591268539428710938e+00) (53, 8.33767727017402648926e-02) (54, 2.55756974220275878906e-01) (55, 2.25852459669113159180e-01) (56, 1.13687407970428466797e+00) (57, 3.46816360950469970703e-01) (58, -1.76522076129913330078e-01) (59, 8.87886583805084228516e-01) (60, 2.22910642623901367188e-01) (61, 7.39561319351196289062e-01) (62, 2.78900980949401855469e-01) (63, 1.07791982591152191162e-01) (64, -5.80318987369537353516e-01) (65, -2.63191014528274536133e-01) (66, 4.51137386262416839600e-02) (67, 7.83553540706634521484e-01) (68, 7.38893270492553710938e-01) (38, 7.62943029403686523438e-01) (39, -1.62856113165616989136e-02) (40, 9.97038006782531738281e-01) (41, 1.48065656423568725586e-01) (42, 1.57455205917358398438e-01) (43, -9.73116874694824218750e-01) (44, 6.04241192340850830078e-01) (45, -3.15988540649414062500e-01) (46, 1.11626195907592773438e+00) (47, 8.75302612781524658203e-01) (48, -1.14313602447509765625e+00) (49, 6.09070122241973876953e-01) (50, 2.54471331834793090820e-01) (51, 1.12510716915130615234e+00) (52, 4.26954589784145355225e-02) (53, -9.12624895572662353516e-01) (54, 4.80774253606796264648e-01) (55, -5.70792257785797119141e-01) (56, 1.62809276580810546875e+00) (57, -7.84535884857177734375e-01) (58, -1.60237178206443786621e-01) (59, 4.77684199810028076172e-01) (60, 4.39528346061706542969e-01) (61, 6.73274755477905273438e-01) (62, 8.30724775791168212891e-01) (63, -1.31641477346420288086e-01) (64, -9.37931776046752929688e-01) (65, 1.22801065444946289062e+00) (66, -9.45040404796600341797e-01) (67, 6.05842411518096923828e-01) (68, -6.66818141937255859375e-01) (38, -4.26982790231704711914e-02) (39, -5.62699079513549804688e-01) (40, 8.78852307796478271484e-01) (41, -1.15502797067165374756e-01) (42, 9.02785658836364746094e-01) (43, -3.48398894071578979492e-01) (44, -6.84803426265716552734e-01) (45, 1.38199090957641601562e+00) (46, 3.23493063449859619141e-01) (47, 1.30752909183502197266e+00) (48, -1.84897612780332565308e-02) (49, -4.22946870326995849609e-01) (50, 5.38307614624500274658e-02) (51, 8.13819050788879394531e-01) (52, 1.65149852633476257324e-01) (53, 3.47042143344879150391e-01) (54, 3.69213968515396118164e-01) (55, 1.27518224716186523438e+00) (56, 2.38696172833442687988e-01) (57, 1.48210215568542480469e+00) (58, 2.79789239168167114258e-01) (59, -7.08116650581359863281e-01) (60, 3.90954375267028808594e-01) (61, 4.22846555709838867188e-01) (62, -3.73461872339248657227e-01) (63, -3.43200325965881347656e-01) (64, -1.60899952054023742676e-01) (65, -6.02872669696807861328e-01) (66, -1.11758802086114883423e-02) (67, -3.80781888961791992188e-01) (68, 6.30408376455307006836e-02) (38, 1.12653934955596923828e+00) (39, 8.56177031993865966797e-01) (40, 6.37142062187194824219e-02) (41, -1.84201106429100036621e-01) (42, 2.57810592651367187500e-01) (43, 1.67901188135147094727e-01) (44, -4.16065007448196411133e-01) (45, 5.27551285922527313232e-02) (46, 1.06146521866321563721e-01) (47, 1.20563220977783203125e+00) (48, 1.37345060706138610840e-01) (49, -4.87357154488563537598e-02) (50, -5.26252329349517822266e-01) (51, 6.51387989521026611328e-01) (52, -7.86198198795318603516e-01) (53, -2.39999011158943176270e-01) (54, 2.52426508814096450806e-02) (55, 1.16498577594757080078e+00) (56, 4.85968850553035736084e-02) (57, -7.67475366592407226562e-01) (58, 9.98397707939147949219e-01) (59, -7.87405744194984436035e-02) (60, -2.66822159290313720703e-01) (61, -2.19496890902519226074e-01) (62, 1.30176591873168945312e+00) (63, 2.94366419315338134766e-01) (64, 1.11213147640228271484e+00) (65, 3.78498854115605354309e-03) (66, 5.67707419395446777344e-01) (67, -7.56222754716873168945e-02) (68, -7.31989383697509765625e-01) (38, 6.63044750690460205078e-01) (39, 8.43166887760162353516e-01) (40, -1.22229985892772674561e-01) (41, 9.42508101463317871094e-01) (42, 2.93734967708587646484e-02) (43, -3.96868616342544555664e-01) (44, -9.79333817958831787109e-01) (45, 1.34441807866096496582e-01) (46, 7.81651809811592102051e-02) (47, 1.16378521919250488281e+00) (48, -5.06134808063507080078e-01) (49, 1.04892814159393310547e+00) (50, -2.09089830517768859863e-01) (51, 1.56989300251007080078e+00) (52, -2.47469693422317504883e-01) (53, 1.27314686775207519531e-01) (54, -6.26994490623474121094e-01) (55, 2.21596777439117431641e-01) (56, 2.26327919960021972656e+00) (57, -8.02685245871543884277e-02) (58, 5.98778069019317626953e-01) (59, 4.84093219041824340820e-01) (60, 5.16746044158935546875e-01) (61, -4.05601441860198974609e-01) (62, 1.23478555679321289062e+00) (63, -5.16677796840667724609e-01) (64, -6.90844357013702392578e-01) (65, -3.20529550313949584961e-01) (66, -5.99668383598327636719e-01) (67, -1.27103194594383239746e-01) (68, -4.65596824884414672852e-01) (38, 1.58327245712280273438e+00) (39, 1.70536532998085021973e-01) (40, 7.00666129589080810547e-01) (41, 5.57783484458923339844e-01) (42, 4.11202341318130493164e-01) (43, 9.26357746124267578125e-01) (44, 7.37590014934539794922e-01) (45, 8.50621104240417480469e-01) (46, 3.09033840894699096680e-01) (47, 7.05655157566070556641e-01) (48, 3.78748059272766113281e-01) (49, 7.25681364536285400391e-01) (50, 1.05611455440521240234e+00) (51, 1.11829864978790283203e+00) (52, 3.70556622743606567383e-01) (53, 9.15310233831405639648e-02) (54, 9.32383835315704345703e-01) (55, 7.35899329185485839844e-01) (56, 1.62417471408843994141e+00) (57, -5.39559125900268554688e-01) (58, 3.89785319566726684570e-01) (59, 1.55997967720031738281e+00) (60, 2.66583949327468872070e-01) (61, 2.12935715913772583008e-01) (62, -6.38979077339172363281e-02) (63, -7.41050899028778076172e-01) (64, 1.58991229534149169922e+00) (65, 1.52846121788024902344e+00) (66, 3.76602798700332641602e-01) (67, -3.11901479959487915039e-01) (68, -1.09587049484252929688e+00) (38, 7.63467848300933837891e-01) (39, -2.46800910681486129761e-02) (40, 6.56833291053771972656e-01) (41, 7.45856046676635742188e-01) (42, 9.73760664463043212891e-01) (43, -3.02156060934066772461e-01) (44, 3.17051947116851806641e-01) (45, -1.97996556758880615234e-01) (46, 1.32778957486152648926e-01) (47, -1.83190666139125823975e-02) (48, -5.95319747924804687500e-01) (49, 8.30567121505737304688e-01) (50, -5.61578094959259033203e-01) (51, 1.04946172237396240234e+00) (52, -9.75831449031829833984e-02) (53, 2.91380975395441055298e-02) (54, 9.97191190719604492188e-01) (55, -5.34572064876556396484e-01) (56, -6.23783767223358154297e-02) (57, 1.28171908855438232422e+00) (58, 4.87381607294082641602e-01) (59, 3.57410401105880737305e-01) (60, 2.00578689575195312500e-01) (61, -3.32230180501937866211e-02) (62, 2.87321984767913818359e-01) (63, 4.35979396104812622070e-01) (64, -2.95508444309234619141e-01) (65, 5.28958320617675781250e-01) (66, -2.75910586118698120117e-01) (67, 4.63451966643333435059e-02) (68, 2.22930714488029479980e-01) (38, 2.63882488012313842773e-01) (39, 6.44608318805694580078e-01) (40, -6.11753940582275390625e-01) (41, 1.10501360893249511719e+00) (42, -2.55208998918533325195e-01) (43, -1.04239299893379211426e-01) (44, -3.14725637435913085938e-01) (45, 3.81795436143875122070e-01) (46, 9.42454278469085693359e-01) (47, 7.60586082935333251953e-01) (48, -3.34701120853424072266e-01) (49, 6.77955269813537597656e-01) (50, 5.05029082298278808594e-01) (51, -1.64946123957633972168e-01) (52, 5.93723714351654052734e-01) (53, 2.70032323896884918213e-02) (54, 7.84508347511291503906e-01) (55, 9.71565917134284973145e-02) (56, 1.78365588188171386719e+00) (57, 3.33307176828384399414e-01) (58, -3.63309770822525024414e-01) (59, -3.24163287878036499023e-01) (60, -7.35885322093963623047e-01) (61, 5.77359318733215332031e-01) (62, 8.51913034915924072266e-01) (63, -8.84648084640502929688e-01) (64, 1.40327477455139160156e+00) (65, -6.48671984672546386719e-01) (66, -3.45985144376754760742e-01) (67, -1.08317703008651733398e-01) (68, 1.09086263179779052734e+00) (38, -5.13953089714050292969e-01) (39, -1.10954856872558593750e+00) (40, -2.11056873202323913574e-01) (41, 8.45642030239105224609e-01) (42, 2.13859438896179199219e-01) (43, 5.30570149421691894531e-01) (44, -4.57925051450729370117e-01) (45, 1.23957896232604980469e+00) (46, -2.20324307680130004883e-01) (47, 8.42506706714630126953e-01) (48, 2.38754689693450927734e-01) (49, 3.14505875110626220703e-01) (50, 5.71314275264739990234e-01) (51, 1.64147901535034179688e+00) (52, -5.73848187923431396484e-01) (53, 2.91206657886505126953e-01) (54, 5.87975442409515380859e-01) (55, 9.74912643432617187500e-01) (56, -5.83075582981109619141e-01) (57, 7.44813233613967895508e-02) (58, 2.16158106923103332520e-01) (59, -6.09263300895690917969e-01) (60, 4.11810696125030517578e-01) (61, -8.74869883060455322266e-01) (62, 8.52004289627075195312e-01) (63, 4.63664919137954711914e-01) (64, -6.35492444038391113281e-01) (65, -4.95020478963851928711e-01) (66, 2.28411570191383361816e-01) (67, -3.73214110732078552246e-02) (68, -8.89895856380462646484e-01) (38, 6.06102108955383300781e-01) (39, 3.61083410680294036865e-02) (40, 1.37714892625808715820e-01) (41, -3.17878633737564086914e-01) (42, -3.00877422094345092773e-01) (43, -3.00503075122833251953e-01) (44, -6.46604955196380615234e-01) (45, 7.85933256149291992188e-01) (46, -5.79358756542205810547e-01) (47, 1.15249288082122802734e+00) (48, 4.50389832258224487305e-01) (49, 8.49100828170776367188e-01) (50, 7.57005453109741210938e-01) (51, 2.52592712640762329102e-01) (52, 9.08443510532379150391e-01) (53, 9.79775249958038330078e-01) (54, -3.42846602201461791992e-01) (55, 8.07445049285888671875e-01) (56, -6.07320129871368408203e-01) (57, 3.53246390819549560547e-01) (58, 3.64227183163166046143e-02) (59, -7.18537032604217529297e-01) (60, -4.36667919158935546875e-01) (61, -2.09822401404380798340e-01) (62, -2.33910277485847473145e-01) (63, -9.56935822963714599609e-01) (64, 7.58737623691558837891e-01) (65, 6.46541491150856018066e-02) (66, -5.28018295764923095703e-01) (67, 8.58998179435729980469e-01) (68, 5.71238659322261810303e-02) (38, 1.04332339763641357422e+00) (39, -8.34356069564819335938e-01) (40, 3.00433099269866943359e-01) (41, 9.34377491474151611328e-01) (42, -5.27098834514617919922e-01) (43, -3.56634147465229034424e-02) (44, 1.28390693664550781250e+00) (45, 1.65927320718765258789e-01) (46, -5.62316477298736572266e-01) (47, 8.13253343105316162109e-01) (48, 8.12885072082281112671e-03) (49, 7.37714648246765136719e-01) (50, 6.44022881984710693359e-01) (51, 4.03757810592651367188e-01) (52, 7.48493373394012451172e-01) (53, -9.62022133171558380127e-03) (54, 1.71323511749505996704e-02) (55, 4.26780641078948974609e-01) (56, 5.48137009143829345703e-01) (57, 6.81754708290100097656e-01) (58, 5.27949333190917968750e-02) (59, 7.45124280452728271484e-01) (60, 2.29622691869735717773e-01) (61, -1.23177014291286468506e-01) (62, 1.07917082309722900391e+00) (63, -1.24622285366058349609e+00) (64, 1.24758803844451904297e+00) (65, -2.21278047561645507812e+00) (66, -5.20353376865386962891e-01) (67, -9.23882704228162765503e-03) (68, 1.09847269952297210693e-01) (38, -4.82527107000350952148e-01) (39, 7.43293285369873046875e-01) (40, -3.88447463512420654297e-01) (41, 9.10911113023757934570e-02) (42, 5.13293325901031494141e-01) (43, -1.28921046853065490723e-01) (44, 1.51224672794342041016e-01) (45, 6.62801086902618408203e-01) (46, 8.87963324785232543945e-02) (47, 9.56406056880950927734e-01) (48, 1.08408793807029724121e-01) (49, -4.06684488058090209961e-01) (50, 4.81678955256938934326e-02) (51, -7.40185976028442382812e-02) (52, 2.92962789535522460938e-01) (53, 1.22955143451690673828e+00) (54, 1.04548108577728271484e+00) (55, 7.18391835689544677734e-01) (56, -7.84319043159484863281e-01) (57, 7.90468275547027587891e-01) (58, 6.26895308494567871094e-01) (59, -2.34508797526359558105e-01) (60, 1.09655594825744628906e+00) (61, 6.05088584125041961670e-02) (62, -8.25431048870086669922e-01) (63, -3.37681800127029418945e-01) (64, 6.50415003299713134766e-01) (65, -7.03842997550964355469e-01) (66, -7.29676857590675354004e-02) (67, -1.28466236591339111328e+00) (68, -1.15779250860214233398e-01) (38, 2.73824930191040039062e-01) (39, 1.00020539760589599609e+00) (40, 9.86300289630889892578e-01) (41, 3.96199524402618408203e-01) (42, -1.84666380286216735840e-01) (43, -7.89609193801879882812e-01) (44, 2.44720086455345153809e-01) (45, -9.79182571172714233398e-02) (46, 4.67239290475845336914e-01) (47, 5.09797453880310058594e-01) (48, 4.34486657381057739258e-01) (49, 3.05800288915634155273e-01) (50, -8.36635887622833251953e-01) (51, 5.09997129440307617188e-01) (52, 1.71837890148162841797e+00) (53, 5.28196156024932861328e-01) (54, -5.52340075373649597168e-02) (55, 5.53888022899627685547e-01) (56, 5.15798091888427734375e-01) (57, 1.98466032743453979492e-01) (58, 1.83821469545364379883e-01) (59, 1.16902984678745269775e-01) (60, 1.06773063540458679199e-01) (61, 3.88649493455886840820e-01) (62, 9.36112046241760253906e-01) (63, -3.86430084705352783203e-01) (64, -1.81834027171134948730e-01) (65, 2.66887962818145751953e-01) (66, 8.00236701965332031250e-01) (67, 1.08520710468292236328e+00) (68, 3.93115580081939697266e-02) (38, 8.04541826248168945312e-01) (39, 2.69904643297195434570e-01) (40, -2.15815111994743347168e-01) (41, -3.52668352425098419189e-02) (42, -8.81472647190093994141e-01) (43, 5.24714410305023193359e-01) (44, -3.63770812749862670898e-01) (45, 6.97896301746368408203e-01) (46, 1.51457524299621582031e+00) (47, 1.48876261711120605469e+00) (48, -3.08301359415054321289e-01) (49, -1.37478604912757873535e-01) (50, 7.28652894496917724609e-01) (51, -2.55326449871063232422e-01) (52, -8.47662925720214843750e-01) (53, 6.85245215892791748047e-01) (54, 4.17505949735641479492e-01) (55, 3.71356964111328125000e-01) (56, 1.50128021836280822754e-01) (57, -1.63395300507545471191e-01) (58, -2.71074026823043823242e-01) (59, 1.38174951076507568359e+00) (60, 2.93284773826599121094e-01) (61, 8.43246400356292724609e-01) (62, 4.53525990247726440430e-01) (63, 4.35651630163192749023e-01) (64, -2.57652908563613891602e-01) (65, 2.21550948917865753174e-02) (66, -1.59083097241818904877e-03) (67, -5.17770886421203613281e-01) (68, 5.37114381790161132812e-01) (38, 6.87728643417358398438e-01) (39, 8.03581848740577697754e-02) (40, -6.23783648014068603516e-01) (41, 1.44776523113250732422e-01) (42, 6.51433706283569335938e-01) (43, -2.28665754199028015137e-01) (44, -3.64308416843414306641e-01) (45, -4.32833641767501831055e-01) (46, -3.51682782173156738281e-01) (47, -2.73277431726455688477e-01) (48, 4.36865061521530151367e-01) (49, 4.76715058088302612305e-01) (50, -3.47242295742034912109e-01) (51, 9.60222780704498291016e-01) (52, 7.33133852481842041016e-01) (53, 6.05674982070922851562e-01) (54, 4.83747452497482299805e-01) (55, -1.49545788764953613281e-01) (56, -1.86685435473918914795e-02) (57, 7.58483529090881347656e-01) (58, 8.77296566963195800781e-01) (59, -5.23096442222595214844e-01) (60, -2.21438229084014892578e-01) (61, 6.32017329335212707520e-02) (62, 7.44013369083404541016e-01) (63, -6.34337425231933593750e-01) (64, 4.35772016644477844238e-02) (65, -9.29893314838409423828e-01) (66, -5.98107576370239257812e-01) (67, -3.36686998605728149414e-01) (68, 1.58403885364532470703e+00) (38, 6.44760072231292724609e-01) (39, 6.10760211944580078125e-01) (40, 1.19913482666015625000e+00) (41, 8.57813775539398193359e-01) (42, -2.15363979339599609375e-01) (43, -1.40394300222396850586e-01) (44, -5.70399239659309387207e-02) (45, 1.38366535305976867676e-01) (46, -4.58802878856658935547e-01) (47, 1.53946548700332641602e-01) (48, -2.53023594617843627930e-01) (49, 6.39852166175842285156e-01) (50, -1.70287787914276123047e-01) (51, -1.26024925708770751953e+00) (52, 4.83827054500579833984e-01) (53, 1.19933879375457763672e+00) (54, -5.00767350196838378906e-01) (55, -1.02932715415954589844e+00) (56, 3.86533111333847045898e-01) (57, 1.35261461138725280762e-01) (58, 6.50942683219909667969e-01) (59, 3.73910903930664062500e-01) (60, 9.48690533638000488281e-01) (61, 9.67654287815093994141e-02) (62, -1.03727176785469055176e-01) (63, 1.36862456798553466797e-01) (64, 9.25607141107320785522e-03) (65, -6.74073338508605957031e-01) (66, 3.25064301490783691406e-01) (67, 1.57899275422096252441e-01) (68, -6.08292698860168457031e-01) (38, 1.82305365800857543945e-01) (39, -4.14615690708160400391e-01) (40, -1.54129290580749511719e+00) (41, -4.64519202709197998047e-01) (42, 3.98532420396804809570e-01) (43, 2.45185807347297668457e-01) (44, 1.60156011581420898438e-01) (45, 1.08843944966793060303e-01) (46, 9.72179651260375976562e-01) (47, 1.15267252922058105469e+00) (48, 5.58646500110626220703e-01) (49, 2.05982416868209838867e-01) (50, -3.18066149950027465820e-01) (51, 3.79813522100448608398e-01) (52, -6.80083870887756347656e-01) (53, -9.59566473960876464844e-01) (54, -7.11237311363220214844e-01) (55, -5.78811019659042358398e-02) (56, 6.91481649875640869141e-01) (57, 8.90680193901062011719e-01) (58, 1.89960622787475585938e+00) (59, 3.56304645538330078125e-01) (60, 4.11446481943130493164e-01) (61, -2.78242617845535278320e-01) (62, 8.09161186218261718750e-01) (63, 4.73882257938385009766e-01) (64, -6.00742502138018608093e-03) (65, -4.59383130073547363281e-02) (66, -3.89461368322372436523e-01) (67, 1.08939884230494499207e-02) (68, -1.98973536491394042969e-01) (38, 5.19809961318969726562e-01) (39, 2.42718178778886795044e-02) (40, -3.44650745391845703125e-01) (41, -8.68609786033630371094e-01) (42, -2.92436420917510986328e-01) (43, 2.39925727248191833496e-01) (44, 2.72666513919830322266e-01) (45, 1.72853872179985046387e-01) (46, -8.31213951110839843750e-01) (47, 2.36113071441650390625e-01) (48, 1.51632738113403320312e+00) (49, 2.39117950201034545898e-01) (50, -2.20634877681732177734e-01) (51, 1.79216504096984863281e-01) (52, 8.03479969501495361328e-01) (53, -4.11235094070434570312e-01) (54, 4.48758542537689208984e-01) (55, 1.20720219612121582031e+00) (56, 6.00095987319946289062e-01) (57, 5.03102779388427734375e-01) (58, 5.70027947425842285156e-01) (59, -5.62227547168731689453e-01) (60, 1.08515226840972900391e+00) (61, -3.77927064895629882812e-01) (62, 6.45817339420318603516e-01) (63, 7.18433022499084472656e-01) (64, 1.35054659843444824219e+00) (65, 9.15435791015625000000e-01) (66, 1.27219423651695251465e-01) (67, -5.78425824642181396484e-01) (68, -6.51322185993194580078e-01) (38, -9.04535427689552307129e-02) (39, 6.70645177364349365234e-01) (40, 3.89678597450256347656e-01) (41, -5.57513058185577392578e-01) (42, -3.75724494457244873047e-01) (43, -3.62135797739028930664e-01) (44, 6.71116411685943603516e-01) (45, 6.16914987564086914062e-01) (46, -5.56145727634429931641e-01) (47, 1.77015095949172973633e-01) (48, 6.01322688162326812744e-02) (49, 6.44876241683959960938e-01) (50, -2.11717963218688964844e-01) (51, -2.77666270732879638672e-01) (52, -5.99313378334045410156e-02) (53, -4.06296700239181518555e-01) (54, 5.28979301452636718750e-01) (55, 7.24594473838806152344e-01) (56, 7.81992673873901367188e-01) (57, -2.11232304573059082031e-01) (58, 2.02486425638198852539e-01) (59, 2.16431125998497009277e-01) (60, -9.97418999671936035156e-01) (61, 1.40948200225830078125e+00) (62, 1.95532515645027160645e-01) (63, 6.56402483582496643066e-02) (64, 4.62910622358322143555e-01) (65, 1.26499235630035400391e+00) (66, -1.02171599864959716797e+00) (67, -5.36645174026489257812e-01) (68, -3.02777677774429321289e-01) (38, -4.73300635814666748047e-01) (39, -5.53757727146148681641e-01) (40, 8.54552149772644042969e-01) (41, -8.46089422702789306641e-01) (42, 8.61293911933898925781e-01) (43, 5.23021340370178222656e-01) (44, 4.07323420047760009766e-01) (45, -4.04613688588142395020e-02) (46, -6.83925390243530273438e-01) (47, 1.27591753005981445312e+00) (48, -8.39409053325653076172e-01) (49, -7.25960850715637207031e-01) (50, 1.20989406108856201172e+00) (51, -5.89967429637908935547e-01) (52, 4.16878581047058105469e-01) (53, -7.10133790969848632812e-01) (54, 4.19102549552917480469e-01) (55, 2.64554530382156372070e-01) (56, -5.05715489387512207031e-01) (57, 7.95069932937622070312e-01) (58, -1.03512680530548095703e+00) (59, -1.65029183030128479004e-01) (60, 8.62179756164550781250e-01) (61, 5.64560532569885253906e-01) (62, -4.15566116571426391602e-01) (63, 5.38244128227233886719e-01) (64, -3.30987960100173950195e-01) (65, -4.59266334772109985352e-01) (66, 9.16401147842407226562e-01) (67, 7.96916365623474121094e-01) (68, 5.50075411796569824219e-01) (38, 1.01728940010070800781e+00) (39, 5.18594741821289062500e-01) (40, 7.33233243227005004883e-02) (41, -3.39938879013061523438e-01) (42, -1.23151861131191253662e-01) (43, -6.19504451751708984375e-01) (44, 1.19062817096710205078e+00) (45, 6.06722712516784667969e-01) (46, 2.28753876686096191406e+00) (47, 5.10861515998840332031e-01) (48, 1.18092381954193115234e+00) (49, 2.06359282135963439941e-01) (50, -3.49769860506057739258e-01) (51, -1.14144392311573028564e-01) (52, -6.00006341934204101562e-01) (53, 7.58151948451995849609e-01) (54, 5.99972605705261230469e-01) (55, 2.19635277986526489258e-01) (56, 5.57295739650726318359e-01) (57, 3.54769885540008544922e-01) (58, 8.81101906299591064453e-01) (59, -3.07145506143569946289e-01) (60, 1.73540246486663818359e+00) (61, -2.56262212991714477539e-01) (62, -7.01767444610595703125e-01) (63, 6.79708480834960937500e-01) (64, 1.71763992309570312500e+00) (65, 5.08592188358306884766e-01) (66, -2.24766746163368225098e-01) (67, -1.39188528060913085938e-01) (68, 9.17105376720428466797e-01) (38, -2.22744598984718322754e-01) (39, 9.32271122932434082031e-01) (40, -4.80638206005096435547e-01) (41, -1.85894116759300231934e-01) (42, -3.20486307144165039062e-01) (43, -2.94262673705816268921e-02) (44, -3.25830280780792236328e-01) (45, -1.02763426303863525391e+00) (46, -4.71366852521896362305e-01) (47, 7.98319816589355468750e-01) (48, 3.82933765649795532227e-01) (49, 4.59399372339248657227e-01) (50, -9.00194570422172546387e-02) (51, 5.84900557994842529297e-01) (52, 1.11608731746673583984e+00) (53, -2.59134352207183837891e-01) (54, 3.97860884666442871094e-01) (55, -2.13400349020957946777e-01) (56, -8.34410071372985839844e-01) (57, -1.70811668038368225098e-01) (58, 1.06410801410675048828e+00) (59, -7.56148457527160644531e-01) (60, 7.03947544097900390625e-01) (61, -3.17002207040786743164e-01) (62, -1.51481240987777709961e-01) (63, 3.85186225175857543945e-01) (64, -3.49049657583236694336e-01) (65, 9.96364295482635498047e-01) (66, -6.27470135688781738281e-01) (67, 4.13053125143051147461e-01) (68, 1.10258710384368896484e+00) (69, -4.53222632408142089844e-01) (70, -2.00428619980812072754e-01) (71, -8.00217017531394958496e-02) (72, 3.97572249174118041992e-01) (73, -4.49253618717193603516e-02) (74, 2.26233199238777160645e-01) (75, 5.27823030948638916016e-01) (76, 2.60653823614120483398e-01) (77, 4.69926029443740844727e-01) (78, 4.31098043918609619141e-01) (79, 2.43088051676750183105e-01) (80, 2.79047966003417968750e-01) (81, -2.56384670734405517578e-01) (82, 3.07843238115310668945e-01) (83, 2.60561645030975341797e-01) (84, -5.81992864608764648438e-01) (85, -2.06542968750000000000e-01) (86, -8.96653532981872558594e-02) (87, 1.40339866280555725098e-01) (88, -9.62860733270645141602e-02) (89, 5.96309423446655273438e-01) (90, -4.62433993816375732422e-01) (91, -2.08537206053733825684e-01) (92, -3.18598717451095581055e-01) (93, -9.72791463136672973633e-02) (94, 5.20025968551635742188e-01) (95, -6.84440657496452331543e-02) (96, 1.86448395252227783203e-01) (97, 1.82697907090187072754e-01) (98, 1.37167587876319885254e-01) (99, 8.49321484565734863281e-03) (69, -3.37054058909416198730e-02) (70, -9.20834615826606750488e-02) (71, -1.17668941617012023926e-01) (72, -5.36408841609954833984e-01) (73, 5.60360491275787353516e-01) (74, 7.73773849010467529297e-01) (75, 5.22207200527191162109e-01) (76, -4.64632362127304077148e-01) (77, 8.76147270202636718750e-01) (78, 5.01619935035705566406e-01) (79, 2.76702642440795898438e-01) (80, 3.87471735477447509766e-01) (81, -4.88268464803695678711e-01) (82, -2.52645641565322875977e-01) (83, -2.65801548957824707031e-01) (84, 3.12588959932327270508e-01) (85, -7.56293714046478271484e-01) (86, -4.09681767225265502930e-01) (87, -3.82800996303558349609e-02) (88, -6.24179065227508544922e-01) (89, -1.23307071626186370850e-01) (90, 4.49773967266082763672e-01) (91, 1.21102958917617797852e-01) (92, 3.45241218805313110352e-01) (93, -6.19680956006050109863e-02) (94, 8.35303187370300292969e-01) (95, 7.02231705188751220703e-01) (96, 1.95486932992935180664e-01) (97, 1.61263361573219299316e-01) (98, 8.10727357864379882812e-01) (99, -5.54380059242248535156e-01) (69, -7.28729009628295898438e-01) (70, 3.37225377559661865234e-01) (71, 6.03385567665100097656e-01) (72, -4.77350085973739624023e-01) (73, 6.37532591819763183594e-01) (74, 2.24939793348312377930e-01) (75, -2.09729731082916259766e-01) (76, 9.09813165664672851562e-01) (77, -3.88542592525482177734e-01) (78, 7.00394734740257263184e-02) (79, 3.00927281379699707031e-01) (80, 2.64251053333282470703e-01) (81, -1.67757704854011535645e-01) (82, 1.05301010608673095703e+00) (83, 4.62722450494766235352e-01) (84, 1.13457119464874267578e+00) (85, -8.36466073989868164062e-01) (86, -2.95762747526168823242e-01) (87, 1.82163760066032409668e-01) (88, 4.52033523470163345337e-03) (89, -6.60779953002929687500e-01) (90, 1.84114441275596618652e-01) (91, -8.64085137844085693359e-01) (92, 9.92717742919921875000e-02) (93, -5.95371723175048828125e-01) (94, 1.32355809211730957031e+00) (95, 4.11480575799942016602e-01) (96, 5.89258491992950439453e-01) (97, -3.68826389312744140625e-02) (98, 5.24253427982330322266e-01) (99, 1.15275764465332031250e+00) (69, 6.19108080863952636719e-02) (70, -4.77721244096755981445e-02) (71, -1.36266708374023437500e-01) (72, 3.78258913755416870117e-01) (73, -1.76831409335136413574e-01) (74, 8.81039083003997802734e-01) (75, 4.01677995920181274414e-01) (76, -8.85834634304046630859e-01) (77, -8.98522511124610900879e-02) (78, 6.42567873001098632812e-01) (79, 3.93950819969177246094e-01) (80, 3.76448512077331542969e-01) (81, -4.52583342790603637695e-01) (82, 4.10475701093673706055e-01) (83, -1.23597338795661926270e-01) (84, -6.26377284526824951172e-01) (85, 8.44516813755035400391e-01) (86, -5.58492064476013183594e-01) (87, -1.36574432253837585449e-01) (88, 1.99286248534917831421e-02) (89, 6.59245789051055908203e-01) (90, -4.57576602697372436523e-01) (91, 6.17882013320922851562e-02) (92, 8.86913478374481201172e-01) (93, 3.20438832044601440430e-01) (94, 2.64669120311737060547e-01) (95, 2.52227157354354858398e-01) (96, 8.72799456119537353516e-01) (97, 2.70295381546020507812e-01) (98, 8.44121515750885009766e-01) (99, -2.05628633499145507812e-01) (69, -3.14182966947555541992e-01) (70, -1.34856891632080078125e+00) (71, 1.61075010895729064941e-01) (72, -3.80198091268539428711e-01) (73, -4.59605216979980468750e-01) (74, 9.99941706657409667969e-01) (75, -5.35138428211212158203e-01) (76, -1.20202243328094482422e-01) (77, 1.06643363833427429199e-01) (78, 2.96276658773422241211e-01) (79, 2.44161784648895263672e-01) (80, 7.06190615892410278320e-02) (81, 5.75222223997116088867e-02) (82, -1.77666902542114257812e-01) (83, -3.38141232728958129883e-01) (84, 1.49355575442314147949e-01) (85, -4.63561624288558959961e-01) (86, -4.94185715913772583008e-01) (87, -4.16352629661560058594e-01) (88, 3.97740513086318969727e-01) (89, 5.23040831089019775391e-01) (90, 5.75992763042449951172e-01) (91, -3.22644829750061035156e-01) (92, 5.49564599990844726562e-01) (93, 8.28341424465179443359e-01) (94, 4.12248611450195312500e-01) (95, -2.03329473733901977539e-01) (96, 1.05281364917755126953e+00) (97, 3.58354076743125915527e-02) (98, 8.86242866516113281250e-01) (99, 6.66968524456024169922e-01) (69, 5.60993790626525878906e-01) (70, -7.21547186374664306641e-01) (71, 3.68808746337890625000e-01) (72, 6.84199452400207519531e-01) (73, -1.36864632368087768555e-01) (74, 1.84607803821563720703e-01) (75, 7.35524594783782958984e-01) (76, 3.07038635015487670898e-01) (77, 5.20432233810424804688e-01) (78, 1.31383255124092102051e-01) (79, -8.02392899990081787109e-01) (80, 1.34483587741851806641e+00) (81, 7.97149777412414550781e-01) (82, -4.85634207725524902344e-01) (83, 5.26982724666595458984e-01) (84, 4.87051196396350860596e-02) (85, -9.92199361324310302734e-01) (86, 7.48979225754737854004e-02) (87, 7.63958394527435302734e-01) (88, 4.72629904747009277344e-01) (89, -3.18215012550354003906e-01) (90, -7.65848219394683837891e-01) (91, -7.29578495025634765625e-01) (92, 3.64662766456604003906e-01) (93, -5.85525691509246826172e-01) (94, 1.04462814331054687500e+00) (95, 7.56125926971435546875e-01) (96, 3.33182930946350097656e-01) (97, -5.63140511512756347656e-01) (98, 6.71202182769775390625e-01) (99, 1.55558228492736816406e-01)
input_names='in1_eps' 'in2_q' 'in3_nu' 'in4_n2' 'in5_t2' 'in6_geo'
output_names='OUT_cne' 'OUT_cni1' 'OUT_cni2' 'OUT_cte' 'OUT_cti1' 'OUT_cti2'
norm_output=0.0 0.0 0.0 0.0 0.0 0.0 0.0 0.0 0.0 0.0 0.0 0.0 0.0 0.0 0.0 0.0 0.0 0.0 0.0 0.0 0.0 0.0 0.0 0.0 0.0 0.0 0.0 0.0 0.0 0.0 0.0 0.0 0.0 0.0 0.0 0.0
MSE= 0.00203855684958